<?xml version="1.0"?>
<opencv_storage>
<opencv_ml_lr>
  <format>3</format>
  <classifier>"Logisitic Regression Classifier"</classifier>
  <alpha>2.9999999999999999e-01</alpha>
  <iterations>150</iterations>
  <norm>1</norm>
  <train_method>0</train_method>
  <learnt_thetas type_id="opencv-matrix">
    <rows>1</rows>
    <cols>299</cols>
    <dt>f</dt>
    <data>
      -9.99288386e-05 2.44377816e-07 4.50604512e-06 3.21562766e-06
      9.54674124e-06 4.96751409e-06 1.12167654e-05 1.14346358e-05
      1.46418633e-05 1.92005555e-05 1.38467476e-05 1.70227959e-05
      1.29196478e-05 1.94822169e-05 2.14036208e-05 1.81070391e-05
      2.58999225e-05 1.96859273e-05 3.14860590e-05 3.34119431e-05
      2.76359006e-05 3.00008978e-05 2.72819580e-05 3.30047878e-05
      3.20466170e-05 3.14525605e-05 2.84162816e-05 2.79232227e-05
      2.98915711e-05 2.69675602e-05 3.52426468e-05 2.91056076e-05
      2.59051794e-05 2.85544338e-05 2.15823147e-05 3.18163184e-05
      3.09687530e-05 4.02739061e-05 3.76243515e-05 3.22862579e-05
      3.69069421e-05 2.37230506e-05 2.39768542e-05 1.73012413e-05
      1.86716388e-05 2.06880777e-05 3.12455122e-05 3.69172449e-05
      2.77456584e-05 3.11636977e-05 2.81391694e-05 2.03461223e-05
      2.15251275e-05 1.71856482e-05 2.36707619e-05 2.17790457e-05
      2.79715914e-05 2.91761389e-05 2.98569648e-05 3.14816789e-05
      1.98838788e-05 2.23924017e-05 1.88684990e-05 2.34391973e-05
      2.06700188e-05 2.08922356e-05 2.76854826e-05 2.25930289e-05
      2.91783344e-05 2.56654948e-05 2.43526174e-05 2.20007041e-05
      1.32143350e-05 2.18524820e-05 1.45435652e-05 8.79626441e-06
      1.32552022e-05 1.98835951e-05 2.78376901e-05 2.71414974e-05
      3.31454248e-05 2.72073721e-05 1.85859662e-05 1.87248443e-05
      8.66472783e-06 1.79101571e-05 1.78131104e-05 3.09958377e-05
      3.11350341e-05 2.61678724e-05 3.06134498e-05 1.77587026e-05
      1.75655205e-05 1.02142330e-05 1.49471862e-05 1.83478496e-05
      1.77659222e-05 2.41113084e-05 2.04286644e-05 1.66891969e-05
      1.40583988e-05 2.06700970e-05 1.97094487e-05 1.32337973e-05
      2.42623792e-05 1.98067974e-05 1.88570648e-05 1.76288886e-05
      1.46772190e-05 2.38631237e-05 1.98284124e-05 2.91787019e-05
      2.31044323e-05 1.67560192e-05 2.21143946e-05 1.88315262e-05
      1.54532026e-05 5.87993100e-06 1.52176144e-05 1.17566678e-05
      1.05422805e-05 1.73291864e-05 9.95547816e-06 1.47057408e-05
      7.27279348e-06 7.91950060e-06 4.91848141e-06 2.25733925e-06
      4.99356793e-06 -9.03333444e-07 3.05940512e-06 -3.88766784e-06
      -6.57691453e-06 -3.94182462e-06 -7.68644531e-06 -1.39545307e-06
      -6.78056540e-06 -6.84765746e-06 -9.19121339e-06 -9.48965862e-06
      -4.73767022e-06 -8.34784532e-06 -4.57900933e-06 -8.86488579e-06
      -8.18120589e-06 -6.55874373e-06 -8.60820637e-06 -4.37070548e-06
      -8.66295522e-06 -5.78412073e-06 5.89210231e-06 1.23343179e-05
      1.16763740e-05 2.23460538e-05 1.74106281e-05 1.57861723e-05
      1.52313069e-05 2.33610335e-05 2.96973849e-05 2.22380895e-05
      2.94744787e-05 2.62049416e-05 3.13647288e-05 3.63940017e-05
      2.88909978e-05 4.38384923e-05 3.97679141e-05 4.71715248e-05
      4.77255635e-05 4.42486889e-05 4.26863844e-05 3.29043069e-05
      3.66464737e-05 3.78313016e-05 3.95342940e-05 3.87439650e-05
      4.14068527e-05 3.73204275e-05 2.42437654e-05 2.61511868e-05
      1.68883853e-05 1.38024325e-05 2.55614068e-05 2.16420613e-05
      3.00859592e-05 2.31524136e-05 1.65931997e-05 1.24350372e-05
      4.98372083e-06 9.51714082e-06 2.94419510e-06 6.04764637e-06
      2.13240969e-06 8.23332448e-06 8.03625153e-06 5.81639642e-06
      1.09468765e-05 1.53079759e-06 1.05525351e-05 8.85170357e-06
      6.25301072e-06 9.39510119e-06 4.08977894e-06 6.89637000e-06
      1.38919893e-06 2.01482590e-06 2.60210663e-06 7.05812909e-06
      1.11090440e-05 3.79071639e-06 4.77393451e-06 5.49755441e-07
      -2.70936425e-07 2.04787148e-06 -7.64144374e-07 8.28570410e-06
      1.35741288e-06 7.34191872e-06 5.92005199e-06 7.80206847e-06
      6.62628690e-06 -1.14453451e-06 2.89372201e-06 -2.49256141e-06
      -1.88087904e-06 3.94548852e-06 4.73048203e-06 6.93827360e-06
      2.37110370e-07 3.22225810e-06 -1.38521193e-06 -1.83355530e-06
      3.46312135e-07 1.94787475e-07 6.43453859e-06 4.38535426e-06
      1.12679054e-05 7.88301986e-06 6.27253394e-06 8.63982314e-06
      -6.15024078e-07 4.44026136e-06 1.37532834e-06 3.63264394e-06
      6.19859384e-06 1.38639484e-06 8.52316407e-06 8.50044671e-06
      5.76422099e-06 2.65969152e-06 8.84313067e-06 1.24238704e-05
      9.46888122e-06 1.76149879e-05 1.29036298e-05 1.66772297e-05
      1.66407117e-05 1.96037090e-05 3.11677068e-05 2.96376638e-05
      3.80502206e-05 3.40757942e-05 4.51812048e-05 4.91627361e-05
      5.21215443e-05 5.36064181e-05 4.05890642e-05 4.40020485e-05
      3.96088872e-05 3.81765167e-05 3.96368996e-05 3.65441338e-05
      4.51196902e-05 4.02208316e-05 4.32226407e-05 4.49239778e-05
      4.70764353e-05 5.14559397e-05 3.61384264e-05 3.99765704e-05
      3.19414721e-05 2.40465179e-05 2.50011635e-05 1.66831887e-05
      2.24296618e-05 1.42548852e-05 8.85318150e-06 1.87639387e-06
      -1.91062259e-06 2.73428941e-06 -4.76720652e-06 2.37808513e-06
      -1.49363882e-06 -4.68382859e-06 -4.09797622e-06 -7.80107530e-06
      -3.42739963e-06 -7.15295482e-06 -3.97250369e-06</data></learnt_thetas>
  <n_labels type_id="opencv-matrix">
    <rows>2</rows>
    <cols>1</cols>
    <dt>i</dt>
    <data>
      0 1</data></n_labels>
  <o_labels type_id="opencv-matrix">
    <rows>2</rows>
    <cols>1</cols>
    <dt>i</dt>
    <data>
      0 1</data></o_labels></opencv_ml_lr>
</opencv_storage>
