<?xml version="1.0"?>
<opencv_storage>
<opencv_ml_lr>
  <format>3</format>
  <classifier>"Logisitic Regression Classifier"</classifier>
  <alpha>3000.</alpha>
  <iterations>14400</iterations>
  <norm>1</norm>
  <train_method>0</train_method>
  <learnt_thetas type_id="opencv-matrix">
    <rows>1</rows>
    <cols>2550</cols>
    <dt>f</dt>
    <data>
      -3.02614784e+00 5.86093031e-02 6.41442686e-02 5.42891808e-02
      1.19278774e-01 1.66239649e-01 2.08112478e-01 2.39821449e-01
      3.02563399e-01 3.35980535e-01 2.81384349e-01 1.61708385e-01
      1.49000317e-01 1.66898146e-01 1.90157101e-01 1.97596550e-01
      2.25034103e-01 2.52201140e-01 3.22639734e-01 3.72709543e-01
      2.54796326e-01 2.58962601e-01 2.52318501e-01 2.01248646e-01
      2.26283342e-01 2.40476742e-01 2.32566357e-01 2.68533736e-01
      2.16038287e-01 2.23448634e-01 2.73950905e-01 2.56441861e-01
      2.31353000e-01 2.34361649e-01 2.38622904e-01 2.36382991e-01
      2.31970906e-01 3.09151173e-01 3.13592076e-01 2.70451725e-01
      2.46743470e-01 1.40194297e-01 1.81881249e-01 1.81290403e-01
      2.23623246e-01 2.16790438e-01 2.61881679e-01 3.15517873e-01
      2.70380408e-01 2.04350322e-01 2.01203510e-01 1.54900402e-01
      1.61190629e-01 1.42993242e-01 2.41320223e-01 2.70853519e-01
      2.92539090e-01 2.97527790e-01 1.84380516e-01 1.79760367e-01
      1.65873557e-01 1.27551734e-01 1.53562188e-01 2.03667551e-01
      2.31386110e-01 2.27416456e-01 2.39763349e-01 2.36359388e-01
      2.25936949e-01 2.27248147e-01 2.24878579e-01 1.89891309e-01
      1.58078492e-01 1.72887295e-01 1.85229495e-01 7.80272484e-02
      9.85446125e-02 1.85020387e-01 1.93070799e-01 2.16801465e-01
      2.58578122e-01 2.36411616e-01 1.91391841e-01 1.47840112e-01
      1.06660388e-01 6.47282898e-02 8.66793618e-02 2.06701905e-01
      2.16928363e-01 2.68743247e-01 2.82333761e-01 2.67092884e-01
      2.32402906e-01 1.71662793e-01 1.90200165e-01 1.66915894e-01
      1.90914348e-01 2.23025233e-01 1.84984580e-01 2.30635405e-01
      2.02033132e-01 1.60586432e-01 1.67046145e-01 1.38686657e-01
      1.92563042e-01 1.83189645e-01 1.68819219e-01 1.93975702e-01
      1.88444048e-01 2.43420020e-01 2.15728462e-01 2.47005537e-01
      2.46627629e-01 1.98975712e-01 2.32512891e-01 1.92356020e-01
      1.42248765e-01 1.07303001e-01 1.56649888e-01 1.70215130e-01
      1.16835907e-01 1.29250243e-01 1.07929252e-01 8.37833732e-02
      9.59590822e-02 7.47646168e-02 6.27712607e-02 7.44671822e-02
      3.80579159e-02 5.70352785e-02 3.62504683e-02 2.17406638e-02
      1.70451887e-02 -3.64629435e-03 7.80648086e-03 1.76373491e-04
      3.36469407e-03 -7.78801739e-04 -1.33889001e-02 2.31196242e-03
      -2.62843575e-02 -1.07935378e-02 -4.27093357e-03 -1.53445285e-02
      1.42408267e-03 -1.34931104e-02 -1.51960710e-02 -3.34816724e-02
      -1.18198181e-02 -3.15402597e-02 1.77148923e-01 2.17202663e-01
      1.89446568e-01 2.51644164e-01 2.14602575e-01 1.66753069e-01
      1.79725245e-01 2.20049575e-01 2.21221864e-01 1.55323461e-01
      1.31425261e-01 1.57262281e-01 1.60887331e-01 1.81520253e-01
      1.50110021e-01 1.95668608e-01 2.19552264e-01 2.17856884e-01
      2.45929673e-01 2.06395745e-01 1.94529071e-01 2.02176318e-01
      1.86404601e-01 2.38205448e-01 2.05142617e-01 1.87821180e-01
      2.39317521e-01 1.75212190e-01 1.48876861e-01 1.30577475e-01
      1.07275806e-01 1.17676683e-01 1.31095335e-01 1.46953851e-01
      1.61272854e-01 1.56914160e-01 1.22962780e-01 8.82704258e-02
      6.71843290e-02 5.22638522e-02 4.80817221e-02 7.07478970e-02
      6.40178993e-02 7.08137825e-02 5.08287624e-02 6.92606196e-02
      8.19767714e-02 4.16344181e-02 9.67331231e-02 8.85578915e-02
      4.82660867e-02 6.62281960e-02 6.75120577e-02 6.37578815e-02
      5.35159223e-02 3.53850760e-02 5.73751293e-02 8.18412229e-02
      8.58516321e-02 6.62202314e-02 1.84940193e-02 5.51261120e-02
      1.02651271e-03 2.15748735e-02 1.41063891e-02 3.07319015e-02
      4.92856652e-02 3.88257466e-02 5.73141836e-02 9.16251764e-02
      5.84957637e-02 3.44880261e-02 9.47840791e-03 2.60317903e-02
      1.20345904e-02 1.38754519e-02 7.82456920e-02 4.08486389e-02
      4.65201028e-02 1.97527427e-02 2.32686009e-02 2.35923957e-02
      1.19491071e-02 5.70858717e-02 3.10132969e-02 3.67372297e-02
      6.80694282e-02 6.04489483e-02 1.15459621e-01 9.41438600e-02
      4.89920117e-02 7.09690303e-02 6.68553635e-02 8.59868973e-02
      7.10312650e-02 7.53551573e-02 1.11984737e-01 1.35753214e-01
      1.30034834e-01 1.11112550e-01 1.51491284e-01 1.70091748e-01
      1.57155186e-01 2.02710137e-01 1.79214746e-01 1.45589724e-01
      1.72233358e-01 2.96358287e-01 4.49639916e-01 5.52495241e-01
      5.67716241e-01 5.50297558e-01 5.79075038e-01 6.03852749e-01
      6.18519068e-01 4.86856133e-01 2.85930097e-01 3.19051892e-01
      3.44329000e-01 3.97105962e-01 3.91980499e-01 3.67295563e-01
      3.98269057e-01 4.11691308e-01 3.88273776e-01 4.00287122e-01
      4.55446064e-01 4.36234534e-01 3.78809988e-01 3.60090643e-01
      3.20224434e-01 2.41425291e-01 2.02134773e-01 1.80342555e-01
      1.72819555e-01 1.59810007e-01 9.76944417e-02 5.63342236e-02
      4.40260842e-02 1.93045586e-02 9.06890072e-03 4.92013544e-02
      4.07980680e-02 2.67223399e-02 3.11343139e-03 -1.22986948e-02
      -2.06173863e-02 1.04461901e-03 -5.35853719e-03 -2.99273324e+00
      5.19773923e-03 -9.09916312e-02 1.48004293e-01 7.35069066e-03
      3.42383422e-02 2.70376205e-02 -2.19730008e-02 1.18103065e-02
      -1.68393808e-03 2.62501612e-02 -2.01725936e-03 1.69163314e-03
      1.81105410e-04 3.73445009e-03 1.54903708e-02 7.64310826e-03
      -8.92118961e-02 1.45339727e-01 8.32460262e-03 3.34625505e-02
      2.55236458e-02 -2.14771908e-02 1.15750041e-02 -2.13920884e-03
      2.54584923e-02 -1.76987099e-03 1.62161689e-03 3.04324276e-05
      3.51253012e-03 1.50276544e-02 9.74025577e-03 -8.76372978e-02
      1.42488718e-01 9.22732055e-03 3.26142497e-02 2.39725523e-02
      -2.10020058e-02 1.13184080e-02 -2.60225730e-03 2.46481076e-02
      -1.52711011e-03 1.54666288e-03 -1.18076197e-04 3.29284021e-03
      1.45352427e-02 1.09320749e-02 -8.67342800e-02 1.39209643e-01
      9.76528041e-03 3.15220952e-02 2.22406946e-02 -2.07086261e-02
      1.09438263e-02 -3.14273080e-03 2.36800425e-02 -1.37313525e-03
      1.41665898e-03 -2.97953986e-04 3.02349869e-03 1.39043611e-02
      1.47503112e-02 -8.42172876e-02 1.36068806e-01 1.10337157e-02
      3.05853430e-02 2.03285571e-02 -2.01331973e-02 1.06434152e-02
      -3.72769707e-03 2.24999841e-02 -1.12702674e-03 1.31036330e-03
      -4.88886086e-04 2.68164859e-03 1.31123457e-02 2.05845684e-02
      -8.03290382e-02 1.33041009e-01 1.30189350e-02 2.97986027e-02
      1.83040891e-02 -1.92290694e-02 1.04298219e-02 -4.32933448e-03
      2.12169830e-02 -7.42015254e-04 1.24381715e-03 -6.77080941e-04
      2.30640825e-03 1.22567900e-02 2.49144752e-02 -7.73084983e-02
      1.31038740e-01 1.45711116e-02 2.94083152e-02 1.68621112e-02
      -1.85239911e-02 1.03673125e-02 -4.68020095e-03 2.03061011e-02
      -4.43184428e-04 1.23543071e-03 -7.62128853e-04 2.07628356e-03
      1.16715319e-02 2.92727295e-02 -7.40501061e-02 1.29108146e-01
      1.63918342e-02 2.91106068e-02 1.54974572e-02 -1.76166892e-02
      1.03820572e-02 -4.99004824e-03 1.94750875e-02 -1.78291048e-05
      1.27876701e-03 -8.23272974e-04 1.87617145e-03 1.11591239e-02
      3.46455164e-02 -6.97377548e-02 1.26702517e-01 1.89799946e-02
      2.87704580e-02 1.36555703e-02 -1.62333231e-02 1.04471548e-02
      -5.42568509e-03 1.82457864e-02 6.76448108e-04 1.37265481e-03
      -9.11940704e-04 1.56138267e-03 1.03582861e-02 3.87699157e-02
      -6.60624504e-02 1.24608226e-01 2.14210451e-02 2.85245534e-02
      1.20514678e-02 -1.48011157e-02 1.05668074e-02 -5.78688458e-03
      1.71601214e-02 1.45958352e-03 1.50542217e-03 -9.70567169e-04
      1.29313278e-03 9.64704715e-03 4.10558768e-02 -6.35880232e-02
      1.23243943e-01 2.33185105e-02 2.84979194e-02 1.07797654e-02
      -1.35612246e-02 1.07625490e-02 -6.03085803e-03 1.61912348e-02
      2.19768635e-03 1.67100166e-03 -9.84665239e-04 1.06716144e-03
      8.96524452e-03 3.97548564e-02 -6.42746985e-02 1.21565349e-01
      2.31276751e-02 2.80675814e-02 9.43495240e-03 -1.35466559e-02
      1.06736887e-02 -6.36209734e-03 1.52147152e-02 2.26202304e-03
      1.66774914e-03 -1.05790992e-03 8.24584509e-04 8.27249140e-03
      3.63690592e-02 -6.66941777e-02 1.19610548e-01 2.18026880e-02
      2.74165962e-02 8.05614050e-03 -1.42067345e-02 1.04389833e-02
      -6.72555389e-03 1.42579367e-02 1.94680842e-03 1.57741446e-03
      -1.15480588e-03 5.87518152e-04 7.58983474e-03 3.31503563e-02
      -6.82781562e-02 1.16835393e-01 2.13422552e-02 2.64134556e-02
      6.15721988e-03 -1.42248748e-02 1.01056164e-02 -7.33230077e-03
      1.29678678e-02 2.04189797e-03 1.48161547e-03 -1.34999468e-03
      1.91537227e-04 6.70392718e-03 2.96635479e-02 -7.00152740e-02
      1.14110649e-01 2.08097994e-02 2.54539344e-02 4.28041816e-03
      -1.42777506e-02 9.78638232e-03 -7.90027529e-03 1.16789686e-02
      2.11991114e-03 1.38654222e-03 -1.52731803e-03 -1.72443615e-04
      5.80823328e-03 2.42291875e-02 -7.36279115e-02 1.11405186e-01
      1.88941602e-02 2.43623666e-02 2.55593541e-03 -1.52354715e-02
      9.30502173e-03 -8.39325786e-03 1.04718991e-02 1.64666632e-03
      1.16035691e-03 -1.68711937e-03 -4.68963059e-04 4.94901929e-03
      1.93660483e-02 -7.69056156e-02 1.09051123e-01 1.71288736e-02
      2.33992692e-02 9.42529354e-04 -1.61325540e-02 8.88045598e-03
      -8.84570181e-03 9.31080617e-03 1.19753589e-03 9.64850420e-04
      -1.83170591e-03 -7.55094632e-04 4.12986940e-03 1.55475326e-02
      -7.95506388e-02 1.06961995e-01 1.56432223e-02 2.25732736e-02
      -5.08041470e-04 -1.69180222e-02 8.52081832e-03 -9.24814865e-03
      8.28600302e-03 7.93184387e-04 8.02166061e-04 -1.96108129e-03
      -1.00428460e-03 3.41379317e-03 1.36459004e-02 -8.13393593e-02
      1.05008654e-01 1.44437468e-02 2.19578482e-02 -2.23175716e-03
      -1.76260807e-02 8.28645751e-03 -9.66977328e-03 6.96593570e-03
      3.99498647e-04 7.01209705e-04 -2.07419903e-03 -1.31507742e-03
      2.45759753e-03 1.26927542e-02 -8.23520347e-02 1.03130586e-01
      1.37926685e-02 2.14985497e-02 -3.99163179e-03 -1.79783627e-02
      8.17525573e-03 -1.00719109e-02 5.60865132e-03 2.23330571e-04
      6.80431549e-04 -2.16471311e-03 -1.63272768e-03 1.49403454e-03
      1.52544314e-02 -8.18433389e-02 1.02665462e-01 1.35191791e-02
      2.17434298e-02 -5.36340009e-03 -1.83326751e-02 8.33948236e-03
      -1.02889361e-02 4.38215770e-03 -2.60215747e-05 7.54162727e-04
      -2.18049204e-03 -1.90612639e-03 6.32060517e-04 1.70113705e-02
      -8.15398097e-02 1.01997629e-01 1.33252107e-02 2.18657851e-02
      -6.64783968e-03 -1.85421910e-02 8.46035313e-03 -1.05205579e-02
      3.31265666e-03 -1.51417960e-04 8.21052236e-04 -2.21005152e-03
      -2.15455052e-03 -9.93429130e-05 1.74477529e-02 -8.18140656e-02
      1.00967020e-01 1.29990168e-02 2.17102915e-02 -7.80260842e-03
      -1.87252983e-02 8.44815094e-03 -1.07807014e-02 2.47914321e-03
      -2.18530375e-04 8.34712759e-04 -2.26957584e-03 -2.36139121e-03
      -6.43319101e-04 1.96270198e-02 -8.05606544e-02 9.97128859e-02
      1.35953538e-02 2.15577707e-02 -9.12455097e-03 -1.84322242e-02
      8.47384334e-03 -1.11104222e-02 1.59039325e-03 -6.06493777e-05
      8.74409918e-04 -2.35281535e-03 -2.60716304e-03 -1.18557771e-03
      2.42610294e-02 -7.75290132e-02 9.82181057e-02 1.51739102e-02
      2.15094015e-02 -1.07389241e-02 -1.76491756e-02 8.60699546e-03
      -1.14859454e-02 5.08251542e-04 3.28506751e-04 9.78103722e-04
      -2.43181805e-03 -2.89714965e-03 -1.83308427e-03 3.07374373e-02
      -7.36654028e-02 9.69543532e-02 1.69879477e-02 2.16013119e-02
      -1.21976994e-02 -1.68607030e-02 8.78821965e-03 -1.17847426e-02
      -4.80529416e-04 6.61881291e-04 1.08785811e-03 -2.48230901e-03
      -3.14612547e-03 -2.42563081e-03 3.67593355e-02 -6.98420554e-02
      9.54279453e-02 1.89101659e-02 2.15560272e-02 -1.35670220e-02
      -1.59678664e-02 8.92956555e-03 -1.20995520e-02 -1.35143043e-03
      1.06242334e-03 1.19330373e-03 -2.54574418e-03 -3.37882712e-03
      -2.91421171e-03 4.40441184e-02 -6.50807098e-02 9.40147415e-02
      2.13845391e-02 2.16029510e-02 -1.48871318e-02 -1.47855636e-02
      9.13924072e-03 -1.23927314e-02 -2.18680035e-03 1.60164724e-03
      1.34141324e-03 -2.59772572e-03 -3.59897059e-03 -3.38202575e-03
      4.73140068e-02 -6.31562471e-02 9.24587622e-02 2.22513694e-02
      2.12280247e-02 -1.59275159e-02 -1.44526586e-02 9.05081257e-03
      -1.26905944e-02 -2.76750815e-03 1.70376385e-03 1.32104789e-03
      -2.69032130e-03 -3.76266241e-03 -3.69703048e-03 4.63461392e-02
      -6.44929856e-02 9.08432230e-02 2.11119000e-02 2.04837788e-02
      -1.67528745e-02 -1.52500924e-02 8.65928177e-03 -1.29851643e-02
      -3.16592096e-03 1.19844265e-03 1.10926095e-03 -2.81632226e-03
      -3.88180488e-03 -3.90298781e-03 4.63262871e-02 -6.51425868e-02
      8.93829539e-02 2.03931890e-02 1.98535845e-02 -1.75179094e-02
      -1.58067010e-02 8.32527690e-03 -1.32204769e-02 -3.55189433e-03
      8.26913747e-04 9.24748427e-04 -2.91562825e-03 -3.97178298e-03
      -4.11754288e-03 4.68608215e-02 -6.54328689e-02 8.81620198e-02
      1.99157298e-02 1.93314422e-02 -1.81301907e-02 -1.61987226e-02
      8.03336501e-03 -1.33744692e-02 -3.88982706e-03 5.62995090e-04
      7.57578702e-04 -2.98276357e-03 -4.02889121e-03 -4.32018004e-03
      4.83272932e-02 -6.43311217e-02 8.67803022e-02 2.05905698e-02
      1.89011209e-02 -1.89768597e-02 -1.58232432e-02 7.87722040e-03
      -1.36148147e-02 -4.46420582e-03 7.57809728e-04 6.93628041e-04
      -3.06388200e-03 -4.17476846e-03 -4.68696281e-03 5.03427684e-02
      -6.25974759e-02 8.51815417e-02 2.17316691e-02 1.84306689e-02
      -1.99218653e-02 -1.51527878e-02 7.72570306e-03 -1.38863046e-02
      -5.07945381e-03 1.12680229e-03 6.41842315e-04 -3.15413834e-03
      -4.33371589e-03 -5.06867142e-03 5.22352085e-02 -6.10017553e-02
      8.36583152e-02 2.27783807e-02 1.78787522e-02 -2.09469572e-02
      -1.45268133e-02 7.48281321e-03 -1.41899092e-02 -5.73348720e-03
      1.48176809e-03 5.27774566e-04 -3.26814549e-03 -4.50032810e-03
      -5.48233883e-03 5.21237962e-02 -6.08374663e-02 8.18389729e-02
      2.30750311e-02 1.71128195e-02 -2.20372006e-02 -1.42499134e-02
      7.13719521e-03 -1.45475930e-02 -6.35690615e-03 1.68459397e-03
      3.70260241e-04 -3.40631721e-03 -4.67402209e-03 -5.84721752e-03
      5.00330627e-02 -6.21219128e-02 7.99604729e-02 2.25683618e-02
      1.62270851e-02 -2.30297651e-02 -1.43761141e-02 6.72151754e-03
      -1.48938252e-02 -6.88492414e-03 1.69400894e-03 1.79818759e-04
      -3.54444073e-03 -4.82658483e-03 -6.14218181e-03 4.51997630e-02
      -6.50341809e-02 7.85239935e-02 2.12065428e-02 1.55267091e-02
      -2.38515772e-02 -1.49549674e-02 6.42424729e-03 -1.51972231e-02
      -7.30998116e-03 1.45935768e-03 6.33585951e-05 -3.65614309e-03
      -4.96348320e-03 -6.36385987e-03 3.96523662e-02 -6.81325197e-02
      7.71607608e-02 1.98758170e-02 1.48895392e-02 -2.45721564e-02
      -1.54606719e-02 6.18643593e-03 -1.54733090e-02 -7.65848951e-03
      1.28689676e-03 -9.08358561e-06 -3.75311845e-03 -5.08375326e-03
      -6.53810520e-03 3.32226567e-02 -7.21488744e-02 7.55923390e-02
      1.78392660e-02 1.41733019e-02 -2.51780916e-02 -1.64363310e-02
      5.89694455e-03 -1.57041457e-02 -7.95039907e-03 8.29134893e-04
      -1.23448219e-04 -3.83461174e-03 -5.18438360e-03 -6.67482661e-03
      2.77082473e-02 -7.54158869e-02 7.40986019e-02 1.62596256e-02
      1.35521097e-02 -2.57648844e-02 -1.71553362e-02 5.66477096e-03
      -1.59176700e-02 -8.21464136e-03 5.11377235e-04 -2.06481811e-04
      -3.90735269e-03 -5.27404435e-03 -6.79211412e-03 2.42269598e-02
      -7.75066316e-02 7.30856583e-02 1.52590228e-02 1.31000672e-02
      -2.62526087e-02 -1.75836366e-02 5.48748672e-03 -1.61010940e-02
      -8.42038170e-03 3.45172157e-04 -2.68675183e-04 -3.97369079e-03
      -5.34684677e-03 -6.88010454e-03 2.25344375e-02 -7.90110454e-02
      7.32016340e-02 1.42740067e-02 1.31768789e-02 -2.64624860e-02
      -1.81365982e-02 5.51646389e-03 -1.61528569e-02 -8.54427926e-03
      6.43108579e-05 -2.59075779e-04 -3.98658402e-03 -5.38322236e-03
      -6.93766866e-03 2.24115811e-02 -7.98176974e-02 7.39786401e-02
      1.34843281e-02 1.36028212e-02 -2.64953654e-02 -1.86774507e-02
      5.68933878e-03 -1.61050912e-02 -8.62152595e-03 -2.50185258e-04
      -1.98348862e-04 -3.95498658e-03 -5.39171463e-03 -6.97892718e-03
      2.34342404e-02 -7.98667744e-02 7.39738494e-02 1.30977426e-02
      1.36929126e-02 -2.66352016e-02 -1.90363284e-02 5.72796119e-03
      -1.61205046e-02 -8.73072166e-03 -4.95702378e-04 -1.92629435e-04
      -3.95093998e-03 -5.42048318e-03 -7.02011678e-03 2.47425251e-02
      -7.94796348e-02 7.38170817e-02 1.30780917e-02 1.37772616e-02
      -2.67692488e-02 -1.91526003e-02 5.79951052e-03 -1.61283761e-02
      -8.81811790e-03 -6.02289394e-04 -1.56045004e-04 -3.93778365e-03
      -5.43998089e-03 -7.05099478e-03 2.66788267e-02 -7.83263296e-02
      7.33855441e-02 1.36176711e-02 1.38031878e-02 -2.70523317e-02
      -1.89316869e-02 5.88737521e-03 -1.61667857e-02 -8.91688839e-03
      -5.25985786e-04 -9.15768469e-05 -3.92331695e-03 -5.45757310e-03
      -7.09098391e-03 2.84561533e-02 -7.71871805e-02 7.32561201e-02
      1.41893113e-02 1.39589328e-02 -2.71568038e-02 -1.86788011e-02
      6.03585597e-03 -1.61357429e-02 -8.94391909e-03 -4.26532206e-04
      2.92568166e-06 -3.88098019e-03 -5.44806616e-03 -7.10612908e-03
      3.03001218e-02 -7.60601535e-02 7.35489130e-02 1.46969138e-02
      1.42542422e-02 -2.70500518e-02 -1.84852127e-02 6.22299127e-03
      -1.60325449e-02 -8.90026148e-03 -3.65280779e-04 1.04913393e-04
      -3.81589704e-03 -5.41439373e-03 -7.09710829e-03 3.13292891e-02
      -7.55950511e-02 7.26934671e-02 1.47624230e-02 1.40343336e-02
      -2.72588506e-02 -1.85617488e-02 6.15388388e-03 -1.60697494e-02
      -8.96117557e-03 -4.58512135e-04 7.31331893e-05 -3.82047938e-03
      -5.42031042e-03 -7.11579015e-03 3.20573635e-02 -7.52032623e-02
      7.13971704e-02 1.48049388e-02 1.36591177e-02 -2.75562126e-02
      -1.86566990e-02 6.01682998e-03 -1.61432177e-02 -9.03889909e-03
      -5.65932482e-04 6.62369393e-06 -3.84349679e-03 -5.43238176e-03
      -7.13784993e-03 3.77250202e-02 -7.15369955e-02 7.12477043e-02
      1.66282281e-02 1.38082979e-02 -2.75835246e-02 -1.78411193e-02
      6.12268131e-03 -1.61087606e-02 -9.06607974e-03 -2.23725394e-04
      5.65685550e-05 -3.82089010e-03 -5.42926230e-03 -7.14619691e-03
      4.14199792e-02 -6.90097287e-02 7.08860829e-02 1.79601349e-02
      1.37783037e-02 -2.76384968e-02 -1.72109604e-02 6.13923511e-03
      -1.61143616e-02 -9.08134412e-03 5.56817686e-05 6.90672969e-05
      -3.82066215e-03 -5.43103321e-03 -7.15109101e-03 4.01404910e-02
      -6.96973056e-02 7.01029077e-02 1.76801495e-02 1.32952025e-02
      -2.77590901e-02 -1.73126217e-02 5.89846028e-03 -1.62219554e-02
      -9.09351837e-03 2.09475747e-05 -4.24008686e-05 -3.88134806e-03
      -5.45478519e-03 -7.15243164e-03 3.85874882e-02 -7.04574659e-02
      6.95201457e-02 1.74608976e-02 1.28434086e-02 -2.78032552e-02
      -1.73233338e-02 5.65267261e-03 -1.63110960e-02 -9.07436665e-03
      6.12864969e-05 -1.60466036e-04 -3.94047424e-03 -5.46769099e-03
      -7.14127254e-03 3.70573848e-02 -7.09101483e-02 6.90451264e-02
      1.75750982e-02 1.24313124e-02 -2.77951006e-02 -1.70858260e-02
      5.42840129e-03 -1.63832307e-02 -9.03011300e-03 2.59075605e-04
      -2.64859089e-04 -3.99397593e-03 -5.47143584e-03 -7.12172082e-03
      3.51204984e-02 -7.16829374e-02 6.81612045e-02 1.75096784e-02
      1.19010098e-02 -2.80443188e-02 -1.69267897e-02 5.17339818e-03
      -1.65364388e-02 -9.10041854e-03 4.29996551e-04 -3.73473391e-04
      -4.07323334e-03 -5.51386829e-03 -7.13968650e-03 3.21388468e-02
      -7.27971941e-02 6.72121421e-02 1.74124949e-02 1.13881798e-02
      -2.83422880e-02 -1.67302098e-02 4.95591108e-03 -1.66982394e-02
      -9.18240566e-03 6.36923884e-04 -4.52905137e-04 -4.14803019e-03
      -5.55792591e-03 -7.16350274e-03 2.74947695e-02 -7.49779418e-02
      6.70478940e-02 1.66215505e-02 1.12406928e-02 -2.84970403e-02
      -1.69827547e-02 4.89545939e-03 -1.67674795e-02 -9.24361777e-03
      5.67557465e-04 -4.72923508e-04 -4.17364854e-03 -5.58272190e-03
      -7.18434714e-03 2.38680001e-02 -7.65581727e-02 6.66448176e-02
      1.61620732e-02 1.09420866e-02 -2.86079980e-02 -1.70511883e-02
      4.75832261e-03 -1.68464482e-02 -9.27604828e-03 5.98983606e-04
      -5.27358090e-04 -4.21133731e-03 -5.60449762e-03 -7.19141029e-03
      2.18385719e-02 -7.71190673e-02 6.61843494e-02 1.63086373e-02
      1.05405422e-02 -2.85947211e-02 -1.67685505e-02 4.55613900e-03
      -1.69098359e-02 -9.24616773e-03 8.25785857e-04 -6.13387208e-04
      -4.25344519e-03 -5.61274681e-03 -7.17413472e-03 1.91428382e-02
      -7.88956434e-02 6.57009110e-02 1.54239638e-02 1.01226689e-02
      -2.86687892e-02 -1.71742290e-02 4.33078920e-03 -1.69760548e-02
      -9.21408180e-03 6.43710897e-04 -7.23012956e-04 -4.29071346e-03
      -5.61956270e-03 -7.16451043e-03 1.64103340e-02 -8.08951855e-02
      6.52021021e-02 1.43032214e-02 9.79515817e-03 -2.87083909e-02
      -1.77572295e-02 4.16867482e-03 -1.70113370e-02 -9.17707104e-03
      3.47298075e-04 -7.99736939e-04 -4.30782884e-03 -5.61961858e-03
      -7.15122186e-03 1.67373288e-02 -8.14049914e-02 6.60631880e-02
      1.36446636e-02 1.01528615e-02 -2.85524298e-02 -1.82696078e-02
      4.30205651e-03 -1.69002153e-02 -9.10211354e-03 1.69327468e-05
      -7.56985391e-04 -4.25351551e-03 -5.58500178e-03 -7.13929068e-03
      1.72122996e-02 -8.16908479e-02 6.69115037e-02 1.31388027e-02
      1.05648963e-02 -2.84263622e-02 -1.86994150e-02 4.47722664e-03
      -1.67874042e-02 -9.03181173e-03 -2.74112244e-04 -6.91260386e-04
      -4.19328548e-03 -5.54809766e-03 -7.13006500e-03 1.76250972e-02
      -8.16709921e-02 6.74855933e-02 1.29316421e-02 1.09750135e-02
      -2.83675287e-02 -1.89284496e-02 4.69159195e-03 -1.66953262e-02
      -9.02508851e-03 -4.48192324e-04 -5.93131408e-04 -4.13465872e-03
      -5.52770123e-03 -7.13053579e-03 1.90070346e-02 -8.13949481e-02
      6.79346845e-02 1.27160540e-02 1.13134701e-02 -2.83327140e-02
      -1.92035381e-02 4.85581905e-03 -1.66088510e-02 -8.99471156e-03
      -6.51294307e-04 -5.25204057e-04 -4.08410979e-03 -5.50106587e-03
      -7.12738791e-03 1.94471255e-02 -8.18501785e-02 6.79872930e-02
      1.20578008e-02 1.14016710e-02 -2.83567831e-02 -1.97093710e-02
      4.88100713e-03 -1.65783912e-02 -8.95614922e-03 -9.63425322e-04
      -5.28037141e-04 -4.06885846e-03 -5.47937769e-03 -7.12088030e-03
      1.96792129e-02 -8.24145153e-02 6.87800199e-02 1.14310598e-02
      1.17231682e-02 -2.82530151e-02 -2.01464519e-02 5.00245346e-03
      -1.64936781e-02 -8.90017487e-03 -1.21827389e-03 -4.84967692e-04
      -4.02892148e-03 -5.45119215e-03 -7.11409329e-03 2.01086514e-02
      -8.26619267e-02 6.97110072e-02 1.10828551e-02 1.21412994e-02
      -2.81147957e-02 -2.04002038e-02 5.18585881e-03 -1.63844880e-02
      -8.84398911e-03 -1.36780355e-03 -4.06466570e-04 -3.97344958e-03
      -5.42004732e-03 -7.10882340e-03 1.88227147e-02 -8.40734616e-02
      6.98864907e-02 1.01239271e-02 1.20917670e-02 -2.81176791e-02
      -2.09440552e-02 5.11856051e-03 -1.64228901e-02 -8.86974018e-03
      -1.64793746e-03 -4.51468804e-04 -4.00005048e-03 -5.43866167e-03
      -7.11598154e-03 1.91008784e-02 -8.42827410e-02 7.01950714e-02
      9.84833483e-03 1.21285282e-02 -2.81719435e-02 -2.11302526e-02
      5.09923464e-03 -1.64534077e-02 -8.87309294e-03 -1.74824905e-03
      -4.70949250e-04 -4.01846366e-03 -5.44935372e-03 -7.12431595e-03
      2.01837514e-02 -8.37205797e-02 7.00417832e-02 1.01121012e-02
      1.20203681e-02 -2.82607060e-02 -2.09975634e-02 5.04379533e-03
      -1.65022667e-02 -8.86714924e-03 -1.67524524e-03 -4.95011569e-04
      -4.04403685e-03 -5.45729324e-03 -7.12687429e-03 2.00259574e-02
      -8.38653445e-02 6.94924369e-02 1.00522218e-02 1.17368829e-02
      -2.85388771e-02 -2.09923163e-02 4.91744047e-03 -1.66160613e-02
      -8.92388728e-03 -1.64499180e-03 -5.46337396e-04 -4.09400882e-03
      -5.48657635e-03 -7.15162838e-03 1.82756055e-02 -8.47740397e-02
      6.86398819e-02 9.74832941e-03 1.13035487e-02 -2.89575718e-02
      -2.10296772e-02 4.73999931e-03 -1.67754777e-02 -9.01738647e-03
      -1.59823324e-03 -6.08698465e-04 -4.15812014e-03 -5.52988332e-03
      -7.19036395e-03 1.72879547e-02 -8.52422118e-02 6.84233904e-02
      9.64370649e-03 1.11350166e-02 -2.90767662e-02 -2.09960379e-02
      4.66090953e-03 -1.68375801e-02 -9.06875636e-03 -1.53749867e-03
      -6.37752935e-04 -4.18718858e-03 -5.55533962e-03 -7.20622996e-03
      1.61099471e-02 -8.57500806e-02 6.82257861e-02 9.54013504e-03
      1.09594157e-02 -2.92882677e-02 -2.09623147e-02 4.58019134e-03
      -1.69230811e-02 -9.11547989e-03 -1.48121628e-03 -6.67062879e-04
      -4.22294438e-03 -5.58267580e-03 -7.22901477e-03 1.55101828e-02
      -8.62491876e-02 6.80625364e-02 9.28733032e-03 1.07433321e-02
      -2.94210277e-02 -2.10774820e-02 4.46212105e-03 -1.70138590e-02
      -9.14602634e-03 -1.53644825e-03 -7.22806086e-04 -4.26840223e-03
      -5.61147975e-03 -7.24241557e-03 1.55423982e-02 -8.64030272e-02
      6.75554201e-02 9.23055038e-03 1.04358355e-02 -2.95311771e-02
      -2.10867263e-02 4.32650279e-03 -1.70969237e-02 -9.16212890e-03
      -1.53780810e-03 -7.79535389e-04 -4.30996437e-03 -5.63441496e-03
      -7.24654738e-03 1.42506147e-02 -8.69072601e-02 6.68029189e-02
      9.14993044e-03 9.98977199e-03 -2.97413245e-02 -2.10543554e-02
      4.13524965e-03 -1.72041506e-02 -9.15654097e-03 -1.50012469e-03
      -8.54400219e-04 -4.35624504e-03 -5.65302651e-03 -7.24696880e-03
      1.40124327e-02 -8.70008916e-02 6.62062615e-02 9.21123382e-03
      9.69962031e-03 -2.97879893e-02 -2.09785569e-02 4.02320456e-03
      -1.72384307e-02 -9.16233286e-03 -1.45245704e-03 -8.97563179e-04
      -4.37190058e-03 -5.66239562e-03 -7.24430941e-03 1.42108668e-02
      -8.68858099e-02 6.57246858e-02 9.36504174e-03 9.48386081e-03
      -2.97822449e-02 -2.08591204e-02 3.95018188e-03 -1.72411706e-02
      -9.13552940e-03 -1.38570846e-03 -9.24710650e-04 -4.37489012e-03
      -5.65770734e-03 -7.23387068e-03 1.17783537e-02 -8.83014426e-02
      6.59176707e-02 8.64388049e-03 9.51795373e-03 -2.97716800e-02
      -2.12220103e-02 3.94950900e-03 -1.72178019e-02 -9.11192503e-03
      -1.56964292e-03 -9.34208045e-04 -4.36303532e-03 -5.64709073e-03
      -7.23176869e-03 1.02684945e-02 -8.90433192e-02 6.62645325e-02
      8.28792248e-03 9.66467988e-03 -2.96925548e-02 -2.14121155e-02
      4.00713598e-03 -1.71606839e-02 -9.07685142e-03 -1.68008707e-03
      -9.17161233e-04 -4.33497038e-03 -5.62720280e-03 -7.22825993e-03
      1.05652679e-02 -8.84747952e-02 6.71893731e-02 8.66968185e-03
      1.00328140e-02 -2.95096040e-02 -2.12196577e-02 4.16722102e-03
      -1.70430504e-02 -8.97965394e-03 -1.59895991e-03 -8.48898548e-04
      -4.27634921e-03 -5.58538642e-03 -7.21063185e-03 9.66100488e-03
      -8.89727995e-02 6.80804104e-02 8.43169261e-03 1.02834282e-02
      -2.92579811e-02 -2.13331617e-02 4.24227398e-03 -1.69461686e-02
      -8.86926241e-03 -1.65469106e-03 -8.25946103e-04 -4.23995405e-03
      -5.54876542e-03 -7.18107261e-03 9.24609974e-03 -8.96875113e-02
      6.88937753e-02 7.90625345e-03 1.05081061e-02 -2.90214214e-02
      -2.16411315e-02 4.29115351e-03 -1.68651640e-02 -8.77708476e-03
      -1.81581487e-03 -8.23110633e-04 -4.21795668e-03 -5.51901851e-03
      -7.15471711e-03 1.16017358e-02 -8.89379904e-02 7.01322556e-02
      8.02806672e-03 1.10090924e-02 -2.85931882e-02 -2.16666684e-02
      4.48265951e-03 -1.66942924e-02 -8.61327443e-03 -1.85218453e-03
      -7.49891449e-04 -4.15357202e-03 -5.45860734e-03 -7.10234651e-03
      1.49020748e-02 -8.74305144e-02 7.14784116e-02 8.57315119e-03
      1.16407946e-02 -2.80994661e-02 -2.14794520e-02 4.75144619e-03
      -1.64844505e-02 -8.42470955e-03 -1.78501464e-03 -6.36387791e-04
      -4.06828942e-03 -5.38423471e-03 -7.04137003e-03 1.53871952e-02
      -8.76652077e-02 7.27070346e-02 8.20922852e-03 1.20626474e-02
      -2.79887784e-02 -2.17348076e-02 4.88120643e-03 -1.64003596e-02
      -8.36059358e-03 -1.92416774e-03 -6.01432170e-04 -4.03693784e-03
      -5.35425497e-03 -7.04204198e-03 1.70530304e-02 -8.68679881e-02
      7.36645088e-02 8.52163415e-03 1.24802031e-02 -2.78525185e-02
      -2.16046348e-02 5.04916115e-03 -1.63064338e-02 -8.28391034e-03
      -1.85612054e-03 -5.33612096e-04 -3.99729004e-03 -5.31818997e-03
      -7.02938251e-03 2.07696501e-02 -8.46332684e-02 7.42409751e-02
      9.65464115e-03 1.28541831e-02 -2.76009664e-02 -2.10184921e-02
      5.23345405e-03 -1.61833242e-02 -8.19732249e-03 -1.53786130e-03
      -4.42893419e-04 -3.94607987e-03 -5.27736684e-03 -6.99049840e-03
      2.27568839e-02 -8.33278447e-02 7.46228024e-02 1.04514202e-02
      1.30229807e-02 -2.73828730e-02 -2.05277912e-02 5.32725872e-03
      -1.61128566e-02 -8.07920285e-03 -1.23732281e-03 -3.83668958e-04
      -3.92073020e-03 -5.24352724e-03 -6.94313785e-03 2.29817983e-02
      -8.29835162e-02 7.49352798e-02 1.08522875e-02 1.30272750e-02
      -2.72301733e-02 -2.01791711e-02 5.33537380e-03 -1.60980318e-02
      -7.92735908e-03 -9.83524369e-04 -3.59539234e-04 -3.92300216e-03
      -5.21580316e-03 -6.88949972e-03 2.42040120e-02 -8.19045231e-02
      7.53756687e-02 1.16228182e-02 1.30770616e-02 -2.70237494e-02
      -1.96766518e-02 5.35082584e-03 -1.60776731e-02 -7.78781204e-03
      -6.75109448e-04 -3.38292710e-04 -3.92821804e-03 -5.19369682e-03
      -6.82777306e-03 2.52017081e-02 -8.08485150e-02 7.56652504e-02
      1.24321654e-02 1.30844004e-02 -2.68249922e-02 -1.91472638e-02
      5.36150485e-03 -1.60697028e-02 -7.63728051e-03 -3.57841694e-04
      -3.14042991e-04 -3.93803278e-03 -5.17189689e-03 -6.75570685e-03
      2.45687161e-02 -8.10161009e-02 7.58732930e-02 1.24494573e-02
      1.29214358e-02 -2.66241562e-02 -1.91136654e-02 5.25268726e-03
      -1.60810202e-02 -7.42156012e-03 -3.43469728e-04 -3.65055952e-04
      -3.96632776e-03 -5.14183706e-03 -6.65393332e-03 2.31795423e-02
      -8.14317390e-02 7.58237988e-02 1.23942606e-02 1.27011193e-02
      -2.64406782e-02 -1.91051159e-02 5.13687963e-03 -1.61049161e-02
      -7.21127214e-03 -3.42912186e-04 -4.14462847e-04 -3.99661716e-03
      -5.11453813e-03 -6.53916225e-03 2.07006410e-02 -8.22712481e-02
      7.55884200e-02 1.21846003e-02 1.24492422e-02 -2.62149796e-02
      -1.91617962e-02 5.01871714e-03 -1.61193423e-02 -6.98749814e-03
      -3.72321607e-04 -4.62767406e-04 -4.02131351e-03 -5.08266687e-03
      -6.39835233e-03 1.70309208e-02 -8.41872022e-02 7.54838809e-02
      1.12912143e-02 1.20209726e-02 -2.59639025e-02 -1.96018126e-02
      4.76282928e-03 -1.61739048e-02 -6.69954531e-03 -6.07647700e-04
      -5.92342752e-04 -4.07696376e-03 -5.05303824e-03 -6.22624578e-03
      1.28452824e-02 -8.64455476e-02 7.53734410e-02 1.02573773e-02
      1.15285385e-02 -2.57161409e-02 -2.00965907e-02 4.47294163e-03
      -1.62479356e-02 -6.37265621e-03 -8.64144356e-04 -7.37500319e-04
      -4.14263736e-03 -5.02314046e-03 -6.03235932e-03 8.38154927e-03
      -8.92108381e-02 7.58425891e-02 8.82135704e-03 1.12751145e-02
      -2.50417795e-02 -2.08296385e-02 4.25483845e-03 -1.61800217e-02
      -5.94275165e-03 -1.24665466e-03 -8.64433008e-04 -4.16112086e-03
      -4.94703976e-03 -5.76068740e-03 3.99927190e-03 -9.20508578e-02
      7.65790790e-02 7.32903508e-03 1.11266291e-02 -2.42596772e-02
      -2.15907209e-02 4.08481900e-03 -1.60690360e-02 -5.41544892e-03
      -1.63872226e-03 -9.68285836e-04 -4.16091550e-03 -4.84508229e-03
      -5.43882605e-03 -4.33580921e-04 -9.55775306e-02 7.82562271e-02
      5.22703119e-03 1.12429243e-02 -2.32128892e-02 -2.27311514e-02
      3.97324190e-03 -1.58510264e-02 -4.70970105e-03 -2.23350455e-03
      -1.06811605e-03 -4.12401324e-03 -4.69341781e-03 -5.03651844e-03
      -4.78308555e-03 -9.92052481e-02 7.97035918e-02 3.00440332e-03
      1.13193681e-02 -2.20058579e-02 -2.39470210e-02 3.83681548e-03
      -1.55694233e-02 -3.91148217e-03 -2.86367629e-03 -1.18484558e-03
      -4.06762306e-03 -4.49869828e-03 -4.55683051e-03 -9.11587011e-03
      -1.02831095e-01 8.08856636e-02 7.95931788e-04 1.13513414e-02
      -2.06555985e-02 -2.51392089e-02 3.68644716e-03 -1.52297541e-02
      -3.00415489e-03 -3.46841430e-03 -1.30688259e-03 -3.99278570e-03
      -4.25562216e-03 -3.98598751e-03 -1.41335502e-02 -1.06937952e-01
      8.21602196e-02 -1.64180715e-03 1.14114219e-02 -1.97346862e-02
      -2.64135879e-02 3.55556910e-03 -1.50135811e-02 -2.55836127e-03
      -4.09340719e-03 -1.41469541e-03 -3.95073229e-03 -4.14235145e-03
      -3.74979968e-03 -1.93514265e-02 -1.10935330e-01 8.36432800e-02
      -3.90647817e-03 1.15525862e-02 -1.88674033e-02 -2.75535621e-02
      3.46929347e-03 -1.48145910e-02 -2.17173365e-03 -4.63368185e-03
      -1.49577612e-03 -3.91224539e-03 -4.04756889e-03 -3.57106328e-03
      -2.43081469e-02 -1.14446774e-01 8.70801210e-02 -5.79102011e-03
      1.24288239e-02 -1.75013375e-02 -2.84623057e-02 3.67291248e-03
      -1.44266207e-02 -1.63361314e-03 -5.04859583e-03 -1.45917677e-03
      -3.80160706e-03 -3.90069070e-03 -3.30440933e-03 -2.93287933e-02
      -1.17917798e-01 9.16291773e-02 -7.62775866e-03 1.36892721e-02
      -1.57286264e-02 -2.93394756e-02 4.01482964e-03 -1.39147555e-02
      -9.24460881e-04 -5.44587616e-03 -1.37163035e-03 -3.65152024e-03
      -3.70155764e-03 -2.96621467e-03 -3.44582498e-02 -1.21475592e-01
      9.81199518e-02 -9.52554308e-03 1.55938771e-02 -1.32235754e-02
      -3.02500613e-02 4.56742803e-03 -1.31675983e-02 8.34363527e-05
      -5.85766090e-03 -1.21551391e-03 -3.42636998e-03 -3.40857194e-03
      -2.50251638e-03 -3.98357138e-02 -1.25015154e-01 1.04058690e-01
      -1.13459714e-02 1.71982106e-02 -1.04345316e-02 -3.10980342e-02
      4.99236630e-03 -1.23675484e-02 1.27837295e-03 -6.23112451e-03
      -1.10913801e-03 -3.19320546e-03 -3.07085086e-03 -1.94159534e-03
      -4.53218967e-02 -1.28366679e-01 1.09479360e-01 -1.29650263e-02
      1.85540430e-02 -7.51362555e-03 -3.18143032e-02 5.32247499e-03
      -1.15664136e-02 2.63039861e-03 -6.53266115e-03 -1.03492115e-03
      -2.96843960e-03 -2.70096632e-03 -1.29176548e-03 -5.14091589e-02
      -1.32005274e-01 1.14313506e-01 -1.46731548e-02 1.94704272e-02
      -4.54190886e-03 -3.25431712e-02 5.44264819e-03 -1.08790016e-02
      4.07068292e-03 -6.82769157e-03 -1.04714243e-03 -2.81234179e-03
      -2.36198213e-03 -6.06053858e-04 -5.77004664e-02 -1.35555342e-01
      1.18854612e-01 -1.62183158e-02 2.02544350e-02 -1.48060976e-03
      -3.31509672e-02 5.53477742e-03 -1.01987850e-02 5.64615848e-03
      -7.05313822e-03 -1.05581793e-03 -2.66283611e-03 -2.00395589e-03
      1.63055622e-04 -6.41205981e-02 -1.38986588e-01 1.23303004e-01
      -1.76203381e-02 2.10325252e-02 1.62228220e-03 -3.36623453e-02
      5.64659014e-03 -9.50300228e-03 7.25414045e-03 -7.22594745e-03
      -1.04794325e-03 -2.50523514e-03 -1.63819210e-03 9.38218844e-04
      -7.00625330e-02 -1.42209888e-01 1.26338974e-01 -1.89637374e-02
      2.13761628e-02 4.11990006e-03 -3.41681354e-02 5.61795523e-03
      -9.01858509e-03 8.67566839e-03 -7.40607502e-03 -1.08859991e-03
      -2.41804961e-03 -1.34311314e-03 1.68500491e-03 -7.54547864e-02
      -1.45201653e-01 1.27915621e-01 -2.02303547e-02 2.12901812e-02
      5.74501045e-03 -3.46569009e-02 5.45838801e-03 -8.79244320e-03
      9.73164290e-03 -7.58822914e-03 -1.17140578e-03 -2.40779086e-03
      -1.15727494e-03 2.29400815e-03 -8.29706639e-02 -1.49271652e-01
      1.29455119e-01 -2.19073929e-02 2.10239794e-02 7.44046643e-03
      -3.52823995e-02 5.21110790e-03 -8.57568812e-03 1.09635890e-02
      -7.81194912e-03 -1.28714857e-03 -2.40650913e-03 -9.39474732e-04
      3.01674102e-03 -9.02681500e-02 -1.53241649e-01 1.31038025e-01
      -2.35425755e-02 2.07757689e-02 9.21534933e-03 -3.58941890e-02
      4.97758668e-03 -8.34547821e-03 1.22908391e-02 -8.03271774e-03
      -1.39596476e-03 -2.40173377e-03 -7.01456331e-04 3.80392233e-03
      -9.33667868e-02 -1.55109659e-01 1.34757981e-01 -2.44078394e-02
      2.14710291e-02 1.19567895e-02 -3.62601802e-02 5.07533923e-03
      -7.74139911e-03 1.37960585e-02 -8.18134658e-03 -1.40014151e-03
      -2.26991414e-03 -3.60267702e-04 4.59104218e-03 -9.70203653e-02
      -1.57123089e-01 1.38396144e-01 -2.53049955e-02 2.21215356e-02
      1.46122044e-02 -3.66369598e-02 5.15585812e-03 -7.13129388e-03
      1.53423361e-02 -8.33629258e-03 -1.41174521e-03 -2.12932611e-03
      -4.35158290e-06 5.38898865e-03 -9.97573435e-02 -1.58767775e-01
      1.41983762e-01 -2.60852445e-02 2.28230879e-02 1.72713064e-02
      -3.69792245e-02 5.25810989e-03 -6.48925547e-03 1.68948304e-02
      -8.48162919e-03 -1.41684175e-03 -1.97828584e-03 3.75974341e-04
      6.18261099e-03 -1.02918237e-01 -1.60495386e-01 1.45574212e-01
      -2.68506613e-02 2.35476773e-02 2.01490223e-02 -3.72991562e-02
      5.38187381e-03 -5.80874830e-03 1.86464749e-02 -8.61290284e-03
      -1.40895811e-03 -1.81683945e-03 8.04590294e-04 7.12186797e-03
      -1.06098324e-01 -1.62083864e-01 1.49094060e-01 -2.74925269e-02
      2.42889952e-02 2.31923144e-02 -3.75474691e-02 5.53687615e-03
      -5.08097885e-03 2.05798782e-02 -8.70907959e-03 -1.38086244e-03
      -1.63472444e-03 1.28009601e-03 8.19890294e-03 -1.07654728e-01
      -1.62809119e-01 1.53220654e-01 -2.77742930e-02 2.52660997e-02
      2.64697466e-02 -3.76545042e-02 5.77947451e-03 -4.25146194e-03
      2.26634871e-02 -8.75008758e-03 -1.32085686e-03 -1.41562207e-03
      1.79581286e-03 9.36291181e-03 -1.08323224e-01 -1.63038939e-01
      1.57885388e-01 -2.78393980e-02 2.64790859e-02 3.00830826e-02
      -3.76747958e-02 6.11568848e-03 -3.28796799e-03 2.50060130e-02
      -8.75817146e-03 -1.22498209e-03 -1.14717637e-03 2.39818147e-03
      1.06918029e-02 -1.07864976e-01 -1.62709236e-01 1.63188323e-01
      -2.76872627e-02 2.79986225e-02 3.43660861e-02 -3.76170650e-02
      6.56669214e-03 -2.09547929e-03 2.77339742e-02 -8.73858295e-03
      -1.08973018e-03 -8.03351460e-04 3.13824834e-03 1.22818956e-02
      -1.07422575e-01 -1.62352756e-01 1.68086618e-01 -2.74967160e-02
      2.94309948e-02 3.85574922e-02 -3.75322774e-02 7.00943964e-03
      -9.21496423e-04 3.04632690e-02 -8.70461576e-03 -9.49849724e-04
      -4.58718976e-04 3.88375414e-03 1.39112500e-02 -1.08029932e-01
      -1.62356555e-01 1.72238469e-01 -2.73951832e-02 3.06281876e-02
      4.23143096e-02 -3.74638252e-02 7.38676358e-03 1.18965814e-04
      3.30013856e-02 -8.67132563e-03 -8.25773808e-04 -1.49881991e-04
      4.57180012e-03 1.54666305e-02 -1.08654499e-01 -1.62269816e-01
      1.76283970e-01 -2.72335373e-02 3.18359137e-02 4.60056327e-02
      -3.73683050e-02 7.78105529e-03 1.16062153e-03 3.55429985e-02
      -8.62782076e-03 -6.91884779e-04 1.67153368e-04 5.27143432e-03
      1.70571636e-02 -1.08692713e-01 -1.61898062e-01 1.80367187e-01
      -2.69568693e-02 3.31097394e-02 4.97547314e-02 -3.72288264e-02
      8.21530353e-03 2.24753353e-03 3.81801128e-02 -8.56790692e-03
      -5.39343455e-04 5.07844670e-04 6.00905251e-03 1.87427793e-02
      -1.07201345e-01 -1.61072865e-01 1.83846846e-01 -2.66057979e-02
      3.42301466e-02 5.26334569e-02 -3.70924696e-02 8.58638808e-03
      3.09487293e-03 4.01580855e-02 -8.51706788e-03 -4.14796290e-04
      7.67036167e-04 6.56868564e-03 1.99742559e-02 -1.05662279e-01
      -1.60207108e-01 1.87082022e-01 -2.62288991e-02 3.53180803e-02
      5.53181618e-02 -3.69435810e-02 8.96017440e-03 3.90821695e-03
      4.20193709e-02 -8.46126676e-03 -2.85028975e-04 1.02281489e-03
      7.10923225e-03 2.11403314e-02 -1.04175508e-01 -1.59351021e-01
      1.89996809e-01 -2.58462131e-02 3.63154970e-02 5.78802675e-02
      -3.67878228e-02 9.30737983e-03 4.69334796e-03 4.38124277e-02
      -8.40079971e-03 -1.63497913e-04 1.27287931e-03 7.63385743e-03
      2.23017521e-02 -1.02621831e-01 -1.58444718e-01 1.92993313e-01
      -2.54372470e-02 3.73833887e-02 6.05539158e-02 -3.66212539e-02
      9.69018135e-03 5.53499488e-03 4.57160473e-02 -8.33684951e-03
      -2.64742721e-05 1.54717499e-03 8.20547342e-03 2.35553607e-02
      -1.01411849e-01 -1.57581016e-01 1.96047232e-01 -2.50083189e-02
      3.84807549e-02 6.32695630e-02 -3.64361219e-02 1.00905951e-02
      6.40790863e-03 4.77005281e-02 -8.26193113e-03 1.18995122e-04
      1.83959666e-03 8.80724750e-03 2.48816051e-02 -1.00934230e-01
      -1.57157749e-01 1.97838336e-01 -2.47902907e-02 3.90890799e-02
      6.48602918e-02 -3.63424346e-02 1.03016021e-02 6.89472910e-03
      4.88970689e-02 -8.22472293e-03 1.92497973e-04 1.99628249e-03
      9.15135257e-03 2.56996844e-02 -1.00961097e-01 -1.56955391e-01
      1.99072510e-01 -2.46539656e-02 3.95149402e-02 6.60329685e-02
      -3.62791158e-02 1.04552889e-02 7.24516576e-03 4.98165675e-02
      -8.19942076e-03 2.48354976e-04 2.11041863e-03 9.40938853e-03
      2.63519939e-02 -1.00371026e-01 -1.56632051e-01 2.00091332e-01
      -2.45188307e-02 3.98579910e-02 6.71014860e-02 -3.62270921e-02
      1.05715599e-02 7.56828627e-03 5.06286398e-02 -8.17979127e-03
      2.86635652e-04 2.21188716e-03 9.64449905e-03 2.69278605e-02
      -9.97372344e-02 -1.56333774e-01 2.01134071e-01 -2.44018864e-02
      4.02069837e-02 6.81519955e-02 -3.61838639e-02 1.06903156e-02
      7.88363535e-03 5.14549986e-02 -8.16432107e-03 3.26635141e-04
      2.31009326e-03 9.88143124e-03 2.75151636e-02 -9.96347517e-02
      -1.56302765e-01 2.02004418e-01 -2.44002994e-02 4.04635333e-02
      6.90285861e-02 -3.61864716e-02 1.07657304e-02 8.12102295e-03
      5.21325544e-02 -8.16563796e-03 3.49199807e-04 2.37584393e-03
      1.00627076e-02 2.80048028e-02 -9.89618897e-02 -1.55957490e-01
      2.03214720e-01 -2.42574662e-02 4.08757329e-02 7.01622143e-02
      -3.61305848e-02 1.09071620e-02 8.46645795e-03 5.29933311e-02
      -8.14427435e-03 3.98067961e-04 2.48464732e-03 1.03117097e-02
      2.86092348e-02 -9.78498459e-02 -1.55375049e-01 2.04635352e-01
      -2.40053069e-02 4.13950682e-02 7.14561567e-02 -3.60285789e-02
      1.10981176e-02 8.88819154e-03 5.39855622e-02 -8.10442958e-03
      4.68007638e-04 2.62621604e-03 1.06117325e-02 2.93037593e-02
      -9.71541703e-02 -1.54903859e-01 2.05778003e-01 -2.37799156e-02
      4.18390371e-02 7.24545941e-02 -3.59335095e-02 1.12644890e-02
      9.23457276e-03 5.47321588e-02 -8.06683954e-03 5.29124751e-04
      2.74754013e-03 1.08520873e-02 2.98234206e-02 -9.67265815e-02
      -1.54579163e-01 2.06678540e-01 -2.36174017e-02 4.22077663e-02
      7.32778013e-02 -3.58649567e-02 1.14079593e-02 9.52663925e-03
      5.53692952e-02 -8.04083329e-03 5.83592162e-04 2.85186828e-03
      1.10631008e-02 3.02743353e-02 -9.70677882e-02 -1.54896125e-01
      2.06536680e-01 -2.37917956e-02 4.20977734e-02 7.33303726e-02
      -3.59468348e-02 1.13490736e-02 9.50835925e-03 5.54346181e-02
      -8.07724707e-03 5.56185085e-04 2.83265137e-03 1.10710319e-02
      3.03329080e-02 -9.74358842e-02 -1.55154765e-01 2.06704542e-01
      -2.39194687e-02 4.21199314e-02 7.35725611e-02 -3.60063389e-02
      1.13468524e-02 9.56086069e-03 5.56649864e-02 -8.10536742e-03
      5.53036516e-04 2.84224935e-03 1.11320885e-02 3.04959156e-02
      -9.78300124e-02 -1.55341193e-01 2.07269371e-01 -2.39926968e-02
      4.22960110e-02 7.40639120e-02 -3.60399708e-02 1.14066824e-02
      9.69912671e-03 5.61041497e-02 -8.12369399e-03 5.75400598e-04
      2.88466318e-03 1.12562282e-02 3.07918489e-02 -9.79621783e-02
      -1.55492470e-01 2.07786545e-01 -2.40725018e-02 4.24374081e-02
      7.45783001e-02 -3.60801965e-02 1.14472657e-02 9.83253866e-03
      5.65598607e-02 -8.14522803e-03 5.88317693e-04 2.92075844e-03
      1.13778384e-02 3.11038122e-02</data></learnt_thetas>
  <n_labels type_id="opencv-matrix">
    <rows>2</rows>
    <cols>1</cols>
    <dt>i</dt>
    <data>
      0 1</data></n_labels>
  <o_labels type_id="opencv-matrix">
    <rows>2</rows>
    <cols>1</cols>
    <dt>i</dt>
    <data>
      0 1</data></o_labels></opencv_ml_lr>
</opencv_storage>
