<?xml version="1.0"?>
<opencv_storage>
<opencv_ml_lr>
  <format>3</format>
  <classifier>"Logisitic Regression Classifier"</classifier>
  <alpha>2.9999999999999999e-02</alpha>
  <iterations>72000</iterations>
  <norm>1</norm>
  <train_method>0</train_method>
  <learnt_thetas type_id="opencv-matrix">
    <rows>1</rows>
    <cols>2998</cols>
    <dt>f</dt>
    <data>
      -8.72132555e-03 6.41068109e-05 -1.29062264e-05 1.29855413e-04
      -2.20751681e-04 -2.78374908e-04 -3.29395407e-04 -3.64478765e-04
      -3.84629413e-04 -5.42950060e-04 -5.05386211e-04 -4.36125061e-04
      -3.55146709e-04 -3.89519410e-04 -2.49380188e-04 1.75140332e-04
      2.05036398e-04 2.90808472e-04 4.56709182e-04 5.15404216e-04
      1.58492156e-04 1.12161579e-04 2.18721296e-04 1.13827737e-04
      2.00465322e-04 5.68049800e-05 3.01447999e-05 1.52807814e-04
      7.96366512e-05 2.12027328e-04 2.03875185e-04 3.20962572e-04
      4.10062552e-04 3.86838656e-04 2.93092540e-04 2.96698243e-04
      2.67829222e-04 6.87770298e-05 9.31675459e-05 7.39419484e-05
      -5.09324309e-05 -2.35459403e-04 -3.82755621e-04 -2.47527205e-04
      -1.31865527e-04 -5.64858565e-05 4.98748384e-04 5.55231818e-04
      7.78366404e-04 8.53114121e-04 9.51999100e-04 6.90521207e-04
      4.47311730e-04 3.25664994e-04 5.07234035e-05 8.68457137e-05
      4.17307410e-06 5.63893809e-06 -4.71416279e-05 -2.14393513e-04
      -2.93128629e-04 -3.98558186e-04 -2.14919550e-04 -1.27696432e-04
      -2.04966083e-04 2.52940401e-04 2.35912259e-04 3.13217577e-04
      2.76506966e-04 2.96264159e-04 1.05699030e-04 -1.32440298e-04
      -1.60865500e-04 -1.95297835e-04 -1.98005058e-04 -4.36740782e-04
      -2.96449085e-04 -3.45068802e-05 -1.00025763e-05 2.71906174e-04
      2.60134344e-04 2.53159727e-04 2.00359878e-04 9.75480871e-05
      -1.46524922e-04 -2.08295096e-04 6.34910102e-05 -7.62625641e-05
      -7.81812050e-05 -2.20141756e-05 -1.19163735e-04 -2.88065232e-04
      -4.29809006e-04 -2.97876511e-04 -6.09954732e-05 6.36008190e-05
      2.49221339e-04 4.02344682e-04 6.01008243e-04 3.75157280e-04
      5.01472037e-04 4.11088578e-04 1.94086853e-04 1.86454708e-04
      -9.20312323e-06 -4.26083425e-05 -2.42968992e-04 -2.38599227e-04
      -2.84610491e-04 -4.06601699e-04 -3.73255403e-04 -3.79097910e-05
      4.72257416e-05 -2.24249787e-04 -1.35967246e-04 2.06285287e-04
      -1.46934253e-04 -1.34346628e-04 -1.68485130e-05 -4.38387833e-05
      -2.50759389e-04 -2.74602848e-04 -2.47957680e-04 -3.30524199e-04
      -3.39260529e-04 -4.30041749e-04 -5.36406878e-04 -4.38518502e-04
      -4.48851264e-04 -3.66639491e-04 -4.64372162e-04 -5.20110130e-04
      -4.68649727e-04 -5.98446699e-04 -5.53645659e-04 -5.94965706e-04
      -6.23783737e-04 -1.02578872e-03 -9.96510149e-04 -8.33204365e-04
      -9.12402000e-04 -8.86727357e-04 -9.11564392e-04 -6.62298698e-04
      -5.48356387e-04 -4.76104411e-04 -3.70355701e-04 -3.83646257e-04
      -7.62868585e-05 -8.80391890e-05 -6.95828116e-04 -7.19464268e-04
      -5.49158081e-04 -4.12312278e-04 -2.03649673e-04 -1.41637342e-04
      -3.69850059e-05 6.08684495e-04 4.90826787e-04 4.75777022e-04
      5.54134545e-04 6.16110512e-04 4.49414161e-04 4.08480642e-04
      2.97749735e-04 2.84280541e-04 2.98065192e-04 3.71329166e-04
      4.99277725e-04 5.42798720e-04 4.01031459e-04 3.87131586e-04
      4.41132666e-04 7.27490697e-04 7.87315017e-04 7.34030269e-04
      7.60586117e-04 3.85640888e-04 1.37648618e-04 -1.23111740e-05
      -1.26130108e-04 -3.27238842e-04 -1.43651559e-04 -8.28509947e-05
      3.56291202e-05 2.00871204e-04 -6.41046381e-06 1.08756351e-04
      1.30460030e-04 4.03570994e-05 4.62741300e-05 -9.74747018e-05
      -4.03122140e-05 -2.96637911e-04 -3.97529948e-04 -5.53170103e-04
      -7.37247174e-04 -8.02866765e-04 -8.44103110e-04 -7.43248034e-04
      -9.22674721e-04 -9.35990189e-04 -6.70851441e-04 -7.06499675e-04
      -5.11746213e-04 -3.21590429e-04 -2.50977348e-04 1.87393467e-04
      5.81608037e-05 6.44441825e-05 -1.47512517e-04 -7.97672255e-05
      -3.46773071e-04 -4.75580717e-04 -4.88108199e-04 -5.57650113e-04
      -5.97692793e-04 -5.40809182e-04 -4.55425994e-04 -2.86001014e-04
      -3.81892081e-04 -3.64768959e-04 -3.28810856e-04 -2.40194073e-04
      -2.34158768e-04 -1.70287298e-04 -1.76704576e-04 -3.81691149e-04
      -4.74227127e-04 -6.07086229e-04 -5.77133091e-04 -6.82057987e-04
      -6.38524536e-04 -5.12505765e-04 -4.78179543e-04 -1.40055476e-04
      -7.56244990e-05 -4.56183334e-05 1.65757447e-04 5.31260921e-05
      -1.93971762e-04 -2.62401241e-04 -1.26180123e-04 -4.84089745e-04
      -5.18182467e-04 -7.46112957e-04 -8.46969022e-04 -6.41236547e-04
      -1.04663055e-03 -1.00911490e-03 -5.47668780e-04 -6.17594342e-04
      -4.59588104e-04 -3.24427034e-04 -8.58643180e-05 -1.05587023e-05
      7.11042012e-05 5.17516630e-04 4.75269509e-04 5.70002885e-04
      6.07628608e-04 6.73788367e-04 6.55093696e-04 6.21761661e-04
      7.83207535e-04 5.61084424e-04 3.74722091e-04 3.65548563e-04
      4.07287560e-04 5.17067558e-04 4.39558120e-04 5.47750329e-04
      6.37597230e-04 7.12582376e-04 7.75811030e-04 7.76803936e-04
      8.04766838e-04 6.41445513e-04 3.61862913e-04 2.59428925e-04
      2.89694144e-04 3.01241676e-06 -4.34703470e-05 -4.79602313e-05
      7.27293946e-06 6.32846059e-05 -1.29117980e-04 -1.19981829e-04
      -9.69434695e-05 -2.33852596e-04 -3.55092634e-04 -3.73531890e-04
      -2.71618483e-04 -6.93271752e-04 -7.54737412e-04 -8.80028878e-04
      -1.08567812e-03 -1.01548247e-03 -1.12848065e-03 -8.72132275e-03
      1.21310388e-03 -1.55220518e-03 6.61015685e-04 2.06756318e-04
      -9.37040240e-05 3.29340488e-04 -5.99495892e-04 7.73681677e-05
      -6.46002591e-05 2.03291464e-04 8.79037398e-05 -7.40908581e-05
      3.28731840e-05 -2.76155220e-06 1.24433878e-04 1.23218040e-03
      -1.55184465e-03 6.62139093e-04 2.10516460e-04 -9.78692624e-05
      3.28155234e-04 -5.99714927e-04 7.79148468e-05 -6.64143445e-05
      2.02102048e-04 8.86272828e-05 -7.46585865e-05 3.29650065e-05
      -3.89941306e-06 1.23331905e-04 1.25179789e-03 -1.55106070e-03
      6.63586427e-04 2.14628191e-04 -1.01812118e-04 3.26979178e-04
      -5.99809980e-04 7.87123790e-05 -6.81575038e-05 2.00779366e-04
      8.94363839e-05 -7.51437110e-05 3.31946940e-05 -5.03224692e-06
      1.22023434e-04 1.27269037e-03 -1.54962379e-03 6.65478525e-04
      2.19052527e-04 -1.05375861e-04 3.25394445e-04 -5.99900784e-04
      7.98524998e-05 -6.98648219e-05 1.98644397e-04 9.02557586e-05
      -7.55365909e-05 3.35949553e-05 -6.29618398e-06 1.19861921e-04
      1.30429026e-03 -1.54853053e-03 6.68142806e-04 2.25604163e-04
      -1.09245251e-04 3.23415530e-04 -6.00397703e-04 8.12264916e-05
      -7.20959652e-05 1.95896384e-04 9.14194316e-05 -7.60379553e-05
      3.39888174e-05 -7.95642700e-06 1.17229421e-04 1.34329754e-03
      -1.54781865e-03 6.71299407e-04 2.33825427e-04 -1.13421280e-04
      3.21258209e-04 -6.01150619e-04 8.28258853e-05 -7.47207159e-05
      1.92908978e-04 9.29201633e-05 -7.66237354e-05 3.44012660e-05
      -9.87496060e-06 1.14462120e-04 1.38563011e-03 -1.54831808e-03
      6.77723961e-04 2.42959577e-04 -1.16336567e-04 3.21218598e-04
      -6.02337415e-04 8.51310033e-05 -7.65570076e-05 1.91370680e-04
      9.47173685e-05 -7.70564002e-05 3.52280840e-05 -1.12560710e-05
      1.12773749e-04 1.43090694e-03 -1.54871843e-03 6.84766099e-04
      2.53485923e-04 -1.18981246e-04 3.21515487e-04 -6.03391498e-04
      8.78127394e-05 -7.83276919e-05 1.90095714e-04 9.70053661e-05
      -7.74194123e-05 3.61895836e-05 -1.25684337e-05 1.11334157e-04
      1.48403819e-03 -1.54966116e-03 6.89822191e-04 2.66496238e-04
      -1.21756661e-04 3.19451385e-04 -6.04610657e-04 9.05263805e-05
      -8.07002652e-05 1.86754187e-04 1.00076453e-04 -7.77992900e-05
      3.69643240e-05 -1.43778198e-05 1.08366272e-04 1.53880066e-03
      -1.55142823e-03 6.95457158e-04 2.80426146e-04 -1.24332364e-04
      3.17696598e-04 -6.06007292e-04 9.35209391e-05 -8.29555938e-05
      1.83591241e-04 1.03566985e-04 -7.81585040e-05 3.78775258e-05
      -1.60812433e-05 1.05500163e-04 1.59619784e-03 -1.55389670e-03
      7.02665653e-04 2.95090838e-04 -1.26283150e-04 3.16626363e-04
      -6.07786991e-04 9.68922322e-05 -8.48921554e-05 1.80644405e-04
      1.07311818e-04 -7.84709700e-05 3.89949892e-05 -1.76356698e-05
      1.02664781e-04 1.64674432e-03 -1.55651791e-03 7.05856830e-04
      3.08282877e-04 -1.27431093e-04 3.13325494e-04 -6.09685841e-04
      9.96157469e-05 -8.67096605e-05 1.76341389e-04 1.10779605e-04
      -7.86004384e-05 3.97612348e-05 -1.91454365e-05 9.90180852e-05
      1.69625180e-03 -1.55951129e-03 7.07220053e-04 3.21777858e-04
      -1.28390879e-04 3.09287017e-04 -6.11715426e-04 1.02203638e-04
      -8.85156769e-05 1.71794192e-04 1.14466719e-04 -7.86317178e-05
      4.04333514e-05 -2.05988763e-05 9.53179260e-05 1.74883229e-03
      -1.56518235e-03 7.05472194e-04 3.37609090e-04 -1.30878849e-04
      3.03532201e-04 -6.13556418e-04 1.04342478e-04 -9.13149124e-05
      1.66072889e-04 1.19463381e-04 -7.88229081e-05 4.07373263e-05
      -2.26159191e-05 9.09027149e-05 1.79425441e-03 -1.56987656e-03
      7.01128680e-04 3.52115138e-04 -1.32778165e-04 2.96381302e-04
      -6.14970515e-04 1.05952859e-04 -9.39503370e-05 1.59461357e-04
      1.24241109e-04 -7.88581456e-05 4.08423293e-05 -2.45375431e-05
      8.59339998e-05 1.82090676e-03 -1.57753238e-03 6.93770649e-04
      3.58813384e-04 -1.33691108e-04 2.88436859e-04 -6.18318736e-04
      1.06138934e-04 -9.58333985e-05 1.52491542e-04 1.25998224e-04
      -7.90130362e-05 4.06570834e-05 -2.60049092e-05 8.08033510e-05
      1.84771128e-03 -1.58191891e-03 6.85156381e-04 3.66196880e-04
      -1.33807247e-04 2.79921689e-04 -6.20265899e-04 1.06090192e-04
      -9.75540825e-05 1.45274316e-04 1.28047599e-04 -7.88828474e-05
      4.03355225e-05 -2.73506375e-05 7.56818263e-05 1.87676528e-03
      -1.58232462e-03 6.75266841e-04 3.74835829e-04 -1.33525231e-04
      2.71247525e-04 -6.20761770e-04 1.05904001e-04 -9.91853012e-05
      1.38203803e-04 1.30504239e-04 -7.85742013e-05 3.99521705e-05
      -2.85650767e-05 7.08250082e-05 1.90284674e-03 -1.58070645e-03
      6.64297608e-04 3.81329766e-04 -1.32746252e-04 2.61146080e-04
      -6.21344254e-04 1.05546998e-04 -1.00864847e-04 1.29945183e-04
      1.31902329e-04 -7.81809504e-05 3.94816452e-05 -2.99734074e-05
      6.51008595e-05 1.92723132e-03 -1.57614145e-03 6.52953982e-04
      3.88041284e-04 -1.31585446e-04 2.50727317e-04 -6.20690756e-04
      1.05386331e-04 -1.02548351e-04 1.21609402e-04 1.33491674e-04
      -7.75378503e-05 3.90197456e-05 -3.14202880e-05 5.94920530e-05
      1.94891554e-03 -1.56574650e-03 6.42978761e-04 3.93562776e-04
      -1.29697102e-04 2.40724621e-04 -6.18264661e-04 1.05347433e-04
      -1.04028455e-04 1.13822949e-04 1.34604386e-04 -7.67540478e-05
      3.84886807e-05 -3.28150309e-05 5.44042450e-05 1.96001166e-03
      -1.55619113e-03 6.32098003e-04 3.96514020e-04 -1.27676700e-04
      2.31376180e-04 -6.15522033e-04 1.04953338e-04 -1.05109946e-04
      1.06850319e-04 1.35269656e-04 -7.58640381e-05 3.79005905e-05
      -3.38980681e-05 4.99555754e-05 1.95760396e-03 -1.55008747e-03
      6.19501283e-04 3.95598239e-04 -1.26625018e-04 2.22316332e-04
      -6.13221258e-04 1.03697115e-04 -1.06187828e-04 1.00657271e-04
      1.35074748e-04 -7.52410633e-05 3.70625348e-05 -3.47999849e-05
      4.62043135e-05 1.95075269e-03 -1.54491013e-03 6.05941052e-04
      3.93693073e-04 -1.27032079e-04 2.12695741e-04 -6.11429510e-04
      1.02061116e-04 -1.07866203e-04 9.45134452e-05 1.34469432e-04
      -7.50338513e-05 3.59868245e-05 -3.59811420e-05 4.26361876e-05
      1.94514985e-03 -1.53704989e-03 5.91876102e-04 3.93322611e-04
      -1.27773397e-04 2.02245472e-04 -6.08555798e-04 1.00649573e-04
      -1.09851455e-04 8.80069347e-05 1.34470232e-04 -7.47579397e-05
      3.48676986e-05 -3.73463736e-05 3.89162960e-05 1.94651261e-03
      -1.52293162e-03 5.79936255e-04 3.95334180e-04 -1.27597552e-04
      1.92604653e-04 -6.04341156e-04 9.97332099e-05 -1.11516303e-04
      8.21202120e-05 1.34882081e-04 -7.43251949e-05 3.38477330e-05
      -3.85482963e-05 3.55935772e-05 1.94428849e-03 -1.50878495e-03
      5.66470146e-04 3.97535536e-04 -1.28839791e-04 1.82994758e-04
      -5.99654450e-04 9.83723003e-05 -1.13568596e-04 7.68068494e-05
      1.35638809e-04 -7.41215335e-05 3.26516965e-05 -3.97812946e-05
      3.27930975e-05 1.93880289e-03 -1.49605353e-03 5.53465972e-04
      3.98460135e-04 -1.30826360e-04 1.74044835e-04 -5.95460820e-04
      9.68194363e-05 -1.15612718e-04 7.20261378e-05 1.35994793e-04
      -7.41183030e-05 3.14656027e-05 -4.09509157e-05 3.02757180e-05
      1.92791864e-03 -1.49060250e-03 5.41704241e-04 3.95612995e-04
      -1.33687936e-04 1.66898826e-04 -5.94283454e-04 9.47389126e-05
      -1.17420139e-04 6.84189290e-05 1.35027702e-04 -7.46049773e-05
      3.03632878e-05 -4.18503405e-05 2.84274556e-05 1.91161467e-03
      -1.49160158e-03 5.31364291e-04 3.88289365e-04 -1.36984119e-04
      1.61074087e-04 -5.96196449e-04 9.22349791e-05 -1.18963151e-04
      6.56415650e-05 1.32264424e-04 -7.55226138e-05 2.93447192e-05
      -4.25381222e-05 2.70659784e-05 1.89302210e-03 -1.49147084e-03
      5.21624868e-04 3.80624057e-04 -1.39735072e-04 1.55708840e-04
      -5.97487960e-04 8.99890292e-05 -1.20103563e-04 6.30655923e-05
      1.29426422e-04 -7.62575874e-05 2.84776415e-05 -4.30407599e-05
      2.57479969e-05 1.87683071e-03 -1.49269495e-03 5.13635401e-04
      3.72719864e-04 -1.42077188e-04 1.51445260e-04 -5.99419815e-04
      8.80164662e-05 -1.20864715e-04 6.09085364e-05 1.26448140e-04
      -7.69874241e-05 2.78399202e-05 -4.33643763e-05 2.45649735e-05
      1.87057466e-03 -1.49159669e-03 5.08941186e-04 3.69131245e-04
      -1.43428464e-04 1.47768791e-04 -5.99888968e-04 8.71368393e-05
      -1.21671510e-04 5.84638146e-05 1.24977261e-04 -7.73064676e-05
      2.74458216e-05 -4.39352843e-05 2.30036312e-05 1.86642236e-03
      -1.48840854e-03 5.05207281e-04 3.67189525e-04 -1.44539386e-04
      1.44169680e-04 -5.99296298e-04 8.67213312e-05 -1.22545520e-04
      5.59802975e-05 1.24202546e-04 -7.74601358e-05 2.71457575e-05
      -4.46077065e-05 2.14325264e-05 1.86067261e-03 -1.48808444e-03
      5.01430826e-04 3.62857303e-04 -1.46722305e-04 1.40386779e-04
      -6.00224070e-04 8.58753992e-05 -1.23698381e-04 5.34512619e-05
      1.22482597e-04 -7.80490736e-05 2.67747073e-05 -4.54063447e-05
      1.98289563e-05 1.85635278e-03 -1.48721819e-03 4.96997207e-04
      3.59688362e-04 -1.49303596e-04 1.36426286e-04 -6.00628962e-04
      8.51089062e-05 -1.25076505e-04 5.11021753e-05 1.21192279e-04
      -7.85995726e-05 2.63864713e-05 -4.62574026e-05 1.84520850e-05
      1.85851601e-03 -1.48538570e-03 4.94541018e-04 3.58846737e-04
      -1.51549291e-04 1.33426147e-04 -6.00604806e-04 8.48959316e-05
      -1.26342318e-04 4.93507105e-05 1.20573837e-04 -7.90309714e-05
      2.61783371e-05 -4.70300511e-05 1.74297456e-05 1.85656012e-03
      -1.49097200e-03 4.92278836e-04 3.56845994e-04 -1.54904978e-04
      1.31124718e-04 -6.02175598e-04 8.46339026e-05 -1.27822350e-04
      4.81464158e-05 1.19961493e-04 -7.96746390e-05 2.60144352e-05
      -4.78336806e-05 1.67698781e-05 1.85408129e-03 -1.49792642e-03
      4.89114085e-04 3.55642784e-04 -1.58962226e-04 1.28907239e-04
      -6.03728287e-04 8.43232483e-05 -1.29544685e-04 4.72184729e-05
      1.19853998e-04 -8.03913281e-05 2.58345462e-05 -4.86675199e-05
      1.63355307e-05 1.84667343e-03 -1.50890008e-03 4.86798381e-04
      3.53683165e-04 -1.62997574e-04 1.27542982e-04 -6.06118294e-04
      8.40228313e-05 -1.31081222e-04 4.67280261e-05 1.19740398e-04
      -8.11632344e-05 2.57162064e-05 -4.93864936e-05 1.61258467e-05
      1.84403325e-03 -1.51933392e-03 4.85778350e-04 3.53958952e-04
      -1.66590034e-04 1.26697167e-04 -6.08336937e-04 8.41965884e-05
      -1.32483678e-04 4.65007070e-05 1.20401412e-04 -8.18579501e-05
      2.57419997e-05 -5.00287897e-05 1.60438922e-05 1.85318233e-03
      -1.52740569e-03 4.87959245e-04 3.57787649e-04 -1.69043749e-04
      1.27042440e-04 -6.09932002e-04 8.50411452e-05 -1.33472451e-04
      4.67123391e-05 1.22251528e-04 -8.23762530e-05 2.59824792e-05
      -5.04872478e-05 1.61219377e-05 1.86896417e-03 -1.53365440e-03
      4.90375562e-04 3.62632767e-04 -1.70939864e-04 1.27366613e-04
      -6.11814728e-04 8.60074360e-05 -1.34341943e-04 4.68838807e-05
      1.24179947e-04 -8.28449702e-05 2.62556605e-05 -5.08774392e-05
      1.61941716e-05 1.88775919e-03 -1.53975480e-03 4.91883548e-04
      3.66664317e-04 -1.72570915e-04 1.27244071e-04 -6.14892866e-04
      8.67698036e-05 -1.35121925e-04 4.68328326e-05 1.25288861e-04
      -8.34097737e-05 2.64905811e-05 -5.11953112e-05 1.61722892e-05
      1.89948152e-03 -1.54506706e-03 4.90962877e-04 3.69981310e-04
      -1.73792781e-04 1.26279876e-04 -6.17162092e-04 8.69459764e-05
      -1.35634822e-04 4.63019642e-05 1.26482191e-04 -8.37932967e-05
      2.64752071e-05 -5.13619088e-05 1.58955681e-05 1.90855982e-03
      -1.55064475e-03 4.88933991e-04 3.73666582e-04 -1.74918197e-04
      1.25214181e-04 -6.19114784e-04 8.69999640e-05 -1.36062998e-04
      4.57400529e-05 1.28101150e-04 -8.40629509e-05 2.64350474e-05
      -5.14434068e-05 1.56019578e-05 1.90623745e-03 -1.56205532e-03
      4.82688629e-04 3.73313116e-04 -1.76808258e-04 1.23020465e-04
      -6.22363121e-04 8.60378495e-05 -1.36471004e-04 4.47382226e-05
      1.28807820e-04 -8.44041861e-05 2.61759124e-05 -5.14095118e-05
      1.51187596e-05 1.90838135e-03 -1.56906573e-03 4.77629976e-04
      3.74591793e-04 -1.77034817e-04 1.21444995e-04 -6.24558015e-04
      8.53534439e-05 -1.36355433e-04 4.38693387e-05 1.29737629e-04
      -8.43728558e-05 2.60050674e-05 -5.11646795e-05 1.46615630e-05
      1.91702740e-03 -1.56989461e-03 4.74488712e-04 3.77364253e-04
      -1.75260691e-04 1.20571218e-04 -6.25377754e-04 8.48713607e-05
      -1.35653725e-04 4.31018489e-05 1.30599597e-04 -8.39801360e-05
      2.58722303e-05 -5.07117111e-05 1.42110084e-05 1.91982393e-03
      -1.57087180e-03 4.67990671e-04 3.77423654e-04 -1.73728811e-04
      1.18378382e-04 -6.26562920e-04 8.37265034e-05 -1.35138747e-04
      4.18146992e-05 1.30349334e-04 -8.36094114e-05 2.55471587e-05
      -5.03065567e-05 1.35962437e-05 1.92001159e-03 -1.57127017e-03
      4.60122479e-04 3.76993179e-04 -1.72205735e-04 1.15870491e-04
      -6.27441448e-04 8.24066447e-05 -1.34677975e-04 4.04473176e-05
      1.29880733e-04 -8.31836369e-05 2.51896781e-05 -4.99167909e-05
      1.29939481e-05 1.93106453e-03 -1.56120269e-03 4.56792710e-04
      3.79574456e-04 -1.67767284e-04 1.14880429e-04 -6.25165238e-04
      8.19366178e-05 -1.33397058e-04 3.94011986e-05 1.29860244e-04
      -8.20826608e-05 2.50637204e-05 -4.93163716e-05 1.24862472e-05
      1.93679461e-03 -1.55223627e-03 4.52647422e-04 3.81261576e-04
      -1.64244091e-04 1.13903043e-04 -6.22594613e-04 8.12467188e-05
      -1.32432702e-04 3.85240746e-05 1.29789798e-04 -8.11273640e-05
      2.48822562e-05 -4.88238293e-05 1.21033136e-05 1.92856696e-03
      -1.54819526e-03 4.47086699e-04 3.78680445e-04 -1.62658907e-04
      1.12625901e-04 -6.20690291e-04 7.98890760e-05 -1.32018278e-04
      3.77829529e-05 1.28764383e-04 -8.06018725e-05 2.44893781e-05
      -4.85352502e-05 1.18340540e-05 1.91625615e-03 -1.54638232e-03
      4.43261961e-04 3.73907329e-04 -1.61529140e-04 1.11920461e-04
      -6.19512226e-04 7.85253214e-05 -1.31676265e-04 3.73902330e-05
      1.27103369e-04 -8.03411967e-05 2.41304406e-05 -4.82951182e-05
      1.17228437e-05 1.90150796e-03 -1.54591841e-03 4.40859789e-04
      3.68032284e-04 -1.60739190e-04 1.11724868e-04 -6.18838239e-04
      7.72768399e-05 -1.31374807e-04 3.73004077e-05 1.25098319e-04
      -8.02634968e-05 2.38342800e-05 -4.80957024e-05 1.17450718e-05
      1.88734476e-03 -1.54091325e-03 4.37550072e-04 3.63219617e-04
      -1.60467229e-04 1.10441353e-04 -6.16878970e-04 7.62308700e-05
      -1.31392080e-04 3.68705369e-05 1.23386941e-04 -8.02075883e-05
      2.34510098e-05 -4.80916351e-05 1.16454248e-05 1.87199097e-03
      -1.53546408e-03 4.34431277e-04 3.59591271e-04 -1.60314172e-04
      1.09141496e-04 -6.14443154e-04 7.55130677e-05 -1.31494788e-04
      3.65139858e-05 1.22208381e-04 -8.00867419e-05 2.31395352e-05
      -4.81334901e-05 1.15870325e-05 1.85308093e-03 -1.52750651e-03
      4.32038883e-04 3.56769800e-04 -1.60239404e-04 1.07569329e-04
      -6.10843534e-04 7.53032364e-05 -1.31643625e-04 3.61858110e-05
      1.21334342e-04 -7.98367691e-05 2.28737808e-05 -4.82612086e-05
      1.15356570e-05 1.83424691e-03 -1.52297004e-03 4.29713022e-04
      3.53814656e-04 -1.60990166e-04 1.06259919e-04 -6.08169299e-04
      7.50164327e-05 -1.31943918e-04 3.60049271e-05 1.20681536e-04
      -7.97866305e-05 2.26404663e-05 -4.84385564e-05 1.15458106e-05
      1.81574258e-03 -1.52159180e-03 4.28366970e-04 3.50533694e-04
      -1.62260141e-04 1.05675761e-04 -6.06338785e-04 7.47186787e-05
      -1.32265428e-04 3.61579660e-05 1.20179735e-04 -7.98930560e-05
      2.24782143e-05 -4.86121535e-05 1.16934225e-05 1.79368327e-03
      -1.52807380e-03 4.28367144e-04 3.44103959e-04 -1.64294077e-04
      1.05882158e-04 -6.07569760e-04 7.42059128e-05 -1.32615853e-04
      3.66201311e-05 1.18715601e-04 -8.03909788e-05 2.23704355e-05
      -4.87919315e-05 1.19340675e-05 1.77510804e-03 -1.53501006e-03
      4.29324835e-04 3.39496240e-04 -1.66129044e-04 1.06503954e-04
      -6.08692993e-04 7.40660253e-05 -1.32914865e-04 3.71957904e-05
      1.17994678e-04 -8.07881152e-05 2.23752268e-05 -4.89618942e-05
      1.22051306e-05 1.77120545e-03 -1.53463113e-03 4.33662964e-04
      3.39843973e-04 -1.66130078e-04 1.07712913e-04 -6.07806083e-04
      7.51169864e-05 -1.32874731e-04 3.77967044e-05 1.18677315e-04
      -8.06504759e-05 2.26565044e-05 -4.90923594e-05 1.24405469e-05
      1.76590448e-03 -1.53880927e-03 4.36384580e-04 3.38002981e-04
      -1.67215912e-04 1.08602653e-04 -6.09110924e-04 7.55799701e-05
      -1.33106325e-04 3.82900107e-05 1.18354757e-04 -8.09393750e-05
      2.28395256e-05 -4.92836880e-05 1.26445166e-05 1.76397595e-03
      -1.54657115e-03 4.37304989e-04 3.36060941e-04 -1.69616236e-04
      1.08960419e-04 -6.11973519e-04 7.56125955e-05 -1.33755675e-04
      3.85525527e-05 1.17787691e-04 -8.15639578e-05 2.29255784e-05
      -4.96063403e-05 1.27737221e-05 1.76954421e-03 -1.55095174e-03
      4.39209893e-04 3.35388642e-04 -1.71002408e-04 1.09610126e-04
      -6.14542514e-04 7.58115348e-05 -1.34117567e-04 3.88385924e-05
      1.17217787e-04 -8.20762289e-05 2.30633013e-05 -4.98071640e-05
      1.28828033e-05 1.77704776e-03 -1.55592849e-03 4.41040378e-04
      3.35253455e-04 -1.72503191e-04 1.10460845e-04 -6.17096433e-04
      7.60434923e-05 -1.34492017e-04 3.92400361e-05 1.16892850e-04
      -8.25820825e-05 2.32347975e-05 -4.99855996e-05 1.30381413e-05
      1.78824167e-03 -1.56032422e-03 4.44639416e-04 3.36151308e-04
      -1.72979970e-04 1.11939196e-04 -6.19421597e-04 7.65400764e-05
      -1.34559974e-04 3.97513904e-05 1.16907693e-04 -8.28831908e-05
      2.35024545e-05 -5.00429232e-05 1.32018304e-05 1.80058193e-03
      -1.56251306e-03 4.48953011e-04 3.38289392e-04 -1.72609420e-04
      1.13692928e-04 -6.20698440e-04 7.72897256e-05 -1.34378992e-04
      4.03055456e-05 1.17335716e-04 -8.29259370e-05 2.38293342e-05
      -5.00131173e-05 1.33666799e-05 1.81923062e-03 -1.56648539e-03
      4.53281304e-04 3.41373408e-04 -1.72969812e-04 1.15776573e-04
      -6.22568012e-04 7.79162947e-05 -1.34460148e-04 4.10512002e-05
      1.17988398e-04 -8.31613725e-05 2.41516955e-05 -5.00519309e-05
      1.36481076e-05 1.84589007e-03 -1.56532740e-03 4.58166876e-04
      3.47509951e-04 -1.72491258e-04 1.17672033e-04 -6.23058528e-04
      7.89466721e-05 -1.34486138e-04 4.17042465e-05 1.19384495e-04
      -8.31730940e-05 2.45125157e-05 -5.00793176e-05 1.38993519e-05
      1.86951284e-03 -1.56352133e-03 4.61941614e-04 3.53223004e-04
      -1.71861087e-04 1.19135606e-04 -6.23082859e-04 7.97899775e-05
      -1.34463626e-04 4.22115263e-05 1.20657329e-04 -8.31100333e-05
      2.47930384e-05 -5.00674760e-05 1.40988232e-05 1.89335295e-03
      -1.56215078e-03 4.63670091e-04 3.59250291e-04 -1.71492808e-04
      1.19825978e-04 -6.23289437e-04 8.04762603e-05 -1.34585047e-04
      4.24351565e-05 1.22039615e-04 -8.31027282e-05 2.50231060e-05
      -5.00704700e-05 1.42110312e-05 1.91361888e-03 -1.56269106e-03
      4.64443321e-04 3.65290180e-04 -1.71265012e-04 1.20237113e-04
      -6.23587868e-04 8.11372811e-05 -1.34754431e-04 4.25517283e-05
      1.23709775e-04 -8.30822682e-05 2.52552381e-05 -5.00700153e-05
      1.42891813e-05 1.92797463e-03 -1.56592496e-03 4.64917772e-04
      3.68932175e-04 -1.70697051e-04 1.20625678e-04 -6.24737469e-04
      8.13409570e-05 -1.34714603e-04 4.25449907e-05 1.24751445e-04
      -8.31384677e-05 2.53782546e-05 -4.99456619e-05 1.42968365e-05
      1.94029359e-03 -1.56922999e-03 4.61853226e-04 3.72432813e-04
      -1.70750398e-04 1.19605618e-04 -6.25863788e-04 8.10489728e-05
      -1.34999296e-04 4.19907010e-05 1.25845516e-04 -8.32691367e-05
      2.52921891e-05 -4.98930603e-05 1.41032660e-05 1.94889109e-03
      -1.57231907e-03 4.58669907e-04 3.74813302e-04 -1.70456115e-04
      1.18556098e-04 -6.26949710e-04 8.04972733e-05 -1.35100796e-04
      4.14004426e-05 1.26651619e-04 -8.33611557e-05 2.51016736e-05
      -4.97367982e-05 1.38606110e-05 1.95467332e-03 -1.57333433e-03
      4.55604924e-04 3.77710967e-04 -1.69263076e-04 1.17598312e-04
      -6.26959198e-04 8.01181013e-05 -1.34842674e-04 4.08007982e-05
      1.27809923e-04 -8.31711877e-05 2.49431323e-05 -4.94415981e-05
      1.35807741e-05 1.95390428e-03 -1.57385611e-03 4.52561391e-04
      3.80262558e-04 -1.66801445e-04 1.16767173e-04 -6.25942834e-04
      7.97870089e-05 -1.34106464e-04 4.01231737e-05 1.29272434e-04
      -8.25795432e-05 2.47959488e-05 -4.89372578e-05 1.32241903e-05
      1.94266380e-03 -1.57482515e-03 4.48517996e-04 3.79992707e-04
      -1.64038749e-04 1.15522824e-04 -6.24641427e-04 7.92216888e-05
      -1.33140260e-04 3.92550464e-05 1.30096450e-04 -8.18487024e-05
      2.45826159e-05 -4.83701297e-05 1.27784488e-05 1.91984943e-03
      -1.57950365e-03 4.41547367e-04 3.75340693e-04 -1.62363518e-04
      1.13587259e-04 -6.24620123e-04 7.77687965e-05 -1.32327375e-04
      3.82439466e-05 1.29567459e-04 -8.14260129e-05 2.41602884e-05
      -4.78125112e-05 1.23013679e-05 1.89081766e-03 -1.58174138e-03
      4.32428118e-04 3.67537286e-04 -1.60323470e-04 1.10610243e-04
      -6.24428270e-04 7.55361907e-05 -1.31463123e-04 3.67936336e-05
      1.27625928e-04 -8.09838821e-05 2.34543731e-05 -4.72104330e-05
      1.16587298e-05 1.85949239e-03 -1.58407819e-03 4.23284917e-04
      3.57830577e-04 -1.58506926e-04 1.07646978e-04 -6.25073619e-04
      7.30289903e-05 -1.30653440e-04 3.53815631e-05 1.24554441e-04
      -8.07624601e-05 2.27061028e-05 -4.66460770e-05 1.10460387e-05
      1.82360061e-03 -1.58194988e-03 4.15869756e-04 3.47295951e-04
      -1.55571935e-04 1.05148734e-04 -6.24235603e-04 7.09005253e-05
      -1.29425025e-04 3.41430277e-05 1.21223769e-04 -8.02049180e-05
      2.20540496e-05 -4.59918920e-05 1.04854635e-05 1.78121368e-03
      -1.58120086e-03 4.09350352e-04 3.34745098e-04 -1.53067027e-04
      1.03206723e-04 -6.23388565e-04 6.86647254e-05 -1.28215121e-04
      3.32270574e-05 1.17537005e-04 -7.97666216e-05 2.14008287e-05
      -4.53703542e-05 1.00743182e-05 1.73996785e-03 -1.58120133e-03
      4.03966464e-04 3.22103617e-04 -1.50934517e-04 1.01780963e-04
      -6.22782914e-04 6.66504857e-05 -1.27092149e-04 3.25811561e-05
      1.13880713e-04 -7.94392618e-05 2.08343026e-05 -4.48059764e-05
      9.77997388e-06 1.70152169e-03 -1.57011475e-03 4.01253841e-04
      3.11052456e-04 -1.47843122e-04 1.00837875e-04 -6.19097322e-04
      6.53295356e-05 -1.25636449e-04 3.22876986e-05 1.10454072e-04
      -7.88038087e-05 2.03441268e-05 -4.42252021e-05 9.61479600e-06
      1.66520698e-03 -1.55410811e-03 3.99359822e-04 3.02014261e-04
      -1.44755089e-04 9.99740441e-05 -6.13952579e-04 6.45082691e-05
      -1.24229977e-04 3.21599800e-05 1.07641550e-04 -7.80640548e-05
      1.99320002e-05 -4.37151393e-05 9.52107257e-06 1.63458742e-03
      -1.53902965e-03 3.95620737e-04 2.94974830e-04 -1.43053709e-04
      9.75339062e-05 -6.09241019e-04 6.37988051e-05 -1.23580525e-04
      3.13868841e-05 1.05446787e-04 -7.75510198e-05 1.94664553e-05
      -4.35463662e-05 9.19295780e-06 1.60584599e-03 -1.52111740e-03
      3.93034890e-04 2.90058641e-04 -1.41173354e-04 9.53909694e-05
      -6.03563094e-04 6.36280529e-05 -1.22876969e-04 3.08210547e-05
      1.03966297e-04 -7.69028047e-05 1.91224262e-05 -4.33946625e-05
      8.94968707e-06 1.57898641e-03 -1.50194799e-03 3.93237948e-04
      2.86199531e-04 -1.39452983e-04 9.40529717e-05 -5.97521139e-04
      6.41338920e-05 -1.22084399e-04 3.06738875e-05 1.02927232e-04
      -7.62200434e-05 1.89633975e-05 -4.33195419e-05 8.85671761e-06
      1.54997257e-03 -1.48611621e-03 3.93608527e-04 2.81975488e-04
      -1.38301184e-04 9.29932430e-05 -5.92223543e-04 6.45805630e-05
      -1.21441277e-04 3.06767870e-05 1.02025522e-04 -7.56289592e-05
      1.88122012e-05 -4.32906054e-05 8.82928816e-06 1.51867128e-03
      -1.47376489e-03 3.93976195e-04 2.77269515e-04 -1.37719646e-04
      9.21337924e-05 -5.87703020e-04 6.49138237e-05 -1.20972487e-04
      3.08086710e-05 1.01213387e-04 -7.51467742e-05 1.86492525e-05
      -4.33113310e-05 8.86255202e-06 1.49400521e-03 -1.46469951e-03
      3.94095347e-04 2.73234589e-04 -1.39002193e-04 9.08882575e-05
      -5.84606896e-04 6.50610891e-05 -1.21172226e-04 3.07844239e-05
      1.00474688e-04 -7.50782565e-05 1.84205928e-05 -4.36384507e-05
      8.85173267e-06 1.47201656e-03 -1.45598745e-03 3.93544731e-04
      2.70391873e-04 -1.40683012e-04 8.94990808e-05 -5.81470027e-04
      6.52342133e-05 -1.21590216e-04 3.07152986e-05 1.00091929e-04
      -7.50152685e-05 1.81991600e-05 -4.40402946e-05 8.84902329e-06
      1.45127554e-03 -1.44863396e-03 3.93425435e-04 2.67733907e-04
      -1.43008103e-04 8.83884713e-05 -5.79012325e-04 6.53412062e-05
      -1.22241268e-04 3.07512018e-05 9.96705203e-05 -7.51101470e-05
      1.79673334e-05 -4.45600963e-05 8.89724379e-06 1.43604632e-03
      -1.44313625e-03 3.93955968e-04 2.66592600e-04 -1.45519793e-04
      8.77914426e-05 -5.76871797e-04 6.56317352e-05 -1.23002188e-04
      3.09430907e-05 9.96633680e-05 -7.52137494e-05 1.78463451e-05
      -4.51110463e-05 9.03045566e-06 1.43106922e-03 -1.43952586e-03
      3.96671589e-04 2.68205884e-04 -1.47848681e-04 8.83376488e-05
      -5.74868347e-04 6.64635591e-05 -1.23721431e-04 3.15071738e-05
      1.00459372e-04 -7.52445558e-05 1.79643412e-05 -4.56622111e-05
      9.33262709e-06 1.41200365e-03 -1.44693640e-03 3.97711352e-04
      2.63260474e-04 -1.52428096e-04 8.88537470e-05 -5.76517603e-04
      6.61303784e-05 -1.24962637e-04 3.22183587e-05 9.94030706e-05
      -7.59856339e-05 1.78764785e-05 -4.63471770e-05 9.73466831e-06
      1.38665130e-03 -1.45899539e-03 3.97868978e-04 2.55713327e-04
      -1.57912655e-04 8.93907782e-05 -5.79649524e-04 6.53453899e-05
      -1.26411265e-04 3.30184812e-05 9.75963994e-05 -7.69920080e-05
      1.77258498e-05 -4.71016683e-05 1.02043641e-05 1.39664533e-03
      -1.46778196e-03 4.03929182e-04 2.56459811e-04 -1.61928619e-04
      9.23646367e-05 -5.81998553e-04 6.59297802e-05 -1.27580046e-04
      3.46120578e-05 9.76172814e-05 -7.77565001e-05 1.80688694e-05
      -4.77342728e-05 1.10176125e-05 1.40850327e-03 -1.47590064e-03
      4.10833978e-04 2.57945096e-04 -1.65726407e-04 9.58836172e-05
      -5.84215624e-04 6.67590793e-05 -1.28688334e-04 3.65066990e-05
      9.78977987e-05 -7.84608201e-05 1.85112349e-05 -4.83390577e-05
      1.19893029e-05 1.42422307e-03 -1.48425298e-03 4.20313852e-04
      2.59186054e-04 -1.68927712e-04 1.00560857e-04 -5.86955284e-04
      6.78250653e-05 -1.29569264e-04 3.89137531e-05 9.80262339e-05
      -7.91995335e-05 1.90951541e-05 -4.88463847e-05 1.32002569e-05
      1.44644105e-03 -1.49512524e-03 4.32329543e-04 2.60936096e-04
      -1.71510255e-04 1.06464475e-04 -5.90938726e-04 6.92857066e-05
      -1.30141983e-04 4.17970077e-05 9.80636396e-05 -7.99976988e-05
      1.99071983e-05 -4.92050931e-05 1.46210023e-05 1.47418235e-03
      -1.50706316e-03 4.45659680e-04 2.63967202e-04 -1.73905326e-04
      1.13154332e-04 -5.95381134e-04 7.10685199e-05 -1.30611603e-04
      4.50703556e-05 9.84051658e-05 -8.08380209e-05 2.08828169e-05
      -4.94792039e-05 1.62490087e-05 1.50531298e-03 -1.52037630e-03
      4.60313313e-04 2.67768424e-04 -1.76093672e-04 1.20092031e-04
      -6.00305386e-04 7.30224128e-05 -1.31089124e-04 4.81706193e-05
      9.90328772e-05 -8.17541586e-05 2.19206795e-05 -4.98083646e-05
      1.76469857e-05 1.53675408e-03 -1.53367885e-03 4.74703585e-04
      2.72523146e-04 -1.78307469e-04 1.27036663e-04 -6.05032721e-04
      7.50100880e-05 -1.31612353e-04 5.12951920e-05 1.00106881e-04
      -8.26832984e-05 2.29514644e-05 -5.01209106e-05 1.90409864e-05
      1.57033012e-03 -1.54826429e-03 4.89108381e-04 2.78211170e-04
      -1.79757350e-04 1.34117116e-04 -6.10151677e-04 7.68916289e-05
      -1.31780282e-04 5.44297291e-05 1.01560188e-04 -8.36024192e-05
      2.39473393e-05 -5.01762988e-05 2.04524767e-05 1.60542864e-03
      -1.56447419e-03 5.04577823e-04 2.84673646e-04 -1.81076131e-04
      1.41797951e-04 -6.15717203e-04 7.89431069e-05 -1.31895897e-04
      5.78731015e-05 1.03354643e-04 -8.45603281e-05 2.50057819e-05
      -5.01734503e-05 2.20149795e-05 1.64183951e-03 -1.58241240e-03
      5.21452457e-04 2.91694771e-04 -1.82090778e-04 1.50323191e-04
      -6.21813000e-04 8.11529608e-05 -1.31870009e-04 6.17560436e-05
      1.05429994e-04 -8.55385588e-05 2.61422392e-05 -5.00595925e-05
      2.38042994e-05 1.66902377e-03 -1.59736734e-03 5.35436091e-04
      2.97453109e-04 -1.81438634e-04 1.58199618e-04 -6.26772933e-04
      8.28584525e-05 -1.31056076e-04 6.53878378e-05 1.07228407e-04
      -8.60852233e-05 2.70763776e-05 -4.95043168e-05 2.54894039e-05
      1.69417309e-03 -1.61114009e-03 5.47813717e-04 3.03787936e-04
      -1.80335235e-04 1.65807884e-04 -6.31179020e-04 8.44129972e-05
      -1.30054090e-04 6.90289307e-05 1.09291577e-04 -8.64597896e-05
      2.79389060e-05 -4.87910511e-05 2.72412381e-05 1.71919947e-03
      -1.62860914e-03 5.59932145e-04 3.09856026e-04 -1.79593888e-04
      1.74026180e-04 -6.36477198e-04 8.55739854e-05 -1.29070380e-04
      7.30492029e-05 1.11465823e-04 -8.69705036e-05 2.87202802e-05
      -4.79987793e-05 2.92137920e-05 1.73754396e-03 -1.64646434e-03
      5.70302596e-04 3.15015524e-04 -1.78810762e-04 1.82219679e-04
      -6.41422346e-04 8.63997193e-05 -1.27969804e-04 7.73163920e-05
      1.13590359e-04 -8.73742756e-05 2.94039328e-05 -4.70745254e-05
      3.14261997e-05 1.74159708e-03 -1.66250754e-03 5.77446539e-04
      3.17180733e-04 -1.77012771e-04 1.89513550e-04 -6.45146938e-04
      8.64651665e-05 -1.26372281e-04 8.13250590e-05 1.14981623e-04
      -8.74265679e-05 2.98129162e-05 -4.58604118e-05 3.36205558e-05
      1.74145808e-03 -1.67726260e-03 5.83664398e-04 3.17234691e-04
      -1.75063993e-04 1.96813140e-04 -6.48621353e-04 8.60685323e-05
      -1.24632425e-04 8.55894541e-05 1.15601375e-04 -8.75039696e-05
      3.01031359e-05 -4.45135083e-05 3.60665581e-05 1.73936575e-03
      -1.69158156e-03 5.88728872e-04 3.16051272e-04 -1.73057066e-04
      2.03941454e-04 -6.52114279e-04 8.52163139e-05 -1.22832338e-04
      8.99820297e-05 1.15776093e-04 -8.76137274e-05 3.02602675e-05
      -4.30682485e-05 3.87296677e-05 1.73031900e-03 -1.70397863e-03
      5.91945834e-04 3.13449098e-04 -1.70953426e-04 2.10466373e-04
      -6.54649804e-04 8.40327339e-05 -1.20958415e-04 9.42567422e-05
      1.15577088e-04 -8.75889527e-05 3.02849676e-05 -4.15547111e-05
      4.14374335e-05 1.72023417e-03 -1.71497732e-03 5.95041201e-04
      3.10772797e-04 -1.68940984e-04 2.17002744e-04 -6.56761054e-04
      8.28925768e-05 -1.19126569e-04 9.87373496e-05 1.15327464e-04
      -8.75617043e-05 3.03147754e-05 -4.00339195e-05 4.43570898e-05
      1.70301565e-03 -1.72342872e-03 5.99408231e-04 3.05855472e-04
      -1.66369384e-04 2.23761803e-04 -6.58092787e-04 8.18571498e-05
      -1.17033254e-04 1.03244674e-04 1.14339986e-04 -8.74401012e-05
      3.03604138e-05 -3.84864397e-05 4.72235879e-05 1.68056728e-03
      -1.73170434e-03 6.01726002e-04 2.99873878e-04 -1.64303841e-04
      2.29056503e-04 -6.59207813e-04 8.05838354e-05 -1.15253752e-04
      1.06817897e-04 1.13077520e-04 -8.73643585e-05 3.02606040e-05
      -3.71890274e-05 4.94750238e-05 1.65416999e-03 -1.73754070e-03
      6.04240107e-04 2.92905112e-04 -1.61555130e-04 2.34611070e-04
      -6.59622019e-04 7.92513383e-05 -1.13093462e-04 1.10732799e-04
      1.11455884e-04 -8.71573939e-05 3.01410619e-05 -3.56628298e-05
      5.19827991e-05 1.62503822e-03 -1.74314226e-03 6.06928777e-04
      2.85576243e-04 -1.59482239e-04 2.40398629e-04 -6.59899786e-04
      7.79583133e-05 -1.11106754e-04 1.15075200e-04 1.09811437e-04
      -8.70522490e-05 3.00038464e-05 -3.42117237e-05 5.47903583e-05
      1.59527850e-03 -1.74871669e-03 6.09591778e-04 2.78741238e-04
      -1.57912596e-04 2.46308919e-04 -6.60171558e-04 7.67884922e-05
      -1.09311768e-04 1.19690369e-04 1.08393862e-04 -8.70020449e-05
      2.98826362e-05 -3.28482092e-05 5.78136460e-05 1.56961288e-03
      -1.75105559e-03 6.15151017e-04 2.72905978e-04 -1.55372371e-04
      2.53625534e-04 -6.59841695e-04 7.61053743e-05 -1.07001739e-04
      1.25064456e-04 1.07131083e-04 -8.68097995e-05 2.99485419e-05
      -3.12694901e-05 6.12385411e-05 1.54594937e-03 -1.75094791e-03
      6.22487860e-04 2.67505529e-04 -1.52133231e-04 2.62052519e-04
      -6.59072422e-04 7.57334128e-05 -1.04274288e-04 1.31227309e-04
      1.05888001e-04 -8.65071197e-05 3.01611126e-05 -2.94554884e-05
      6.51683367e-05 1.52397586e-03 -1.74937432e-03 6.31933217e-04
      2.62389251e-04 -1.48683859e-04 2.71940546e-04 -6.58077595e-04
      7.56375885e-05 -1.01233498e-04 1.38466770e-04 1.04647414e-04
      -8.61922163e-05 3.05146350e-05 -2.74357753e-05 6.98114090e-05
      1.50535873e-03 -1.74863462e-03 6.40873448e-04 2.58344400e-04
      -1.45776052e-04 2.81556364e-04 -6.57296507e-04 7.56451482e-05
      -9.84734943e-05 1.45575439e-04 1.03730694e-04 -8.59250213e-05
      3.09075622e-05 -2.55428458e-05 7.44350909e-05 1.48609991e-03
      -1.74928119e-03 6.47773442e-04 2.54473998e-04 -1.44041012e-04
      2.89883727e-04 -6.56749588e-04 7.55421279e-05 -9.63006678e-05
      1.51995890e-04 1.02943093e-04 -8.57861451e-05 3.12244738e-05
      -2.39594992e-05 7.87001190e-05 1.46623317e-03 -1.74840528e-03
      6.54591422e-04 2.50406651e-04 -1.42271994e-04 2.98008148e-04
      -6.55770767e-04 7.55330548e-05 -9.40948521e-05 1.58389492e-04
      1.02003614e-04 -8.55959806e-05 3.15600737e-05 -2.23537627e-05
      8.30337594e-05 1.44835003e-03 -1.74646440e-03 6.61819242e-04
      2.46696640e-04 -1.40296863e-04 3.06418806e-04 -6.54592877e-04
      7.56857553e-05 -9.17931975e-05 1.65132675e-04 1.01064827e-04
      -8.53491001e-05 3.19547653e-05 -2.06646255e-05 8.77001439e-05
      1.44390739e-03 -1.74409617e-03 6.70255220e-04 2.45393079e-04
      -1.38446398e-04 3.14219797e-04 -6.53781579e-04 7.61942283e-05
      -8.98797734e-05 1.70885221e-04 1.00602818e-04 -8.51853256e-05
      3.24210232e-05 -1.93272081e-05 9.14833072e-05 1.44237850e-03
      -1.74228800e-03 6.78833167e-04 2.44786876e-04 -1.36953124e-04
      3.21810396e-04 -6.53208175e-04 7.68568498e-05 -8.81854648e-05
      1.76469039e-04 1.00334335e-04 -8.50978395e-05 3.29260984e-05
      -1.81075102e-05 9.51676193e-05 1.44049979e-03 -1.74051779e-03
      6.87059714e-04 2.44130191e-04 -1.36020753e-04 3.28927039e-04
      -6.52603747e-04 7.75674853e-05 -8.67626877e-05 1.81823663e-04
      1.00068697e-04 -8.50906654e-05 3.34202414e-05 -1.70494004e-05
      9.87559615e-05 1.44082797e-03 -1.73860136e-03 6.95987372e-04
      2.43929215e-04 -1.34880582e-04 3.36492172e-04 -6.52087794e-04
      7.84639851e-05 -8.51990262e-05 1.87568978e-04 9.98903706e-05
      -8.50627475e-05 3.40159713e-05 -1.58663515e-05 1.02669699e-04
      1.44466350e-03 -1.73779996e-03 7.05350831e-04 2.44679628e-04
      -1.33917754e-04 3.44256579e-04 -6.51983661e-04 7.95183878e-05
      -8.36538165e-05 1.93526968e-04 1.00000034e-04 -8.50997385e-05
      3.46780398e-05 -1.46563107e-05 1.06789579e-04 1.45437079e-03
      -1.73884840e-03 7.13804387e-04 2.46782729e-04 -1.33805748e-04
      3.50462331e-04 -6.52539777e-04 8.06691387e-05 -8.27587792e-05
      1.98180845e-04 1.00499557e-04 -8.53074816e-05 3.52923962e-05
      -1.38700389e-05 1.09997643e-04 1.46541058e-03 -1.74149766e-03
      7.21182849e-04 2.49475706e-04 -1.34260423e-04 3.55607539e-04
      -6.53636933e-04 8.18229673e-05 -8.22824659e-05 2.02092371e-04
      1.01233047e-04 -8.56192710e-05 3.58738107e-05 -1.33399353e-05
      1.12720598e-04 1.47590437e-03 -1.74361072e-03 7.27810315e-04
      2.52014230e-04 -1.34271977e-04 3.60224803e-04 -6.54610223e-04
      8.28732809e-05 -8.16777465e-05 2.05504170e-04 1.01930782e-04
      -8.58463172e-05 3.64194093e-05 -1.27702906e-05 1.15099065e-04
      1.48758187e-03 -1.74650422e-03 7.34240632e-04 2.54999934e-04
      -1.34295056e-04 3.64684471e-04 -6.55955286e-04 8.39387503e-05
      -8.10904894e-05 2.08822050e-04 1.02829283e-04 -8.61150911e-05
      3.69602203e-05 -1.21973317e-05 1.17408163e-04 1.50090980e-03
      -1.75131799e-03 7.39513780e-04 2.58564716e-04 -1.34805072e-04
      3.67907021e-04 -6.58013392e-04 8.48244308e-05 -8.08713157e-05
      2.11087390e-04 1.04041195e-04 -8.64944595e-05 3.73557996e-05
      -1.19047900e-05 1.18912802e-04 1.51637010e-03 -1.75621524e-03
      7.45088910e-04 2.62699934e-04 -1.34844944e-04 3.71722592e-04
      -6.60143094e-04 8.57628984e-05 -8.03938456e-05 2.13775522e-04
      1.05396000e-04 -8.68082934e-05 3.78252698e-05 -1.14100858e-05
      1.20730838e-04 1.53308315e-03 -1.76140515e-03 7.50404783e-04
      2.67179188e-04 -1.34496775e-04 3.75779229e-04 -6.62466395e-04
      8.66633782e-05 -7.97309840e-05 2.16676970e-04 1.06831583e-04
      -8.70407603e-05 3.83243969e-05 -1.07609076e-05 1.22763246e-04
      1.54312968e-03 -1.76510320e-03 7.52399850e-04 2.70145712e-04
      -1.33651658e-04 3.77718097e-04 -6.64103078e-04 8.69897049e-05
      -7.90159102e-05 2.18102490e-04 1.07855747e-04 -8.70766526e-05
      3.85436688e-05 -1.01639143e-05 1.23811260e-04 1.55110692e-03
      -1.76885363e-03 7.53162196e-04 2.72810692e-04 -1.32696019e-04
      3.79062811e-04 -6.65798900e-04 8.71537704e-05 -7.83266441e-05
      2.19173933e-04 1.08848260e-04 -8.70519143e-05 3.87053078e-05
      -9.57486554e-06 1.24667829e-04 1.55540858e-03 -1.77308591e-03
      7.50752690e-04 2.74728518e-04 -1.32297806e-04 3.78270983e-04
      -6.67539774e-04 8.67968993e-05 -7.81557537e-05 2.18673988e-04
      1.09751716e-04 -8.70507065e-05 3.85942512e-05 -9.35586468e-06
      1.24447528e-04 1.55977556e-03 -1.77706289e-03 7.47802900e-04
      2.76560022e-04 -1.31384761e-04 3.77462216e-04 -6.69132394e-04
      8.62809247e-05 -7.78298927e-05 2.18156725e-04 1.10578803e-04
      -8.69073556e-05 3.84495361e-05 -9.03009550e-06 1.24256927e-04
      1.56448176e-03 -1.78020890e-03 7.44336634e-04 2.78208114e-04
      -1.29852429e-04 3.76754761e-04 -6.70526468e-04 8.55697435e-05
      -7.73168504e-05 2.17728244e-04 1.11263951e-04 -8.66027476e-05
      3.82554244e-05 -8.57936629e-06 1.24148602e-04 1.56535138e-03
      -1.78219890e-03 7.39851792e-04 2.78830004e-04 -1.28103638e-04
      3.75846546e-04 -6.71351911e-04 8.45620234e-05 -7.67730089e-05
      2.17222550e-04 1.11614034e-04 -8.61946755e-05 3.79777011e-05
      -8.11815426e-06 1.24071259e-04 -8.72132275e-03 6.41068109e-05
      1.33634501e-04 -3.88852459e-06 -1.29062264e-05 9.46281871e-05
      -1.82563017e-05 1.29855413e-04 1.46024307e-04 8.20210116e-05
      -2.20751681e-04 2.49603909e-05 2.87306484e-05 -2.78374908e-04
      3.27943853e-05 3.80075580e-05 -3.29395407e-04 -3.31283118e-05
      3.65658598e-05 -3.64478765e-04 -4.12904956e-05 7.72716667e-05
      -3.84629413e-04 -1.93654705e-05 2.65339215e-04 -5.42950060e-04
      -9.37038931e-05 1.51850065e-04 -5.05386211e-04 -4.41303782e-05
      1.83806260e-04 -4.36125061e-04 -3.45479348e-05 2.12867642e-04
      -3.55146709e-04 2.86835493e-05 2.75071303e-04 -3.89519410e-04
      1.14766175e-04 2.89749994e-04 -2.49380188e-04 1.29617110e-04
      2.41766509e-04 1.75140332e-04 2.80781940e-04 2.54064682e-04
      2.05036398e-04 2.72896898e-04 3.29506642e-04 2.90808472e-04
      3.07582261e-04 3.76944052e-04 4.56709182e-04 4.41289041e-04
      4.27482591e-04 5.15404216e-04 5.34430379e-04 4.97643487e-04
      1.58492156e-04 3.63378262e-04 4.37366514e-04 1.12161579e-04
      2.81279412e-04 3.16609570e-04 2.18721296e-04 3.33930133e-04
      3.40604980e-04 1.13827737e-04 3.30662733e-04 3.46791756e-04
      2.00465322e-04 4.45235171e-04 4.72486252e-04 5.68049800e-05
      2.10187194e-04 5.69888798e-04 3.01447999e-05 1.63114732e-04
      4.34478745e-04 1.52807814e-04 2.20878719e-04 3.78791941e-04
      7.96366512e-05 1.88169302e-04 2.49250093e-04 2.12027328e-04
      3.29619768e-04 1.86520789e-04 2.03875185e-04 3.79695150e-04
      1.52320790e-04 3.20962572e-04 5.01152826e-04 1.94899127e-04
      4.10062552e-04 5.55342180e-04 1.53174900e-04 3.86838656e-04
      4.35344002e-04 2.64411094e-04 2.93092540e-04 3.65796674e-04
      2.87603791e-04 2.96698243e-04 4.05760744e-04 2.74404010e-04
      2.67829222e-04 4.19285701e-04 2.76237843e-04 6.87770298e-05
      2.95858801e-04 1.65071964e-04 9.31675459e-05 3.90658970e-04
      1.82316027e-04 7.39419484e-05 4.38528514e-04 1.10382702e-04
      -5.09324309e-05 2.93083925e-04 8.20496207e-05 -2.35459403e-04
      1.87368714e-04 8.12418075e-05 -3.82755621e-04 -2.80494642e-05
      1.75187179e-05 -2.47527205e-04 6.11162686e-05 1.03846411e-04
      -1.31865527e-04 9.14335833e-05 4.07831176e-05 -5.64858565e-05
      1.52476801e-04 1.02640051e-05 4.98748384e-04 5.80016640e-04
      1.16451847e-04 5.55231818e-04 4.04985680e-04 5.49041906e-05
      7.78366404e-04 4.46144812e-04 6.14036981e-05 8.53114121e-04
      4.78230824e-04 1.47794024e-04 9.51999100e-04 6.03235327e-04
      2.25808501e-04 6.90521207e-04 4.49140556e-04 1.48784748e-04
      4.47311730e-04 3.00210493e-04 6.14443925e-05 3.25664994e-04
      3.55327356e-04 3.18281418e-05 5.07234035e-05 1.17531723e-04
      -5.99878331e-05 8.68457137e-05 1.97803936e-04 -2.07277171e-05
      4.17307410e-06 1.54664536e-04 -8.75929891e-06 5.63893809e-06
      1.72442975e-04 1.86870584e-05 -4.71416279e-05 2.61793059e-04
      2.18628906e-04 -2.14393513e-04 5.19840178e-05 1.02326703e-04
      -2.93128629e-04 9.41384351e-05 9.35163844e-05 -3.98558186e-04
      5.50244149e-05 4.49712161e-06 -2.14919550e-04 1.11366018e-04
      1.71214033e-05 -1.27696432e-04 2.02943207e-04 -7.31515274e-06
      -2.04966083e-04 9.66832813e-05 -2.42044698e-05 2.52940401e-04
      3.11795127e-04 5.33530620e-05 2.35912259e-04 2.31112310e-04
      4.02245241e-05 3.13217577e-04 3.06225265e-04 6.39089558e-05
      2.76506966e-04 3.20578576e-04 6.54330797e-05 2.96264159e-04
      3.34575016e-04 6.77874705e-05 1.05699030e-04 2.60303437e-04
      5.30081561e-05 -1.32440298e-04 8.51351288e-05 -2.93381217e-05
      -1.60865500e-04 5.07342011e-05 -1.53471192e-05 -1.95297835e-04
      7.23007906e-05 3.29365175e-05 -1.98005058e-04 7.16984432e-05
      4.19741300e-05 -4.36740782e-04 -1.50350927e-04 3.51462149e-05
      -2.96449085e-04 -4.58839895e-05 9.36282304e-05 -3.45068802e-05
      1.47984814e-04 6.43579842e-05 -1.00025763e-05 1.51179469e-04
      -7.64949345e-06 2.71906174e-04 3.54413060e-04 2.03082272e-05
      2.60134344e-04 3.91064852e-04 -2.07917692e-05 2.53159727e-04
      3.73583898e-04 1.03747507e-05 2.00359878e-04 2.64963310e-04
      1.68046172e-05 9.75480871e-05 2.19308829e-04 9.65105119e-06
      -1.46524922e-04 6.34007083e-05 4.13477828e-05 -2.08295096e-04
      1.08473861e-04 2.79785181e-05 6.34910102e-05 3.73183080e-04
      1.40213859e-04 -7.62625641e-05 2.28602308e-04 1.28880012e-04
      -7.81812050e-05 2.43823073e-04 1.20744073e-04 -2.20141756e-05
      2.13016814e-04 1.38593037e-04 -1.19163735e-04 1.12928079e-04
      8.26257892e-05 -2.88065232e-04 4.30886066e-05 -5.99212808e-06
      -4.29809006e-04 -8.11172577e-05 -2.55657142e-05 -2.97876511e-04
      8.65009099e-07 4.89829144e-05 -6.09954732e-05 7.47409722e-05
      -2.65410436e-05 6.36008190e-05 1.41662022e-04 1.32599337e-06
      2.49221339e-04 2.87668721e-04 1.09675148e-05 4.02344682e-04
      2.65878654e-04 3.25985602e-05 6.01008243e-04 4.78238362e-04
      1.35343769e-04 3.75157280e-04 2.68528063e-04 -3.23124623e-05
      5.01472037e-04 3.61817423e-04 3.84143868e-06 4.11088578e-04
      3.49560694e-04 9.61446276e-05 1.94086853e-04 1.75755733e-04
      2.32980110e-05 1.86454708e-04 1.61303906e-04 4.87948128e-05
      -9.20312323e-06 1.03508231e-04 3.50815135e-05 -4.26083425e-05
      1.57605042e-04 1.05468964e-04 -2.42968992e-04 2.85909209e-05
      1.03173952e-04 -2.38599227e-04 -1.51225265e-06 1.19335200e-04
      -2.84610491e-04 -1.17127020e-05 2.42386988e-04 -4.06601699e-04
      -6.35136312e-05 1.91385407e-04 -3.73255403e-04 1.86686029e-05
      2.09082806e-04 -3.79097910e-05 1.45785336e-04 2.40362264e-04
      4.72257416e-05 1.93753120e-04 2.70657823e-04 -2.24249787e-04
      6.45763721e-05 2.78612191e-04 -1.35967246e-04 1.20432851e-04
      3.01661639e-04 2.06285287e-04 2.88730575e-04 4.36229195e-04
      -1.46934253e-04 8.15518870e-05 2.18765694e-04 -1.34346628e-04
      7.32120607e-05 1.89077997e-04 -1.68485130e-05 1.23768667e-04
      2.18510395e-04 -4.38387833e-05 1.08166430e-04 2.22884235e-04
      -2.50759389e-04 5.15681495e-05 1.68348663e-04 -2.74602848e-04
      -3.10192240e-06 1.85128942e-04 -2.47957680e-04 -1.36472672e-05
      2.11222330e-04 -3.30524199e-04 -4.50595762e-05 1.64656871e-04
      -3.39260529e-04 -5.71973105e-05 1.72014523e-04 -4.30041749e-04
      -1.29704800e-04 2.16966786e-04 -5.36406878e-04 -1.64806886e-04
      1.75878973e-04 -4.38518502e-04 -8.87631832e-05 1.44688878e-04
      -4.48851264e-04 -9.75080329e-05 8.83281173e-05 -3.66639491e-04
      -6.67404529e-05 8.89996663e-05 -4.64372162e-04 -8.18604458e-05
      4.01567413e-05 -5.20110130e-04 -8.78325809e-05 7.46365367e-06
      -4.68649727e-04 -8.29475757e-05 -1.67812304e-05 -5.98446699e-04
      -1.48630221e-04 -3.68119800e-05 -5.53645659e-04 -1.48209554e-04
      5.74220439e-06 -5.94965706e-04 -1.46402439e-04 -1.25339839e-05
      -6.23783737e-04 -1.61179065e-04 -1.04109213e-05 -1.02578872e-03
      -3.03730252e-04 -1.05878309e-04 -9.96510149e-04 -3.24333232e-04
      -8.82826789e-05 -8.33204365e-04 -2.59846216e-04 -7.82081697e-05
      -9.12402000e-04 -2.81700050e-04 -1.07827349e-04 -8.86727357e-04
      -2.57846987e-04 -1.09729248e-04 -9.11564392e-04 -2.77325627e-04
      -9.48460802e-05 -6.62298698e-04 -2.33595652e-04 -3.85814710e-05
      -5.48356387e-04 -1.82720672e-04 -1.18010707e-04 -4.76104411e-04
      -1.51010259e-04 -1.17833537e-04 -3.70355701e-04 -7.33672641e-05
      -1.23680715e-04 -3.83646257e-04 -6.97915093e-05 -1.32391113e-04
      -7.62868585e-05 -4.62143680e-06 -8.79611835e-05 -8.80391890e-05
      -5.40930296e-06 -6.97349387e-05</data></learnt_thetas>
  <n_labels type_id="opencv-matrix">
    <rows>2</rows>
    <cols>1</cols>
    <dt>i</dt>
    <data>
      0 1</data></n_labels>
  <o_labels type_id="opencv-matrix">
    <rows>2</rows>
    <cols>1</cols>
    <dt>i</dt>
    <data>
      0 1</data></o_labels></opencv_ml_lr>
</opencv_storage>
