<?xml version="1.0"?>
<opencv_storage>
<opencv_ml_lr>
  <format>3</format>
  <classifier>"Logisitic Regression Classifier"</classifier>
  <alpha>10000.</alpha>
  <iterations>100</iterations>
  <norm>1</norm>
  <train_method>0</train_method>
  <learnt_thetas type_id="opencv-matrix">
    <rows>1</rows>
    <cols>599</cols>
    <dt>f</dt>
    <data>
      -6.46398365e-01 -3.20881277e-01 -2.34000623e-01 2.61136238e-02
      1.04356091e-02 2.47452166e-02 1.94433145e-02 2.04319414e-02
      2.64998134e-02 1.30707584e-02 2.42466517e-02 1.57409906e-02
      2.51984373e-02 2.31259502e-02 1.63822509e-02 2.38942076e-02
      5.86610287e-03 1.79232955e-02 5.59113733e-03 1.36095397e-02
      1.66429281e-02 6.80303108e-03 1.99559294e-02 7.12235831e-03
      1.76891983e-02 1.52119519e-02 1.58786550e-02 2.12628562e-02
      5.96754253e-03 1.70961525e-02 7.07334094e-03 2.13285983e-02
      1.33310575e-02 9.15167760e-03 1.53932944e-02 -4.37313109e-04
      1.24107692e-02 8.14739906e-04 9.12679825e-03 1.42665589e-02
      2.87240068e-03 8.97345040e-03 -2.16952467e-04 1.00384671e-02
      3.21886106e-03 2.14760541e-03 4.56470205e-03 -1.12581337e-02
      1.86687913e-02 -1.30092623e-02 2.32389383e-03 1.05394311e-02
      -4.28959541e-03 9.70167574e-03 -1.21475961e-02 6.85636373e-03
      -2.63637165e-04 1.19208789e-03 -2.20583705e-03 -2.22423468e-02
      -1.51125044e-02 -3.05525064e-02 -1.79914515e-02 -2.84491219e-02
      -4.47107665e-02 -2.17285436e-02 -4.89154607e-02 -2.34863143e-02
      -2.97524631e-02 -2.17289478e-02 -1.86737347e-02 -3.88987362e-02
      -2.83876695e-02 -5.25212884e-02 -3.31893191e-02 -4.98985201e-02
      -4.90386635e-02 -4.29476313e-02 -5.99785373e-02 -3.26110870e-02
      -4.45069224e-02 -2.76767630e-02 -2.50448100e-02 -3.37082520e-02
      -3.14974263e-02 -5.36723956e-02 -3.65128592e-02 -5.22581637e-02
      -3.85576412e-02 -4.22931090e-02 -5.49759232e-02 -3.17195021e-02
      -5.44931926e-02 -2.91468240e-02 -3.97189446e-02 -4.20225002e-02
      -4.08672728e-02 -6.49618730e-02 -3.12720276e-02 -4.97759059e-02
      -3.32522206e-02 -1.78545751e-02 -3.91624905e-02 -2.51467526e-02
      -5.26099727e-02 -3.35104652e-02 -3.75729352e-02 -3.68875898e-02
      -3.73159423e-02 -6.05062060e-02 -2.81366967e-02 -4.46629077e-02
      -2.76894253e-02 -1.75525043e-02 -2.94393357e-02 -3.00627984e-02
      -4.55545336e-02 -1.93631425e-02 -2.99148224e-02 -2.48644799e-02
      -2.43815072e-02 -4.23232839e-02 -2.75131036e-02 -4.37641256e-02
      -2.03756336e-02 -2.54553929e-02 -2.05641147e-02 -2.19240710e-02
      -3.53920348e-02 -1.68691240e-02 -2.57614572e-02 -1.12190526e-02
      -1.90927330e-02 -2.19778530e-02 -1.97882648e-03 -1.90332923e-02
      4.85623162e-03 -4.48728725e-03 2.04325491e-03 -4.94781358e-04
      -7.17046019e-03 7.84102827e-03 -9.83705185e-03 4.81884181e-03
      7.74551136e-03 8.21093749e-03 1.49640981e-02 -6.90746063e-04
      4.85151727e-03 6.33230852e-03 -1.60260513e-01 -1.14635549e-01
      2.61909086e-02 1.54399890e-02 2.82021668e-02 2.36328430e-02
      2.39646751e-02 3.78812030e-02 2.42079124e-02 2.96699237e-02
      3.13237086e-02 4.42046449e-02 3.23814638e-02 2.72474289e-02
      3.08578387e-02 2.46571284e-02 3.09501588e-02 3.25379409e-02
      3.87555286e-02 3.52821425e-02 2.78515536e-02 3.30189392e-02
      3.47266681e-02 5.60779683e-02 5.00630215e-02 3.80888805e-02
      4.01932858e-02 3.53315994e-02 4.02245745e-02 3.13743241e-02
      3.70261036e-02 3.43082882e-02 3.33667360e-02 4.52095866e-02
      3.74637172e-02 3.86251472e-02 4.05152477e-02 5.04198782e-02
      5.13205193e-02 4.64009047e-02 4.78510894e-02 4.02886122e-02
      4.25944999e-02 5.82132526e-02 5.71567453e-02 5.09860702e-02
      4.90481667e-02 5.55423424e-02 5.24508394e-02 5.44599332e-02
      4.66974415e-02 4.70679291e-02 6.83913156e-02 6.15086183e-02
      5.95435090e-02 5.02908342e-02 5.44019677e-02 7.48069659e-02
      6.19340502e-02 5.57286553e-02 6.13199472e-02 5.91487922e-02
      6.08485304e-02 7.77117014e-02 7.80907348e-02 6.57740012e-02
      6.44629300e-02 7.20636994e-02 7.10778162e-02 7.62832165e-02
      7.63028115e-02 7.62721002e-02 7.28414729e-02 6.68496862e-02
      7.17660561e-02 7.85893053e-02 8.31190422e-02 8.13217163e-02
      8.20319206e-02 7.97610879e-02 6.38769045e-02 6.37075678e-02
      7.15497434e-02 8.42715278e-02 8.58573765e-02 7.00347126e-02
      9.34374258e-02 9.14063752e-02 7.69343227e-02 8.27070698e-02
      8.12507346e-02 8.65814462e-02 7.64593035e-02 8.20327550e-02
      8.26394632e-02 6.74895495e-02 8.47530141e-02 7.43910745e-02
      7.22566247e-02 6.29046634e-02 9.21563432e-02 9.94427726e-02
      8.60316083e-02 9.49402079e-02 7.69661218e-02 7.73924366e-02
      7.88465440e-02 7.07051903e-02 8.03602934e-02 6.15867451e-02
      7.49002397e-02 6.69314787e-02 7.05379471e-02 7.46219903e-02
      8.40286016e-02 9.34221148e-02 7.59768859e-02 7.29287863e-02
      7.07669556e-02 7.29291216e-02 7.56737292e-02 7.19639063e-02
      7.15446249e-02 5.65644577e-02 7.00894371e-02 7.50998780e-02
      5.90553619e-02 7.05405325e-02 6.62781149e-02 6.26546815e-02
      5.64562902e-02 6.13050945e-02 6.13423288e-02 5.44027463e-02
      7.17696548e-02 6.20732382e-02 6.29333407e-02 5.80881275e-02
      5.05302288e-02 5.25063537e-02 4.36334424e-02 4.80847061e-02
      4.50587198e-02 4.75384779e-02 4.91605550e-02 4.45435122e-02
      4.37755436e-02 3.70225944e-02 4.67340760e-02 -1.84605159e-02
      -1.51846446e-02 -2.21194383e-02 -2.23387983e-02 -2.25283727e-02
      -2.26385184e-02 -2.25599855e-02 -2.21209768e-02 -2.22541895e-02
      -2.23685093e-02 -2.23881304e-02 -2.22910251e-02 -2.22076531e-02
      -2.20056921e-02 -2.13999376e-02 -2.13351566e-02 -2.14127954e-02
      -2.17017904e-02 -2.14043763e-02 -2.10646242e-02 -2.14228276e-02
      -2.15842128e-02 -2.15768628e-02 -2.14062706e-02 -2.13326085e-02
      -2.14340799e-02 -2.15440076e-02 -2.17976086e-02 -2.17897985e-02
      -2.14231890e-02 -2.11489554e-02 -2.04192661e-02 -2.05282737e-02
      -2.05792468e-02 -2.04109959e-02 -2.01953202e-02 -1.99188460e-02
      -1.99076459e-02 -2.01621857e-02 -2.05512419e-02 -2.07507871e-02
      -2.09190231e-02 -2.10321397e-02 -2.08512936e-02 -2.11662762e-02
      -2.11038161e-02 -2.15135776e-02 -2.16264166e-02 -2.13271175e-02
      -2.20169947e-02 -2.26794668e-02 -2.32236497e-02 -2.37309430e-02
      -2.47161221e-02 -2.52245404e-02 -2.49767508e-02 -2.51940899e-02
      -2.46410035e-02 -2.47464906e-02 -2.42138542e-02 -2.36123893e-02
      -2.39609107e-02 -2.40156241e-02 -2.38696411e-02 -2.37981547e-02
      -2.44426075e-02 -2.53243633e-02 -2.62776148e-02 -2.72325091e-02
      -2.76525412e-02 -2.87005920e-02 -2.91777533e-02 -2.96326075e-02
      -2.95279194e-02 -2.86959223e-02 -2.88004670e-02 -2.85727475e-02
      -2.91206799e-02 -2.97586937e-02 -3.06541044e-02 -3.14145610e-02
      -3.14333215e-02 -3.17144394e-02 -3.13305147e-02 -3.15117948e-02
      -3.07045151e-02 -2.96795797e-02 -2.94792820e-02 -2.80910805e-02
      -2.82896906e-02 -2.83508841e-02 -2.82143131e-02 -2.82429308e-02
      -2.79193856e-02 -2.83173583e-02 -2.75961235e-02 -2.79360116e-02
      -2.77900267e-02 -2.76073217e-02 -2.83424351e-02 -2.83405147e-02
      -2.98408177e-02 -2.96235625e-02 -2.96843816e-02 -2.94616520e-02
      -2.85750069e-02 -2.87660435e-02 -2.76093725e-02 -2.82982588e-02
      -2.82723922e-02 -2.84750778e-02 -2.90538054e-02 -2.83676144e-02
      -2.96049472e-02 -2.97719892e-02 -3.02452669e-02 -3.06341443e-02
      -3.01165879e-02 -2.99615078e-02 -2.88172513e-02 -2.91011427e-02
      -2.85988022e-02 -2.80293021e-02 -2.77587548e-02 -2.75280736e-02
      -2.75555514e-02 -2.63293069e-02 -2.63701286e-02 -2.64314320e-02
      -2.63979807e-02 -2.61693615e-02 -2.53835339e-02 -2.58390196e-02
      -2.58623213e-02 -2.64833141e-02 -2.66830325e-02 -2.67526470e-02
      -2.65448038e-02 -2.47409102e-02 -2.50215232e-02 -2.41363551e-02
      -2.33961791e-02 -2.28565801e-02 -2.22140439e-02 -2.30699368e-02
      -2.26216689e-02 -2.27453932e-02 -2.23520100e-02 -2.23078039e-02
      -2.25099232e-02 -9.64778289e-03 -8.06685351e-03 -1.38527257e-02
      -1.36911618e-02 -1.36224413e-02 -1.34705165e-02 -1.32765993e-02
      -1.31613631e-02 -1.39422938e-02 -1.40282270e-02 -1.38390074e-02
      -1.32623855e-02 -1.23528559e-02 -1.19484467e-02 -1.16373878e-02
      -1.17389690e-02 -1.20703196e-02 -1.21443039e-02 -1.13616930e-02
      -1.01764761e-02 -1.02917198e-02 -1.02272406e-02 -9.81756393e-03
      -1.02676293e-02 -1.06882285e-02 -9.94165521e-03 -9.88936517e-03
      -1.02385478e-02 -9.94164404e-03 -9.64204594e-03 -9.39836260e-03
      -8.77168868e-03 -8.26526619e-03 -7.94613175e-03 -7.90675171e-03
      -7.79259903e-03 -7.41136074e-03 -7.09493179e-03 -6.71133026e-03
      -6.73222588e-03 -6.71981508e-03 -6.19552424e-03 -5.56171872e-03
      -5.09685697e-03 -4.09044139e-03 -3.10329068e-03 -3.14960186e-03
      -3.03770229e-03 -2.22541927e-03 -1.38741953e-03 -8.76224716e-04
      -5.49266915e-05 1.37997515e-04 -3.11629730e-04 -2.42570983e-04
      -3.56488803e-04 -3.90333851e-04 -8.40108667e-04 -1.42371817e-03
      -1.62480178e-03 -2.17125239e-03 -2.08271272e-03 -1.84504793e-03
      -1.44240516e-03 -6.48107496e-04 1.25593273e-03 2.31038034e-03
      3.34143708e-03 5.23979869e-03 7.31620239e-03 8.92638415e-03
      9.68300272e-03 9.55659524e-03 9.25903954e-03 8.80880840e-03
      8.76828283e-03 8.87847506e-03 9.55554843e-03 9.50239785e-03
      8.00045393e-03 6.93822233e-03 6.09501079e-03 5.06958878e-03
      3.96413123e-03 3.17420810e-03 2.58708466e-03 2.12401315e-03
      2.12638313e-03 3.11615458e-03 4.35666461e-03 5.10466658e-03
      6.58612745e-03 7.84785673e-03 8.44158605e-03 8.20270553e-03
      6.89653307e-03 5.52308559e-03 4.05680062e-03 3.63047351e-03
      2.46452074e-03 8.97766731e-04 -2.09363774e-04 -1.01595744e-03
      -9.69912158e-04 -8.96512996e-04 -6.41195453e-04 -3.56573692e-05
      7.35703157e-04 1.60800235e-03 2.41257157e-03 3.19467648e-03
      3.09486315e-03 2.34007533e-03 1.92225899e-03 1.48167682e-03
      9.40491445e-04 1.33604874e-04 -5.50591445e-04 -7.47758138e-04
      -1.13946490e-03 -1.22438278e-03 -2.02852604e-03 -3.05433595e-03
      -3.41452565e-03 -3.16626439e-03 -2.36034766e-03 -1.87569240e-03
      -1.65604579e-03 -2.28449586e-03 -2.69000256e-03 -2.14278069e-03
      -1.56797993e-03 -1.42249977e-03 -2.36281496e-03 -3.93482158e-03
      -5.14204800e-03 -5.29204588e-03 -5.00569073e-03 -4.78167739e-03
      -4.04485129e-03 -3.91079066e-03 -3.91761772e-03 -4.08435473e-03
      -4.59324848e-03 -4.79561323e-03 -5.41650876e-03 -6.01449423e-03
      -6.33271504e-03 -6.37996383e-03 -5.97629230e-03</data></learnt_thetas>
  <n_labels type_id="opencv-matrix">
    <rows>2</rows>
    <cols>1</cols>
    <dt>i</dt>
    <data>
      0 1</data></n_labels>
  <o_labels type_id="opencv-matrix">
    <rows>2</rows>
    <cols>1</cols>
    <dt>i</dt>
    <data>
      0 1</data></o_labels></opencv_ml_lr>
</opencv_storage>
