<?xml version="1.0"?>
<opencv_storage>
<opencv_ml_lr>
  <format>3</format>
  <classifier>"Logisitic Regression Classifier"</classifier>
  <alpha>300.</alpha>
  <iterations>200</iterations>
  <norm>1</norm>
  <train_method>0</train_method>
  <learnt_thetas type_id="opencv-matrix">
    <rows>1</rows>
    <cols>2550</cols>
    <dt>f</dt>
    <data>
      -8.48419294e-02 3.11906962e-03 6.94078347e-03 6.26836205e-03
      1.23955468e-02 8.99633951e-03 1.57823730e-02 1.63433235e-02
      2.05310602e-02 2.46249475e-02 1.91873107e-02 2.03355551e-02
      1.65814906e-02 2.37360690e-02 2.53527220e-02 2.26589125e-02
      3.03411633e-02 2.47352812e-02 3.76994573e-02 4.04114164e-02
      3.24099176e-02 3.42797711e-02 3.22432742e-02 3.64622734e-02
      3.63674425e-02 3.61286663e-02 3.30624729e-02 3.33902538e-02
      3.42082456e-02 3.18331756e-02 4.01629321e-02 3.37648280e-02
      2.99910605e-02 3.25636156e-02 2.54195835e-02 3.54405940e-02
      3.56902443e-02 4.57384661e-02 4.38587517e-02 3.76016684e-02
      4.17462774e-02 2.75120959e-02 2.75409520e-02 2.15673931e-02
      2.30901130e-02 2.50767171e-02 3.68772969e-02 4.24838029e-02
      3.33273150e-02 3.53346802e-02 3.26179899e-02 2.40953583e-02
      2.48512030e-02 2.13060118e-02 2.76314169e-02 2.68218499e-02
      3.38187367e-02 3.50190625e-02 3.38656344e-02 3.48207243e-02
      2.34356839e-02 2.55639274e-02 2.26306207e-02 2.77659930e-02
      2.50674207e-02 2.59734150e-02 3.19790207e-02 2.70563792e-02
      3.32277790e-02 3.00602186e-02 2.89738532e-02 2.60980390e-02
      1.74174737e-02 2.57086847e-02 1.87809467e-02 1.13695841e-02
      1.61363948e-02 2.42807902e-02 3.20431478e-02 3.21545750e-02
      3.78690287e-02 3.22188698e-02 2.31137723e-02 2.24039126e-02
      1.17088463e-02 1.95591524e-02 2.01133844e-02 3.47678363e-02
      3.55413705e-02 3.13231423e-02 3.58625576e-02 2.36749705e-02
      2.20304709e-02 1.41050583e-02 1.83435325e-02 2.16341875e-02
      2.14310121e-02 2.76148301e-02 2.45808028e-02 2.09973026e-02
      1.85070373e-02 2.51565166e-02 2.36520804e-02 1.68742146e-02
      2.77649425e-02 2.38575805e-02 2.22808067e-02 2.11366434e-02
      1.82947516e-02 2.79759225e-02 2.47954838e-02 3.43826674e-02
      2.86371037e-02 2.16651987e-02 2.69129481e-02 2.34225504e-02
      1.84026770e-02 8.64278618e-03 1.83160231e-02 1.53210033e-02
      1.36183575e-02 2.01846547e-02 1.29315136e-02 1.72757860e-02
      1.02149751e-02 1.07066371e-02 7.55485846e-03 5.00853825e-03
      6.87942747e-03 1.57557556e-03 4.88858437e-03 -1.93324022e-03
      -4.98750992e-03 -2.96560815e-03 -6.05900493e-03 -4.06086707e-04
      -5.16077084e-03 -6.07950520e-03 -8.52952711e-03 -8.28489568e-03
      -4.08510398e-03 -6.97576022e-03 -3.81523906e-03 -7.55182980e-03
      -6.99482672e-03 -5.45582501e-03 -7.24434480e-03 -3.66017502e-03
      -7.27880979e-03 -4.86959983e-03 1.02045713e-02 1.66395195e-02
      1.62895899e-02 2.72332393e-02 2.26918198e-02 1.99119393e-02
      1.94678940e-02 2.85721105e-02 3.41056623e-02 2.64092460e-02
      3.29230055e-02 3.03249359e-02 3.59731577e-02 4.05249447e-02
      3.27293426e-02 4.78153378e-02 4.45029847e-02 5.15467525e-02
      5.26771620e-02 4.88364361e-02 4.67639938e-02 3.68874110e-02
      4.00438122e-02 4.28436548e-02 4.42916900e-02 4.30194251e-02
      4.64285724e-02 4.08516526e-02 2.76087318e-02 2.88413111e-02
      1.95735861e-02 1.65285803e-02 2.83165853e-02 2.49308646e-02
      3.31805609e-02 2.65365988e-02 1.91880502e-02 1.48398671e-02
      7.10579706e-03 1.11404145e-02 5.33415889e-03 7.65800197e-03
      4.13843989e-03 1.06632728e-02 1.03686852e-02 7.90828932e-03
      1.26680061e-02 3.90236778e-03 1.32872574e-02 1.20120505e-02
      8.24254286e-03 1.09695168e-02 6.27106987e-03 8.32577050e-03
      3.53712100e-03 3.85056273e-03 4.73897997e-03 9.57134273e-03
      1.28737334e-02 5.91948768e-03 6.03275653e-03 2.64172093e-03
      1.48526009e-03 3.70737771e-03 1.38937845e-03 9.76307597e-03
      3.59819876e-03 8.92032497e-03 7.78761227e-03 1.02583980e-02
      8.51649977e-03 8.76688980e-04 4.00606263e-03 -7.81410316e-04
      -3.79118283e-04 5.36784297e-03 7.11425720e-03 8.56702216e-03
      2.38873577e-03 4.64616064e-03 8.31964193e-04 -3.24683278e-05
      1.52481277e-03 2.51806085e-03 7.81049533e-03 6.41360926e-03
      1.29436487e-02 9.81218927e-03 9.23607871e-03 1.09485481e-02
      1.79429713e-03 6.27460564e-03 3.82020953e-03 6.15588482e-03
      8.58876016e-03 3.93398013e-03 1.10087544e-02 1.21850362e-02
      8.91221967e-03 6.09236350e-03 1.28029818e-02 1.61273833e-02
      1.35967992e-02 2.15974916e-02 1.71641205e-02 2.00725924e-02
      2.02127639e-02 2.45951936e-02 3.70762981e-02 3.72084603e-02
      4.53820005e-02 4.15794030e-02 5.34582213e-02 5.71907237e-02
      6.08282052e-02 6.04908839e-02 4.58706059e-02 4.92767654e-02
      4.50574532e-02 4.37054448e-02 4.53996807e-02 4.23701480e-02
      5.10822982e-02 4.68445830e-02 4.96080332e-02 5.16916513e-02
      5.45556732e-02 5.84871843e-02 4.27986868e-02 4.62339595e-02
      3.80570106e-02 2.90235449e-02 2.92458609e-02 2.09537353e-02
      2.61989404e-02 1.82910189e-02 1.15465755e-02 3.98385618e-03
      1.92986176e-04 4.26374376e-03 -3.11581418e-03 3.83042125e-03
      6.15825527e-04 -3.10641224e-03 -2.75595021e-03 -6.34793658e-03
      -2.56473757e-03 -5.60325338e-03 -2.82598147e-03 -8.48409534e-02
      -2.18668766e-02 -1.00743733e-02 5.92208141e-03 -5.04096039e-03
      2.11396534e-03 -4.12040716e-03 -2.51138886e-03 7.86734454e-04
      -1.72199414e-03 -2.03163247e-03 -1.25219149e-03 3.54058051e-04
      -7.84785778e-04 -8.21135938e-04 -1.85179175e-03 -2.16447655e-02
      -9.95676965e-03 5.73557941e-03 -4.98583540e-03 2.05837796e-03
      -4.26358823e-03 -2.48505338e-03 7.66708283e-04 -1.76129735e-03
      -2.12936057e-03 -1.23892981e-03 3.46140179e-04 -7.97672372e-04
      -8.45007366e-04 -1.92031055e-03 -2.14073155e-02 -9.82205942e-03
      5.54612745e-03 -4.92007565e-03 2.01341603e-03 -4.41664597e-03
      -2.45379680e-03 7.54642882e-04 -1.79586478e-03 -2.24139891e-03
      -1.22387998e-03 3.42414685e-04 -8.06372438e-04 -8.67846189e-04
      -2.00545765e-03 -2.11365968e-02 -9.66382399e-03 5.34932315e-03
      -4.84702969e-03 1.98853668e-03 -4.60697338e-03 -2.42259051e-03
      7.55224493e-04 -1.82508188e-03 -2.40321690e-03 -1.21080421e-03
      3.44345201e-04 -8.08409066e-04 -8.94556346e-04 -2.13919953e-03
      -2.07841042e-02 -9.45659727e-03 5.11198537e-03 -4.75608883e-03
      1.94925687e-03 -4.84568719e-03 -2.38819118e-03 7.50824285e-04
      -1.87611801e-03 -2.60005891e-03 -1.19938538e-03 3.44182801e-04
      -8.18443135e-04 -9.39280435e-04 -2.29400489e-03 -2.03686357e-02
      -9.20816138e-03 4.84183570e-03 -4.64641443e-03 1.89925148e-03
      -5.11639658e-03 -2.34711193e-03 7.43678829e-04 -1.94230292e-03
      -2.81471270e-03 -1.18634116e-03 3.43478518e-04 -8.34084232e-04
      -9.94988251e-04 -2.45539402e-03 -1.99474543e-02 -8.94157309e-03
      4.69143549e-03 -4.52128332e-03 1.91100931e-03 -5.30131767e-03
      -2.29521422e-03 7.64828932e-04 -1.96636305e-03 -2.96936021e-03
      -1.16629922e-03 3.55143478e-04 -8.31105106e-04 -1.02393667e-03
      -2.57032504e-03 -1.94854774e-02 -8.62781238e-03 4.54868563e-03
      -4.35954193e-03 1.93502870e-03 -5.48321474e-03 -2.22013262e-03
      7.96021486e-04 -1.98746566e-03 -3.11815226e-03 -1.13318430e-03
      3.73327843e-04 -8.25887313e-04 -1.05069357e-03 -2.67850165e-03
      -1.89678222e-02 -8.26141704e-03 4.29663109e-03 -4.15879302e-03
      1.93002401e-03 -5.78383869e-03 -2.12003454e-03 8.22218077e-04
      -2.04687752e-03 -3.36525799e-03 -1.08565798e-03 3.92852700e-04
      -8.32994410e-04 -1.10940530e-03 -2.85813119e-03 -1.84302721e-02
      -7.87592214e-03 4.08734707e-03 -3.93877644e-03 1.94626860e-03
      -6.05621003e-03 -2.00461899e-03 8.59399210e-04 -2.09237076e-03
      -3.59216961e-03 -1.02767965e-03 4.18106094e-04 -8.33652157e-04
      -1.15815981e-03 -3.02476948e-03 -1.78265497e-02 -7.46464916e-03
      3.98072228e-03 -3.70882661e-03 2.00713985e-03 -6.27413020e-03
      -1.88456848e-03 9.13994561e-04 -2.11190456e-03 -3.79169593e-03
      -9.66912601e-04 4.49617422e-04 -8.23216978e-04 -1.19328254e-03
      -3.17817810e-03 -1.73141081e-02 -7.12338788e-03 3.81098688e-03
      -3.52279958e-03 2.04291032e-03 -6.54853461e-03 -1.78995740e-03
      9.59694909e-04 -2.15409789e-03 -4.02782951e-03 -9.20232327e-04
      4.78311908e-04 -8.21003341e-04 -1.24300225e-03 -3.35722021e-03
      -1.68302488e-02 -6.79473160e-03 3.59602319e-03 -3.34157143e-03
      2.06522457e-03 -6.84601907e-03 -1.69746031e-03 1.00294605e-03
      -2.20636325e-03 -4.27089725e-03 -8.74704798e-04 5.07566379e-04
      -8.22572678e-04 -1.29712746e-03 -3.53842927e-03 -1.64456889e-02
      -6.47618342e-03 3.26069654e-03 -3.11637460e-03 2.02257745e-03
      -7.19801104e-03 -1.55359274e-03 1.02372956e-03 -2.29570549e-03
      -4.54285787e-03 -7.88701640e-04 5.33209823e-04 -8.41054774e-04
      -1.37381081e-03 -3.73107637e-03 -1.60934646e-02 -6.17842004e-03
      2.91351974e-03 -2.89847143e-03 1.97231630e-03 -7.56966881e-03
      -1.41098839e-03 1.03960570e-03 -2.39015510e-03 -4.83153667e-03
      -7.01698998e-04 5.55847597e-04 -8.61817913e-04 -1.45313016e-03
      -3.93788144e-03 -1.60547532e-02 -6.19887235e-03 2.59895460e-03
      -2.92302296e-03 1.90013205e-03 -7.91364070e-03 -1.43389858e-03
      1.02369883e-03 -2.47744145e-03 -5.10814507e-03 -7.20938842e-04
      5.51191682e-04 -8.83294619e-04 -1.52671256e-03 -4.14079288e-03
      -1.59801189e-02 -6.13190141e-03 2.22814176e-03 -2.87925988e-03
      1.82315917e-03 -8.30280129e-03 -1.41171645e-03 1.01171609e-03
      -2.57244636e-03 -5.41110104e-03 -7.11964676e-04 5.51305362e-04
      -9.06046422e-04 -1.60411571e-03 -4.35661431e-03 -1.57784354e-02
      -5.92451263e-03 1.78337214e-03 -2.74678133e-03 1.73841720e-03
      -8.72483570e-03 -1.33834721e-03 1.00217352e-03 -2.67080683e-03
      -5.72657352e-03 -6.73632254e-04 5.54685539e-04 -9.28727794e-04
      -1.68079906e-03 -4.57523065e-03 -1.53731173e-02 -5.68273524e-03
      1.40157389e-03 -2.64039589e-03 1.68799877e-03 -9.15526971e-03
      -1.29931304e-03 1.00482686e-03 -2.76144547e-03 -6.06434420e-03
      -6.62650622e-04 5.60762943e-04 -9.45953827e-04 -1.75817346e-03
      -4.81510162e-03 -1.48398699e-02 -5.35620051e-03 1.03939010e-03
      -2.47813365e-03 1.65695522e-03 -9.58845392e-03 -1.22418988e-03
      1.02223363e-03 -2.85184267e-03 -6.39993837e-03 -6.28831564e-04
      5.76944149e-04 -9.61632235e-04 -1.83618267e-03 -5.04945172e-03
      -1.39596555e-02 -4.86966781e-03 7.91794970e-04 -2.25340365e-03
      1.66790548e-03 -9.96239763e-03 -1.12253346e-03 1.05396507e-03
      -2.92852311e-03 -6.69312291e-03 -5.80903899e-04 5.98406186e-04
      -9.74365044e-04 -1.90763618e-03 -5.24547696e-03 -1.32916514e-02
      -4.51143691e-03 5.40859706e-04 -2.08106264e-03 1.66058633e-03
      -1.02949739e-02 -1.03611778e-03 1.07741973e-03 -3.00076976e-03
      -6.94683380e-03 -5.34162158e-04 6.18027465e-04 -9.86946397e-04
      -1.97190256e-03 -5.41300979e-03 -1.30035579e-02 -4.40228637e-03
      2.44962663e-04 -2.03226297e-03 1.59739039e-03 -1.05940970e-02
      -1.00459275e-03 1.06847228e-03 -3.07896710e-03 -7.15842005e-03
      -5.10494283e-04 6.21637620e-04 -1.00688357e-03 -2.03045574e-03
      -5.54682827e-03 -1.28014302e-02 -4.31599515e-03 -1.36422794e-04
      -1.99414766e-03 1.49217865e-03 -1.09297149e-02 -9.84201557e-04
      1.03830884e-03 -3.17837298e-03 -7.37775024e-03 -4.98471025e-04
      6.13198150e-04 -1.03775249e-03 -2.09692959e-03 -5.67629607e-03
      -1.24676889e-02 -4.09823749e-03 -5.89807809e-04 -1.86831073e-03
      1.37977337e-03 -1.13279168e-02 -9.12834192e-04 1.01353228e-03
      -3.29407281e-03 -7.63340341e-03 -4.58785187e-04 6.10340212e-04
      -1.07266358e-03 -2.17360910e-03 -5.82484761e-03 -1.17001683e-02
      -3.60759976e-03 -9.64160019e-04 -1.61178561e-03 1.31695485e-03
      -1.17005473e-02 -7.85824028e-04 1.01103203e-03 -3.39567149e-03
      -7.87538290e-03 -3.97168362e-04 6.16020348e-04 -1.10224192e-03
      -2.24302313e-03 -5.96573250e-03 -1.10302344e-02 -3.12718749e-03
      -1.43119809e-03 -1.33652927e-03 1.20591535e-03 -1.20851053e-02
      -6.38797937e-04 9.88440821e-04 -3.51139857e-03 -8.10366031e-03
      -3.21096013e-04 6.14222197e-04 -1.13998353e-03 -2.31149071e-03
      -6.09269878e-03 -1.04351062e-02 -2.70192651e-03 -1.90282194e-03
      -1.09573721e-03 1.08180661e-03 -1.24384277e-02 -5.11724560e-04
      9.56036907e-04 -3.61836050e-03 -8.30791052e-03 -2.56198458e-04
      6.06571324e-04 -1.17556192e-03 -2.37129303e-03 -6.20209286e-03
      -1.01872841e-02 -2.59443163e-03 -2.32242816e-03 -1.06509868e-03
      9.25987493e-04 -1.27098886e-02 -5.10155282e-04 8.90643860e-04
      -3.71219497e-03 -8.45430885e-03 -2.63095077e-04 5.77135186e-04
      -1.21250190e-03 -2.41693063e-03 -6.27847854e-03 -1.02441041e-02
      -2.78821983e-03 -2.68458109e-03 -1.25485333e-03 7.59571441e-04
      -1.29271122e-02 -6.50169619e-04 8.02299008e-04 -3.79240932e-03
      -8.56563263e-03 -3.54831194e-04 5.28760778e-04 -1.24789937e-03
      -2.45225849e-03 -6.33522402e-03 -1.02767805e-02 -2.94356444e-03
      -3.00051412e-03 -1.41555513e-03 6.26930443e-04 -1.31062884e-02
      -7.71218503e-04 7.32084736e-04 -3.84851615e-03 -8.65461119e-03
      -4.34679678e-04 4.89591504e-04 -1.27157697e-03 -2.47385981e-03
      -6.37861667e-03 -1.03549659e-02 -3.14777833e-03 -3.26898228e-03
      -1.61157246e-03 5.15908527e-04 -1.32533573e-02 -9.12608928e-04
      6.68531866e-04 -3.88662983e-03 -8.73076078e-03 -5.24716801e-04
      4.52042994e-04 -1.28794450e-03 -2.48641591e-03 -6.41960418e-03
      -1.02967815e-02 -3.16775870e-03 -3.46730300e-03 -1.66091730e-03
      4.57715767e-04 -1.34208519e-02 -9.56477132e-04 6.40834856e-04
      -3.92778125e-03 -8.84793326e-03 -5.54922794e-04 4.35869850e-04
      -1.30134658e-03 -2.51355721e-03 -6.49556611e-03 -1.01539716e-02
      -3.10223503e-03 -3.64890299e-03 -1.64477644e-03 4.16050520e-04
      -1.35919182e-02 -9.56041797e-04 6.26069086e-04 -3.96898622e-03
      -8.96982849e-03 -5.56972576e-04 4.28289582e-04 -1.31351000e-03
      -2.54287431e-03 -6.57380093e-03 -1.01424409e-02 -3.19374213e-03
      -3.86717496e-03 -1.75095850e-03 3.39077640e-04 -1.37794418e-02
      -1.03418436e-03 5.83284767e-04 -4.01756074e-03 -9.09879245e-03
      -6.04622823e-04 4.02405276e-04 -1.33088592e-03 -2.57367524e-03
      -6.65485859e-03 -1.01555288e-02 -3.27340490e-03 -4.12831455e-03
      -1.83329033e-03 2.45555857e-04 -1.39778815e-02 -1.09285023e-03
      5.38381573e-04 -4.07474162e-03 -9.21947509e-03 -6.39836129e-04
      3.78168421e-04 -1.35097699e-03 -2.60564894e-03 -6.72465283e-03
      -1.00986836e-02 -3.30133131e-03 -4.33446374e-03 -1.87744654e-03
      1.73664157e-04 -1.41336424e-02 -1.12765317e-03 5.05781441e-04
      -4.12061764e-03 -9.30872839e-03 -6.61875238e-04 3.61183338e-04
      -1.36666535e-03 -2.63028010e-03 -6.77339779e-03 -1.04891118e-02
      -3.56511469e-03 -4.59184870e-03 -2.01856974e-03 6.89430453e-05
      -1.42857293e-02 -1.19768188e-03 4.61926538e-04 -4.17013559e-03
      -9.38897766e-03 -6.95433875e-04 3.42152838e-04 -1.38349284e-03
      -2.65412987e-03 -6.81361463e-03 -1.09834475e-02 -3.85247101e-03
      -4.90457518e-03 -2.14779074e-03 -5.99108389e-05 -1.44412126e-02
      -1.25001220e-03 4.12062946e-04 -4.22637397e-03 -9.46108811e-03
      -7.15047121e-04 3.23433662e-04 -1.40343921e-03 -2.67841667e-03
      -6.84677064e-03 -1.17726065e-02 -4.29903017e-03 -5.17777866e-03
      -2.34904839e-03 -1.89256665e-04 -1.45553211e-02 -1.33459317e-03
      3.59335594e-04 -4.27486980e-03 -9.50998161e-03 -7.49362109e-04
      3.02874774e-04 -1.42192678e-03 -2.69793719e-03 -6.86630933e-03
      -1.24646137e-02 -4.65027383e-03 -5.41872252e-03 -2.48805992e-03
      -2.93792633e-04 -1.46581316e-02 -1.38312287e-03 3.20722902e-04
      -4.31633415e-03 -9.55367833e-03 -7.63920194e-04 2.89820979e-04
      -1.43709534e-03 -2.71480111e-03 -6.88453857e-03 -1.28292348e-02
      -4.80525289e-03 -5.54400356e-03 -2.51912768e-03 -3.44080821e-04
      -1.47192189e-02 -1.37070660e-03 3.06572096e-04 -4.33933921e-03
      -9.58075747e-03 -7.43652345e-04 2.88642594e-04 -1.44475035e-03
      -2.72448268e-03 -6.89570745e-03 -1.29167587e-02 -4.83991951e-03
      -5.62749477e-03 -2.51597678e-03 -3.68837937e-04 -1.47726256e-02
      -1.35359948e-03 3.01947701e-04 -4.35661711e-03 -9.60365962e-03
      -7.25563499e-04 2.90153170e-04 -1.44999323e-03 -2.73207272e-03
      -6.90416666e-03 -1.28079755e-02 -4.82531404e-03 -5.70257939e-03
      -2.53604818e-03 -3.83920909e-04 -1.48313353e-02 -1.37611979e-03
      2.97335937e-04 -4.37245425e-03 -9.62848403e-03 -7.41933356e-04
      2.87686242e-04 -1.45464553e-03 -2.73935124e-03 -6.91372994e-03
      -1.27268108e-02 -4.80055111e-03 -5.76691329e-03 -2.53038551e-03
      -4.04258695e-04 -1.48705766e-02 -1.37652177e-03 2.92751589e-04
      -4.38615540e-03 -9.64348111e-03 -7.44058751e-04 2.87403906e-04
      -1.45820226e-03 -2.74497876e-03 -6.91583008e-03 -1.27021335e-02
      -4.78034886e-03 -5.83994249e-03 -2.50530732e-03 -4.29034146e-04
      -1.49008557e-02 -1.35623675e-03 2.89464457e-04 -4.39854013e-03
      -9.65168793e-03 -7.31185137e-04 2.89920543e-04 -1.46122219e-03
      -2.74917297e-03 -6.91557815e-03 -1.30712716e-02 -5.02726529e-03
      -6.03331393e-03 -2.61721038e-03 -5.13533654e-04 -1.49572771e-02
      -1.39824185e-03 2.59119115e-04 -4.41917777e-03 -9.66687407e-03
      -7.44947640e-04 2.81155895e-04 -1.46720023e-03 -2.75386916e-03
      -6.91785570e-03 -1.32261217e-02 -5.12115657e-03 -6.12363033e-03
      -2.65122484e-03 -5.46863070e-04 -1.49746547e-02 -1.40621781e-03
      2.51847494e-04 -4.42370027e-03 -9.66755860e-03 -7.45169295e-04
      2.82126217e-04 -1.46680116e-03 -2.75325286e-03 -6.91601122e-03
      -1.30411051e-02 -5.00986772e-03 -6.07190002e-03 -2.59852479e-03
      -5.18197659e-04 -1.49472430e-02 -1.38483103e-03 2.67597439e-04
      -4.41142637e-03 -9.65392962e-03 -7.38071220e-04 2.90331664e-04
      -1.46088854e-03 -2.74778530e-03 -6.91024726e-03 -1.29706804e-02
      -4.98520536e-03 -6.14291755e-03 -2.61346926e-03 -5.26519900e-04
      -1.49785904e-02 -1.41003239e-03 2.66505027e-04 -4.41333139e-03
      -9.66553111e-03 -7.59614748e-04 2.88850570e-04 -1.45955570e-03
      -2.74733803e-03 -6.91564195e-03 -1.29584121e-02 -4.96987673e-03
      -6.26500789e-03 -2.63096998e-03 -5.46980766e-04 -1.50300451e-02
      -1.43794820e-03 2.61970650e-04 -4.42066835e-03 -9.68489237e-03
      -7.83389027e-04 2.85868009e-04 -1.46006478e-03 -2.74898880e-03
      -6.92587066e-03 -1.22851934e-02 -4.55792295e-03 -6.14736229e-03
      -2.44146469e-03 -4.58412105e-04 -1.49948932e-02 -1.36204425e-03
      3.06531903e-04 -4.39301459e-03 -9.67798196e-03 -7.56326481e-04
      3.05110589e-04 -1.44564372e-03 -2.74175080e-03 -6.92262687e-03
      -1.18224323e-02 -4.24072286e-03 -6.10316824e-03 -2.27905437e-03
      -4.08613618e-04 -1.49834463e-02 -1.28854648e-03 3.35096614e-04
      -4.37854277e-03 -9.68041178e-03 -7.25640566e-04 3.18637205e-04
      -1.43734983e-03 -2.73886533e-03 -6.92638801e-03 -1.18973469e-02
      -4.23974590e-03 -6.19526207e-03 -2.26437347e-03 -4.39812109e-04
      -1.50212431e-02 -1.27670786e-03 3.24086170e-04 -4.38967859e-03
      -9.70433373e-03 -7.18682364e-04 3.14419885e-04 -1.44122366e-03
      -2.74431123e-03 -6.94304798e-03 -1.21272495e-02 -4.38408321e-03
      -6.24896865e-03 -2.34348630e-03 -4.76034969e-04 -1.50403706e-02
      -1.31626276e-03 3.01108084e-04 -4.39754874e-03 -9.71892476e-03
      -7.37359398e-04 3.01344757e-04 -1.44624047e-03 -2.74723908e-03
      -6.95522130e-03 -1.24577899e-02 -4.60596755e-03 -6.28251769e-03
      -2.47194525e-03 -5.13816776e-04 -1.50494156e-02 -1.38420716e-03
      2.72256351e-04 -4.40296344e-03 -9.73019656e-03 -7.71153718e-04
      2.83439527e-04 -1.45151548e-03 -2.74905935e-03 -6.96726656e-03
      -1.25392871e-02 -4.66805510e-03 -6.35287212e-03 -2.51428364e-03
      -5.48270124e-04 -1.50837339e-02 -1.40837464e-03 2.51199934e-04
      -4.41519544e-03 -9.74291191e-03 -7.83223542e-04 2.71221332e-04
      -1.45799806e-03 -2.75140931e-03 -6.97205216e-03 -1.26525555e-02
      -4.69535682e-03 -6.43508974e-03 -2.51443498e-03 -5.79270825e-04
      -1.51233124e-02 -1.40354596e-03 2.37659930e-04 -4.42928215e-03
      -9.75572783e-03 -7.78882764e-04 2.64853501e-04 -1.46414700e-03
      -2.75458628e-03 -6.97707618e-03 -1.27586760e-02 -4.65005636e-03
      -6.52015582e-03 -2.45178095e-03 -5.98023122e-04 -1.51763717e-02
      -1.36132888e-03 2.36695749e-04 -4.44562780e-03 -9.77701880e-03
      -7.55509071e-04 2.66525807e-04 -1.46895729e-03 -2.76123593e-03
      -6.98584365e-03 -1.29675688e-02 -4.69644228e-03 -6.61707483e-03
      -2.43708165e-03 -6.37563760e-04 -1.52163086e-02 -1.33905874e-03
      2.24181567e-04 -4.46324889e-03 -9.78760421e-03 -7.39120471e-04
      2.63346883e-04 -1.47563778e-03 -2.76675937e-03 -6.98769698e-03
      -1.32428715e-02 -4.83045820e-03 -6.67469157e-03 -2.46977154e-03
      -6.83577615e-04 -1.52164474e-02 -1.33504625e-03 2.03953459e-04
      -4.47437307e-03 -9.77491401e-03 -7.27689243e-04 2.56465049e-04
      -1.48182386e-03 -2.76780454e-03 -6.97563775e-03 -1.38416328e-02
      -5.23465360e-03 -6.74046203e-03 -2.67810002e-03 -7.50335108e-04
      -1.52108651e-02 -1.43306318e-03 1.66109268e-04 -4.48403461e-03
      -9.76612326e-03 -7.72139640e-04 2.37855566e-04 -1.48840854e-03
      -2.76899408e-03 -6.96865981e-03 -1.44286342e-02 -5.59834531e-03
      -6.78926380e-03 -2.84817559e-03 -8.00871407e-04 -1.52020892e-02
      -1.50393031e-03 1.40112272e-04 -4.49016970e-03 -9.76038352e-03
      -7.99651316e-04 2.26735167e-04 -1.49249169e-03 -2.77035916e-03
      -6.96622394e-03 -1.44197838e-02 -5.58034703e-03 -6.66614994e-03
      -2.81489687e-03 -7.47286947e-04 -1.51667288e-02 -1.46930397e-03
      1.67848601e-04 -4.47391486e-03 -9.74814035e-03 -7.71807972e-04
      2.42589405e-04 -1.48438697e-03 -2.76545016e-03 -6.96261832e-03
      -1.45497806e-02 -5.70112327e-03 -6.60885498e-03 -2.88937846e-03
      -7.32149172e-04 -1.51482653e-02 -1.50916993e-03 1.71786800e-04
      -4.46668314e-03 -9.74115450e-03 -7.91916566e-04 2.43555056e-04
      -1.48149952e-03 -2.76289624e-03 -6.96185511e-03 -1.48138031e-02
      -5.91412187e-03 -6.66035758e-03 -3.02375993e-03 -7.63937307e-04
      -1.51626933e-02 -1.58732501e-03 1.53541987e-04 -4.47308132e-03
      -9.74781811e-03 -8.35961488e-04 2.33296421e-04 -1.48465869e-03
      -2.76508066e-03 -6.96398690e-03 -1.48221366e-02 -5.99206705e-03
      -6.65686373e-03 -3.11217527e-03 -7.62150856e-04 -1.51634989e-02
      -1.65525707e-03 1.47640647e-04 -4.46989294e-03 -9.74867679e-03
      -8.80345062e-04 2.26294986e-04 -1.48397812e-03 -2.76314351e-03
      -6.96443021e-03 -1.48908794e-02 -6.09539729e-03 -6.67416677e-03
      -3.20712989e-03 -7.68994738e-04 -1.51677737e-02 -1.72186305e-03
      1.38942676e-04 -4.46800841e-03 -9.74876247e-03 -9.21034603e-04
      2.18839501e-04 -1.48376916e-03 -2.76056072e-03 -6.96616247e-03
      -1.48881245e-02 -6.16206648e-03 -6.59524230e-03 -3.27595929e-03
      -7.46578851e-04 -1.51357250e-02 -1.77020428e-03 1.42381017e-04
      -4.45457222e-03 -9.73628648e-03 -9.50047863e-04 2.17507550e-04
      -1.47897552e-03 -2.75483937e-03 -6.96170330e-03 -1.47840809e-02
      -6.13434659e-03 -6.46450836e-03 -3.27894464e-03 -6.96875330e-04
      -1.50851905e-02 -1.77946070e-03 1.61414093e-04 -4.43400396e-03
      -9.71761346e-03 -9.57866374e-04 2.24703879e-04 -1.47076312e-03
      -2.74758483e-03 -6.95556914e-03 -1.47414431e-02 -6.15455583e-03
      -6.40250603e-03 -3.30685335e-03 -6.84159517e-04 -1.50548574e-02
      -1.79930835e-03 1.62996206e-04 -4.42612497e-03 -9.70802177e-03
      -9.69554996e-04 2.24214789e-04 -1.46862946e-03 -2.74489680e-03
      -6.95332279e-03 -1.43766385e-02 -5.94653748e-03 -6.32604212e-03
      -3.21071851e-03 -6.46274188e-04 -1.50349336e-02 -1.75761024e-03
      1.80684612e-04 -4.41872096e-03 -9.70329344e-03 -9.51935421e-04
      2.32357343e-04 -1.46555097e-03 -2.74362741e-03 -6.95301918e-03
      -1.40365334e-02 -5.72820427e-03 -6.27511647e-03 -3.09990323e-03
      -6.15214230e-04 -1.50218718e-02 -1.70549355e-03 1.96775829e-04
      -4.41324525e-03 -9.69868992e-03 -9.28129710e-04 2.40142006e-04
      -1.46301847e-03 -2.74238270e-03 -6.95115142e-03 -1.37284258e-02
      -5.51219564e-03 -6.29346026e-03 -2.98674521e-03 -6.02198241e-04
      -1.50361862e-02 -1.65153481e-03 2.07623612e-04 -4.41362849e-03
      -9.69949458e-03 -9.03115608e-04 2.46002746e-04 -1.46176957e-03
      -2.74177757e-03 -6.94833836e-03 -1.36037609e-02 -5.36434771e-03
      -6.34161802e-03 -2.88436818e-03 -5.99073712e-04 -1.50584858e-02
      -1.59116834e-03 2.17466149e-04 -4.41583572e-03 -9.69938841e-03
      -8.69777752e-04 2.53298669e-04 -1.46057911e-03 -2.74070632e-03
      -6.94337813e-03 -1.36475535e-02 -5.36240870e-03 -6.37684856e-03
      -2.87275459e-03 -6.09558192e-04 -1.50794229e-02 -1.58033357e-03
      2.14089625e-04 -4.42131609e-03 -9.71069839e-03 -8.61995795e-04
      2.52487836e-04 -1.46252650e-03 -2.74356687e-03 -6.94815908e-03
      -1.36933168e-02 -5.36354445e-03 -6.51770364e-03 -2.86306837e-03
      -6.57831435e-04 -1.51446760e-02 -1.57139462e-03 1.97303103e-04
      -4.44387645e-03 -9.73818172e-03 -8.56065250e-04 2.46853160e-04
      -1.47098897e-03 -2.75250501e-03 -6.95980014e-03 -1.37441223e-02
      -5.38953813e-03 -6.61120610e-03 -2.87233596e-03 -7.00567500e-04
      -1.51877310e-02 -1.57378346e-03 1.79272989e-04 -4.46231244e-03
      -9.75493155e-03 -8.56477651e-04 2.39688481e-04 -1.47868099e-03
      -2.75839190e-03 -6.96699694e-03 -1.37445061e-02 -5.34425117e-03
      -6.64330972e-03 -2.82303500e-03 -7.11610774e-04 -1.52017409e-02
      -1.53782265e-03 1.79080293e-04 -4.46810247e-03 -9.75669641e-03
      -8.34438426e-04 2.42281618e-04 -1.48033397e-03 -2.75873370e-03
      -6.96723256e-03 -1.38327414e-02 -5.30439289e-03 -6.59244414e-03
      -2.74293893e-03 -6.87581662e-04 -1.51724303e-02 -1.46852084e-03
      1.98123293e-04 -4.45614057e-03 -9.73571558e-03 -7.87243946e-04
      2.56094208e-04 -1.47378980e-03 -2.75061047e-03 -6.95502991e-03
      -1.40630407e-02 -5.36952727e-03 -6.53874874e-03 -2.71851360e-03
      -6.60051068e-04 -1.51300104e-02 -1.42357440e-03 2.18734887e-04
      -4.43606405e-03 -9.71005205e-03 -7.48534920e-04 2.70741963e-04
      -1.46330136e-03 -2.73887930e-03 -6.93852222e-03 -1.45591646e-02
      -5.64693194e-03 -6.58098375e-03 -2.82868254e-03 -6.88513624e-04
      -1.51035413e-02 -1.45694532e-03 2.07791207e-04 -4.42772359e-03
      -9.68759134e-03 -7.53240252e-04 2.67949625e-04 -1.45988807e-03
      -2.73041776e-03 -6.92324899e-03 -1.50444396e-02 -5.95746282e-03
      -6.65574335e-03 -2.99128843e-03 -7.38191069e-04 -1.51173417e-02
      -1.53541774e-03 1.80096089e-04 -4.43509454e-03 -9.69321094e-03
      -7.89160433e-04 2.53753737e-04 -1.46407238e-03 -2.73194537e-03
      -6.92667812e-03 -1.55314133e-02 -6.30377000e-03 -6.75178692e-03
      -3.20534222e-03 -8.02438299e-04 -1.51633369e-02 -1.66225608e-03
      1.40422446e-04 -4.45527863e-03 -9.72818770e-03 -8.62894754e-04
      2.30083169e-04 -1.47417746e-03 -2.74404557e-03 -6.95566321e-03
      -1.58469733e-02 -6.53410424e-03 -6.72097038e-03 -3.35572567e-03
      -8.00424430e-04 -1.51587659e-02 -1.75559358e-03 1.33660826e-04
      -4.44783363e-03 -9.73816402e-03 -9.18867067e-04 2.22495553e-04
      -1.47078081e-03 -2.74268864e-03 -6.97078463e-03 -1.62954256e-02
      -6.87189819e-03 -6.66392082e-03 -3.56003502e-03 -8.06314754e-04
      -1.51259508e-02 -1.86978758e-03 1.18895296e-04 -4.43538092e-03
      -9.73361358e-03 -9.80401295e-04 2.10716869e-04 -1.46702514e-03
      -2.73730978e-03 -6.97820168e-03 -1.66776329e-02 -7.19036534e-03
      -6.57371664e-03 -3.75990989e-03 -7.94490799e-04 -1.50595857e-02
      -1.98209262e-03 1.10674213e-04 -4.40712972e-03 -9.70587134e-03
      -1.03994191e-03 2.00895971e-04 -1.45704788e-03 -2.72104121e-03
      -6.96851220e-03 -1.64046045e-02 -7.11865257e-03 -6.34465646e-03
      -3.76591412e-03 -7.08651554e-04 -1.49364732e-02 -2.00185040e-03
      1.37179290e-04 -4.35369741e-03 -9.64941736e-03 -1.05550035e-03
      2.07165955e-04 -1.43662246e-03 -2.69327359e-03 -6.94186287e-03
      -1.58431530e-02 -6.83785789e-03 -6.07739668e-03 -3.65652144e-03
      -5.91279357e-04 -1.47885233e-02 -1.96355954e-03 1.82310527e-04
      -4.28926433e-03 -9.57272109e-03 -1.04302680e-03 2.23405063e-04
      -1.41148479e-03 -2.65847961e-03 -6.90071704e-03 -1.53526422e-02
      -6.58111786e-03 -5.96317044e-03 -3.55564873e-03 -5.20980277e-04
      -1.47450790e-02 -1.92877033e-03 2.12240368e-04 -4.25901171e-03
      -9.54151340e-03 -1.03205896e-03 2.34665931e-04 -1.39862590e-03
      -2.63946666e-03 -6.87853713e-03 -1.47121446e-02 -6.17462490e-03
      -5.82738686e-03 -3.35642509e-03 -4.28005820e-04 -1.46912485e-02
      -1.83899270e-03 2.57625885e-04 -4.22405964e-03 -9.50602163e-03
      -9.92718502e-04 2.54818238e-04 -1.38304173e-03 -2.62006465e-03
      -6.85486104e-03 -1.39452033e-02 -5.67584159e-03 -5.64977853e-03
      -3.09984456e-03 -3.09068389e-04 -1.46233896e-02 -1.71495799e-03
      3.16902617e-04 -4.18254593e-03 -9.47172660e-03 -9.33540578e-04
      2.82187335e-04 -1.36375171e-03 -2.60159187e-03 -6.83436496e-03
      -1.33496597e-02 -5.28013147e-03 -5.45996521e-03 -2.88613397e-03
      -1.97099958e-04 -1.45363249e-02 -1.60532130e-03 3.72291164e-04
      -4.13860567e-03 -9.42269806e-03 -8.78106686e-04 3.08499933e-04
      -1.34448439e-03 -2.57947389e-03 -6.80475868e-03 -1.28935333e-02
      -4.98286355e-03 -5.23849996e-03 -2.72018276e-03 -8.71833327e-05
      -1.44136893e-02 -1.51546404e-03 4.23160091e-04 -4.08786535e-03
      -9.34562646e-03 -8.30133155e-04 3.32416414e-04 -1.32494804e-03
      -2.55008251e-03 -6.75640535e-03 -1.25354975e-02 -4.75771446e-03
      -5.15232934e-03 -2.60022702e-03 -3.90426758e-05 -1.43698566e-02
      -1.45205564e-03 4.45019832e-04 -4.06572130e-03 -9.31535568e-03
      -7.96372129e-04 3.42669431e-04 -1.31630234e-03 -2.53606355e-03
      -6.73439912e-03 -1.22074112e-02 -4.52566566e-03 -5.11915842e-03
      -2.46594450e-03 -1.02169615e-05 -1.43551286e-02 -1.37885404e-03
      4.62221040e-04 -4.05624090e-03 -9.30003729e-03 -7.57704023e-04
      3.52546864e-04 -1.31216389e-03 -2.52880249e-03 -6.72288472e-03
      -1.18898377e-02 -4.33190819e-03 -5.01425890e-03 -2.36752629e-03
      2.61921432e-05 -1.42934499e-02 -1.33197824e-03 4.74614702e-04
      -4.04010387e-03 -9.24715400e-03 -7.36455375e-04 3.57558049e-04
      -1.30956946e-03 -2.51458865e-03 -6.68490818e-03 -1.16930855e-02
      -4.18434991e-03 -4.93053254e-03 -2.27925438e-03 5.41699446e-05
      -1.42383222e-02 -1.28492841e-03 4.85359778e-04 -4.02761716e-03
      -9.20112059e-03 -7.13363290e-04 3.62792314e-04 -1.30805164e-03
      -2.50336481e-03 -6.65214658e-03 -1.16181504e-02 -4.06492688e-03
      -4.84191813e-03 -2.18350999e-03 9.09132723e-05 -1.41802719e-02
      -1.22374599e-03 5.03848190e-04 -4.01193695e-03 -9.16023832e-03
      -6.78243756e-04 3.73349991e-04 -1.30402402e-03 -2.49269325e-03
      -6.62409607e-03 -1.20845372e-02 -4.40050801e-03 -4.79836436e-03
      -2.36524153e-03 5.10333084e-05 -1.41069442e-02 -1.31379650e-03
      4.70465777e-04 -4.00697580e-03 -9.10315383e-03 -7.21564691e-04
      3.54727148e-04 -1.30945968e-03 -2.48199189e-03 -6.58575213e-03
      -1.27918674e-02 -4.93204966e-03 -4.77659889e-03 -2.66005564e-03
      -2.56892436e-05 -1.40259406e-02 -1.46448682e-03 4.15332877e-04
      -4.01026802e-03 -9.03784018e-03 -7.96950189e-04 3.24786466e-04
      -1.32010761e-03 -2.47373595e-03 -6.54301094e-03 -1.32806813e-02
      -5.23885572e-03 -4.76483861e-03 -2.81374040e-03 -6.55443655e-05
      -1.39875682e-02 -1.53847947e-03 3.87194421e-04 -4.01055580e-03
      -9.01286211e-03 -8.33071419e-04 3.09490832e-04 -1.32426503e-03
      -2.47015595e-03 -6.52809255e-03 -1.37116257e-02 -5.50762285e-03
      -4.73056640e-03 -2.94383010e-03 -9.41283797e-05 -1.39345210e-02
      -1.59860181e-03 3.66381166e-04 -4.00664983e-03 -8.97823274e-03
      -8.61314009e-04 2.98679777e-04 -1.32649171e-03 -2.46457290e-03
      -6.50868192e-03 -1.40214358e-02 -5.77294454e-03 -4.59328247e-03
      -3.10125784e-03 -9.00150044e-05 -1.38379158e-02 -1.68121175e-03
      3.53482785e-04 -3.98770627e-03 -8.92083813e-03 -9.02356987e-04
      2.88875424e-04 -1.32389099e-03 -2.45194975e-03 -6.47709938e-03
      -1.43499169e-02 -6.07482903e-03 -4.39972663e-03 -3.29506071e-03
      -5.93518889e-05 -1.37051558e-02 -1.79058709e-03 3.49270151e-04
      -3.95190623e-03 -8.84792674e-03 -9.60394449e-04 2.80833192e-04
      -1.31460663e-03 -2.43150513e-03 -6.43661199e-03 -1.46682272e-02
      -6.36383705e-03 -4.19438537e-03 -3.48173385e-03 -1.76433769e-05
      -1.35533940e-02 -1.89699628e-03 3.50537361e-04 -3.90723348e-03
      -8.76371842e-03 -1.01744570e-03 2.75058177e-04 -1.30175462e-03
      -2.40582810e-03 -6.38863398e-03 -1.49500808e-02 -6.65107742e-03
      -3.93450400e-03 -3.66828730e-03 3.46707020e-05 -1.33988634e-02
      -2.00085668e-03 3.53334472e-04 -3.86334280e-03 -8.69152974e-03
      -1.07126764e-03 2.69560434e-04 -1.28952891e-03 -2.38426379e-03
      -6.35422627e-03 -1.51996743e-02 -6.90394547e-03 -3.66522023e-03
      -3.82397440e-03 8.33842714e-05 -1.32355960e-02 -2.08324660e-03
      3.55373748e-04 -3.82222701e-03 -8.61357339e-03 -1.11209753e-03
      2.64878443e-04 -1.27935945e-03 -2.36377865e-03 -6.31845696e-03
      -1.54271228e-02 -7.15110824e-03 -3.31691070e-03 -3.96953616e-03
      1.42472229e-04 -1.30280890e-02 -2.15626997e-03 3.57669283e-04
      -3.77579639e-03 -8.51023011e-03 -1.14622735e-03 2.59547494e-04
      -1.26935507e-03 -2.34056660e-03 -6.26536086e-03 -1.57752018e-02
      -7.41911307e-03 -2.97125615e-03 -4.11570398e-03 2.10264305e-04
      -1.28262537e-02 -2.22733244e-03 3.65527376e-04 -3.72657320e-03
      -8.41267221e-03 -1.17881934e-03 2.56950880e-04 -1.25770259e-03
      -2.31570564e-03 -6.21856656e-03 -1.62040256e-02 -7.70888943e-03
      -2.56923307e-03 -4.26745554e-03 3.01408727e-04 -1.25944987e-02
      -2.29904684e-03 3.82246042e-04 -3.66500649e-03 -8.29950534e-03
      -1.21076102e-03 2.57779873e-04 -1.24161912e-03 -2.28354312e-03
      -6.16449863e-03 -1.66395921e-02 -7.95535091e-03 -2.16811849e-03
      -4.38359519e-03 3.96381831e-04 -1.23402951e-02 -2.35003303e-03
      4.03593061e-04 -3.59673682e-03 -8.17335863e-03 -1.23221811e-03
      2.61968031e-04 -1.22311618e-03 -2.24823342e-03 -6.10442506e-03
      -1.70971192e-02 -8.16805288e-03 -1.80382852e-03 -4.46669199e-03
      4.80555580e-04 -1.20874308e-02 -2.38076854e-03 4.24714701e-04
      -3.53219896e-03 -8.04129709e-03 -1.24334788e-03 2.67990923e-04
      -1.20607123e-03 -2.21347669e-03 -6.04005996e-03 -1.77999474e-02
      -8.51280149e-03 -1.47913874e-03 -4.60639689e-03 5.29141689e-04
      -1.18262656e-02 -2.43246974e-03 4.27576713e-04 -3.47438455e-03
      -7.89758284e-03 -1.26124313e-03 2.66094983e-04 -1.19360967e-03
      -2.17881426e-03 -5.96899539e-03 -1.85863916e-02 -8.89192335e-03
      -1.16098998e-03 -4.74775909e-03 5.65620081e-04 -1.15381870e-02
      -2.47805682e-03 4.27644583e-04 -3.41577688e-03 -7.72737199e-03
      -1.27379200e-03 2.64955743e-04 -1.18175289e-03 -2.14046868e-03
      -5.88021008e-03 -1.94846988e-02 -9.32090078e-03 -8.24157207e-04
      -4.90109390e-03 6.04439818e-04 -1.12188840e-02 -2.52347672e-03
      4.29776526e-04 -3.34955216e-03 -7.53153814e-03 -1.28388579e-03
      2.65662849e-04 -1.16716570e-03 -2.09564622e-03 -5.77186979e-03
      -2.02588253e-02 -9.76371858e-03 -4.36373375e-04 -5.08694304e-03
      6.36258745e-04 -1.08480603e-02 -2.59266864e-03 4.20186057e-04
      -3.27915931e-03 -7.29216682e-03 -1.30784046e-03 2.58466171e-04
      -1.15462299e-03 -2.04518158e-03 -5.63201401e-03 -2.10092850e-02
      -1.02243731e-02 -8.31373618e-05 -5.29484544e-03 6.46415807e-04
      -1.04896137e-02 -2.67747534e-03 3.97659664e-04 -3.21644265e-03
      -7.05117406e-03 -1.34112069e-03 2.44047143e-04 -1.14631874e-03
      -1.99622498e-03 -5.48706856e-03 -2.18500681e-02 -1.07112136e-02
      2.13410720e-04 -5.50522562e-03 6.39231759e-04 -1.01559525e-02
      -2.75943498e-03 3.71203467e-04 -3.15944897e-03 -6.81762537e-03
      -1.37172488e-03 2.29453624e-04 -1.13925722e-03 -1.94811705e-03
      -5.34317410e-03 -2.26788335e-02 -1.11794127e-02 4.78821341e-04
      -5.70739014e-03 6.24928856e-04 -9.83742718e-03 -2.83949426e-03
      3.43308086e-04 -3.10720713e-03 -6.58679940e-03 -1.40265177e-03
      2.14511019e-04 -1.13383820e-03 -1.90116116e-03 -5.19825704e-03
      -2.34284326e-02 -1.16148023e-02 8.26582429e-04 -5.90263959e-03
      6.49960770e-04 -9.48985759e-03 -2.91918241e-03 3.29387374e-04
      -3.03776539e-03 -6.35639392e-03 -1.43375492e-03 2.03903226e-04
      -1.12112192e-03 -1.84906996e-03 -5.05747786e-03 -2.42301580e-02
      -1.20802941e-02 1.12121634e-03 -6.11491362e-03 6.56997785e-04
      -9.18087643e-03 -3.00892349e-03 3.08888324e-04 -2.98045692e-03
      -6.15177769e-03 -1.47070049e-03 1.90531282e-04 -1.11242931e-03
      -1.80494401e-03 -4.93489951e-03 -2.49566920e-02 -1.25044473e-02
      1.45210361e-03 -6.31297380e-03 6.79250224e-04 -8.84695072e-03
      -3.09525523e-03 2.92561977e-04 -2.91398098e-03 -5.92824165e-03
      -1.50745863e-03 1.77802372e-04 -1.10140385e-03 -1.75444561e-03
      -4.79970407e-03 -2.56942064e-02 -1.29343960e-02 1.77649187e-03
      -6.51095202e-03 6.91426801e-04 -8.50206614e-03 -3.18003865e-03
      2.72021571e-04 -2.85110227e-03 -5.68561023e-03 -1.54287810e-03
      1.63727425e-04 -1.09272799e-03 -1.70246675e-03 -4.65079769e-03
      -2.64334679e-02 -1.33484043e-02 2.09032861e-03 -6.69375109e-03
      6.99283730e-04 -8.15207139e-03 -3.25566530e-03 2.52198428e-04
      -2.79161753e-03 -5.42861782e-03 -1.57369510e-03 1.51029613e-04
      -1.08543655e-03 -1.65014924e-03 -4.49073547e-03 -2.69136615e-02
      -1.36112543e-02 2.51269131e-03 -6.80857385e-03 7.57022353e-04
      -7.74038257e-03 -3.30202840e-03 2.51234887e-04 -2.70541525e-03
      -5.14563313e-03 -1.59158907e-03 1.45053433e-04 -1.06823526e-03
      -1.58770790e-03 -4.31584939e-03 -2.72014085e-02 -1.37778046e-02
      3.02607939e-03 -6.88388199e-03 8.54747428e-04 -7.26972241e-03
      -3.33352154e-03 2.65877548e-04 -2.59784469e-03 -4.82417550e-03
      -1.60424551e-03 1.44932987e-04 -1.04372122e-03 -1.51271967e-03
      -4.11678525e-03 -2.73755286e-02 -1.38872862e-02 3.62539920e-03
      -6.93761092e-03 9.87647916e-04 -6.73004659e-03 -3.35766748e-03
      2.93244520e-04 -2.46818271e-03 -4.45248233e-03 -1.61451427e-03
      1.49222193e-04 -1.01221376e-03 -1.42199709e-03 -3.88244865e-03
      -2.75624581e-02 -1.39899105e-02 4.16899472e-03 -6.98303105e-03
      1.10774452e-03 -6.21928368e-03 -3.37667065e-03 3.18824314e-04
      -2.34584254e-03 -4.09356365e-03 -1.62227137e-03 1.53910485e-04
      -9.82386060e-04 -1.33451214e-03 -3.65371280e-03 -2.78286245e-02
      -1.41261267e-02 4.59875679e-03 -7.03681074e-03 1.19107915e-03
      -5.77735156e-03 -3.39627918e-03 3.33659525e-04 -2.24384968e-03
      -3.77326435e-03 -1.62920961e-03 1.55848742e-04 -9.58438439e-04
      -1.25777163e-03 -3.44559434e-03 -2.80402955e-02 -1.42291011e-02
      5.02599869e-03 -7.07585970e-03 1.28110137e-03 -5.33521455e-03
      -3.41026857e-03 3.52910050e-04 -2.13840813e-03 -3.44831962e-03
      -1.63426076e-03 1.59938092e-04 -9.32394876e-04 -1.17832900e-03
      -3.22955241e-03 -2.81679668e-02 -1.42916590e-02 5.47423074e-03
      -7.09940447e-03 1.38187723e-03 -4.87440871e-03 -3.41948564e-03
      3.77401884e-04 -2.02814932e-03 -3.10221780e-03 -1.63837802e-03
      1.66304584e-04 -9.04601475e-04 -1.09454466e-03 -2.99378973e-03
      -2.80791968e-02 -1.42603293e-02 5.90326590e-03 -7.09014386e-03
      1.49292871e-03 -4.48778458e-03 -3.41663393e-03 4.06635721e-04
      -1.93088059e-03 -2.82384339e-03 -1.63730152e-03 1.74152927e-04
      -8.79557279e-04 -1.02491258e-03 -2.81097624e-03 -2.79391464e-02
      -1.42177027e-02 6.32391032e-03 -7.07860989e-03 1.60117168e-03
      -4.11407882e-03 -3.41366231e-03 4.35056514e-04 -1.83760212e-03
      -2.55404646e-03 -1.63663796e-03 1.81879979e-04 -8.55858671e-04
      -9.57851298e-04 -2.63389805e-03 -2.78436430e-02 -1.41824558e-02
      6.68623345e-03 -7.06531527e-03 1.69426808e-03 -3.77429253e-03
      -3.40809068e-03 4.59467876e-04 -1.75174105e-03 -2.30309786e-03
      -1.63403258e-03 1.88469159e-04 -8.33584229e-04 -8.95054720e-04
      -2.46457709e-03 -2.77246870e-02 -1.41288824e-02 7.05682719e-03
      -7.04416772e-03 1.79809495e-03 -3.42094875e-03 -3.39990738e-03
      4.89063445e-04 -1.65718573e-03 -2.03519012e-03 -1.63079088e-03
      1.97068191e-04 -8.07604520e-04 -8.24848888e-04 -2.27857567e-03
      -2.75817141e-02 -1.40714673e-02 7.43963616e-03 -7.02184718e-03
      1.90456503e-03 -3.05191684e-03 -3.39143537e-03 5.20075089e-04
      -1.55894202e-03 -1.74943323e-03 -1.62764965e-03 2.06445256e-04
      -7.80200819e-04 -7.50347739e-04 -2.07547145e-03 -2.74692252e-02
      -1.40343830e-02 7.71956472e-03 -7.00832438e-03 1.97805394e-03
      -2.78406241e-03 -3.38640762e-03 5.40870358e-04 -1.49096793e-03
      -1.53690937e-03 -1.62583077e-03 2.12765692e-04 -7.61959818e-04
      -6.97043724e-04 -1.92110066e-03 -2.73683034e-02 -1.40127614e-02
      7.95004424e-03 -7.00282445e-03 2.03356869e-03 -2.56326073e-03
      -3.38537781e-03 5.55970008e-04 -1.43861340e-03 -1.35666959e-03
      -1.62618060e-03 2.17461144e-04 -7.48814724e-04 -6.53812080e-04
      -1.78753596e-03 -2.72685885e-02 -1.39741590e-02 8.13423842e-03
      -6.98938500e-03 2.08868738e-03 -2.38517532e-03 -3.38096963e-03
      5.72974212e-04 -1.38884305e-03 -1.21392135e-03 -1.62489270e-03
      2.22985051e-04 -7.34567409e-04 -6.14709628e-04 -1.68198580e-03
      -2.71804649e-02 -1.39388843e-02 8.30475893e-03 -6.97731227e-03
      2.13954085e-03 -2.21888931e-03 -3.37721081e-03 5.88327763e-04
      -1.34294166e-03 -1.07924128e-03 -1.62389793e-03 2.27751632e-04
      -7.21702992e-04 -5.78407024e-04 -1.58199307e-03 -2.71569360e-02
      -1.39279598e-02 8.39791168e-03 -6.97315112e-03 2.16408866e-03
      -2.12343968e-03 -3.37495888e-03 5.93771925e-04 -1.31819001e-03
      -1.00289390e-03 -1.62235450e-03 2.28656369e-04 -7.15736882e-04
      -5.58871077e-04 -1.52632664e-03 -2.70739160e-02 -1.38951764e-02
      8.54637008e-03 -6.96043111e-03 2.20551947e-03 -1.98183116e-03
      -3.36969015e-03 6.05434820e-04 -1.28031080e-03 -8.92088865e-04
      -1.61997788e-03 2.31985425e-04 -7.05330633e-04 -5.30085294e-04
      -1.44580577e-03 -2.69519854e-02 -1.38503220e-02 8.73009302e-03
      -6.94393646e-03 2.25766771e-03 -1.80955708e-03 -3.36375833e-03
      6.21200888e-04 -1.23408460e-03 -7.56176072e-04 -1.61797565e-03
      2.37024840e-04 -6.92212605e-04 -4.94769542e-04 -1.34623132e-03
      -2.68740505e-02 -1.38146188e-02 8.84177070e-03 -6.92896917e-03
      2.29292200e-03 -1.70903921e-03 -3.35765677e-03 6.32379670e-04
      -1.20393105e-03 -6.78126060e-04 -1.61551940e-03 2.40649184e-04
      -6.83032617e-04 -4.72274784e-04 -1.29041506e-03 -2.68241037e-02
      -1.37898754e-02 8.92615598e-03 -6.91893976e-03 2.32135318e-03
      -1.63016177e-03 -3.35436175e-03 6.41984341e-04 -1.17956183e-03
      -6.14697638e-04 -1.61477656e-03 2.43863193e-04 -6.75531744e-04
      -4.53370449e-04 -1.24473777e-03 -2.68838070e-02 -1.38142714e-02
      8.90001003e-03 -6.92817941e-03 2.31240131e-03 -1.63619732e-03
      -3.35741974e-03 6.38727099e-04 -1.18163042e-03 -6.14576682e-04
      -1.61551218e-03 2.42641705e-04 -6.76375348e-04 -4.53086861e-04
      -1.24053773e-03 -2.69219615e-02 -1.38334706e-02 8.90060980e-03
      -6.93658460e-03 2.31036055e-03 -1.62519387e-03 -3.36109893e-03
      6.37962774e-04 -1.18055032e-03 -6.01137406e-04 -1.61716749e-03
      2.42476875e-04 -6.76473137e-04 -4.50472318e-04 -1.22802949e-03
      -2.69284379e-02 -1.38443671e-02 8.93868878e-03 -6.94330456e-03
      2.31764768e-03 -1.58957182e-03 -3.36498604e-03 6.40075014e-04
      -1.17464201e-03 -5.69246942e-04 -1.61947031e-03 2.43435556e-04
      -6.75506890e-04 -4.44480509e-04 -1.20381999e-03 -2.69491989e-02
      -1.38561670e-02 8.95890687e-03 -6.94883754e-03 2.31931871e-03
      -1.56189315e-03 -3.36735765e-03 6.39543112e-04 -1.16957235e-03
      -5.44227427e-04 -1.62050698e-03 2.43101706e-04 -6.74702635e-04
      -4.39342140e-04 -1.18448818e-03</data></learnt_thetas>
  <n_labels type_id="opencv-matrix">
    <rows>2</rows>
    <cols>1</cols>
    <dt>i</dt>
    <data>
      0 1</data></n_labels>
  <o_labels type_id="opencv-matrix">
    <rows>2</rows>
    <cols>1</cols>
    <dt>i</dt>
    <data>
      0 1</data></o_labels></opencv_ml_lr>
</opencv_storage>
