<?xml version="1.0"?>
<opencv_storage>
<opencv_ml_lr>
  <format>3</format>
  <classifier>"Logisitic Regression Classifier"</classifier>
  <alpha>10000.</alpha>
  <iterations>100</iterations>
  <norm>1</norm>
  <train_method>0</train_method>
  <learnt_thetas type_id="opencv-matrix">
    <rows>1</rows>
    <cols>2550</cols>
    <dt>f</dt>
    <data>
      3.48989666e-01 3.61534730e-02 2.52633002e-02 3.07488795e-02
      1.61017347e-02 2.87556387e-02 1.98334605e-02 2.07500104e-02
      3.01997662e-02 1.70703921e-02 3.28227282e-02 2.91289221e-02
      3.13131958e-02 4.37951088e-02 4.27487344e-02 4.53263633e-02
      2.52673756e-02 3.63971926e-02 2.75225844e-02 3.92410494e-02
      3.84690538e-02 3.56904268e-02 3.44128571e-02 2.46891994e-02
      3.15487422e-02 3.25394571e-02 3.22593823e-02 2.85176877e-02
      2.27549188e-02 3.07113305e-02 2.61742342e-02 3.84250283e-02
      3.81609350e-02 2.93607377e-02 3.12881954e-02 2.26912089e-02
      2.78246272e-02 1.90262962e-02 2.63866223e-02 2.48729754e-02
      1.92371961e-02 2.49088947e-02 1.34741990e-02 2.28989199e-02
      2.49195509e-02 2.53746752e-02 2.71144137e-02 1.37861250e-02
      2.70951968e-02 1.76935866e-02 2.90615670e-02 2.48994585e-02
      1.83225106e-02 3.59485894e-02 2.45276466e-02 3.86413187e-02
      2.52562463e-02 2.35954635e-02 2.88056973e-02 1.66681390e-02
      3.06055974e-02 1.74501874e-02 2.71965154e-02 2.57751103e-02
      1.89497638e-02 2.28899196e-02 1.58357620e-02 2.55035926e-02
      2.19735224e-02 2.30529699e-02 2.66913474e-02 1.90234967e-02
      2.27628462e-02 2.02759728e-02 2.70016938e-02 2.47269962e-02
      2.33107656e-02 2.68812180e-02 1.80504397e-02 2.34751087e-02
      1.70135349e-02 2.25989390e-02 2.22759005e-02 1.91681758e-02
      2.68580392e-02 2.13451944e-02 3.89815383e-02 2.69609019e-02
      3.60851176e-02 3.64569053e-02 2.54629329e-02 2.93846224e-02
      2.27586869e-02 4.01530974e-02 3.07472628e-02 2.72354502e-02
      3.69369425e-02 2.54240520e-02 3.68999280e-02 3.34529728e-02
      4.35155965e-02 2.92782206e-02 2.00661700e-02 2.78492533e-02
      1.54728172e-02 2.91611794e-02 2.70056557e-02 2.98967063e-02
      3.77556011e-02 1.68818180e-02 2.67174430e-02 1.89038906e-02
      2.44727023e-02 3.17486450e-02 2.52106432e-02 2.74926778e-02
      2.05502585e-02 2.73001231e-02 1.98209882e-02 2.49618571e-02
      2.75601577e-02 1.91269740e-02 2.85241883e-02 1.63590498e-02
      2.87018679e-02 2.19965708e-02 2.30047386e-02 2.81772837e-02
      1.82101168e-02 2.76608057e-02 2.03941800e-02 3.04704681e-02
      3.00945025e-02 3.98172401e-02 2.52346788e-02 2.53840927e-02
      3.77303548e-02 4.34741452e-02 6.66288957e-02 4.11438234e-02
      2.65876018e-02 3.52926776e-02 1.93142667e-02 3.33126411e-02
      3.26213427e-02 2.89161075e-02 2.74114218e-02 7.44710304e-03
      3.00676450e-02 9.04015452e-03 3.15602198e-02 2.19912399e-02
      4.03600298e-02 1.86930709e-02 2.93622520e-02 2.04697885e-02
      1.96186360e-02 2.87180673e-02 1.87755041e-02 3.14133987e-02
      2.40486078e-02 2.86461599e-02 2.87142619e-02 2.40105912e-02
      3.36169377e-02 1.63059942e-02 2.70174127e-02 2.41822004e-02
      2.98150554e-02 2.29426976e-02 1.92831010e-02 2.76147556e-02
      1.79519821e-02 2.92362869e-02 2.36779060e-02 2.33575702e-02
      2.77813338e-02 2.01308504e-02 2.81309932e-02 2.67069712e-02
      3.13684531e-02 2.90952194e-02 2.17626300e-02 2.80284192e-02
      1.86314732e-02 2.49498319e-02 1.76068135e-02 2.39605270e-02
      2.54353005e-02 1.92013420e-02 2.66443416e-02 1.50966085e-02
      2.67474074e-02 2.39112768e-02 2.54352912e-02 2.57271063e-02
      1.51177747e-02 2.95603890e-02 1.77163240e-02 2.82334276e-02
      3.00285127e-02 1.84282959e-02 2.95635927e-02 1.47317806e-02
      2.77197491e-02 2.25066226e-02 2.15143450e-02 3.12669873e-02
      1.61645021e-02 2.91404128e-02 1.61225144e-02 2.44009551e-02
      1.95227619e-02 1.45980492e-02 2.35196315e-02 1.22228200e-02
      1.94645226e-02 1.94234271e-02 2.25092117e-02 3.03738378e-02
      1.73860732e-02 2.47628652e-02 1.60992555e-02 2.23749392e-02
      2.35877112e-02 2.05188841e-02 2.39102598e-02 1.50589906e-02
      2.06649844e-02 1.91235468e-02 2.57261582e-02 2.25434359e-02
      2.49465890e-02 2.34948322e-02 1.66684724e-02 2.64806561e-02
      1.86448656e-02 2.70916112e-02 2.00594198e-02 1.42200692e-02
      2.55431961e-02 1.57071482e-02 3.44863683e-02 2.23798789e-02
      2.27058623e-02 2.92699616e-02 1.64263006e-02 2.65988465e-02
      1.62789878e-02 2.62698419e-02 2.90776752e-02 1.85199007e-02
      1.82348937e-02 1.27926972e-02 2.75969245e-02 2.30865683e-02
      2.23374832e-02 2.29141135e-02 1.42246792e-02 2.54312903e-02
      1.81874745e-02 2.35093944e-02 2.53414493e-02 2.10951176e-02
      2.55737379e-02 1.87257547e-02 2.56785508e-02 1.63674541e-02
      1.97757445e-02 2.96540335e-02 1.80110764e-02 2.74972320e-02
      1.70162059e-02 2.69388687e-02 2.04529986e-02 2.14151163e-02
      2.89646555e-02 1.90666560e-02 2.97749452e-02 1.74366329e-02
      2.96692178e-02 2.00770944e-02 1.80188995e-02 2.95942444e-02
      1.87195837e-02 2.99519263e-02 3.04214135e-02 5.03592566e-02
      3.48885916e-02 1.81813687e-02 3.29508223e-02 2.48368215e-02
      3.46033759e-02 3.39917578e-02 3.19579244e-02 2.67101470e-02
      4.18883050e-03 2.70708464e-02 7.52863847e-03 3.48464936e-01
      -4.06664908e-02 -3.34303826e-02 1.80398837e-01 -1.83678754e-02
      4.35976945e-02 7.95669705e-02 -9.72986314e-03 1.38459783e-02
      1.56486612e-02 6.09500781e-02 -5.09659946e-03 5.02304640e-03
      4.06580418e-03 1.27245560e-02 3.91270965e-02 -4.14316431e-02
      -3.35391350e-02 1.79982767e-01 -1.83637701e-02 4.35210876e-02
      7.93040618e-02 -9.71663091e-03 1.38306813e-02 1.56061547e-02
      6.07820526e-02 -5.08678891e-03 5.01754275e-03 4.06118808e-03
      1.26952175e-02 3.90242860e-02 -4.20757793e-02 -3.36296409e-02
      1.79649249e-01 -1.83661580e-02 4.34716083e-02 7.91206881e-02
      -9.71112493e-03 1.38246529e-02 1.55798746e-02 6.06901757e-02
      -5.08275069e-03 5.01641585e-03 4.05952102e-03 1.26810903e-02
      3.89860906e-02 -4.23862301e-02 -3.36882509e-02 1.79537460e-01
      -1.83773544e-02 4.34365757e-02 7.91455135e-02 -9.71410703e-03
      1.38170803e-02 1.55665614e-02 6.07688092e-02 -5.08360565e-03
      5.01446705e-03 4.05539200e-03 1.26767615e-02 3.90906148e-02
      -4.25112210e-02 -3.37225609e-02 1.79398313e-01 -1.83913186e-02
      4.34022695e-02 7.90722221e-02 -9.72230081e-03 1.38116023e-02
      1.55443856e-02 6.07293993e-02 -5.08876005e-03 5.01423422e-03
      4.05031629e-03 1.26623921e-02 3.90734002e-02 -4.25190888e-02
      -3.37452665e-02 1.79241866e-01 -1.84116066e-02 4.33780588e-02
      7.89269134e-02 -9.73710231e-03 1.38118975e-02 1.55199058e-02
      6.06049635e-02 -5.09898271e-03 5.01738116e-03 4.04589484e-03
      1.26447715e-02 3.89669053e-02 -4.26140875e-02 -3.37618217e-02
      1.79204717e-01 -1.84048079e-02 4.33596633e-02 7.88799077e-02
      -9.72762424e-03 1.38037708e-02 1.55050764e-02 6.05615228e-02
      -5.09124110e-03 5.01321489e-03 4.04144078e-03 1.26320804e-02
      3.89302745e-02 -4.27379310e-02 -3.37835886e-02 1.79205537e-01
      -1.84025355e-02 4.33659181e-02 7.88501352e-02 -9.72204097e-03
      1.38052553e-02 1.55022331e-02 6.05438389e-02 -5.08670695e-03
      5.01336250e-03 4.04111901e-03 1.26308473e-02 3.89144644e-02
      -4.30112742e-02 -3.38877514e-02 1.79135934e-01 -1.84406918e-02
      4.33426239e-02 7.88165927e-02 -9.73882899e-03 1.38016986e-02
      1.54870516e-02 6.05230853e-02 -5.09514660e-03 5.01353433e-03
      4.03833389e-03 1.26189440e-02 3.89084890e-02 -4.34818789e-02
      -3.39995809e-02 1.78843632e-01 -1.84642822e-02 4.32704650e-02
      7.86539465e-02 -9.74468887e-03 1.37869725e-02 1.54429227e-02
      6.04217425e-02 -5.09706745e-03 5.01025002e-03 4.02959203e-03
      1.25877801e-02 3.88525985e-02 -4.43397425e-02 -3.41399014e-02
      1.78211480e-01 -1.84634849e-02 4.31183428e-02 7.82712772e-02
      -9.72919818e-03 1.37520479e-02 1.53484447e-02 6.01789691e-02
      -5.08513208e-03 4.99978382e-03 4.01064614e-03 1.25212418e-02
      3.87042686e-02 -4.50539924e-02 -3.42792980e-02 1.77751452e-01
      -1.84828732e-02 4.30145822e-02 7.79870674e-02 -9.73033439e-03
      1.37346350e-02 1.52717875e-02 6.00182749e-02 -5.08416491e-03
      4.99698846e-03 3.99505906e-03 1.24715064e-02 3.86175774e-02
      -4.57394011e-02 -3.44382301e-02 1.77377433e-01 -1.85264852e-02
      4.29503396e-02 7.77573958e-02 -9.74906888e-03 1.37335211e-02
      1.52131123e-02 5.99110387e-02 -5.09476755e-03 5.00189885e-03
      3.98452161e-03 1.24386791e-02 3.85737605e-02 -4.72766832e-02
      -3.47151719e-02 1.76301882e-01 -1.85671337e-02 4.27379347e-02
      7.70040378e-02 -9.75653529e-03 1.36980601e-02 1.50676174e-02
      5.93876019e-02 -5.09740785e-03 4.99502337e-03 3.96240642e-03
      1.23319877e-02 3.82117890e-02 -4.88700345e-02 -3.49663161e-02
      1.75143465e-01 -1.85995437e-02 4.25420105e-02 7.61941075e-02
      -9.76276863e-03 1.36721395e-02 1.49325421e-02 5.88278212e-02
      -5.10064419e-03 4.99224616e-03 3.94569291e-03 1.22350575e-02
      3.78217287e-02 -5.06894961e-02 -3.52534615e-02 1.73914760e-01
      -1.86423939e-02 4.23717126e-02 7.53274113e-02 -9.77284554e-03
      1.36615792e-02 1.48043977e-02 5.82185015e-02 -5.10509871e-03
      4.99613583e-03 3.93427303e-03 1.21455025e-02 3.73898596e-02
      -5.12833893e-02 -3.53510641e-02 1.73589692e-01 -1.86519716e-02
      4.23284359e-02 7.50979483e-02 -9.77237523e-03 1.36600938e-02
      1.47731435e-02 5.80472276e-02 -5.10437740e-03 4.99744434e-03
      3.93428095e-03 1.21212667e-02 3.72658372e-02 -5.04037291e-02
      -3.52001116e-02 1.74200252e-01 -1.86191648e-02 4.24159840e-02
      7.55340606e-02 -9.76166595e-03 1.36684794e-02 1.48456534e-02
      5.83382323e-02 -5.10027958e-03 4.99717658e-03 3.94660095e-03
      1.21678319e-02 3.74653749e-02 -5.04980758e-02 -3.52685340e-02
      1.74142912e-01 -1.86464079e-02 4.23699319e-02 7.55034536e-02
      -9.77152120e-03 1.36520723e-02 1.48105854e-02 5.83418906e-02
      -5.10330964e-03 4.99107363e-03 3.93286813e-03 1.21478131e-02
      3.74790169e-02 -5.09891734e-02 -3.54059599e-02 1.73866928e-01
      -1.86929125e-02 4.23126332e-02 7.53184333e-02 -9.79085453e-03
      1.36424247e-02 1.47589510e-02 5.82513139e-02 -5.11208968e-03
      4.98975720e-03 3.91843868e-03 1.21201454e-02 3.74319740e-02
      -5.18427044e-02 -3.55144814e-02 1.73101872e-01 -1.86969247e-02
      4.21692058e-02 7.48145580e-02 -9.78580862e-03 1.36124454e-02
      1.46702835e-02 5.78807592e-02 -5.10788243e-03 4.98057995e-03
      3.90229002e-03 1.20523516e-02 3.71710025e-02 -5.27223535e-02
      -3.56153771e-02 1.72319815e-01 -1.86983217e-02 4.20456119e-02
      7.42915273e-02 -9.77977552e-03 1.35919321e-02 1.45928953e-02
      5.74945286e-02 -5.10315504e-03 4.97532543e-03 3.89142893e-03
      1.19932210e-02 3.68972905e-02 -5.39787896e-02 -3.58243249e-02
      1.71525002e-01 -1.87410992e-02 4.19335738e-02 7.37063885e-02
      -9.79320798e-03 1.35766687e-02 1.45049421e-02 5.70919886e-02
      -5.10848314e-03 4.97249234e-03 3.87756061e-03 1.19339572e-02
      3.66126746e-02 -5.47713675e-02 -3.59924734e-02 1.71076253e-01
      -1.87816191e-02 4.18530256e-02 7.33367056e-02 -9.80583020e-03
      1.35587025e-02 1.44371176e-02 5.68257645e-02 -5.11310482e-03
      4.96675912e-03 3.86253116e-03 1.18885199e-02 3.64111438e-02
      -5.50637767e-02 -3.60896923e-02 1.70998350e-01 -1.88059900e-02
      4.18367013e-02 7.32230991e-02 -9.81274247e-03 1.35556404e-02
      1.44140236e-02 5.67188784e-02 -5.11577167e-03 4.96628741e-03
      3.85787175e-03 1.18715363e-02 3.63136865e-02 -5.50723895e-02
      -3.60857397e-02 1.71019346e-01 -1.87980793e-02 4.18303795e-02
      7.32412115e-02 -9.80746094e-03 1.35526340e-02 1.44086713e-02
      5.67399338e-02 -5.11292974e-03 4.96519171e-03 3.85581027e-03
      1.18681658e-02 3.63331065e-02 -5.45820035e-02 -3.59910838e-02
      1.71230227e-01 -1.87804196e-02 4.18488234e-02 7.34353364e-02
      -9.80288349e-03 1.35514997e-02 1.44302370e-02 5.68944737e-02
      -5.11123566e-03 4.96415608e-03 3.85641865e-03 1.18849287e-02
      3.64555083e-02 -5.39218560e-02 -3.59044112e-02 1.71531647e-01
      -1.87777504e-02 4.18680497e-02 7.36925676e-02 -9.80627164e-03
      1.35437557e-02 1.44589208e-02 5.70515990e-02 -5.11284592e-03
      4.95879725e-03 3.85572412e-03 1.18984524e-02 3.65670994e-02
      -5.38504049e-02 -3.59067246e-02 1.71608776e-01 -1.87854823e-02
      4.18809690e-02 7.37504438e-02 -9.81079973e-03 1.35437567e-02
      1.44683123e-02 5.70851080e-02 -5.11519052e-03 4.95799026e-03
      3.85579327e-03 1.19031155e-02 3.65925431e-02 -5.40732034e-02
      -3.59825343e-02 1.71651974e-01 -1.88168846e-02 4.18994240e-02
      7.37197548e-02 -9.82529670e-03 1.35472659e-02 1.44659672e-02
      5.70747815e-02 -5.12245344e-03 4.95901797e-03 3.85333714e-03
      1.19071947e-02 3.65776606e-02 -5.39866798e-02 -3.60013396e-02
      1.71698451e-01 -1.88374519e-02 4.18870412e-02 7.36983418e-02
      -9.83661413e-03 1.35333147e-02 1.44545948e-02 5.70379719e-02
      -5.12805209e-03 4.95182676e-03 3.84470029e-03 1.18977642e-02
      3.65288220e-02 -5.35389706e-02 -3.59158404e-02 1.71893314e-01
      -1.88210197e-02 4.19081524e-02 7.38045275e-02 -9.83081292e-03
      1.35265756e-02 1.44702876e-02 5.70823662e-02 -5.12488326e-03
      4.94647864e-03 3.84209538e-03 1.19046755e-02 3.65381986e-02
      -5.29623479e-02 -3.57763208e-02 1.72143102e-01 -1.87924169e-02
      4.19634841e-02 7.40066767e-02 -9.82169900e-03 1.35328192e-02
      1.45168817e-02 5.72032221e-02 -5.11990907e-03 4.94605303e-03
      3.84824397e-03 1.19348206e-02 3.66186723e-02 -5.25443368e-02
      -3.56709324e-02 1.72327057e-01 -1.87754184e-02 4.20171060e-02
      7.41758421e-02 -9.81887244e-03 1.35419033e-02 1.45620508e-02
      5.73107190e-02 -5.11909695e-03 4.94762929e-03 3.85553227e-03
      1.19652841e-02 3.66960913e-02 -5.21765985e-02 -3.55963483e-02
      1.72607958e-01 -1.87548194e-02 4.20566685e-02 7.43597820e-02
      -9.81000904e-03 1.35428188e-02 1.45945186e-02 5.74366935e-02
      -5.11469366e-03 4.94561996e-03 3.86019610e-03 1.19867260e-02
      3.67809348e-02 -5.19442372e-02 -3.55255343e-02 1.72730938e-01
      -1.87413860e-02 4.20958698e-02 7.44224787e-02 -9.80796758e-03
      1.35501120e-02 1.46199632e-02 5.74800409e-02 -5.11478214e-03
      4.94720088e-03 3.86485364e-03 1.20054400e-02 3.68042514e-02
      -5.23089729e-02 -3.55705470e-02 1.72486231e-01 -1.87609550e-02
      4.20926549e-02 7.42300078e-02 -9.81993694e-03 1.35579081e-02
      1.46060232e-02 5.73477931e-02 -5.12163807e-03 4.95162560e-03
      3.86345596e-03 1.19981701e-02 3.67082991e-02 -5.24321608e-02
      -3.55951674e-02 1.72466397e-01 -1.87630672e-02 4.20831740e-02
      7.42022246e-02 -9.81780048e-03 1.35518573e-02 1.46001093e-02
      5.73269762e-02 -5.11920126e-03 4.94821696e-03 3.86123685e-03
      1.19930515e-02 3.66923884e-02 -5.24477772e-02 -3.55972461e-02
      1.72449589e-01 -1.87641792e-02 4.20766622e-02 7.41861835e-02
      -9.81847849e-03 1.35465795e-02 1.46020772e-02 5.73075861e-02
      -5.11986623e-03 4.94554639e-03 3.86147946e-03 1.19924117e-02
      3.66744548e-02 -5.27863093e-02 -3.56436744e-02 1.72225729e-01
      -1.87793300e-02 4.20570038e-02 7.40216374e-02 -9.82701872e-03
      1.35448873e-02 1.45839117e-02 5.71836531e-02 -5.12495358e-03
      4.94530285e-03 3.85817606e-03 1.19793387e-02 3.65829580e-02
      -5.30535094e-02 -3.56802866e-02 1.72080010e-01 -1.87925026e-02
      4.20562997e-02 7.39148036e-02 -9.83493309e-03 1.35491481e-02
      1.45761734e-02 5.71151339e-02 -5.13009122e-03 4.94771171e-03
      3.85719445e-03 1.19768409e-02 3.65354121e-02 -5.31170294e-02
      -3.56813073e-02 1.72036901e-01 -1.87858716e-02 4.20475379e-02
      7.38867968e-02 -9.82926134e-03 1.35459471e-02 1.45716621e-02
      5.70922308e-02 -5.12602506e-03 4.94596688e-03 3.85612645e-03
      1.19726481e-02 3.65194529e-02 -5.31996973e-02 -3.57028991e-02
      1.72027364e-01 -1.87886860e-02 4.20443378e-02 7.38656521e-02
      -9.82782897e-03 1.35446480e-02 1.45657621e-02 5.70779555e-02
      -5.12404693e-03 4.94524045e-03 3.85442143e-03 1.19689237e-02
      3.65076996e-02 -5.32992408e-02 -3.57382670e-02 1.72042385e-01
      -1.88021008e-02 4.20541763e-02 7.38546103e-02 -9.83390398e-03
      1.35492776e-02 1.45655349e-02 5.70755526e-02 -5.12737222e-03
      4.94775502e-03 3.85468663e-03 1.19707193e-02 3.65044214e-02
      -5.34942783e-02 -3.57420780e-02 1.71780512e-01 -1.88029669e-02
      4.20112610e-02 7.36890659e-02 -9.83446743e-03 1.35347657e-02
      1.45465257e-02 5.69383055e-02 -5.12688700e-03 4.94099548e-03
      3.84919229e-03 1.19526507e-02 3.64035405e-02 -5.36372252e-02
      -3.57295163e-02 1.71519846e-01 -1.88037325e-02 4.19827402e-02
      7.35239536e-02 -9.83739831e-03 1.35260671e-02 1.45355947e-02
      5.68067394e-02 -5.12882089e-03 4.93702618e-03 3.84617085e-03
      1.19427834e-02 3.63052599e-02 -5.37379347e-02 -3.57567109e-02
      1.71490595e-01 -1.88079011e-02 4.19643335e-02 7.34985843e-02
      -9.83664207e-03 1.35170249e-02 1.45230722e-02 5.67871369e-02
      -5.12728328e-03 4.93250228e-03 3.84158711e-03 1.19332317e-02
      3.62914093e-02 -5.38778231e-02 -3.57937664e-02 1.71461836e-01
      -1.88197028e-02 4.19584699e-02 7.34577775e-02 -9.84191708e-03
      1.35149574e-02 1.45125883e-02 5.67644462e-02 -5.13027934e-03
      4.93181031e-03 3.83818639e-03 1.19276708e-02 3.62739302e-02
      -5.40522784e-02 -3.58430445e-02 1.71429411e-01 -1.88388098e-02
      4.19559516e-02 7.34032691e-02 -9.85227153e-03 1.35162445e-02
      1.45003693e-02 5.67339584e-02 -5.13673108e-03 4.93329857e-03
      3.83474678e-03 1.19216731e-02 3.62492986e-02 -5.37884235e-02
      -3.58454250e-02 1.71625778e-01 -1.88493375e-02 4.19636220e-02
      7.35397935e-02 -9.85792838e-03 1.35145020e-02 1.45026203e-02
      5.68284057e-02 -5.13930945e-03 4.93210182e-03 3.83188692e-03
      1.19239865e-02 3.63139994e-02 -5.33540845e-02 -3.58233228e-02
      1.71911582e-01 -1.88606363e-02 4.19963300e-02 7.37513974e-02
      -9.86665860e-03 1.35207046e-02 1.45216631e-02 5.69819920e-02
      -5.14451321e-03 4.93435748e-03 3.83282918e-03 1.19405864e-02
      3.64222787e-02 -5.32285869e-02 -3.57887894e-02 1.71864867e-01
      -1.88510139e-02 4.19651680e-02 7.37450942e-02 -9.86311119e-03
      1.35077788e-02 1.45148067e-02 5.69661297e-02 -5.14258957e-03
      4.92879143e-03 3.83021706e-03 1.19301379e-02 3.64133157e-02
      -5.28598316e-02 -3.57240736e-02 1.72058359e-01 -1.88429374e-02
      4.19923961e-02 7.38984570e-02 -9.86331888e-03 1.35100540e-02
      1.45409899e-02 5.70733361e-02 -5.14372159e-03 4.92875837e-03
      3.83422058e-03 1.19468570e-02 3.64916995e-02 -5.19590601e-02
      -3.55997048e-02 1.72781184e-01 -1.88263990e-02 4.21050005e-02
      7.44056925e-02 -9.85960290e-03 1.35262981e-02 1.46182729e-02
      5.74304275e-02 -5.14171273e-03 4.93106199e-03 3.84541973e-03
      1.20011298e-02 3.67447510e-02 -5.10511361e-02 -3.54745127e-02
      1.73413038e-01 -1.88052151e-02 4.21850495e-02 7.48698488e-02
      -9.85246431e-03 1.35349045e-02 1.46789923e-02 5.77585846e-02
      -5.13782352e-03 4.93157795e-03 3.85322119e-03 1.20434221e-02
      3.69807296e-02 -5.00442721e-02 -3.53290699e-02 1.74066916e-01
      -1.87801160e-02 4.22666483e-02 7.53610134e-02 -9.84471012e-03
      1.35441888e-02 1.47434296e-02 5.81131838e-02 -5.13442233e-03
      4.93308809e-03 3.86173022e-03 1.20896464e-02 3.72389518e-02
      -4.98054996e-02 -3.53651233e-02 1.74349904e-01 -1.88052300e-02
      4.22787257e-02 7.55382702e-02 -9.85575281e-03 1.35387285e-02
      1.47433616e-02 5.82389683e-02 -5.13901561e-03 4.92983218e-03
      3.85470828e-03 1.20913312e-02 3.73263620e-02 -4.96867709e-02
      -3.54039818e-02 1.74534991e-01 -1.88324600e-02 4.22994941e-02
      7.56453425e-02 -9.87038109e-03 1.35415252e-02 1.47449495e-02
      5.83238117e-02 -5.14708413e-03 4.93106619e-03 3.85018392e-03
      1.20972004e-02 3.73854339e-02 -4.96670604e-02 -3.53561081e-02
      1.74528837e-01 -1.88120008e-02 4.23082188e-02 7.56579563e-02
      -9.86223202e-03 1.35426568e-02 1.47551643e-02 5.83418794e-02
      -5.14382403e-03 4.93081706e-03 3.85246077e-03 1.21048959e-02
      3.74062732e-02 -4.98730354e-02 -3.53571288e-02 1.74362779e-01
      -1.88056845e-02 4.22968976e-02 7.55425096e-02 -9.85983107e-03
      1.35429390e-02 1.47476727e-02 5.82652949e-02 -5.14332950e-03
      4.93118633e-03 3.85294040e-03 1.21001406e-02 3.73532809e-02
      -5.04779518e-02 -3.54473889e-02 1.73936367e-01 -1.88210029e-02
      4.22438718e-02 7.52134174e-02 -9.86509863e-03 1.35396887e-02
      1.47047536e-02 5.80252334e-02 -5.14621288e-03 4.93187876e-03
      3.84921324e-03 1.20691368e-02 3.71721424e-02 -5.03668264e-02
      -3.54206301e-02 1.73926488e-01 -1.88155510e-02 4.22375724e-02
      7.51448795e-02 -9.86281037e-03 1.35365902e-02 1.46961818e-02
      5.79700507e-02 -5.14431158e-03 4.93026618e-03 3.84761253e-03
      1.20622423e-02 3.71167883e-02 -4.99661230e-02 -3.53442430e-02
      1.74093783e-01 -1.88028533e-02 4.22639623e-02 7.52434805e-02
      -9.85955354e-03 1.35390162e-02 1.47184702e-02 5.80319911e-02
      -5.14276605e-03 4.93039796e-03 3.85154271e-03 1.20766601e-02
      3.71516384e-02 -4.99830507e-02 -3.53334583e-02 1.74203128e-01
      -1.87875126e-02 4.22670133e-02 7.51880407e-02 -9.84925963e-03
      1.35357119e-02 1.47061031e-02 5.80279417e-02 -5.13672037e-03
      4.92799748e-03 3.84950312e-03 1.20710796e-02 3.71378735e-02
      -4.99895476e-02 -3.53303105e-02 1.74321011e-01 -1.87863987e-02
      4.22870442e-02 7.51374662e-02 -9.84949246e-03 1.35395806e-02
      1.46996500e-02 5.80393933e-02 -5.13749151e-03 4.92909364e-03
      3.84838530e-03 1.20742870e-02 3.71355116e-02 -5.00146262e-02
      -3.53519581e-02 1.74329430e-01 -1.88040808e-02 4.22843285e-02
      7.51328394e-02 -9.86204389e-03 1.35383569e-02 1.46971717e-02
      5.80471195e-02 -5.14571648e-03 4.92900889e-03 3.84698831e-03
      1.20741157e-02 3.71423066e-02 -4.99113835e-02 -3.53618041e-02
      1.74522638e-01 -1.88161824e-02 4.23068292e-02 7.51924887e-02
      -9.86757316e-03 1.35374125e-02 1.47010805e-02 5.81053160e-02
      -5.14765037e-03 4.92700702e-03 3.84445791e-03 1.20792799e-02
      3.71753834e-02 -4.97520007e-02 -3.53804976e-02 1.74854547e-01
      -1.88326091e-02 4.23626043e-02 7.53245428e-02 -9.87277552e-03
      1.35441637e-02 1.47160375e-02 5.82163595e-02 -5.14804712e-03
      4.92714485e-03 3.84280994e-03 1.20953694e-02 3.72417569e-02
      -4.97086309e-02 -3.53577472e-02 1.74927220e-01 -1.88190062e-02
      4.23611887e-02 7.52897784e-02 -9.86387208e-03 1.35386297e-02
      1.47075867e-02 5.82160503e-02 -5.14216721e-03 4.92375297e-03
      3.84002435e-03 1.20912660e-02 3.72334905e-02 -4.97256927e-02
      -3.53360437e-02 1.74934536e-01 -1.88094303e-02 4.23631668e-02
      7.52008557e-02 -9.86009184e-03 1.35389147e-02 1.46993557e-02
      5.81883378e-02 -5.14078094e-03 4.92410827e-03 3.83925531e-03
      1.20892916e-02 3.72066051e-02 -4.98141274e-02 -3.53774913e-02
      1.74966574e-01 -1.88280120e-02 4.23706621e-02 7.52138942e-02
      -9.87027586e-03 1.35425283e-02 1.46996714e-02 5.81979752e-02
      -5.14678797e-03 4.92603146e-03 3.83914029e-03 1.20902555e-02
      3.72140966e-02 -4.97056805e-02 -3.53383943e-02 1.75024122e-01
      -1.88139603e-02 4.23805118e-02 7.52151757e-02 -9.86470748e-03
      1.35442270e-02 1.47041949e-02 5.82118891e-02 -5.14453137e-03
      4.92632901e-03 3.84108606e-03 1.20948330e-02 3.72193046e-02
      -4.95546572e-02 -3.52888927e-02 1.75031692e-01 -1.87967792e-02
      4.23767157e-02 7.52096772e-02 -9.85808484e-03 1.35426922e-02
      1.47038531e-02 5.82130514e-02 -5.14177326e-03 4.92557604e-03
      3.84197268e-03 1.20944912e-02 3.72165665e-02 -4.96020839e-02
      -3.53277102e-02 1.75108761e-01 -1.88105553e-02 4.23767641e-02
      7.51641691e-02 -9.86302178e-03 1.35399299e-02 1.46894380e-02
      5.81888035e-02 -5.14357910e-03 4.92409430e-03 3.83774471e-03
      1.20854909e-02 3.71818766e-02 -4.97358367e-02 -3.54030505e-02
      1.75248504e-01 -1.88379716e-02 4.23875563e-02 7.50710368e-02
      -9.87285376e-03 1.35387126e-02 1.46661978e-02 5.81475981e-02
      -5.14706597e-03 4.92286542e-03 3.83068994e-03 1.20739369e-02
      3.71215567e-02 -4.93027680e-02 -3.53522301e-02 1.75511718e-01
      -1.88355986e-02 4.24073152e-02 7.52350166e-02 -9.87667404e-03
      1.35392789e-02 1.46834198e-02 5.82632832e-02 -5.15090767e-03
      4.92269965e-03 3.83367063e-03 1.20834364e-02 3.71973291e-02
      -4.88632172e-02 -3.52993719e-02 1.75818071e-01 -1.88342910e-02
      4.24407162e-02 7.54043162e-02 -9.88101028e-03 1.35435052e-02
      1.47035783e-02 5.84037080e-02 -5.15498500e-03 4.92415624e-03
      3.83641152e-03 1.20998537e-02 3.72930430e-02 -4.84237708e-02
      -3.52341980e-02 1.75981507e-01 -1.88298766e-02 4.24398072e-02
      7.55417198e-02 -9.88312345e-03 1.35368146e-02 1.47104971e-02
      5.85156940e-02 -5.15657756e-03 4.92109638e-03 3.83320032e-03
      1.21059194e-02 3.73807847e-02 -4.79355380e-02 -3.51384431e-02
      1.76012397e-01 -1.88172683e-02 4.24096584e-02 7.55872577e-02
      -9.88154486e-03 1.35200471e-02 1.47039574e-02 5.85615858e-02
      -5.15549397e-03 4.91367467e-03 3.82605824e-03 1.21019352e-02
      3.74166630e-02 -4.79109213e-02 -3.51517387e-02 1.76031455e-01
      -1.88254453e-02 4.23677005e-02 7.54781589e-02 -9.88147035e-03
      1.34937307e-02 1.46656698e-02 5.85242510e-02 -5.15213562e-03
      4.90074558e-03 3.80980945e-03 1.20791057e-02 3.73772532e-02
      -4.71897386e-02 -3.50079350e-02 1.75848752e-01 -1.88100617e-02
      4.22694460e-02 7.54071176e-02 -9.88141634e-03 1.34539586e-02
      1.46244839e-02 5.84571548e-02 -5.15124016e-03 4.88422019e-03
      3.79045121e-03 1.20445788e-02 3.73205878e-02 -4.62595373e-02
      -3.48074660e-02 1.75662115e-01 -1.87875722e-02 4.21932638e-02
      7.53384754e-02 -9.88494698e-03 1.34286955e-02 1.45945111e-02
      5.83923049e-02 -5.15518477e-03 4.87539731e-03 3.77670955e-03
      1.20200189e-02 3.72607410e-02 -4.63386402e-02 -3.48492190e-02
      1.75732389e-01 -1.88008025e-02 4.21838537e-02 7.53548369e-02
      -9.88945458e-03 1.34204002e-02 1.45861106e-02 5.84257878e-02
      -5.15696174e-03 4.87146527e-03 3.77220032e-03 1.20185511e-02
      3.72859798e-02 -4.63095456e-02 -3.48704644e-02 1.75929323e-01
      -1.88152101e-02 4.22316380e-02 7.55075738e-02 -9.89766046e-03
      1.34354532e-02 1.46274986e-02 5.85802868e-02 -5.16175944e-03
      4.87730978e-03 3.78477923e-03 1.20610604e-02 3.74109074e-02
      -4.61622290e-02 -3.49578969e-02 1.76254198e-01 -1.88767184e-02
      4.22470570e-02 7.56500289e-02 -9.92845278e-03 1.34262610e-02
      1.46329440e-02 5.87401241e-02 -5.17595978e-03 4.87152301e-03
      3.77833238e-03 1.20787313e-02 3.75251397e-02 -4.60211299e-02
      -3.50050442e-02 1.76429108e-01 -1.89221352e-02 4.22419906e-02
      7.57481530e-02 -9.95213073e-03 1.34075284e-02 1.46339424e-02
      5.88454939e-02 -5.18677058e-03 4.86119511e-03 3.76822008e-03
      1.20895980e-02 3.76038812e-02 -4.60169800e-02 -3.50897051e-02
      1.76467761e-01 -1.89858340e-02 4.21855003e-02 7.57326856e-02
      -9.98249091e-03 1.33623872e-02 1.45948129e-02 5.88563159e-02
      -5.19930804e-03 4.83943755e-03 3.73930554e-03 1.20680770e-02
      3.76093201e-02 -4.62676957e-02 -3.52838114e-02 1.76399186e-01
      -1.90648921e-02 4.20533046e-02 7.56500587e-02 -1.00087794e-02
      1.32944696e-02 1.45065468e-02 5.88195063e-02 -5.20604756e-03
      4.81029414e-03 3.69739323e-03 1.20107615e-02 3.75848114e-02
      -4.66701426e-02 -3.55267003e-02 1.76180318e-01 -1.91566404e-02
      4.18833569e-02 7.54809678e-02 -1.00383107e-02 1.32182706e-02
      1.43919736e-02 5.87104820e-02 -5.21399174e-03 4.78016306e-03
      3.64871742e-03 1.19328424e-02 3.75093967e-02 -4.70123999e-02
      -3.57414484e-02 1.76003337e-01 -1.92583688e-02 4.17561941e-02
      7.52368793e-02 -1.00824209e-02 1.31670460e-02 1.42856538e-02
      5.85829727e-02 -5.23270899e-03 4.76239901e-03 3.60794738e-03
      1.18653970e-02 3.74098085e-02 -4.73807529e-02 -3.59386690e-02
      1.75795421e-01 -1.93461198e-02 4.16478030e-02 7.50063211e-02
      -1.01189446e-02 1.31263407e-02 1.41942967e-02 5.84555417e-02
      -5.24796359e-03 4.74929577e-03 3.57424538e-03 1.18087782e-02
      3.73127908e-02 -4.76864763e-02 -3.60591933e-02 1.75624102e-01
      -1.93835106e-02 4.15591598e-02 7.48787746e-02 -1.01287570e-02
      1.30896000e-02 1.41381156e-02 5.83602190e-02 -5.24977874e-03
      4.73536318e-03 3.55360610e-03 1.17680496e-02 3.72438245e-02
      -4.79440913e-02 -3.62058319e-02 1.75435737e-01 -1.94391590e-02
      4.14507911e-02 7.47053698e-02 -1.01471543e-02 1.30474707e-02
      1.40606342e-02 5.82421012e-02 -5.25558367e-03 4.72103665e-03
      3.52551485e-03 1.17156729e-02 3.71526666e-02 -4.83835340e-02
      -3.64440382e-02 1.75135911e-01 -1.95296798e-02 4.13008817e-02
      7.43927434e-02 -1.01782354e-02 1.29960477e-02 1.39397224e-02
      5.80438487e-02 -5.26658772e-03 4.70637856e-03 3.48509080e-03
      1.16386283e-02 3.69974598e-02 -4.83072475e-02 -3.65283713e-02
      1.75114125e-01 -1.95575263e-02 4.11964767e-02 7.43781924e-02
      -1.01789488e-02 1.29510649e-02 1.38788465e-02 5.80380261e-02
      -5.26092993e-03 4.69010603e-03 3.46039212e-03 1.15962001e-02
      3.69945541e-02 -4.81767282e-02 -3.65670919e-02 1.75148964e-01
      -1.95729919e-02 4.11416627e-02 7.44121373e-02 -1.01792887e-02
      1.29258493e-02 1.38501888e-02 5.80777004e-02 -5.25788870e-03
      4.68147127e-03 3.44709656e-03 1.15785962e-02 3.70280109e-02
      -4.87624109e-02 -3.67880613e-02 1.74913540e-01 -1.96455419e-02
      4.10373397e-02 7.41008669e-02 -1.02058593e-02 1.28995758e-02
      1.37527771e-02 5.79138510e-02 -5.26959263e-03 4.67686728e-03
      3.42214853e-03 1.15198083e-02 3.69027928e-02 -4.93534505e-02
      -3.69933061e-02 1.74663067e-01 -1.97076537e-02 4.09495719e-02
      7.38446265e-02 -1.02272825e-02 1.28802741e-02 1.36767710e-02
      5.77730797e-02 -5.27891098e-03 4.67439974e-03 3.40396329e-03
      1.14746280e-02 3.68023366e-02 -4.99601923e-02 -3.71848941e-02
      1.74401790e-01 -1.97551697e-02 4.08647098e-02 7.36624897e-02
      -1.02386493e-02 1.28593985e-02 1.36184841e-02 5.76571338e-02
      -5.28182043e-03 4.66977526e-03 3.38978320e-03 1.14370743e-02
      3.67290750e-02 -5.06271720e-02 -3.73581871e-02 1.73988596e-01
      -1.97885316e-02 4.07482274e-02 7.33639374e-02 -1.02436291e-02
      1.28333848e-02 1.35434195e-02 5.74716143e-02 -5.28176641e-03
      4.66361595e-03 3.37477797e-03 1.13892825e-02 3.66030931e-02
      -5.13349026e-02 -3.74963284e-02 1.73506901e-01 -1.98110994e-02
      4.06547748e-02 7.30078593e-02 -1.02485977e-02 1.28203919e-02
      1.34797953e-02 5.72628528e-02 -5.28409844e-03 4.66271117e-03
      3.36610596e-03 1.13532292e-02 3.64598706e-02 -5.11098541e-02
      -3.74719314e-02 1.73726976e-01 -1.97982062e-02 4.06667814e-02
      7.31794909e-02 -1.02395089e-02 1.28166582e-02 1.34931337e-02
      5.73811196e-02 -5.27834473e-03 4.65995399e-03 3.36657441e-03
      1.13620656e-02 3.65471281e-02 -5.09649031e-02 -3.74467187e-02
      1.73927844e-01 -1.97863374e-02 4.06975076e-02 7.32792392e-02
      -1.02327242e-02 1.28215197e-02 1.35078579e-02 5.74726053e-02
      -5.27484436e-03 4.66097007e-03 3.36940587e-03 1.13761770e-02
      3.66092958e-02 -5.10561913e-02 -3.74447331e-02 1.74057797e-01
      -1.97724942e-02 4.07134071e-02 7.31905252e-02 -1.02223177e-02
      1.28223626e-02 1.34964837e-02 5.74697033e-02 -5.26829623e-03
      4.65990463e-03 3.36863543e-03 1.13747660e-02 3.65886725e-02
      -5.10509312e-02 -3.74603905e-02 1.74057767e-01 -1.97864603e-02
      4.07019369e-02 7.31470659e-02 -1.02308877e-02 1.28171742e-02
      1.34841818e-02 5.74525781e-02 -5.27307298e-03 4.65788366e-03
      3.36436671e-03 1.13665303e-02 3.65703516e-02 -5.09949066e-02
      -3.74865569e-02 1.73967063e-01 -1.98190939e-02 4.06820588e-02
      7.31419027e-02 -1.02529004e-02 1.28122773e-02 1.34769445e-02
      5.74315190e-02 -5.28635969e-03 4.65710647e-03 3.35949357e-03
      1.13588022e-02 3.65594439e-02 -5.11586852e-02 -3.75467055e-02
      1.73848242e-01 -1.98456533e-02 4.06488366e-02 7.30645582e-02
      -1.02664446e-02 1.28041515e-02 1.34525066e-02 5.73774613e-02
      -5.29327430e-03 4.65471577e-03 3.35178478e-03 1.13414256e-02
      3.65244895e-02 -5.13937101e-02 -3.76034193e-02 1.73693910e-01
      -1.98708270e-02 4.06298824e-02 7.29549676e-02 -1.02811400e-02
      1.28037045e-02 1.34339770e-02 5.73146008e-02 -5.30205807e-03
      4.65599820e-03 3.34715727e-03 1.13317408e-02 3.64849493e-02
      -5.17753251e-02 -3.76161002e-02 1.73421413e-01 -1.98474787e-02
      4.05886956e-02 7.27874413e-02 -1.02636218e-02 1.27961766e-02
      1.34134581e-02 5.72007149e-02 -5.29110711e-03 4.65319911e-03
      3.34583060e-03 1.13160051e-02 3.64118852e-02 -5.18734492e-02
      -3.76096368e-02 1.73316896e-01 -1.98375601e-02 4.05724831e-02
      7.27357045e-02 -1.02565689e-02 1.27911307e-02 1.34079456e-02
      5.71647957e-02 -5.28637180e-03 4.65075159e-03 3.34468065e-03
      1.13116568e-02 3.63900699e-02 -5.18666059e-02 -3.76341566e-02
      1.73278108e-01 -1.98564157e-02 4.05569002e-02 7.27230757e-02
      -1.02657508e-02 1.27832675e-02 1.33975623e-02 5.71561418e-02
      -5.28998720e-03 4.64687310e-03 3.33858537e-03 1.13055380e-02
      3.63847129e-02 -5.18729389e-02 -3.76703702e-02 1.73333928e-01
      -1.98782552e-02 4.05549072e-02 7.27448389e-02 -1.02779055e-02
      1.27812773e-02 1.33922845e-02 5.71783185e-02 -5.29672951e-03
      4.64643631e-03 3.33543005e-03 1.13027748e-02 3.64001729e-02
      -5.18199205e-02 -3.76827307e-02 1.73467219e-01 -1.98912844e-02
      4.05803323e-02 7.28169903e-02 -1.02878781e-02 1.27881318e-02
      1.34053649e-02 5.72400838e-02 -5.30407764e-03 4.64975042e-03
      3.33831669e-03 1.13135558e-02 3.64440233e-02 -5.13170622e-02
      -3.76105793e-02 1.73833251e-01 -1.98722500e-02 4.06215861e-02
      7.30560869e-02 -1.02779362e-02 1.27902813e-02 1.34302964e-02
      5.73979206e-02 -5.29805524e-03 4.64863842e-03 3.33989155e-03
      1.13298316e-02 3.65484618e-02 -5.09522296e-02 -3.75524163e-02
      1.74112663e-01 -1.98599901e-02 4.06609066e-02 7.32196495e-02
      -1.02734026e-02 1.27949128e-02 1.34519134e-02 5.75236045e-02
      -5.29607618e-03 4.64924751e-03 3.34212161e-03 1.13469483e-02
      3.66320051e-02 -5.08418866e-02 -3.75352539e-02 1.74131885e-01
      -1.98593065e-02 4.06444743e-02 7.32258335e-02 -1.02738319e-02
      1.27850734e-02 1.34450337e-02 5.75350635e-02 -5.29600633e-03
      4.64451266e-03 3.33812274e-03 1.13400090e-02 3.66394743e-02
      -5.10262810e-02 -3.75612490e-02 1.73915654e-01 -1.98614728e-02
      4.06034328e-02 7.30712339e-02 -1.02721946e-02 1.27759287e-02
      1.34183448e-02 5.74175753e-02 -5.29378047e-03 4.64139879e-03
      3.33268731e-03 1.13197984e-02 3.65541503e-02 -5.12354672e-02
      -3.75953466e-02 1.73789471e-01 -1.98635217e-02 4.05847877e-02
      7.29405060e-02 -1.02696745e-02 1.27721345e-02 1.33984871e-02
      5.73316030e-02 -5.29133296e-03 4.64003813e-03 3.32906051e-03
      1.13084139e-02 3.64881381e-02 -5.12765683e-02 -3.76060568e-02
      1.73864529e-01 -1.98681187e-02 4.05908339e-02 7.28698671e-02
      -1.02725942e-02 1.27717527e-02 1.33840563e-02 5.73225915e-02
      -5.29319979e-03 4.63943556e-03 3.32538760e-03 1.13040926e-02
      3.64677086e-02 -5.10851741e-02 -3.75721939e-02 1.74132794e-01
      -1.98703725e-02 4.06518802e-02 7.28972107e-02 -1.02787614e-02
      1.27863865e-02 1.33966655e-02 5.73910959e-02 -5.29819122e-03
      4.64424025e-03 3.32762580e-03 1.13220140e-02 3.64945680e-02
      -5.11322245e-02 -3.76207754e-02 1.74333930e-01 -1.98930576e-02
      4.06902805e-02 7.29691163e-02 -1.02880038e-02 1.27900727e-02
      1.34041524e-02 5.74406758e-02 -5.30161429e-03 4.64322092e-03
      3.32521112e-03 1.13294497e-02 3.65196466e-02 -5.11723123e-02
      -3.76443528e-02 1.74404100e-01 -1.98990405e-02 4.06964868e-02
      7.29207695e-02 -1.02879945e-02 1.27872657e-02 1.33925183e-02
      5.74193969e-02 -5.30032534e-03 4.64107981e-03 3.32050188e-03
      1.13249114e-02 3.64901051e-02 -5.08406572e-02 -3.75837497e-02
      1.74585223e-01 -1.98854487e-02 4.07231450e-02 7.29664788e-02
      -1.02835353e-02 1.27903838e-02 1.34004867e-02 5.74473068e-02
      -5.29871276e-03 4.64166701e-03 3.32076894e-03 1.13311084e-02
      3.64907943e-02 -5.08490354e-02 -3.75833660e-02 1.74530089e-01
      -1.98844895e-02 4.07181382e-02 7.28804097e-02 -1.02839982e-02
      1.27920089e-02 1.33844130e-02 5.73887303e-02 -5.29974839e-03
      4.64286190e-03 3.31754610e-03 1.13243163e-02 3.64379734e-02
      -5.08969501e-02 -3.75608020e-02 1.74306169e-01 -1.98734105e-02
      4.06959988e-02 7.26761222e-02 -1.02803670e-02 1.27957575e-02
      1.33496188e-02 5.72675578e-02 -5.29883243e-03 4.64616576e-03
      3.31118656e-03 1.13112852e-02 3.63405161e-02 -5.08841649e-02
      -3.75384837e-02 1.74351007e-01 -1.98577680e-02 4.06981185e-02
      7.25590214e-02 -1.02704633e-02 1.27953431e-02 1.33363549e-02
      5.72223589e-02 -5.29245427e-03 4.64544399e-03 3.31078772e-03
      1.13064619e-02 3.62855382e-02 -5.09901159e-02 -3.75477187e-02
      1.74396142e-01 -1.98562406e-02 4.07047868e-02 7.24656805e-02
      -1.02691837e-02 1.27938958e-02 1.33359395e-02 5.71861714e-02
      -5.29196253e-03 4.64398460e-03 3.31409974e-03 1.13071920e-02
      3.62430140e-02 -5.11270873e-02 -3.75565961e-02 1.74249530e-01
      -1.98581889e-02 4.06929106e-02 7.23124146e-02 -1.02700563e-02
      1.27923014e-02 1.33202914e-02 5.70705235e-02 -5.29194856e-03
      4.64298390e-03 3.31125455e-03 1.12962006e-02 3.61511521e-02
      -5.13212495e-02 -3.75859216e-02 1.74111977e-01 -1.98633000e-02
      4.06812392e-02 7.21839368e-02 -1.02707660e-02 1.27931796e-02
      1.33028533e-02 5.69859296e-02 -5.29161841e-03 4.64389054e-03
      3.30816093e-03 1.12869134e-02 3.60882916e-02 -5.17820232e-02
      -3.76754962e-02 1.73882216e-01 -1.98731646e-02 4.06279229e-02
      7.20816553e-02 -1.02695404e-02 1.27823185e-02 1.32757975e-02
      5.69319129e-02 -5.28999930e-03 4.64111846e-03 3.30379303e-03
      1.12693049e-02 3.60702537e-02 -5.23249321e-02 -3.77986133e-02
      1.73618942e-01 -1.98969953e-02 4.05707248e-02 7.19135031e-02
      -1.02756387e-02 1.27723375e-02 1.32400244e-02 5.68260401e-02
      -5.29255997e-03 4.63934848e-03 3.29811103e-03 1.12462118e-02
      3.60049084e-02 -5.29183894e-02 -3.79288271e-02 1.73318684e-01
      -1.99238509e-02 4.05256860e-02 7.16653615e-02 -1.02831256e-02
      1.27693312e-02 1.32012358e-02 5.66608645e-02 -5.29579027e-03
      4.64085909e-03 3.29314522e-03 1.12234522e-02 3.58862877e-02
      -5.30240797e-02 -3.79580781e-02 1.73139468e-01 -1.99288223e-02
      4.04796116e-02 7.15662166e-02 -1.02837859e-02 1.27622699e-02
      1.31739639e-02 5.66003919e-02 -5.29548246e-03 4.63993941e-03
      3.28784483e-03 1.12066595e-02 3.58494744e-02 -5.39841652e-02
      -3.81442457e-02 1.72529772e-01 -1.99677255e-02 4.03770246e-02
      7.11952820e-02 -1.02981422e-02 1.27529306e-02 1.31058684e-02
      5.63845374e-02 -5.30332280e-03 4.64139367e-03 3.27813136e-03
      1.11675737e-02 3.57214063e-02 -5.48376590e-02 -3.82878445e-02
      1.72054216e-01 -1.99839957e-02 4.02939245e-02 7.08988085e-02
      -1.02976980e-02 1.27410162e-02 1.30500123e-02 5.62077984e-02
      -5.30130696e-03 4.63912869e-03 3.27007356e-03 1.11322002e-02
      3.56195793e-02 -5.54088838e-02 -3.83803807e-02 1.71680301e-01
      -1.99945234e-02 4.02317531e-02 7.06448033e-02 -1.02978572e-02
      1.27318893e-02 1.30058331e-02 5.60351312e-02 -5.30063594e-03
      4.63736942e-03 3.26368189e-03 1.11013725e-02 3.55036519e-02
      -5.62336482e-02 -3.85123044e-02 1.71097502e-01 -2.00142320e-02
      4.01336811e-02 7.02690110e-02 -1.03020463e-02 1.27151283e-02
      1.29470145e-02 5.57620078e-02 -5.30224154e-03 4.63316683e-03
      3.25604179e-03 1.10551463e-02 3.53159346e-02 -5.73672056e-02
      -3.86638790e-02 1.70358747e-01 -2.00230107e-02 4.00188193e-02
      6.97580725e-02 -1.02974176e-02 1.26973130e-02 1.28680281e-02
      5.54038323e-02 -5.29828621e-03 4.62856516e-03 3.24619072e-03
      1.09970234e-02 3.50655802e-02 -5.91279157e-02 -3.89127284e-02
      1.69267222e-01 -2.00450961e-02 3.98585424e-02 6.90095350e-02
      -1.02951713e-02 1.26786027e-02 1.27502726e-02 5.49100190e-02
      -5.29540051e-03 4.62631509e-03 3.23205604e-03 1.09172929e-02
      3.47293913e-02 -5.96158467e-02 -3.89919691e-02 1.68812379e-01
      -2.00584102e-02 3.97604145e-02 6.87830299e-02 -1.03011541e-02
      1.26626082e-02 1.26953982e-02 5.47624230e-02 -5.29946107e-03
      4.62337583e-03 3.22339707e-03 1.08766081e-02 3.46464999e-02
      -5.98906018e-02 -3.90476435e-02 1.68569162e-01 -2.00719666e-02
      3.97089124e-02 6.86649159e-02 -1.03087388e-02 1.26566235e-02
      1.26646394e-02 5.46982139e-02 -5.30505646e-03 4.62376187e-03
      3.21887014e-03 1.08565865e-02 3.46167758e-02 -5.95362969e-02
      -3.90551388e-02 1.68979391e-01 -2.00831741e-02 3.97442840e-02
      6.89763948e-02 -1.03097353e-02 1.26591707e-02 1.26865115e-02
      5.49522303e-02 -5.30267926e-03 4.62414417e-03 3.21828760e-03
      1.08768372e-02 3.48156206e-02 -5.96965291e-02 -3.91040407e-02
      1.68952912e-01 -2.00982094e-02 3.97282802e-02 6.89901263e-02
      -1.03152068e-02 1.26564763e-02 1.26757305e-02 5.49926609e-02
      -5.30471001e-03 4.62390948e-03 3.21520981e-03 1.08722169e-02
      3.48617733e-02 -6.03326522e-02 -3.91995758e-02 1.68567553e-01
      -2.01196708e-02 3.96763831e-02 6.87344447e-02 -1.03258127e-02
      1.26528507e-02 1.26360049e-02 5.48470169e-02 -5.31141926e-03
      4.62487806e-03 3.21012572e-03 1.08478619e-02 3.47718820e-02
      -6.06823824e-02 -3.92271206e-02 1.68433458e-01 -2.01109815e-02
      3.96523066e-02 6.86874315e-02 -1.03191482e-02 1.26495101e-02
      1.26232067e-02 5.48655130e-02 -5.30781224e-03 4.62378189e-03
      3.20903049e-03 1.08436598e-02 3.48130465e-02 -6.08422421e-02
      -3.92192975e-02 1.68400154e-01 -2.00997796e-02 3.96589339e-02
      6.87207431e-02 -1.03143901e-02 1.26545988e-02 1.26318941e-02
      5.49400710e-02 -5.30647347e-03 4.62618610e-03 3.21248826e-03
      1.08560873e-02 3.48933898e-02 -6.04667217e-02 -3.91875245e-02
      1.68567061e-01 -2.01040357e-02 3.96659821e-02 6.88586757e-02
      -1.03185540e-02 1.26509136e-02 1.26426173e-02 5.50164580e-02
      -5.30883344e-03 4.62436117e-03 3.21113970e-03 1.08607290e-02
      3.49417217e-02 -6.04277104e-02 -3.92075442e-02 1.68566436e-01
      -2.01220866e-02 3.96695510e-02 6.88420385e-02 -1.03308773e-02
      1.26531962e-02 1.26398802e-02 5.49927503e-02 -5.31712547e-03
      4.62616701e-03 3.20959091e-03 1.08593684e-02 3.49125937e-02
      -6.08143024e-02 -3.92977856e-02 1.68353707e-01 -2.01560073e-02
      3.96565571e-02 6.86342120e-02 -1.03512323e-02 1.26581918e-02
      1.26141803e-02 5.48420027e-02 -5.33102872e-03 4.63038404e-03
      3.20597598e-03 1.08446497e-02 3.47859375e-02 -6.07932173e-02
      -3.93418111e-02 1.68381408e-01 -2.01842226e-02 3.96526270e-02
      6.86480999e-02 -1.03697050e-02 1.26586184e-02 1.26053067e-02
      5.48727959e-02 -5.34377620e-03 4.63197939e-03 3.20240553e-03
      1.08436821e-02 3.48067097e-02</data></learnt_thetas>
  <n_labels type_id="opencv-matrix">
    <rows>2</rows>
    <cols>1</cols>
    <dt>i</dt>
    <data>
      0 1</data></n_labels>
  <o_labels type_id="opencv-matrix">
    <rows>2</rows>
    <cols>1</cols>
    <dt>i</dt>
    <data>
      0 1</data></o_labels></opencv_ml_lr>
</opencv_storage>
