<?xml version="1.0"?>
<opencv_storage>
<opencv_ml_lr>
  <format>3</format>
  <classifier>"Logisitic Regression Classifier"</classifier>
  <alpha>10000.</alpha>
  <iterations>61000</iterations>
  <norm>1</norm>
  <train_method>0</train_method>
  <learnt_thetas type_id="opencv-matrix">
    <rows>1</rows>
    <cols>599</cols>
    <dt>f</dt>
    <data>
      2.63953090e+00 -3.04931569e+00 -2.24458218e+00 3.70268703e-01
      5.26656866e-01 5.40914834e-01 2.99237937e-01 6.86723113e-01
      6.23188972e-01 8.09982479e-01 7.40766585e-01 -1.57399714e-01
      6.01555288e-01 5.49558759e-01 1.25264549e+00 1.26548922e+00
      1.21308196e+00 1.50638211e+00 1.41124094e+00 1.33415174e+00
      1.14402068e+00 1.11419225e+00 9.71566856e-01 1.02661633e+00
      1.43139982e+00 1.74381375e+00 1.48907876e+00 5.27570963e-01
      6.66403949e-01 1.29274130e+00 6.57840252e-01 6.71648204e-01
      9.27321792e-01 4.98203933e-01 5.59199393e-01 5.40774286e-01
      9.36053336e-01 8.23814929e-01 1.00473726e+00 1.35173178e+00
      7.84487665e-01 9.50111389e-01 1.62115479e+00 1.61456311e+00
      1.49251997e+00 9.97955441e-01 1.05922616e+00 1.68954551e+00
      6.21367097e-01 1.08312452e+00 5.02389133e-01 6.13302350e-01
      1.12442076e+00 6.51281655e-01 9.53179181e-01 9.16798413e-01
      3.11104298e-01 7.10571468e-01 5.15673518e-01 8.31492662e-01
      3.80577475e-01 2.45670244e-01 1.09123957e+00 6.35609388e-01
      1.72614551e+00 1.20198524e+00 1.14463556e+00 1.62552094e+00
      1.48547423e+00 1.40933383e+00 9.25774515e-01 1.33851194e+00
      1.53101683e+00 1.72866082e+00 1.55648494e+00 1.14845896e+00
      1.12441480e+00 1.65909731e+00 1.48127759e+00 1.33160269e+00
      1.02118087e+00 1.59105670e+00 1.63533616e+00 9.45662022e-01
      1.30465984e+00 1.55435240e+00 1.58229685e+00 2.25045919e+00
      1.43351686e+00 1.42321467e+00 1.51190984e+00 5.86973190e-01
      2.43225670e+00 1.52969038e+00 1.52666414e+00 1.05528450e+00
      1.10497916e+00 2.05647182e+00 1.10041463e+00 1.73371553e+00
      5.97162664e-01 6.69312119e-01 1.74117541e+00 8.08209538e-01
      1.93613529e+00 2.27259696e-01 7.09192395e-01 1.10056639e+00
      1.60004425e+00 3.16397953e+00 1.45315969e+00 2.22504401e+00
      2.05349660e+00 6.44682705e-01 1.05117047e+00 1.64005506e+00
      3.11924624e+00 2.00622058e+00 1.58813035e+00 1.77544367e+00
      2.15604806e+00 2.67766213e+00 2.17485428e+00 3.55325508e+00
      3.00664282e+00 1.34757233e+00 1.73804808e+00 2.55217576e+00
      3.28587747e+00 1.91874194e+00 2.43021417e+00 1.67405546e+00
      2.09758615e+00 1.61118925e+00 1.30189013e+00 1.70080185e+00
      1.34984434e+00 1.62550104e+00 9.10167754e-01 1.19400918e+00
      8.87183607e-01 5.15668869e-01 1.78653586e+00 4.40316200e-01
      1.44671261e+00 7.50116169e-01 2.74709553e-01 8.94404113e-01
      1.89595923e-01 2.10854411e-01 -2.91217232e+00 -2.82843757e+00
      8.37169588e-01 5.50461709e-01 2.74074107e-01 3.43261719e-01
      5.57564080e-01 1.83586881e-01 -2.86416877e-02 4.23400819e-01
      -2.47607052e-01 3.50396782e-01 3.96142781e-01 5.69257438e-01
      3.69039387e-01 -3.10997933e-01 4.22794789e-01 -2.84537882e-01
      2.97589451e-01 2.78458327e-01 -2.08282173e-01 3.74690413e-01
      -3.28798801e-01 2.26839826e-01 -8.54891911e-02 -7.94030726e-02
      1.71259642e-01 -4.87431228e-01 2.39200175e-01 -1.60165936e-01
      3.02137434e-01 3.92724812e-01 -1.32746354e-01 2.98837900e-01
      -5.55404663e-01 1.37187019e-01 6.62569702e-03 4.26656418e-02
      1.63076259e-03 -6.47386909e-01 2.66928971e-02 -2.56843984e-01
      2.68264115e-01 5.52307144e-02 -2.46190012e-01 1.18103243e-01
      -4.85438526e-01 -1.83620974e-01 -4.24976766e-01 -1.01423979e-01
      5.65248579e-02 -3.78191292e-01 -1.82223767e-02 -6.58265173e-01
      -3.07787657e-01 -4.14824516e-01 -7.01275766e-02 -2.66812772e-01
      -7.70498931e-01 -7.51426339e-01 -1.08301210e+00 -1.88308746e-01
      -6.65967166e-01 -9.42487061e-01 -7.55366206e-01 -1.43834662e+00
      -3.08614105e-01 -8.36576939e-01 8.73779505e-03 -3.93922567e-01
      -1.37390685e+00 -7.12959290e-01 -1.87849450e+00 -9.36385214e-01
      -1.04523802e+00 -1.26489639e+00 -4.54613835e-01 -1.51082373e+00
      -9.04951453e-01 -1.08727944e+00 -2.04603568e-01 -6.46815971e-02
      -9.06973481e-01 -4.05509084e-01 -1.74881327e+00 -5.73365092e-01
      -1.22867703e+00 -1.15876198e+00 -3.06872487e-01 -1.35666132e+00
      -5.19641757e-01 -8.82424891e-01 3.38344462e-02 -2.63992429e-01
      -3.45824182e-01 -5.63220680e-01 -1.36269069e+00 -7.52238035e-01
      -8.45243931e-01 -1.85473293e-01 -1.95058033e-01 -8.63091409e-01
      -3.99579018e-01 -1.20407820e+00 -6.40797138e-01 -8.34541738e-01
      -4.86723721e-01 -3.56912643e-01 -1.10100043e+00 -8.49513054e-01
      -1.03079820e+00 9.34732854e-02 -5.85366249e-01 -7.42479205e-01
      -5.15266597e-01 -1.43785322e+00 -4.66789991e-01 -1.20389009e+00
      -3.85569870e-01 -3.53409350e-01 -1.15751827e+00 -9.92358804e-01
      -1.79596996e+00 -3.50508839e-01 -1.06062555e+00 -8.28413844e-01
      -7.13056982e-01 -1.73272169e+00 -1.46594951e-02 -1.04850245e+00
      1.42565265e-01 -1.66210219e-01 -7.40163803e-01 -6.16933942e-01
      -1.50359440e+00 -4.50680137e-01 -6.98837876e-01 -5.12284815e-01
      -9.94235575e-02 -7.99141109e-01 -4.42164004e-01 -5.66665649e-01
      -7.56862760e-02 -8.68723810e-01 -1.06150281e+00 -4.00460333e-01
      -7.01703370e-01 1.60317868e-01 -1.34184822e-01 -5.57524800e-01
      -2.40941286e-01 -1.67985745e-02 -1.22311502e-03 -6.46320684e-03
      -2.36217901e-02 -9.46581084e-03 1.73424631e-02 7.80830458e-02
      1.04396030e-01 9.70359966e-02 7.45952874e-02 2.93192044e-02
      6.13225996e-03 -2.78604850e-02 -7.52615705e-02 -1.43724129e-01
      -2.36341864e-01 -3.29028785e-01 -3.89553487e-01 -4.62679803e-01
      -5.25103092e-01 -5.27175009e-01 -6.41190052e-01 -8.13363850e-01
      -9.21061337e-01 -1.01832712e+00 -1.06870854e+00 -1.13680685e+00
      -1.20737445e+00 -1.24310517e+00 -1.26298654e+00 -1.35997331e+00
      -1.42080617e+00 -1.38215852e+00 -1.40595853e+00 -1.48745251e+00
      -1.45063233e+00 -1.36761677e+00 -1.34636414e+00 -1.31567383e+00
      -1.27084231e+00 -1.19800580e+00 -1.10184252e+00 -1.02614892e+00
      -9.49043095e-01 -8.44836712e-01 -7.62425244e-01 -7.07877994e-01
      -6.13349736e-01 -5.05846083e-01 -4.30779815e-01 -3.53964210e-01
      -2.70890862e-01 -2.01258957e-01 -1.36367753e-01 -8.38058293e-02
      -4.60632592e-02 -2.96413824e-02 -2.22231541e-03 2.93285307e-02
      1.84205745e-03 -2.97791045e-02 -2.25930102e-02 -3.08274385e-02
      -5.60589060e-02 -5.36031015e-02 -2.55106725e-02 -5.68578504e-02
      -9.78116095e-02 -1.40904069e-01 -1.78276777e-01 -1.85320958e-01
      -1.94269672e-01 -2.15755403e-01 -2.48327225e-01 -2.74812877e-01
      -3.29956412e-01 -3.61066848e-01 -3.68514985e-01 -4.21558648e-01
      -4.23703849e-01 -4.22071069e-01 -4.29520369e-01 -4.04309630e-01
      -3.83145303e-01 -3.34832937e-01 -3.40287626e-01 -3.53448272e-01
      -2.79873341e-01 -2.44816050e-01 -2.74173558e-01 -2.42922559e-01
      -1.72230542e-01 -1.07004277e-01 -4.77495305e-02 -2.83397324e-02
      5.24283759e-03 5.73042445e-02 8.88012722e-02 1.11502320e-01
      8.63138363e-02 5.58456145e-02 1.68644395e-02 8.14576633e-03
      2.09827572e-02 -1.61966253e-02 -6.10589869e-02 -4.30177748e-02
      -3.11218482e-02 -4.47136723e-02 -9.53607112e-02 -1.22537531e-01
      -8.61149803e-02 -4.50224243e-02 1.47891988e-03 2.33380254e-02
      7.27735609e-02 1.32525787e-01 1.64747313e-01 1.59292579e-01
      1.92810595e-01 2.07766473e-01 1.68365613e-01 9.60138440e-02
      -9.83078778e-03 -7.34232962e-02 -7.33962730e-02 -1.46909833e-01
      -2.68795133e-01 -3.49347085e-01 -4.42426652e-01 -4.61915016e-01
      -4.38723981e-01 -3.83186698e-01 -3.55909348e-01 -3.23965251e-01
      -2.45714799e-01 -1.62599176e-01 -1.26103893e-01 -1.07576996e-01
      -8.00758600e-02 -4.31437120e-02 -2.27572657e-02 -7.16328248e-02
      -1.03948250e-01 -1.36005223e-01 -2.26284653e-01 -3.93281400e-01
      -4.23360616e-01 8.82382751e-01 8.04015219e-01 7.63175189e-01
      8.16202462e-01 7.95966446e-01 7.18813658e-01 7.11984634e-01
      7.26238549e-01 7.05893636e-01 6.87528253e-01 6.86242580e-01
      6.85555637e-01 6.74935102e-01 7.03332961e-01 7.23531663e-01
      7.36293912e-01 7.58671939e-01 7.60462582e-01 7.60480523e-01
      7.79923320e-01 7.99205244e-01 7.94091642e-01 7.77190149e-01
      7.26622164e-01 6.84240937e-01 6.97766721e-01 6.97843492e-01
      6.77451909e-01 6.75970256e-01 6.89104795e-01 6.82704151e-01
      6.80368304e-01 6.43247545e-01 6.33381426e-01 6.97082937e-01
      6.89630389e-01 6.26314938e-01 6.87449813e-01 7.73473978e-01
      7.79473126e-01 7.62014091e-01 7.02623367e-01 7.27846324e-01
      8.13537300e-01 7.41406322e-01 6.61796927e-01 7.25465000e-01
      7.75634348e-01 7.98800588e-01 8.09652388e-01 8.17543268e-01
      8.05282772e-01 8.07082176e-01 8.40856016e-01 8.87150407e-01
      9.49600041e-01 9.33833003e-01 9.06430721e-01 9.47008193e-01
      9.88592803e-01 1.02459693e+00 9.96462762e-01 9.55949485e-01
      9.62486207e-01 9.60969210e-01 9.37322557e-01 8.70743394e-01
      7.88653493e-01 7.74583519e-01 7.87131071e-01 7.07334995e-01
      6.47930205e-01 6.53172135e-01 6.67565107e-01 6.68663502e-01
      6.74043238e-01 6.87340736e-01 6.74678385e-01 6.95946753e-01
      7.80814826e-01 7.65658140e-01 7.24038899e-01 7.08196402e-01
      6.86242044e-01 6.87971652e-01 6.64366126e-01 6.68896198e-01
      6.50641680e-01 6.15652204e-01 5.51351964e-01 5.13125062e-01
      5.39486825e-01 5.33688366e-01 5.17742276e-01 5.34096479e-01
      5.31441391e-01 5.47715545e-01 5.74326694e-01 6.14368796e-01
      6.86522126e-01 7.69980133e-01 7.05185235e-01 6.65662766e-01
      6.88763618e-01 6.98961437e-01 7.01998532e-01 6.68148756e-01
      6.32160604e-01 6.10936701e-01 5.86476743e-01 5.22938728e-01
      4.50677723e-01 4.17895675e-01 4.79681969e-01 5.40717781e-01
      5.57627082e-01 5.62877178e-01 5.97532511e-01 6.45120442e-01
      6.88528776e-01 6.84459031e-01 6.89797223e-01 6.78134680e-01
      6.17648125e-01 5.35696805e-01 5.45565486e-01 5.73674560e-01
      5.55455267e-01 5.27679861e-01 4.96313930e-01 5.33924222e-01
      5.97056806e-01 5.84118068e-01 5.97851694e-01 6.45117223e-01
      6.91121459e-01 7.78759658e-01 8.21479201e-01 8.25788260e-01
      8.51627469e-01 8.57833982e-01 8.00543547e-01 7.89564371e-01
      8.00754845e-01 7.51151502e-01 7.00608075e-01 6.28050089e-01
      5.96846819e-01 6.18469238e-01 6.29112244e-01</data></learnt_thetas>
  <n_labels type_id="opencv-matrix">
    <rows>2</rows>
    <cols>1</cols>
    <dt>i</dt>
    <data>
      0 1</data></n_labels>
  <o_labels type_id="opencv-matrix">
    <rows>2</rows>
    <cols>1</cols>
    <dt>i</dt>
    <data>
      0 1</data></o_labels></opencv_ml_lr>
</opencv_storage>
