<?xml version="1.0"?>
<opencv_storage>
<opencv_ml_lr>
  <format>3</format>
  <classifier>"Logisitic Regression Classifier"</classifier>
  <alpha>10000.</alpha>
  <iterations>16600</iterations>
  <norm>1</norm>
  <train_method>0</train_method>
  <learnt_thetas type_id="opencv-matrix">
    <rows>1</rows>
    <cols>2550</cols>
    <dt>f</dt>
    <data>
      -3.95276332e+00 6.93607554e-02 8.40122774e-02 2.13498950e-01
      1.72865629e-01 2.35591620e-01 4.12817478e-01 4.39106107e-01
      4.32695061e-01 3.63717705e-01 2.44153813e-01 1.64217442e-01
      1.87170237e-01 1.36442438e-01 1.93529293e-01 3.57298523e-01
      2.82842904e-01 2.56344855e-01 3.22884262e-01 3.88731599e-01
      1.59150079e-01 1.41567796e-01 1.51172966e-01 6.74321279e-02
      1.09111711e-01 6.21781610e-02 1.18876457e-01 2.76944369e-01
      1.78303123e-01 1.63022891e-01 2.22642422e-01 2.12166116e-01
      1.25102714e-01 1.47535235e-01 1.79957390e-01 2.56062001e-01
      2.98984170e-01 3.38660359e-01 3.82976830e-01 3.28628570e-01
      2.30321601e-01 8.64716619e-02 1.65455878e-01 2.89926589e-01
      3.99625808e-01 3.87465119e-01 4.83975351e-01 5.54328620e-01
      5.65463006e-01 4.36776817e-01 4.66355950e-01 3.65456402e-01
      3.18184555e-01 3.00767928e-01 3.76619071e-01 4.48292196e-01
      5.19171417e-01 5.20456195e-01 2.52191037e-01 1.73766702e-01
      1.24386080e-01 5.30988909e-02 1.58560440e-01 2.21339256e-01
      2.12620482e-01 3.12579304e-01 2.34016240e-01 1.75277904e-01
      1.47342369e-01 1.51813626e-01 1.87217996e-01 1.11948185e-01
      7.46111423e-02 4.47087735e-02 1.03923663e-01 -1.33090109e-01
      -9.09178257e-02 1.08726464e-01 1.02032274e-01 1.38191327e-01
      1.91168845e-01 1.77996919e-01 1.42177418e-01 1.25062838e-01
      9.44287796e-03 -4.62312773e-02 1.21310912e-01 1.93585247e-01
      1.90338895e-01 3.76354933e-01 3.72909009e-01 3.45525503e-01
      2.80073404e-01 2.59953976e-01 3.84752244e-01 3.71165484e-01
      2.82270730e-01 3.67981017e-01 3.84889245e-01 3.58381480e-01
      3.41102034e-01 2.39638239e-01 2.58757353e-01 3.58795524e-01
      2.94778198e-01 2.60510653e-01 2.35942125e-01 2.83304274e-01
      2.42426649e-01 2.11560220e-01 1.41428888e-01 2.72561699e-01
      3.03096592e-01 1.09551683e-01 1.44352764e-01 2.07610428e-01
      4.87231649e-02 -3.91756594e-02 4.25021909e-02 5.90796508e-02
      -3.34001938e-03 -6.01388551e-02 -7.02751651e-02 -7.63309523e-02
      -4.58062813e-02 -1.49442464e-01 -1.72078684e-01 -8.10375661e-02
      -1.49285525e-01 -1.05574489e-01 -1.43492281e-01 -8.80010501e-02
      -1.38877824e-01 -2.02154100e-01 -1.48649573e-01 -1.08302742e-01
      -7.92640001e-02 -1.76161751e-01 -1.36036932e-01 -9.47878510e-03
      -7.29211792e-02 -1.44004613e-01 -1.03547670e-01 6.84200495e-04
      7.75625706e-02 5.96308298e-02 -4.36116010e-03 -2.48360187e-02
      9.18627009e-02 3.71754095e-02 1.10747933e-01 1.39317259e-01
      1.55105606e-01 2.07929075e-01 2.12160692e-01 1.26753986e-01
      1.38279185e-01 2.29107663e-01 1.83216259e-01 1.28350645e-01
      1.67904228e-01 2.28827804e-01 1.37973681e-01 1.61310062e-01
      2.16628879e-01 2.80847430e-01 3.05127233e-01 2.85568237e-01
      3.26688588e-01 2.76619464e-01 3.22786897e-01 3.90980065e-01
      3.69254857e-01 4.63293821e-01 4.10331100e-01 3.85036796e-01
      4.68794525e-01 3.55841428e-01 2.80168205e-01 1.68524191e-01
      1.31513000e-01 1.30691200e-01 1.65728837e-01 1.96730793e-01
      2.11743176e-01 1.85500085e-01 4.99698222e-02 4.81606200e-02
      4.80200499e-02 -3.38342376e-02 -8.17032531e-02 -1.07395977e-01
      -8.12047645e-02 -8.55170712e-02 -9.83839482e-02 -5.76062128e-02
      -9.19537321e-02 -1.10893294e-01 -9.88415778e-02 -8.21567550e-02
      -1.98256209e-01 -1.82473153e-01 -5.56101277e-02 -1.31477728e-01
      -8.49466324e-02 -1.37696952e-01 -1.09505177e-01 -3.10484450e-02
      -4.30159494e-02 -2.05322262e-02 -1.08625248e-01 7.46227661e-03
      -1.05137475e-01 -9.81021151e-02 -5.79622947e-03 4.07113833e-03
      4.50878590e-02 1.79415736e-02 7.67758712e-02 1.67378798e-01
      1.26336262e-01 1.52754083e-01 1.01562865e-01 1.37483969e-01
      1.22864835e-01 1.38787881e-01 2.04567447e-01 9.59216356e-02
      1.19387969e-01 6.26037503e-03 6.91754930e-03 -1.73443537e-02
      -2.81027462e-02 1.54140284e-02 -6.75136670e-02 2.23778356e-02
      -4.08643745e-02 -6.36621416e-02 7.15033263e-02 -1.46780780e-03
      -9.43935886e-02 -1.03437960e-01 -5.01039624e-02 -4.01484482e-02
      -5.04054613e-02 -8.38963464e-02 -5.15341051e-02 8.49848613e-02
      -8.19288846e-03 -7.53009459e-03 1.72704920e-01 1.51731133e-01
      1.64390564e-01 1.84905604e-01 1.89096197e-01 8.54737088e-02
      1.27977818e-01 3.58753294e-01 4.62308764e-01 5.89367151e-01
      7.12188184e-01 7.37361133e-01 7.09617019e-01 7.12681234e-01
      8.78821671e-01 6.76431835e-01 4.37291175e-01 4.85493362e-01
      5.30518234e-01 5.98236740e-01 5.89576960e-01 6.25165284e-01
      6.43890619e-01 6.81265652e-01 6.86546743e-01 6.55946016e-01
      7.39610493e-01 6.96440220e-01 6.16738558e-01 5.24363875e-01
      4.66986507e-01 3.26566279e-01 2.30438903e-01 2.25858986e-01
      2.17898279e-01 1.72865823e-01 -2.20931880e-02 -7.18883947e-02
      -2.68314667e-02 -1.05050534e-01 -1.57994524e-01 -1.27248287e-01
      -8.34087655e-02 -1.58343077e-01 -1.85265481e-01 -1.92349881e-01
      -2.46190816e-01 -1.79351136e-01 -2.19221741e-01 -3.82254744e+00
      -1.39207721e-01 -1.02787480e-01 1.51048288e-01 -6.10946165e-03
      3.64758186e-02 3.32849994e-02 -2.18861736e-02 1.20249903e-02
      3.91788519e-04 3.66590954e-02 -5.72440447e-03 1.30084495e-03
      -5.38683671e-04 6.11444796e-03 2.44952943e-02 -1.28830999e-01
      -9.80078205e-02 1.46920398e-01 -3.64959380e-03 3.54389846e-02
      3.06346007e-02 -2.08496768e-02 1.18424231e-02 -3.18656792e-04
      3.50476168e-02 -5.23228804e-03 1.25669490e-03 -7.28656538e-04
      5.69434650e-03 2.34949589e-02 -1.20778769e-01 -9.40422788e-02
      1.42121702e-01 -1.54638512e-03 3.41324136e-02 2.77419034e-02
      -1.99166015e-02 1.15627050e-02 -1.10631529e-03 3.33246589e-02
      -4.77995491e-03 1.18182669e-03 -9.40593949e-04 5.24752308e-03
      2.24069655e-02 -1.18486524e-01 -9.24141929e-02 1.35708839e-01
      -6.46361616e-04 3.20672430e-02 2.41162013e-02 -1.94558986e-02
      1.09400637e-02 -2.17812695e-03 3.11553981e-02 -4.55009751e-03
      9.65758343e-04 -1.26804737e-03 4.64865146e-03 2.09958963e-02
      -1.09208062e-01 -8.76533091e-02 1.30037114e-01 1.69414363e-03
      3.04372888e-02 2.03387421e-02 -1.85088087e-02 1.05178198e-02
      -3.27313063e-03 2.86543500e-02 -4.15717857e-03 8.14168132e-04
      -1.58527470e-03 3.93682439e-03 1.93072967e-02 -9.47876498e-02
      -8.03407207e-02 1.24894008e-01 5.33745298e-03 2.91683506e-02
      1.64893307e-02 -1.70344599e-02 1.02912122e-02 -4.35807323e-03
      2.60101035e-02 -3.54420254e-03 7.44508696e-04 -1.87662907e-03
      3.17844772e-03 1.75254717e-02 -8.68433118e-02 -7.52778128e-02
      1.20406576e-01 7.84251839e-03 2.82364748e-02 1.32243996e-02
      -1.59561466e-02 1.01979468e-02 -5.15103992e-03 2.38757953e-02
      -3.10685299e-03 7.41764670e-04 -2.05080025e-03 2.62323720e-03
      1.61781926e-02 -7.83625022e-02 -6.96288049e-02 1.16097189e-01
      1.08944857e-02 2.74813809e-02 1.01157632e-02 -1.45092448e-02
      1.02473805e-02 -5.87033201e-03 2.19026301e-02 -2.44782516e-03
      8.31635843e-04 -2.18185806e-03 2.12464808e-03 1.49817634e-02
      -6.42348081e-02 -6.14594035e-02 1.11928143e-01 1.55849857e-02
      2.69863401e-02 6.52774563e-03 -1.22388517e-02 1.05295004e-02
      -6.68629631e-03 1.93632729e-02 -1.33225264e-03 1.05645554e-03
      -2.30219937e-03 1.47378957e-03 1.33320354e-02 -5.02994917e-02
      -5.41605465e-02 1.08655810e-01 2.01370511e-02 2.66941804e-02
      3.54699069e-03 -9.91632976e-03 1.09153548e-02 -7.34014623e-03
      1.71903260e-02 -8.29630299e-05 1.34105457e-03 -2.35911971e-03
      9.27896937e-04 1.18998280e-02 -3.72814685e-02 -4.86420505e-02
      1.06901109e-01 2.39050500e-02 2.67477948e-02 1.33199175e-03
      -7.94870686e-03 1.14073902e-02 -7.77542824e-03 1.53282015e-02
      1.07597804e-03 1.65615196e-03 -2.33716238e-03 4.73080639e-04
      1.05664767e-02 -3.39409038e-02 -4.89494167e-02 1.04232401e-01
      2.40324549e-02 2.59774309e-02 -1.01775362e-03 -7.90782087e-03
      1.13117779e-02 -8.38664826e-03 1.35553535e-02 1.20024255e-03
      1.65402330e-03 -2.45334208e-03 1.38597861e-05 9.30767599e-03
      -3.45117822e-02 -5.21255024e-02 1.00896724e-01 2.23653130e-02
      2.47402098e-02 -3.40194395e-03 -8.88230186e-03 1.09257540e-02
      -9.05812904e-03 1.18643688e-02 7.68581755e-04 1.48882181e-03
      -2.61828303e-03 -4.25592472e-04 8.10618140e-03 -3.30762751e-02
      -5.48418127e-02 9.62458402e-02 2.16317866e-02 2.27503181e-02
      -6.61004288e-03 -9.19891149e-03 1.03345308e-02 -1.01804305e-02
      9.60934535e-03 8.25081312e-04 1.27237092e-03 -2.95210490e-03
      -1.15727307e-03 6.55781245e-03 -3.37528102e-02 -5.81419840e-02
      9.19362232e-02 2.06237547e-02 2.09140833e-02 -9.70097817e-03
      -9.60096624e-03 9.76954401e-03 -1.12020988e-02 7.41173979e-03
      8.36856314e-04 1.05646555e-03 -3.24952439e-03 -1.81248155e-03
      5.02724247e-03 -4.05311175e-02 -6.49846569e-02 8.78460333e-02
      1.70756560e-02 1.89837050e-02 -1.24339042e-02 -1.15280673e-02
      8.93273577e-03 -1.20257027e-02 5.42034209e-03 -9.10150411e-05
      6.23297936e-04 -3.50451679e-03 -2.31128116e-03 3.59348836e-03
      -4.35518138e-02 -7.07704946e-02 8.53641182e-02 1.42254215e-02
      1.75002888e-02 -1.44973062e-02 -1.31866680e-02 8.28828849e-03
      -1.26814311e-02 3.77103151e-03 -8.57511186e-04 2.70123157e-04
      -3.69849917e-03 -2.73264013e-03 2.38328939e-03 -4.25088815e-02
      -7.47919530e-02 8.36241916e-02 1.22892288e-02 1.62679181e-02
      -1.60373282e-02 -1.44741517e-02 7.77208898e-03 -1.32190967e-02
      2.50701932e-03 -1.43499079e-03 -2.40717418e-05 -3.85709852e-03
      -3.06575675e-03 1.44280796e-03 -3.71103734e-02 -7.68644959e-02
      8.20561126e-02 1.10723190e-02 1.53613966e-02 -1.80617590e-02
      -1.55457892e-02 7.45819462e-03 -1.38076721e-02 7.24318670e-04
      -1.95889897e-03 -2.21229246e-04 -3.99351073e-03 -3.51575925e-03
      8.05184318e-05 -3.03499233e-02 -7.77502880e-02 8.06430355e-02
      1.07499491e-02 1.46968216e-02 -2.01404244e-02 -1.60472244e-02
      7.34481541e-03 -1.43718654e-02 -1.11601956e-03 -2.13470962e-03
      -2.89657823e-04 -4.09365213e-03 -3.98085546e-03 -1.29425176e-03
      -1.54783670e-02 -7.45909363e-02 8.18354636e-02 1.19088199e-02
      1.53962336e-02 -2.15036068e-02 -1.61280427e-02 7.80714303e-03
      -1.45851122e-02 -2.68500112e-03 -2.22203392e-03 -1.42071294e-04
      -4.04484430e-03 -4.35156329e-03 -2.47603166e-03 -2.14538095e-03
      -7.21552968e-02 8.27980265e-02 1.29680466e-02 1.59184672e-02
      -2.25405768e-02 -1.61231253e-02 8.17428250e-03 -1.47768622e-02
      -3.87273333e-03 -2.18830467e-03 -1.94462900e-05 -4.01358027e-03
      -4.64679627e-03 -3.36908689e-03 8.71149916e-03 -7.11276606e-02
      8.33288804e-02 1.34878391e-02 1.60098467e-02 -2.31837537e-02
      -1.62758585e-02 8.29424057e-03 -1.49673587e-02 -4.58018156e-03
      -2.16298620e-03 -2.95361042e-06 -4.02458338e-03 -4.84294072e-03
      -3.90361389e-03 2.27786656e-02 -6.76289201e-02 8.35500658e-02
      1.54647892e-02 1.61695499e-02 -2.42102612e-02 -1.57117732e-02
      8.51722062e-03 -1.52858822e-02 -5.48373116e-03 -1.80394622e-03
      7.41250260e-05 -4.06936696e-03 -5.12781972e-03 -4.51045716e-03
      4.24392037e-02 -6.11064695e-02 8.37870315e-02 1.91024803e-02
      1.65708456e-02 -2.55581271e-02 -1.44045828e-02 8.94603133e-03
      -1.56573970e-02 -6.61939522e-03 -1.08825916e-03 2.58166372e-04
      -4.09669662e-03 -5.47343399e-03 -5.24257403e-03 6.93505853e-02
      -5.24287261e-02 8.57464671e-02 2.36816257e-02 1.75549388e-02
      -2.61041727e-02 -1.29655972e-02 9.61270183e-03 -1.57744642e-02
      -7.36124674e-03 -3.64172272e-04 4.97484754e-04 -4.02148720e-03
      -5.69479773e-03 -5.77215105e-03 9.39539522e-02 -4.39451858e-02
      8.69976208e-02 2.83539351e-02 1.82996076e-02 -2.66848616e-02
      -1.13430442e-02 1.02155190e-02 -1.59380548e-02 -8.00171029e-03
      4.68805025e-04 7.40305637e-04 -3.97039112e-03 -5.90297580e-03
      -6.19022176e-03 1.17420748e-01 -3.45065556e-02 8.75915661e-02
      3.35912295e-02 1.90101340e-02 -2.75648423e-02 -9.29165818e-03
      1.08576743e-02 -1.61477923e-02 -8.77278764e-03 1.49788009e-03
      1.04338094e-03 -3.93055100e-03 -6.13128953e-03 -6.67465385e-03
      1.34791300e-01 -2.95168385e-02 8.79414082e-02 3.63477468e-02
      1.90261379e-02 -2.79858019e-02 -8.54582712e-03 1.10288057e-02
      -1.63708366e-02 -9.14620981e-03 1.87310763e-03 1.08476193e-03
      -3.95505037e-03 -6.27852418e-03 -6.91331085e-03 1.44785836e-01
      -3.02298553e-02 8.83234516e-02 3.57051715e-02 1.84539407e-02
      -2.79360469e-02 -9.68685839e-03 1.06952516e-02 -1.65658649e-02
      -9.15501826e-03 1.26005942e-03 8.12164973e-04 -4.03236412e-03
      -6.34043431e-03 -6.92417612e-03 1.55621424e-01 -3.03715169e-02
      8.90305489e-02 3.54776494e-02 1.81413200e-02 -2.77389307e-02
      -1.05880713e-02 1.04469163e-02 -1.66258272e-02 -9.13065579e-03
      7.94228807e-04 5.82527777e-04 -4.05996619e-03 -6.32924400e-03
      -6.95885019e-03 1.66348889e-01 -3.05751245e-02 9.01447386e-02
      3.53629775e-02 1.80380959e-02 -2.73015257e-02 -1.13701513e-02
      1.02714030e-02 -1.65475458e-02 -9.03575495e-03 4.35519934e-04
      3.83819308e-04 -4.03264537e-03 -6.25564763e-03 -6.98923087e-03
      1.77257836e-01 -2.95130033e-02 9.03122425e-02 3.65927704e-02
      1.77094713e-02 -2.76541468e-02 -1.12035424e-02 1.01498598e-02
      -1.67860743e-02 -9.55729559e-03 6.71265938e-04 2.80195032e-04
      -4.09349566e-03 -6.42121444e-03 -7.44313747e-03 1.89758822e-01
      -2.72620283e-02 9.00072306e-02 3.85866165e-02 1.72773544e-02
      -2.81826463e-02 -1.06193218e-02 1.00182761e-02 -1.70752164e-02
      -1.01699205e-02 1.14551082e-03 1.85430850e-04 -4.16762941e-03
      -6.61159353e-03 -7.93864205e-03 1.99976981e-01 -2.61490792e-02
      8.98261294e-02 3.97981293e-02 1.67791471e-02 -2.89123449e-02
      -1.04103638e-02 9.73459892e-03 -1.73942093e-02 -1.09362351e-02
      1.42198347e-03 -1.74750039e-05 -4.27444186e-03 -6.81491755e-03
      -8.54733307e-03 2.04372302e-01 -2.74740104e-02 8.87897909e-02
      3.96779031e-02 1.59257874e-02 -2.99605317e-02 -1.06895138e-02
      9.26797092e-03 -1.78282391e-02 -1.17398184e-02 1.46756403e-03
      -2.80511624e-04 -4.43666428e-03 -7.04469020e-03 -9.10120085e-03
      2.05739379e-01 -3.10427919e-02 8.76164660e-02 3.84619795e-02
      1.49060730e-02 -3.08472328e-02 -1.14918696e-02 8.68868269e-03
      -1.82542168e-02 -1.23716239e-02 1.28877512e-03 -5.83111367e-04
      -4.60695708e-03 -7.24129286e-03 -9.51536838e-03 2.05715120e-01
      -3.62181515e-02 8.71504024e-02 3.67754288e-02 1.41224144e-02
      -3.12839933e-02 -1.25822360e-02 8.28392617e-03 -1.86114702e-02
      -1.27191320e-02 1.01315824e-03 -7.66451529e-04 -4.73764073e-03
      -7.39688287e-03 -9.73508134e-03 2.04292446e-01 -4.13213186e-02
      8.63475204e-02 3.53355929e-02 1.33343441e-02 -3.17034498e-02
      -1.34167271e-02 7.95250572e-03 -1.89607609e-02 -1.29994331e-02
      8.97000718e-04 -8.80054955e-04 -4.85556433e-03 -7.54170539e-03
      -9.89590399e-03 2.00769335e-01 -4.69571017e-02 8.52031410e-02
      3.32179479e-02 1.25790825e-02 -3.21407318e-02 -1.46760773e-02
      7.63669703e-03 -1.92508809e-02 -1.32801514e-02 4.55025089e-04
      -1.00600941e-03 -4.94521903e-03 -7.67203653e-03 -1.00405226e-02
      2.00257555e-01 -5.16180247e-02 8.44371766e-02 3.18373293e-02
      1.19920084e-02 -3.23830731e-02 -1.56449061e-02 7.39461277e-03
      -1.95032656e-02 -1.34368641e-02 2.07224453e-04 -1.09662197e-03
      -5.01972437e-03 -7.77282985e-03 -1.01079736e-02 2.03914344e-01
      -5.43459989e-02 8.43225792e-02 3.13278772e-02 1.16584105e-02
      -3.24340202e-02 -1.62489284e-02 7.19111366e-03 -1.97069906e-02
      -1.34824980e-02 1.47276674e-04 -1.17181102e-03 -5.09362202e-03
      -7.83923175e-03 -1.01106865e-02 2.08637625e-01 -5.55452928e-02
      8.52919221e-02 3.09633110e-02 1.20847961e-02 -3.22841592e-02
      -1.68442987e-02 7.26321014e-03 -1.97188165e-02 -1.34844640e-02
      -4.16603143e-05 -1.13484217e-03 -5.09964582e-03 -7.85037782e-03
      -1.01018921e-02 2.13911101e-01 -5.52527346e-02 8.67384449e-02
      3.08988914e-02 1.30227981e-02 -3.20699774e-02 -1.72880162e-02
      7.53374305e-03 -1.95847861e-02 -1.34887090e-02 -2.69673154e-04
      -1.00977265e-03 -5.04771573e-03 -7.81878736e-03 -1.00994296e-02
      2.18238607e-01 -5.43485135e-02 8.67599249e-02 3.10455542e-02
      1.34731317e-02 -3.21878679e-02 -1.75370872e-02 7.59910420e-03
      -1.95635017e-02 -1.36087993e-02 -4.61647316e-04 -9.52565344e-04
      -5.04761981e-03 -7.82456156e-03 -1.01284822e-02 2.23607987e-01
      -5.28968647e-02 8.66960511e-02 3.17998156e-02 1.39451399e-02
      -3.22292112e-02 -1.74383000e-02 7.74191506e-03 -1.95195749e-02
      -1.36705171e-02 -4.33712179e-04 -8.36834777e-04 -5.02063520e-03
      -7.81174283e-03 -1.01294219e-02 2.31223091e-01 -5.01705781e-02
      8.61391351e-02 3.35011482e-02 1.42997345e-02 -3.24328505e-02
      -1.68382786e-02 7.92542379e-03 -1.95206739e-02 -1.37383165e-02
      -1.14211631e-04 -6.68901543e-04 -4.98321792e-03 -7.79805146e-03
      -1.01333670e-02 2.37443894e-01 -4.71661463e-02 8.59118402e-02
      3.53022851e-02 1.49063254e-02 -3.24077532e-02 -1.60664003e-02
      8.21893755e-03 -1.93944499e-02 -1.37156444e-02 2.74245191e-04
      -4.35078691e-04 -4.89901425e-03 -7.73513876e-03 -1.01095242e-02
      2.42389202e-01 -4.38735671e-02 8.61693174e-02 3.69913504e-02
      1.57653634e-02 -3.21271047e-02 -1.52843110e-02 8.57371185e-03
      -1.91426594e-02 -1.36097884e-02 6.15516386e-04 -1.78207425e-04
      -4.78155352e-03 -7.62906484e-03 -1.00631714e-02 2.43630096e-01
      -4.31662574e-02 8.43905956e-02 3.71506028e-02 1.56552903e-02
      -3.24543007e-02 -1.53558655e-02 8.39986745e-03 -1.91639550e-02
      -1.36995213e-02 5.00429014e-04 -1.95463319e-04 -4.80223726e-03
      -7.59548042e-03 -1.00703398e-02 2.43432254e-01 -4.30834740e-02
      8.18880945e-02 3.69897224e-02 1.52831767e-02 -3.29317972e-02
      -1.56151317e-02 8.08480568e-03 -1.92474611e-02 -1.38186282e-02
      2.77392304e-04 -2.88416748e-04 -4.85644024e-03 -7.57071283e-03
      -1.00811897e-02 2.52298892e-01 -3.77737954e-02 8.15500617e-02
      3.94446701e-02 1.58462953e-02 -3.27893905e-02 -1.45948809e-02
      8.13566428e-03 -1.91170778e-02 -1.37903579e-02 6.72987488e-04
      -2.09896039e-04 -4.83672880e-03 -7.50073185e-03 -1.00498917e-02
      2.57253736e-01 -3.43103670e-02 8.07165951e-02 4.10482436e-02
      1.60550028e-02 -3.27264182e-02 -1.38702923e-02 8.02866463e-03
      -1.90609749e-02 -1.37632806e-02 9.52060800e-04 -2.00294380e-04
      -4.85518621e-03 -7.44635751e-03 -1.00199506e-02 2.52785891e-01
      -3.60149741e-02 7.88744986e-02 4.00024652e-02 1.53706828e-02
      -3.28580700e-02 -1.42564364e-02 7.48292077e-03 -1.91988554e-02
      -1.37632880e-02 7.39134673e-04 -4.03740880e-04 -4.98166308e-03
      -7.44466111e-03 -9.99869313e-03 2.45712459e-01 -3.88669819e-02
      7.75574893e-02 3.84771973e-02 1.48002971e-02 -3.29056494e-02
      -1.47315776e-02 6.94096880e-03 -1.93054937e-02 -1.37273911e-02
      5.27843600e-04 -6.13209908e-04 -5.10410545e-03 -7.42485933e-03
      -9.96383652e-03 2.36765876e-01 -4.19422016e-02 7.64328092e-02
      3.70161384e-02 1.43020293e-02 -3.29196677e-02 -1.49975261e-02
      6.42629480e-03 -1.93863772e-02 -1.36721330e-02 4.57044225e-04
      -8.04187090e-04 -5.21900877e-03 -7.39178620e-03 -9.92305018e-03
      2.27944955e-01 -4.55464795e-02 7.44286776e-02 3.53908837e-02
      1.34794712e-02 -3.33548635e-02 -1.53607754e-02 5.82118100e-03
      -1.96321569e-02 -1.37955798e-02 3.86246189e-04 -1.02092780e-03
      -5.38470829e-03 -7.42936181e-03 -9.93961282e-03 2.16945276e-01
      -4.96148653e-02 7.23051280e-02 3.37914452e-02 1.26904221e-02
      -3.38941477e-02 -1.55848926e-02 5.28869685e-03 -1.98941343e-02
      -1.39495172e-02 4.10879351e-04 -1.18264451e-03 -5.54160820e-03
      -7.47265527e-03 -9.96833667e-03 2.00011551e-01 -5.42253777e-02
      7.09871724e-02 3.15755233e-02 1.25453435e-02 -3.44497189e-02
      -1.59648042e-02 5.07284096e-03 -1.99977160e-02 -1.41469967e-02
      2.07745295e-04 -1.19699002e-03 -5.61918318e-03 -7.48635689e-03
      -1.00248130e-02 1.85573146e-01 -5.75353652e-02 6.94590509e-02
      2.99473405e-02 1.21950330e-02 -3.49127501e-02 -1.60882454e-02
      4.76991618e-03 -2.01061312e-02 -1.42863803e-02 1.22946964e-04
      -1.26076583e-03 -5.70776174e-03 -7.49553926e-03 -1.00571411e-02
      1.72523871e-01 -5.93994260e-02 6.79200962e-02 2.89240684e-02
      1.17308423e-02 -3.52202132e-02 -1.58300269e-02 4.38913470e-03
      -2.01796256e-02 -1.43355504e-02 2.11147868e-04 -1.37017993e-03
      -5.80134802e-03 -7.48367934e-03 -1.00559266e-02 1.60158619e-01
      -6.20356351e-02 6.64251298e-02 2.70354841e-02 1.13176601e-02
      -3.55928987e-02 -1.62777696e-02 4.04313114e-03 -2.02410966e-02
      -1.43784741e-02 -1.34440037e-04 -1.48648652e-03 -5.87318931e-03
      -7.46967830e-03 -1.00603085e-02 1.50242880e-01 -6.44705668e-02
      6.51835501e-02 2.52579469e-02 1.10473884e-02 -3.58535722e-02
      -1.68527309e-02 3.82943451e-03 -2.02603769e-02 -1.43918507e-02
      -5.44928364e-04 -1.54851098e-03 -5.90600120e-03 -7.45125208e-03
      -1.00537920e-02 1.44484848e-01 -6.38483092e-02 6.58264011e-02
      2.44853143e-02 1.19014261e-02 -3.58014628e-02 -1.70656741e-02
      4.08915384e-03 -2.00192947e-02 -1.43482061e-02 -9.10074799e-04
      -1.40518637e-03 -5.82205458e-03 -7.36470288e-03 -1.00483745e-02
      1.38670534e-01 -6.26562238e-02 6.63282573e-02 2.40461472e-02
      1.28058316e-02 -3.58525142e-02 -1.70740839e-02 4.42923885e-03
      -1.97808947e-02 -1.43236760e-02 -1.18187291e-03 -1.21735875e-03
      -5.72649436e-03 -7.27875484e-03 -1.00511331e-02 1.34822771e-01
      -6.08339459e-02 6.65664896e-02 2.43633259e-02 1.36730066e-02
      -3.60319838e-02 -1.67216305e-02 4.87572700e-03 -1.95891913e-02
      -1.43832583e-02 -1.20430719e-03 -9.66428779e-04 -5.62092056e-03
      -7.22517958e-03 -1.00729214e-02 1.30506679e-01 -5.89929968e-02
      6.62001818e-02 2.43615694e-02 1.42762754e-02 -3.63669246e-02
      -1.65238101e-02 5.17533999e-03 -1.94439013e-02 -1.44478334e-02
      -1.33192213e-03 -7.93905696e-04 -5.55078918e-03 -7.17529235e-03
      -1.00996653e-02 1.22961298e-01 -5.86528108e-02 6.50611669e-02
      2.33329423e-02 1.43692251e-02 -3.68908532e-02 -1.68071762e-02
      5.18394588e-03 -1.94147285e-02 -1.45251080e-02 -1.71842868e-03
      -7.73476087e-04 -5.55759203e-03 -7.14333216e-03 -1.01297367e-02
      1.15720935e-01 -5.83422706e-02 6.52267635e-02 2.24055760e-02
      1.48335183e-02 -3.71556133e-02 -1.69855263e-02 5.33744972e-03
      -1.92973670e-02 -1.45571278e-02 -2.01404770e-03 -6.87649997e-04
      -5.52645745e-03 -7.09753856e-03 -1.01547958e-02 1.08897552e-01
      -5.76077402e-02 6.55669942e-02 2.18729284e-02 1.53880697e-02
      -3.73945870e-02 -1.69233195e-02 5.57738822e-03 -1.91558711e-02
      -1.45920562e-02 -2.16575665e-03 -5.56588406e-04 -5.47558442e-03
      -7.05272658e-03 -1.01858964e-02 9.90949273e-02 -5.94172403e-02
      6.46374077e-02 1.99001562e-02 1.49668371e-02 -3.79566178e-02
      -1.76054575e-02 5.28324675e-03 -1.93211883e-02 -1.47513645e-02
      -2.66523520e-03 -6.96280855e-04 -5.59451478e-03 -7.10528204e-03
      -1.02449041e-02 9.12950188e-02 -5.97863048e-02 6.38412163e-02
      1.87829025e-02 1.46571901e-02 -3.85367572e-02 -1.78534761e-02
      5.07332338e-03 -1.94579195e-02 -1.48808947e-02 -2.93961144e-03
      -7.96142092e-04 -5.69268828e-03 -7.14677246e-03 -1.03009678e-02
      8.27504918e-02 -5.98863885e-02 6.23842925e-02 1.80483237e-02
      1.40839890e-02 -3.92222852e-02 -1.78037938e-02 4.81462991e-03
      -1.96254216e-02 -1.50144221e-02 -3.03278514e-03 -9.06966219e-04
      -5.79915242e-03 -7.19183590e-03 -1.03587080e-02 7.08391368e-02
      -6.12885281e-02 6.00633398e-02 1.67811662e-02 1.31665571e-02
      -4.03206982e-02 -1.79023780e-02 4.43168310e-03 -1.99265815e-02
      -1.52845671e-02 -3.16173560e-03 -1.05897349e-03 -5.95472194e-03
      -7.28168525e-03 -1.04652941e-02 5.74059151e-02 -6.39302507e-02
      5.73528446e-02 1.52148120e-02 1.20408181e-02 -4.15794998e-02
      -1.80727411e-02 3.97999119e-03 -2.02994961e-02 -1.56088909e-02
      -3.24440235e-03 -1.22305495e-03 -6.12952048e-03 -7.39388587e-03
      -1.05889700e-02 4.16410193e-02 -6.68247044e-02 5.55168055e-02
      1.35243945e-02 1.12790335e-02 -4.25408147e-02 -1.82250235e-02
      3.67710856e-03 -2.05461085e-02 -1.58835799e-02 -3.34912213e-03
      -1.32886739e-03 -6.25651237e-03 -7.48181669e-03 -1.06928563e-02
      2.50263568e-02 -7.02266768e-02 5.34388945e-02 1.16919298e-02
      1.04303639e-02 -4.36046757e-02 -1.84405558e-02 3.35455919e-03
      -2.08271947e-02 -1.61577482e-02 -3.47254612e-03 -1.43780909e-03
      -6.39141211e-03 -7.57471379e-03 -1.08031100e-02 1.13658411e-02
      -7.37450644e-02 5.18166125e-02 9.73453000e-03 9.59950313e-03
      -4.44304161e-02 -1.89369228e-02 2.99981795e-03 -2.11060885e-02
      -1.63781866e-02 -3.75385839e-03 -1.58082577e-03 -6.53020106e-03
      -7.66864838e-03 -1.08893840e-02 -1.61869742e-03 -7.67280534e-02
      4.98202443e-02 8.16745590e-03 8.68800748e-03 -4.52755615e-02
      -1.92234870e-02 2.65980884e-03 -2.13822257e-02 -1.65957175e-02
      -3.92412581e-03 -1.70685106e-03 -6.66041253e-03 -7.75998458e-03
      -1.09714912e-02 -1.56428348e-02 -7.98662975e-02 4.73893695e-02
      6.73682149e-03 7.60350283e-03 -4.62362394e-02 -1.93859488e-02
      2.26850505e-03 -2.16887388e-02 -1.67961400e-02 -4.00678953e-03
      -1.84233603e-03 -6.79378770e-03 -7.84785300e-03 -1.10476436e-02
      -2.84493808e-02 -8.24592337e-02 4.52067144e-02 5.52187860e-03
      6.75067632e-03 -4.71040793e-02 -1.95056479e-02 2.01296271e-03
      -2.19088886e-02 -1.70520954e-02 -4.09129774e-03 -1.92890107e-03
      -6.88152248e-03 -7.93198217e-03 -1.11447973e-02 -4.05200049e-02
      -8.47048536e-02 4.29366678e-02 4.46410896e-03 5.93797490e-03
      -4.79578562e-02 -1.95829906e-02 1.79796480e-03 -2.20992286e-02
      -1.72976032e-02 -4.16359724e-03 -2.00026412e-03 -6.95344247e-03
      -8.00517481e-03 -1.12427576e-02 -5.32662198e-02 -8.77749622e-02
      4.16496433e-02 2.83283065e-03 5.57073439e-03 -4.87148799e-02
      -2.00555418e-02 1.74104411e-03 -2.22137664e-02 -1.75409019e-02
      -4.45005205e-03 -2.01821537e-03 -6.98674284e-03 -8.06255732e-03
      -1.13511896e-02 -6.34218752e-02 -8.96962509e-02 4.08055633e-02
      1.84871187e-03 5.43201435e-03 -4.92679924e-02 -2.02595927e-02
      1.78951188e-03 -2.22541839e-02 -1.77330188e-02 -4.60939948e-03
      -1.98811293e-03 -6.98568206e-03 -8.09692033e-03 -1.14461873e-02
      -7.17464760e-02 -9.00224820e-02 4.06473055e-02 1.72690512e-03
      5.56341931e-03 -4.96701524e-02 -1.99835487e-02 1.97445741e-03
      -2.22072080e-02 -1.78651866e-02 -4.52501932e-03 -1.88690901e-03
      -6.94248732e-03 -8.10555182e-03 -1.15320263e-02 -8.05015415e-02
      -9.17733684e-02 4.04485501e-02 7.44710444e-04 5.44862915e-03
      -4.99716811e-02 -2.01895870e-02 1.98315829e-03 -2.22137626e-02
      -1.79792717e-02 -4.65237442e-03 -1.88135076e-03 -6.94380887e-03
      -8.12884979e-03 -1.16046360e-02 -8.48466232e-02 -9.31320339e-02
      4.05248217e-02 -3.22198292e-04 5.36844227e-03 -5.00756837e-02
      -2.06525587e-02 1.93435850e-03 -2.22137775e-02 -1.80283468e-02
      -4.91804257e-03 -1.92559941e-03 -6.95973961e-03 -8.14138353e-03
      -1.16436677e-02 -8.68121758e-02 -9.23339054e-02 4.08447981e-02
      -4.86928708e-04 5.57480287e-03 -5.01224175e-02 -2.06276849e-02
      2.08280049e-03 -2.21268758e-02 -1.80686899e-02 -4.97343065e-03
      -1.86494447e-03 -6.92932587e-03 -8.13759957e-03 -1.16900345e-02
      -8.85865390e-02 -9.05948505e-02 4.08475958e-02 -1.42209159e-04
      5.81716932e-03 -5.02459519e-02 -2.03107558e-02 2.29814486e-03
      -2.20289975e-02 -1.81461740e-02 -4.89107845e-03 -1.76089688e-03
      -6.88552624e-03 -8.13608244e-03 -1.17575917e-02 -9.12004858e-02
      -9.11110491e-02 4.11227159e-02 -9.57737677e-04 5.88449743e-03
      -5.05731031e-02 -2.07118355e-02 2.30297842e-03 -2.20448729e-02
      -1.83010660e-02 -5.13952551e-03 -1.79217197e-03 -6.90128095e-03
      -8.16433132e-03 -1.18629606e-02 -9.27738920e-02 -9.02699605e-02
      4.09480520e-02 -8.74994555e-04 5.91330044e-03 -5.09731956e-02
      -2.05815919e-02 2.35523283e-03 -2.20747720e-02 -1.84802487e-02
      -5.10411197e-03 -1.77956372e-03 -6.91404659e-03 -8.19836929e-03
      -1.19703300e-02 -9.27618966e-02 -8.80907625e-02 4.01577950e-02
      5.91013522e-05 5.82957733e-03 -5.13984971e-02 -1.99254639e-02
      2.42312206e-03 -2.21133530e-02 -1.87072270e-02 -4.76198783e-03
      -1.73763628e-03 -6.92498172e-03 -8.24693311e-03 -1.20788245e-02
      -9.54739302e-02 -8.77669379e-02 3.90583873e-02 3.56413570e-04
      5.40470192e-03 -5.18242270e-02 -1.94864199e-02 2.34374381e-03
      -2.22371984e-02 -1.88942552e-02 -4.46441676e-03 -1.74533308e-03
      -6.97456393e-03 -8.31230264e-03 -1.21727334e-02 -1.01878949e-01
      -8.94544572e-02 3.76878679e-02 -1.37153183e-04 4.67955554e-03
      -5.23508601e-02 -1.93218496e-02 2.12427415e-03 -2.24579461e-02
      -1.90668553e-02 -4.24794666e-03 -1.80366670e-03 -7.06889201e-03
      -8.39914847e-03 -1.22645749e-02 -1.02995358e-01 -8.93646702e-02
      3.71328443e-02 2.68625707e-04 4.22220537e-03 -5.25093526e-02
      -1.88769735e-02 1.99354719e-03 -2.25846525e-02 -1.91375837e-02
      -3.92025569e-03 -1.83978502e-03 -7.12920865e-03 -8.45694356e-03
      -1.23041924e-02 -1.04163505e-01 -8.92074406e-02 3.64059806e-02
      8.02025141e-04 3.71159473e-03 -5.26547618e-02 -1.83627829e-02
      1.86280510e-03 -2.27237754e-02 -1.91773493e-02 -3.56272981e-03
      -1.86697976e-03 -7.19226385e-03 -8.51238891e-03 -1.23229558e-02
      -1.12393580e-01 -9.19553712e-02 3.44796553e-02 -3.85133608e-04
      2.58555263e-03 -5.31785339e-02 -1.87088680e-02 1.43126037e-03
      -2.30180472e-02 -1.92862060e-02 -3.71174724e-03 -2.04342813e-03
      -7.33283022e-03 -8.60947557e-03 -1.23644639e-02 -1.19424477e-01
      -9.45442319e-02 3.24494466e-02 -1.35439192e-03 1.47656398e-03
      -5.36322296e-02 -1.90032404e-02 1.03687111e-03 -2.32997220e-02
      -1.93522349e-02 -3.83494329e-03 -2.19861954e-03 -7.45763350e-03
      -8.69544875e-03 -1.23635326e-02 -1.24371380e-01 -9.68852788e-02
      3.08318343e-02 -2.05674372e-03 5.74921141e-04 -5.37488684e-02
      -1.92658734e-02 7.45650323e-04 -2.34735515e-02 -1.92601997e-02
      -3.93595127e-03 -2.31362064e-03 -7.53039587e-03 -8.72993562e-03
      -1.22611914e-02 -1.34442702e-01 -1.01527184e-01 2.90181264e-02
      -4.13288921e-03 -7.40382820e-04 -5.40513285e-02 -2.01642271e-02
      1.94551903e-04 -2.37929411e-02 -1.92074310e-02 -4.38031368e-03
      -2.56692641e-03 -7.68605713e-03 -8.81624594e-03 -1.21706054e-02
      -1.46698862e-01 -1.06926098e-01 2.69851238e-02 -6.56766864e-03
      -2.22358224e-03 -5.44562936e-02 -2.11874675e-02 -4.34064976e-04
      -2.41802800e-02 -1.91666279e-02 -4.88040969e-03 -2.85198679e-03
      -7.87225924e-03 -8.92759673e-03 -1.20765604e-02 -1.50664061e-01
      -1.11153722e-01 2.83144638e-02 -8.61778390e-03 -2.55686743e-03
      -5.32194600e-02 -2.23162044e-02 -6.83174760e-04 -2.40307730e-02
      -1.85104068e-02 -5.43820765e-03 -3.02430685e-03 -7.86390901e-03
      -8.82205367e-03 -1.16830394e-02 -1.55498177e-01 -1.15536295e-01
      2.96325479e-02 -1.07917469e-02 -2.87544401e-03 -5.18852137e-02
      -2.34734286e-02 -9.14128206e-04 -2.38511991e-02 -1.77241117e-02
      -6.00885646e-03 -3.18007730e-03 -7.84497149e-03 -8.68789945e-03
      -1.12084467e-02 -1.62626132e-01 -1.21081099e-01 3.15769836e-02
      -1.39884371e-02 -3.02159088e-03 -5.03628217e-02 -2.51588821e-02
      -1.14492502e-03 -2.35958099e-02 -1.67547092e-02 -6.87059620e-03
      -3.35530122e-03 -7.81204039e-03 -8.51131789e-03 -1.06264343e-02
      -1.65647671e-01 -1.25549167e-01 3.41213830e-02 -1.67936906e-02
      -2.88175768e-03 -4.82839085e-02 -2.67962161e-02 -1.27493194e-03
      -2.31266525e-02 -1.54881524e-02 -7.71669950e-03 -3.51122930e-03
      -7.70031987e-03 -8.21671635e-03 -9.85743571e-03 -1.65953264e-01
      -1.29195839e-01 3.69583555e-02 -1.91985462e-02 -2.56020902e-03
      -4.57447581e-02 -2.82952208e-02 -1.32665888e-03 -2.24766508e-02
      -1.39204357e-02 -8.48244224e-03 -3.64434114e-03 -7.52193993e-03
      -7.80251436e-03 -8.88228416e-03 -1.68345392e-01 -1.33790433e-01
      3.92696448e-02 -2.20049266e-02 -2.42825155e-03 -4.42700051e-02
      -2.99075693e-02 -1.42935663e-03 -2.21430045e-02 -1.32963117e-02
      -9.26862378e-03 -3.78308562e-03 -7.43440492e-03 -7.65674887e-03
      -8.57664645e-03 -1.71886578e-01 -1.38415709e-01 4.16031815e-02
      -2.46539749e-02 -2.27705552e-03 -4.29734178e-02 -3.13482545e-02
      -1.50881626e-03 -2.18722615e-02 -1.28102098e-02 -9.94380470e-03
      -3.89741920e-03 -7.36770872e-03 -7.55586755e-03 -8.38428456e-03
      -1.73566014e-01 -1.41973436e-01 4.69510332e-02 -2.65441872e-02
      -1.00133428e-03 -4.07649353e-02 -3.24026532e-02 -1.14778371e-03
      -2.12756302e-02 -1.19612729e-02 -1.04128765e-02 -3.83771234e-03
      -7.17785256e-03 -7.33625283e-03 -7.98317045e-03 -1.72872186e-01
      -1.44929439e-01 5.39385863e-02 -2.80700363e-02 8.10664147e-04
      -3.78665067e-02 -3.33505645e-02 -5.69245429e-04 -2.04711948e-02
      -1.08083272e-02 -1.08249579e-02 -3.70435789e-03 -6.91057276e-03
      -7.02428119e-03 -7.44524132e-03 -1.69327796e-01 -1.47289813e-01
      6.38054237e-02 -2.93130726e-02 3.55635281e-03 -3.37592624e-02
      -3.42644379e-02 3.40217346e-04 -1.92871373e-02 -9.12211463e-03
      -1.12172691e-02 -3.46924062e-03 -6.51169196e-03 -6.54731225e-03
      -6.65982440e-03 -1.70074210e-01 -1.50399148e-01 7.26335868e-02
      -3.08430959e-02 5.85561525e-03 -2.93579642e-02 -3.51612605e-02
      1.02778722e-03 -1.80671699e-02 -7.14465510e-03 -1.15972115e-02
      -3.30551993e-03 -6.13176124e-03 -6.00623759e-03 -5.69631765e-03
      -1.71303734e-01 -1.53245077e-01 8.08541849e-02 -3.20890881e-02
      7.87879433e-03 -2.47430131e-02 -3.58657539e-02 1.61170866e-03
      -1.68362595e-02 -4.91242576e-03 -1.18757831e-02 -3.17179621e-03
      -5.76063292e-03 -5.41307218e-03 -4.57442645e-03 -1.69811070e-01
      -1.56156227e-01 8.86887833e-02 -3.32134888e-02 9.30564106e-03
      -1.99776720e-02 -3.65914106e-02 1.95077993e-03 -1.57840736e-02
      -2.58287787e-03 -1.21250832e-02 -3.15316836e-03 -5.47568593e-03
      -4.89264913e-03 -3.44002643e-03 -1.69546813e-01 -1.59317359e-01
      9.59843695e-02 -3.42601873e-02 1.04989912e-02 -1.52006717e-02
      -3.72021720e-02 2.23331782e-03 -1.47787686e-02 -1.24609520e-04
      -1.22972522e-02 -3.13608907e-03 -5.21077495e-03 -4.36417386e-03
      -2.21324433e-03 -1.73048317e-01 -1.63285971e-01 1.02656223e-01
      -3.55553776e-02 1.15844868e-02 -1.06645785e-02 -3.77982631e-02
      2.48329761e-03 -1.38139762e-02 2.23747781e-03 -1.24515127e-02
      -3.10997549e-03 -4.96137468e-03 -3.85186053e-03 -1.05015642e-03
      -1.73918158e-01 -1.66664526e-01 1.08333424e-01 -3.66404131e-02
      1.23062879e-02 -6.54745614e-03 -3.83924507e-02 2.61289044e-03
      -1.30318431e-02 4.51968331e-03 -1.26123829e-02 -3.13663227e-03
      -4.77279630e-03 -3.39413364e-03 1.47881132e-04 -1.71817243e-01
      -1.69378877e-01 1.12967879e-01 -3.74539234e-02 1.26906680e-02
      -3.18370759e-03 -3.89525369e-02 2.64427392e-03 -1.24832448e-02
      6.47385977e-03 -1.27603682e-02 -3.20166489e-03 -4.64899931e-03
      -3.03664734e-03 1.22839981e-03 -1.72679186e-01 -1.73799410e-01
      1.17293924e-01 -3.89330350e-02 1.27329389e-02 2.18266287e-04
      -3.97512913e-02 2.51233228e-03 -1.19783916e-02 8.61181039e-03
      -1.29805589e-02 -3.32730752e-03 -4.55233967e-03 -2.64713191e-03
      2.44829338e-03 -1.73034325e-01 -1.78043127e-01 1.21855356e-01
      -4.03220803e-02 1.28166918e-02 3.84934084e-03 -4.05272394e-02
      2.40015122e-03 -1.14411386e-02 1.09541630e-02 -1.31915864e-02
      -3.44671868e-03 -4.44898568e-03 -2.22081179e-03 3.80607368e-03
      -1.67185888e-01 -1.79264665e-01 1.29464358e-01 -4.05887254e-02
      1.42053571e-02 8.71803612e-03 -4.09535021e-02 2.74644722e-03
      -1.04141710e-02 1.35259349e-02 -1.32969255e-02 -3.42400745e-03
      -4.17706324e-03 -1.66284631e-03 5.13478834e-03 -1.60603985e-01
      -1.80721775e-01 1.37098536e-01 -4.08101268e-02 1.55314589e-02
      1.36284232e-02 -4.14270945e-02 3.08266841e-03 -9.36703663e-03
      1.62070449e-02 -1.34043591e-02 -3.41346068e-03 -3.88525636e-03
      -1.07745908e-03 6.51384844e-03 -1.53618738e-01 -1.81900501e-01
      1.44580632e-01 -4.09461893e-02 1.69285964e-02 1.85241513e-02
      -4.18710373e-02 3.43343383e-03 -8.27503297e-03 1.89063158e-02
      -1.35026118e-02 -3.39461281e-03 -3.58286896e-03 -4.52745939e-04
      7.89090712e-03 -1.48489669e-01 -1.83441758e-01 1.51682287e-01
      -4.12006415e-02 1.82316974e-02 2.35460885e-02 -4.23069149e-02
      3.76334111e-03 -7.18048261e-03 2.18311474e-02 -1.35950027e-02
      -3.37129133e-03 -3.28569394e-03 2.17605222e-04 9.45849344e-03
      -1.43849939e-01 -1.85033977e-01 1.58502251e-01 -4.13449369e-02
      1.94697957e-02 2.86942460e-02 -4.26718928e-02 4.11028508e-03
      -6.06437447e-03 2.49701124e-02 -1.36435060e-02 -3.32945632e-03
      -2.97252298e-03 9.33600531e-04 1.12066763e-02 -1.34129420e-01
      -1.85151339e-01 1.67146057e-01 -4.07239161e-02 2.12369766e-02
      3.46540585e-02 -4.28386070e-02 4.66340315e-03 -4.72415891e-03
      2.85078045e-02 -1.35865742e-02 -3.22980364e-03 -2.57658400e-03
      1.73753686e-03 1.31542580e-02 -1.22715697e-01 -1.84554189e-01
      1.76781446e-01 -3.97739969e-02 2.34150533e-02 4.12669145e-02
      -4.28956933e-02 5.35521144e-03 -3.15650203e-03 3.24971043e-02
      -1.34805553e-02 -3.07680294e-03 -2.10647238e-03 2.68389913e-03
      1.53851798e-02 -1.11982189e-01 -1.83333516e-01 1.87041759e-01
      -3.87117937e-02 2.60055810e-02 4.86797206e-02 -4.28444594e-02
      6.17597625e-03 -1.27269316e-03 3.70048657e-02 -1.33575574e-02
      -2.87138578e-03 -1.54244644e-03 3.82788153e-03 1.79713257e-02
      -1.01570450e-01 -1.82277620e-01 1.96654826e-01 -3.76418419e-02
      2.84189302e-02 5.59082441e-02 -4.27804366e-02 6.96591986e-03
      5.58068161e-04 4.15004715e-02 -1.32166957e-02 -2.66710902e-03
      -9.85814375e-04 4.96942131e-03 2.06049103e-02 -9.29655805e-02
      -1.81991473e-01 2.04930753e-01 -3.67739722e-02 3.03787421e-02
      6.24120831e-02 -4.27760631e-02 7.62699451e-03 2.15364993e-03
      4.56840284e-02 -1.30834179e-02 -2.49724183e-03 -4.93956206e-04
      6.01026369e-03 2.31166296e-02 -8.43755007e-02 -1.81657076e-01
      2.13073596e-01 -3.58268283e-02 3.23874652e-02 6.88557476e-02
      -4.27470431e-02 8.30508955e-03 3.76109430e-03 4.98768277e-02
      -1.29348319e-02 -2.31025554e-03 7.33846764e-06 7.07162591e-03
      2.56674159e-02 -7.69040734e-02 -1.81045562e-01 2.20845699e-01
      -3.48631479e-02 3.44583280e-02 7.52167031e-02 -4.26444523e-02
      9.00655892e-03 5.41276345e-03 5.41312359e-02 -1.27789695e-02
      -2.09615030e-03 5.26840682e-04 8.17744341e-03 2.83169411e-02
      -6.58067316e-02 -1.79471076e-01 2.28350744e-01 -3.36274803e-02
      3.65049988e-02 8.06785151e-02 -4.25267778e-02 9.66968946e-03
      6.82442496e-03 5.76292761e-02 -1.26179308e-02 -1.91079546e-03
      9.60348116e-04 9.08348430e-03 3.04300170e-02 -5.35062179e-02
      -1.77916303e-01 2.35676080e-01 -3.22661996e-02 3.85366194e-02
      8.59569833e-02 -4.24192511e-02 1.03436885e-02 8.20238423e-03
      6.10072799e-02 -1.24353683e-02 -1.71772693e-03 1.39656849e-03
      9.97527596e-03 3.24774086e-02 -4.26169820e-02 -1.76526755e-01
      2.42196053e-01 -3.10251582e-02 4.03551161e-02 9.08532888e-02
      -4.23074774e-02 1.09588671e-02 9.49471164e-03 6.42057657e-02
      -1.22608673e-02 -1.53940963e-03 1.81043521e-03 1.08251628e-02
      3.44774462e-02 -3.37637253e-02 -1.75110266e-01 2.48286575e-01
      -2.99163330e-02 4.21956182e-02 9.56417546e-02 -4.21572402e-02
      1.15859210e-02 1.08310124e-02 6.74291402e-02 -1.21025965e-02
      -1.34209287e-03 2.24083103e-03 1.17197540e-02 3.65409404e-02
      -2.48989910e-02 -1.73789069e-01 2.54447311e-01 -2.87569854e-02
      4.41171601e-02 1.00578591e-01 -4.19995189e-02 1.22296978e-02
      1.22295152e-02 7.08135143e-02 -1.19266529e-02 -1.12890848e-03
      2.69665243e-03 1.26708271e-02 3.87430005e-02 -1.50430314e-02
      -1.73002973e-01 2.59313792e-01 -2.76889354e-02 4.55194786e-02
      1.04229942e-01 -4.19782102e-02 1.26603376e-02 1.31742936e-02
      7.32361749e-02 -1.17713204e-02 -9.97249386e-04 2.99798651e-03
      1.33137740e-02 4.03061323e-02 -6.92000426e-03 -1.72583044e-01
      2.63054520e-01 -2.67851334e-02 4.66349088e-02 1.07132785e-01
      -4.19838317e-02 1.29960785e-02 1.39107658e-02 7.51955882e-02
      -1.16347736e-02 -8.86165013e-04 3.23663955e-03 1.38288243e-02
      4.16001007e-02 -2.48886971e-03 -1.72146156e-01 2.65453190e-01
      -2.62668952e-02 4.74380925e-02 1.09242909e-01 -4.19589095e-02
      1.32134464e-02 1.44907888e-02 7.66792819e-02 -1.15587804e-02
      -8.08244688e-04 3.41421436e-03 1.42427422e-02 4.26065400e-02
      2.59930897e-03 -1.71716914e-01 2.67988324e-01 -2.57277135e-02
      4.82808240e-02 1.11422084e-01 -4.19547856e-02 1.34303793e-02
      1.50773777e-02 7.82224461e-02 -1.14821894e-02 -7.29327789e-04
      3.58983641e-03 1.46687701e-02 4.36577387e-02 1.13254311e-02
      -1.71676129e-01 2.71021575e-01 -2.50266716e-02 4.90926020e-02
      1.13690071e-01 -4.20928411e-02 1.36136068e-02 1.55872013e-02
      7.96656460e-02 -1.13832699e-02 -6.79344521e-04 3.73756653e-03
      1.50345033e-02 4.46071364e-02 1.81895904e-02 -1.71181619e-01
      2.74173856e-01 -2.43253279e-02 5.01490012e-02 1.16279811e-01
      -4.21038941e-02 1.38744134e-02 1.62816551e-02 8.14212859e-02
      -1.12798158e-02 -5.81524509e-04 3.94436531e-03 1.55252954e-02
      4.57841605e-02 2.31381692e-02 -1.70316741e-01 2.77250320e-01
      -2.36606225e-02 5.13629355e-02 1.19030789e-01 -4.20027412e-02
      1.41873844e-02 1.71048958e-02 8.34006444e-02 -1.11777103e-02
      -4.46303951e-04 4.19353554e-03 1.61107127e-02 4.71488237e-02
      2.46406533e-02 -1.69564590e-01 2.79000431e-01 -2.32806467e-02
      5.23472317e-02 1.20812066e-01 -4.18637358e-02 1.44071011e-02
      1.77393295e-02 8.47001597e-02 -1.11170560e-02 -3.25312896e-04
      4.38183919e-03 1.65553614e-02 4.80569899e-02 2.58749388e-02
      -1.69047654e-01 2.80326545e-01 -2.29736995e-02 5.31929508e-02
      1.22266874e-01 -4.17656377e-02 1.45870848e-02 1.82727985e-02
      8.57774615e-02 -1.10690957e-02 -2.16999397e-04 4.54241550e-03
      1.69409476e-02 4.88229431e-02 2.84637399e-02 -1.69615552e-01
      2.80517519e-01 -2.29639653e-02 5.33187799e-02 1.22654900e-01
      -4.19440866e-02 1.44804278e-02 1.83075164e-02 8.59759897e-02
      -1.10785877e-02 -2.38100532e-04 4.52055736e-03 1.69944614e-02
      4.89563532e-02 2.96528526e-02 -1.70026764e-01 2.80785918e-01
      -2.29906868e-02 5.35933711e-02 1.23165540e-01 -4.20582592e-02
      1.44304913e-02 1.84265673e-02 8.63283128e-02 -1.10921673e-02
      -2.24737712e-04 4.52946220e-03 1.71103273e-02 4.92001772e-02
      2.91037206e-02 -1.70244828e-01 2.81185210e-01 -2.30719373e-02
      5.40386289e-02 1.23851888e-01 -4.20956872e-02 1.44417314e-02
      1.86473504e-02 8.68831873e-02 -1.11128101e-02 -1.75068169e-04
      4.57237288e-03 1.72996689e-02 4.95866537e-02 2.88989935e-02
      -1.70413971e-01 2.81621397e-01 -2.31591035e-02 5.44580519e-02
      1.24627031e-01 -4.21400070e-02 1.44310286e-02 1.88701153e-02
      8.74987692e-02 -1.11368261e-02 -1.37068753e-04 4.60915593e-03
      1.74919982e-02 5.00212237e-02</data></learnt_thetas>
  <n_labels type_id="opencv-matrix">
    <rows>2</rows>
    <cols>1</cols>
    <dt>i</dt>
    <data>
      0 1</data></n_labels>
  <o_labels type_id="opencv-matrix">
    <rows>2</rows>
    <cols>1</cols>
    <dt>i</dt>
    <data>
      0 1</data></o_labels></opencv_ml_lr>
</opencv_storage>
