<?xml version="1.0"?>
<opencv_storage>
<opencv_ml_lr>
  <format>3</format>
  <classifier>"Logisitic Regression Classifier"</classifier>
  <alpha>1.0000000000000001e-01</alpha>
  <iterations>80000</iterations>
  <norm>1</norm>
  <train_method>0</train_method>
  <learnt_thetas type_id="opencv-matrix">
    <rows>1</rows>
    <cols>599</cols>
    <dt>f</dt>
    <data>
      9.73468088e-03 3.45550873e-03 3.50571796e-03 3.56061407e-03
      3.63027165e-03 3.71804251e-03 3.82204889e-03 3.92904738e-03
      4.04846296e-03 4.18422557e-03 4.32569114e-03 4.48228791e-03
      4.62358771e-03 4.76304954e-03 4.86692321e-03 4.96176817e-03
      4.97987028e-03 5.01206797e-03 5.08103240e-03 5.19824587e-03
      5.34826564e-03 5.57932025e-03 5.75531134e-03 5.83161879e-03
      5.87897468e-03 5.95758250e-03 6.15488505e-03 6.32982841e-03
      6.48513390e-03 6.55505527e-03 6.55414118e-03 6.55543897e-03
      6.54693972e-03 6.56147068e-03 6.60000276e-03 6.61331788e-03
      6.61983900e-03 6.64943922e-03 6.55253464e-03 6.42992882e-03
      6.21978240e-03 6.03938289e-03 5.94627298e-03 5.92710031e-03
      5.95792197e-03 5.97306946e-03 5.97033463e-03 5.84800402e-03
      5.79223735e-03 5.83563326e-03 5.84994629e-03 5.84963430e-03
      6.01796154e-03 6.13283925e-03 6.11101370e-03 6.05537463e-03
      5.97485807e-03 5.96525287e-03 5.95008116e-03 5.93893509e-03
      5.89522207e-03 5.83039550e-03 5.67853777e-03 5.53018041e-03
      5.53073827e-03 5.48901269e-03 5.41078299e-03 5.40470006e-03
      5.38424822e-03 5.37748355e-03 5.39538963e-03 5.40566351e-03
      5.50277065e-03 5.58954757e-03 5.67352213e-03 5.70750283e-03
      5.70055237e-03 5.69627807e-03 5.69189014e-03 5.70032839e-03
      5.68180205e-03 5.61537268e-03 5.46873035e-03 5.34209376e-03
      5.21219103e-03 5.12613868e-03 5.00008836e-03 4.88367071e-03
      4.94169211e-03 5.07812528e-03 5.20371459e-03 5.36619173e-03
      5.56141231e-03 5.71283139e-03 5.82633307e-03 5.91731304e-03
      6.00184733e-03 6.08463679e-03 6.13634195e-03 6.15971582e-03
      6.02692692e-03 5.82710700e-03 5.70937712e-03 5.60837006e-03
      5.54092415e-03 5.46680111e-03 5.39411791e-03 5.33301942e-03
      5.27688768e-03 5.21496078e-03 5.12500480e-03 5.01782633e-03
      4.90733702e-03 4.79204021e-03 4.61400067e-03 4.41046013e-03
      4.17361083e-03 3.96721764e-03 3.76845943e-03 3.55298072e-03
      3.34645947e-03 3.15244752e-03 2.94105639e-03 2.74569681e-03
      2.54813721e-03 2.34913081e-03 2.21867952e-03 2.14068894e-03
      2.09618919e-03 2.04597344e-03 1.97204482e-03 1.91308814e-03
      1.87455246e-03 1.89289858e-03 1.92102476e-03 1.93836307e-03
      1.96543522e-03 1.99701171e-03 2.01987568e-03 2.03572796e-03
      2.05453485e-03 2.07374291e-03 2.08246941e-03 2.10193731e-03
      2.12752982e-03 2.14359257e-03 2.15387647e-03 2.14044820e-03
      2.13190890e-03 2.13147514e-03 2.12581130e-03 1.46628101e-03
      1.63090345e-03 2.00966699e-03 2.58620502e-03 3.02605471e-03
      3.12228780e-03 3.48634343e-03 3.98638891e-03 4.10291133e-03
      4.55914950e-03 4.12259577e-03 4.06522676e-03 3.00751138e-03
      2.80392473e-03 5.44825976e-04 9.84643120e-04 2.07927637e-03
      3.53044202e-03 4.50574653e-03 6.89466111e-03 5.25766006e-03
      2.35850830e-03 1.50755595e-03 2.43274239e-03 5.89491893e-03
      5.16782748e-03 4.60697943e-03 2.03908235e-03 -3.97544136e-05
      1.26679251e-05 -3.10513540e-04 4.28312022e-04 1.11200567e-03
      2.90702999e-04 1.66062237e-04 8.21246067e-04 -2.78870296e-03
      -3.57565400e-03 -6.06435630e-03 -5.25923399e-03 -2.68985797e-03
      -5.26638061e-04 9.38633573e-04 4.33006731e-04 -5.65210976e-05
      -3.56981880e-03 -1.66659174e-03 1.30407570e-03 4.29775857e-04
      -3.26262998e-05 4.85837599e-03 3.33404122e-03 -6.00163767e-04
      -1.67562580e-03 -2.36600102e-03 -1.96054432e-04 -3.88642336e-04
      -2.81688495e-04 -1.22282433e-03 -1.88342656e-03 -4.46661701e-03
      -4.35686391e-03 -2.56790972e-05 -1.30699610e-03 -2.38679140e-03
      -2.19715424e-04 -6.25566987e-04 -2.10800848e-04 4.98769514e-04
      2.53494451e-04 2.92119081e-03 2.60836026e-03 2.51274859e-03
      1.07644079e-03 -1.54539783e-04 -8.66966002e-05 -5.54186336e-05
      2.82856228e-04 -5.44639071e-04 -1.92518509e-03 -4.34571970e-03
      -3.76983546e-03 -3.84140504e-03 -2.61616497e-03 -3.71708837e-03
      -3.40133067e-03 1.67850987e-03 3.96331307e-03 3.70808877e-03
      4.84482851e-03 5.76321827e-03 4.48028883e-03 3.37277167e-03
      2.67841178e-03 2.51840241e-03 2.45914189e-03 1.57164119e-03
      7.35922949e-04 -3.82465986e-03 -5.86608564e-03 -3.47632146e-03
      -3.00089642e-03 -2.00421992e-03 -2.21641315e-03 -2.15616007e-03
      -1.83446694e-03 -1.62562693e-03 -1.79742591e-03 -2.60898424e-03
      -3.12966155e-03 -3.23029677e-03 -3.38519993e-03 -5.19962702e-03
      -5.96719095e-03 -6.93865353e-03 -6.05059229e-03 -5.81985479e-03
      -6.33860752e-03 -6.10880973e-03 -5.71908755e-03 -6.23917440e-03
      -5.77175664e-03 -5.84408734e-03 -5.88271534e-03 -3.88418813e-03
      -2.33086268e-03 -1.35248573e-03 -1.49166666e-03 -2.18283804e-03
      -1.75578741e-03 -1.14550930e-03 5.11679624e-04 8.10163096e-04
      5.08805504e-04 7.74811837e-04 9.20039485e-04 6.62446138e-04
      4.48412378e-04 5.48153941e-04 5.57986496e-04 2.60902016e-04
      5.68212126e-04 7.45103578e-04 4.71170206e-04 3.04639165e-04
      -4.10022854e-04 -2.55282532e-04 -1.85885019e-05 -1.52390989e-04
      3.46084649e-04 1.32031302e-04 -1.03429527e-04 -3.92586255e-04
      -6.98230288e-04 -1.01931661e-03 -1.29386899e-03 -1.57598767e-03
      -1.96563569e-03 -2.35207914e-03 -2.72102421e-03 -3.12117185e-03
      -3.54916486e-03 -4.02235845e-03 -4.52459930e-03 -4.99110157e-03
      -5.47358440e-03 -5.97791327e-03 -6.54949481e-03 -7.15556834e-03
      -7.73985917e-03 -8.26859660e-03 -8.73083156e-03 -9.18019190e-03
      -9.68767144e-03 -1.02094123e-02 -1.07220858e-02 -1.12027796e-02
      -1.15980031e-02 -1.19242379e-02 -1.22417929e-02 -1.25428364e-02
      -1.27787497e-02 -1.30103957e-02 -1.32663362e-02 -1.35340896e-02
      -1.37824276e-02 -1.39668388e-02 -1.41534414e-02 -1.42409587e-02
      -1.43230343e-02 -1.43719269e-02 -1.44515038e-02 -1.45802451e-02
      -1.46534806e-02 -1.47148352e-02 -1.48218237e-02 -1.48828598e-02
      -1.48749249e-02 -1.49628678e-02 -1.50841083e-02 -1.51109546e-02
      -1.51322577e-02 -1.51307397e-02 -1.50991939e-02 -1.50453858e-02
      -1.50846159e-02 -1.51268542e-02 -1.51797803e-02 -1.52237657e-02
      -1.52306529e-02 -1.51703665e-02 -1.50838541e-02 -1.50148273e-02
      -1.49759650e-02 -1.49916075e-02 -1.50140272e-02 -1.50393602e-02
      -1.49966879e-02 -1.49260759e-02 -1.48550514e-02 -1.48189710e-02
      -1.47975693e-02 -1.48562947e-02 -1.49263162e-02 -1.49398465e-02
      -1.50363259e-02 -1.50669692e-02 -1.50670083e-02 -1.50002465e-02
      -1.49306953e-02 -1.48967756e-02 -1.48962187e-02 -1.49049945e-02
      -1.48597173e-02 -1.47590358e-02 -1.46631701e-02 -1.45475278e-02
      -1.44439321e-02 -1.45024313e-02 -1.45555912e-02 -1.45887034e-02
      -1.45684211e-02 -1.45043908e-02 -1.45101910e-02 -1.45417107e-02
      -1.45328743e-02 -1.45155648e-02 -1.44759640e-02 -1.43869892e-02
      -1.42754344e-02 -1.41703580e-02 -1.40485540e-02 -1.38739776e-02
      -1.36740133e-02 -1.34750428e-02 -1.32548772e-02 -1.30225290e-02
      -1.27349505e-02 -1.23936338e-02 -1.19829094e-02 -1.15313092e-02
      -1.10593000e-02 -1.05068814e-02 -9.92872939e-03 -9.32837464e-03
      -8.72641429e-03 -8.12797062e-03 -7.53914937e-03 -6.95874030e-03
      -6.36140257e-03 -5.81093924e-03 -5.24444785e-03 -4.66077542e-03
      -4.06464096e-03 -3.43405292e-03 -2.78765196e-03 -2.09569465e-03
      -1.44985702e-03 -8.92774784e-04 -3.60929116e-04 1.70915882e-04
      5.98846294e-04 9.83461156e-04 1.31931133e-03 1.64197199e-03
      1.95813505e-03 2.17409292e-03 2.33437191e-03 2.46441481e-03
      2.59402976e-03 2.68718228e-03 2.80093937e-03 2.92429002e-03
      2.99123675e-03 3.04539199e-03 3.05089285e-03 3.06754420e-03
      3.10103828e-03 3.13678011e-03 -6.22947793e-03 -6.85442146e-03
      -8.41941871e-03 -8.89110100e-03 -9.33592580e-03 -7.98803288e-03
      -8.21421575e-03 -1.13467053e-02 -1.12640001e-02 -1.07617863e-02
      -1.16737271e-02 -1.24963652e-02 -1.38360662e-02 -1.47250071e-02
      -1.37081956e-02 -1.41871776e-02 -1.48403738e-02 -1.68359261e-02
      -1.78639498e-02 -1.72450170e-02 -1.56085771e-02 -1.36521505e-02
      -1.32604372e-02 -1.49880582e-02 -1.54228443e-02 -1.51589038e-02
      -1.41898422e-02 -1.16489632e-02 -9.60645638e-03 -9.33240168e-03
      -8.82924348e-03 -6.93836948e-03 -6.80201454e-03 -7.51078222e-03
      -7.84597360e-03 -7.24664377e-03 -5.41653065e-03 -5.50156785e-03
      -2.59636529e-03 -2.42434908e-03 -1.41733536e-03 -2.32209801e-03
      -3.79417581e-03 -2.17188243e-03 -1.81697926e-03 -3.19871143e-03
      -1.84188841e-03 1.85416633e-04 -2.56846100e-03 -3.52573977e-03
      -7.27000646e-04 -5.87935909e-04 4.84407465e-05 9.23041312e-04
      1.57547311e-03 -1.18833501e-03 -1.26569055e-03 -1.56683428e-03
      -1.32842257e-03 -2.60273402e-04 1.73624803e-03 2.51316512e-03
      2.04028422e-03 1.15127186e-03 -4.38356627e-04 -6.31514529e-04
      -7.09806569e-04 1.26692059e-03 2.08947901e-03 2.10965308e-03
      1.05505704e-03 6.21878309e-04 -1.74152956e-03 -2.04513618e-03
      -3.89633293e-04 -2.89596082e-03 -9.73312708e-04 -4.95934401e-05
      1.95801351e-03 2.07348610e-03 1.02239591e-03 4.61466989e-05
      -2.38922104e-04 1.36928482e-03 2.98949913e-03 2.81675160e-03
      3.38800251e-03 3.02371522e-03 -1.69663539e-03 -1.54917780e-03
      -9.88044660e-04 5.76806138e-04 1.85504812e-03 -2.11448190e-04
      -9.80222132e-04 2.34661245e-04 5.00080816e-04 1.17024488e-03
      2.63727992e-03 3.30885500e-03 3.10958410e-03 3.57884029e-03
      5.08405082e-03 5.88133465e-03 5.89360157e-03 6.48438791e-03
      6.84079481e-03 8.44147615e-03 1.00068450e-02 1.20332893e-02
      1.32501749e-02 1.38542131e-02 1.62155498e-02 1.69880316e-02
      1.76412296e-02 1.76832750e-02 1.75835267e-02 1.72973201e-02
      1.70473326e-02 1.75342094e-02 1.61226727e-02 1.65962446e-02
      1.71097945e-02 1.74800772e-02 1.84871815e-02 1.89481489e-02
      2.02645529e-02 1.89187918e-02 1.63094345e-02 1.55595802e-02
      1.55628603e-02 1.25339953e-02 1.12477671e-02 9.81587544e-03
      9.42564942e-03 9.23540350e-03 6.31251140e-03 4.67048306e-03
      3.80742270e-03 3.80415330e-03 2.72359676e-03 3.32093076e-03
      3.59506439e-03 1.95879652e-03 1.59038068e-03 1.60998185e-04
      4.90474980e-04 9.83824488e-04 1.05274806e-03</data></learnt_thetas>
  <n_labels type_id="opencv-matrix">
    <rows>2</rows>
    <cols>1</cols>
    <dt>i</dt>
    <data>
      0 1</data></n_labels>
  <o_labels type_id="opencv-matrix">
    <rows>2</rows>
    <cols>1</cols>
    <dt>i</dt>
    <data>
      0 1</data></o_labels></opencv_ml_lr>
</opencv_storage>
