<?xml version="1.0"?>
<opencv_storage>
<opencv_ml_lr>
  <format>3</format>
  <classifier>"Logisitic Regression Classifier"</classifier>
  <alpha>3000.</alpha>
  <iterations>10000</iterations>
  <norm>1</norm>
  <train_method>0</train_method>
  <learnt_thetas type_id="opencv-matrix">
    <rows>1</rows>
    <cols>2550</cols>
    <dt>f</dt>
    <data>
      -2.66743207e+00 1.36820361e-01 5.85536771e-02 1.42609701e-01
      -1.30736036e-02 6.17233329e-02 3.41746919e-02 2.43463032e-02
      5.87039813e-02 -2.75318064e-02 -4.32355925e-02 -1.62997350e-01
      -1.10403098e-01 -7.90174827e-02 -5.20029711e-03 2.82174081e-01
      3.33090633e-01 3.69491190e-01 4.11544114e-01 4.45243984e-01
      1.23281427e-01 1.15842521e-01 1.76524773e-01 5.01632951e-02
      1.58421054e-01 1.91803083e-01 1.98482350e-01 3.15701097e-01
      1.92385718e-01 1.70536995e-01 1.72267079e-01 2.30851606e-01
      2.28349596e-01 2.68676758e-01 2.29514405e-01 2.35614792e-01
      2.45892853e-01 1.56926095e-01 1.84352070e-01 1.31102666e-01
      2.28481796e-02 -1.67394474e-01 -2.16727778e-01 -7.27477446e-02
      8.33033323e-02 1.46663964e-01 4.85766172e-01 5.25814295e-01
      6.28260255e-01 5.59786260e-01 6.20289326e-01 4.39252406e-01
      3.13976556e-01 2.77990669e-01 1.68887123e-01 2.44858757e-01
      2.12475032e-01 2.06407651e-01 3.50010619e-02 -1.06020719e-01
      -1.09446451e-01 -1.81508318e-01 -4.76980619e-02 7.86419362e-02
      9.60228518e-02 3.71668875e-01 2.88086027e-01 2.75776446e-01
      2.11261854e-01 2.30483621e-01 2.14831546e-01 7.90490136e-02
      1.06825486e-01 8.13221037e-02 8.56682137e-02 -1.52582482e-01
      -6.44490793e-02 8.59250575e-02 8.25174227e-02 2.19383389e-01
      2.53900439e-01 2.54439950e-01 2.75299221e-01 2.02915967e-01
      1.35012902e-02 -1.36062667e-01 -1.10385371e-02 -7.77569925e-03
      2.35654097e-02 1.38577312e-01 1.05381548e-01 5.38686477e-02
      -7.08109736e-02 3.91750261e-02 1.27912313e-01 1.68360159e-01
      2.58327037e-01 3.42166394e-01 4.61022198e-01 3.62209976e-01
      3.97142977e-01 2.93729901e-01 1.92858070e-01 2.00521931e-01
      4.41044085e-02 2.85950601e-02 -1.04477949e-01 -9.07553211e-02
      -6.37634248e-02 -1.13965169e-01 -9.01492462e-02 6.21371344e-02
      1.22948483e-01 -1.28461812e-02 1.71417482e-02 2.11816326e-01
      -3.07921469e-02 -3.10589392e-02 9.59427804e-02 8.12138617e-02
      -7.10024014e-02 -7.72397071e-02 -5.70283569e-02 -1.21694297e-01
      -8.64383653e-02 -1.11610897e-01 -1.78763866e-01 -1.31476641e-01
      -1.63688332e-01 -8.13254118e-02 -1.53702587e-01 -1.91373110e-01
      -1.92275688e-01 -2.86699563e-01 -2.57876992e-01 -3.01737458e-01
      -2.89083272e-01 -5.17799020e-01 -4.82632846e-01 -4.05111492e-01
      -4.65484768e-01 -4.12185580e-01 -4.50976312e-01 -2.86604017e-01
      -2.36533910e-01 -1.97481960e-01 -1.31950915e-01 -1.70576364e-01
      2.60801725e-02 -1.15904016e-02 -1.36444062e-01 -1.55572563e-01
      -7.71078765e-02 -2.33946312e-02 8.68790150e-02 6.61290139e-02
      1.22822568e-01 4.50064152e-01 3.25575382e-01 3.03360254e-01
      2.50047088e-01 3.04750890e-01 2.45018423e-01 1.65070891e-01
      1.55342117e-01 1.60212561e-01 1.54348165e-01 1.22598343e-01
      1.88181624e-01 2.03516200e-01 1.62577406e-01 1.91945955e-01
      2.24570483e-01 4.04858917e-01 4.13581103e-01 3.40800762e-01
      3.97767484e-01 1.73233569e-01 7.69985467e-02 -7.21826684e-04
      -5.08904867e-02 -1.05126150e-01 -2.63734926e-02 3.52139920e-02
      1.16852656e-01 2.31229961e-01 1.22176982e-01 1.75396577e-01
      1.68036401e-01 1.14303157e-01 1.51305780e-01 3.76739800e-02
      5.18619418e-02 -1.11757316e-01 -1.51074573e-01 -2.06265882e-01
      -3.26570839e-01 -3.46810728e-01 -3.86573642e-01 -3.25281173e-01
      -4.67468888e-01 -4.73373890e-01 -2.43257582e-01 -3.28249246e-01
      -1.79866895e-01 -9.83965695e-02 -5.73837869e-02 1.88726604e-01
      7.26438090e-02 1.06152534e-01 -4.11088467e-02 3.99096534e-02
      -1.21211253e-01 -2.12647974e-01 -2.05864131e-01 -2.46670604e-01
      -2.45708704e-01 -2.51248360e-01 -2.20553011e-01 -8.97535086e-02
      -1.42634720e-01 -1.56864002e-01 -1.53611273e-01 -9.06375423e-02
      -1.04386471e-01 -1.11466803e-01 -4.20434698e-02 -1.80993885e-01
      -2.13994741e-01 -2.97533929e-01 -2.53556728e-01 -3.38698596e-01
      -2.91952074e-01 -1.67612642e-01 -2.04136595e-01 -3.19139995e-02
      -8.69566761e-03 5.75479493e-02 2.10623696e-01 1.37772694e-01
      -8.03748891e-03 -5.11288419e-02 6.85033053e-02 -1.41803533e-01
      -1.79438993e-01 -2.77838022e-01 -3.19149435e-01 -1.24101736e-01
      -3.03097576e-01 -2.52221525e-01 2.86036655e-02 -3.46681997e-02
      4.99387980e-02 1.11587636e-01 2.25578174e-01 1.44859135e-01
      1.88043758e-01 5.56311369e-01 5.41169226e-01 6.34196222e-01
      6.27324283e-01 6.43170118e-01 6.33808613e-01 5.64846635e-01
      6.87705398e-01 4.76530492e-01 2.52273619e-01 2.41869777e-01
      3.26266974e-01 4.11715597e-01 3.72722089e-01 3.96143764e-01
      4.35151637e-01 4.95589852e-01 5.14832735e-01 5.27548254e-01
      5.82648993e-01 4.80749547e-01 3.43711853e-01 2.88893491e-01
      3.23086083e-01 1.63010865e-01 1.14681594e-01 9.86219570e-02
      1.12395257e-01 1.79721579e-01 6.06743209e-02 7.02939108e-02
      3.79431956e-02 -6.19986020e-02 -1.10498741e-01 -1.13253221e-01
      -3.18767540e-02 -3.09785336e-01 -3.53376895e-01 -4.14708287e-01
      -5.48563004e-01 -4.72097665e-01 -5.52341402e-01 -2.65854883e+00
      -1.67893112e-01 -1.19123496e-01 1.31295219e-01 -3.30955610e-02
      2.36171558e-02 5.99780157e-02 -3.13567966e-02 3.78516200e-03
      4.84414678e-03 5.33665307e-02 -1.40793668e-02 -2.95751216e-03
      -1.46768719e-03 8.85108393e-03 3.78449634e-02 -1.54179424e-01
      -1.13186486e-01 1.24751158e-01 -3.02578378e-02 2.18934398e-02
      5.59383929e-02 -3.02628055e-02 3.45125422e-03 3.73401609e-03
      5.08087650e-02 -1.35914274e-02 -3.06888181e-03 -1.76710333e-03
      8.15921649e-03 3.63200419e-02 -1.41181588e-01 -1.07688986e-01
      1.17997266e-01 -2.75896955e-02 2.00739410e-02 5.18328920e-02
      -2.92371791e-02 3.09567200e-03 2.63351784e-03 4.82039191e-02
      -1.31282238e-02 -3.18789924e-03 -2.04332755e-03 7.48608913e-03
      3.47117074e-02 -1.30200610e-01 -1.03771776e-01 1.10657401e-01
      -2.57680248e-02 1.78804770e-02 4.73778620e-02 -2.86468565e-02
      2.56032194e-03 1.42758421e-03 4.52470854e-02 -1.28750950e-02
      -3.39921983e-03 -2.34454591e-03 6.73414068e-03 3.27486135e-02
      -1.11196384e-01 -9.67463553e-02 1.04990713e-01 -2.26003900e-02
      1.63337998e-02 4.31988835e-02 -2.76840087e-02 2.27568904e-03
      3.00166459e-04 4.22160365e-02 -1.25143267e-02 -3.54359578e-03
      -2.60487758e-03 5.92780486e-03 3.06499358e-02 -8.63964781e-02
      -8.73559043e-02 1.00581422e-01 -1.82706807e-02 1.53043913e-02
      3.93107720e-02 -2.63105780e-02 2.23291432e-03 -7.29436404e-04
      3.92553918e-02 -1.19799534e-02 -3.59847047e-03 -2.80926703e-03
      5.12469234e-03 2.85765380e-02 -6.10477962e-02 -7.88620487e-02
      9.93656442e-02 -1.43230790e-02 1.53809004e-02 3.72977108e-02
      -2.51663905e-02 2.62377388e-03 -1.08720979e-03 3.74476612e-02
      -1.15090962e-02 -3.48830759e-03 -2.75223027e-03 4.71715257e-03
      2.72640958e-02 -3.44605185e-02 -6.98302835e-02 9.90371406e-02
      -9.73263010e-03 1.57779399e-02 3.57674062e-02 -2.36237384e-02
      3.21988016e-03 -1.31033710e-03 3.59784067e-02 -1.07711833e-02
      -3.26304208e-03 -2.63005006e-03 4.40004235e-03 2.61975918e-02
      -3.12835537e-03 -5.87819405e-02 9.97234881e-02 -3.64381797e-03
      1.66463256e-02 3.41202095e-02 -2.13072319e-02 4.09746170e-03
      -1.57053152e-03 3.41401435e-02 -9.56547167e-03 -2.87645659e-03
      -2.49326928e-03 3.96008464e-03 2.47654170e-02 2.66110543e-02
      -4.91310395e-02 1.01089582e-01 2.13137176e-03 1.75938457e-02
      3.29991356e-02 -1.90043692e-02 5.03425393e-03 -1.72084908e-03
      3.26517150e-02 -8.23994074e-03 -2.44457065e-03 -2.31362670e-03
      3.60830873e-03 2.35510208e-02 5.45170195e-02 -4.14505340e-02
      1.03730269e-01 7.06637185e-03 1.88014433e-02 3.25757377e-02
      -1.70844272e-02 6.04087347e-03 -1.67735142e-03 3.14589515e-02
      -7.01625738e-03 -1.99757749e-03 -2.06497964e-03 3.34453303e-03
      2.24317424e-02 7.57155493e-02 -3.82419154e-02 1.05951943e-01
      9.27049015e-03 1.94418076e-02 3.21076028e-02 -1.66469887e-02
      6.55800570e-03 -1.78596273e-03 3.03515121e-02 -6.57545403e-03
      -1.80991681e-03 -1.95185642e-03 3.06620006e-03 2.13649478e-02
      9.40502435e-02 -3.73954959e-02 1.07353672e-01 1.01473974e-02
      1.96028035e-02 3.14957760e-02 -1.69790220e-02 6.79102587e-03
      -2.00480269e-03 2.92578638e-02 -6.52773771e-03 -1.76813058e-03
      -1.90550892e-03 2.77717994e-03 2.03247126e-02 1.11077391e-01
      -3.80544923e-02 1.06603429e-01 1.11407638e-02 1.86613556e-02
      2.97648143e-02 -1.69923659e-02 6.62827399e-03 -2.84006121e-03
      2.74456404e-02 -6.08627824e-03 -1.82726118e-03 -2.11186521e-03
      2.12354516e-03 1.88355576e-02 1.23916097e-01 -3.96784917e-02
      1.05405532e-01 1.16971517e-02 1.77195650e-02 2.76259631e-02
      -1.70994941e-02 6.39702426e-03 -3.68321920e-03 2.53631901e-02
      -5.69646573e-03 -1.91047136e-03 -2.32583610e-03 1.48758350e-03
      1.71638336e-02 1.26978904e-01 -4.57365848e-02 1.03264242e-01
      8.85523856e-03 1.64307598e-02 2.52896324e-02 -1.91803742e-02
      5.68505609e-03 -4.41752234e-03 2.32230648e-02 -6.61141146e-03
      -2.31455639e-03 -2.54875305e-03 9.74197639e-04 1.54599184e-02
      1.29270017e-01 -5.08857779e-02 1.01865090e-01 6.56511541e-03
      1.55135347e-02 2.31785011e-02 -2.08049864e-02 5.08200703e-03
      -5.06186672e-03 2.12129951e-02 -7.28405919e-03 -2.63068732e-03
      -2.76075117e-03 5.04966069e-04 1.38753587e-02 1.34270266e-01
      -5.36328405e-02 1.00538902e-01 5.43246325e-03 1.47919366e-02
      2.13357769e-02 -2.18040142e-02 4.56695911e-03 -5.62313711e-03
      1.94777921e-02 -7.65523873e-03 -2.87842983e-03 -2.95719551e-03
      1.12092559e-04 1.25189638e-02 1.40877575e-01 -5.48422709e-02
      9.86317173e-02 4.44858242e-03 1.42398784e-02 1.86460316e-02
      -2.28436664e-02 4.14452143e-03 -6.28613215e-03 1.70094762e-02
      -8.19094852e-03 -3.07820807e-03 -3.15379864e-03 -4.35255526e-04
      1.06150284e-02 1.46937102e-01 -5.48592992e-02 9.66986045e-02
      4.20900714e-03 1.39895100e-02 1.57421008e-02 -2.33069342e-02
      3.95462150e-03 -6.91350875e-03 1.44105358e-02 -8.41458142e-03
      -3.12615209e-03 -3.30333784e-03 -9.97969415e-04 8.66131578e-03
      1.57858521e-01 -4.99552116e-02 9.67115387e-02 5.87796606e-03
      1.50807789e-02 1.31751951e-02 -2.28514336e-02 4.39681159e-03
      -7.23739294e-03 1.19765894e-02 -8.33567977e-03 -2.90446286e-03
      -3.31847859e-03 -1.48786267e-03 6.86631678e-03 1.63070336e-01
      -4.65797596e-02 9.55740213e-02 6.88832253e-03 1.57323387e-02
      1.05505651e-02 -2.24349946e-02 4.65132715e-03 -7.62890046e-03
      9.77281854e-03 -8.22880864e-03 -2.72935117e-03 -3.38545465e-03
      -1.94902986e-03 5.29877236e-03 1.60780206e-01 -4.62313741e-02
      9.30225998e-02 6.41961768e-03 1.55515447e-02 7.96124339e-03
      -2.25064941e-02 4.48803976e-03 -8.13849922e-03 7.96021800e-03
      -8.31499044e-03 -2.72801029e-03 -3.54825077e-03 -2.35051452e-03
      4.08834126e-03 1.60283253e-01 -4.38169539e-02 8.98695290e-02
      7.20115891e-03 1.52726406e-02 4.80846036e-03 -2.19468102e-02
      4.39543650e-03 -8.86231195e-03 5.92180621e-03 -8.11801385e-03
      -2.68950732e-03 -3.77757149e-03 -2.87852972e-03 2.82403547e-03
      1.64076775e-01 -3.81595865e-02 8.63619819e-02 9.74853709e-03
      1.52386157e-02 1.02523959e-03 -2.05184296e-02 4.55659395e-03
      -9.68692452e-03 3.50794313e-03 -7.51351332e-03 -2.50947126e-03
      -3.99525557e-03 -3.49842617e-03 1.36851927e-03 1.72140107e-01
      -2.93819401e-02 8.40006545e-02 1.36864521e-02 1.59326680e-02
      -2.35246518e-03 -1.85107961e-02 5.05421730e-03 -1.02791702e-02
      1.31959782e-03 -6.71788072e-03 -2.19528866e-03 -4.11903951e-03
      -4.01103543e-03 4.40164149e-05 1.78242683e-01 -2.10100971e-02
      8.07257444e-02 1.77648775e-02 1.61952637e-02 -5.71429823e-03
      -1.62845012e-02 5.43692848e-03 -1.09629780e-02 -6.67829532e-04
      -5.76498453e-03 -1.89911295e-03 -4.28579794e-03 -4.50470205e-03
      -1.08074560e-03 1.83157653e-01 -1.27946017e-02 7.64183477e-02
      2.19606813e-02 1.60600748e-02 -9.41242371e-03 -1.38859209e-02
      5.72277000e-03 -1.17745809e-02 -2.81381537e-03 -4.69836872e-03
      -1.61654723e-03 -4.49450174e-03 -5.04447753e-03 -2.28563906e-03
      1.82222947e-01 -9.66516510e-03 7.17792436e-02 2.33626235e-02
      1.50382826e-02 -1.23984199e-02 -1.29784290e-02 5.43036964e-03
      -1.25775458e-02 -4.41364013e-03 -4.35411744e-03 -1.65137928e-03
      -4.77492437e-03 -5.46959369e-03 -3.13976198e-03 1.74141735e-01
      -1.23085640e-02 6.71156198e-02 2.12264825e-02 1.33946836e-02
      -1.48175126e-02 -1.40458783e-02 4.63140849e-03 -1.33174974e-02
      -5.59724728e-03 -5.05898288e-03 -2.01022229e-03 -5.09306509e-03
      -5.79153746e-03 -3.70995351e-03 1.65483534e-01 -1.42764300e-02
      6.25140816e-02 1.94381941e-02 1.20184291e-02 -1.72790363e-02
      -1.48258768e-02 3.98348365e-03 -1.39068570e-02 -6.86759595e-03
      -5.62381325e-03 -2.29573529e-03 -5.33637870e-03 -6.04249770e-03
      -4.38637426e-03 1.57672331e-01 -1.64109506e-02 5.88291921e-02
      1.75163988e-02 1.10065667e-02 -1.92459933e-02 -1.57126095e-02
      3.45591595e-03 -1.42397247e-02 -7.99171440e-03 -6.22891542e-03
      -2.55990354e-03 -5.47388103e-03 -6.18084939e-03 -5.05224336e-03
      1.53936446e-01 -1.62733383e-02 5.41519225e-02 1.72882620e-02
      9.77007765e-03 -2.23275721e-02 -1.56581085e-02 3.01998318e-03
      -1.49924159e-02 -1.00464234e-02 -6.27474533e-03 -2.72276369e-03
      -5.71091473e-03 -6.67161169e-03 -6.36662822e-03 1.52334437e-01
      -1.45597821e-02 4.86419126e-02 1.79672632e-02 8.31427518e-03
      -2.58466024e-02 -1.51129253e-02 2.56964751e-03 -1.58735886e-02
      -1.23271961e-02 -6.05289033e-03 -2.87471246e-03 -5.97931352e-03
      -7.23448535e-03 -7.78835546e-03 1.47271812e-01 -1.58943031e-02
      4.34597619e-02 1.66710131e-02 6.60370896e-03 -2.95179170e-02
      -1.56882405e-02 1.84128108e-03 -1.67979859e-02 -1.47672584e-02
      -6.42913952e-03 -3.24000022e-03 -6.28825091e-03 -7.81188859e-03
      -9.34993103e-03 1.39701411e-01 -1.89736579e-02 3.81222814e-02
      1.46580320e-02 4.66766953e-03 -3.32598835e-02 -1.65534746e-02
      1.02864997e-03 -1.78137925e-02 -1.70805771e-02 -6.89869141e-03
      -3.63438157e-03 -6.62723789e-03 -8.39590747e-03 -1.07482150e-02
      1.31647035e-01 -2.33732555e-02 3.34617533e-02 1.20927179e-02
      2.78104772e-03 -3.64541635e-02 -1.77079719e-02 2.38340479e-04
      -1.87093783e-02 -1.89860445e-02 -7.46674510e-03 -4.02514823e-03
      -6.92094350e-03 -8.88668932e-03 -1.18726650e-02 1.22428820e-01
      -2.92326324e-02 2.97501292e-02 9.12183709e-03 1.01749250e-03
      -3.88957635e-02 -1.90607719e-02 -4.32639674e-04 -1.94880068e-02
      -2.03734133e-02 -8.07646755e-03 -4.33804141e-03 -7.16822455e-03
      -9.28734150e-03 -1.26637863e-02 1.13399595e-01 -3.51132862e-02
      2.62440071e-02 6.48065610e-03 -7.19573698e-04 -4.09335867e-02
      -2.01903954e-02 -1.03346712e-03 -2.02076118e-02 -2.14519221e-02
      -8.50904733e-03 -4.59613698e-03 -7.39215780e-03 -9.63130500e-03
      -1.32562192e-02 1.05261400e-01 -4.07119878e-02 2.38376930e-02
      4.09985380e-03 -1.98219018e-03 -4.23224680e-02 -2.13102866e-02
      -1.41830475e-03 -2.07287315e-02 -2.21702605e-02 -8.96343589e-03
      -4.77433577e-03 -7.53761269e-03 -9.88353230e-03 -1.36361439e-02
      9.96011049e-02 -4.55053523e-02 2.19767988e-02 2.32331641e-03
      -3.06957611e-03 -4.33980525e-02 -2.21762080e-02 -1.71173376e-03
      -2.11809557e-02 -2.26773247e-02 -9.24425106e-03 -4.91668843e-03
      -7.65905064e-03 -1.00876484e-02 -1.38775567e-02 1.01580292e-01
      -4.81204242e-02 2.19458640e-02 1.44414254e-03 -3.70059093e-03
      -4.36906181e-02 -2.27984097e-02 -1.89629081e-03 -2.14526765e-02
      -2.28059907e-02 -9.37852170e-03 -5.04423399e-03 -7.73779955e-03
      -1.01993550e-02 -1.39180413e-02 1.09262548e-01 -4.85272817e-02
      2.34673508e-02 1.36437616e-03 -3.62753193e-03 -4.34632786e-02
      -2.32561063e-02 -1.81305676e-03 -2.15373561e-02 -2.27192529e-02
      -9.48998239e-03 -5.07696019e-03 -7.74730928e-03 -1.02457926e-02
      -1.38510447e-02 1.21014483e-01 -4.70784530e-02 2.57649235e-02
      2.00327346e-03 -3.05877766e-03 -4.30000089e-02 -2.35426016e-02
      -1.52048795e-03 -2.14899834e-02 -2.25420203e-02 -9.58599243e-03
      -5.02632931e-03 -7.69634405e-03 -1.02494229e-02 -1.37353931e-02
      1.30559281e-01 -4.55522388e-02 2.66890600e-02 2.89738760e-03
      -2.92062177e-03 -4.29066457e-02 -2.35537961e-02 -1.40497554e-03
      -2.15955563e-02 -2.25010235e-02 -9.54034925e-03 -5.00270072e-03
      -7.71980081e-03 -1.03105316e-02 -1.36572160e-02 1.39004260e-01
      -4.40278500e-02 2.68721972e-02 4.19476116e-03 -2.91480613e-03
      -4.29694466e-02 -2.32200492e-02 -1.26837078e-03 -2.17319187e-02
      -2.25131642e-02 -9.25929286e-03 -4.91923559e-03 -7.73680909e-03
      -1.03773316e-02 -1.36039713e-02 1.45708621e-01 -4.27999273e-02
      2.49942206e-02 5.48668485e-03 -3.43043380e-03 -4.36349586e-02
      -2.27239542e-02 -1.29438296e-03 -2.19936930e-02 -2.27425452e-02
      -8.86124559e-03 -4.83039487e-03 -7.78385811e-03 -1.04728313e-02
      -1.36417178e-02 1.53543174e-01 -4.01681587e-02 2.40027606e-02
      7.54978880e-03 -3.36395926e-03 -4.38396074e-02 -2.18072962e-02
      -1.07840844e-03 -2.20262222e-02 -2.28288639e-02 -8.27260874e-03
      -4.61416692e-03 -7.74134696e-03 -1.04886126e-02 -1.36475097e-02
      1.63169175e-01 -3.57122235e-02 2.42570043e-02 1.02642123e-02
      -2.61721318e-03 -4.35236283e-02 -2.06194296e-02 -6.56041899e-04
      -2.18150411e-02 -2.27756314e-02 -7.63301458e-03 -4.31631552e-03
      -7.62323523e-03 -1.04267513e-02 -1.36288796e-02 1.65317774e-01
      -3.47300768e-02 2.16518901e-02 1.08161177e-02 -2.99309636e-03
      -4.43066433e-02 -2.05089003e-02 -8.34551756e-04 -2.19631996e-02
      -2.31319871e-02 -7.61557650e-03 -4.31369524e-03 -7.67193828e-03
      -1.04776723e-02 -1.37656471e-02 1.64504617e-01 -3.45222428e-02
      1.80635750e-02 1.09292045e-02 -3.63790640e-03 -4.54170778e-02
      -2.06061937e-02 -1.15042785e-03 -2.21956633e-02 -2.35979706e-02
      -7.74149783e-03 -4.38102009e-03 -7.75640225e-03 -1.05511816e-02
      -1.39477830e-02 1.73288271e-01 -2.79354453e-02 1.69335455e-02
      1.37458751e-02 -3.08301952e-03 -4.58991639e-02 -1.93416867e-02
      -1.00316224e-03 -2.21309420e-02 -2.39577126e-02 -7.30950898e-03
      -4.23645740e-03 -7.73609057e-03 -1.05647584e-02 -1.41283739e-02
      1.77567974e-01 -2.33539026e-02 1.53920921e-02 1.57048684e-02
      -2.91566504e-03 -4.63958420e-02 -1.83461178e-02 -1.02469756e-03
      -2.21416038e-02 -2.42816787e-02 -6.97392505e-03 -4.16747574e-03
      -7.75359804e-03 -1.05897048e-02 -1.42989708e-02 1.70572266e-01
      -2.46460177e-02 1.29494676e-02 1.46982465e-02 -3.71249276e-03
      -4.69345748e-02 -1.85606126e-02 -1.54235144e-03 -2.23321375e-02
      -2.45396476e-02 -7.17679830e-03 -4.34347056e-03 -7.88509566e-03
      -1.06481928e-02 -1.44399796e-02 1.58749685e-01 -2.87626404e-02
      1.13087976e-02 1.21952873e-02 -4.51223552e-03 -4.73515503e-02
      -1.94307081e-02 -2.13200948e-03 -2.24989112e-02 -2.46987194e-02
      -7.67092220e-03 -4.59967228e-03 -8.01940449e-03 -1.06785139e-02
      -1.45401340e-02 1.44325987e-01 -3.42341773e-02 1.02358246e-02
      9.11156181e-03 -5.28078899e-03 -4.76255938e-02 -2.05232203e-02
      -2.72237626e-03 -2.26268359e-02 -2.47638356e-02 -8.24384298e-03
      -4.88447351e-03 -8.13990552e-03 -1.06821517e-02 -1.46036008e-02
      1.29681021e-01 -3.90095636e-02 7.75213353e-03 6.35488518e-03
      -6.43232185e-03 -4.86986153e-02 -2.13779882e-02 -3.36502912e-03
      -2.29868498e-02 -2.51072459e-02 -8.69571045e-03 -5.17504709e-03
      -8.33254401e-03 -1.07837776e-02 -1.47515023e-02 1.13026828e-01
      -4.43549752e-02 5.23163378e-03 3.80650559e-03 -7.57623557e-03
      -4.98588122e-02 -2.20081117e-02 -3.91121162e-03 -2.33789720e-02
      -2.54553892e-02 -8.97198729e-03 -5.39921923e-03 -8.51400569e-03
      -1.08938823e-02 -1.48944948e-02 9.34940651e-02 -4.97229546e-02
      3.69034871e-03 1.63115922e-03 -8.11702572e-03 -5.08965775e-02
      -2.23672520e-02 -4.06871922e-03 -2.36290544e-02 -2.57765949e-02
      -9.14295949e-03 -5.44109615e-03 -8.60215165e-03 -1.09768584e-02
      -1.50218233e-02 7.76757449e-02 -5.44884577e-02 2.28101318e-03
      -3.51824914e-04 -8.84922501e-03 -5.16256094e-02 -2.27789953e-02
      -4.35050251e-03 -2.38587055e-02 -2.59546768e-02 -9.31687281e-03
      -5.55941742e-03 -8.69854819e-03 -1.10375900e-02 -1.50813209e-02
      6.53593317e-02 -5.87702841e-02 1.62144564e-03 -2.17971648e-03
      -9.59122274e-03 -5.18193245e-02 -2.31964253e-02 -4.70316410e-03
      -2.39982828e-02 -2.59153470e-02 -9.45380796e-03 -5.73461642e-03
      -8.78173113e-03 -1.10534094e-02 -1.50525207e-02 5.49869500e-02
      -6.39362261e-02 8.69435375e-04 -4.79974132e-03 -1.04301563e-02
      -5.19112609e-02 -2.42937282e-02 -5.09076752e-03 -2.41332948e-02
      -2.58303750e-02 -9.96791851e-03 -5.94861433e-03 -8.85480549e-03
      -1.10711716e-02 -1.49897551e-02 4.75521013e-02 -6.82788566e-02
      2.94380210e-04 -6.91413833e-03 -1.10942423e-02 -5.18764444e-02
      -2.52387822e-02 -5.33827161e-03 -2.42289100e-02 -2.57162303e-02
      -1.03901215e-02 -6.08478440e-03 -8.89411103e-03 -1.10868048e-02
      -1.49096893e-02 4.96632569e-02 -6.78400919e-02 1.85451366e-03
      -6.80709910e-03 -1.04905479e-02 -5.13930544e-02 -2.53032055e-02
      -4.95845499e-03 -2.40265615e-02 -2.55712327e-02 -1.04386602e-02
      -5.94089460e-03 -8.77745543e-03 -1.10455221e-02 -1.48502402e-02
      5.38384318e-02 -6.67108372e-02 2.94694537e-03 -6.29550917e-03
      -9.96276271e-03 -5.10639101e-02 -2.52547190e-02 -4.56302753e-03
      -2.38670744e-02 -2.54994296e-02 -1.04411030e-02 -5.78225218e-03
      -8.66058934e-03 -1.10255862e-02 -1.48248635e-02 6.01962842e-02
      -6.48301467e-02 3.10378498e-03 -5.11571206e-03 -9.64076351e-03
      -5.11130840e-02 -2.49040425e-02 -4.16974071e-03 -2.38187723e-02
      -2.56170593e-02 -1.02577824e-02 -5.59698371e-03 -8.56252387e-03
      -1.10604921e-02 -1.48721272e-02 6.92577660e-02 -6.19876795e-02
      3.26149445e-03 -3.78122670e-03 -9.27037839e-03 -5.10827899e-02
      -2.46146191e-02 -3.82681075e-03 -2.37309504e-02 -2.56974231e-02
      -1.01453569e-02 -5.45622269e-03 -8.46786425e-03 -1.10741146e-02
      -1.49162440e-02 7.78433457e-02 -6.04329742e-02 3.08209844e-03
      -3.29436967e-03 -9.32539813e-03 -5.10377996e-02 -2.48494428e-02
      -3.76387266e-03 -2.37196628e-02 -2.57451609e-02 -1.02929296e-02
      -5.47205703e-03 -8.43227934e-03 -1.10932486e-02 -1.49580417e-02
      8.84339437e-02 -5.82389683e-02 4.81464621e-03 -2.42388248e-03
      -8.76534637e-03 -5.04482128e-02 -2.48713456e-02 -3.48890247e-03
      -2.35234872e-02 -2.56313626e-02 -1.03097102e-02 -5.38991392e-03
      -8.32806621e-03 -1.10506741e-02 -1.49557563e-02 9.98052359e-02
      -5.49965017e-02 6.90157386e-03 -9.07437818e-04 -7.90188555e-03
      -4.97555397e-02 -2.45082900e-02 -3.06171877e-03 -2.32439600e-02
      -2.54890453e-02 -1.01370700e-02 -5.22042485e-03 -8.18376429e-03
      -1.09811882e-02 -1.49523523e-02 1.12522706e-01 -5.30746728e-02
      8.76326300e-03 -3.70889815e-04 -7.71550043e-03 -4.89972383e-02
      -2.48080045e-02 -3.08358623e-03 -2.31572092e-02 -2.52609793e-02
      -1.02973031e-02 -5.30240126e-03 -8.16817489e-03 -1.09483385e-02
      -1.48911318e-02 1.28871009e-01 -4.89695109e-02 1.14083467e-02
      1.25559012e-03 -7.06711970e-03 -4.79855314e-02 -2.46134847e-02
      -2.90817372e-03 -2.29461491e-02 -2.48975288e-02 -1.02275638e-02
      -5.29965153e-03 -8.10173247e-03 -1.08645381e-02 -1.47621706e-02
      1.42533630e-01 -4.53204550e-02 1.35871246e-02 2.77852826e-03
      -6.51331479e-03 -4.70038280e-02 -2.43296660e-02 -2.78161280e-03
      -2.27205586e-02 -2.44845990e-02 -1.01046832e-02 -5.30101359e-03
      -8.03742558e-03 -1.07543841e-02 -1.45969726e-02 1.54734328e-01
      -4.25380170e-02 1.50298327e-02 4.05863952e-03 -6.24819938e-03
      -4.63057980e-02 -2.41205171e-02 -2.76421872e-03 -2.26094257e-02
      -2.41114441e-02 -9.97718237e-03 -5.33905532e-03 -8.01454019e-03
      -1.06660593e-02 -1.44110145e-02 1.63152993e-01 -4.17321213e-02
      1.58918221e-02 4.68978332e-03 -6.30220259e-03 -4.57968675e-02
      -2.40845159e-02 -2.86663580e-03 -2.25968212e-02 -2.37662587e-02
      -9.84578673e-03 -5.41106844e-03 -8.02775659e-03 -1.06007066e-02
      -1.42129119e-02 1.69988334e-01 -4.15061973e-02 1.83037072e-02
      4.99298749e-03 -5.82820596e-03 -4.47166897e-02 -2.41837222e-02
      -2.82471930e-03 -2.24053226e-02 -2.32023951e-02 -9.80009791e-03
      -5.43177826e-03 -7.98942987e-03 -1.04730772e-02 -1.39144761e-02
      1.74925640e-01 -4.21335809e-02 1.98569559e-02 4.98479512e-03
      -5.61338291e-03 -4.38522846e-02 -2.43933965e-02 -2.87842564e-03
      -2.23038681e-02 -2.26864070e-02 -9.79051739e-03 -5.47648035e-03
      -7.98619818e-03 -1.03719672e-02 -1.36249084e-02 1.78395897e-01
      -4.31023985e-02 2.15135086e-02 4.62282635e-03 -5.43811871e-03
      -4.30433638e-02 -2.47702952e-02 -2.99842516e-03 -2.22575273e-02
      -2.21957322e-02 -9.90847964e-03 -5.55139501e-03 -8.02022405e-03
      -1.02945101e-02 -1.33458246e-02 1.79518774e-01 -4.41612229e-02
      2.28316206e-02 4.45432914e-03 -5.28002251e-03 -4.23140675e-02
      -2.49043982e-02 -3.09016998e-03 -2.22103745e-02 -2.17253435e-02
      -9.88764130e-03 -5.58438571e-03 -8.04918818e-03 -1.02153476e-02
      -1.30806621e-02 1.76245719e-01 -4.63005863e-02 2.34000143e-02
      4.00382979e-03 -5.29755279e-03 -4.17374037e-02 -2.49649696e-02
      -3.25410231e-03 -2.21801344e-02 -2.12979130e-02 -9.78511665e-03
      -5.60685433e-03 -8.08699895e-03 -1.01327859e-02 -1.28400773e-02
      1.68319926e-01 -4.92395386e-02 2.34982241e-02 3.00945505e-03
      -5.24579734e-03 -4.14622240e-02 -2.51680408e-02 -3.38598341e-03
      -2.21297089e-02 -2.10438892e-02 -9.80517734e-03 -5.60717471e-03
      -8.11008271e-03 -1.00603979e-02 -1.26832966e-02 1.56250373e-01
      -5.32611534e-02 2.24145446e-02 1.35238410e-03 -5.52466186e-03
      -4.14969586e-02 -2.56227218e-02 -3.65520711e-03 -2.21342277e-02
      -2.08832826e-02 -9.98826418e-03 -5.66224894e-03 -8.15725140e-03
      -9.99818183e-03 -1.25689209e-02 1.41155422e-01 -5.71809672e-02
      2.11000405e-02 -6.92532689e-04 -5.56458300e-03 -4.18633707e-02
      -2.62064785e-02 -3.87412100e-03 -2.21302360e-02 -2.08986327e-02
      -1.03423027e-02 -5.68448147e-03 -8.20940454e-03 -9.94791184e-03
      -1.25414785e-02 1.25670686e-01 -6.03384227e-02 2.00940426e-02
      -2.38055643e-03 -5.41100698e-03 -4.21546437e-02 -2.65810303e-02
      -3.99313401e-03 -2.20653377e-02 -2.09105387e-02 -1.06409900e-02
      -5.66351553e-03 -8.23153555e-03 -9.88475792e-03 -1.25287464e-02
      1.09142765e-01 -6.19175509e-02 1.96105465e-02 -3.34979617e-03
      -4.88618435e-03 -4.23768796e-02 -2.64039300e-02 -3.90371890e-03
      -2.18824577e-02 -2.09053196e-02 -1.07093211e-02 -5.52673638e-03
      -8.19519069e-03 -9.79059003e-03 -1.25271715e-02 8.83663744e-02
      -6.58750534e-02 1.89453922e-02 -5.72679983e-03 -4.80160955e-03
      -4.25760075e-02 -2.68417969e-02 -4.07541823e-03 -2.17870343e-02
      -2.08727438e-02 -1.10661527e-02 -5.52973198e-03 -8.22291058e-03
      -9.71750263e-03 -1.25184814e-02 6.97254911e-02 -6.97448775e-02
      1.80301517e-02 -8.41819216e-03 -4.93944855e-03 -4.28563170e-02
      -2.75775157e-02 -4.36279410e-03 -2.17542090e-02 -2.08648928e-02
      -1.15944082e-02 -5.61973546e-03 -8.28489661e-03 -9.66562610e-03
      -1.25211040e-02 5.29241674e-02 -7.07291812e-02 1.74727086e-02
      -9.92745627e-03 -4.73486260e-03 -4.31286804e-02 -2.75860894e-02
      -4.40573459e-03 -2.16353405e-02 -2.08404474e-02 -1.18333735e-02
      -5.58326859e-03 -8.30068253e-03 -9.59810801e-03 -1.25287576e-02
      3.68878283e-02 -7.04015568e-02 1.66392978e-02 -1.06471013e-02
      -4.51188302e-03 -4.34801988e-02 -2.71727201e-02 -4.34112735e-03
      -2.15144660e-02 -2.08364278e-02 -1.18637616e-02 -5.48921339e-03
      -8.29762779e-03 -9.53799952e-03 -1.25496555e-02 1.89490076e-02
      -7.24778920e-02 1.48616713e-02 -1.25031518e-02 -4.87233372e-03
      -4.45661284e-02 -2.74695996e-02 -4.55397740e-03 -2.16638017e-02
      -2.11622808e-02 -1.22093251e-02 -5.56545286e-03 -8.39509815e-03
      -9.58416611e-03 -1.27035026e-02 2.65682698e-03 -7.30254650e-02
      1.30992932e-02 -1.32846590e-02 -5.09181665e-03 -4.56569977e-02
      -2.71900389e-02 -4.61456552e-03 -2.17932351e-02 -2.14781240e-02
      -1.22379167e-02 -5.55879856e-03 -8.46645143e-03 -9.62814409e-03
      -1.28484499e-02 -1.15113007e-02 -7.25682527e-02 1.11427642e-02
      -1.34131890e-02 -5.24259917e-03 -4.67947014e-02 -2.65532713e-02
      -4.53651836e-03 -2.18989644e-02 -2.18738187e-02 -1.20372968e-02
      -5.48389694e-03 -8.50722194e-03 -9.69243795e-03 -1.30233141e-02
      -2.94033438e-02 -7.47123957e-02 8.60393140e-03 -1.44361500e-02
      -5.89711359e-03 -4.79745194e-02 -2.62363851e-02 -4.65322472e-03
      -2.21397541e-02 -2.22662538e-02 -1.18961362e-02 -5.47143584e-03
      -8.60345550e-03 -9.79650766e-03 -1.31928809e-02 -5.04294746e-02
      -7.92918354e-02 5.56628825e-03 -1.63674429e-02 -6.97910367e-03
      -4.92402762e-02 -2.62802541e-02 -4.94709751e-03 -2.25114133e-02
      -2.26794984e-02 -1.18458420e-02 -5.52196382e-03 -8.75469390e-03
      -9.94251389e-03 -1.33666191e-02 -6.61428347e-02 -8.25833380e-02
      2.10490986e-03 -1.77380145e-02 -8.28343723e-03 -5.06593548e-02
      -2.62673385e-02 -5.32217138e-03 -2.29645707e-02 -2.32482459e-02
      -1.17799379e-02 -5.63089317e-03 -8.93443637e-03 -1.01436218e-02
      -1.35975592e-02 -8.06095079e-02 -8.55454803e-02 -1.84639345e-03
      -1.87770072e-02 -9.73745808e-03 -5.21844998e-02 -2.61192843e-02
      -5.71691804e-03 -2.34792549e-02 -2.38749217e-02 -1.16314758e-02
      -5.73192956e-03 -9.12821107e-03 -1.03723761e-02 -1.38485888e-02
      -9.58289355e-02 -9.00051966e-02 -6.69535529e-03 -2.07764246e-02
      -1.16942087e-02 -5.38439155e-02 -2.66290791e-02 -6.35957671e-03
      -2.41086036e-02 -2.45806370e-02 -1.18561462e-02 -5.96908061e-03
      -9.37879086e-03 -1.06473919e-02 -1.41351083e-02 -1.08810827e-01
      -9.39888656e-02 -1.18705584e-02 -2.23607775e-02 -1.36967627e-02
      -5.55842854e-02 -2.70176064e-02 -6.97177555e-03 -2.47597434e-02
      -2.53300201e-02 -1.20138237e-02 -6.18516840e-03 -9.61658824e-03
      -1.09339906e-02 -1.44275427e-02 -1.17878906e-01 -9.69650298e-02
      -1.65347625e-02 -2.32571717e-02 -1.54102752e-02 -5.70288114e-02
      -2.71989740e-02 -7.41798477e-03 -2.52831466e-02 -2.59581096e-02
      -1.20569998e-02 -6.33344473e-03 -9.78159346e-03 -1.11704916e-02
      -1.46493046e-02 -1.30551279e-01 -1.02896877e-01 -2.09126417e-02
      -2.58790161e-02 -1.75419375e-02 -5.83268628e-02 -2.83047203e-02
      -8.17828905e-03 -2.59086583e-02 -2.65363455e-02 -1.25658643e-02
      -6.66510547e-03 -1.00210039e-02 -1.14410017e-02 -1.48562482e-02
      -1.44813165e-01 -1.09877363e-01 -2.53051799e-02 -2.90135704e-02
      -1.98487807e-02 -5.96119016e-02 -2.96589993e-02 -9.03723296e-03
      -2.65928525e-02 -2.71141548e-02 -1.31903253e-02 -7.04634236e-03
      -1.02874916e-02 -1.17371846e-02 -1.50675448e-02 -1.44871444e-01
      -1.13390937e-01 -2.44184621e-02 -3.06777060e-02 -2.04016920e-02
      -5.85797690e-02 -3.06736864e-02 -9.28588398e-03 -2.65025757e-02
      -2.67348476e-02 -1.36517985e-02 -7.23288115e-03 -1.02693774e-02
      -1.17057441e-02 -1.48521978e-02 -1.43095121e-01 -1.16136298e-01
      -2.30197497e-02 -3.19562629e-02 -2.07713116e-02 -5.71601242e-02
      -3.15222442e-02 -9.43243224e-03 -2.63084620e-02 -2.60999389e-02
      -1.40278237e-02 -7.37050269e-03 -1.02085378e-02 -1.16109997e-02
      -1.44982766e-02 -1.37332469e-01 -1.18112676e-01 -1.97300352e-02
      -3.32813710e-02 -2.05592960e-02 -5.49025089e-02 -3.25807557e-02
      -9.40975361e-03 -2.58724969e-02 -2.50151046e-02 -1.45402327e-02
      -7.47568673e-03 -1.00707812e-02 -1.13997376e-02 -1.39071122e-02
      -1.26139745e-01 -1.18531778e-01 -1.45098632e-02 -3.39969620e-02
      -1.96424574e-02 -5.16044125e-02 -3.35460044e-02 -9.14498977e-03
      -2.50721555e-02 -2.33540945e-02 -1.50235444e-02 -7.51744676e-03
      -9.80334915e-03 -1.09920120e-02 -1.29913939e-02 -1.11085020e-01
      -1.17827550e-01 -8.06866121e-03 -3.41430046e-02 -1.82743073e-02
      -4.75091338e-02 -3.43484469e-02 -8.70491005e-03 -2.39950847e-02
      -2.11884007e-02 -1.54139558e-02 -7.50849955e-03 -9.43474285e-03
      -1.04116844e-02 -1.17645329e-02 -9.50848088e-02 -1.17539145e-01
      -1.33484497e-03 -3.44334729e-02 -1.69211775e-02 -4.41266336e-02
      -3.52750570e-02 -8.27453472e-03 -2.31621191e-02 -1.97777264e-02
      -1.58256721e-02 -7.51162320e-03 -9.13383905e-03 -1.00565199e-02
      -1.11327907e-02 -7.93530568e-02 -1.17472224e-01 5.67031559e-03
      -3.46042812e-02 -1.55814411e-02 -4.07241099e-02 -3.61095183e-02
      -7.84463529e-03 -2.23814324e-02 -1.83860064e-02 -1.61456000e-02
      -7.51107419e-03 -8.85457080e-03 -9.73085221e-03 -1.05469767e-02
      -6.36498109e-02 -1.17737837e-01 1.54323727e-02 -3.46607380e-02
      -1.34198274e-02 -3.61775160e-02 -3.68849933e-02 -7.17318198e-03
      -2.12929398e-02 -1.63741596e-02 -1.63880326e-02 -7.42627028e-03
      -8.49221274e-03 -9.24048014e-03 -9.58470535e-03 -4.64387909e-02
      -1.17782816e-01 2.62769591e-02 -3.44364382e-02 -1.09539898e-02
      -3.10173295e-02 -3.75889614e-02 -6.37796847e-03 -2.00596489e-02
      -1.40360771e-02 -1.65663175e-02 -7.29658594e-03 -8.08097981e-03
      -8.67060013e-03 -8.45006853e-03 -2.71347892e-02 -1.17387101e-01
      3.90184745e-02 -3.39080207e-02 -7.88209308e-03 -2.48860624e-02
      -3.82333882e-02 -5.36684599e-03 -1.85516477e-02 -1.12011088e-02
      -1.66930202e-02 -7.09496252e-03 -7.57854711e-03 -7.96196237e-03
      -7.05232285e-03 -1.40926540e-02 -1.18085697e-01 5.06635122e-02
      -3.37606966e-02 -5.10128355e-03 -1.85916144e-02 -3.88247333e-02
      -4.52303095e-03 -1.70129314e-02 -8.10346194e-03 -1.67991966e-02
      -6.91204844e-03 -7.10142031e-03 -7.18789361e-03 -5.47100184e-03
      -2.24719546e-03 -1.18708648e-01 6.15921766e-02 -3.33410576e-02
      -2.54845433e-03 -1.22242430e-02 -3.92114036e-02 -3.75618017e-03
      -1.55037455e-02 -4.81478497e-03 -1.67885330e-02 -6.73056580e-03
      -6.64473418e-03 -6.38495013e-03 -3.74173233e-03 1.03035728e-02
      -1.19841769e-01 7.23265186e-02 -3.30873355e-02 -4.14874929e-04
      -5.64033166e-03 -3.97043005e-02 -3.23138223e-03 -1.41444439e-02
      -1.38628145e-03 -1.67907029e-02 -6.64485712e-03 -6.28356077e-03
      -5.64384088e-03 -1.96893676e-03 1.90562923e-02 -1.21952467e-01
      8.19322616e-02 -3.30645815e-02 1.37315493e-03 6.94798364e-04
      -4.01475243e-02 -2.81228032e-03 -1.28872758e-02 2.03429349e-03
      -1.67391747e-02 -6.56213891e-03 -5.96014131e-03 -4.92330454e-03
      -1.60814627e-04 2.00409964e-02 -1.25466511e-01 8.97555649e-02
      -3.36565152e-02 2.89912894e-03 6.27549738e-03 -4.05867659e-02
      -2.50531523e-03 -1.17379511e-02 5.12176193e-03 -1.67101976e-02
      -6.47045486e-03 -5.67939039e-03 -4.24819626e-03 1.47554011e-03
      1.85676925e-02 -1.29505590e-01 9.66427326e-02 -3.49238664e-02
      4.05038614e-03 1.16155399e-02 -4.13019285e-02 -2.43225670e-03
      -1.06939618e-02 8.26677121e-03 -1.68777164e-02 -6.48768805e-03
      -5.46950335e-03 -3.57853621e-03 3.21565126e-03 1.72132961e-02
      -1.33405268e-01 1.02824368e-01 -3.63863148e-02 4.98183491e-03
      1.65324863e-02 -4.21084352e-02 -2.49596569e-03 -9.77231096e-03
      1.12760812e-02 -1.71259288e-02 -6.56020502e-03 -5.31472079e-03
      -2.94348015e-03 4.94267931e-03 9.33707505e-03 -1.39306396e-01
      1.07534476e-01 -3.87719460e-02 5.32912929e-03 2.09425539e-02
      -4.31076810e-02 -2.80511775e-03 -9.01228003e-03 1.41673405e-02
      -1.74610671e-02 -6.70203846e-03 -5.23134973e-03 -2.33941479e-03
      6.67019747e-03 1.10077753e-03 -1.44969583e-01 1.12365387e-01
      -4.10884805e-02 5.67413867e-03 2.55026221e-02 -4.40634452e-02
      -3.11174826e-03 -8.24616104e-03 1.72400400e-02 -1.77917685e-02
      -6.84646331e-03 -5.15310466e-03 -1.70999661e-03 8.54337215e-03
      -5.54198585e-03 -1.48280755e-01 1.19251244e-01 -4.27690856e-02
      7.03991205e-03 3.05508822e-02 -4.47159111e-02 -3.04760854e-03
      -7.14429282e-03 2.02203896e-02 -1.80855505e-02 -6.87386096e-03
      -4.95399581e-03 -1.02349860e-03 1.01892073e-02 -1.67483427e-02
      -1.52976304e-01 1.24657668e-01 -4.50541675e-02 7.93992076e-03
      3.50528620e-02 -4.55586016e-02 -3.13835545e-03 -6.17608475e-03
      2.30148602e-02 -1.84755065e-02 -6.95470208e-03 -4.79478529e-03
      -3.81242862e-04 1.17490701e-02 -3.08440290e-02 -1.57912195e-01
      1.29324302e-01 -4.75293621e-02 8.75370950e-03 3.92564014e-02
      -4.63826433e-02 -3.25681595e-03 -5.22323139e-03 2.57214382e-02
      -1.88852828e-02 -7.03387754e-03 -4.64327121e-03 2.74207763e-04
      1.32609624e-02 -4.63330112e-02 -1.63258597e-01 1.33694321e-01
      -5.01332507e-02 9.37228650e-03 4.36351001e-02 -4.72192988e-02
      -3.41303926e-03 -4.28618491e-03 2.87257116e-02 -1.92901250e-02
      -7.12682586e-03 -4.50253999e-03 9.68055741e-04 1.50194578e-02
      -6.24668114e-02 -1.68792918e-01 1.37642443e-01 -5.26153743e-02
      9.84206982e-03 4.80967090e-02 -4.79797944e-02 -3.55835073e-03
      -3.36358347e-03 3.19447182e-02 -1.96343716e-02 -7.20355101e-03
      -4.35405178e-03 1.69014884e-03 1.69794522e-02 -7.72925913e-02
      -1.73161060e-01 1.42405629e-01 -5.45983799e-02 1.07131312e-02
      5.29825054e-02 -4.85080406e-02 -3.53478757e-03 -2.27055512e-03
      3.53585705e-02 -1.98885892e-02 -7.21421605e-03 -4.14492702e-03
      2.47315317e-03 1.90381389e-02 -9.04975906e-02 -1.76431745e-01
      1.48114145e-01 -5.61931059e-02 1.20224934e-02 5.85164204e-02
      -4.88600507e-02 -3.33682192e-03 -9.28405032e-04 3.92094553e-02
      -2.00860128e-02 -7.16027385e-03 -3.85051011e-03 3.40184732e-03
      2.13833842e-02 -1.01815060e-01 -1.78729013e-01 1.54854909e-01
      -5.74627146e-02 1.37493955e-02 6.49845451e-02 -4.90981974e-02
      -2.98126112e-03 7.33638532e-04 4.36885618e-02 -2.02513970e-02
      -7.06045609e-03 -3.45361140e-03 4.53457050e-03 2.41529699e-02
      -1.11496545e-01 -1.80786923e-01 1.60948738e-01 -5.84888123e-02
      1.52827231e-02 7.12012425e-02 -4.92721312e-02 -2.64436891e-03
      2.30720337e-03 4.80640680e-02 -2.03660056e-02 -6.95813959e-03
      -3.06696678e-03 5.62983239e-03 2.68987846e-02 -1.22772530e-01
      -1.83747068e-01 1.64893925e-01 -5.97521067e-02 1.60629135e-02
      7.62338936e-02 -4.95240130e-02 -2.51265708e-03 3.48848035e-03
      5.18097468e-02 -2.04893872e-02 -6.91455184e-03 -2.78926268e-03
      6.52132928e-03 2.93224640e-02 -1.35007918e-01 -1.86458468e-01
      1.68286502e-01 -6.09512702e-02 1.67714860e-02 8.09905753e-02
      -4.96948361e-02 -2.36394419e-03 4.64504212e-03 5.54663688e-02
      -2.06002966e-02 -6.85622310e-03 -2.50524702e-03 7.41182221e-03
      3.17416787e-02 -1.45600826e-01 -1.88232094e-01 1.72002852e-01
      -6.17668442e-02 1.77096259e-02 8.59197006e-02 -4.97143641e-02
      -2.09628977e-03 5.90879237e-03 5.92994653e-02 -2.06607338e-02
      -6.75123185e-03 -2.16851733e-03 8.37069750e-03 3.43201421e-02
      -1.47940695e-01 -1.87534571e-01 1.76447645e-01 -6.16635568e-02
      1.89860445e-02 9.04156417e-02 -4.95342724e-02 -1.71287206e-03
      7.09329313e-03 6.25615641e-02 -2.06419807e-02 -6.62878109e-03
      -1.85053307e-03 9.18823201e-03 3.64484079e-02 -1.48562685e-01
      -1.86446056e-01 1.80912107e-01 -6.13407679e-02 2.03051846e-02
      9.46931764e-02 -4.93083186e-02 -1.27623882e-03 8.25611781e-03
      6.56661242e-02 -2.05940455e-02 -6.49065338e-03 -1.51980901e-03
      9.98731144e-03 3.84723172e-02 -1.49475649e-01 -1.85491711e-01
      1.84843317e-01 -6.10515065e-02 2.14427672e-02 9.86126587e-02
      -4.90887016e-02 -8.74769874e-04 9.32988152e-03 6.86097518e-02
      -2.05444675e-02 -6.36765221e-03 -1.20794470e-03 1.07458765e-02
      4.04482633e-02 -1.48989663e-01 -1.84147909e-01 1.89265296e-01
      -6.05771542e-02 2.28021890e-02 1.02761544e-01 -4.88251857e-02
      -3.77994846e-04 1.05236983e-02 7.17305690e-02 -2.04730611e-02
      -6.21298607e-03 -8.44523485e-04 1.15877334e-02 4.25568409e-02
      -1.46600828e-01 -1.82548001e-01 1.94285020e-01 -5.98868802e-02
      2.43179072e-02 1.07297704e-01 -4.85349782e-02 1.94099790e-04
      1.18241934e-02 7.51374289e-02 -2.03689672e-02 -6.03698194e-03
      -4.36102506e-04 1.25052677e-02 4.48788479e-02 -1.41866833e-01
      -1.80839732e-01 1.98672563e-01 -5.90614490e-02 2.55442150e-02
      1.10837370e-01 -4.82852124e-02 6.85409934e-04 1.28042763e-02
      7.77501315e-02 -2.02573799e-02 -5.90187963e-03 -1.18473392e-04
      1.31860580e-02 4.66526337e-02 -1.36900887e-01 -1.79599956e-01
      2.02342004e-01 -5.83037660e-02 2.64881216e-02 1.13710165e-01
      -4.81163822e-02 1.10708585e-03 1.35599412e-02 7.99053460e-02
      -2.01531593e-02 -5.79160266e-03 1.44132922e-04 1.37256905e-02
      4.81448099e-02 -1.32090822e-01 -1.78707391e-01 2.05700696e-01
      -5.77348694e-02 2.73155384e-02 1.16219327e-01 -4.80354205e-02
      1.44723884e-03 1.42129548e-02 8.17464069e-02 -2.00809985e-02
      -5.71261533e-03 3.63136845e-04 1.41924471e-02 4.94055338e-02
      -1.26578227e-01 -1.78054094e-01 2.09303498e-01 -5.72227575e-02
      2.81451084e-02 1.18890345e-01 -4.80259918e-02 1.77258055e-03
      1.48753868e-02 8.36989358e-02 -2.00174116e-02 -5.64431539e-03
      5.77401544e-04 1.46747502e-02 5.07493280e-02 -1.20294362e-01
      -1.77834556e-01 2.12645635e-01 -5.68598397e-02 2.87812985e-02
      1.21292740e-01 -4.81413789e-02 1.99506315e-03 1.54055273e-02
      8.53664204e-02 -1.99764352e-02 -5.62063698e-03 7.30184780e-04
      1.50584076e-02 5.18737137e-02 -1.12375833e-01 -1.77184731e-01
      2.16820493e-01 -5.62538989e-02 2.97318716e-02 1.24420494e-01
      -4.81961891e-02 2.32325564e-03 1.61548182e-02 8.75471011e-02
      -1.99010652e-02 -5.55450702e-03 9.57771728e-04 1.55910309e-02
      5.33506162e-02 -1.03478819e-01 -1.76229343e-01 2.21408278e-01
      -5.54633997e-02 3.08804959e-02 1.27989724e-01 -4.81944494e-02
      2.71843094e-03 1.70453284e-02 9.00805965e-02 -1.97962113e-02
      -5.45520987e-03 1.23634934e-03 1.62284784e-02 5.51004708e-02
      -9.83429626e-02 -1.76004127e-01 2.24106655e-01 -5.50537817e-02
      3.16212624e-02 1.30230054e-01 -4.82481234e-02 2.94784619e-03
      1.76402982e-02 9.16655660e-02 -1.97348669e-02 -5.38875721e-03
      1.41915435e-03 1.66588649e-02 5.62028848e-02 -9.47470069e-02
      -1.76286250e-01 2.25854382e-01 -5.48368767e-02 3.21091078e-02
      1.31888598e-01 -4.83625866e-02 3.08822212e-03 1.80795304e-02
      9.28819329e-02 -1.96953416e-02 -5.34341065e-03 1.55590451e-03
      1.70005430e-02 5.70832044e-02 -9.38250422e-02 -1.77902311e-01
      2.25243494e-01 -5.52443750e-02 3.16855721e-02 1.31825939e-01
      -4.87153567e-02 2.84819887e-03 1.79058053e-02 9.28460285e-02
      -1.97497476e-02 -5.43170283e-03 1.46455853e-03 1.69378445e-02
      5.71049005e-02 -9.23953950e-02 -1.79118812e-01 2.24789575e-01
      -5.54845110e-02 3.14445831e-02 1.31956905e-01 -4.89925370e-02
      2.66426732e-03 1.78227779e-02 9.29563642e-02 -1.97815467e-02
      -5.48366038e-03 1.40698568e-03 1.69326607e-02 5.72306924e-02
      -9.02951583e-02 -1.79749101e-01 2.24676639e-01 -5.55035546e-02
      3.14653330e-02 1.32418528e-01 -4.91624251e-02 2.55689397e-03
      1.78714693e-02 9.33053419e-02 -1.97849479e-02 -5.49048837e-03
      1.39371597e-03 1.70080587e-02 5.75181805e-02 -8.99133012e-02
      -1.80475771e-01 2.24135488e-01 -5.56760989e-02 3.14164720e-02
      1.32739589e-01 -4.93201837e-02 2.39577936e-03 1.78869702e-02
      9.36137959e-02 -1.98093634e-02 -5.50604425e-03 1.35978218e-03
      1.70717780e-02 5.78060783e-02</data></learnt_thetas>
  <n_labels type_id="opencv-matrix">
    <rows>2</rows>
    <cols>1</cols>
    <dt>i</dt>
    <data>
      0 1</data></n_labels>
  <o_labels type_id="opencv-matrix">
    <rows>2</rows>
    <cols>1</cols>
    <dt>i</dt>
    <data>
      0 1</data></o_labels></opencv_ml_lr>
</opencv_storage>
