<?xml version="1.0"?>
<opencv_storage>
<opencv_ml_lr>
  <format>3</format>
  <classifier>"Logisitic Regression Classifier"</classifier>
  <alpha>2.9999999999999999e-01</alpha>
  <iterations>1500</iterations>
  <norm>1</norm>
  <train_method>0</train_method>
  <learnt_thetas type_id="opencv-matrix">
    <rows>1</rows>
    <cols>599</cols>
    <dt>f</dt>
    <data>
      -9.76065465e-04 -3.31185380e-04 -3.29372037e-04 -3.27342132e-04
      -3.24809109e-04 -3.21686442e-04 -3.18118779e-04 -3.14398756e-04
      -3.10266740e-04 -3.05738766e-04 -3.00918997e-04 -2.95317470e-04
      -2.90356344e-04 -2.85542745e-04 -2.81740067e-04 -2.78194784e-04
      -2.77464802e-04 -2.76211184e-04 -2.73658166e-04 -2.69357930e-04
      -2.63931812e-04 -2.55695049e-04 -2.49403267e-04 -2.46536365e-04
      -2.44743394e-04 -2.41972579e-04 -2.35130399e-04 -2.29121302e-04
      -2.23880124e-04 -2.21597860e-04 -2.21795315e-04 -2.21892697e-04
      -2.22435876e-04 -2.21958311e-04 -2.20670525e-04 -2.20447124e-04
      -2.20282745e-04 -2.19223046e-04 -2.22409348e-04 -2.26524528e-04
      -2.33607774e-04 -2.39777204e-04 -2.42925249e-04 -2.43616276e-04
      -2.42695154e-04 -2.42146110e-04 -2.42149137e-04 -2.46277021e-04
      -2.48179160e-04 -2.46616662e-04 -2.46094220e-04 -2.46126699e-04
      -2.40388603e-04 -2.36456472e-04 -2.37170796e-04 -2.39139874e-04
      -2.41934540e-04 -2.42210852e-04 -2.42692346e-04 -2.43026094e-04
      -2.44413590e-04 -2.46590760e-04 -2.51935649e-04 -2.57201726e-04
      -2.57192703e-04 -2.58738437e-04 -2.61580804e-04 -2.61987763e-04
      -2.62841873e-04 -2.62996560e-04 -2.62280664e-04 -2.61972746e-04
      -2.58580374e-04 -2.55524094e-04 -2.52485479e-04 -2.50968063e-04
      -2.51104357e-04 -2.51196267e-04 -2.51285906e-04 -2.50932731e-04
      -2.51416670e-04 -2.53308972e-04 -2.58013955e-04 -2.62431888e-04
      -2.67060153e-04 -2.70335091e-04 -2.74810125e-04 -2.78860040e-04
      -2.76762730e-04 -2.71931436e-04 -2.67360738e-04 -2.61452893e-04
      -2.54580635e-04 -2.49144388e-04 -2.44877709e-04 -2.41340938e-04
      -2.38023262e-04 -2.34768784e-04 -2.32573526e-04 -2.31383674e-04
      -2.35580199e-04 -2.42180948e-04 -2.46167649e-04 -2.49665347e-04
      -2.52153113e-04 -2.54946062e-04 -2.57708511e-04 -2.60022469e-04
      -2.62029411e-04 -2.64006667e-04 -2.67094903e-04 -2.70922610e-04
      -2.74822814e-04 -2.78885709e-04 -2.85068178e-04 -2.92120181e-04
      -3.00288695e-04 -3.07293871e-04 -3.14100325e-04 -3.21592554e-04
      -3.28871742e-04 -3.35794990e-04 -3.43219697e-04 -3.50009534e-04
      -3.56841309e-04 -3.63700965e-04 -3.68210109e-04 -3.70911002e-04
      -3.72590992e-04 -3.74367373e-04 -3.76813754e-04 -3.78779223e-04
      -3.80043464e-04 -3.79380188e-04 -3.78297584e-04 -3.77564575e-04
      -3.76568205e-04 -3.75378149e-04 -3.74509604e-04 -3.73823277e-04
      -3.73038434e-04 -3.72304959e-04 -3.72038980e-04 -3.71323404e-04
      -3.70337104e-04 -3.69714224e-04 -3.69315414e-04 -3.69826565e-04
      -3.70170252e-04 -3.70254857e-04 -3.70452792e-04 4.91798392e-06
      4.67936188e-05 3.46540619e-05 9.70365436e-05 5.22278715e-05
      1.14522591e-04 1.16683579e-04 1.49329033e-04 1.94017033e-04
      1.41375640e-04 1.72362081e-04 1.31758250e-04 1.97656918e-04
      2.16424261e-04 1.84085759e-04 2.61252717e-04 1.99706730e-04
      3.17736820e-04 3.37402540e-04 2.79572560e-04 3.02591245e-04
      2.75866070e-04 3.32514930e-04 3.23558459e-04 3.17545986e-04
      2.87142902e-04 2.82344961e-04 3.01346910e-04 2.72714999e-04
      3.55186319e-04 2.94342637e-04 2.61933717e-04 2.88167270e-04
      2.18618050e-04 3.20556952e-04 3.13011056e-04 4.05625149e-04
      3.79639619e-04 3.26070789e-04 3.71812261e-04 2.40283189e-04
      2.41801652e-04 1.75898531e-04 1.89292521e-04 2.09548889e-04
      3.15841549e-04 3.71648202e-04 2.80724402e-04 3.14153236e-04
      2.84669455e-04 2.06406563e-04 2.17404187e-04 1.74882487e-04
      2.38781955e-04 2.20887567e-04 2.82633817e-04 2.94638798e-04
      3.01721535e-04 3.17015947e-04 2.01752555e-04 2.26160031e-04
      1.91392319e-04 2.37339031e-04 2.09074613e-04 2.12027429e-04
      2.79172527e-04 2.28786244e-04 2.94358993e-04 2.59436492e-04
      2.46622047e-04 2.22381685e-04 1.34814938e-04 2.20784874e-04
      1.48142411e-04 9.02453976e-05 1.34948496e-04 2.01613293e-04
      2.80771230e-04 2.74475984e-04 3.34171462e-04 2.75315688e-04
      1.88605409e-04 1.89646496e-04 8.91419913e-05 1.81072173e-04
      1.81097523e-04 3.12725460e-04 3.14722362e-04 2.64970819e-04
      3.08951217e-04 1.80772971e-04 1.77899681e-04 1.05273182e-04
      1.52112392e-04 1.86127887e-04 1.80892283e-04 2.43540286e-04
      2.07681733e-04 1.69572260e-04 1.44049467e-04 2.09794802e-04
      1.99286529e-04 1.35085589e-04 2.44589668e-04 2.01003699e-04
      1.91135376e-04 1.78894712e-04 1.49856976e-04 2.40761787e-04
      2.01293951e-04 2.94333091e-04 2.34043779e-04 1.70485859e-04
      2.23646974e-04 1.91305051e-04 1.56544018e-04 6.12299482e-05
      1.54389461e-04 1.20009492e-04 1.08079046e-04 1.75431662e-04
      1.02017402e-04 1.48993786e-04 7.51211264e-05 8.14683226e-05
      5.13964624e-05 2.48625020e-05 5.16009641e-05 -6.82887548e-06
      3.23744134e-05 -3.65790438e-05 -6.38012280e-05 -3.76286116e-05
      -7.49045576e-05 -1.25041488e-05 -6.55810800e-05 -6.68495122e-05
      -8.97025966e-05 -9.28917798e-05 -4.58669965e-05 -8.13222432e-05
      -4.45365949e-05 -8.64822287e-05 -8.00587659e-05 -6.37978737e-05
      -8.39789427e-05 -4.25690123e-05 -8.45160102e-05 -5.64892507e-05
      -4.92211757e-06 -1.23740292e-05 -2.06103705e-05 -3.08171257e-05
      -4.14315109e-05 -5.24545067e-05 -6.19970888e-05 -7.18319643e-05
      -8.54778700e-05 -9.89962209e-05 -1.11857495e-04 -1.25786682e-04
      -1.40664910e-04 -1.57078684e-04 -1.74516870e-04 -1.90689709e-04
      -2.07513833e-04 -2.25227443e-04 -2.45095609e-04 -2.66100193e-04
      -2.86376104e-04 -3.04737216e-04 -3.20907537e-04 -3.36555939e-04
      -3.54083808e-04 -3.72068200e-04 -3.89817375e-04 -4.06454608e-04
      -4.20165597e-04 -4.31461784e-04 -4.42299788e-04 -4.52547480e-04
      -4.60362615e-04 -4.67955280e-04 -4.76367568e-04 -4.85184137e-04
      -4.93339496e-04 -4.99447808e-04 -5.05746575e-04 -5.08667959e-04
      -5.11344406e-04 -5.12772298e-04 -5.15335880e-04 -5.19662281e-04
      -5.22203220e-04 -5.24332747e-04 -5.28060074e-04 -5.30137389e-04
      -5.29778423e-04 -5.32710343e-04 -5.36786800e-04 -5.37772255e-04
      -5.38589084e-04 -5.38637280e-04 -5.37614455e-04 -5.35792729e-04
      -5.37114742e-04 -5.38489083e-04 -5.40179375e-04 -5.41654357e-04
      -5.41969028e-04 -5.40003588e-04 -5.37178654e-04 -5.34313032e-04
      -5.32579317e-04 -5.33177285e-04 -5.33918617e-04 -5.34682185e-04
      -5.32803941e-04 -5.29862940e-04 -5.27484983e-04 -5.26332355e-04
      -5.25625772e-04 -5.27395983e-04 -5.29315264e-04 -5.29697223e-04
      -5.33117680e-04 -5.34271239e-04 -5.34175371e-04 -5.31471102e-04
      -5.28842676e-04 -5.27593947e-04 -5.27585857e-04 -5.27887081e-04
      -5.25962096e-04 -5.22354909e-04 -5.19085443e-04 -5.15161024e-04
      -5.11601917e-04 -5.13089239e-04 -5.14580519e-04 -5.15792868e-04
      -5.15151536e-04 -5.12976199e-04 -5.13320148e-04 -5.14524174e-04
      -5.13916195e-04 -5.13152278e-04 -5.11818565e-04 -5.08814876e-04
      -5.05040109e-04 -5.01570932e-04 -4.97416651e-04 -4.91148210e-04
      -4.84191289e-04 -4.77431080e-04 -4.69733932e-04 -4.61571326e-04
      -4.51575383e-04 -4.39692842e-04 -4.25306673e-04 -4.09606844e-04
      -3.93239141e-04 -3.74095544e-04 -3.54019488e-04 -3.33028904e-04
      -3.12122051e-04 -2.91454227e-04 -2.70983670e-04 -2.50684097e-04
      -2.29995887e-04 -2.10926664e-04 -1.91030529e-04 -1.70486077e-04
      -1.49478787e-04 -1.27331397e-04 -1.04705432e-04 -8.07562974e-05
      -5.84718910e-05 -3.93729460e-05 -2.11141760e-05 -2.79970573e-06
      1.19932729e-05 2.52415011e-05 3.66520653e-05 4.76600144e-05
      5.84889240e-05 6.58291974e-05 7.11755783e-05 7.55483197e-05
      7.99408153e-05 8.30237914e-05 8.67114431e-05 9.06704154e-05
      9.28886730e-05 9.46848813e-05 9.48324014e-05 9.54614152e-05
      9.67781962e-05 9.80544210e-05 6.15098324e-05 1.25258768e-04
      1.19543663e-04 2.25377880e-04 1.76974048e-04 1.60216252e-04
      1.54616791e-04 2.36635649e-04 2.99174630e-04 2.25414580e-04
      2.97192833e-04 2.64949893e-04 3.16796184e-04 3.66708176e-04
      2.92164303e-04 4.41036944e-04 4.00932418e-04 4.74871485e-04
      4.80751012e-04 4.46121849e-04 4.29745967e-04 3.32105788e-04
      3.68949753e-04 3.81601683e-04 3.98566714e-04 3.90603149e-04
      4.17458417e-04 3.75772303e-04 2.45289382e-04 2.63944414e-04
      1.71727690e-04 1.40572709e-04 2.58163636e-04 2.19280759e-04
      3.03205539e-04 2.34521925e-04 1.68080951e-04 1.26912899e-04
      5.21459951e-05 9.70273613e-05 3.19291066e-05 6.20037972e-05
      2.37400127e-05 8.45148315e-05 8.25781681e-05 6.06272697e-05
      1.10994202e-04 1.77480615e-05 1.07407017e-04 9.11901370e-05
      6.50251750e-05 9.56782169e-05 4.33154564e-05 7.03965197e-05
      1.62398665e-05 2.21318369e-05 2.79887299e-05 7.31015753e-05
      1.12688002e-04 4.03415579e-05 4.94632222e-05 7.71192026e-06
      -5.26699807e-07 2.22087328e-05 -5.29387216e-06 8.44705646e-05
      1.57348604e-05 7.53758868e-05 6.14213423e-05 8.05897653e-05
      6.81125457e-05 -9.30887472e-06 3.05021549e-05 -2.28220415e-05
      -1.68712068e-05 4.14948554e-05 4.95588320e-05 7.10600434e-05
      4.54036945e-06 3.39511935e-05 -1.14867653e-05 -1.63017503e-05
      5.39882603e-06 4.26582028e-06 6.60151782e-05 4.63057622e-05
      1.14594193e-04 8.11810460e-05 6.51292794e-05 8.82848908e-05
      -3.80150436e-06 4.59164694e-05 1.62674514e-05 3.83752740e-05
      6.41318111e-05 1.64307257e-05 8.68951247e-05 8.76734848e-05
      5.93638761e-05 2.90398966e-05 9.10423405e-05 1.26126761e-04
      9.73456699e-05 1.77943235e-04 1.31756839e-04 1.69132312e-04
      1.68722938e-04 1.98853813e-04 3.13853583e-04 2.99543113e-04
      3.83159408e-04 3.43860884e-04 4.55245812e-04 4.94674256e-04
      5.25062613e-04 5.39033092e-04 4.09197120e-04 4.43041703e-04
      3.99273151e-04 3.85124469e-04 3.99105076e-04 3.68586625e-04
      4.53959481e-04 4.05531027e-04 4.35497903e-04 4.52593726e-04
      4.74335480e-04 5.17609995e-04 3.64694890e-04 4.02626814e-04
      3.22748587e-04 2.43292350e-04 2.52529077e-04 1.69583145e-04
      2.26449993e-04 1.45383805e-04 9.05621346e-05 2.11786919e-05
      -1.68976658e-05 2.90238459e-05 -4.54105138e-05 2.52785831e-05
      -1.25394690e-05 -4.49633990e-05 -3.90894020e-05 -7.58825045e-05
      -3.31062183e-05 -6.93898692e-05 -3.83359475e-05</data></learnt_thetas>
  <n_labels type_id="opencv-matrix">
    <rows>2</rows>
    <cols>1</cols>
    <dt>i</dt>
    <data>
      0 1</data></n_labels>
  <o_labels type_id="opencv-matrix">
    <rows>2</rows>
    <cols>1</cols>
    <dt>i</dt>
    <data>
      0 1</data></o_labels></opencv_ml_lr>
</opencv_storage>
