<?xml version="1.0"?>
<opencv_storage>
<opencv_ml_lr>
  <format>3</format>
  <classifier>"Logisitic Regression Classifier"</classifier>
  <alpha>1.0000000000000001e-01</alpha>
  <iterations>150</iterations>
  <norm>1</norm>
  <train_method>0</train_method>
  <learnt_thetas type_id="opencv-matrix">
    <rows>1</rows>
    <cols>599</cols>
    <dt>f</dt>
    <data>
      5.60733255e-08 2.28340014e-06 2.38365487e-06 2.49667983e-06
      2.63954735e-06 2.81607936e-06 3.01806836e-06 3.22528217e-06
      3.45606782e-06 3.71877763e-06 3.99147621e-06 4.29761485e-06
      4.57554415e-06 4.84926795e-06 5.06262631e-06 5.26253189e-06
      5.30909028e-06 5.38135828e-06 5.52275287e-06 5.76512184e-06
      6.07130823e-06 6.52849440e-06 6.87939610e-06 7.04471131e-06
      7.14885346e-06 7.30713373e-06 7.68933478e-06 8.02410796e-06
      8.31686521e-06 8.44630631e-06 8.44038641e-06 8.43544058e-06
      8.40319171e-06 8.42560894e-06 8.49455319e-06 8.50675406e-06
      8.51660116e-06 8.57784380e-06 8.39803579e-06 8.16580450e-06
      7.77154946e-06 7.42738848e-06 7.25060136e-06 7.21200013e-06
      7.26397502e-06 7.29471321e-06 7.29393105e-06 7.05902175e-06
      6.95120116e-06 7.04055765e-06 7.07289291e-06 7.07457411e-06
      7.39554571e-06 7.61490855e-06 7.57289763e-06 7.46115711e-06
      7.30358215e-06 7.29010435e-06 7.26526514e-06 7.24580696e-06
      7.16873092e-06 7.04977538e-06 6.74856392e-06 6.44954207e-06
      6.44525153e-06 6.35452488e-06 6.19522280e-06 6.17584283e-06
      6.13470320e-06 6.12341682e-06 6.15824138e-06 6.17814203e-06
      6.37076346e-06 6.54312362e-06 6.71379621e-06 6.79847744e-06
      6.79083496e-06 6.78576862e-06 6.78061451e-06 6.80015046e-06
      6.77239359e-06 6.64821800e-06 6.35800961e-06 6.10534471e-06
      5.84435611e-06 5.66846620e-06 5.42023690e-06 5.19133391e-06
      5.30566558e-06 5.57393105e-06 5.83771043e-06 6.17461546e-06
      6.56158636e-06 6.86752219e-06 7.10777385e-06 7.30009288e-06
      7.48118873e-06 7.66882386e-06 7.79656602e-06 7.86734199e-06
      7.63421576e-06 7.26555527e-06 7.03956448e-06 6.84136921e-06
      6.70084410e-06 6.54543783e-06 6.39359087e-06 6.26551446e-06
      6.15381123e-06 6.03810713e-06 5.86217448e-06 5.64889842e-06
      5.43127408e-06 5.20436015e-06 4.85559758e-06 4.45831392e-06
      4.00009549e-06 3.60597778e-06 3.22097844e-06 2.79985011e-06
      2.39155361e-06 2.00695217e-06 1.59274691e-06 1.21068410e-06
      8.25068867e-07 4.37019196e-07 1.80490247e-07 2.64563891e-08
      -6.48177831e-08 -1.63670705e-07 -3.03110625e-07 -4.11753376e-07
      -4.79273638e-07 -4.43350984e-07 -3.83709022e-07 -3.43373955e-07
      -2.87126170e-07 -2.18740979e-07 -1.66947885e-07 -1.25172193e-07
      -8.24985875e-08 -4.19600958e-08 -2.63023257e-08 1.33836231e-08
      6.75553267e-08 1.00037163e-07 1.20336452e-07 9.22648624e-08
      7.57927481e-08 7.65632322e-08 6.65443594e-08 5.30051466e-06
      5.91064145e-06 7.03954356e-06 8.07845754e-06 8.02469822e-06
      1.04267001e-05 1.10197288e-05 1.34648753e-05 1.37545139e-05
      1.30555391e-05 1.26811001e-05 1.25420183e-05 1.57294253e-05
      1.59011179e-05 1.54481349e-05 1.72490873e-05 1.63609111e-05
      2.13759740e-05 2.38937082e-05 2.07612648e-05 2.01280545e-05
      2.06381010e-05 2.14621978e-05 2.33675291e-05 2.20137445e-05
      2.03223535e-05 2.10690705e-05 1.96442215e-05 2.05083088e-05
      2.30899786e-05 2.16777771e-05 1.95858647e-05 1.97318768e-05
      1.72712116e-05 2.05736706e-05 2.27707369e-05 2.65076942e-05
      2.60108045e-05 2.34664476e-05 2.38504817e-05 1.86793914e-05
      1.64657577e-05 1.49487823e-05 1.50907499e-05 1.57466002e-05
      2.29800444e-05 2.35800599e-05 2.07760568e-05 2.10866619e-05
      2.12182513e-05 1.68252955e-05 1.55938378e-05 1.49071557e-05
      1.60505951e-05 1.73812023e-05 1.98459038e-05 2.09935934e-05
      2.21735118e-05 2.07210560e-05 1.64824778e-05 1.56587066e-05
      1.57935538e-05 1.79693634e-05 1.54439058e-05 1.71003921e-05
      1.82476815e-05 1.81102387e-05 2.00899376e-05 1.95438461e-05
      1.90001356e-05 1.56469177e-05 1.27174444e-05 1.51538607e-05
      1.34642560e-05 9.31488103e-06 1.18101170e-05 1.64395424e-05
      1.85286317e-05 2.06114346e-05 2.20388611e-05 2.06590685e-05
      1.55996950e-05 1.42404160e-05 1.01408441e-05 1.27763669e-05
      1.52855791e-05 2.13173589e-05 2.23068237e-05 1.98415491e-05
      2.03064101e-05 1.53110050e-05 1.28487090e-05 1.10692708e-05
      1.29676746e-05 1.43978677e-05 1.53167712e-05 1.63573404e-05
      1.68293082e-05 1.28426846e-05 1.32410605e-05 1.69288669e-05
      1.45685972e-05 1.27361736e-05 1.63941895e-05 1.63582918e-05
      1.46502562e-05 1.44219130e-05 1.34967795e-05 1.64170633e-05
      1.63887125e-05 1.95917983e-05 1.84097044e-05 1.43236211e-05
      1.64073590e-05 1.57644681e-05 1.13490623e-05 8.61281842e-06
      1.22405627e-05 1.16665724e-05 1.12349971e-05 1.30310927e-05
      1.07842498e-05 1.10654037e-05 9.24016058e-06 8.74382931e-06
      7.03416936e-06 6.52974950e-06 5.61373372e-06 4.70031955e-06
      4.97327756e-06 2.98140822e-06 1.37794780e-06 1.43630371e-06
      9.71705958e-07 1.94064978e-06 1.43184911e-06 -1.32481457e-08
      -3.86637709e-07 -1.10184295e-07 4.50216874e-07 4.29514131e-07
      4.21555853e-07 3.33050963e-07 -1.55171502e-08 4.38869876e-07
      4.95920403e-07 3.28769033e-07 3.71951302e-07 1.45742263e-07
      -1.18125799e-05 -1.22285819e-05 -1.26894474e-05 -1.32630939e-05
      -1.38606574e-05 -1.44820287e-05 -1.50192755e-05 -1.55719135e-05
      -1.63317964e-05 -1.70873809e-05 -1.78106984e-05 -1.85981771e-05
      -1.94411823e-05 -2.03634863e-05 -2.13431995e-05 -2.22531307e-05
      -2.31956528e-05 -2.41839443e-05 -2.53035305e-05 -2.64899263e-05
      -2.76281280e-05 -2.86592076e-05 -2.95684440e-05 -3.04476707e-05
      -3.14318168e-05 -3.24460889e-05 -3.34464276e-05 -3.43743704e-05
      -3.51415256e-05 -3.57779390e-05 -3.63868021e-05 -3.69618247e-05
      -3.74003539e-05 -3.78259901e-05 -3.82963226e-05 -3.87925247e-05
      -3.92547081e-05 -3.95985007e-05 -3.99521086e-05 -4.01148463e-05
      -4.02646256e-05 -4.03456943e-05 -4.04909151e-05 -4.07353982e-05
      -4.08756932e-05 -4.09921558e-05 -4.11973233e-05 -4.13150883e-05
      -4.13024281e-05 -4.14719216e-05 -4.17046576e-05 -4.17516276e-05
      -4.17911906e-05 -4.17929332e-05 -4.17340307e-05 -4.16298681e-05
      -4.17066694e-05 -4.17872106e-05 -4.18849049e-05 -4.19698736e-05
      -4.19884818e-05 -4.18745076e-05 -4.17099436e-05 -4.15755785e-05
      -4.15004979e-05 -4.15302638e-05 -4.15728464e-05 -4.16218354e-05
      -4.15328213e-05 -4.13866765e-05 -4.12529807e-05 -4.11880028e-05
      -4.11479268e-05 -4.12595728e-05 -4.13883463e-05 -4.14092901e-05
      -4.15983523e-05 -4.16641269e-05 -4.16689873e-05 -4.15403920e-05
      -4.14020178e-05 -4.13349735e-05 -4.13348389e-05 -4.13565976e-05
      -4.12667505e-05 -4.10732282e-05 -4.08900632e-05 -4.06702529e-05
      -4.04724742e-05 -4.05800965e-05 -4.06784784e-05 -4.07433290e-05
      -4.07091429e-05 -4.05917272e-05 -4.06113322e-05 -4.06832296e-05
      -4.06741165e-05 -4.06432882e-05 -4.05645842e-05 -4.03957092e-05
      -4.01849102e-05 -3.99870296e-05 -3.97583208e-05 -3.94309864e-05
      -3.90487039e-05 -3.86642969e-05 -3.82339822e-05 -3.77782926e-05
      -3.72142240e-05 -3.65453016e-05 -3.57376375e-05 -3.48554495e-05
      -3.39352628e-05 -3.28611386e-05 -3.17342201e-05 -3.05534923e-05
      -2.93790399e-05 -2.82197379e-05 -2.70854034e-05 -2.59641802e-05
      -2.47991229e-05 -2.37277982e-05 -2.26157463e-05 -2.14763677e-05
      -2.03174204e-05 -1.90919873e-05 -1.78374285e-05 -1.64965240e-05
      -1.52468219e-05 -1.41728533e-05 -1.31433899e-05 -1.21094245e-05
      -1.12836515e-05 -1.05432910e-05 -9.90071658e-06 -9.27968449e-06
      -8.66767732e-06 -8.25774896e-06 -7.96132736e-06 -7.71565556e-06
      -7.46833530e-06 -7.29387693e-06 -7.08531570e-06 -6.86142084e-06
      -6.74046032e-06 -6.64222671e-06 -6.62889352e-06 -6.59309944e-06
      -6.52432436e-06 -6.45447926e-06 8.64058620e-06 1.04084293e-05
      1.18378066e-05 1.53288147e-05 1.50813567e-05 1.30549170e-05
      1.32175273e-05 1.84768760e-05 1.96798774e-05 1.78146565e-05
      1.97186873e-05 2.00904869e-05 2.25852436e-05 2.44514595e-05
      2.14408192e-05 2.73824789e-05 2.76823394e-05 3.01744203e-05
      3.18778984e-05 3.02600820e-05 2.73335245e-05 2.38728662e-05
      2.34968393e-05 2.65519375e-05 2.65906801e-05 2.61408186e-05
      2.85494334e-05 2.38310022e-05 1.89482398e-05 1.80173975e-05
      1.47913988e-05 1.27657968e-05 1.80128864e-05 1.74159140e-05
      1.96339388e-05 1.83496013e-05 1.32385740e-05 1.18441203e-05
      8.10695201e-06 8.46862895e-06 6.94664504e-06 6.34267144e-06
      6.51461050e-06 9.21158244e-06 8.64527556e-06 8.53989332e-06
      8.87581245e-06 6.16390525e-06 9.37520599e-06 1.01981868e-05
      8.75877140e-06 8.71464727e-06 7.55660403e-06 6.59398029e-06
      5.95986239e-06 5.21711127e-06 6.00872545e-06 9.16319368e-06
      9.18050591e-06 7.30940337e-06 5.75811146e-06 5.55937777e-06
      4.77730237e-06 5.13473242e-06 4.86460704e-06 7.38227618e-06
      6.03217677e-06 7.86102828e-06 8.45603881e-06 9.61470505e-06
      7.00986084e-06 4.61856052e-06 4.49878280e-06 3.94233666e-06
      3.23550125e-06 6.53178722e-06 7.86469627e-06 6.75565479e-06
      5.42646694e-06 5.10001382e-06 4.48670698e-06 3.95651114e-06
      3.79717380e-06 5.56122404e-06 6.30882550e-06 7.65549339e-06
      1.01680998e-05 9.20201728e-06 8.89679905e-06 8.06242133e-06
      4.77254662e-06 5.44752356e-06 5.95281972e-06 6.55955910e-06
      7.57721773e-06 6.08400069e-06 7.60170224e-06 1.00010966e-05
      6.66627693e-06 6.68480925e-06 1.02183831e-05 1.04409482e-05
      1.08264439e-05 1.27248823e-05 1.25667639e-05 1.34321390e-05
      1.38919713e-05 1.63410932e-05 2.05209308e-05 2.19838203e-05
      2.45618376e-05 2.46570125e-05 3.02905137e-05 3.15748111e-05
      3.47504247e-05 3.29014256e-05 2.81367247e-05 2.85144033e-05
      2.74726663e-05 2.68220920e-05 2.56193525e-05 2.59117896e-05
      2.83119371e-05 2.79897249e-05 2.88546162e-05 2.97824190e-05
      3.18288803e-05 3.18787424e-05 2.55917348e-05 2.58084710e-05
      2.32214297e-05 1.86616089e-05 1.77712263e-05 1.47132896e-05
      1.53212386e-05 1.33101794e-05 8.82718268e-06 5.81453196e-06
      4.24756900e-06 4.65354924e-06 2.62858089e-06 4.29939064e-06
      4.36944811e-06 1.99684655e-06 1.81185669e-06 8.83135442e-07
      8.58208693e-07 1.24440919e-06 1.15102137e-06</data></learnt_thetas>
  <n_labels type_id="opencv-matrix">
    <rows>2</rows>
    <cols>1</cols>
    <dt>i</dt>
    <data>
      0 1</data></n_labels>
  <o_labels type_id="opencv-matrix">
    <rows>2</rows>
    <cols>1</cols>
    <dt>i</dt>
    <data>
      0 1</data></o_labels></opencv_ml_lr>
</opencv_storage>
