<?xml version="1.0"?>
<opencv_storage>
<opencv_ml_lr>
  <format>3</format>
  <classifier>"Logisitic Regression Classifier"</classifier>
  <alpha>2.9999999999999999e-01</alpha>
  <iterations>150</iterations>
  <norm>1</norm>
  <train_method>0</train_method>
  <learnt_thetas type_id="opencv-matrix">
    <rows>1</rows>
    <cols>299</cols>
    <dt>f</dt>
    <data>
      -3.06295448e-07 1.58450366e-05 1.76894318e-05 2.10583748e-05
      2.41930611e-05 2.40132540e-05 3.12203010e-05 3.29996365e-05
      4.03200575e-05 4.12069458e-05 3.90913556e-05 3.79804187e-05
      3.75550626e-05 4.71071362e-05 4.76310124e-05 4.62606840e-05
      5.16763939e-05 4.90021703e-05 6.40401558e-05 7.15819770e-05
      6.21854269e-05 6.02996261e-05 6.18210033e-05 6.43000021e-05
      7.00014061e-05 6.59456491e-05 6.08759074e-05 6.31141011e-05
      5.88537732e-05 6.14321980e-05 6.91781897e-05 6.49316353e-05
      5.86667811e-05 5.91101525e-05 5.17291810e-05 6.16386096e-05
      6.82085738e-05 7.94246735e-05 7.79259644e-05 7.03000333e-05
      7.14597481e-05 5.59448818e-05 4.93297703e-05 4.47650018e-05
      4.51987689e-05 4.71630265e-05 6.88380751e-05 7.06572609e-05
      6.22328371e-05 6.31771109e-05 6.35552933e-05 5.03889096e-05
      4.67132559e-05 4.46372796e-05 4.80864401e-05 5.20562389e-05
      5.94525736e-05 6.28943744e-05 6.64199979e-05 6.20842620e-05
      4.93610241e-05 4.69054794e-05 4.73011169e-05 5.38207605e-05
      4.62628595e-05 5.12149454e-05 5.46691372e-05 5.42455309e-05
      6.01854954e-05 5.85449525e-05 5.69090407e-05 4.68705184e-05
      3.80817401e-05 4.53943103e-05 4.03197591e-05 2.78834086e-05
      3.53626165e-05 4.92381332e-05 5.55091647e-05 6.17411133e-05
      6.60275764e-05 6.18802951e-05 4.67219179e-05 4.26513216e-05
      3.03560737e-05 3.82649268e-05 4.57673523e-05 6.38603524e-05
      6.68155189e-05 5.94289668e-05 6.08332266e-05 4.58499489e-05
      3.84839259e-05 3.31275733e-05 3.88288900e-05 4.31162662e-05
      4.58591821e-05 4.89967642e-05 5.03925112e-05 3.84564373e-05
      3.96332871e-05 5.06980505e-05 4.36404407e-05 3.81332975e-05
      4.91174433e-05 4.89897466e-05 4.38749521e-05 4.31896806e-05
      4.04054917e-05 4.91836909e-05 4.90817511e-05 5.86959432e-05
      5.51430385e-05 4.28918611e-05 4.91482642e-05 4.72097199e-05
      3.39890539e-05 2.57759275e-05 3.66582572e-05 3.49337461e-05
      3.36334670e-05 3.90291607e-05 3.22862143e-05 3.31394222e-05
      2.76582796e-05 2.61723435e-05 2.10474900e-05 1.95340617e-05
      1.67987491e-05 1.40502862e-05 1.48760291e-05 8.89306557e-06
      4.09222821e-06 4.26931456e-06 2.87439502e-06 5.78871914e-06
      4.24802920e-06 -7.33757020e-08 -1.20591119e-06 -3.71222939e-07
      1.31811146e-06 1.24370001e-06 1.23826214e-06 9.54164193e-07
      -8.19973494e-08 1.27904457e-06 1.44396085e-06 9.62406148e-07
      1.07207995e-06 4.09477593e-07 2.58598284e-05 3.11748809e-05
      3.54418989e-05 4.59280745e-05 4.51662381e-05 3.90985406e-05
      3.95875941e-05 5.53427199e-05 5.89654628e-05 5.33543425e-05
      5.90732852e-05 6.01797910e-05 6.76555283e-05 7.32577901e-05
      6.42198793e-05 8.20470159e-05 8.29346900e-05 9.04074695e-05
      9.55090509e-05 9.06545392e-05 8.18957415e-05 7.15160058e-05
      7.03997503e-05 7.95464293e-05 7.96634122e-05 7.83141877e-05
      8.55328035e-05 7.14005218e-05 5.67554271e-05 5.39721077e-05
      4.42911114e-05 3.82254439e-05 5.39563407e-05 5.21618640e-05
      5.88222174e-05 5.49577817e-05 3.96513169e-05 3.54603180e-05
      2.42607985e-05 2.53538783e-05 2.07790290e-05 1.89869515e-05
      1.94833210e-05 2.75756811e-05 2.58767996e-05 2.55548784e-05
      2.65817034e-05 1.84326855e-05 2.80741515e-05 3.05249741e-05
      2.62092053e-05 2.60929919e-05 2.26079301e-05 1.97414683e-05
      1.78219143e-05 1.56022234e-05 1.79769067e-05 2.74230333e-05
      2.74933300e-05 2.18658952e-05 1.72287073e-05 1.66247064e-05
      1.42793724e-05 1.53607780e-05 1.45383574e-05 2.21009504e-05
      1.80434654e-05 2.35289262e-05 2.53078579e-05 2.87755811e-05
      2.09805821e-05 1.38052937e-05 1.34561287e-05 1.17780910e-05
      9.66142670e-06 1.95411012e-05 2.35357729e-05 2.02213159e-05
      1.62270808e-05 1.52557905e-05 1.34054799e-05 1.18219759e-05
      1.13443984e-05 1.66282080e-05 1.88807899e-05 2.29025773e-05
      3.04467485e-05 2.75413695e-05 2.66288534e-05 2.41367325e-05
      1.42630633e-05 1.63039222e-05 1.77985130e-05 1.96276469e-05
      2.26759075e-05 1.81902542e-05 2.27605069e-05 2.99356525e-05
      1.99568822e-05 1.99970491e-05 3.05886933e-05 3.12712946e-05
      3.24113862e-05 3.81214813e-05 3.76272037e-05 4.02270452e-05
      4.16071998e-05 4.89424601e-05 6.14906603e-05 6.58588178e-05
      7.35984067e-05 7.38748276e-05 9.07594949e-05 9.46176151e-05
      1.04123144e-04 9.85946972e-05 8.42982772e-05 8.54370446e-05
      8.23106820e-05 8.03556031e-05 7.67646270e-05 7.76325760e-05
      8.48372219e-05 8.38610140e-05 8.64546382e-05 8.92355747e-05
      9.53685376e-05 9.55281284e-05 7.66723751e-05 7.73305728e-05
      6.95634808e-05 5.59011023e-05 5.32362537e-05 4.40632029e-05
      4.58973191e-05 3.98536540e-05 2.64275150e-05 1.73851276e-05
      1.26916148e-05 1.39186832e-05 7.83536780e-06 1.28613947e-05
      1.30533399e-05 5.94980884e-06 5.39393204e-06 2.60459910e-06
      2.54947349e-06 3.68766541e-06 3.42321368e-06</data></learnt_thetas>
  <n_labels type_id="opencv-matrix">
    <rows>2</rows>
    <cols>1</cols>
    <dt>i</dt>
    <data>
      0 1</data></n_labels>
  <o_labels type_id="opencv-matrix">
    <rows>2</rows>
    <cols>1</cols>
    <dt>i</dt>
    <data>
      0 1</data></o_labels></opencv_ml_lr>
</opencv_storage>
