<?xml version="1.0"?>
<opencv_storage>
<opencv_ml_lr>
  <format>3</format>
  <classifier>"Logisitic Regression Classifier"</classifier>
  <alpha>300.</alpha>
  <iterations>300</iterations>
  <norm>1</norm>
  <train_method>0</train_method>
  <learnt_thetas type_id="opencv-matrix">
    <rows>1</rows>
    <cols>2550</cols>
    <dt>f</dt>
    <data>
      -1.82641760e-01 1.68846436e-02 1.47379152e-02 1.87269934e-02
      1.70191880e-02 2.13049967e-02 2.35557277e-02 2.44625155e-02
      2.99733412e-02 2.72641871e-02 2.95220278e-02 2.46870201e-02
      2.62558684e-02 3.18265595e-02 3.03554833e-02 3.21491249e-02
      3.15171890e-02 3.31768952e-02 3.93609703e-02 4.43200096e-02
      3.87202613e-02 3.57182994e-02 3.80091928e-02 3.58589143e-02
      4.08270098e-02 3.94182988e-02 3.75617445e-02 3.95282283e-02
      3.46311256e-02 3.79592180e-02 4.01949994e-02 4.02458757e-02
      3.56942974e-02 3.50581445e-02 3.26879025e-02 3.47069465e-02
      4.09985818e-02 4.51661423e-02 4.68321815e-02 4.26718667e-02
      4.08339798e-02 3.41236480e-02 2.80693080e-02 2.97868494e-02
      2.93413661e-02 3.03761680e-02 4.24639285e-02 4.04081456e-02
      3.98645736e-02 3.63356881e-02 3.90785448e-02 3.22859064e-02
      2.77972948e-02 3.03023234e-02 2.89929770e-02 3.51536050e-02
      3.79145592e-02 3.92643176e-02 4.03149873e-02 3.42754126e-02
      3.18367258e-02 2.80629024e-02 3.04652825e-02 3.39676812e-02
      2.96958629e-02 3.42565700e-02 3.24243791e-02 3.44427936e-02
      3.55295576e-02 3.57659832e-02 3.63017321e-02 2.93764807e-02
      2.69738622e-02 2.82230657e-02 2.80745756e-02 2.04571541e-02
      2.39096563e-02 3.17870416e-02 3.26039195e-02 3.76984626e-02
      3.85789685e-02 3.89090702e-02 3.06366775e-02 2.70569976e-02
      2.24001650e-02 2.26730537e-02 2.98926439e-02 3.77657190e-02
      4.17201743e-02 3.95475291e-02 3.81236114e-02 3.31931300e-02
      2.64333691e-02 2.77820341e-02 2.78896354e-02 2.89217252e-02
      3.28565277e-02 3.10946293e-02 3.47342826e-02 2.90776286e-02
      3.22140828e-02 3.37238684e-02 2.77067646e-02 2.72053462e-02
      2.87535209e-02 3.22285779e-02 2.86981408e-02 2.91999169e-02
      3.01640611e-02 3.00593507e-02 3.30939330e-02 3.52938324e-02
      3.58592570e-02 3.03755961e-02 3.13486494e-02 3.20661031e-02
      2.31743921e-02 2.12198943e-02 2.49355584e-02 2.52602790e-02
      2.49295309e-02 2.49422137e-02 2.33064052e-02 2.12120749e-02
      2.13022381e-02 1.99007802e-02 1.75634939e-02 1.73580833e-02
      1.33424457e-02 1.47751998e-02 1.30556356e-02 1.27644986e-02
      9.76133812e-03 9.01079271e-03 9.00637358e-03 8.06122087e-03
      1.06230862e-02 6.86314888e-03 8.87967180e-03 8.16881191e-03
      6.29605213e-03 9.04049911e-03 5.46670007e-03 8.91716685e-03
      7.12479651e-03 7.50230812e-03 8.71065538e-03 4.05579666e-03
      8.72934051e-03 4.79894923e-03 2.29071062e-02 2.28612199e-02
      2.76876055e-02 2.89460551e-02 3.20621543e-02 2.67104190e-02
      2.68407017e-02 3.59726101e-02 3.39468345e-02 3.40719819e-02
      3.34254056e-02 3.59991081e-02 3.99328507e-02 4.02418002e-02
      3.82711068e-02 4.35341783e-02 4.64746617e-02 4.85581569e-02
      5.19951582e-02 5.01302816e-02 4.41548228e-02 4.10507619e-02
      3.81031632e-02 4.54457067e-02 4.47888598e-02 4.35759202e-02
      4.79771197e-02 3.90897691e-02 3.46992835e-02 3.18530202e-02
      2.97087152e-02 2.60119680e-02 3.16672921e-02 3.23654860e-02
      3.33322808e-02 3.47201638e-02 2.52325572e-02 2.45155003e-02
      1.91207211e-02 1.76126547e-02 1.83012448e-02 1.39198899e-02
      1.72857530e-02 1.96602065e-02 1.90166831e-02 2.04280782e-02
      1.73048619e-02 1.74052417e-02 1.93926077e-02 2.32478287e-02
      1.97248608e-02 1.70792267e-02 1.89453103e-02 1.37385894e-02
      1.67575032e-02 1.40708480e-02 1.52736958e-02 2.15869602e-02
      1.76414661e-02 1.83473062e-02 1.34652089e-02 1.57346874e-02
      1.40969725e-02 1.28874816e-02 1.49309821e-02 1.52733000e-02
      1.61642451e-02 1.68086737e-02 1.86905097e-02 2.17241310e-02
      1.58055108e-02 1.40436674e-02 1.14405230e-02 1.32024279e-02
      1.15448777e-02 1.54856499e-02 1.87780671e-02 1.47565864e-02
      1.53599801e-02 1.28857289e-02 1.47015303e-02 1.27343191e-02
      1.24420300e-02 1.63659845e-02 1.41488286e-02 1.85521692e-02
      1.94727052e-02 2.02880129e-02 2.08513699e-02 1.75544880e-02
      1.52978301e-02 1.29906451e-02 1.78996082e-02 1.64798386e-02
      1.75863951e-02 1.78974532e-02 1.65030845e-02 2.35696416e-02
      1.63957868e-02 1.91040877e-02 2.47077420e-02 2.21408233e-02
      2.50894483e-02 2.44021546e-02 2.74818446e-02 2.67219841e-02
      2.74174754e-02 3.34201418e-02 3.73728313e-02 4.38609645e-02
      4.50784788e-02 4.67858575e-02 5.52522428e-02 5.52860387e-02
      6.22560047e-02 5.54472469e-02 4.90547791e-02 4.82081138e-02
      4.80381325e-02 4.82104272e-02 4.48533855e-02 4.65511344e-02
      4.79826592e-02 5.00618108e-02 5.06307818e-02 5.21852076e-02
      5.59182316e-02 5.34877107e-02 4.66780663e-02 4.49474417e-02
      4.35324684e-02 3.52840126e-02 3.24300304e-02 2.96344962e-02
      2.78475937e-02 2.81371586e-02 1.93361025e-02 1.72125157e-02
      1.43363187e-02 1.22113461e-02 1.21912323e-02 1.15567325e-02
      1.51168276e-02 1.02064852e-02 9.70284641e-03 9.33700148e-03
      4.94711241e-03 1.00028366e-02 6.40844181e-03 -1.82639062e-01
      2.94362567e-03 -3.57555635e-02 1.82837732e-02 -4.61611105e-03
      5.69300144e-04 7.84734637e-03 -1.33953737e-02 9.25870496e-04
      -8.87945236e-04 5.73064666e-03 -1.93054695e-03 -1.25143968e-03
      7.03771439e-05 4.35728260e-04 3.60408472e-03 3.10018379e-03
      -3.56617384e-02 1.81152150e-02 -4.57044272e-03 5.21193899e-04
      7.72255659e-03 -1.33734895e-02 9.09405237e-04 -9.22163192e-04
      5.64788515e-03 -1.91966130e-03 -1.25771167e-03 5.91906319e-05
      4.15144867e-04 3.54706403e-03 3.26609029e-03 -3.55555713e-02
      1.79453399e-02 -4.51649493e-03 4.80724353e-04 7.59374583e-03
      -1.33473687e-02 8.98739265e-04 -9.52095550e-04 5.55822626e-03
      -1.90697133e-03 -1.26084348e-03 5.14442909e-05 3.96174088e-04
      3.48153850e-03 3.45313270e-03 -3.54407839e-02 1.77735910e-02
      -4.46226448e-03 4.50919004e-04 7.44428206e-03 -1.33237792e-02
      8.94622994e-04 -9.79314907e-04 5.43866167e-03 -1.89689780e-03
      -1.26120809e-03 4.74849403e-05 3.74016789e-04 3.38605582e-03
      3.71109298e-03 -3.52847502e-02 1.75693557e-02 -4.39271098e-03
      4.10915469e-04 7.25324312e-03 -1.32971173e-02 8.87158210e-04
      -1.02280360e-03 5.28606679e-03 -1.88788166e-03 -1.26303406e-03
      3.78826517e-05 3.38027399e-04 3.26812547e-03 4.02282877e-03
      -3.50928120e-02 1.73386578e-02 -4.30624280e-03 3.63941886e-04
      7.03418255e-03 -1.32639902e-02 8.78431543e-04 -1.07709470e-03
      5.11532603e-03 -1.87694607e-03 -1.26485014e-03 2.46921027e-05
      2.93946418e-04 3.14067630e-03 4.32653446e-03 -3.49017382e-02
      1.72049161e-02 -4.21756087e-03 3.62311635e-04 6.88479375e-03
      -1.32279079e-02 8.89436516e-04 -1.10049557e-03 4.99337632e-03
      -1.86344318e-03 -1.25830912e-03 2.44416424e-05 2.69324897e-04
      3.05047794e-03 4.66028694e-03 -3.46740484e-02 1.70781054e-02
      -4.10014344e-03 3.71216971e-04 6.73990510e-03 -1.31734377e-02
      9.08816233e-04 -1.12030667e-03 4.87773726e-03 -1.83945580e-03
      -1.24637538e-03 2.65920935e-05 2.47317425e-04 2.96745170e-03
      5.03078243e-03 -3.44068035e-02 1.68668535e-02 -3.95217631e-03
      3.57378769e-04 6.50537154e-03 -1.30992411e-02 9.24329739e-04
      -1.16935244e-03 4.68955003e-03 -1.80412410e-03 -1.23346155e-03
      1.94510958e-05 2.01387375e-04 2.83199735e-03 5.38377510e-03
      -3.41391712e-02 1.66766234e-02 -3.79528780e-03 3.55481752e-04
      6.28562551e-03 -1.30155673e-02 9.46683285e-04 -1.21053949e-03
      4.51268489e-03 -1.76157407e-03 -1.21674512e-03 1.61593980e-05
      1.61267162e-04 2.70420127e-03 5.74056804e-03 -3.38720046e-02
      1.65440701e-02 -3.63952550e-03 3.80097918e-04 6.09367946e-03
      -1.29322195e-02 9.79571603e-04 -1.23714283e-03 4.34726663e-03
      -1.71865500e-03 -1.19627558e-03 1.93198757e-05 1.27913139e-04
      2.57997587e-03 6.03553979e-03 -3.36601399e-02 1.63789354e-02
      -3.52032832e-03 3.89875000e-04 5.87204518e-03 -1.28705017e-02
      1.00652443e-03 -1.27607980e-03 4.16309433e-03 -1.68777828e-03
      -1.17800781e-03 1.80249226e-05 8.68260468e-05 2.44279462e-03
      6.30667713e-03 -3.34604047e-02 1.61850136e-02 -3.40674864e-03
      3.92067537e-04 5.63983805e-03 -1.28115527e-02 1.03251892e-03
      -1.31912634e-03 3.97816952e-03 -1.65836234e-03 -1.15908647e-03
      1.54605368e-05 4.46869090e-05 2.30764365e-03 6.45431224e-03
      -3.32843140e-02 1.58691555e-02 -3.26647586e-03 3.38321814e-04
      5.34011656e-03 -1.27171539e-02 1.03963935e-03 -1.39621634e-03
      3.75148444e-03 -1.60030229e-03 -1.14371965e-03 -1.64280254e-06
      -1.85056288e-05 2.14738632e-03 6.57261210e-03 -3.31201069e-02
      1.55476881e-02 -3.12863686e-03 2.83286179e-04 5.02757402e-03
      -1.26219066e-02 1.04539446e-03 -1.47424638e-03 3.51439323e-03
      -1.54053245e-03 -1.12952455e-03 -1.89450493e-05 -8.14265004e-05
      1.97861088e-03 6.46524644e-03 -3.31796743e-02 1.52537143e-02
      -3.16274096e-03 2.17623528e-04 4.74027870e-03 -1.26449596e-02
      1.03090878e-03 -1.54208683e-03 3.28998617e-03 -1.55709928e-03
      -1.13378954e-03 -3.42713975e-05 -1.36569492e-04 1.81576156e-03
      6.45201188e-03 -3.31633836e-02 1.49649326e-02 -3.14537180e-03
      1.55906557e-04 4.44881106e-03 -1.26352264e-02 1.01989345e-03
      -1.61115010e-03 3.06443358e-03 -1.55340903e-03 -1.13483600e-03
      -5.02357943e-05 -1.92082924e-04 1.65533787e-03 6.60432875e-03
      -3.30309570e-02 1.46684516e-02 -3.06169037e-03 9.68991444e-05
      4.16154321e-03 -1.25885755e-02 1.01200107e-03 -1.67888333e-03
      2.84921494e-03 -1.52887567e-03 -1.13328884e-03 -6.61626764e-05
      -2.44366354e-04 1.50560902e-03 6.86955871e-03 -3.28777842e-02
      1.43765667e-02 -2.99685053e-03 5.07608929e-05 3.83936171e-03
      -1.25666112e-02 1.00899499e-03 -1.75016292e-03 2.59700115e-03
      -1.52408436e-03 -1.13133225e-03 -8.12883591e-05 -3.04221554e-04
      1.32632162e-03 7.21972855e-03 -3.26581076e-02 1.40896579e-02
      -2.88737100e-03 1.89904022e-05 3.51006910e-03 -1.25162015e-02
      1.01766130e-03 -1.82079035e-03 2.34207069e-03 -1.50160084e-03
      -1.12146453e-03 -9.45549764e-05 -3.64826119e-04 1.14885962e-03
      7.81896152e-03 -3.23204361e-02 1.38782645e-02 -2.73480429e-03
      2.05759679e-05 3.20849754e-03 -1.24496901e-02 1.03831140e-03
      -1.88320223e-03 2.10510939e-03 -1.47141074e-03 -1.10732729e-03
      -1.05894520e-04 -4.22379759e-04 9.87895182e-04 8.26522242e-03
      -3.20725329e-02 1.36636076e-02 -2.61757337e-03 1.01223413e-05
      2.93925707e-03 -1.23924101e-02 1.05371582e-03 -1.94062479e-03
      1.89908477e-03 -1.44091551e-03 -1.09414523e-03 -1.16261916e-04
      -4.73270222e-04 8.50157929e-04 8.42964835e-03 -3.20050642e-02
      1.34115461e-02 -2.58855149e-03 -4.26460902e-05 2.69512762e-03
      -1.23735238e-02 1.04503788e-03 -2.00202921e-03 1.72630849e-03
      -1.42605975e-03 -1.09263579e-03 -1.31793451e-04 -5.19148423e-04
      7.39542069e-04 8.56200047e-03 -3.19417901e-02 1.31071834e-02
      -2.55983928e-03 -1.24503320e-04 2.42906203e-03 -1.23580052e-02
      1.02185144e-03 -2.07913411e-03 1.55023672e-03 -1.41674490e-03
      -1.09908369e-03 -1.55495509e-04 -5.71262848e-04 6.33175194e-04
      8.83974228e-03 -3.17634866e-02 1.27710057e-02 -2.45879684e-03
      -2.04614247e-04 2.12935451e-03 -1.23016229e-02 1.00567553e-03
      -2.16443115e-03 1.35516329e-03 -1.38564629e-03 -1.10006472e-03
      -1.80587667e-04 -6.28550653e-04 5.17835608e-04 9.44410823e-03
      -3.13871652e-02 1.25034964e-02 -2.26580584e-03 -2.46180512e-04
      1.85775419e-03 -1.22076441e-02 1.00615795e-03 -2.23773019e-03
      1.17768254e-03 -1.34068809e-03 -1.09482114e-03 -2.01480972e-04
      -6.79399294e-04 4.13973670e-04 9.98046808e-03 -3.10221668e-02
      1.21793421e-02 -2.06122361e-03 -3.22227046e-04 1.58974843e-03
      -1.20997792e-02 9.91708366e-04 -2.31914246e-03 1.01805152e-03
      -1.28536473e-03 -1.09520729e-03 -2.27775410e-04 -7.28571904e-04
      3.26919224e-04 1.04817748e-02 -3.06902882e-02 1.18594998e-02
      -1.87871535e-03 -4.06543724e-04 1.34003442e-03 -1.20051289e-02
      9.70260531e-04 -2.39705667e-03 8.72172066e-04 -1.23768393e-03
      -1.09975180e-03 -2.54159590e-04 -7.73375388e-04 2.47612043e-04
      1.07026882e-02 -3.05943191e-02 1.15638170e-02 -1.84875971e-03
      -5.15432213e-04 1.14342035e-03 -1.20004816e-02 9.24968277e-04
      -2.46487907e-03 7.64689117e-04 -1.24102877e-03 -1.11986848e-03
      -2.80770182e-04 -8.07090837e-04 1.90486026e-04 1.06845079e-02
      -3.07264961e-02 1.13045676e-02 -1.98279764e-03 -6.34352094e-04
      9.86848609e-04 -1.21000037e-02 8.61912791e-04 -2.52223271e-03
      6.83921447e-04 -1.30629458e-03 -1.15421298e-03 -3.06073256e-04
      -8.32328340e-04 1.49103173e-04 1.06829470e-02 -3.08344513e-02
      1.10710924e-02 -2.09818361e-03 -7.34113390e-04 8.48435157e-04
      -1.21871457e-02 8.09041667e-04 -2.56705843e-03 6.10971358e-04
      -1.36369059e-03 -1.18337420e-03 -3.25388217e-04 -8.51298915e-04
      1.09875094e-04 1.06799323e-02 -3.09615806e-02 1.08841378e-02
      -2.23071640e-03 -8.13956081e-04 7.40756514e-04 -1.22844111e-02
      7.62304233e-04 -2.59618158e-03 5.50225144e-04 -1.42588001e-03
      -1.21103215e-03 -3.38433019e-04 -8.62980902e-04 7.44717108e-05
      1.07886521e-02 -3.09461486e-02 1.07582696e-02 -2.25218805e-03
      -8.50197801e-04 6.27039815e-04 -1.23089906e-02 7.44302466e-04
      -2.62414617e-03 4.69451159e-04 -1.44413533e-03 -1.22178486e-03
      -3.47934954e-04 -8.81743792e-04 2.15787168e-05 1.09557034e-02
      -3.08647826e-02 1.06326975e-02 -2.22356385e-03 -8.76907958e-04
      5.05866017e-04 -1.23002324e-02 7.35141977e-04 -2.65280227e-03
      3.83151200e-04 -1.44145545e-03 -1.22647884e-03 -3.56449193e-04
      -9.02236789e-04 -3.33945791e-05 1.10200401e-02 -3.09033878e-02
      1.04821650e-02 -2.28622230e-03 -9.29527392e-04 3.71070433e-04
      -1.23494714e-02 7.05597748e-04 -2.68772966e-03 2.90359400e-04
      -1.47223414e-03 -1.24449527e-03 -3.68991023e-04 -9.24419088e-04
      -9.17928337e-05 1.10392496e-02 -3.09449174e-02 1.02917450e-02
      -2.33676960e-03 -9.96098970e-04 2.23108858e-04 -1.23868482e-02
      6.73853909e-04 -2.72953068e-03 2.00400813e-04 -1.49499520e-03
      -1.26155594e-03 -3.83574690e-04 -9.47727298e-04 -1.43816957e-04
      1.10617494e-02 -3.09658553e-02 1.01168947e-02 -2.36636051e-03
      -1.05303386e-03 9.22432519e-05 -1.24096349e-02 6.49062276e-04
      -2.76592770e-03 1.23968595e-04 -1.50918623e-03 -1.27418246e-03
      -3.95601121e-04 -9.67601314e-04 -1.86277190e-04 1.07500460e-02
      -3.11720334e-02 9.91277955e-03 -2.47451384e-03 -1.13521493e-03
      -2.97895403e-05 -1.24624018e-02 6.15188212e-04 -2.80595012e-03
      5.89997326e-05 -1.53414370e-03 -1.28859759e-03 -4.09330911e-04
      -9.87242092e-04 -2.19379523e-04 1.03609385e-02 -3.13942321e-02
      9.67217144e-03 -2.57237232e-03 -1.23324175e-03 -1.51335669e-04
      -1.25009315e-02 5.77769591e-04 -2.84942449e-03 1.27729800e-06
      -1.54801155e-03 -1.30235520e-03 -4.24647325e-04 -1.00648566e-03
      -2.46414915e-04 9.73191485e-03 -3.17416750e-02 9.44938976e-03
      -2.72775535e-03 -1.33386406e-03 -2.48918019e-04 -1.25661101e-02
      5.37488726e-04 -2.88829557e-03 -4.31429726e-05 -1.57451036e-03
      -1.31791912e-03 -4.39173018e-04 -1.02271943e-03 -2.66469433e-04
      9.18340404e-03 -3.20138112e-02 9.25270002e-03 -2.83511821e-03
      -1.41501823e-03 -3.35430814e-04 -1.26038995e-02 5.08129888e-04
      -2.92102713e-03 -8.09310004e-05 -1.58612279e-03 -1.32772338e-03
      -4.50827443e-04 -1.03618414e-03 -2.82818859e-04 8.87825061e-03
      -3.21524814e-02 9.14603565e-03 -2.87193013e-03 -1.45920075e-03
      -3.87731154e-04 -1.26020908e-02 4.93894680e-04 -2.94076093e-03
      -1.04565930e-04 -1.57486403e-03 -1.33065949e-03 -4.57688671e-04
      -1.04461552e-03 -2.93089746e-04 8.78822152e-03 -3.21999975e-02
      9.07625444e-03 -2.88421009e-03 -1.48215541e-03 -4.32311557e-04
      -1.25982296e-02 4.87802521e-04 -2.95568281e-03 -1.24635539e-04
      -1.56649679e-03 -1.33103563e-03 -4.62556665e-04 -1.05138076e-03
      -3.01340537e-04 8.85718409e-03 -3.22000682e-02 9.01879184e-03
      -2.90629477e-03 -1.49404828e-03 -4.77461261e-04 -1.26189338e-02
      4.84122836e-04 -2.96770781e-03 -1.44632912e-04 -1.58064766e-03
      -1.33288116e-03 -4.66039259e-04 -1.05703459e-03 -3.09168274e-04
      8.88984650e-03 -3.22025605e-02 8.95554200e-03 -2.91601988e-03
      -1.51713332e-03 -5.16260159e-04 -1.26272086e-02 4.75938868e-04
      -2.98207579e-03 -1.62718701e-04 -1.58640509e-03 -1.33569527e-03
      -4.71065985e-04 -1.06387027e-03 -3.15879442e-04 8.88323784e-03
      -3.22049372e-02 8.88496172e-03 -2.90927221e-03 -1.54250674e-03
      -5.48417331e-04 -1.26190726e-02 4.69428138e-04 -2.99455062e-03
      -1.75625828e-04 -1.58053229e-03 -1.33604114e-03 -4.75081324e-04
      -1.06902770e-03 -3.20225401e-04 8.60871840e-03 -3.23940180e-02
      8.72997008e-03 -2.99782190e-03 -1.61140587e-03 -6.00109226e-04
      -1.26540577e-02 4.43850236e-04 -3.01434053e-03 -1.91379804e-04
      -1.59307488e-03 -1.34398835e-03 -4.81517171e-04 -1.07461074e-03
      -3.25256144e-04 8.49319808e-03 -3.24672312e-02 8.65197275e-03
      -3.02660628e-03 -1.64059899e-03 -6.20196981e-04 -1.26624526e-02
      4.36533242e-04 -3.02041182e-03 -1.95707908e-04 -1.59475056e-03
      -1.34409429e-03 -4.82321542e-04 -1.07551296e-03 -3.26490583e-04
      8.62922799e-03 -3.23874876e-02 8.68049078e-03 -2.99012661e-03
      -1.62251899e-03 -6.03657798e-04 -1.26482593e-02 4.47093480e-04
      -3.01243318e-03 -1.88954902e-04 -1.59039325e-03 -1.33841520e-03
      -4.78316069e-04 -1.07238721e-03 -3.24402616e-04 8.69994052e-03
      -3.23637538e-02 8.62649828e-03 -2.99839373e-03 -1.63232349e-03
      -6.23383326e-04 -1.26652829e-02 4.44435689e-04 -3.01479246e-03
      -1.95416593e-04 -1.60536752e-03 -1.34035212e-03 -4.78047965e-04
      -1.07283343e-03 -3.26681969e-04 8.73659179e-03 -3.23391072e-02
      8.53861868e-03 -3.00346431e-03 -1.64929545e-03 -6.54007716e-04
      -1.26814079e-02 4.40099102e-04 -3.01959831e-03 -2.04322409e-04
      -1.62044063e-03 -1.34298694e-03 -4.78419766e-04 -1.07374869e-03
      -3.29515082e-04 9.25868656e-03 -3.20187286e-02 8.61728005e-03
      -2.85488949e-03 -1.58776820e-03 -6.33971707e-04 -1.26211001e-02
      4.71401203e-04 -3.00230691e-03 -2.01995397e-04 -1.59842824e-03
      -1.32940791e-03 -4.69212711e-04 -1.06999185e-03 -3.29593895e-04
      9.63143818e-03 -3.17695513e-02 8.65544099e-03 -2.72743101e-03
      -1.55080447e-03 -6.21084298e-04 -1.25630554e-02 4.92408406e-04
      -2.99158832e-03 -1.99349626e-04 -1.57392782e-03 -1.31934055e-03
      -4.63355042e-04 -1.06735434e-03 -3.29152244e-04 9.61832330e-03
      -3.17643508e-02 8.62147845e-03 -2.71694711e-03 -1.56859460e-03
      -6.23605505e-04 -1.25548700e-02 4.85152414e-04 -2.99560488e-03
      -1.98968948e-04 -1.56919658e-03 -1.32211216e-03 -4.65599936e-04
      -1.06827472e-03 -3.28850612e-04 9.48491413e-03 -3.18633839e-02
      8.60907044e-03 -2.77128955e-03 -1.59131025e-03 -6.17779500e-04
      -1.25812851e-02 4.69166436e-04 -2.99863378e-03 -1.94750843e-04
      -1.58125511e-03 -1.33126043e-03 -4.68883052e-04 -1.06816995e-03
      -3.27085523e-04 9.28041246e-03 -3.20131183e-02 8.61048419e-03
      -2.85628974e-03 -1.61460869e-03 -6.04937668e-04 -1.26247359e-02
      4.49599582e-04 -2.99977930e-03 -1.87461439e-04 -1.60212920e-03
      -1.34346855e-03 -4.72098531e-04 -1.06698996e-03 -3.24262364e-04
      9.22937598e-03 -3.20565328e-02 8.56258720e-03 -2.88380939e-03
      -1.64280168e-03 -6.27502741e-04 -1.26392487e-02 4.32581262e-04
      -3.01101711e-03 -1.95267959e-04 -1.60874357e-03 -1.35302776e-03
      -4.78247064e-04 -1.07053865e-03 -3.26787384e-04 9.13578458e-03
      -3.20790894e-02 8.50152597e-03 -2.88137933e-03 -1.66810781e-03
      -6.56185788e-04 -1.26326047e-02 4.21589037e-04 -3.02290986e-03
      -2.04396405e-04 -1.60326180e-03 -1.35799090e-03 -4.83565935e-04
      -1.07416499e-03 -3.29738745e-04 9.01328959e-03 -3.20671685e-02
      8.44507013e-03 -2.84372806e-03 -1.68029242e-03 -6.91019173e-04
      -1.26047768e-02 4.21291334e-04 -3.03378515e-03 -2.17026827e-04
      -1.58736634e-03 -1.35665771e-03 -4.86837904e-04 -1.07834756e-03
      -3.33764794e-04 8.81449878e-03 -3.21195014e-02 8.36764649e-03
      -2.83963489e-03 -1.71088148e-03 -7.22886878e-04 -1.25907455e-02
      4.11375368e-04 -3.04654241e-03 -2.27261218e-04 -1.57609861e-03
      -1.35939999e-03 -4.91572078e-04 -1.08252082e-03 -3.36640136e-04
      8.56301747e-03 -3.22338305e-02 8.30395706e-03 -2.86918320e-03
      -1.74942310e-03 -7.36637856e-04 -1.25898300e-02 3.94891336e-04
      -3.05640837e-03 -2.29134792e-04 -1.56847015e-03 -1.36525184e-03
      -4.96258610e-04 -1.08476542e-03 -3.36247846e-04 8.10918491e-03
      -3.25399488e-02 8.25582910e-03 -3.02645355e-03 -1.79934211e-03
      -7.36531045e-04 -1.26635414e-02 3.66423250e-04 -3.06455838e-03
      -2.25237978e-04 -1.60175480e-03 -1.37929257e-03 -5.01559756e-04
      -1.08593516e-03 -3.34152399e-04 7.67057110e-03 -3.28197218e-02
      8.22885148e-03 -3.15976911e-03 -1.83550688e-03 -7.26737082e-04
      -1.27203483e-02 3.47104506e-04 -3.06845433e-03 -2.17991503e-04
      -1.62456231e-03 -1.38768670e-03 -5.04502153e-04 -1.08593679e-03
      -3.30855837e-04 7.65657751e-03 -3.28313597e-02 8.31467379e-03
      -3.15481867e-03 -1.79936585e-03 -6.99509750e-04 -1.27080129e-02
      3.65123560e-04 -3.05680069e-03 -2.10437764e-04 -1.61220226e-03
      -1.37761235e-03 -4.98962705e-04 -1.08293095e-03 -3.29036586e-04
      7.55355414e-03 -3.29294577e-02 8.35605524e-03 -3.21712322e-03
      -1.78792502e-03 -6.83575694e-04 -1.27422884e-02 3.67997331e-04
      -3.05065932e-03 -2.05160963e-04 -1.62992545e-03 -1.37702981e-03
      -4.96537017e-04 -1.08090404e-03 -3.27785907e-04 7.35772401e-03
      -3.30880098e-02 8.32326058e-03 -3.31710535e-03 -1.80890108e-03
      -6.93559414e-04 -1.28001608e-02 3.55728524e-04 -3.05537111e-03
      -2.08777885e-04 -1.66230288e-03 -1.38399284e-03 -4.98888199e-04
      -1.08236924e-03 -3.28836468e-04 7.38132372e-03 -3.31332125e-02
      8.33407231e-03 -3.37668136e-03 -1.80584076e-03 -6.91204856e-04
      -1.28471479e-02 3.51810711e-04 -3.05309263e-03 -2.07859150e-04
      -1.69311545e-03 -1.38894527e-03 -4.98690002e-04 -1.08142768e-03
      -3.28656140e-04 7.37388339e-03 -3.31933573e-02 8.33029114e-03
      -3.44057591e-03 -1.81003660e-03 -6.88199070e-04 -1.28935259e-02
      3.45189765e-04 -3.05144303e-03 -2.04322714e-04 -1.72171916e-03
      -1.39454135e-03 -4.98952460e-04 -1.07972894e-03 -3.27482616e-04
      7.39693549e-03 -3.32319476e-02 8.38759821e-03 -3.48682608e-03
      -1.79286464e-03 -6.66128471e-04 -1.29272472e-02 3.48313712e-04
      -3.04272166e-03 -1.96925917e-04 -1.74224610e-03 -1.39511342e-03
      -4.96052497e-04 -1.07647828e-03 -3.25511035e-04 7.48179993e-03
      -3.32034156e-02 8.47437233e-03 -3.48467240e-03 -1.75685156e-03
      -6.33204414e-04 -1.29319187e-02 3.62889492e-04 -3.02835996e-03
      -1.87019890e-04 -1.74694776e-03 -1.38931011e-03 -4.90084814e-04
      -1.07194867e-03 -3.22966895e-04 7.52263982e-03 -3.32143791e-02
      8.51447042e-03 -3.50372167e-03 -1.74995628e-03 -6.10815303e-04
      -1.29460683e-02 3.63180821e-04 -3.02294618e-03 -1.79403287e-04
      -1.75549823e-03 -1.38995436e-03 -4.88712511e-04 -1.07001513e-03
      -3.20468884e-04 7.80826854e-03 -3.30524966e-02 8.57433677e-03
      -3.42903403e-03 -1.72108540e-03 -5.94302837e-04 -1.29135009e-02
      3.76365526e-04 -3.01663391e-03 -1.74526387e-04 -1.74151640e-03
      -1.38400472e-03 -4.86089586e-04 -1.06854364e-03 -3.19136336e-04
      8.07456300e-03 -3.28814313e-02 8.61330330e-03 -3.34179541e-03
      -1.69728184e-03 -5.85906440e-04 -1.28721148e-02 3.88777960e-04
      -3.01279128e-03 -1.71549065e-04 -1.72237621e-03 -1.37797778e-03
      -4.84206859e-04 -1.06763083e-03 -3.18427337e-04 8.30123108e-03
      -3.27225737e-02 8.58864747e-03 -3.25825694e-03 -1.69181020e-03
      -6.03467401e-04 -1.28320679e-02 3.95317649e-04 -3.01610096e-03
      -1.77512804e-04 -1.70364953e-03 -1.37415156e-03 -4.84562013e-04
      -1.06907682e-03 -3.20580177e-04 8.36985745e-03 -3.26266661e-02
      8.53023492e-03 -3.18874000e-03 -1.69851782e-03 -6.31645613e-04
      -1.27900401e-02 3.99025244e-04 -3.02246865e-03 -1.86850375e-04
      -1.68001850e-03 -1.37013232e-03 -4.85634198e-04 -1.07143063e-03
      -3.23732500e-04 8.34254827e-03 -3.26282866e-02 8.50996748e-03
      -3.18179349e-03 -1.70684850e-03 -6.42434054e-04 -1.27826724e-02
      3.95999028e-04 -3.02642980e-03 -1.91853615e-04 -1.67450635e-03
      -1.37095712e-03 -4.87213838e-04 -1.07330119e-03 -3.25224799e-04
      8.30484368e-03 -3.26363482e-02 8.41927063e-03 -3.17732501e-03
      -1.74097647e-03 -6.82225800e-04 -1.27764065e-02 3.83613573e-04
      -3.04163480e-03 -2.05871678e-04 -1.66972843e-03 -1.37523690e-03
      -4.93071217e-04 -1.07882486e-03 -3.29508883e-04 8.26094393e-03
      -3.26680318e-02 8.36060010e-03 -3.19151115e-03 -1.77351327e-03
      -7.08266569e-04 -1.27817625e-02 3.68848530e-04 -3.05600697e-03
      -2.13509455e-04 -1.67167769e-03 -1.38141308e-03 -4.99572547e-04
      -1.08347542e-03 -3.31511284e-04 8.24492890e-03 -3.26534025e-02
      8.33198614e-03 -3.16675566e-03 -1.78835017e-03 -7.19074684e-04
      -1.27613749e-02 3.64642037e-04 -3.06337187e-03 -2.15193737e-04
      -1.65848783e-03 -1.38162600e-03 -5.02662966e-04 -1.08567218e-03
      -3.31547315e-04 8.13713484e-03 -3.26577127e-02 8.34184326e-03
      -3.12797958e-03 -1.78671628e-03 -7.10055698e-04 -1.27215274e-02
      3.70395079e-04 -3.06247664e-03 -2.10030965e-04 -1.62975630e-03
      -1.37547858e-03 -5.01791539e-04 -1.08517334e-03 -3.29426490e-04
      7.89685268e-03 -3.27508673e-02 8.35252833e-03 -3.13541107e-03
      -1.78460835e-03 -6.98148855e-04 -1.27026150e-02 3.76032316e-04
      -3.05848126e-03 -2.05637887e-04 -1.60919060e-03 -1.36938435e-03
      -4.99264628e-04 -1.08387833e-03 -3.27765214e-04 7.46492157e-03
      -3.29892412e-02 8.30549747e-03 -3.23348772e-03 -1.81472721e-03
      -6.95281487e-04 -1.27361203e-02 3.63443454e-04 -3.05993855e-03
      -2.01254414e-04 -1.61757867e-03 -1.37355796e-03 -5.00125578e-04
      -1.08287612e-03 -3.25689645e-04 7.08099408e-03 -3.32363397e-02
      8.25650897e-03 -3.36328475e-03 -1.85082317e-03 -7.03130674e-04
      -1.27992211e-02 3.42969433e-04 -3.06616793e-03 -2.01558840e-04
      -1.64687156e-03 -1.38409773e-03 -5.03907679e-04 -1.08370802e-03
      -3.25332949e-04 6.73103705e-03 -3.34808268e-02 8.21374264e-03
      -3.51208076e-03 -1.88720122e-03 -7.10027933e-04 -1.28863622e-02
      3.18465201e-04 -3.07193445e-03 -2.02017327e-04 -1.69707520e-03
      -1.39935291e-03 -5.08047757e-04 -1.08433806e-03 -3.25427070e-04
      6.51711784e-03 -3.36375125e-02 8.24009534e-03 -3.61228362e-03
      -1.89022033e-03 -6.93233102e-04 -1.29476236e-02 3.10550997e-04
      -3.06617259e-03 -1.96026784e-04 -1.73347478e-03 -1.40625890e-03
      -5.06498327e-04 -1.08187762e-03 -3.23873537e-04 6.19636662e-03
      -3.38797197e-02 8.28097854e-03 -3.75645584e-03 -1.90169923e-03
      -6.61360449e-04 -1.30267050e-02 2.95453618e-04 -3.05929943e-03
      -1.83641430e-04 -1.77538255e-03 -1.41673023e-03 -5.05895994e-04
      -1.07836258e-03 -3.19764629e-04 5.89976832e-03 -3.41285877e-02
      8.32522102e-03 -3.91013362e-03 -1.91060046e-03 -6.25273096e-04
      -1.31111834e-02 2.80806882e-04 -3.05075734e-03 -1.69747436e-04
      -1.81924866e-03 -1.42731634e-03 -5.05090517e-04 -1.07403228e-03
      -3.15196230e-04 6.06542919e-03 -3.41047309e-02 8.45256075e-03
      -3.92882153e-03 -1.87336630e-03 -5.63713431e-04 -1.31317340e-02
      2.89013406e-04 -3.03093623e-03 -1.46393577e-04 -1.83307007e-03
      -1.42689270e-03 -4.99180227e-04 -1.06619613e-03 -3.07404844e-04
      6.43158611e-03 -3.39283682e-02 8.58987588e-03 -3.86170927e-03
      -1.81887706e-03 -4.99279995e-04 -1.31086297e-02 3.09209863e-04
      -3.00784735e-03 -1.21051446e-04 -1.82563555e-03 -1.41958508e-03
      -4.90998616e-04 -1.05731713e-03 -2.98818428e-04 6.73429528e-03
      -3.37676033e-02 8.61941185e-03 -3.79717560e-03 -1.79496536e-03
      -5.04955475e-04 -1.30855301e-02 3.19835555e-04 -3.00479354e-03
      -1.25048202e-04 -1.81780476e-03 -1.41558470e-03 -4.89236380e-04
      -1.05669489e-03 -3.01307708e-04 7.15139275e-03 -3.34914178e-02
      8.66661873e-03 -3.65702552e-03 -1.75124023e-03 -5.02521114e-04
      -1.30201681e-02 3.43782682e-04 -2.99645052e-03 -1.24989499e-04
      -1.78814086e-03 -1.40405120e-03 -4.84316261e-04 -1.05428917e-03
      -3.01886117e-04 7.69419130e-03 -3.31355482e-02 8.76195170e-03
      -3.47153237e-03 -1.68083736e-03 -4.77047288e-04 -1.29290521e-02
      3.80753569e-04 -2.97773140e-03 -1.17598247e-04 -1.74390886e-03
      -1.38623244e-03 -4.74736822e-04 -1.04898436e-03 -2.99218547e-04
      8.07239395e-03 -3.28753851e-02 8.85232072e-03 -3.32546351e-03
      -1.62323844e-03 -4.47002938e-04 -1.28515242e-02 4.12072928e-04
      -2.96155433e-03 -1.06251689e-04 -1.70365151e-03 -1.37005351e-03
      -4.66563040e-04 -1.04387733e-03 -2.94961996e-04 8.28507543e-03
      -3.27146389e-02 8.93423147e-03 -3.22328950e-03 -1.58025732e-03
      -4.15029237e-04 -1.27909929e-02 4.35962225e-04 -2.94885132e-03
      -9.13783661e-05 -1.66939467e-03 -1.35679101e-03 -4.60466370e-04
      -1.03913550e-03 -2.89157615e-04 8.46675225e-03 -3.25927176e-02
      8.95654783e-03 -3.15108313e-03 -1.56833918e-03 -4.13578673e-04
      -1.27493627e-02 4.43227327e-04 -2.94899242e-03 -8.98758517e-05
      -1.64587749e-03 -1.35216641e-03 -4.60260198e-04 -1.03949872e-03
      -2.87718896e-04 8.64074752e-03 -3.24571393e-02 8.95375293e-03
      -3.06522800e-03 -1.56276277e-03 -4.20569704e-04 -1.26995714e-02
      4.50167223e-04 -2.95228278e-03 -9.00353698e-05 -1.61847600e-03
      -1.34669652e-03 -4.60999436e-04 -1.04062422e-03 -2.86414899e-04
      8.75544362e-03 -3.23665291e-02 8.95799324e-03 -3.01186694e-03
      -1.56230701e-03 -4.23105579e-04 -1.26722781e-02 4.51591943e-04
      -2.95706326e-03 -8.73525423e-05 -1.60580035e-03 -1.34521851e-03
      -4.63652221e-04 -1.04180933e-03 -2.83904141e-04 8.77991598e-03
      -3.23061049e-02 8.95076711e-03 -2.96388636e-03 -1.56505883e-03
      -4.26553801e-04 -1.26441857e-02 4.53026267e-04 -2.96188984e-03
      -8.44418464e-05 -1.59166183e-03 -1.34321291e-03 -4.65987803e-04
      -1.04289572e-03 -2.80733395e-04 8.71129613e-03 -3.22669148e-02
      8.95324256e-03 -2.91167037e-03 -1.56040047e-03 -4.21980250e-04
      -1.26071190e-02 4.59631498e-04 -2.96257250e-03 -7.86993769e-05
      -1.56977610e-03 -1.33796327e-03 -4.66093712e-04 -1.04278896e-03
      -2.75887811e-04 8.21875129e-03 -3.25562656e-02 8.90552904e-03
      -3.05557833e-03 -1.61262241e-03 -4.19827265e-04 -1.26763741e-02
      4.29790001e-04 -2.97313859e-03 -6.91646128e-05 -1.60298287e-03
      -1.35301426e-03 -4.73109190e-04 -1.04388164e-03 -2.68617208e-04
      7.53709348e-03 -3.29770558e-02 8.83231964e-03 -3.27364099e-03
      -1.68746023e-03 -4.18859505e-04 -1.27852308e-02 3.86923930e-04
      -2.98750866e-03 -5.73167017e-05 -1.65704638e-03 -1.37498032e-03
      -4.82486357e-04 -1.04522088e-03 -2.59855762e-04 7.12499348e-03
      -3.32318321e-02 8.84148292e-03 -3.40105686e-03 -1.71773287e-03
      -3.89384455e-04 -1.28470827e-02 3.66153487e-04 -2.98853917e-03
      -3.72590766e-05 -1.68761972e-03 -1.38617447e-03 -4.85895376e-04
      -1.04277243e-03 -2.47206131e-04 6.76669599e-03 -3.34519073e-02
      8.86892620e-03 -3.50811495e-03 -1.73800846e-03 -3.46780289e-04
      -1.28972931e-02 3.51359922e-04 -2.98472052e-03 -9.61397109e-06
      -1.71165343e-03 -1.39387872e-03 -4.87101526e-04 -1.03799603e-03
      -2.30814840e-04 6.51657535e-03 -3.36641558e-02 8.97514913e-03
      -3.63452290e-03 -1.73397711e-03 -2.69815966e-04 -1.29642384e-02
      3.41686013e-04 -2.96923122e-03 3.28487695e-05 -1.74533238e-03
      -1.40147959e-03 -4.84738150e-04 -1.02861889e-03 -2.07833946e-04
      6.25666836e-03 -3.38996686e-02 9.11776442e-03 -3.78467957e-03
      -1.71394472e-03 -1.72467247e-04 -1.30486665e-02 3.36806726e-04
      -2.94444826e-03 8.44466267e-05 -1.79002166e-03 -1.40836858e-03
      -4.78857633e-04 -1.01507455e-03 -1.80319912e-04 6.00489369e-03
      -3.41235586e-02 9.26617533e-03 -3.92768485e-03 -1.68743299e-03
      -6.46490662e-05 -1.31294662e-02 3.35247692e-04 -2.91450880e-03
      1.43645768e-04 -1.83301501e-03 -1.41381752e-03 -4.70933039e-04
      -9.98207834e-04 -1.47925937e-04 5.74937416e-03 -3.43535244e-02
      9.43540502e-03 -4.07283008e-03 -1.65671937e-03 3.54936492e-05
      -1.32092359e-02 3.34051205e-04 -2.88689299e-03 1.87036960e-04
      -1.87391345e-03 -1.41941162e-03 -4.63766017e-04 -9.85712162e-04
      -1.29258391e-04 5.49804326e-03 -3.45582105e-02 9.60178953e-03
      -4.19392250e-03 -1.62762112e-03 1.35539798e-04 -1.32723916e-02
      3.33591539e-04 -2.86082178e-03 2.30692705e-04 -1.90486351e-03
      -1.42365752e-03 -4.57400194e-04 -9.73618065e-04 -1.11447807e-04
      5.23305591e-03 -3.47540006e-02 9.81624238e-03 -4.30309959e-03
      -1.58578961e-03 2.57064326e-04 -1.33266309e-02 3.36633297e-04
      -2.82935635e-03 2.84594309e-04 -1.93016452e-03 -1.42686046e-03
      -4.49831859e-04 -9.59031167e-04 -8.69869036e-05 4.92984382e-03
      -3.49619389e-02 1.00695770e-02 -4.41374350e-03 -1.53317442e-03
      3.99180804e-04 -1.33797973e-02 3.43499705e-04 -2.79324595e-03
      3.50530638e-04 -1.95427774e-03 -1.42845896e-03 -4.41146665e-04
      -9.41505714e-04 -5.66820636e-05 4.58306959e-03 -3.51930745e-02
      1.03856679e-02 -4.53410018e-03 -1.46326353e-03 5.74022240e-04
      -1.34365093e-02 3.55567812e-04 -2.74890824e-03 4.34631511e-04
      -1.97949214e-03 -1.42828980e-03 -4.30370274e-04 -9.19235928e-04
      -1.72777436e-05 4.23482293e-03 -3.53986919e-02 1.07109649e-02
      -4.63246321e-03 -1.38872070e-03 7.76491826e-04 -1.34803224e-02
      3.71893286e-04 -2.69706338e-03 5.36089588e-04 -1.99828530e-03
      -1.42521609e-03 -4.16840514e-04 -8.92578682e-04 3.18295170e-05
      3.88933928e-03 -3.55708972e-02 1.10181542e-02 -4.70172893e-03
      -1.31965301e-03 9.86525440e-04 -1.35063976e-02 3.88897402e-04
      -2.64507253e-03 6.48113026e-04 -2.00782111e-03 -1.42048649e-03
      -4.03147540e-04 -8.64232425e-04 8.84517503e-05 3.39040090e-03
      -3.58422101e-02 1.13149416e-02 -4.81611677e-03 -1.27743033e-03
      1.21730007e-03 -1.35500999e-02 3.90828442e-04 -2.59727519e-03
      7.76820933e-04 -2.02360190e-03 -1.42245437e-03 -3.93436494e-04
      -8.35797749e-04 1.54512440e-04 2.80510238e-03 -3.61423753e-02
      1.15919737e-02 -4.93210601e-03 -1.24628528e-03 1.46031613e-03
      -1.35892034e-02 3.90413130e-04 -2.54962314e-03 9.20644088e-04
      -2.03530281e-03 -1.42383645e-03 -3.84167652e-04 -8.05099262e-04
      2.31599755e-04 2.11440143e-03 -3.64830457e-02 1.18646687e-02
      -5.05719287e-03 -1.21912977e-03 1.71255996e-03 -1.36279399e-02
      3.89113819e-04 -2.50066118e-03 1.07401691e-03 -2.04494223e-03
      -1.42499292e-03 -3.74587544e-04 -7.72719388e-04 3.15987476e-04
      1.45391165e-03 -3.68397869e-02 1.21261589e-02 -5.20515908e-03
      -1.20269216e-03 1.97036960e-03 -1.36830807e-02 3.79510893e-04
      -2.45266547e-03 1.23845192e-03 -2.06414936e-03 -1.43137062e-03
      -3.66632594e-04 -7.38356146e-04 4.09895263e-04 8.30385368e-04
      -3.72036844e-02 1.23653477e-02 -5.36764367e-03 -1.20013510e-03
      2.22149305e-03 -1.37493359e-02 3.61705519e-04 -2.40929704e-03
      1.40654913e-03 -2.09030160e-03 -1.44222355e-03 -3.61354178e-04
      -7.04080623e-04 5.10081416e-04 1.55731177e-04 -3.75870690e-02
      1.25766173e-02 -5.53193782e-03 -1.21071911e-03 2.46665510e-03
      -1.38129238e-02 3.39694350e-04 -2.36888765e-03 1.57699664e-03
      -2.11390038e-03 -1.45402213e-03 -3.57017503e-04 -6.69653004e-04
      6.14314631e-04 -4.81057476e-04 -3.79457884e-02 1.27820540e-02
      -5.68519440e-03 -1.22118765e-03 2.71011540e-03 -1.38724465e-02
      3.18507518e-04 -2.32929969e-03 1.75209669e-03 -2.13622092e-03
      -1.46534550e-03 -3.52954667e-04 -6.34046621e-04 7.23773963e-04
      -1.03118131e-03 -3.82729024e-02 1.30602317e-02 -5.83325652e-03
      -1.20070111e-03 2.97621521e-03 -1.39332302e-02 3.07443261e-04
      -2.27819430e-03 1.92649302e-03 -2.16009119e-03 -1.47385651e-03
      -3.44667031e-04 -5.95889869e-04 8.28254735e-04 -1.63778733e-03
      -3.86235826e-02 1.32875172e-02 -5.99203538e-03 -1.19654834e-03
      3.21187498e-03 -1.39997853e-02 2.90891388e-04 -2.23528687e-03
      2.07982957e-03 -2.18722411e-03 -1.48451841e-03 -3.38541169e-04
      -5.63775771e-04 9.18915437e-04 -2.17204820e-03 -3.89373340e-02
      1.35501400e-02 -6.13774778e-03 -1.17613794e-03 3.46885435e-03
      -1.40628237e-02 2.79967557e-04 -2.18383316e-03 2.24868720e-03
      -2.21385364e-03 -1.49348693e-03 -3.29802016e-04 -5.25687297e-04
      1.01929915e-03 -2.73077469e-03 -3.92579772e-02 1.38002541e-02
      -6.28381781e-03 -1.16388092e-03 3.73218022e-03 -1.41249616e-02
      2.66147195e-04 -2.13481905e-03 2.43048160e-03 -2.23970949e-03
      -1.50327827e-03 -3.22517502e-04 -4.86461591e-04 1.12986111e-03
      -3.30288312e-03 -3.95663194e-02 1.40313348e-02 -6.41705422e-03
      -1.15698122e-03 3.99711635e-03 -1.41792577e-02 2.52491533e-04
      -2.08772183e-03 2.62096454e-03 -2.26157485e-03 -1.51210127e-03
      -3.15688958e-04 -4.46966791e-04 1.24851277e-03 -3.65942135e-03
      -3.97573747e-02 1.43577354e-02 -6.49971282e-03 -1.10778504e-03
      4.31322586e-03 -1.42126633e-02 2.54723680e-04 -2.02040118e-03
      2.83571496e-03 -2.27461918e-03 -1.51522201e-03 -3.01810534e-04
      -3.98697914e-04 1.38017419e-03 -3.87617014e-03 -3.98761928e-02
      1.47496248e-02 -6.55264640e-03 -1.02875789e-03 4.67225164e-03
      -1.42347421e-02 2.68490199e-04 -1.93659752e-03 3.07878852e-03
      -2.28354125e-03 -1.51408429e-03 -2.82166176e-04 -3.40745173e-04
      1.53015077e-03 -3.99717037e-03 -3.99487428e-02 1.52046997e-02
      -6.58861175e-03 -9.25709552e-04 5.08215418e-03 -1.42512256e-02
      2.90148600e-04 -1.83672772e-03 3.35801626e-03 -2.29072198e-03
      -1.51053502e-03 -2.57750740e-04 -2.71953118e-04 1.70487841e-03
      -4.12994856e-03 -4.00168411e-02 1.56188635e-02 -6.61775423e-03
      -8.32173973e-04 5.47185913e-03 -1.42631186e-02 3.10750213e-04
      -1.74218207e-03 3.62984091e-03 -2.29544309e-03 -1.50650903e-03
      -2.34345804e-04 -2.05225850e-04 1.87751884e-03 -4.34748270e-03
      -4.01192047e-02 1.59412213e-02 -6.65634219e-03 -7.68209167e-04
      5.80571266e-03 -1.42768156e-02 3.23042710e-04 -1.66482280e-03
      3.87241691e-03 -2.30021542e-03 -1.50450424e-03 -2.15829714e-04
      -1.47275801e-04 2.03527836e-03 -4.52665053e-03 -4.01968658e-02
      1.62589513e-02 -6.68369234e-03 -6.99282740e-04 6.13626046e-03
      -1.42861269e-02 3.38830083e-04 -1.58552406e-03 4.11611982e-03
      -2.30346550e-03 -1.50076905e-03 -1.95924644e-04 -8.74718753e-05
      2.19682907e-03 -4.64970199e-03 -4.02411707e-02 1.65830087e-02
      -6.69638440e-03 -6.22704625e-04 6.47476176e-03 -1.42897386e-02
      3.58696532e-04 -1.50198943e-03 4.37054085e-03 -2.30462663e-03
      -1.49530824e-03 -1.73989203e-04 -2.42854712e-05 2.36963201e-03
      -4.59965412e-03 -4.02172394e-02 1.69004630e-02 -6.68821065e-03
      -5.38137218e-04 6.76145265e-03 -1.42873004e-02 3.81683785e-04
      -1.42875372e-03 4.57695080e-03 -2.30394700e-03 -1.48896710e-03
      -1.54798079e-04 2.78780026e-05 2.50458531e-03 -4.54137754e-03
      -4.01888378e-02 1.71934012e-02 -6.67806016e-03 -4.57953545e-04
      7.02686654e-03 -1.42841740e-02 4.04310820e-04 -1.36027322e-03
      4.77047777e-03 -2.30311998e-03 -1.48237299e-03 -1.36647097e-04
      7.71893028e-05 2.63196626e-03 -4.49706754e-03 -4.01653349e-02
      1.74506269e-02 -6.66845357e-03 -3.88722139e-04 7.27281068e-03
      -1.42804971e-02 4.23456368e-04 -1.29690114e-03 4.95365541e-03
      -2.30168714e-03 -1.47695502e-03 -1.19832563e-04 1.23597507e-04
      2.75586662e-03 -4.42467397e-03 -4.01272662e-02 1.77178401e-02
      -6.65342715e-03 -3.10960459e-04 7.52861565e-03 -1.42752239e-02
      4.46548453e-04 -1.22751563e-03 5.14776912e-03 -2.30000168e-03
      -1.46994996e-03 -1.00552636e-04 1.74951725e-04 2.88992096e-03
      -4.35861433e-03 -4.00868729e-02 1.79763176e-02 -6.63529942e-03
      -2.34548192e-04 7.78345345e-03 -1.42678851e-02 4.69740946e-04
      -1.15750381e-03 5.34513034e-03 -2.29709921e-03 -1.46281160e-03
      -8.06429962e-05 2.27473065e-04 3.02935089e-03 -4.32676962e-03
      -4.00648378e-02 1.81475393e-02 -6.62517967e-03 -1.85467215e-04
      7.95868319e-03 -1.42638357e-02 4.84279299e-04 -1.11050066e-03
      5.48519706e-03 -2.29555718e-03 -1.45843392e-03 -6.75319898e-05
      2.63961352e-04 3.13110370e-03 -4.33741976e-03 -4.00592498e-02
      1.82618704e-02 -6.62068883e-03 -1.53186382e-04 8.08843132e-03
      -1.42619070e-02 4.94376814e-04 -1.07657176e-03 5.59493760e-03
      -2.29496276e-03 -1.45512819e-03 -5.79351399e-05 2.91954231e-04
      3.21430666e-03 -4.30315128e-03 -4.00359258e-02 1.83747094e-02
      -6.61004428e-03 -1.17980737e-04 8.20600148e-03 -1.42576909e-02
      5.05570206e-04 -1.04315334e-03 5.69138583e-03 -2.29336252e-03
      -1.45162176e-03 -4.80196104e-05 3.18220438e-04 3.28623340e-03
      -4.26134421e-03 -4.00113165e-02 1.84871890e-02 -6.59959437e-03
      -8.30411518e-05 8.32124054e-03 -1.42537868e-02 5.16593514e-04
      -1.01069373e-03 5.78694372e-03 -2.29201978e-03 -1.44815608e-03
      -3.85132553e-05 3.44047672e-04 3.35785514e-03 -4.24373569e-03
      -4.00064252e-02 1.85656697e-02 -6.59862300e-03 -6.34592652e-05
      8.40282347e-03 -1.42534003e-02 5.21201466e-04 -9.91124660e-04
      5.85332559e-03 -2.29164469e-03 -1.44716690e-03 -3.38888058e-05
      3.59790050e-04 3.40738520e-03 -4.20053909e-03 -3.99854220e-02
      1.86708644e-02 -6.59039291e-03 -3.25400360e-05 8.50720331e-03
      -1.42502924e-02 5.30395133e-04 -9.63077415e-04 5.93697699e-03
      -2.29041674e-03 -1.44439063e-03 -2.61136447e-05 3.81388643e-04
      3.46895307e-03 -4.14198963e-03 -3.99537347e-02 1.87897421e-02
      -6.57705776e-03 5.07157711e-06 8.62460211e-03 -1.42452028e-02
      5.42602560e-04 -9.29711678e-04 6.03191508e-03 -2.28861626e-03
      -1.44034368e-03 -1.61960470e-05 4.06959647e-04 3.53928516e-03
      -4.10004333e-03 -3.99295762e-02 1.88717935e-02 -6.56698458e-03
      3.31591000e-05 8.70289281e-03 -1.42415678e-02 5.52114157e-04
      -9.05919122e-04 6.09438820e-03 -2.28746119e-03 -1.43711560e-03
      -8.80304924e-06 4.24765632e-04 3.58517794e-03 -4.07215860e-03
      -3.99107300e-02 1.89379621e-02 -6.55911257e-03 5.77872925e-05
      8.76824558e-03 -1.42391333e-02 5.61152236e-04 -8.85032117e-04
      6.14857906e-03 -2.28707283e-03 -1.43381127e-03 -2.01108446e-06
      4.40969685e-04 3.62582505e-03 -4.10999916e-03 -3.99320573e-02
      1.89225040e-02 -6.56909216e-03 4.96359426e-05 8.76418408e-03
      -1.42436782e-02 5.57689054e-04 -8.87926435e-04 6.14926545e-03
      -2.28919368e-03 -1.43517065e-03 -3.44798559e-06 4.40531061e-04
      3.62823089e-03 -4.14061546e-03 -3.99490334e-02 1.89211685e-02
      -6.57770643e-03 4.74964181e-05 8.76969565e-03 -1.42482761e-02
      5.56939689e-04 -8.87812756e-04 6.15772186e-03 -2.29179650e-03
      -1.43527670e-03 -3.80232814e-06 4.42322111e-04 3.63548310e-03
      -4.15854808e-03 -3.99606414e-02 1.89407691e-02 -6.58502802e-03
      5.25651776e-05 8.78958777e-03 -1.42530436e-02 5.58947038e-04
      -8.83961271e-04 6.17701653e-03 -2.29492760e-03 -1.43421139e-03
      -3.06534048e-06 4.46729013e-04 3.64935677e-03 -4.17566206e-03
      -3.99731696e-02 1.89581253e-02 -6.59239478e-03 5.43742681e-05
      8.81232508e-03 -1.42574180e-02 5.59089705e-04 -8.80419160e-04
      6.19903952e-03 -2.29763286e-03 -1.43404573e-03 -2.70173996e-06
      4.51081170e-04 3.66579508e-03</data></learnt_thetas>
  <n_labels type_id="opencv-matrix">
    <rows>2</rows>
    <cols>1</cols>
    <dt>i</dt>
    <data>
      0 1</data></n_labels>
  <o_labels type_id="opencv-matrix">
    <rows>2</rows>
    <cols>1</cols>
    <dt>i</dt>
    <data>
      0 1</data></o_labels></opencv_ml_lr>
</opencv_storage>
