<?xml version="1.0"?>
<opencv_storage>
<opencv_ml_lr>
  <format>3</format>
  <classifier>"Logisitic Regression Classifier"</classifier>
  <alpha>10000.</alpha>
  <iterations>28000</iterations>
  <norm>1</norm>
  <train_method>0</train_method>
  <learnt_thetas type_id="opencv-matrix">
    <rows>1</rows>
    <cols>599</cols>
    <dt>f</dt>
    <data>
      -4.40366173e+00 -2.44255948e+00 -2.06974506e+00 4.68406081e-01
      6.89214766e-02 1.88860044e-01 1.14848286e-01 2.86871552e-01
      1.77994445e-01 1.28986565e-02 2.46686414e-01 1.92805789e-02
      3.34645122e-01 5.55987693e-02 8.64886213e-03 2.98177719e-01
      -3.84908855e-01 7.91655108e-02 -3.10825497e-01 6.53756112e-02
      -1.42589360e-01 -2.33041033e-01 5.31917930e-01 -9.53579135e-03
      2.93880075e-01 -1.77542463e-01 -2.00586736e-01 3.46129209e-01
      -5.23675084e-01 -2.76709437e-01 -4.81529802e-01 -8.47033411e-03
      -8.59218687e-02 -3.64220262e-01 1.14534795e-01 -6.98703229e-01
      -2.08427310e-01 -4.12764192e-01 -1.82064459e-01 2.22541779e-01
      -4.07902598e-01 -2.58277148e-01 -3.08439732e-01 -1.15017213e-01
      -1.01061963e-01 -2.95955718e-01 -4.24645841e-02 -5.33948243e-01
      3.39375705e-01 -5.19346237e-01 -7.76558891e-02 5.61433993e-02
      -3.10670555e-01 -7.28439912e-02 -5.30962169e-01 -1.15331411e-01
      -9.18187946e-02 8.32297280e-02 -2.85368741e-01 -7.11595833e-01
      -3.64502430e-01 -6.78342938e-01 -2.26120770e-01 -5.67954421e-01
      -1.11994946e+00 -6.98595762e-01 -1.70386553e+00 -5.47864616e-01
      -1.06787527e+00 -6.35894179e-01 -5.55560410e-01 -1.11041486e+00
      -6.45140052e-01 -1.28043067e+00 -5.01785696e-01 -8.44465375e-01
      -8.34054768e-01 -4.98868614e-01 -1.42315495e+00 -6.87194943e-01
      -1.12234390e+00 -7.01240838e-01 -5.28249562e-01 -9.49145615e-01
      -6.18334770e-01 -1.52752233e+00 -7.60917068e-01 -1.19542408e+00
      -7.05805719e-01 -7.97276318e-01 -1.48689127e+00 -5.24777353e-01
      -1.56130087e+00 -8.61220956e-01 -7.38026619e-01 -8.78682792e-01
      -8.95890534e-01 -1.55865276e+00 -7.18416870e-01 -9.79005754e-01
      -4.57521886e-01 -2.64511734e-01 -1.00950658e+00 -5.32662511e-01
      -1.19667900e+00 -5.22664189e-01 -9.96206582e-01 -7.95415998e-01
      -9.71275866e-01 -1.82745564e+00 -7.83921301e-01 -1.48294878e+00
      -7.15430796e-01 -3.58018547e-01 -8.21740270e-01 -9.21078444e-01
      -1.84830129e+00 -6.58027232e-01 -1.12661922e+00 -6.94534600e-01
      -8.80458653e-01 -1.71180141e+00 -1.28727996e+00 -2.22284245e+00
      -1.00271332e+00 -1.12861907e+00 -1.06139946e+00 -1.19672823e+00
      -1.95447016e+00 -7.85587132e-01 -1.32173181e+00 -7.82633245e-01
      -7.82514632e-01 -1.01033080e+00 -2.72949934e-01 -1.13249516e+00
      -3.12659264e-01 -3.47910553e-01 -1.73542023e-01 -4.85094517e-01
      -6.84188902e-01 -4.13497686e-01 -5.90817153e-01 -5.70843332e-02
      -1.83852836e-01 -3.05453986e-01 3.56699564e-02 -2.49655038e-01
      -1.63598701e-01 -1.01624362e-01 -4.73675585e+00 -3.56529689e+00
      3.79975975e-01 3.47206742e-01 3.93931448e-01 1.75726518e-01
      3.57423723e-01 8.44973981e-01 6.43648624e-01 5.37849665e-01
      4.76816773e-01 8.98096681e-01 6.96149826e-01 7.45269895e-01
      4.30564851e-01 5.25938869e-01 7.14372218e-01 8.25824976e-01
      9.57483709e-01 6.66612744e-01 6.82828009e-01 6.92276180e-01
      5.30455530e-01 8.97043586e-01 1.04007888e+00 8.81522059e-01
      8.64438236e-01 7.53615201e-01 7.92402625e-01 5.87933600e-01
      5.12849212e-01 4.72653031e-01 3.23959708e-01 6.35200381e-01
      5.25559485e-01 5.26449919e-01 6.88496411e-01 6.24428213e-01
      1.03642249e+00 1.05759668e+00 9.74881589e-01 9.94112551e-01
      6.44669831e-01 9.71237063e-01 7.57446826e-01 7.54989743e-01
      8.55553687e-01 8.83842230e-01 9.19863760e-01 7.24830747e-01
      6.40642047e-01 9.12226021e-01 1.17310941e+00 1.25306237e+00
      7.80584097e-01 8.20387065e-01 9.56966102e-01 8.77608240e-01
      9.69860375e-01 8.83435011e-01 9.99296665e-01 1.02904403e+00
      1.05278933e+00 1.69964874e+00 1.35511351e+00 1.61674833e+00
      1.44020998e+00 1.30134594e+00 9.64145124e-01 8.02370429e-01
      1.03244901e+00 1.04893732e+00 1.12282693e+00 1.25335169e+00
      9.37518001e-01 1.17029953e+00 1.66571891e+00 1.79606116e+00
      1.67313993e+00 1.70863819e+00 1.07557631e+00 1.14590216e+00
      1.37271416e+00 1.51500559e+00 1.95396161e+00 1.21010351e+00
      1.75508571e+00 1.34927237e+00 1.46061623e+00 1.84897196e+00
      1.44616878e+00 1.99409926e+00 1.14218497e+00 1.27430022e+00
      1.29368937e+00 1.03664982e+00 2.25067329e+00 1.36402678e+00
      1.79689980e+00 7.90388703e-01 1.47868109e+00 2.36294794e+00
      1.68542588e+00 2.22607613e+00 1.21422029e+00 1.12639081e+00
      1.30124629e+00 1.05414534e+00 1.95668089e+00 1.18407667e+00
      1.65913224e+00 1.26471281e+00 1.19071257e+00 1.72235084e+00
      1.79876733e+00 2.50792837e+00 1.68870461e+00 1.30452013e+00
      1.11422777e+00 1.41006279e+00 1.68900180e+00 1.36834335e+00
      1.87742066e+00 1.25074399e+00 1.60182548e+00 1.59092748e+00
      1.63950217e+00 2.18318629e+00 1.34956765e+00 1.45633531e+00
      8.23400021e-01 1.18972516e+00 1.21728575e+00 1.01635957e+00
      1.76307511e+00 1.01437008e+00 1.60516679e+00 1.21643329e+00
      7.69687116e-01 8.82601321e-01 8.29170763e-01 1.26609564e+00
      8.07196319e-01 1.52958012e+00 1.41449940e+00 1.02519977e+00
      1.24321592e+00 2.89571404e-01 1.28397024e+00 -1.90557927e-01
      -1.63730308e-01 -2.12200359e-01 -2.50664234e-01 -2.83510149e-01
      -3.13085198e-01 -3.01881045e-01 -2.92183191e-01 -3.19417506e-01
      -3.46061289e-01 -3.58517915e-01 -3.52271497e-01 -3.61192405e-01
      -3.63619000e-01 -3.67264479e-01 -3.86523128e-01 -4.08160955e-01
      -4.47361201e-01 -4.45060074e-01 -4.45769131e-01 -4.50712472e-01
      -4.57718372e-01 -4.66027379e-01 -4.55844492e-01 -4.53927398e-01
      -4.44495440e-01 -4.42255765e-01 -4.31266934e-01 -4.02832717e-01
      -3.62185866e-01 -3.31324667e-01 -2.96499550e-01 -2.74654746e-01
      -2.80717194e-01 -2.80673504e-01 -3.08923721e-01 -3.48884523e-01
      -3.58644187e-01 -3.77389461e-01 -4.01675940e-01 -4.27475780e-01
      -4.57527936e-01 -4.65056062e-01 -4.56764728e-01 -4.71045077e-01
      -4.85004336e-01 -4.91229981e-01 -4.85911965e-01 -4.59675312e-01
      -4.74553853e-01 -4.92763489e-01 -4.73148257e-01 -4.75335300e-01
      -5.23959935e-01 -5.49304843e-01 -5.49742818e-01 -5.56817234e-01
      -5.38104892e-01 -5.40145695e-01 -5.14467418e-01 -4.80473459e-01
      -4.76683199e-01 -4.67792451e-01 -4.65340734e-01 -4.53557551e-01
      -4.75429118e-01 -4.98268157e-01 -5.23214698e-01 -5.57598174e-01
      -5.60751736e-01 -5.97335935e-01 -6.12704754e-01 -6.40341580e-01
      -6.58111215e-01 -6.52492821e-01 -6.86484218e-01 -6.87618911e-01
      -7.02103198e-01 -6.96285546e-01 -7.07198739e-01 -7.06319451e-01
      -6.72374785e-01 -6.80053353e-01 -6.71738505e-01 -6.86256945e-01
      -6.66572690e-01 -6.19996130e-01 -6.08381748e-01 -5.59144318e-01
      -5.57336271e-01 -5.59367061e-01 -5.58993101e-01 -5.69724321e-01
      -5.72883666e-01 -6.01469874e-01 -5.81026852e-01 -5.91359258e-01
      -6.00519300e-01 -6.20386958e-01 -6.44458055e-01 -6.22933090e-01
      -6.71693861e-01 -6.55428648e-01 -6.53467894e-01 -6.50688112e-01
      -6.23538435e-01 -6.32448375e-01 -6.01680636e-01 -6.53247893e-01
      -6.74215198e-01 -7.02057481e-01 -7.31767595e-01 -7.07437098e-01
      -7.68538713e-01 -7.75337160e-01 -7.99381256e-01 -8.02866936e-01
      -7.81261861e-01 -8.10320914e-01 -7.90892065e-01 -8.02016318e-01
      -7.58905768e-01 -7.13737726e-01 -6.84769332e-01 -6.65827274e-01
      -6.76146448e-01 -6.15162492e-01 -5.82993388e-01 -5.71045399e-01
      -5.76943278e-01 -5.63719630e-01 -5.31929791e-01 -5.62130332e-01
      -5.55456519e-01 -5.51471651e-01 -5.41871846e-01 -5.31601727e-01
      -5.33387482e-01 -4.62928116e-01 -4.45294678e-01 -3.99960577e-01
      -3.49531442e-01 -3.33745152e-01 -3.24245811e-01 -3.46359402e-01
      -3.37032497e-01 -3.31982553e-01 -3.25785011e-01 -3.35705400e-01
      -3.36037725e-01 -8.51504803e-02 -1.61654010e-01 -3.96921039e-01
      -4.21499491e-01 -4.31962311e-01 -4.39712673e-01 -4.30588961e-01
      -4.37527329e-01 -4.80637431e-01 -4.95040506e-01 -4.86846149e-01
      -4.67971355e-01 -4.58400220e-01 -4.41594690e-01 -4.33215261e-01
      -4.42353308e-01 -4.65264946e-01 -4.77656394e-01 -4.23978180e-01
      -3.67716044e-01 -3.82829607e-01 -3.87814999e-01 -3.65328610e-01
      -3.62038195e-01 -3.66793483e-01 -3.59868914e-01 -3.82372528e-01
      -4.15501058e-01 -4.25001562e-01 -4.17840868e-01 -4.11734343e-01
      -3.94143701e-01 -3.71016175e-01 -3.58162344e-01 -3.33390146e-01
      -3.22674930e-01 -3.19484562e-01 -3.12638819e-01 -3.12650740e-01
      -3.08925480e-01 -3.02608222e-01 -2.62279332e-01 -2.11619124e-01
      -1.69504300e-01 -1.20184369e-01 -9.60015059e-02 -8.74496251e-02
      -8.02663565e-02 -5.54006435e-02 -3.99099141e-02 -6.15429841e-02
      -4.34278548e-02 -4.54957522e-02 -5.85180148e-02 -4.90268208e-02
      -5.00074960e-02 -3.46709490e-02 -3.96408401e-02 -5.09045981e-02
      -7.04833195e-02 -9.82632637e-02 -1.01036683e-01 -1.01631775e-01
      -1.00318126e-01 -7.69567862e-02 -1.19684245e-02 3.70872803e-02
      8.70815441e-02 1.65361956e-01 2.30513260e-01 3.06500822e-01
      3.53984743e-01 3.60072345e-01 3.43216717e-01 3.14352423e-01
      3.03277254e-01 2.89063454e-01 2.95366764e-01 2.92418450e-01
      2.32663080e-01 1.99122399e-01 1.95895880e-01 1.54840395e-01
      1.19758412e-01 1.16318122e-01 1.01686448e-01 9.52007920e-02
      1.04101643e-01 1.20038964e-01 1.84400812e-01 2.25086600e-01
      2.75321156e-01 3.06275129e-01 3.07162523e-01 2.90645391e-01
      2.23158881e-01 1.88424826e-01 1.47160873e-01 1.40355945e-01
      1.03046298e-01 2.76873540e-02 -1.37575604e-02 -3.25060748e-02
      1.56358760e-02 3.63744497e-02 3.85326594e-02 4.75344323e-02
      4.03567143e-02 5.32450750e-02 7.09202141e-02 1.08325377e-01
      1.11171402e-01 6.56859800e-02 6.57235458e-02 7.84364939e-02
      1.03787653e-01 1.23937748e-01 1.27706602e-01 1.47997513e-01
      1.29088849e-01 1.32254273e-01 9.30976272e-02 2.74558775e-02
      -6.97759492e-03 -7.52094388e-03 1.21900765e-02 1.68499444e-02
      7.82142207e-03 -3.17313219e-03 -6.12457702e-03 1.39158051e-02
      2.53560934e-02 4.16353047e-02 2.01073084e-02 -4.55975831e-02
      -1.11495785e-01 -1.36133850e-01 -1.37711659e-01 -1.16197050e-01
      -1.02959551e-01 -9.83590186e-02 -7.03485832e-02 -6.80742338e-02
      -8.97670537e-02 -9.83103439e-02 -1.03553988e-01 -1.10407494e-01
      -1.09032243e-01 -1.22269884e-01 -9.44421440e-02</data></learnt_thetas>
  <n_labels type_id="opencv-matrix">
    <rows>2</rows>
    <cols>1</cols>
    <dt>i</dt>
    <data>
      0 1</data></n_labels>
  <o_labels type_id="opencv-matrix">
    <rows>2</rows>
    <cols>1</cols>
    <dt>i</dt>
    <data>
      0 1</data></o_labels></opencv_ml_lr>
</opencv_storage>
