<?xml version="1.0"?>
<opencv_storage>
<opencv_ml_lr>
  <format>3</format>
  <classifier>"Logisitic Regression Classifier"</classifier>
  <alpha>10000.</alpha>
  <iterations>12400</iterations>
  <norm>1</norm>
  <train_method>0</train_method>
  <learnt_thetas type_id="opencv-matrix">
    <rows>1</rows>
    <cols>2550</cols>
    <dt>f</dt>
    <data>
      -3.75053239e+00 3.95022154e-01 3.99048626e-01 4.46362883e-01
      3.13443452e-01 2.66010076e-01 2.56248057e-01 2.06060946e-01
      3.80068533e-02 -4.14371938e-02 3.86507064e-03 1.97245359e-01
      2.95082897e-01 4.65505905e-02 3.75327431e-02 8.08460340e-02
      -9.17294025e-02 -1.48903057e-01 -9.75127593e-02 2.55707037e-02
      3.50289419e-02 2.59856437e-03 1.33882165e-01 2.25657411e-02
      -5.51800802e-02 -2.19098091e-01 -9.35188234e-02 -2.21476443e-02
      -7.52482787e-02 -1.68140661e-02 2.95380484e-02 2.45965216e-02
      -3.83632481e-02 1.90835632e-03 1.71010807e-01 1.96600363e-01
      1.18542045e-01 5.52186854e-02 9.19631422e-02 1.25575334e-01
      3.29221785e-02 6.75050821e-03 9.98509675e-02 2.32315615e-01
      2.62288362e-01 2.43347943e-01 1.93888262e-01 2.91067719e-01
      4.78586674e-01 3.66291493e-01 3.94183069e-01 4.50212955e-01
      3.73777121e-01 2.71281391e-01 2.81337261e-01 3.39027733e-01
      3.94345075e-01 4.05390859e-01 3.65125448e-01 4.30893362e-01
      5.06284595e-01 2.75208294e-01 2.74852753e-01 1.28149286e-01
      1.07256733e-01 2.76734829e-01 1.60866380e-01 1.28990889e-01
      1.33945644e-02 -3.29132974e-02 6.50072321e-02 2.59321202e-02
      1.18294712e-02 4.08591051e-03 7.69083947e-02 -9.85707249e-03
      -7.45639652e-02 2.47161146e-02 7.27961883e-02 1.54233471e-01
      1.17248766e-01 1.61012560e-01 1.73023760e-01 1.92879200e-01
      1.55906886e-01 2.33241871e-01 4.76176679e-01 2.27196127e-01
      1.67652398e-01 3.28357726e-01 3.05226654e-01 3.05561006e-01
      1.87716037e-01 2.85391927e-01 4.01543111e-01 5.24125218e-01
      3.05775374e-01 3.66417706e-01 4.21880782e-01 2.83211619e-01
      2.88235754e-01 3.01578820e-01 2.55927533e-01 3.85302842e-01
      3.20239186e-01 3.19545478e-01 2.91850299e-01 3.08019310e-01
      2.40170732e-01 1.36523202e-01 4.88185063e-02 1.12351038e-01
      1.67510435e-01 2.41703689e-02 -1.75347595e-04 6.36366755e-02
      3.53084207e-02 -1.30148791e-02 1.90324206e-02 7.73235336e-02
      -2.28322614e-02 -1.17122002e-01 -3.18397321e-02 -7.01578632e-02
      -5.96036762e-02 -1.51537225e-01 -1.27772108e-01 -3.02634295e-02
      -1.08523563e-01 -1.15258992e-01 -1.52941972e-01 -9.70682204e-02
      -1.19117200e-01 -1.79089889e-01 -1.06949225e-01 -2.29872260e-02
      4.65485863e-02 -1.38390437e-01 -1.15758911e-01 7.00028613e-03
      -3.25036496e-02 -8.63754153e-02 -4.35493104e-02 8.23254138e-02
      1.77305475e-01 1.70522064e-01 9.53277349e-02 1.06866799e-01
      2.52088964e-01 2.02151537e-01 3.55913609e-01 2.86144882e-01
      2.18855485e-01 1.33960456e-01 1.36777088e-01 2.24580374e-02
      -6.29253266e-03 4.00551781e-02 -4.61682957e-03 3.97572741e-02
      9.05843973e-02 1.91845223e-01 4.61883284e-02 5.38296737e-02
      1.06959194e-01 7.29176849e-02 1.09040417e-01 9.44223106e-02
      1.00599274e-01 1.18778020e-01 2.22762197e-01 3.05431932e-01
      2.99103886e-01 3.01660687e-01 2.46365756e-01 2.25923434e-01
      1.94716588e-01 2.24287733e-01 2.75272608e-01 2.01722324e-01
      1.87405795e-01 2.25692600e-01 2.14783773e-01 1.96917653e-01
      1.23929538e-01 1.03545040e-01 -5.23571204e-03 3.52689363e-02
      2.27196425e-01 1.57563388e-01 1.60310596e-01 1.81927308e-01
      2.28948295e-01 1.67559698e-01 1.52496368e-01 1.82869792e-01
      2.26408646e-01 3.98997903e-01 1.23263650e-01 7.64381886e-02
      -1.44157678e-01 -7.69704580e-02 2.80650556e-01 1.92241162e-01
      1.67248577e-01 2.42223516e-01 2.79876798e-01 1.62224784e-01
      2.90858835e-01 4.10737753e-01 2.59418339e-01 3.30365777e-01
      1.89498782e-01 1.81404233e-01 3.71126682e-01 2.39924178e-01
      1.69872180e-01 3.07285845e-01 3.71820629e-01 2.04221725e-01
      1.80634141e-01 2.38758683e-01 1.92775428e-01 2.69032657e-01
      2.54579216e-01 3.78111452e-01 4.53905970e-01 3.10740918e-01
      3.74862343e-01 3.52979511e-01 5.01857281e-01 2.68990576e-01
      2.08296627e-01 2.04846293e-01 1.44206032e-01 2.42882073e-01
      1.18445344e-01 8.62697065e-02 1.70750231e-01 1.11161768e-01
      1.79695129e-01 9.69338492e-02 9.01008919e-02 -6.08683005e-02
      -1.00740261e-01 -1.09377941e-02 2.02325489e-02 1.05223708e-01
      -1.90475583e-02 -4.78094406e-02 8.28257576e-02 7.90354162e-02
      1.96666300e-01 2.47301012e-01 2.87271291e-01 5.26107661e-02
      3.85581776e-02 9.83454511e-02 1.40581831e-01 3.11328501e-01
      4.41063136e-01 4.99570400e-01 3.84063095e-01 4.15360063e-01
      5.44556797e-01 5.08061469e-01 5.01697063e-01 6.24548852e-01
      6.52074993e-01 4.97187704e-01 5.40486038e-01 6.39752746e-01
      6.85927927e-01 7.02079892e-01 6.79371357e-01 6.12814605e-01
      5.62270522e-01 5.25469422e-01 4.70154673e-01 4.56646144e-01
      4.55296874e-01 3.47343206e-01 3.25413615e-01 3.30603212e-01
      3.75806123e-01 3.88579488e-01 1.71939418e-01 1.58228338e-01
      2.22519130e-01 1.76374704e-01 1.23221219e-01 6.79711029e-02
      6.43341094e-02 7.86914863e-03 8.15880951e-03 2.70292275e-02
      -2.61451863e-02 6.09771907e-03 -6.56360313e-02 -3.65770340e+00
      -2.33358562e-01 -2.25572027e-02 -1.78146720e-01 -6.55619577e-02
      5.65601066e-02 -4.90928330e-02 8.73048231e-03 -2.73606312e-02
      7.69325998e-03 -4.95830365e-02 -1.14786355e-02 8.51601548e-03
      -5.38502773e-03 1.33847268e-02 -3.33919190e-02 -2.34786108e-01
      -1.75968278e-02 -1.74464405e-01 -6.77754432e-02 5.65143675e-02
      -4.47881632e-02 9.93242487e-03 -2.80934367e-02 6.59403577e-03
      -4.67553027e-02 -1.18568940e-02 9.12025757e-03 -5.20316372e-03
      1.24384752e-02 -3.17543522e-02 -2.37416625e-01 -1.21748699e-02
      -1.69970900e-01 -7.09623620e-02 5.57836108e-02 -4.05768193e-02
      1.19665507e-02 -2.84825601e-02 5.33448299e-03 -4.41892520e-02
      -1.29282717e-02 9.57515649e-03 -4.90084663e-03 1.15156891e-02
      -3.03294566e-02 -2.43015558e-01 -6.84551802e-03 -1.65169924e-01
      -7.48163983e-02 5.43899350e-02 -3.65835838e-02 1.44778229e-02
      -2.84969639e-02 3.94240394e-03 -4.17926721e-02 -1.44812819e-02
      9.81729571e-03 -4.49561607e-03 1.05973026e-02 -2.89712958e-02
      -2.44360670e-01 -2.93397508e-03 -1.61598876e-01 -7.73302242e-02
      5.33259325e-02 -3.31574008e-02 1.62696596e-02 -2.84348875e-02
      2.74984236e-03 -3.95793095e-02 -1.55517217e-02 9.93815716e-03
      -4.10200981e-03 9.74819623e-03 -2.76691485e-02 -2.42477000e-01
      -1.42131379e-04 -1.58753186e-01 -7.88504332e-02 5.24523146e-02
      -3.00945044e-02 1.75101869e-02 -2.83181053e-02 1.66471698e-03
      -3.75389196e-02 -1.62325278e-02 9.98505857e-03 -3.70278070e-03
      8.94664880e-03 -2.64784098e-02 -2.41907746e-01 -6.38697704e-04
      -1.55403420e-01 -7.82494843e-02 5.07408306e-02 -2.76342928e-02
      1.70494653e-02 -2.76748054e-02 6.24762150e-04 -3.61097865e-02
      -1.58752948e-02 9.66468547e-03 -3.29746702e-03 8.33214819e-03
      -2.56846938e-02 -2.40959510e-01 -1.18284451e-03 -1.51175708e-01
      -7.76482821e-02 4.86164317e-02 -2.50571519e-02 1.66369695e-02
      -2.68280618e-02 -4.93600091e-04 -3.47817615e-02 -1.55679910e-02
      9.25186742e-03 -2.84123956e-03 7.75195984e-03 -2.50003152e-02
      -2.34171316e-01 -3.08081089e-03 -1.43571794e-01 -7.58195594e-02
      4.50725220e-02 -2.12666951e-02 1.57561041e-02 -2.51970626e-02
      -2.10485491e-03 -3.30716670e-02 -1.50014870e-02 8.46593827e-03
      -2.10324232e-03 7.02346489e-03 -2.42125113e-02 -2.23838627e-01
      -5.86144160e-03 -1.36063918e-01 -7.33659640e-02 4.16574292e-02
      -1.76891722e-02 1.47007005e-02 -2.35669427e-02 -3.57642421e-03
      -3.15137096e-02 -1.43681346e-02 7.68855354e-03 -1.40219287e-03
      6.38760161e-03 -2.35158075e-02 -2.09619120e-01 -9.41178016e-03
      -1.28861681e-01 -7.04110339e-02 3.84703577e-02 -1.44080976e-02
      1.35906180e-02 -2.19736602e-02 -4.87072952e-03 -3.01230904e-02
      -1.37545988e-02 6.93886634e-03 -7.46565580e-04 5.85300196e-03
      -2.29084473e-02 -1.99224830e-01 -1.28464578e-02 -1.23750210e-01
      -6.79458678e-02 3.63657363e-02 -1.18273441e-02 1.26731712e-02
      -2.09710598e-02 -5.80638321e-03 -2.89644599e-02 -1.33623341e-02
      6.49319030e-03 -3.05831549e-04 5.45115769e-03 -2.23860070e-02
      -1.90715834e-01 -1.50467465e-02 -1.18798718e-01 -6.65369332e-02
      3.44812423e-02 -9.26401652e-03 1.24480622e-02 -2.01401003e-02
      -6.68713031e-03 -2.78038494e-02 -1.34392334e-02 6.15735585e-03
      8.47253687e-05 5.07362513e-03 -2.18556356e-02 -1.80661246e-01
      -1.59051735e-02 -1.14394695e-01 -6.53580129e-02 3.27724889e-02
      -6.68545393e-03 1.23000145e-02 -1.92763712e-02 -7.68029643e-03
      -2.66370829e-02 -1.33611215e-02 5.74378669e-03 5.93303062e-04
      4.59183427e-03 -2.13889573e-02 -1.74069971e-01 -1.48987463e-02
      -1.10548779e-01 -6.55811578e-02 3.13428752e-02 -4.48912196e-03
      1.29222982e-02 -1.85860358e-02 -8.53687245e-03 -2.56978311e-02
      -1.37358364e-02 5.43103041e-03 1.03164650e-03 4.19314438e-03
      -2.10446138e-02 -1.71841338e-01 -1.27180703e-02 -1.07524715e-01
      -6.68627694e-02 3.01252622e-02 -2.97725038e-03 1.40360193e-02
      -1.79945827e-02 -9.18357261e-03 -2.51492765e-02 -1.44185554e-02
      5.15691331e-03 1.37268880e-03 3.93263903e-03 -2.09106859e-02
      -1.63803115e-01 -1.28251277e-02 -1.01849899e-01 -6.64338917e-02
      2.80055888e-02 -4.74644447e-04 1.42074609e-02 -1.69745926e-02
      -1.01135112e-02 -2.41198689e-02 -1.45105282e-02 4.70036408e-03
      1.83331419e-03 3.54918651e-03 -2.04745047e-02 -1.51881739e-01
      -1.48071097e-02 -9.52843055e-02 -6.45884126e-02 2.55875383e-02
      2.58989469e-03 1.35145150e-02 -1.57790147e-02 -1.12001412e-02
      -2.27159746e-02 -1.40486276e-02 4.15685354e-03 2.35978211e-03
      3.06311250e-03 -1.97510999e-02 -1.38091654e-01 -1.95830278e-02
      -8.95784870e-02 -6.02310374e-02 2.33169142e-02 5.16602583e-03
      1.08674280e-02 -1.45113859e-02 -1.21433409e-02 -2.15807259e-02
      -1.22177964e-02 3.49503197e-03 2.84939748e-03 2.65398039e-03
      -1.92353874e-02 -1.25182211e-01 -2.41427030e-02 -8.44274089e-02
      -5.57708703e-02 2.12188009e-02 7.49933952e-03 7.97825865e-03
      -1.32746883e-02 -1.30054113e-02 -2.05682479e-02 -1.01605430e-02
      2.81725149e-03 3.31258797e-03 2.28656991e-03 -1.87992267e-02
      -1.16296932e-01 -2.52823476e-02 -8.06444362e-02 -5.39734438e-02
      1.98222604e-02 9.22950823e-03 6.94991695e-03 -1.24670817e-02
      -1.36557631e-02 -1.98883060e-02 -9.34297405e-03 2.42028874e-03
      3.68239335e-03 2.01539393e-03 -1.85563844e-02 -1.03130750e-01
      -2.98746824e-02 -7.75869712e-02 -5.01320623e-02 1.86668225e-02
      1.04957158e-02 4.81335307e-03 -1.17067806e-02 -1.40908631e-02
      -1.93954501e-02 -7.97302462e-03 2.03340780e-03 3.96263646e-03
      1.83900131e-03 -1.83863193e-02 -8.68045092e-02 -3.66532691e-02
      -7.44110122e-02 -4.52150255e-02 1.73074119e-02 1.16222613e-02
      2.22123135e-03 -1.07617266e-02 -1.44707272e-02 -1.89700015e-02
      -6.46425458e-03 1.53513195e-03 4.23762482e-03 1.71506149e-03
      -1.82305593e-02 -7.34656379e-02 -4.04289179e-02 -7.21654147e-02
      -4.25940081e-02 1.65352449e-02 1.25328917e-02 1.14019122e-03
      -1.01763047e-02 -1.47100901e-02 -1.85139198e-02 -5.89832012e-03
      1.24628609e-03 4.43296833e-03 1.61334628e-03 -1.79826356e-02
      -6.20675124e-02 -4.15609106e-02 -7.04565495e-02 -4.19163629e-02
      1.62123740e-02 1.34660490e-02 1.33362412e-03 -9.88310296e-03
      -1.49173141e-02 -1.79312918e-02 -6.10718504e-03 1.13881577e-03
      4.60236985e-03 1.47660379e-03 -1.76183674e-02 -4.49020788e-02
      -4.52752076e-02 -6.71990290e-02 -3.93188521e-02 1.51332309e-02
      1.50064640e-02 3.41715931e-04 -9.10175871e-03 -1.54147614e-02
      -1.71180535e-02 -5.54100797e-03 7.45164230e-04 4.94891312e-03
      1.21938612e-03 -1.71760470e-02 -2.37351898e-02 -5.34075201e-02
      -6.35730252e-02 -3.40539105e-02 1.36311585e-02 1.64834466e-02
      -2.19727191e-03 -8.09340551e-03 -1.59409158e-02 -1.63952019e-02
      -4.16967692e-03 2.21556751e-04 5.30041195e-03 9.76777752e-04
      -1.67989507e-02 -9.41546168e-03 -5.83105236e-02 -6.05338626e-02
      -3.09932176e-02 1.25259487e-02 1.76730920e-02 -3.50933243e-03
      -7.43240118e-03 -1.63421072e-02 -1.59002114e-02 -3.52677773e-03
      -8.88402501e-05 5.54861687e-03 8.01539747e-04 -1.65896397e-02
      3.83963110e-03 -6.21133409e-02 -5.73826022e-02 -2.88384948e-02
      1.14368014e-02 1.89672858e-02 -4.20792075e-03 -6.83244877e-03
      -1.67767126e-02 -1.53446868e-02 -3.28080519e-03 -3.45868553e-04
      5.79879060e-03 6.05084526e-04 -1.63333993e-02 1.51449488e-02
      -6.41662180e-02 -5.29400520e-02 -2.79820878e-02 9.84123442e-03
      2.06343178e-02 -4.07045009e-03 -6.05702680e-03 -1.73898675e-02
      -1.47031788e-02 -3.55790602e-03 -6.53797702e-04 6.12168992e-03
      3.66173481e-04 -1.60625838e-02 2.85480879e-02 -6.79543093e-02
      -4.95812781e-02 -2.60658376e-02 8.64253566e-03 2.19106767e-02
      -4.54937108e-03 -5.40414080e-03 -1.77936275e-02 -1.40452916e-02
      -3.49967717e-03 -9.29229660e-04 6.34479197e-03 1.88857652e-04
      -1.56032117e-02 3.89521308e-02 -6.94751665e-02 -4.77308035e-02
      -2.55846716e-02 8.10424611e-03 2.26998013e-02 -4.21248935e-03
      -5.06128278e-03 -1.80042218e-02 -1.35224499e-02 -3.89807834e-03
      -1.05333130e-03 6.48266869e-03 6.44675238e-05 -1.51321515e-02
      4.81141657e-02 -7.15679526e-02 -4.61222492e-02 -2.39646398e-02
      7.86823966e-03 2.38789227e-02 -4.99689998e-03 -4.87162033e-03
      -1.82901509e-02 -1.27659887e-02 -3.41756549e-03 -1.13263133e-03
      6.62402529e-03 -1.36582385e-04 -1.45401778e-02 5.69403693e-02
      -7.32977316e-02 -4.39686999e-02 -2.26782877e-02 7.35194795e-03
      2.53289677e-02 -5.55087347e-03 -4.55076620e-03 -1.87367778e-02
      -1.17885014e-02 -3.08865053e-03 -1.27313915e-03 6.85265521e-03
      -4.59445233e-04 -1.37730530e-02 6.13712408e-02 -7.21415430e-02
      -4.09305952e-02 -2.30471045e-02 6.34850329e-03 2.76395380e-02
      -5.30151837e-03 -3.96943046e-03 -1.96538232e-02 -1.01270685e-02
      -3.14000319e-03 -1.56558957e-03 7.32577452e-03 -1.13629398e-03
      -1.25141526e-02 6.23216219e-02 -6.95053414e-02 -3.86096910e-02
      -2.44024117e-02 5.65866334e-03 2.92653404e-02 -4.52160370e-03
      -3.57942306e-03 -2.02643238e-02 -9.06466972e-03 -3.49884643e-03
      -1.75812584e-03 7.64186587e-03 -1.54363876e-03 -1.17718931e-02
      6.59790114e-02 -6.94866255e-02 -3.58935781e-02 -2.39952747e-02
      4.64759255e-03 3.05251759e-02 -4.85421903e-03 -2.97445850e-03
      -2.07254644e-02 -8.44403170e-03 -3.18836910e-03 -2.08849879e-03
      7.89763220e-03 -1.75684807e-03 -1.14073083e-02 7.02949762e-02
      -6.85644746e-02 -3.36091556e-02 -2.41539627e-02 4.11553821e-03
      3.21681350e-02 -4.87042638e-03 -2.66909087e-03 -2.12689638e-02
      -7.30440579e-03 -2.99888756e-03 -2.23729340e-03 8.15831404e-03
      -2.16692616e-03 -1.05292033e-02 7.48679638e-02 -6.77341968e-02
      -3.15075293e-02 -2.45089028e-02 3.69140040e-03 3.41251679e-02
      -4.65806713e-03 -2.48517701e-03 -2.19582766e-02 -5.82418405e-03
      -3.00359889e-03 -2.29092408e-03 8.46222695e-03 -2.74056592e-03
      -9.37624369e-03 8.13845471e-02 -7.01270327e-02 -2.88303960e-02
      -2.26830058e-02 2.90078390e-03 3.76349874e-02 -5.82980365e-03
      -2.16539297e-03 -2.32568514e-02 -2.66339653e-03 -2.21276074e-03
      -2.40733637e-03 8.97694472e-03 -3.95376328e-03 -6.78086886e-03
      8.98334011e-02 -7.28615224e-02 -2.59457827e-02 -2.08684411e-02
      2.02520378e-03 4.08839546e-02 -6.83885114e-03 -1.79101387e-03
      -2.44375784e-02 -9.64785158e-06 -1.58566632e-03 -2.54731113e-03
      9.45182052e-03 -4.94296849e-03 -4.72420640e-03 9.89750028e-02
      -7.56241456e-02 -2.43619476e-02 -1.90390255e-02 1.62815768e-03
      4.37316485e-02 -7.85829220e-03 -1.56854559e-03 -2.54924595e-02
      2.35840329e-03 -9.40475729e-04 -2.64168181e-03 9.89768934e-03
      -5.83811477e-03 -2.94046127e-03 1.06203258e-01 -7.85055235e-02
      -2.31364779e-02 -1.71074662e-02 1.35355606e-03 4.61755171e-02
      -8.96110013e-03 -1.41976553e-03 -2.63251793e-02 4.41778125e-03
      -2.82704306e-04 -2.70252489e-03 1.02161961e-02 -6.56426186e-03
      -1.42409769e-03 1.12513781e-01 -8.18827078e-02 -2.19123624e-02
      -1.49250524e-02 9.98507137e-04 4.84016165e-02 -1.01748277e-02
      -1.24005775e-03 -2.70565413e-02 6.24685269e-03 3.81275662e-04
      -2.77549424e-03 1.04742451e-02 -7.18242908e-03 -1.24594269e-04
      1.16372019e-01 -8.44893306e-02 -2.02517733e-02 -1.32218879e-02
      3.54315562e-04 5.09788394e-02 -1.11686988e-02 -9.37476230e-04
      -2.80085262e-02 8.34970269e-03 9.50936403e-04 -2.90359394e-03
      1.08320275e-02 -7.96008203e-03 1.45508465e-03 1.22004129e-01
      -8.79388526e-02 -1.81438196e-02 -1.11650266e-02 -5.98139886e-04
      5.36476895e-02 -1.22511908e-02 -4.63118806e-04 -2.90594306e-02
      1.04127005e-02 1.51268928e-03 -3.11511476e-03 1.12562375e-02
      -8.75404105e-03 2.98507698e-03 1.26972675e-01 -9.03412402e-02
      -1.66905988e-02 -9.57449712e-03 -1.29393907e-03 5.62825464e-02
      -1.31612970e-02 -3.47903442e-05 -3.00970189e-02 1.26531096e-02
      2.04693759e-03 -3.34776822e-03 1.16924373e-02 -9.61545762e-03
      4.76117386e-03 1.31761879e-01 -9.31828767e-02 -1.60338283e-02
      -7.94131309e-03 -1.73369504e-03 5.80488220e-02 -1.39528029e-02
      2.58951011e-04 -3.07896640e-02 1.42205227e-02 2.41123419e-03
      -3.49412044e-03 1.19726257e-02 -1.01999780e-02 6.00790000e-03
      1.36407629e-01 -9.63992327e-02 -1.57738607e-02 -6.47916086e-03
      -2.14037229e-03 5.88844791e-02 -1.44105162e-02 5.12005237e-04
      -3.11466046e-02 1.51012456e-02 2.43786070e-03 -3.58448504e-03
      1.21103441e-02 -1.05147511e-02 6.77693589e-03 1.36054069e-01
      -9.50429514e-02 -1.47527102e-02 -7.80860474e-03 -2.38480186e-03
      5.99964634e-02 -1.34223960e-02 5.09571808e-04 -3.14817876e-02
      1.59376469e-02 1.78595772e-03 -3.50272469e-03 1.21793952e-02
      -1.07613187e-02 7.44659593e-03 1.33449167e-01 -9.15055126e-02
      -1.33676687e-02 -1.05528515e-02 -2.59090913e-03 6.12219684e-02
      -1.16451737e-02 4.04338818e-04 -3.18350084e-02 1.66925211e-02
      7.27174862e-04 -3.34068667e-03 1.22391619e-02 -1.09751830e-02
      8.00080691e-03 1.30540073e-01 -8.76232013e-02 -1.17383376e-02
      -1.30649731e-02 -2.62451335e-03 6.28215671e-02 -1.03568230e-02
      2.55400199e-04 -3.21911983e-02 1.76915042e-02 1.57160452e-04
      -3.23136477e-03 1.22820018e-02 -1.11865923e-02 8.69559590e-03
      1.26914874e-01 -8.37261379e-02 -1.03612738e-02 -1.56608559e-02
      -2.62473268e-03 6.42395690e-02 -8.90532881e-03 9.73724236e-05
      -3.25091183e-02 1.85260754e-02 -5.95707970e-04 -3.09846457e-03
      1.23307696e-02 -1.13443490e-02 9.25990846e-03 1.21619642e-01
      -8.05281699e-02 -9.86336078e-03 -1.76387392e-02 -2.57509761e-03
      6.51450083e-02 -7.77534815e-03 -1.61209282e-05 -3.27465832e-02
      1.90758426e-02 -1.23095047e-03 -2.98162666e-03 1.23900631e-02
      -1.14417719e-02 9.65105370e-03 1.16776444e-01 -7.89487362e-02
      -9.49869771e-03 -1.85289774e-02 -2.83358688e-03 6.57094643e-02
      -7.24544888e-03 1.26292813e-04 -3.29637602e-02 1.94154531e-02
      -1.57757231e-03 -3.01194633e-03 1.24839079e-02 -1.14993388e-02
      9.97282378e-03 1.11807369e-01 -7.81893730e-02 -9.19575617e-03
      -1.89313982e-02 -3.22774914e-03 6.61049113e-02 -6.94491016e-03
      3.78308789e-04 -3.31499353e-02 1.96637325e-02 -1.84582989e-03
      -3.09725362e-03 1.25838676e-02 -1.15234209e-02 1.02907941e-02
      1.05392314e-01 -7.68080428e-02 -1.14307748e-02 -1.91871468e-02
      -2.34162272e-03 6.58207759e-02 -6.94455253e-03 9.45578504e-05
      -3.29385549e-02 1.97792146e-02 -1.82833616e-03 -2.96741654e-03
      1.25141200e-02 -1.14358645e-02 1.05892234e-02 9.95952860e-02
      -7.61638507e-02 -1.39723625e-02 -1.88520979e-02 -1.28412060e-03
      6.53974265e-02 -7.33309751e-03 -2.20323782e-04 -3.25993411e-02
      1.98671613e-02 -1.58525282e-03 -2.85091065e-03 1.23924622e-02
      -1.12859346e-02 1.08976085e-02 9.24737304e-02 -7.75275156e-02
      -2.01085098e-02 -1.68252867e-02 1.07185543e-03 6.34923577e-02
      -8.90041981e-03 -9.23400163e-04 -3.15969810e-02 1.95019767e-02
      -6.62605045e-04 -2.65247119e-03 1.19983749e-02 -1.08797103e-02
      1.10868784e-02 8.62017721e-02 -7.92942569e-02 -2.65214946e-02
      -1.46057960e-02 3.73200024e-03 6.17167652e-02 -1.06000807e-02
      -1.80296833e-03 -3.05401571e-02 1.93262659e-02 3.43735446e-04
      -2.37976038e-03 1.15407640e-02 -1.05120288e-02 1.13674738e-02
      7.67469481e-02 -7.89084956e-02 -3.26814838e-02 -1.37940450e-02
      6.61517028e-03 6.00705370e-02 -1.15788179e-02 -2.92461598e-03
      -2.94466298e-02 1.92472674e-02 9.99932294e-04 -1.95897510e-03
      1.10075297e-02 -1.01674674e-02 1.16652288e-02 6.26301914e-02
      -7.40588903e-02 -3.55873816e-02 -1.56352129e-02 8.80044699e-03
      6.00183457e-02 -1.11986054e-02 -4.02772427e-03 -2.88687572e-02
      1.98213309e-02 1.01225520e-03 -1.45307637e-03 1.06031327e-02
      -1.00848926e-02 1.22007942e-02 5.09342998e-02 -6.95447698e-02
      -3.72119024e-02 -1.75975971e-02 1.04443282e-02 6.05795942e-02
      -1.05853686e-02 -4.95873298e-03 -2.86013689e-02 2.06163693e-02
      8.37651314e-04 -9.90337692e-04 1.03230458e-02 -1.01521946e-02
      1.27749192e-02 3.40969637e-02 -6.21997900e-02 -4.03074846e-02
      -2.12754942e-02 1.26810381e-02 6.04814366e-02 -9.13079176e-03
      -6.16002269e-03 -2.81919669e-02 2.10063811e-02 2.75709142e-04
      -4.02104110e-04 9.99261066e-03 -1.01362793e-02 1.30949114e-02
      1.64791103e-02 -5.42691574e-02 -4.21523228e-02 -2.54651178e-02
      1.43788913e-02 6.06792904e-02 -7.34896492e-03 -7.16042286e-03
      -2.79805418e-02 2.13755332e-02 -4.83453448e-04 1.19172313e-04
      9.75619350e-03 -1.01600513e-02 1.33264251e-02 5.16519835e-03
      -4.96566184e-02 -4.18351144e-02 -2.78783143e-02 1.46992644e-02
      6.14095330e-02 -6.37223758e-03 -7.42321694e-03 -2.81592533e-02
      2.18329243e-02 -8.90751777e-04 2.70834164e-04 9.75442119e-03
      -1.02878213e-02 1.35295624e-02 -7.50041241e-03 -4.47832197e-02
      -4.25193161e-02 -3.06369904e-02 1.51528884e-02 6.13830201e-02
      -5.14636701e-03 -7.66891427e-03 -2.81599276e-02 2.18328834e-02
      -1.48069125e-03 3.99663229e-04 9.71503276e-03 -1.02807535e-02
      1.35269361e-02 -2.02588160e-02 -4.08376642e-02 -4.42189798e-02
      -3.30032893e-02 1.57393720e-02 6.04886226e-02 -4.08510864e-03
      -7.88244326e-03 -2.79150605e-02 2.14544963e-02 -2.04162649e-03
      4.89485683e-04 9.60258767e-03 -1.01488186e-02 1.33669935e-02
      -3.62044014e-02 -3.37510444e-02 -4.51485068e-02 -3.77659462e-02
      1.64415929e-02 6.02814518e-02 -1.43110577e-03 -8.37058574e-03
      -2.78394613e-02 2.13579405e-02 -3.60464281e-03 8.15211155e-04
      9.50263441e-03 -1.01034148e-02 1.33148571e-02 -5.25876284e-02
      -2.58956421e-02 -4.50493395e-02 -4.33692560e-02 1.68401357e-02
      6.03830069e-02 1.89085025e-03 -8.82706326e-03 -2.78636850e-02
      2.12860685e-02 -5.64280618e-03 1.18465675e-03 9.42546967e-03
      -1.00648478e-02 1.32645415e-02 -6.56603575e-02 -2.07182113e-02
      -4.50257435e-02 -4.73936833e-02 1.70401167e-02 6.01267964e-02
      4.34132619e-03 -9.11109336e-03 -2.78205592e-02 2.11180765e-02
      -7.22057140e-03 1.44165254e-03 9.34847817e-03 -1.00016901e-02
      1.31639615e-02 -7.73806572e-02 -1.69169176e-02 -4.52336483e-02
      -5.04277758e-02 1.72157511e-02 5.97754084e-02 6.11028494e-03
      -9.32432525e-03 -2.77525038e-02 2.09360532e-02 -8.36023502e-03
      1.62732764e-03 9.26947873e-03 -9.93583910e-03 1.30698141e-02
      -8.46156254e-02 -1.79590359e-02 -4.53725569e-02 -4.99503836e-02
      1.70053765e-02 5.93965352e-02 5.54591836e-03 -9.18202568e-03
      -2.76956130e-02 2.07962375e-02 -8.05022568e-03 1.53877412e-03
      9.21536051e-03 -9.88398772e-03 1.30074527e-02 -9.36833620e-02
      -1.78072341e-02 -4.66984324e-02 -5.06245159e-02 1.73532851e-02
      5.87797612e-02 5.83537435e-03 -9.35352035e-03 -2.75290031e-02
      2.05609053e-02 -8.35919101e-03 1.63917057e-03 9.09681339e-03
      -9.79813281e-03 1.29403304e-02 -1.02730416e-01 -1.67780798e-02
      -4.85348068e-02 -5.21214604e-02 1.79785788e-02 5.79979718e-02
      6.77805021e-03 -9.69360024e-03 -2.72961762e-02 2.03079153e-02
      -9.12675820e-03 1.84761360e-03 8.94992147e-03 -9.70731862e-03
      1.28694195e-02 -1.11677244e-01 -1.82881914e-02 -4.93140109e-02
      -5.16800508e-02 1.78138353e-02 5.74178286e-02 6.21164404e-03
      -9.51108709e-03 -2.72510052e-02 2.01019291e-02 -8.87429621e-03
      1.71494344e-03 8.91373586e-03 -9.65456758e-03 1.27994623e-02
      -1.21417791e-01 -1.93443298e-02 -5.16696870e-02 -5.15184961e-02
      1.82867721e-02 5.63584343e-02 5.73187927e-03 -9.59361531e-03
      -2.70308908e-02 1.97487175e-02 -8.63503665e-03 1.69103732e-03
      8.80892668e-03 -9.54988413e-03 1.27007281e-02 -1.28925636e-01
      -2.07774378e-02 -5.53406440e-02 -5.06997257e-02 1.97788458e-02
      5.48428930e-02 4.77055600e-03 -1.02737825e-02 -2.64944192e-02
      1.94602069e-02 -8.03932082e-03 1.98996067e-03 8.53596255e-03
      -9.43233725e-03 1.25970393e-02 -1.34844303e-01 -2.35872734e-02
      -5.73154725e-02 -4.90293391e-02 2.03679446e-02 5.38369752e-02
      3.28404503e-03 -1.05054816e-02 -2.61883568e-02 1.92665905e-02
      -7.13776099e-03 2.05706176e-03 8.36736802e-03 -9.36034136e-03
      1.25252577e-02 -1.39904529e-01 -2.71440558e-02 -5.93379699e-02
      -4.69114147e-02 2.07359921e-02 5.27341813e-02 1.50955911e-03
      -1.05510605e-02 -2.59001069e-02 1.89523138e-02 -6.06962852e-03
      2.00068136e-03 8.22715275e-03 -9.25914478e-03 1.24278553e-02
      -1.47448838e-01 -2.84692701e-02 -5.87005727e-02 -4.63381782e-02
      2.01097857e-02 5.26692905e-02 6.38575235e-04 -1.02738990e-02
      -2.60245372e-02 1.89824756e-02 -5.50950505e-03 1.83187739e-03
      8.24709143e-03 -9.30256769e-03 1.24284839e-02 -1.54817134e-01
      -2.97895707e-02 -5.79129495e-02 -4.58355881e-02 1.94326211e-02
      5.24579585e-02 -2.36632113e-04 -1.00431545e-02 -2.61109639e-02
      1.89056303e-02 -4.91479086e-03 1.70809729e-03 8.23956821e-03
      -9.32259113e-03 1.23845320e-02 -1.58860132e-01 -3.29650193e-02
      -5.99145778e-02 -4.44905832e-02 1.95437148e-02 5.10844178e-02
      -1.41690392e-03 -1.00419549e-02 -2.58355476e-02 1.84338782e-02
      -4.24968032e-03 1.65113679e-03 8.11532047e-03 -9.21919197e-03
      1.22210523e-02 -1.62095621e-01 -3.57264206e-02 -6.13911971e-02
      -4.35408577e-02 1.94471870e-02 4.98928949e-02 -2.28420855e-03
      -9.96756274e-03 -2.56477818e-02 1.79855134e-02 -3.77972960e-03
      1.56556291e-03 8.03379994e-03 -9.13683325e-03 1.20546501e-02
      -1.67691067e-01 -3.62171866e-02 -6.25925362e-02 -4.45662439e-02
      1.94081441e-02 4.88691069e-02 -1.88709295e-03 -1.00817904e-02
      -2.55323946e-02 1.75841786e-02 -4.09341510e-03 1.62985956e-03
      7.95108266e-03 -9.08921938e-03 1.18934261e-02 -1.69131696e-01
      -3.80244628e-02 -6.28361702e-02 -4.51192036e-02 1.90405119e-02
      4.82412986e-02 -1.53367396e-03 -1.01286806e-02 -2.55485177e-02
      1.72953568e-02 -4.47026594e-03 1.69658067e-03 7.90749211e-03
      -9.08966735e-03 1.17654232e-02 -1.64469644e-01 -4.15481851e-02
      -6.22339025e-02 -4.46985476e-02 1.84239931e-02 4.78841029e-02
      -1.46020798e-03 -1.00675570e-02 -2.56064013e-02 1.70665961e-02
      -4.75747325e-03 1.73280714e-03 7.88300112e-03 -9.10131820e-03
      1.16498768e-02 -1.63983107e-01 -4.43197004e-02 -6.23707138e-02
      -4.47235480e-02 1.81101486e-02 4.76716571e-02 -1.45844801e-03
      -1.01717934e-02 -2.57179495e-02 1.69751775e-02 -4.93715657e-03
      1.79849775e-03 7.84985814e-03 -9.16437060e-03 1.16064232e-02
      -1.65188596e-01 -4.68712188e-02 -6.25841469e-02 -4.49116826e-02
      1.78293586e-02 4.75234427e-02 -1.47982233e-03 -1.03088757e-02
      -2.58375239e-02 1.69399939e-02 -5.11604594e-03 1.85878889e-03
      7.80649064e-03 -9.24058165e-03 1.15954056e-02 -1.67204678e-01
      -4.50368524e-02 -5.99149577e-02 -4.74879593e-02 1.69800185e-02
      4.83808108e-02 3.86975553e-05 -1.02973161e-02 -2.61791889e-02
      1.72363929e-02 -6.12122798e-03 1.92240265e-03 7.85185583e-03
      -9.39297210e-03 1.16674127e-02 -1.67922005e-01 -4.41975594e-02
      -5.75457625e-02 -4.96370569e-02 1.63169615e-02 4.92053069e-02
      1.36591645e-03 -1.03710089e-02 -2.64290106e-02 1.75748542e-02
      -7.08727818e-03 2.01577623e-03 7.84997363e-03 -9.52178985e-03
      1.17911138e-02 -1.67164147e-01 -4.62718010e-02 -5.68199828e-02
      -5.01269065e-02 1.58147030e-02 4.94349860e-02 1.81834435e-03
      -1.04129361e-02 -2.65493598e-02 1.77254658e-02 -7.64726521e-03
      2.05806619e-03 7.82217551e-03 -9.60758142e-03 1.18803000e-02
      -1.71036884e-01 -4.38595936e-02 -5.56780845e-02 -5.28105795e-02
      1.56184984e-02 4.99990322e-02 3.38655710e-03 -1.06810778e-02
      -2.66493186e-02 1.80138163e-02 -8.71767662e-03 2.23270385e-03
      7.77018722e-03 -9.69283283e-03 1.20276427e-02 -1.79314405e-01
      -3.79875228e-02 -5.46284318e-02 -5.72826751e-02 1.58424247e-02
      5.06832711e-02 5.85290510e-03 -1.12161487e-02 -2.66652331e-02
      1.83823798e-02 -1.02241002e-02 2.55600014e-03 7.66437408e-03
      -9.75408126e-03 1.22244395e-02 -1.82976276e-01 -3.86047438e-02
      -5.45036718e-02 -5.65202199e-02 1.46361962e-02 5.06212860e-02
      5.19464212e-03 -1.06732808e-02 -2.70566363e-02 1.82429217e-02
      -9.78222955e-03 2.23586056e-03 7.85583258e-03 -9.91791487e-03
      1.21185146e-02 -1.89738855e-01 -3.89487185e-02 -5.66121824e-02
      -5.56937642e-02 1.38622625e-02 4.94748093e-02 4.49418044e-03
      -1.02604907e-02 -2.72726770e-02 1.75614581e-02 -9.30773467e-03
      1.97928748e-03 8.00785609e-03 -1.00041814e-02 1.17401667e-02
      -2.01282114e-01 -3.73187959e-02 -6.03591353e-02 -5.62188029e-02
      1.44206909e-02 4.81857732e-02 4.09039715e-03 -1.06051583e-02
      -2.71494016e-02 1.70157235e-02 -8.89297202e-03 2.05818494e-03
      7.93200638e-03 -1.00201201e-02 1.14877103e-02 -2.05714911e-01
      -3.86602916e-02 -6.42039552e-02 -5.47632799e-02 1.50226466e-02
      4.67041954e-02 2.72808154e-03 -1.08691007e-02 -2.68856511e-02
      1.64276268e-02 -7.94922281e-03 2.07848637e-03 7.82219600e-03
      -9.98608582e-03 1.12298522e-02 -2.00390667e-01 -4.35772203e-02
      -6.76799938e-02 -5.09639829e-02 1.55627234e-02 4.51724604e-02
      3.32185911e-04 -1.09788729e-02 -2.64833737e-02 1.58874821e-02
      -6.45666989e-03 2.00812053e-03 7.68324081e-03 -9.90773179e-03
      1.10185239e-02 -2.00115845e-01 -4.73778322e-02 -7.11412281e-02
      -4.82325181e-02 1.60262138e-02 4.37588282e-02 -1.58605992e-03
      -1.11783212e-02 -2.61550639e-02 1.53607083e-02 -5.30676823e-03
      1.98141858e-03 7.52851460e-03 -9.85328015e-03 1.08078746e-02
      -2.01790646e-01 -5.06489463e-02 -7.45081306e-02 -4.61213700e-02
      1.63467284e-02 4.23033908e-02 -3.11831059e-03 -1.13560474e-02
      -2.58566365e-02 1.47560574e-02 -4.45634639e-03 1.94773311e-03
      7.37768365e-03 -9.78755485e-03 1.05554108e-02 -1.87111184e-01
      -5.92539087e-02 -7.71363750e-02 -4.02611569e-02 1.64567046e-02
      4.06044722e-02 -6.10227231e-03 -1.11488868e-02 -2.53459867e-02
      1.40449330e-02 -2.84697837e-03 1.73335627e-03 7.23705627e-03
      -9.61883366e-03 1.02509838e-02 -1.74962059e-01 -6.69650882e-02
      -8.02595094e-02 -3.50903831e-02 1.66731048e-02 3.86207439e-02
      -8.78107827e-03 -1.09754782e-02 -2.47776508e-02 1.31735839e-02
      -1.41750148e-03 1.52043754e-03 7.08197476e-03 -9.39902756e-03
      9.88202821e-03 -1.69523954e-01 -7.28192255e-02 -8.51328149e-02
      -3.09583228e-02 1.73879508e-02 3.60021368e-02 -1.12927426e-02
      -1.09758507e-02 -2.40553189e-02 1.20410100e-02 3.77663127e-06
      1.32197456e-03 6.86788419e-03 -9.09983553e-03 9.42455325e-03
      -1.56309649e-01 -8.22190866e-02 -8.89538601e-02 -2.45173685e-02
      1.75024010e-02 3.33585925e-02 -1.48853753e-02 -1.05698630e-02
      -2.33614706e-02 1.07529880e-02 2.00523552e-03 9.16156569e-04
      6.71736710e-03 -8.75595026e-03 8.85921996e-03 -1.37703121e-01
      -9.37420800e-02 -9.18311328e-02 -1.68643799e-02 1.71128809e-02
      3.06747984e-02 -1.89114157e-02 -9.86186787e-03 -2.26994436e-02
      9.28889215e-03 4.18768730e-03 3.77554679e-04 6.62183296e-03
      -8.36413912e-03 8.17172881e-03 -1.23918675e-01 -1.02080598e-01
      -9.30628926e-02 -1.15748737e-02 1.65469982e-02 2.92790551e-02
      -2.16218848e-02 -9.33829229e-03 -2.23907381e-02 8.55241902e-03
      5.62395016e-03 9.92603509e-06 6.58406317e-03 -8.19395762e-03
      7.83823337e-03 -1.12028182e-01 -1.09259777e-01 -9.40692723e-02
      -7.16792792e-03 1.59784034e-02 2.79943570e-02 -2.38424577e-02
      -8.87379982e-03 -2.21289601e-02 7.83919916e-03 6.78195897e-03
      -3.08413408e-04 6.55405317e-03 -8.03793315e-03 7.50064757e-03
      -1.05140455e-01 -1.11393303e-01 -9.43009406e-02 -5.17998589e-03
      1.55039923e-02 2.72281505e-02 -2.48221438e-02 -8.47549550e-03
      -2.20298357e-02 7.29755173e-03 7.39772758e-03 -5.67939540e-04
      6.61069108e-03 -7.95683265e-03 7.18949968e-03 -9.52179655e-02
      -1.13771290e-01 -9.48147029e-02 -3.06586595e-03 1.52316401e-02
      2.58770846e-02 -2.56802738e-02 -8.14721547e-03 -2.16869246e-02
      6.33817911e-03 7.92482495e-03 -7.80014787e-04 6.58849627e-03
      -7.71754095e-03 6.64655166e-03 -8.09059367e-02 -1.17126651e-01
      -9.60350037e-02 -3.97095515e-04 1.52928140e-02 2.34303977e-02
      -2.66207904e-02 -7.89811742e-03 -2.09051855e-02 4.63118823e-03
      8.46201368e-03 -9.52018250e-04 6.42467104e-03 -7.19073135e-03
      5.69470460e-03 -7.41868690e-02 -1.17605604e-01 -9.89852995e-02
      3.76480311e-04 1.61553845e-02 2.00964548e-02 -2.67800540e-02
      -8.04322679e-03 -1.97871625e-02 2.43637501e-03 8.59597698e-03
      -9.52520350e-04 6.10291911e-03 -6.46711932e-03 4.46312502e-03
      -7.01077655e-02 -1.16760947e-01 -1.02707975e-01 3.34696029e-04
      1.73822977e-02 1.61478836e-02 -2.65668388e-02 -8.35205801e-03
      -1.84511524e-02 -2.25364682e-04 8.54092371e-03 -8.79941101e-04
      5.69903711e-03 -5.57683641e-03 2.92070326e-03 -6.08140863e-02
      -1.16297342e-01 -1.06333077e-01 5.73720841e-04 1.88254900e-02
      1.25384657e-02 -2.62315664e-02 -8.81370157e-03 -1.71213504e-02
      -2.63144076e-03 8.40314385e-03 -6.85098115e-04 5.27423993e-03
      -4.74575581e-03 1.51833193e-03 -5.14474064e-02 -1.15974456e-01
      -1.10089980e-01 6.88073400e-04 2.03564707e-02 8.58123414e-03
      -2.58095767e-02 -9.34909657e-03 -1.56645551e-02 -5.39462548e-03
      8.19175132e-03 -4.42589226e-04 4.78616823e-03 -3.78939696e-03
      -1.60464551e-04 -4.35903221e-02 -1.16827771e-01 -1.15557335e-01
      1.41579611e-03 2.24615969e-02 3.25507834e-03 -2.59166434e-02
      -1.00728152e-02 -1.36893503e-02 -9.09718126e-03 8.26754700e-03
      -1.67897058e-04 4.08670446e-03 -2.46567349e-03 -2.45007547e-03
      -2.87133865e-02 -1.20945476e-01 -1.18675582e-01 4.02661646e-03
      2.37240959e-02 -8.50241398e-04 -2.69709695e-02 -1.04258470e-02
      -1.20738680e-02 -1.21013196e-02 8.84729624e-03 -5.90278287e-05
      3.51115176e-03 -1.32392498e-03 -4.37393505e-03 -1.02077276e-02
      -1.27030388e-01 -1.21194944e-01 7.99495913e-03 2.46895757e-02
      -4.55784053e-03 -2.87204999e-02 -1.05586434e-02 -1.05900858e-02
      -1.48963109e-02 9.79942176e-03 -6.18474151e-05 3.01807746e-03
      -2.29962781e-04 -6.19848538e-03 1.02833314e-02 -1.35924295e-01
      -1.26135722e-01 1.38205467e-02 2.61701718e-02 -9.32452455e-03
      -3.15133519e-02 -1.06905783e-02 -8.84085521e-03 -1.82135962e-02
      1.12816906e-02 -1.41758108e-04 2.49868352e-03 1.00359332e-03
      -8.34075827e-03 3.32137011e-02 -1.46481037e-01 -1.30739197e-01
      2.04290729e-02 2.72559375e-02 -1.41970301e-02 -3.46541479e-02
      -1.05813751e-02 -7.14155007e-03 -2.17393693e-02 1.28983185e-02
      -3.49426758e-04 2.03134376e-03 2.27848301e-03 -1.06771365e-02
      5.39659485e-02 -1.55107945e-01 -1.32035047e-01 2.57280935e-02
      2.68000904e-02 -1.72587894e-02 -3.70572917e-02 -9.83026531e-03
      -6.39647292e-03 -2.44123712e-02 1.41208051e-02 -8.07536300e-04
      2.00434052e-03 3.06567224e-03 -1.25987194e-02 7.62915090e-02
      -1.63760439e-01 -1.33175030e-01 3.09741516e-02 2.65087970e-02
      -2.04127841e-02 -3.93945910e-02 -9.17876605e-03 -5.51510276e-03
      -2.71819141e-02 1.53099792e-02 -1.21176115e-03 1.90313964e-03
      3.93667258e-03 -1.45999780e-02 9.79084224e-02 -1.72230586e-01
      -1.35292679e-01 3.60604785e-02 2.68996246e-02 -2.40369402e-02
      -4.16775197e-02 -8.85538384e-03 -4.24150052e-03 -3.00852805e-02
      1.64678693e-02 -1.47630379e-03 1.59386673e-03 5.00049209e-03
      -1.66109838e-02 1.15624331e-01 -1.78437352e-01 -1.39029846e-01
      3.98445986e-02 2.80484445e-02 -2.89338846e-02 -4.33572643e-02
      -8.90974514e-03 -2.47524446e-03 -3.41410600e-02 1.73439439e-02
      -1.56891684e-03 1.07622170e-03 6.48121629e-03 -1.94866881e-02
      1.30996704e-01 -1.83020696e-01 -1.43245831e-01 4.27394994e-02
      2.95190625e-02 -3.44425663e-02 -4.46303152e-02 -9.14922636e-03
      -4.47829749e-04 -3.88961881e-02 1.80393718e-02 -1.57037843e-03
      4.43006749e-04 8.22776090e-03 -2.29732078e-02 1.50678888e-01
      -1.89023077e-01 -1.45357892e-01 4.65605818e-02 2.99016833e-02
      -3.87216993e-02 -4.63368222e-02 -8.78931116e-03 9.19218117e-04
      -4.29473482e-02 1.89690124e-02 -1.86163443e-03 1.65346180e-04
      9.58531350e-03 -2.61068065e-02 1.70808956e-01 -1.95372164e-01
      -1.47064671e-01 5.04654460e-02 2.99760532e-02 -4.28549349e-02
      -4.80736084e-02 -8.27528909e-03 2.12862506e-03 -4.69500609e-02
      1.98966488e-02 -2.22263485e-03 -2.67119394e-05 1.08650103e-02
      -2.92589255e-02 1.87351882e-01 -2.00898424e-01 -1.48847803e-01
      5.37163503e-02 3.01543307e-02 -4.59642485e-02 -4.95287739e-02
      -7.91540183e-03 3.00864293e-03 -4.96986546e-02 2.06564367e-02
      -2.49879039e-03 -1.54258363e-04 1.17117148e-02 -3.12596001e-02
      2.02737376e-01 -2.05662236e-01 -1.50449127e-01 5.64959794e-02
      3.04094031e-02 -4.88227978e-02 -5.07467575e-02 -7.65828695e-03
      3.85168567e-03 -5.21191768e-02 2.12988257e-02 -2.70863855e-03
      -3.02306376e-04 1.24673797e-02 -3.29483524e-02 2.17041850e-01
      -2.09887907e-01 -1.51546806e-01 5.89989126e-02 3.06400023e-02
      -5.10668121e-02 -5.18535040e-02 -7.46685453e-03 4.54424741e-03
      -5.37932292e-02 2.18963660e-02 -2.86723976e-03 -4.32034692e-04
      1.29946098e-02 -3.39969322e-02 2.32192546e-01 -2.14841813e-01
      -1.53981388e-01 6.19346052e-02 3.12463250e-02 -5.50680980e-02
      -5.32038920e-02 -7.32936757e-03 5.81179885e-03 -5.71093559e-02
      2.26133764e-02 -3.04214982e-03 -7.30538159e-04 1.40867662e-02
      -3.64208929e-02 2.45550931e-01 -2.19795451e-01 -1.57963008e-01
      6.48891479e-02 3.22490744e-02 -6.02859706e-02 -5.45862466e-02
      -7.31326593e-03 7.43852137e-03 -6.14758991e-02 2.33324263e-02
      -3.17789498e-03 -1.14715390e-03 1.55132907e-02 -3.96734923e-02
      2.56775409e-01 -2.22926870e-01 -1.62193239e-01 6.68738410e-02
      3.36949900e-02 -6.46442845e-02 -5.55271432e-02 -7.56635377e-03
      8.92699882e-03 -6.47136122e-02 2.38663163e-02 -3.18476092e-03
      -1.56987109e-03 1.66210383e-02 -4.18572724e-02 2.69631624e-01
      -2.26875544e-01 -1.66337430e-01 6.93065301e-02 3.50761265e-02
      -6.90733045e-02 -5.66898622e-02 -7.77293695e-03 1.04330489e-02
      -6.80297092e-02 2.45114174e-02 -3.21791298e-03 -1.99215277e-03
      1.77572034e-02 -4.41228487e-02 2.83741564e-01 -2.32295662e-01
      -1.69946060e-01 7.25180134e-02 3.61126438e-02 -7.30138794e-02
      -5.82493395e-02 -7.82746449e-03 1.17385052e-02 -7.09989965e-02
      2.53363680e-02 -3.31862317e-03 -2.33833911e-03 1.87661033e-02
      -4.61470112e-02 2.94956774e-01 -2.36742288e-01 -1.74336135e-01
      7.51027614e-02 3.74872312e-02 -7.72599280e-02 -5.95089346e-02
      -8.07976071e-03 1.31747238e-02 -7.40355477e-02 2.59981398e-02
      -3.32045136e-03 -2.76129670e-03 1.98022258e-02 -4.81385104e-02
      3.05896997e-01 -2.41160557e-01 -1.79322943e-01 7.76195079e-02
      3.90700363e-02 -8.20232630e-02 -6.07339218e-02 -8.42485670e-03
      1.47907399e-02 -7.74014220e-02 2.66389269e-02 -3.28022102e-03
      -3.25775775e-03 2.09512673e-02 -5.03186919e-02 3.18556160e-01
      -2.45836079e-01 -1.83221802e-01 8.03589895e-02 4.01783772e-02
      -8.65843743e-02 -6.20716698e-02 -8.52225069e-03 1.62816029e-02
      -8.09264109e-02 2.73578856e-02 -3.35347559e-03 -3.67818424e-03
      2.21394729e-02 -5.26986048e-02 3.30070615e-01 -2.50023276e-01
      -1.87391996e-01 8.28189254e-02 4.13970463e-02 -9.15055573e-02
      -6.32733554e-02 -8.68749619e-03 1.78929474e-02 -8.48455355e-02
      2.80084703e-02 -3.38755641e-03 -4.15175268e-03 2.34617013e-02
      -5.54078855e-02 3.35986048e-01 -2.52304465e-01 -1.92120284e-01
      8.41439962e-02 4.28754576e-02 -9.62425023e-02 -6.39179274e-02
      -9.04974807e-03 1.94850732e-02 -8.84740949e-02 2.83491723e-02
      -3.31459660e-03 -4.65716096e-03 2.47074198e-02 -5.78584522e-02
      3.43346715e-01 -2.55262762e-01 -1.96890980e-01 8.58316869e-02
      4.43205014e-02 -1.01008929e-01 -6.47299737e-02 -9.37658735e-03
      2.10713185e-02 -9.21450853e-02 2.87724361e-02 -3.25877685e-03
      -5.15215145e-03 2.59626359e-02 -6.03769720e-02 3.56437236e-01
      -2.60465413e-01 -2.00865000e-01 8.87461379e-02 4.53771129e-02
      -1.05051711e-01 -6.61393702e-02 -9.46644135e-03 2.23776419e-02
      -9.51882675e-02 2.95169689e-02 -3.33266915e-03 -5.51590230e-03
      2.69939359e-02 -6.24387227e-02 3.64566922e-01 -2.63407409e-01
      -2.05958888e-01 9.04000998e-02 4.71249074e-02 -1.09739803e-01
      -6.69499785e-02 -9.95999295e-03 2.40512732e-02 -9.87427682e-02
      2.99626514e-02 -3.20042879e-03 -6.08324213e-03 2.82823108e-02
      -6.48857132e-02 3.68505299e-01 -2.64431596e-01 -2.12015897e-01
      9.09837410e-02 4.95034195e-02 -1.14934020e-01 -6.72407225e-02
      -1.08280731e-02 2.60506142e-02 -1.02660686e-01 3.01442295e-02
      -2.87116878e-03 -6.83975546e-03 2.97835339e-02 -6.76096529e-02
      3.70810360e-01 -2.65512526e-01 -2.17327192e-01 9.14204940e-02
      5.13825081e-02 -1.19504362e-01 -6.73966110e-02 -1.15079321e-02
      2.77013425e-02 -1.06012374e-01 3.02006491e-02 -2.59545050e-03
      -7.45660253e-03 3.10111232e-02 -6.98886588e-02 3.73799592e-01
      -2.66872585e-01 -2.22334996e-01 9.19734165e-02 5.31315580e-02
      -1.23965472e-01 -6.75952584e-02 -1.21432766e-02 2.92989984e-02
      -1.09383203e-01 3.02754007e-02 -2.33146688e-03 -8.05375166e-03
      3.22420895e-02 -7.22188652e-02 3.81118655e-01 -2.69899547e-01
      -2.26311624e-01 9.34542492e-02 5.43714091e-02 -1.27919853e-01
      -6.82569444e-02 -1.25050386e-02 3.06522995e-02 -1.12557784e-01
      3.06056552e-02 -2.21184967e-03 -8.52204859e-03 3.33734341e-02
      -7.44600222e-02 3.87571424e-01 -2.72784084e-01 -2.29890123e-01
      9.47349966e-02 5.53810298e-02 -1.31529734e-01 -6.87851533e-02
      -1.28087569e-02 3.18070874e-02 -1.15472637e-01 3.08444109e-02
      -2.09281291e-03 -8.91835988e-03 3.43652703e-02 -7.65218288e-02
      3.92968416e-01 -2.75467962e-01 -2.32832447e-01 9.57598686e-02
      5.60504086e-02 -1.34557098e-01 -6.91463426e-02 -1.30143100e-02
      3.26477624e-02 -1.17904305e-01 3.09699643e-02 -1.98818860e-03
      -9.19586513e-03 3.51136439e-02 -7.82144442e-02 3.97744954e-01
      -2.77560532e-01 -2.35460415e-01 9.64589119e-02 5.67467399e-02
      -1.36959344e-01 -6.93628937e-02 -1.32806040e-02 3.33178863e-02
      -1.19735181e-01 3.10377926e-02 -1.84834376e-03 -9.43827163e-03
      3.56719755e-02 -7.93877319e-02</data></learnt_thetas>
  <n_labels type_id="opencv-matrix">
    <rows>2</rows>
    <cols>1</cols>
    <dt>i</dt>
    <data>
      0 1</data></n_labels>
  <o_labels type_id="opencv-matrix">
    <rows>2</rows>
    <cols>1</cols>
    <dt>i</dt>
    <data>
      0 1</data></o_labels></opencv_ml_lr>
</opencv_storage>
