<?xml version="1.0"?>
<opencv_storage>
<opencv_ml_lr>
  <format>3</format>
  <classifier>"Logisitic Regression Classifier"</classifier>
  <alpha>3000.</alpha>
  <iterations>500</iterations>
  <norm>1</norm>
  <train_method>0</train_method>
  <learnt_thetas type_id="opencv-matrix">
    <rows>1</rows>
    <cols>2998</cols>
    <dt>f</dt>
    <data>
      -8.69185448e-01 3.20197903e-02 1.51693532e-02 3.87390181e-02
      -7.80196069e-03 1.01763238e-04 -6.94146939e-03 -1.06260637e-02
      -5.66100422e-03 -2.93946322e-02 -2.60985643e-02 -4.13505659e-02
      -2.65176818e-02 -2.12787203e-02 -4.03864449e-03 6.37178496e-02
      7.24681616e-02 8.66267085e-02 1.10032268e-01 1.21125326e-01
      4.82002571e-02 4.19787616e-02 5.79263233e-02 2.78069116e-02
      4.73755673e-02 3.94443721e-02 3.96671295e-02 6.63501993e-02
      4.50542793e-02 5.84275387e-02 5.90340681e-02 7.40402862e-02
      7.81529993e-02 8.02549571e-02 6.07062392e-02 5.72842062e-02
      5.79260774e-02 4.07468267e-02 5.22795953e-02 4.35875840e-02
      1.79612115e-02 -3.09515335e-02 -4.79003452e-02 -1.75041519e-02
      4.63507464e-03 1.74755845e-02 1.11834928e-01 1.23275772e-01
      1.56055287e-01 1.48555800e-01 1.62482917e-01 1.19921163e-01
      8.15682635e-02 6.89761862e-02 3.49044390e-02 5.43188192e-02
      4.64130901e-02 4.59859334e-02 1.91812012e-02 -1.83207113e-02
      -2.58712564e-02 -4.55323644e-02 -1.31105594e-02 9.21499170e-03
      9.01755132e-03 7.90488571e-02 6.81241155e-02 7.83708394e-02
      6.63676411e-02 7.02811703e-02 4.88609932e-02 1.01668434e-02
      9.84043349e-03 2.67726043e-03 4.93238680e-03 -4.26845253e-02
      -1.93698071e-02 2.62612011e-02 2.53447257e-02 6.45542443e-02
      6.66185170e-02 6.79321960e-02 6.20671026e-02 3.95150334e-02
      -4.92345029e-03 -3.04181110e-02 1.13184117e-02 4.16328944e-03
      1.15158428e-02 3.05355806e-02 1.90877710e-02 6.04383880e-04
      -3.03065740e-02 -6.36981847e-03 2.09311880e-02 3.51438187e-02
      6.51345178e-02 8.34448487e-02 1.12218261e-01 8.87581781e-02
      1.04082651e-01 8.65671486e-02 5.44809960e-02 5.21970876e-02
      1.84350591e-02 1.50999986e-02 -1.91134140e-02 -1.66141819e-02
      -1.43610425e-02 -2.86945980e-02 -2.14779601e-02 2.62583178e-02
      4.12977114e-02 2.21210625e-03 1.11099556e-02 5.87484464e-02
      7.84542135e-05 7.26108381e-04 2.69102994e-02 2.35688463e-02
      -1.40863210e-02 -1.85058676e-02 -1.54804327e-02 -3.16861160e-02
      -2.57752463e-02 -3.80205438e-02 -5.56841753e-02 -4.23027724e-02
      -4.83971238e-02 -3.02233901e-02 -5.01882732e-02 -5.89897037e-02
      -5.41918203e-02 -7.81207532e-02 -6.93413913e-02 -8.00598413e-02
      -7.84919336e-02 -1.42349571e-01 -1.34712681e-01 -1.12077765e-01
      -1.28247648e-01 -1.16898984e-01 -1.26408890e-01 -8.33067894e-02
      -6.87667727e-02 -5.83801530e-02 -4.02897522e-02 -4.94642742e-02
      2.97512580e-03 -5.20529458e-03 -4.88991588e-02 -5.20945787e-02
      -2.67404504e-02 -5.16280951e-03 2.77567357e-02 2.20035706e-02
      3.75840031e-02 1.37050837e-01 1.07784085e-01 9.97674689e-02
      9.69305485e-02 1.11962408e-01 9.03630257e-02 7.13693053e-02
      5.72057441e-02 5.80915287e-02 5.90785667e-02 5.98029979e-02
      7.94278905e-02 8.40322450e-02 6.66766316e-02 6.70010820e-02
      7.34377131e-02 1.24149211e-01 1.28160149e-01 1.11101024e-01
      1.23235479e-01 6.38790950e-02 3.39935049e-02 1.03042405e-02
      -4.77904547e-03 -3.23491879e-02 -1.23446994e-02 3.41142295e-04
      2.11026594e-02 5.35702445e-02 2.19448078e-02 3.51490639e-02
      3.57957147e-02 2.13046223e-02 2.93303132e-02 2.94813100e-04
      8.56286474e-03 -3.14448290e-02 -4.42918502e-02 -6.30537346e-02
      -9.32383239e-02 -9.72684920e-02 -1.06325887e-01 -9.01089162e-02
      -1.28784865e-01 -1.30828202e-01 -7.72713348e-02 -9.42055583e-02
      -5.62501140e-02 -3.00149042e-02 -1.76709127e-02 5.17045781e-02
      2.21937634e-02 2.56904699e-02 -1.31237861e-02 5.68073941e-03
      -3.68925408e-02 -5.98407201e-02 -5.86550161e-02 -7.04914257e-02
      -7.12560415e-02 -7.15122446e-02 -5.97931184e-02 -3.01323161e-02
      -4.34222631e-02 -4.19503935e-02 -4.02310193e-02 -2.26749778e-02
      -2.40709372e-02 -2.23993361e-02 -9.30727366e-03 -4.68979105e-02
      -5.77652045e-02 -8.13277289e-02 -7.09762499e-02 -9.12803635e-02
      -8.34281147e-02 -5.57126366e-02 -6.02498949e-02 -8.91255774e-03
      -2.90448754e-03 1.01935947e-02 5.17572239e-02 3.06212213e-02
      -8.48293491e-03 -2.16811057e-02 8.47381819e-03 -5.27568273e-02
      -6.25988394e-02 -9.37304944e-02 -1.08038008e-01 -6.29882812e-02
      -1.16755240e-01 -1.05553448e-01 -2.97388956e-02 -4.53348011e-02
      -2.25868542e-02 -2.76320474e-03 3.36283036e-02 3.28716561e-02
      4.70779352e-02 1.37858778e-01 1.38382301e-01 1.67294517e-01
      1.66834101e-01 1.74048722e-01 1.78146884e-01 1.65383160e-01
      1.94911778e-01 1.44399092e-01 9.07886550e-02 8.76399428e-02
      1.00997433e-01 1.21858254e-01 1.15601361e-01 1.24305420e-01
      1.36408627e-01 1.51185006e-01 1.60337478e-01 1.63270295e-01
      1.72384039e-01 1.44560188e-01 1.01930544e-01 8.54197890e-02
      9.14222822e-02 3.91974151e-02 2.66669914e-02 2.33294703e-02
      2.84646992e-02 4.26030084e-02 5.82025573e-03 7.75113190e-03
      6.05687546e-03 -2.00566016e-02 -3.49618047e-02 -4.03825864e-02
      -2.07553785e-02 -8.78403559e-02 -9.86903012e-02 -1.16773002e-01
      -1.52701914e-01 -1.33812189e-01 -1.55127659e-01 -8.69062006e-01
      -3.46494578e-02 -6.54298514e-02 5.75686507e-02 -1.77645218e-02
      8.61258619e-03 2.68237479e-02 -2.05623601e-02 1.99302169e-03
      1.88488548e-03 2.11790428e-02 -8.11181776e-03 -1.69215538e-03
      -1.62385826e-04 3.51008936e-03 1.41623188e-02 -3.12417690e-02
      -6.42425567e-02 5.61224148e-02 -1.70970503e-02 8.08809325e-03
      2.59060841e-02 -2.03371029e-02 1.90810987e-03 1.58855424e-03
      2.05659866e-02 -7.98968971e-03 -1.73694675e-03 -2.33852203e-04
      3.32256127e-03 1.37732523e-02 -2.78548207e-02 -6.30653128e-02
      5.46747074e-02 -1.64212640e-02 7.57584255e-03 2.49753799e-02
      -2.01084483e-02 1.83921098e-03 1.30429654e-03 1.99319627e-02
      -7.86494464e-03 -1.77487428e-03 -2.91619072e-04 3.14174662e-03
      1.33513706e-02 -2.45511364e-02 -6.20204732e-02 5.31922542e-02
      -1.58295278e-02 7.05800299e-03 2.39500701e-02 -1.99380256e-02
      1.77392317e-03 1.01481215e-03 1.91719104e-02 -7.77235953e-03
      -1.81592698e-03 -3.39061400e-04 2.94165337e-03 1.27996942e-02
      -1.95149500e-02 -6.05349764e-02 5.19163981e-02 -1.49979154e-02
      6.57432433e-03 2.28682701e-02 -1.97406169e-02 1.72637054e-03
      6.77299628e-04 1.83145609e-02 -7.66898319e-03 -1.86115468e-03
      -3.98376491e-04 2.68954039e-03 1.21656610e-02 -1.32549256e-02
      -5.87304607e-02 5.07952981e-02 -1.39623377e-02 6.11685496e-03
      2.17702240e-02 -1.95002109e-02 1.70214125e-03 3.12430871e-04
      1.74262561e-02 -7.53857614e-03 -1.90274860e-03 -4.61054529e-04
      2.41158344e-03 1.15133002e-02 -6.72977651e-03 -5.71499467e-02
      5.05378470e-02 -1.29825650e-02 5.97145455e-03 2.11936384e-02
      -1.93197615e-02 1.80842588e-03 1.42841251e-04 1.68694239e-02
      -7.41565693e-03 -1.89723296e-03 -4.42404067e-04 2.25362834e-03
      1.10887047e-02 1.38568314e-04 -5.54819033e-02 5.04790135e-02
      -1.18461577e-02 5.89424511e-03 2.07241643e-02 -1.90614965e-02
      1.96600915e-03 1.31944290e-07 1.63963269e-02 -7.22959684e-03
      -1.86610653e-03 -4.07127722e-04 2.11680355e-03 1.07315723e-02
      8.08941387e-03 -5.35676703e-02 5.03632724e-02 -1.04234871e-02
      5.80062391e-03 2.00147741e-02 -1.86927002e-02 2.13376665e-03
      -2.35384781e-04 1.56930294e-02 -6.95227692e-03 -1.82314974e-03
      -4.01243131e-04 1.89962075e-03 1.01946816e-02 1.59200598e-02
      -5.18872701e-02 5.04382402e-02 -9.00735613e-03 5.74977649e-03
      1.94477681e-02 -1.83210578e-02 2.33018748e-03 -4.30884567e-04
      1.50911519e-02 -6.63889851e-03 -1.76760287e-03 -3.76530370e-04
      1.71574985e-03 9.72428545e-03 2.36794129e-02 -5.04999608e-02
      5.08842021e-02 -7.68212928e-03 5.81194833e-03 1.90723762e-02
      -1.80152748e-02 2.57022330e-03 -5.58154832e-04 1.45728905e-02
      -6.33373903e-03 -1.70123100e-03 -3.22732201e-04 1.56516873e-03
      9.28285159e-03 3.01116221e-02 -4.97751683e-02 5.11371344e-02
      -6.78119110e-03 5.83230052e-03 1.85828581e-02 -1.79219414e-02
      2.73734075e-03 -7.15596369e-04 1.39996037e-02 -6.14428939e-03
      -1.65812427e-03 -2.98396684e-04 1.40362058e-03 8.80456064e-03
      3.61231118e-02 -4.93719354e-02 5.11915460e-02 -6.02789409e-03
      5.79590350e-03 1.80409700e-02 -1.79216731e-02 2.87140999e-03
      -8.89892690e-04 1.34201823e-02 -5.99291222e-03 -1.62503601e-03
      -2.84088310e-04 1.24192471e-03 8.33040010e-03 4.20780145e-02
      -4.92800884e-02 5.06854542e-02 -5.11095673e-03 5.47202071e-03
      1.72034763e-02 -1.77916642e-02 2.90724635e-03 -1.23510195e-03
      1.26466593e-02 -5.68716414e-03 -1.61359040e-03 -3.40435508e-04
      9.78377997e-04 7.73394387e-03 4.69059683e-02 -4.93476726e-02
      5.00084013e-02 -4.30793036e-03 5.16892597e-03 1.62589699e-02
      -1.76589526e-02 2.91708973e-03 -1.57113129e-03 1.18096154e-02
      -5.38850902e-03 -1.60353049e-03 -4.01572936e-04 7.26863393e-04
      7.09728291e-03 4.90269847e-02 -5.04715629e-02 4.91598323e-02
      -4.50083287e-03 4.87223640e-03 1.53115904e-02 -1.80660505e-02
      2.80180643e-03 -1.83349266e-03 1.09785525e-02 -5.49296010e-03
      -1.66919630e-03 -4.59709059e-04 5.27683820e-04 6.46354444e-03
      5.11707887e-02 -5.11675142e-02 4.83568460e-02 -4.48645046e-03
      4.66666231e-03 1.43542578e-02 -1.82982646e-02 2.70306063e-03
      -2.08180072e-03 1.01493951e-02 -5.51564433e-03 -1.70809135e-03
      -5.22039074e-04 3.37553676e-04 5.84716490e-03 5.40427230e-02
      -5.11456951e-02 4.74951975e-02 -4.13517980e-03 4.51154308e-03
      1.34240510e-02 -1.83276497e-02 2.62061832e-03 -2.31443020e-03
      9.37568955e-03 -5.44429943e-03 -1.72729150e-03 -5.84175112e-04
      1.67451100e-04 5.28666424e-03 5.70006669e-02 -5.08407503e-02
      4.65319231e-02 -3.89309996e-03 4.43054270e-03 1.22664077e-02
      -1.84311885e-02 2.55802018e-03 -2.56404537e-03 8.38789158e-03
      -5.47504472e-03 -1.73749519e-03 -6.45121734e-04 -4.44064535e-05
      4.56241565e-03 5.97513206e-02 -5.02038188e-02 4.55545448e-02
      -3.49477958e-03 4.42586560e-03 1.10516353e-02 -1.83808953e-02
      2.55222199e-03 -2.80759321e-03 7.37336697e-03 -5.43252146e-03
      -1.70754374e-03 -6.96181261e-04 -2.61391571e-04 3.83690652e-03
      6.28559589e-02 -4.87453826e-02 4.49777134e-02 -2.94567249e-03
      4.65261145e-03 9.93017666e-03 -1.82013009e-02 2.63809436e-03
      -2.99452082e-03 6.42957259e-03 -5.38217276e-03 -1.64047512e-03
      -7.31934328e-04 -4.61823336e-04 3.17907939e-03 6.43499270e-02
      -4.76606861e-02 4.41716500e-02 -2.61425017e-03 4.79457993e-03
      8.85294843e-03 -1.80176776e-02 2.67633353e-03 -3.17561626e-03
      5.59021113e-03 -5.32945292e-03 -1.57986768e-03 -7.77661742e-04
      -6.38995494e-04 2.61166901e-03 6.37013018e-02 -4.74029593e-02
      4.30709198e-02 -2.74638552e-03 4.73531149e-03 7.84847606e-03
      -1.79715175e-02 2.59866309e-03 -3.36923893e-03 4.89907805e-03
      -5.34441043e-03 -1.56694942e-03 -8.48368218e-04 -7.87829689e-04
      2.16817646e-03 6.29775077e-02 -4.69139889e-02 4.17605452e-02
      -2.71622767e-03 4.56422055e-03 6.70436956e-03 -1.78330541e-02
      2.49985955e-03 -3.63855367e-03 4.16888390e-03 -5.31979371e-03
      -1.56832370e-03 -9.48485802e-04 -9.74073657e-04 1.72656181e-03
      6.29563555e-02 -4.57850508e-02 4.03010175e-02 -2.31053028e-03
      4.39928612e-03 5.37788309e-03 -1.74916983e-02 2.44480884e-03
      -3.95122636e-03 3.33861611e-03 -5.19180996e-03 -1.54322898e-03
      -1.05392979e-03 -1.18969288e-03 1.23587134e-03 6.39771447e-02
      -4.38725539e-02 3.91334817e-02 -1.58505235e-03 4.39610239e-03
      4.16448526e-03 -1.70185287e-02 2.46071932e-03 -4.20946488e-03
      2.58248695e-03 -5.02910139e-03 -1.49379112e-03 -1.14083930e-03
      -1.37695845e-03 7.91570812e-04 6.43698573e-02 -4.21269871e-02
      3.77043970e-02 -8.65011942e-04 4.23773052e-03 2.96498858e-03
      -1.65078435e-02 2.42479495e-03 -4.50089946e-03 1.89885788e-03
      -4.83374251e-03 -1.46237598e-03 -1.24539819e-03 -1.55883096e-03
      4.15639253e-04 6.42965809e-02 -4.05842364e-02 3.61334272e-02
      -2.50657060e-04 3.97794833e-03 1.77446438e-03 -1.60352755e-02
      2.35191430e-03 -4.80279000e-03 1.23361428e-03 -4.65852069e-03
      -1.44892244e-03 -1.35619123e-03 -1.73741265e-03 5.24196366e-05
      6.30612224e-02 -4.02251668e-02 3.45722437e-02 -3.05280497e-04
      3.53632192e-03 8.07140546e-04 -1.59649085e-02 2.15291185e-03
      -5.08322939e-03 7.27492326e-04 -4.68649995e-03 -1.51352515e-03
      -1.47466885e-03 -1.87741336e-03 -2.14292697e-04 6.05442636e-02
      -4.10405323e-02 3.30860280e-02 -1.13527582e-03 2.99398694e-03
      3.69431837e-06 -1.63632818e-02 1.85728888e-03 -5.33153210e-03
      3.30203184e-04 -4.97880019e-03 -1.64864818e-03 -1.59236346e-03
      -1.98672689e-03 -4.12293652e-04 5.78087643e-02 -4.16540690e-02
      3.16093490e-02 -1.87108759e-03 2.51538260e-03 -7.80678412e-04
      -1.66627355e-02 1.60243269e-03 -5.53680724e-03 -6.06589347e-05
      -5.22884447e-03 -1.76053110e-03 -1.68934045e-03 -2.07495829e-03
      -6.14188088e-04 5.54823130e-02 -4.22565788e-02 3.03782299e-02
      -2.59423396e-03 2.13003578e-03 -1.41941069e-03 -1.69739462e-02
      1.38463499e-03 -5.67464903e-03 -4.00700694e-04 -5.47627127e-03
      -1.86396833e-03 -1.75653619e-03 -2.13349587e-03 -8.02800641e-04
      5.48556484e-02 -4.19351570e-02 2.93479748e-02 -2.61316285e-03
      1.88633206e-03 -2.11984501e-03 -1.69132184e-02 1.29195349e-03
      -5.83434803e-03 -8.61929555e-04 -5.49523253e-03 -1.89765089e-03
      -1.81068433e-03 -2.24051811e-03 -1.08898280e-03 5.46777919e-02
      -4.12266403e-02 2.81874277e-02 -2.37732125e-03 1.61345769e-03
      -2.90222769e-03 -1.67001393e-02 1.21739379e-03 -6.02010498e-03
      -1.36485498e-03 -5.42408973e-03 -1.91810995e-03 -1.86719059e-03
      -2.36446923e-03 -1.39306695e-03 5.38880005e-02 -4.11780700e-02
      2.70587057e-02 -2.61667348e-03 1.23903505e-03 -3.72189935e-03
      -1.67770199e-02 1.06284884e-03 -6.22951379e-03 -1.89185725e-03
      -5.51783293e-03 -2.00039381e-03 -1.93822791e-03 -2.49652914e-03
      -1.71637302e-03 5.28275743e-02 -4.13367264e-02 2.58489698e-02
      -2.89673335e-03 8.07973847e-04 -4.58191196e-03 -1.68628506e-02
      8.98306898e-04 -6.46826904e-03 -2.39789882e-03 -5.60233602e-03
      -2.08364124e-03 -2.01648171e-03 -2.63319304e-03 -2.00761948e-03
      5.21248244e-02 -4.16051447e-02 2.48455536e-02 -3.16189462e-03
      4.09040222e-04 -5.30709466e-03 -1.69663411e-02 7.60933326e-04
      -6.67777425e-03 -2.80910381e-03 -5.67846419e-03 -2.15865136e-03
      -2.07950501e-03 -2.74905725e-03 -2.23887712e-03 5.08320779e-02
      -4.25952710e-02 2.40531545e-02 -3.65585834e-03 -1.26157729e-05
      -5.86106349e-03 -1.72041357e-02 6.36379234e-04 -6.87497761e-03
      -3.10632074e-03 -5.78812044e-03 -2.22650124e-03 -2.13409867e-03
      -2.85071228e-03 -2.39942595e-03 4.94522564e-02 -4.37069014e-02
      2.32851170e-02 -4.08510445e-03 -4.56535752e-04 -6.32587774e-03
      -1.73982941e-02 5.20883244e-04 -7.06832809e-03 -3.33219254e-03
      -5.84534416e-03 -2.28554220e-03 -2.18558544e-03 -2.94210878e-03
      -2.51510949e-03 4.73713726e-02 -4.53999862e-02 2.26965994e-02
      -4.75714309e-03 -8.85453890e-04 -6.63086679e-03 -1.77478455e-02
      4.00929595e-04 -7.22874561e-03 -3.46931838e-03 -5.97048970e-03
      -2.35472387e-03 -2.22780393e-03 -3.01296613e-03 -2.58207135e-03
      4.60742228e-02 -4.68359999e-02 2.22951118e-02 -5.19698812e-03
      -1.24323415e-03 -6.84748963e-03 -1.80142801e-02 3.25826695e-04
      -7.36490777e-03 -3.55588621e-03 -6.02887757e-03 -2.40741321e-03
      -2.25729309e-03 -3.07082850e-03 -2.61948607e-03 4.67297882e-02
      -4.77696620e-02 2.24108398e-02 -5.34743629e-03 -1.45889900e-03
      -6.84634224e-03 -1.82054713e-02 2.98478553e-04 -7.44460290e-03
      -3.54779279e-03 -6.02102326e-03 -2.44918442e-03 -2.26809736e-03
      -3.10278172e-03 -2.61180615e-03 4.86666821e-02 -4.82747220e-02
      2.27940306e-02 -5.34616411e-03 -1.53931137e-03 -6.76742289e-03
      -1.83913484e-02 3.19892395e-04 -7.49278581e-03 -3.50942137e-03
      -6.01842580e-03 -2.47457344e-03 -2.26679817e-03 -3.12344590e-03
      -2.58808164e-03 5.14784604e-02 -4.84376699e-02 2.32695173e-02
      -5.24805952e-03 -1.52403512e-03 -6.67450856e-03 -1.85966305e-02
      3.73792514e-04 -7.51748215e-03 -3.46926134e-03 -6.04748912e-03
      -2.48858728e-03 -2.25550914e-03 -3.13599897e-03 -2.56198831e-03
      5.36243692e-02 -4.85390425e-02 2.34514847e-02 -5.10658370e-03
      -1.56190770e-03 -6.65816059e-03 -1.87252462e-02 3.83716950e-04
      -7.55729759e-03 -3.46680777e-03 -6.04554312e-03 -2.50300998e-03
      -2.26232805e-03 -3.15398886e-03 -2.55101966e-03 5.54139987e-02
      -4.86944728e-02 2.34498791e-02 -4.89775417e-03 -1.63265015e-03
      -6.66809455e-03 -1.87866036e-02 3.87198583e-04 -7.60013238e-03
      -3.47162061e-03 -5.98937692e-03 -2.50691501e-03 -2.26971786e-03
      -3.16966465e-03 -2.54387967e-03 5.60657457e-02 -4.93947528e-02
      2.28092223e-02 -4.98398580e-03 -1.89587660e-03 -6.85152365e-03
      -1.89431757e-02 2.91340839e-04 -7.67989457e-03 -3.53603670e-03
      -5.97600266e-03 -2.53202743e-03 -2.29599513e-03 -3.18908272e-03
      -2.56111985e-03 5.72033674e-02 -4.96011227e-02 2.24036500e-02
      -4.83888388e-03 -1.97562855e-03 -6.92285690e-03 -1.89787336e-02
      2.59882130e-04 -7.69507000e-03 -3.56954802e-03 -5.91880456e-03
      -2.51991278e-03 -2.30009016e-03 -3.18584894e-03 -2.57221982e-03
      5.90737537e-02 -4.91293706e-02 2.23500077e-02 -4.46853321e-03
      -1.83058647e-03 -6.86283782e-03 -1.89090390e-02 2.87873612e-04
      -7.63967121e-03 -3.57300066e-03 -5.84966829e-03 -2.47896416e-03
      -2.28579086e-03 -3.16038006e-03 -2.57902266e-03 5.98585382e-02
      -4.89243679e-02 2.16892939e-02 -4.38077701e-03 -1.84361136e-03
      -7.05074426e-03 -1.89503878e-02 2.21528142e-04 -7.64471712e-03
      -3.67061212e-03 -5.87773975e-03 -2.47483491e-03 -2.30003009e-03
      -3.15467897e-03 -2.62025138e-03 6.02009222e-02 -4.86946590e-02
      2.07984652e-02 -4.30289516e-03 -1.89285039e-03 -7.31515000e-03
      -1.89748611e-02 1.37272567e-04 -7.66638387e-03 -3.79242795e-03
      -5.91264199e-03 -2.47430126e-03 -2.31970218e-03 -3.15331272e-03
      -2.66972673e-03 6.26597479e-02 -4.67445105e-02 2.05240641e-02
      -3.48673831e-03 -1.57981343e-03 -7.42010772e-03 -1.85717866e-02
      1.98678652e-04 -7.59511208e-03 -3.88932251e-03 -5.78574184e-03
      -2.39801989e-03 -2.30456004e-03 -3.13201570e-03 -2.71799602e-03
      6.40623122e-02 -4.51955497e-02 2.01295223e-02 -2.84069288e-03
      -1.37451815e-03 -7.53670558e-03 -1.81954484e-02 2.21310518e-04
      -7.55131012e-03 -3.97536578e-03 -5.66638727e-03 -2.33873446e-03
      -2.29987642e-03 -3.11682676e-03 -2.76055397e-03 6.27866685e-02
      -4.49198000e-02 1.94862373e-02 -2.87944172e-03 -1.42402516e-03
      -7.69394869e-03 -1.80605762e-02 1.26365936e-04 -7.56603619e-03
      -4.05129790e-03 -5.66548062e-03 -2.33832770e-03 -2.32674624e-03
      -3.11671733e-03 -2.79596192e-03 6.05109818e-02 -4.52378355e-02
      1.90727897e-02 -3.28252255e-03 -1.49229483e-03 -7.80350389e-03
      -1.80881955e-02 8.80414882e-06 -7.57865189e-03 -4.09514504e-03
      -5.74729405e-03 -2.36689765e-03 -2.35572481e-03 -3.11300438e-03
      -2.81816814e-03 5.76770119e-02 -4.58553769e-02 1.88337807e-02
      -3.84200388e-03 -1.56516419e-03 -7.86423404e-03 -1.81867760e-02
      -1.10223533e-04 -7.58453412e-03 -4.10949020e-03 -5.86251542e-03
      -2.40988703e-03 -2.38140393e-03 -3.10531072e-03 -2.82883574e-03
      5.46921343e-02 -4.62128446e-02 1.83453318e-02 -4.29768488e-03
      -1.70672033e-03 -8.10379814e-03 -1.81974154e-02 -2.23274008e-04
      -7.63997296e-03 -4.18425538e-03 -5.94064686e-03 -2.45008012e-03
      -2.42172857e-03 -3.12087801e-03 -2.85894936e-03 5.12268394e-02
      -4.66935709e-02 1.78436227e-02 -4.68187639e-03 -1.85748551e-03
      -8.36381689e-03 -1.81517135e-02 -3.10235424e-04 -7.70623190e-03
      -4.25724452e-03 -5.96966362e-03 -2.47569941e-03 -2.45863036e-03
      -3.13964742e-03 -2.88678310e-03 4.68295738e-02 -4.73024324e-02
      1.75053012e-02 -5.08224731e-03 -1.93625281e-03 -8.62430781e-03
      -1.80816427e-02 -3.31294897e-04 -7.75786350e-03 -4.33011260e-03
      -5.99656301e-03 -2.47364375e-03 -2.48242263e-03 -3.15967761e-03
      -2.91314279e-03 4.29389775e-02 -4.80455905e-02 1.71432048e-02
      -5.50635858e-03 -2.10641371e-03 -8.82555079e-03 -1.80680715e-02
      -3.91391484e-04 -7.81686325e-03 -4.37282445e-03 -6.02571201e-03
      -2.49563204e-03 -2.50976393e-03 -3.17851827e-03 -2.92492798e-03
      3.96187454e-02 -4.88910563e-02 1.69239100e-02 -5.95352193e-03
      -2.31237803e-03 -8.90284870e-03 -1.80954169e-02 -4.74188826e-04
      -7.86115695e-03 -4.36316710e-03 -6.05074642e-03 -2.53570569e-03
      -2.53347959e-03 -3.18868621e-03 -2.91511347e-03 3.61907259e-02
      -5.04928604e-02 1.67248677e-02 -6.84602140e-03 -2.59639416e-03
      -8.91691539e-03 -1.84446704e-02 -5.96772064e-04 -7.90782645e-03
      -4.32793936e-03 -6.23016199e-03 -2.60806666e-03 -2.55755498e-03
      -3.19925672e-03 -2.89328001e-03 3.32901850e-02 -5.20847812e-02
      1.65880900e-02 -7.65474420e-03 -2.85152136e-03 -8.88244156e-03
      -1.87895764e-02 -6.88639993e-04 -7.94469658e-03 -4.27977694e-03
      -6.38540788e-03 -2.66462751e-03 -2.57231132e-03 -3.20840301e-03
      -2.86570052e-03 3.29349227e-02 -5.24542257e-02 1.69994161e-02
      -7.87297077e-03 -2.78679514e-03 -8.74642469e-03 -1.89067721e-02
      -6.17709709e-04 -7.91165605e-03 -4.23201034e-03 -6.43265294e-03
      -2.64932588e-03 -2.54774396e-03 -3.20639997e-03 -2.84632714e-03
      3.29360142e-02 -5.28784432e-02 1.72522962e-02 -8.12002085e-03
      -2.78625987e-03 -8.64955224e-03 -1.90944355e-02 -5.73609432e-04
      -7.89762475e-03 -4.20061033e-03 -6.51863636e-03 -2.65083858e-03
      -2.52851611e-03 -3.21033970e-03 -2.83393078e-03 3.35606784e-02
      -5.33064976e-02 1.72363557e-02 -8.28784425e-03 -2.89450400e-03
      -8.64479225e-03 -1.92940254e-02 -5.64081129e-04 -7.92524125e-03
      -4.21313569e-03 -6.59586163e-03 -2.66773696e-03 -2.52176076e-03
      -3.23056872e-03 -2.83716968e-03 3.53997834e-02 -5.31340875e-02
      1.73440501e-02 -8.22396297e-03 -2.89635849e-03 -8.59799609e-03
      -1.94192473e-02 -5.23822440e-04 -7.92129990e-03 -4.21352871e-03
      -6.65155565e-03 -2.67343852e-03 -2.50563608e-03 -3.23902885e-03
      -2.83985818e-03 3.75163294e-02 -5.29801361e-02 1.73937008e-02
      -8.15299712e-03 -2.94828345e-03 -8.54349509e-03 -1.95598286e-02
      -5.08482743e-04 -7.92582985e-03 -4.20369394e-03 -6.70635235e-03
      -2.69167521e-03 -2.49389256e-03 -3.24605010e-03 -2.84066331e-03
      4.00538445e-02 -5.27106784e-02 1.78494472e-02 -7.98047241e-03
      -2.85679847e-03 -8.37126188e-03 -1.96484961e-02 -4.44875564e-04
      -7.88828544e-03 -4.16282983e-03 -6.72543747e-03 -2.68475222e-03
      -2.46640807e-03 -3.23890406e-03 -2.83419387e-03 4.27156910e-02
      -5.21631204e-02 1.83954444e-02 -7.62744341e-03 -2.67575961e-03
      -8.17224476e-03 -1.96181051e-02 -3.38814745e-04 -7.82594178e-03
      -4.11645463e-03 -6.68617152e-03 -2.65005766e-03 -2.42803688e-03
      -3.22394213e-03 -2.82827928e-03 4.59557176e-02 -5.18135764e-02
      1.88655797e-02 -7.35252537e-03 -2.63307965e-03 -7.96404760e-03
      -1.96751840e-02 -3.06766597e-04 -7.80580239e-03 -4.05032188e-03
      -6.67669717e-03 -2.65694945e-03 -2.41060532e-03 -3.21714464e-03
      -2.80792033e-03 5.03439680e-02 -5.07468991e-02 1.95408110e-02
      -6.69285608e-03 -2.45441915e-03 -7.71475909e-03 -1.95518788e-02
      -2.12290804e-04 -7.76012009e-03 -3.96466115e-03 -6.57946663e-03
      -2.63448828e-03 -2.38128728e-03 -3.20167490e-03 -2.77776201e-03
      5.43049686e-02 -4.95910421e-02 2.01054811e-02 -5.97500429e-03
      -2.27141310e-03 -7.49313785e-03 -1.93518307e-02 -1.20245088e-04
      -7.71140447e-03 -3.87790240e-03 -6.45150850e-03 -2.60452391e-03
      -2.35390035e-03 -3.18120630e-03 -2.74405465e-03 5.80481291e-02
      -4.86077927e-02 2.04655416e-02 -5.29662892e-03 -2.15392257e-03
      -7.35111162e-03 -1.91756785e-02 -5.50135519e-05 -7.69055635e-03
      -3.80787440e-03 -6.32395083e-03 -2.58485926e-03 -2.33614747e-03
      -3.16605181e-03 -2.70937919e-03 6.08490780e-02 -4.81219441e-02
      2.06701867e-02 -4.76123998e-03 -2.11334787e-03 -7.25444732e-03
      -1.90365799e-02 -1.71203974e-05 -7.69224064e-03 -3.74649977e-03
      -6.18604990e-03 -2.57228920e-03 -2.32576579e-03 -3.15585756e-03
      -2.67337938e-03 6.27997443e-02 -4.81685698e-02 2.11638007e-02
      -4.57243063e-03 -2.01570080e-03 -7.04538776e-03 -1.90646239e-02
      -4.88156093e-06 -7.66534358e-03 -3.64596327e-03 -6.13922207e-03
      -2.57637212e-03 -2.31717853e-03 -3.13345203e-03 -2.62025394e-03
      6.42470568e-02 -4.84385900e-02 2.13493500e-02 -4.47795819e-03
      -2.00772309e-03 -6.93586795e-03 -1.91318803e-02 -3.53851174e-05
      -7.67302699e-03 -3.57648288e-03 -6.10670866e-03 -2.59279739e-03
      -2.32438324e-03 -3.12053459e-03 -2.57689646e-03 6.51304275e-02
      -4.88610826e-02 2.15367079e-02 -4.54142503e-03 -2.01015780e-03
      -6.83670305e-03 -1.92635059e-02 -9.40162136e-05 -7.68757006e-03
      -3.51072289e-03 -6.12550834e-03 -2.61975289e-03 -2.34248629e-03
      -3.10877175e-03 -2.53613433e-03 6.55417815e-02 -4.91650254e-02
      2.16923635e-02 -4.50965250e-03 -1.96698308e-03 -6.73603732e-03
      -1.92957334e-02 -1.29843538e-04 -7.68305035e-03 -3.44392378e-03
      -6.09441381e-03 -2.62562651e-03 -2.35437881e-03 -3.08961049e-03
      -2.49762926e-03 6.49140328e-02 -4.96178679e-02 2.17418857e-02
      -4.50662756e-03 -1.89379510e-03 -6.64426712e-03 -1.92599334e-02
      -1.63616089e-04 -7.65740220e-03 -3.38339410e-03 -6.02019113e-03
      -2.61158310e-03 -2.36246083e-03 -3.06056207e-03 -2.46501272e-03
      6.26849309e-02 -5.04897460e-02 2.16529723e-02 -4.84321918e-03
      -1.82564184e-03 -6.61895331e-03 -1.93251669e-02 -2.18189976e-04
      -7.62250833e-03 -3.35918507e-03 -6.02444354e-03 -2.60194461e-03
      -2.37196265e-03 -3.03070527e-03 -2.45002983e-03 5.91052510e-02
      -5.18043302e-02 2.12396625e-02 -5.51534304e-03 -1.86685484e-03
      -6.66938676e-03 -1.95249934e-02 -3.36412195e-04 -7.60276709e-03
      -3.35253123e-03 -6.12173975e-03 -2.62013590e-03 -2.39377446e-03
      -3.00164195e-03 -2.44224397e-03 5.46330735e-02 -5.30794375e-02
      2.06662603e-02 -6.41768239e-03 -1.87539717e-03 -6.84278784e-03
      -1.97925027e-02 -4.83516167e-04 -7.58965686e-03 -3.40307504e-03
      -6.31391304e-03 -2.64351489e-03 -2.42988602e-03 -2.97671231e-03
      -2.45935400e-03 5.01109883e-02 -5.41279651e-02 2.01389361e-02
      -7.27341231e-03 -1.85069302e-03 -7.01428950e-03 -2.00357549e-02
      -6.17477053e-04 -7.56856427e-03 -3.45654227e-03 -6.52608275e-03
      -2.66499468e-03 -2.46205367e-03 -2.95128278e-03 -2.47999094e-03
      4.52101752e-02 -5.46413660e-02 1.97428800e-02 -7.95360375e-03
      -1.71594438e-03 -7.17398897e-03 -2.00981274e-02 -6.93320413e-04
      -7.51413172e-03 -3.50749493e-03 -6.68114237e-03 -2.65155523e-03
      -2.48014228e-03 -2.91876192e-03 -2.50320812e-03 3.92862707e-02
      -5.55909090e-02 1.93783920e-02 -8.91920459e-03 -1.65236497e-03
      -7.29624275e-03 -2.02545226e-02 -8.08194513e-04 -7.46773928e-03
      -3.53668607e-03 -6.88470853e-03 -2.66097160e-03 -2.50669685e-03
      -2.88792746e-03 -2.51787645e-03 3.38580012e-02 -5.64632267e-02
      1.90430488e-02 -9.88697633e-03 -1.60900014e-03 -7.40209129e-03
      -2.04368569e-02 -9.18552571e-04 -7.42451847e-03 -3.55621800e-03
      -7.10035162e-03 -2.67827651e-03 -2.53182789e-03 -2.85926601e-03
      -2.52896664e-03 2.89224125e-02 -5.62518723e-02 1.88557170e-02
      -1.04674688e-02 -1.44332543e-03 -7.50274537e-03 -2.03445740e-02
      -9.43389430e-04 -7.35092256e-03 -3.56369815e-03 -7.22658681e-03
      -2.65443721e-03 -2.54324684e-03 -2.82593211e-03 -2.53749266e-03
      2.43039578e-02 -5.55171445e-02 1.86456814e-02 -1.07558332e-02
      -1.25762855e-03 -7.62132742e-03 -2.00911816e-02 -9.20068764e-04
      -7.27582257e-03 -3.57101345e-03 -7.27482140e-03 -2.60884105e-03
      -2.54687620e-03 -2.79558008e-03 -2.54660822e-03 1.98328868e-02
      -5.50793894e-02 1.81772411e-02 -1.10862795e-02 -1.20907638e-03
      -7.96705019e-03 -1.99183635e-02 -9.29513655e-04 -7.28311809e-03
      -3.68058053e-03 -7.33540487e-03 -2.58891447e-03 -2.57156347e-03
      -2.80093751e-03 -2.59577110e-03 1.57563351e-02 -5.42123802e-02
      1.77443009e-02 -1.10978493e-02 -1.12080760e-03 -8.30078963e-03
      -1.95749346e-02 -8.86747264e-04 -7.28188828e-03 -3.77922039e-03
      -7.29731098e-03 -2.54347851e-03 -2.58584786e-03 -2.80519924e-03
      -2.63935700e-03 1.22548575e-02 -5.30463830e-02 1.73941962e-02
      -1.09034162e-02 -1.00383861e-03 -8.59190896e-03 -1.91236474e-02
      -7.88998033e-04 -7.26183085e-03 -3.87146743e-03 -7.18530221e-03
      -2.47773621e-03 -2.58498476e-03 -2.81182956e-03 -2.68001365e-03
      8.01550876e-03 -5.25199696e-02 1.69943906e-02 -1.09219654e-02
      -9.86281433e-04 -8.85397103e-03 -1.87711120e-02 -7.29174819e-04
      -7.26413215e-03 -3.94838536e-03 -7.09030218e-03 -2.42639869e-03
      -2.59258249e-03 -2.82428530e-03 -2.71426211e-03 3.07096820e-03
      -5.26385717e-02 1.65192522e-02 -1.11737726e-02 -1.07153982e-03
      -9.10761114e-03 -1.85337514e-02 -7.13052927e-04 -7.29366066e-03
      -4.01767064e-03 -7.02273194e-03 -2.39375094e-03 -2.61146529e-03
      -2.84435065e-03 -2.74455990e-03 -6.64091029e-04 -5.27194515e-02
      1.58373024e-02 -1.13753658e-02 -1.30713067e-03 -9.45258699e-03
      -1.83647182e-02 -7.47904007e-04 -7.37788575e-03 -4.14740480e-03
      -6.97615230e-03 -2.39680242e-03 -2.64732214e-03 -2.89229560e-03
      -2.79638008e-03 -4.07346990e-03 -5.27754836e-02 1.50156207e-02
      -1.14949234e-02 -1.59172819e-03 -9.82786529e-03 -1.81786772e-02
      -7.90138671e-04 -7.48156197e-03 -4.29303013e-03 -6.91023190e-03
      -2.40004086e-03 -2.68652127e-03 -2.94794305e-03 -2.85331300e-03
      -7.53372163e-03 -5.31905480e-02 1.40558444e-02 -1.18287466e-02
      -1.98225165e-03 -1.02103706e-02 -1.81653090e-02 -8.82715161e-04
      -7.60948751e-03 -4.45211167e-03 -6.93959603e-03 -2.43557151e-03
      -2.73638708e-03 -3.01480573e-03 -2.91728461e-03 -1.03398655e-02
      -5.36246486e-02 1.30785601e-02 -1.20828990e-02 -2.39266665e-03
      -1.05745411e-02 -1.81581061e-02 -9.72974638e-04 -7.74239283e-03
      -4.61065117e-03 -6.95776148e-03 -2.47129914e-03 -2.78173247e-03
      -3.08416737e-03 -2.97949486e-03 -1.19603882e-02 -5.39784990e-02
      1.23009766e-02 -1.21817300e-02 -2.75384751e-03 -1.08279008e-02
      -1.81389377e-02 -1.02912972e-03 -7.85039179e-03 -4.73167514e-03
      -6.94759889e-03 -2.49711890e-03 -2.80879880e-03 -3.14480858e-03
      -3.02396994e-03 -1.50957182e-02 -5.55095226e-02 1.13691865e-02
      -1.29546570e-02 -3.33341444e-03 -1.10989567e-02 -1.84804965e-02
      -1.21418899e-03 -8.00784584e-03 -4.85410262e-03 -7.11875176e-03
      -2.59484723e-03 -2.86309025e-03 -3.21940798e-03 -3.06891976e-03
      -1.88881177e-02 -5.74792325e-02 1.03476159e-02 -1.39473677e-02
      -3.99844162e-03 -1.13844518e-02 -1.89326536e-02 -1.44177629e-03
      -8.18831474e-03 -4.97983536e-03 -7.34264869e-03 -2.71399319e-03
      -2.92637874e-03 -3.30146682e-03 -3.11632897e-03 -1.84355341e-02
      -5.84819727e-02 1.05347093e-02 -1.43186534e-02 -4.27042414e-03
      -1.11609027e-02 -1.92345362e-02 -1.50231575e-03 -8.21715128e-03
      -4.90837218e-03 -7.46378116e-03 -2.77777738e-03 -2.92166159e-03
      -3.32255987e-03 -3.07914848e-03 -1.75936408e-02 -5.93257993e-02
      1.08738234e-02 -1.45941302e-02 -4.48738690e-03 -1.08433338e-02
      -1.94959510e-02 -1.52918254e-03 -8.22038390e-03 -4.78137564e-03
      -7.56006688e-03 -2.82673095e-03 -2.90365820e-03 -3.33004561e-03
      -3.01516056e-03 -1.59461033e-02 -6.01179712e-02 1.17071932e-02
      -1.49479136e-02 -4.55820514e-03 -1.03179691e-02 -1.98548660e-02
      -1.51412992e-03 -8.16229451e-03 -4.55585076e-03 -7.70902866e-03
      -2.87224888e-03 -2.86376011e-03 -3.31112579e-03 -2.90508918e-03
      -1.30570633e-02 -6.07318170e-02 1.29568828e-02 -1.51951006e-02
      -4.49953135e-03 -9.57917329e-03 -2.02370174e-02 -1.45125168e-03
      -8.03866424e-03 -4.22055135e-03 -7.86103029e-03 -2.90970248e-03
      -2.79694889e-03 -3.25726788e-03 -2.73771724e-03 -9.25316196e-03
      -6.11806437e-02 1.44402571e-02 -1.52946906e-02 -4.37484216e-03
      -8.68908595e-03 -2.05916539e-02 -1.35429774e-03 -7.87312724e-03
      -3.79250874e-03 -7.98257068e-03 -2.93993531e-03 -2.71113333e-03
      -3.17564071e-03 -2.51642289e-03 -5.09599550e-03 -6.17584363e-02
      1.62120406e-02 -1.54013699e-02 -4.19899076e-03 -7.79784983e-03
      -2.09785979e-02 -1.24148850e-03 -7.72062410e-03 -3.43108340e-03
      -8.09737947e-03 -2.97050481e-03 -2.62701698e-03 -3.11662792e-03
      -2.36383732e-03 -9.41477192e-04 -6.23528548e-02 1.80716980e-02
      -1.54270260e-02 -4.01778892e-03 -6.87380042e-03 -2.13216785e-02
      -1.12287956e-03 -7.57388026e-03 -3.05252173e-03 -8.16998165e-03
      -2.99782772e-03 -2.54564849e-03 -3.05827335e-03 -2.20789481e-03
      3.50774336e-03 -6.29557893e-02 2.05580052e-02 -1.53589966e-02
      -3.62968445e-03 -5.70974313e-03 -2.16401331e-02 -9.50740941e-04
      -7.35675171e-03 -2.55691539e-03 -8.20807833e-03 -3.00555862e-03
      -2.44806055e-03 -2.96367216e-03 -1.98438042e-03 8.20487179e-03
      -6.36344030e-02 2.33281571e-02 -1.52399745e-02 -3.17287864e-03
      -4.39268164e-03 -2.19661724e-02 -7.48572580e-04 -7.10865855e-03
      -1.98448752e-03 -8.22857674e-03 -3.00452975e-03 -2.33905972e-03
      -2.85184360e-03 -1.72363140e-03 1.31979072e-02 -6.43804744e-02
      2.65613347e-02 -1.50878970e-02 -2.58346647e-03 -2.84131686e-03
      -2.23113373e-02 -4.99499496e-04 -6.80098077e-03 -1.29765447e-03
      -8.23861361e-03 -2.98991194e-03 -2.21002381e-03 -2.71001784e-03
      -1.40661397e-03 1.66839305e-02 -6.51922822e-02 2.95007210e-02
      -1.50137031e-02 -1.99257955e-03 -1.26338168e-03 -2.26020291e-02
      -2.89762509e-04 -6.45867456e-03 -5.58543659e-04 -8.24334100e-03
      -2.96654692e-03 -2.08748039e-03 -2.53970386e-03 -1.05328986e-03
      1.98910236e-02 -6.59199506e-02 3.22403610e-02 -1.48397209e-02
      -1.43746042e-03 3.27129790e-04 -2.28214189e-02 -9.83141290e-05
      -6.11693552e-03 2.25640819e-04 -8.20863992e-03 -2.93843867e-03
      -1.97044294e-03 -2.35816999e-03 -6.64727413e-04 2.30831616e-02
      -6.69915080e-02 3.49668972e-02 -1.47783440e-02 -9.85893654e-04
      2.04681023e-03 -2.31155679e-02 2.18004789e-05 -5.79086971e-03
      1.09914958e-03 -8.18809588e-03 -2.93967384e-03 -1.87274057e-03
      -2.17281841e-03 -2.29376354e-04 2.52640042e-02 -6.82638809e-02
      3.74280028e-02 -1.47782294e-02 -6.02660060e-04 3.74623737e-03
      -2.33832281e-02 1.12418413e-04 -5.47742890e-03 2.00555823e-03
      -8.15191958e-03 -2.93802726e-03 -1.78459426e-03 -1.98248937e-03
      2.39216097e-04 2.53306236e-02 -6.97858781e-02 3.95405479e-02
      -1.49969598e-02 -2.22552728e-04 5.33651747e-03 -2.36251745e-02
      1.63696197e-04 -5.16042206e-03 2.88445666e-03 -8.13649409e-03
      -2.92713917e-03 -1.71029009e-03 -1.78514421e-03 7.05262122e-04
      2.46576276e-02 -7.13819489e-02 4.13482413e-02 -1.54167656e-02
      6.31948424e-05 6.84297178e-03 -2.39197668e-02 1.48517851e-04
      -4.86914674e-03 3.77619779e-03 -8.18213355e-03 -2.94223102e-03
      -1.65625068e-03 -1.58700882e-03 1.20252452e-03 2.38097571e-02
      -7.29635656e-02 4.28784974e-02 -1.59243159e-02 2.78942054e-04
      8.21764302e-03 -2.42420379e-02 8.43738453e-05 -4.61277831e-03
      4.63358872e-03 -8.26092623e-03 -2.97396421e-03 -1.62047753e-03
      -1.39622553e-03 1.70411135e-03 2.14105435e-02 -7.48348236e-02
      4.40293849e-02 -1.66272409e-02 3.83341510e-04 9.46003944e-03
      -2.45631952e-02 -3.32807613e-05 -4.38576564e-03 5.45908092e-03
      -8.35840218e-03 -3.01437150e-03 -1.60115771e-03 -1.20979070e-03
      2.20445963e-03 1.88566502e-02 -7.66170546e-02 4.51461561e-02
      -1.73119437e-02 4.74360801e-04 1.06972251e-02 -2.48634219e-02
      -1.49685366e-04 -4.16574068e-03 6.30939566e-03 -8.45395401e-03
      -3.05476831e-03 -1.58400473e-03 -1.02122803e-03 2.73086084e-03
      1.62521265e-02 -7.78941363e-02 4.67555374e-02 -1.79600939e-02
      8.02408205e-04 1.20440871e-02 -2.50957739e-02 -1.84068136e-04
      -3.86353000e-03 7.13661546e-03 -8.56491271e-03 -3.06911743e-03
      -1.53956271e-03 -8.18894594e-04 3.20300693e-03 1.26616191e-02
      -7.93807060e-02 4.80685011e-02 -1.87359434e-02 1.04443799e-03
      1.32729905e-02 -2.53545083e-02 -2.48649128e-04 -3.58625874e-03
      7.91904517e-03 -8.69933330e-03 -3.09325708e-03 -1.50396733e-03
      -6.27516827e-04 3.65255051e-03 8.50568619e-03 -8.07603002e-02
      4.93481047e-02 -1.95498634e-02 1.32966950e-03 1.45108355e-02
      -2.55856179e-02 -3.07244947e-04 -3.28035140e-03 8.73593520e-03
      -8.84452742e-03 -3.11088236e-03 -1.46441418e-03 -4.13893809e-04
      4.12807520e-03 3.90103040e-03 -8.22407007e-02 5.05232140e-02
      -2.04038769e-02 1.53672905e-03 1.57658849e-02 -2.58175321e-02
      -3.78703786e-04 -2.99242721e-03 9.61552653e-03 -8.98890570e-03
      -3.13577894e-03 -1.43119087e-03 -1.98840688e-04 4.65625664e-03
      -8.64858972e-04 -8.37630406e-02 5.15781082e-02 -2.12119371e-02
      1.68764696e-03 1.70274805e-02 -2.60296445e-02 -4.47342871e-04
      -2.71865726e-03 1.05424942e-02 -9.11293458e-03 -3.15873860e-03
      -1.39796804e-03 1.67909930e-05 5.22999885e-03 -4.95463377e-03
      -8.47979859e-02 5.30360863e-02 -2.18275059e-02 2.01654830e-03
      1.84970815e-02 -2.61534806e-02 -4.43915138e-04 -2.36192090e-03
      1.15691749e-02 -9.20479186e-03 -3.15585081e-03 -1.33581168e-03
      2.66785413e-04 5.85480733e-03 -8.62830784e-03 -8.55131149e-02
      5.47626652e-02 -2.23381557e-02 2.46797805e-03 2.01549102e-02
      -2.62233280e-02 -3.90245143e-04 -1.93289388e-03 1.27252545e-02
      -9.28202085e-03 -3.13449395e-03 -1.24881289e-03 5.59398497e-04
      6.56478666e-03 -1.19155915e-02 -8.60107318e-02 5.67310825e-02
      -2.27788500e-02 3.00166034e-03 2.20459905e-02 -2.62657888e-02
      -2.99696025e-04 -1.43068284e-03 1.40480669e-02 -9.35284793e-03
      -3.10384203e-03 -1.13777933e-03 9.00702376e-04 7.39035895e-03
      -1.47055518e-02 -8.64717364e-02 5.85241690e-02 -2.31328681e-02
      3.47422785e-03 2.38662176e-02 -2.62974650e-02 -2.11439663e-04
      -9.57455894e-04 1.53427878e-02 -9.40390397e-03 -3.07335285e-03
      -1.02847186e-03 1.23018585e-03 8.21100920e-03 -1.77380648e-02
      -8.71252194e-02 5.98033853e-02 -2.35210713e-02 3.75767285e-03
      2.53914818e-02 -2.63472926e-02 -1.68881539e-04 -5.84647059e-04
      1.64790004e-02 -9.45284218e-03 -3.05759301e-03 -9.44935833e-04
      1.50696025e-03 8.95138271e-03 -2.08540931e-02 -8.76234695e-02
      6.10051081e-02 -2.38811374e-02 4.04802477e-03 2.68791672e-02
      -2.63621360e-02 -1.12561240e-04 -2.04731812e-04 1.76150948e-02
      -9.50054079e-03 -3.03489715e-03 -8.55783233e-04 1.79115264e-03
      9.70798265e-03 -2.35448722e-02 -8.78843293e-02 6.22912683e-02
      -2.41451617e-02 4.39342763e-03 2.84251049e-02 -2.63371039e-02
      -2.61752757e-05 2.04727330e-04 1.88142285e-02 -9.53602791e-03
      -3.00088571e-03 -7.52520515e-04 2.09648721e-03 1.05231358e-02
      -2.40776520e-02 -8.76215324e-02 6.36619106e-02 -2.41530351e-02
      4.77861706e-03 2.97666173e-02 -2.62759589e-02 8.63224923e-05
      5.62005967e-04 1.97883230e-02 -9.54339374e-03 -2.96580605e-03
      -6.58059842e-04 2.34342390e-03 1.11617604e-02 -2.41455398e-02
      -8.72959122e-02 6.50271624e-02 -2.40967348e-02 5.15629351e-03
      3.10435314e-02 -2.62112543e-02 2.12240237e-04 9.03723121e-04
      2.07180642e-02 -9.54039674e-03 -2.92934431e-03 -5.61613182e-04
      2.58051138e-03 1.17717041e-02 -2.42719073e-02 -8.69972184e-02
      6.62595555e-02 -2.40453817e-02 5.47506986e-03 3.22308503e-02
      -2.61464361e-02 3.29342118e-04 1.21822208e-03 2.16082428e-02
      -9.53599904e-03 -2.89893337e-03 -4.70142608e-04 2.80416175e-03
      1.23710847e-02 -2.40388922e-02 -8.66084918e-02 6.76171631e-02
      -2.39380952e-02 5.84890647e-03 3.34870927e-02 -2.60722898e-02
      4.73742140e-04 1.56542426e-03 2.25586183e-02 -9.52418335e-03
      -2.86008697e-03 -3.63436353e-04 3.05305002e-03 1.30190747e-02
      -2.32706759e-02 -8.61922428e-02 6.91066608e-02 -2.37544160e-02
      6.24902453e-03 3.48247662e-02 -2.59991083e-02 6.38549856e-04
      1.93421636e-03 2.35727504e-02 -9.49739479e-03 -2.81772576e-03
      -2.44897121e-04 3.31909047e-03 1.37184300e-02 -2.18119137e-02
      -8.58315527e-02 7.03630596e-02 -2.35165954e-02 6.53223647e-03
      3.58358622e-02 -2.59535145e-02 7.77610519e-04 2.19198829e-03
      2.43292470e-02 -9.46227461e-03 -2.79105594e-03 -1.54931244e-04
      3.50613287e-03 1.42400442e-02 -2.02453956e-02 -8.56233165e-02
      7.14241490e-02 -2.32789610e-02 6.73285173e-03 3.66612710e-02
      -2.59385183e-02 9.00075363e-04 2.38414225e-03 2.49562040e-02
      -9.42406245e-03 -2.77221622e-03 -7.94397347e-05 3.65220173e-03
      1.46810608e-02 -1.87068526e-02 -8.54481831e-02 7.24305585e-02
      -2.30696183e-02 6.93823304e-03 3.74078453e-02 -2.59357728e-02
      1.01018790e-03 2.56523117e-03 2.55081113e-02 -9.39051621e-03
      -2.75591854e-03 -1.05722984e-05 3.78684443e-03 1.50626404e-02
      -1.70027521e-02 -8.53610784e-02 7.34597296e-02 -2.28620581e-02
      7.13532837e-03 3.81644145e-02 -2.59582791e-02 1.11577148e-03
      2.74125766e-03 2.60670707e-02 -9.35462024e-03 -2.74309539e-03
      5.56682608e-05 3.92057002e-03 1.54513586e-02 -1.51325371e-02
      -8.54539275e-02 7.43422359e-02 -2.26846002e-02 7.25397002e-03
      3.87884974e-02 -2.60269586e-02 1.18621881e-03 2.86132190e-03
      2.65048929e-02 -9.31866188e-03 -2.74525117e-03 9.90588596e-05
      4.01301170e-03 1.57496538e-02 -1.28303077e-02 -8.54574963e-02
      7.53959864e-02 -2.24354435e-02 7.45481765e-03 3.95649225e-02
      -2.60855779e-02 1.28336973e-03 3.03558074e-03 2.70466674e-02
      -9.27159190e-03 -2.73537892e-03 1.62283701e-04 4.14227694e-03
      1.61192399e-02 -1.02597605e-02 -8.53938833e-02 7.65202418e-02
      -2.21333839e-02 7.71120097e-03 4.04268801e-02 -2.61333194e-02
      1.39611692e-03 3.24549992e-03 2.76539493e-02 -9.21589043e-03
      -2.71571102e-03 2.38762383e-04 4.29743342e-03 1.65397692e-02
      -8.72750394e-03 -8.54456574e-02 7.71852061e-02 -2.19532866e-02
      7.90347997e-03 4.09864448e-02 -2.61808224e-02 1.46106200e-03
      3.40015325e-03 2.80508678e-02 -9.17875022e-03 -2.69899005e-03
      2.88938812e-04 4.41174209e-03 1.68183483e-02 -7.58606428e-03
      -8.56020823e-02 7.76237398e-02 -2.18214225e-02 8.04943964e-03
      4.14163209e-02 -2.62416136e-02 1.50457083e-03 3.52376350e-03
      2.83682421e-02 -9.14734323e-03 -2.68492289e-03 3.28697904e-04
      4.50909138e-03 1.70507338e-02 -7.15879584e-03 -8.60669315e-02
      7.74509832e-02 -2.18453780e-02 7.98271131e-03 4.14062478e-02
      -2.63566021e-02 1.45157555e-03 3.49930441e-03 2.83644013e-02
      -9.13859252e-03 -2.70112255e-03 3.11388896e-04 4.50741174e-03
      1.70632005e-02 -6.63928781e-03 -8.64412189e-02 7.72833452e-02
      -2.18394771e-02 7.96767231e-03 4.14316058e-02 -2.64543444e-02
      1.40616670e-03 3.49747855e-03 2.83877421e-02 -9.12759360e-03
      -2.70642969e-03 3.00301792e-04 4.52049915e-03 1.70953851e-02
      -5.99232269e-03 -8.66785720e-02 7.71604180e-02 -2.17970032e-02
      8.02272558e-03 4.15218100e-02 -2.65261550e-02 1.37073942e-03
      3.52685829e-03 2.84573790e-02 -9.11482889e-03 -2.69885105e-03
      2.96835846e-04 4.55295481e-03 1.71587877e-02 -5.86676225e-03
      -8.68990868e-02 7.69075081e-02 -2.18161531e-02 8.06777179e-03
      4.15715799e-02 -2.65819672e-02 1.31520489e-03 3.54949781e-03
      2.85139177e-02 -9.11365915e-03 -2.69156834e-03 2.86449038e-04
      4.58286377e-03 1.72215533e-02 -8.69062006e-01 3.20197903e-02
      2.49525681e-02 7.04663433e-03 1.51693532e-02 1.71953794e-02
      3.34554422e-03 3.87390181e-02 2.64462139e-02 2.03828570e-02
      -7.80196069e-03 1.03038810e-02 1.44371511e-02 1.01763238e-04
      2.11129021e-02 2.04515904e-02 -6.94146939e-03 1.38234952e-02
      1.43540977e-02 -1.06260637e-02 1.47288283e-02 2.13152040e-02
      -5.66100422e-03 2.23244037e-02 4.97727655e-02 -2.93946322e-02
      7.31291156e-03 2.77974512e-02 -2.60985643e-02 1.26625486e-02
      3.01804133e-02 -4.13505659e-02 -9.79670906e-04 2.73606423e-02
      -2.65176818e-02 9.84414387e-03 3.93307470e-02 -2.12787203e-02
      3.12700570e-02 4.88888137e-02 -4.03864449e-03 3.07193715e-02
      3.42794918e-02 6.37178496e-02 5.73189557e-02 3.51509117e-02
      7.24681616e-02 5.87691478e-02 5.07232212e-02 8.66267085e-02
      6.23071007e-02 5.52392267e-02 1.10032268e-01 8.04048181e-02
      5.93559667e-02 1.21125326e-01 9.62786600e-02 7.09084794e-02
      4.82002571e-02 5.60637712e-02 5.63672632e-02 4.19787616e-02
      4.59627919e-02 4.43631895e-02 5.79263233e-02 5.32757007e-02
      4.88397703e-02 2.78069116e-02 4.12916131e-02 4.60343361e-02
      4.73755673e-02 5.86768277e-02 6.88886419e-02 3.94443721e-02
      3.90044376e-02 8.65643248e-02 3.96671295e-02 3.49702053e-02
      6.48623183e-02 6.63501993e-02 5.08604571e-02 5.97535893e-02
      4.50542793e-02 3.70866396e-02 3.70486192e-02 5.84275387e-02
      5.19358106e-02 2.92567238e-02 5.90340681e-02 5.76039925e-02
      2.33910680e-02 7.40402862e-02 7.35169649e-02 2.91037560e-02
      7.81529993e-02 7.72691667e-02 2.26407740e-02 8.02549571e-02
      6.24161437e-02 3.38907614e-02 6.07062392e-02 5.19031398e-02
      3.91164944e-02 5.72842062e-02 5.49762771e-02 3.72413434e-02
      5.79260774e-02 6.25360832e-02 4.11801003e-02 4.07468267e-02
      5.13098650e-02 2.89241299e-02 5.22795953e-02 7.09086508e-02
      3.10927872e-02 4.35875840e-02 7.79976621e-02 1.88045669e-02
      1.79612115e-02 4.88305725e-02 1.49196228e-02 -3.09515335e-02
      1.31215332e-02 1.34012038e-02 -4.79003452e-02 -7.54404627e-03
      2.25781975e-03 -1.75041519e-02 1.10905254e-02 1.28517058e-02
      4.63507464e-03 1.87356248e-02 5.37843816e-03 1.74755845e-02
      2.94091254e-02 2.49968306e-03 1.11834928e-01 9.80159566e-02
      2.18039602e-02 1.23275772e-01 7.39943162e-02 1.19195441e-02
      1.56055287e-01 8.08098540e-02 1.49871549e-02 1.48555800e-01
      7.74264336e-02 2.52213161e-02 1.62482917e-01 9.50640962e-02
      3.64691950e-02 1.19921163e-01 6.57144412e-02 1.76795665e-02
      8.15682635e-02 4.43585962e-02 6.63981261e-03 6.89761862e-02
      5.60011044e-02 6.15349412e-03 3.49044390e-02 2.41939817e-02
      -7.66412774e-03 5.43188192e-02 4.41652983e-02 2.19017174e-03
      4.64130901e-02 3.93254347e-02 4.14554356e-03 4.59859334e-02
      4.25321274e-02 8.28619581e-03 1.91812012e-02 4.83250618e-02
      3.68283689e-02 -1.83207113e-02 7.62051204e-03 1.53175117e-02
      -2.58712564e-02 1.33616244e-02 1.29203852e-02 -4.55323644e-02
      7.34059000e-03 -4.05743718e-04 -1.31105594e-02 1.83043927e-02
      4.45979554e-03 9.21499170e-03 3.41051854e-02 1.39016251e-03
      9.01755132e-03 2.71772817e-02 -4.06983745e-04 7.90488571e-02
      6.26222044e-02 1.23332283e-02 6.81241155e-02 4.04861569e-02
      8.16571433e-03 7.83708394e-02 5.10382950e-02 1.31369168e-02
      6.63676411e-02 4.99852076e-02 7.32399942e-03 7.02811703e-02
      5.38672395e-02 8.48051254e-03 4.88609932e-02 4.76905182e-02
      9.10015125e-03 1.01668434e-02 2.00162977e-02 -1.35963038e-03
      9.84043349e-03 1.81497522e-02 1.13768061e-03 2.67726043e-03
      2.14757863e-02 7.22278049e-03 4.93238680e-03 2.42587663e-02
      1.06954472e-02 -4.26845253e-02 -1.78412590e-02 6.87982282e-03
      -1.93698071e-02 -2.39085732e-03 1.18674794e-02 2.62612011e-02
      3.10413837e-02 1.33530479e-02 2.53447257e-02 2.59643551e-02
      -3.60057340e-04 6.45542443e-02 5.28669581e-02 4.51863976e-03
      6.66185170e-02 5.69851659e-02 -1.37826195e-03 6.79321960e-02
      6.11476265e-02 5.01708034e-03 6.20671026e-02 5.05039990e-02
      5.06660016e-03 3.95150334e-02 3.77722643e-02 3.35314125e-03
      -4.92345029e-03 9.29398835e-03 7.42506701e-03 -3.04181110e-02
      6.65714871e-03 6.54351548e-04 1.13184117e-02 3.81675772e-02
      1.44137749e-02 4.16328944e-03 2.96722092e-02 1.39173400e-02
      1.15158428e-02 3.88468094e-02 1.75922625e-02 3.05355806e-02
      4.26102988e-02 2.76533607e-02 1.90877710e-02 2.68869866e-02
      1.80366784e-02 6.04383880e-04 2.16317736e-02 5.08574303e-03
      -3.03065740e-02 -2.95122573e-03 -1.37279640e-04 -6.36981847e-03
      1.24865118e-02 1.39839659e-02 2.09311880e-02 1.88886654e-02
      1.08891679e-03 3.51438187e-02 2.59796064e-02 2.99742818e-03
      6.51345178e-02 4.92837839e-02 4.94829705e-03 8.34448487e-02
      4.30914834e-02 7.60289235e-03 1.12218261e-01 7.05405921e-02
      2.47342531e-02 8.87581781e-02 4.92802151e-02 1.87414535e-03
      1.04082651e-01 6.20169342e-02 8.12046323e-03 8.65671486e-02
      5.94147071e-02 2.95706745e-02 5.44809960e-02 3.41035835e-02
      1.68233104e-02 5.21970876e-02 3.21452171e-02 1.84061676e-02
      1.84350591e-02 1.99081711e-02 1.31403143e-02 1.50999986e-02
      2.79340465e-02 2.21505743e-02 -1.91134140e-02 5.98271377e-03
      1.83602981e-02 -1.66141819e-02 2.00773170e-03 2.12569311e-02
      -1.43610425e-02 5.38014388e-03 4.99384739e-02 -2.86945980e-02
      -2.73624831e-03 4.28581685e-02 -2.14779601e-02 1.11600701e-02
      4.88588251e-02 2.62583178e-02 2.99737696e-02 5.30975647e-02
      4.12977114e-02 3.94104794e-02 5.88089749e-02 2.21210625e-03
      2.12727655e-02 6.49129897e-02 1.11099556e-02 2.67331488e-02
      6.40686527e-02 5.87484464e-02 5.10417782e-02 8.19376037e-02
      7.84542135e-05 1.72733013e-02 4.37055938e-02 7.26108381e-04
      1.53232785e-02 3.30061354e-02 2.69102994e-02 2.69749966e-02
      3.92007269e-02 2.35688463e-02 2.40933783e-02 4.16460335e-02
      -1.40863210e-02 1.09912474e-02 3.21687944e-02 -1.85058676e-02
      2.28235149e-03 3.45902368e-02 -1.54804327e-02 1.37416460e-03
      3.65768224e-02 -3.16861160e-02 -3.89933027e-03 2.86373720e-02
      -2.57752463e-02 -3.27519118e-03 3.19867283e-02 -3.80205438e-02
      -1.32776005e-02 3.97869945e-02 -5.56841753e-02 -1.93590522e-02
      3.32684815e-02 -4.23027724e-02 -8.56296718e-03 2.93754805e-02
      -4.83971238e-02 -1.13738384e-02 1.96538493e-02 -3.02233901e-02
      -5.19616948e-03 2.13133805e-02 -5.01882732e-02 -9.19509679e-03
      1.25680957e-02 -5.89897037e-02 -9.88977868e-03 7.14538479e-03
      -5.41918203e-02 -1.03148008e-02 1.08571723e-03 -7.81207532e-02
      -2.16700137e-02 -3.31217237e-03 -6.93413913e-02 -2.08945274e-02
      3.27126263e-03 -8.00598413e-02 -2.18066834e-02 1.71562278e-04
      -7.84919336e-02 -2.26219688e-02 2.48750974e-03 -1.42349571e-01
      -4.52807881e-02 -1.34486621e-02 -1.34712681e-01 -4.75601777e-02
      -1.01056499e-02 -1.12077765e-01 -3.79077122e-02 -1.00608086e-02
      -1.28247648e-01 -4.20997106e-02 -1.54873831e-02 -1.16898984e-01
      -3.62444445e-02 -1.50281396e-02 -1.26408890e-01 -4.02796194e-02
      -1.37512302e-02 -8.33067894e-02 -3.20542827e-02 -4.39078594e-03
      -6.87667727e-02 -2.50814147e-02 -1.64040029e-02 -5.83801530e-02
      -2.06167474e-02 -1.64277814e-02 -4.02897522e-02 -8.72706622e-03
      -1.70375761e-02 -4.94642742e-02 -9.75370128e-03 -1.92653276e-02
      2.97512580e-03 1.53420912e-03 -1.13653718e-02 -5.20529458e-03
      -1.42573350e-04 -9.83752497e-03</data></learnt_thetas>
  <n_labels type_id="opencv-matrix">
    <rows>2</rows>
    <cols>1</cols>
    <dt>i</dt>
    <data>
      0 1</data></n_labels>
  <o_labels type_id="opencv-matrix">
    <rows>2</rows>
    <cols>1</cols>
    <dt>i</dt>
    <data>
      0 1</data></o_labels></opencv_ml_lr>
</opencv_storage>
