<?xml version="1.0"?>
<opencv_storage>
<opencv_ml_lr>
  <format>3</format>
  <classifier>"Logisitic Regression Classifier"</classifier>
  <alpha>10000.</alpha>
  <iterations>100</iterations>
  <norm>1</norm>
  <train_method>0</train_method>
  <learnt_thetas type_id="opencv-matrix">
    <rows>1</rows>
    <cols>2550</cols>
    <dt>f</dt>
    <data>
      -7.81081200e-01 7.30565041e-02 4.55119610e-02 1.06480308e-01
      3.57604660e-02 6.85687363e-02 8.15728679e-02 7.70171583e-02
      6.91490546e-02 9.09916591e-03 3.89719680e-02 3.34855579e-02
      6.04681410e-02 3.90594862e-02 2.75795292e-02 8.12552720e-02
      1.30511979e-02 3.00350450e-02 1.46265933e-02 2.81670503e-02
      3.95417474e-02 1.33522702e-02 2.82081496e-02 2.59975134e-03
      1.98826101e-02 -8.98030307e-03 2.07502954e-03 2.58363970e-02
      -9.91389970e-04 2.62883045e-02 8.01934488e-03 4.22533974e-02
      2.87107136e-02 1.45069100e-02 3.28237191e-02 2.11742371e-02
      6.08044975e-02 9.37269814e-03 3.69760282e-02 5.18118329e-02
      1.80506520e-02 4.03452925e-02 1.50954481e-02 7.55200088e-02
      7.62642696e-02 7.51441419e-02 7.76749849e-02 4.18469757e-02
      1.04595765e-01 6.73895031e-02 1.06220439e-01 1.04353316e-01
      6.46010712e-02 1.04917675e-01 4.49947529e-02 8.30907449e-02
      7.59841651e-02 7.02245981e-02 6.23413995e-02 1.11049572e-02
      4.33686674e-02 1.71692893e-02 5.14211208e-02 3.75742614e-02
      1.01248380e-02 5.87372072e-02 8.07129219e-03 2.29008328e-02
      8.79176147e-03 1.70456581e-02 3.20904292e-02 2.12122221e-03
      1.87412724e-02 -1.14287669e-02 2.05594879e-02 -3.45433340e-03
      -4.29883320e-03 2.17717756e-02 -2.62329448e-03 2.20370218e-02
      5.10120392e-03 3.50496694e-02 2.13980749e-02 1.70674156e-02
      2.80129761e-02 1.30453827e-02 8.03283229e-02 2.34710742e-02
      4.05188799e-02 6.82165250e-02 3.66351344e-02 5.57298101e-02
      3.00466884e-02 8.73766020e-02 9.05673802e-02 9.07009616e-02
      8.42359513e-02 5.50838038e-02 1.09820887e-01 6.66977167e-02
      1.01886123e-01 7.40676522e-02 4.51635979e-02 1.06372282e-01
      3.66430990e-02 7.00951517e-02 6.90083206e-02 7.49353766e-02
      8.31120387e-02 1.12736830e-02 3.35280299e-02 2.80909352e-02
      5.76370992e-02 3.43847051e-02 1.23088388e-02 6.00059070e-02
      1.34791555e-02 2.74375621e-02 7.87104014e-03 1.88636146e-02
      3.28572504e-02 -6.51267031e-03 1.71733107e-02 -3.22012161e-03
      2.44692322e-02 -5.42120868e-03 -4.88929404e-03 2.31186803e-02
      -3.40906996e-03 2.38997582e-02 4.31307219e-03 4.41207029e-02
      3.04924045e-02 2.34322865e-02 2.89318189e-02 2.37676091e-02
      6.69909939e-02 2.81018391e-02 6.86648414e-02 7.63616934e-02
      4.35187854e-02 4.59429696e-02 2.04442721e-02 8.37938562e-02
      8.82796720e-02 8.67498815e-02 7.82003775e-02 4.12767678e-02
      1.06475860e-01 6.64651617e-02 3.57108638e-02 -1.68094260e-03
      4.24782522e-02 -1.32900225e-02 3.46045755e-02 1.52253471e-02
      1.11069418e-02 3.40483636e-02 -1.02687590e-02 3.64588797e-02
      3.23900618e-02 5.88594228e-02 3.20735276e-02 1.70072913e-02
      7.33921677e-02 3.08645535e-02 5.85375056e-02 4.76549827e-02
      5.77363074e-02 6.74146041e-02 5.74777648e-02 9.61409062e-02
      6.89753741e-02 9.58929062e-02 9.14789811e-02 9.13143307e-02
      9.60142165e-02 7.16059431e-02 9.17240530e-02 5.48411570e-02
      7.38989934e-02 5.78087606e-02 4.49462533e-02 5.87588400e-02
      3.09858061e-02 6.00399673e-02 9.52182058e-03 3.82617600e-02
      5.34186773e-02 1.88572928e-02 3.19361798e-02 -1.22479834e-02
      3.40751335e-02 1.22246053e-02 1.64536443e-02 3.20541300e-02
      -1.58850867e-02 3.64202447e-02 -1.04624266e-02 2.54250020e-02
      5.51047083e-03 -2.52535399e-02 3.29637416e-02 -1.57995541e-02
      3.22557427e-02 1.47788599e-02 1.06406324e-02 3.52776833e-02
      -6.53963489e-03 4.13672812e-02 1.93365626e-02 5.36690354e-02
      3.66066284e-02 1.49501115e-02 6.80578202e-02 2.94941720e-02
      5.55916056e-02 4.49594408e-02 6.12857714e-02 7.89298117e-02
      5.65403663e-02 9.43131745e-02 6.91380650e-02 9.54846442e-02
      9.07348990e-02 8.92694294e-02 9.01480392e-02 5.92387766e-02
      8.50832835e-02 4.81948294e-02 6.92895353e-02 5.44063523e-02
      5.15751280e-02 5.60917519e-02 2.37622876e-02 6.94596395e-02
      1.28088547e-02 2.84468327e-02 4.90572676e-02 1.81361251e-02
      3.17374766e-02 -1.10688871e-02 3.91829722e-02 1.19841052e-02
      1.52995102e-02 2.97312252e-02 -1.78677365e-02 3.22681256e-02
      -2.52451096e-02 5.56389708e-03 3.45185138e-02 -4.30315034e-03
      2.98192911e-02 -1.60697047e-02 3.33590060e-02 1.60429236e-02
      1.52741093e-02 4.03808951e-02 -9.33698565e-03 3.25372629e-02
      2.79857237e-02 5.79765029e-02 3.67915742e-02 1.72933862e-02
      7.02126920e-02 3.35656106e-02 6.41034544e-02 5.21086901e-02
      6.40145689e-02 7.86475986e-02 5.73158041e-02 9.61855203e-02
      6.99636564e-02 9.63909253e-02 9.14850906e-02 8.31017420e-02
      8.72874931e-02 6.10824861e-02 8.72029811e-02 4.77194004e-02
      7.15761110e-02 5.04496656e-02 3.34996320e-02 5.89955784e-02
      3.20479497e-02 6.24975748e-02 1.36813149e-02 4.48023900e-02
      5.87467402e-02 2.01701820e-02 3.84726226e-02 -4.97211516e-03
      3.80335823e-02 2.09879801e-02 2.25159135e-02 3.22092772e-02
      -1.64877903e-02 3.29793133e-02 -6.67913677e-03 -7.80871153e-01
      -3.04928441e-02 -1.04083776e-01 8.46901685e-02 -2.65580583e-02
      6.90175686e-03 6.72875419e-02 -3.09346635e-02 -1.90332171e-03
      8.02614447e-03 5.33952601e-02 -1.03875911e-02 -4.79891850e-03
      9.36523022e-04 9.90533922e-03 3.82104144e-02 -2.96784174e-02
      -1.03931069e-01 8.44068900e-02 -2.64099259e-02 6.80930540e-03
      6.70865476e-02 -3.09102051e-02 -1.89839688e-03 7.98012782e-03
      5.32487519e-02 -1.03672044e-02 -4.80281562e-03 9.33976087e-04
      9.86700691e-03 3.81186418e-02 -2.91703604e-02 -1.03824392e-01
      8.41253102e-02 -2.63009630e-02 6.71919528e-03 6.69136494e-02
      -3.08908820e-02 -1.89299346e-03 7.94173498e-03 5.31448461e-02
      -1.03515750e-02 -4.80503216e-03 9.33166360e-04 9.83873382e-03
      3.80699299e-02 -2.93990560e-02 -1.03873514e-01 8.38345289e-02
      -2.63132993e-02 6.59052609e-03 6.68000579e-02 -3.08953859e-02
      -1.91172666e-03 7.89191574e-03 5.31217195e-02 -1.03535214e-02
      -4.81545180e-03 9.21099796e-04 9.80920531e-03 3.80988084e-02
      -2.88246106e-02 -1.03790171e-01 8.36524069e-02 -2.62349732e-02
      6.49869395e-03 6.66742176e-02 -3.08858957e-02 -1.91204157e-03
      7.85071682e-03 5.30348644e-02 -1.03437239e-02 -4.82019596e-03
      9.16656805e-04 9.77837481e-03 3.80502008e-02 -2.76629440e-02
      -1.03605397e-01 8.35599303e-02 -2.60875840e-02 6.44180831e-03
      6.65438473e-02 -3.08648646e-02 -1.89420534e-03 7.82104488e-03
      5.29053435e-02 -1.03244856e-02 -4.81860526e-03 9.20475344e-04
      9.75080021e-03 3.79479676e-02 -2.75812652e-02 -1.03612617e-01
      8.33195150e-02 -2.60830726e-02 6.32340740e-03 6.63624629e-02
      -3.08690760e-02 -1.91182143e-03 7.76179740e-03 5.27737476e-02
      -1.03251794e-02 -4.83037531e-03 9.05713416e-04 9.70742293e-03
      3.78563441e-02 -2.74421144e-02 -1.03590593e-01 8.31096023e-02
      -2.60610413e-02 6.22662110e-03 6.62019178e-02 -3.08664721e-02
      -1.91831740e-03 7.71550275e-03 5.26633635e-02 -1.03223100e-02
      -4.83673299e-03 8.97537975e-04 9.67430323e-03 3.77845690e-02
      -2.62861755e-02 -1.03416890e-01 8.31156299e-02 -2.59157270e-02
      6.18073111e-03 6.61694482e-02 -3.08472030e-02 -1.89663260e-03
      7.69421225e-03 5.26270382e-02 -1.03034452e-02 -4.83513996e-03
      9.03213746e-04 9.65410564e-03 3.77645604e-02 -2.48217527e-02
      -1.03216514e-01 8.30675811e-02 -2.57169437e-02 6.11941935e-03
      6.60706758e-02 -3.08246017e-02 -1.87283452e-03 7.65403593e-03
      5.25358357e-02 -1.02774249e-02 -4.83468408e-03 9.06755158e-04
      9.61805601e-03 3.77045907e-02 -2.30561402e-02 -1.03006266e-01
      8.29017237e-02 -2.54575498e-02 6.02228800e-03 6.58491403e-02
      -3.08000650e-02 -1.85164739e-03 7.57838879e-03 5.23442812e-02
      -1.02427462e-02 -4.83825151e-03 9.04134009e-04 9.55225714e-03
      3.75696756e-02 -2.20324490e-02 -1.02897480e-01 8.27660412e-02
      -2.52975933e-02 5.95643977e-03 6.56921566e-02 -3.07873674e-02
      -1.83447567e-03 7.52504915e-03 5.22219203e-02 -1.02219786e-02
      -4.83854068e-03 9.03454085e-04 9.50770359e-03 3.74909043e-02
      -2.11603772e-02 -1.02796346e-01 8.26678723e-02 -2.51513626e-02
      5.91929443e-03 6.55746013e-02 -3.07736192e-02 -1.80686067e-03
      7.49108894e-03 5.21402024e-02 -1.02024581e-02 -4.83237766e-03
      9.09979048e-04 9.47973318e-03 3.74479070e-02 -1.98362172e-02
      -1.02690004e-01 8.22387710e-02 -2.49116234e-02 5.78046404e-03
      6.51308075e-02 -3.07597686e-02 -1.78536004e-03 7.38395378e-03
      5.17718606e-02 -1.01702185e-02 -4.83587338e-03 9.07270412e-04
      9.38955974e-03 3.71735431e-02 -1.88802537e-02 -1.02610044e-01
      8.17515627e-02 -2.46969666e-02 5.66325197e-03 6.46651238e-02
      -3.07449941e-02 -1.75627612e-03 7.29457568e-03 5.13998382e-02
      -1.01400381e-02 -4.83387383e-03 9.12180636e-04 9.31591820e-03
      3.69002521e-02 -1.88268144e-02 -1.02615871e-01 8.11332390e-02
      -2.45618597e-02 5.57795679e-03 6.41598403e-02 -3.07308137e-02
      -1.72296644e-03 7.23093469e-03 5.10205887e-02 -1.01188701e-02
      -4.82315151e-03 9.25927132e-04 9.26734693e-03 3.66254523e-02
      -1.71387941e-02 -1.02414951e-01 8.12965482e-02 -2.43313592e-02
      5.61076403e-03 6.41510412e-02 -3.07153072e-02 -1.66754588e-03
      7.24202767e-03 5.09631820e-02 -1.00881262e-02 -4.81297867e-03
      9.51205671e-04 9.26589221e-03 3.65668908e-02 -1.40013974e-02
      -1.02032073e-01 8.22287649e-02 -2.40367316e-02 5.75328385e-03
      6.46471381e-02 -3.07014845e-02 -1.59575639e-03 7.32642086e-03
      5.12435883e-02 -1.00517096e-02 -4.80393879e-03 9.85383405e-04
      9.31300502e-03 3.67392227e-02 -1.17096305e-02 -1.01893894e-01
      8.26077610e-02 -2.38128565e-02 5.74434781e-03 6.47657588e-02
      -3.07169091e-02 -1.56668655e-03 7.30377156e-03 5.12772650e-02
      -1.00252898e-02 -4.81109740e-03 9.88027197e-04 9.28872917e-03
      3.67476195e-02 -9.65605304e-03 -1.01785950e-01 8.28362107e-02
      -2.35816278e-02 5.72570227e-03 6.47767857e-02 -3.07301804e-02
      -1.53034751e-03 7.27300812e-03 5.12418076e-02 -9.99586564e-03
      -4.81435237e-03 9.94281960e-04 9.26000439e-03 3.67113762e-02
      -7.92265777e-03 -1.01733901e-01 8.27922076e-02 -2.33562645e-02
      5.65725518e-03 6.45720661e-02 -3.07488404e-02 -1.50574429e-03
      7.20836129e-03 5.10273203e-02 -9.96707287e-03 -4.82376060e-03
      9.94073343e-04 9.20230802e-03 3.65323126e-02 -6.18706271e-03
      -1.01684168e-01 8.27796236e-02 -2.31250934e-02 5.62562654e-03
      6.43953457e-02 -3.07680331e-02 -1.47223182e-03 7.16594001e-03
      5.08303866e-02 -9.93634295e-03 -4.82788682e-03 1.00127340e-03
      9.16107092e-03 3.63652632e-02 -4.55990853e-03 -1.01679675e-01
      8.27685520e-02 -2.29063556e-02 5.61338570e-03 6.42378926e-02
      -3.07959393e-02 -1.43899070e-03 7.13458657e-03 5.06584942e-02
      -9.90729313e-03 -4.83039720e-03 1.01020816e-03 9.13144089e-03
      3.62205580e-02 -2.61148927e-03 -1.01666048e-01 8.29567239e-02
      -2.26898901e-02 5.61067555e-03 6.42029569e-02 -3.08292378e-02
      -1.41019851e-03 7.11052259e-03 5.05610928e-02 -9.87846591e-03
      -4.83614765e-03 1.01678341e-03 9.10686702e-03 3.61186787e-02
      -3.42235144e-05 -1.01568751e-01 8.34721252e-02 -2.24183109e-02
      5.67351282e-03 6.43664151e-02 -3.08539961e-02 -1.35635526e-03
      7.12832063e-03 5.05858809e-02 -9.83954314e-03 -4.83354973e-03
      1.03872665e-03 9.10908915e-03 3.60929966e-02 3.58278840e-03
      -1.01427369e-01 8.43224451e-02 -2.20493227e-02 5.77767519e-03
      6.47449493e-02 -3.08926832e-02 -1.28224096e-03 7.17297941e-03
      5.07626869e-02 -9.78648942e-03 -4.83176066e-03 1.07053865e-03
      9.12948139e-03 3.61821502e-02 7.15029798e-03 -1.01289496e-01
      8.52792338e-02 -2.17114426e-02 5.89133380e-03 6.52415454e-02
      -3.09353787e-02 -1.21346372e-03 7.23398477e-03 5.10414764e-02
      -9.73769836e-03 -4.83137835e-03 1.10184820e-03 9.16526001e-03
      3.63556482e-02 1.00461254e-02 -1.01208933e-01 8.61085802e-02
      -2.14716475e-02 5.96903265e-03 6.56670332e-02 -3.09827030e-02
      -1.17390114e-03 7.27116223e-03 5.12661412e-02 -9.70479008e-03
      -4.83917072e-03 1.11575588e-03 9.18244943e-03 3.64836045e-02
      1.26044666e-02 -1.01180494e-01 8.67219791e-02 -2.12282110e-02
      6.02647988e-03 6.59383163e-02 -3.10295876e-02 -1.12989894e-03
      7.29457289e-03 5.13878800e-02 -9.66865104e-03 -4.84352186e-03
      1.13275973e-03 9.19181574e-03 3.65427285e-02 1.50244655e-02
      -1.01209581e-01 8.72646049e-02 -2.09966581e-02 6.07091375e-03
      6.61654249e-02 -3.10841408e-02 -1.09270180e-03 7.31228990e-03
      5.14826663e-02 -9.63260513e-03 -4.84953681e-03 1.14802632e-03
      9.20154061e-03 3.65811773e-02 1.75278466e-02 -1.01275243e-01
      8.78033489e-02 -2.07814779e-02 6.10986957e-03 6.63801804e-02
      -3.11516263e-02 -1.07604673e-03 7.31524918e-03 5.15449718e-02
      -9.59971920e-03 -4.86171059e-03 1.15055114e-03 9.19631124e-03
      3.65811624e-02 2.02756897e-02 -1.01287231e-01 8.84836465e-02
      -2.05414388e-02 6.20032242e-03 6.66983500e-02 -3.12138647e-02
      -1.04636967e-03 7.34739285e-03 5.16766533e-02 -9.56214778e-03
      -4.86721238e-03 1.16107252e-03 9.20994580e-03 3.66293788e-02
      2.31798626e-02 -1.01260327e-01 8.93031657e-02 -2.02821326e-02
      6.33491762e-03 6.71502054e-02 -3.12733129e-02 -1.00382615e-03
      7.41800992e-03 5.19210584e-02 -9.52050555e-03 -4.86857677e-03
      1.18315918e-03 9.25508700e-03 3.67697999e-02 2.59660017e-02
      -1.01261221e-01 9.00406167e-02 -2.00178456e-02 6.46060100e-03
      6.75569698e-02 -3.13336216e-02 -9.60004167e-04 7.48391496e-03
      5.21415621e-02 -9.47593153e-03 -4.86820610e-03 1.20671419e-03
      9.29813739e-03 3.69003937e-02 2.85668429e-02 -1.01287596e-01
      9.07390267e-02 -1.97791271e-02 6.56850915e-03 6.79402128e-02
      -3.13932672e-02 -9.24271066e-04 7.53807556e-03 5.23459464e-02
      -9.43494774e-03 -4.86860564e-03 1.22648070e-03 9.33253113e-03
      3.70183773e-02 3.04755997e-02 -1.01298422e-01 9.12177488e-02
      -1.95939820e-02 6.67191716e-03 6.81988746e-02 -3.14375982e-02
      -8.94181198e-04 7.58832507e-03 5.24784364e-02 -9.40300245e-03
      -4.86514112e-03 1.24393497e-03 9.36569646e-03 3.70904580e-02
      3.18275057e-02 -1.01383261e-01 9.13778245e-02 -1.94306225e-02
      6.74219895e-03 6.82599843e-02 -3.14830132e-02 -8.74960097e-04
      7.61000300e-03 5.24813272e-02 -9.37305856e-03 -4.86105261e-03
      1.25524239e-03 9.37976781e-03 3.70767415e-02 3.39309946e-02
      -1.01532519e-01 9.17390585e-02 -1.92170497e-02 6.81896787e-03
      6.84481561e-02 -3.15546170e-02 -8.64645641e-04 7.62990257e-03
      5.25550470e-02 -9.33262799e-03 -4.86283144e-03 1.26280030e-03
      9.39204544e-03 3.71067487e-02 3.59784104e-02 -1.01682477e-01
      9.20680985e-02 -1.90097168e-02 6.89214841e-03 6.86189160e-02
      -3.16253491e-02 -8.54887650e-04 7.65005965e-03 5.26164286e-02
      -9.29254666e-03 -4.86339955e-03 1.27117452e-03 9.40556731e-03
      3.71286385e-02 3.72284912e-02 -1.01813443e-01 9.21721607e-02
      -1.88685190e-02 6.93442533e-03 6.86497018e-02 -3.16797011e-02
      -8.49637087e-04 7.65465247e-03 5.25922328e-02 -9.26563330e-03
      -4.86412691e-03 1.27551926e-03 9.40747838e-03 3.70934419e-02
      3.89417000e-02 -1.01967342e-01 9.23837051e-02 -1.86734907e-02
      7.00822333e-03 6.87544569e-02 -3.17460708e-02 -8.35566723e-04
      7.67326029e-03 5.26183844e-02 -9.22705419e-03 -4.86068008e-03
      1.28606311e-03 9.42113064e-03 3.70964892e-02 4.10404243e-02
      -1.02146350e-01 9.26646516e-02 -1.84475631e-02 7.09463330e-03
      6.89161047e-02 -3.18234153e-02 -8.29901081e-04 7.69206556e-03
      5.26719131e-02 -9.18112602e-03 -4.85885935e-03 1.29398692e-03
      9.43354331e-03 3.71155590e-02 4.24822308e-02 -1.02281429e-01
      9.28148404e-02 -1.82918515e-02 7.18087936e-03 6.90242574e-02
      -3.18782143e-02 -8.33497907e-04 7.71038374e-03 5.27033918e-02
      -9.14849713e-03 -4.85327840e-03 1.29828067e-03 9.44617949e-03
      3.71250398e-02 4.33967151e-02 -1.02358647e-01 9.28788409e-02
      -1.81903299e-02 7.28059793e-03 6.91050515e-02 -3.19107026e-02
      -8.38413369e-04 7.73821119e-03 5.27314134e-02 -9.12713911e-03
      -4.84179519e-03 1.30364741e-03 9.46659874e-03 3.71389426e-02
      4.34886962e-02 -1.02439664e-01 9.26589221e-02 -1.81816891e-02
      7.33240321e-03 6.90240934e-02 -3.19351181e-02 -8.76046019e-04
      7.73697672e-03 5.26538305e-02 -9.12594143e-03 -4.84065711e-03
      1.29119307e-03 9.46581084e-03 3.70798074e-02 4.37574647e-02
      -1.02523953e-01 9.24641937e-02 -1.81477647e-02 7.39452196e-03
      6.89547807e-02 -3.19627523e-02 -9.06516390e-04 7.74160447e-03
      5.25822304e-02 -9.11885593e-03 -4.83673904e-03 1.28337392e-03
      9.47063509e-03 3.70257273e-02 4.46662456e-02 -1.02639452e-01
      9.24982950e-02 -1.80657841e-02 7.46596092e-03 6.90252557e-02
      -3.20060588e-02 -9.30764247e-04 7.74744758e-03 5.25990129e-02
      -9.10124555e-03 -4.83366288e-03 1.27785467e-03 9.47574060e-03
      3.70319113e-02 4.51198183e-02 -1.02709793e-01 9.24251452e-02
      -1.80205703e-02 7.54234940e-03 6.90411031e-02 -3.20302211e-02
      -9.55027470e-04 7.75616476e-03 5.25897890e-02 -9.09145456e-03
      -4.82597854e-03 1.27340097e-03 9.48370527e-03 3.70241590e-02
      4.50086147e-02 -1.02732182e-01 9.22237411e-02 -1.80265680e-02
      7.61609571e-03 6.89889044e-02 -3.20328064e-02 -9.83017148e-04
      7.76315713e-03 5.25442064e-02 -9.09293350e-03 -4.81524458e-03
      1.26767100e-03 9.49027203e-03 3.69936340e-02 4.51653935e-02
      -1.02736793e-01 9.22080427e-02 -1.80347972e-02 7.71244848e-03
      6.90811723e-02 -3.20373103e-02 -1.01504789e-03 7.78201967e-03
      5.25967777e-02 -9.09511745e-03 -4.80583170e-03 1.26095745e-03
      9.50528029e-03 3.70327942e-02 4.54283096e-02 -1.02713287e-01
      9.22650620e-02 -1.80333555e-02 7.83527642e-03 6.92361072e-02
      -3.20373178e-02 -1.04000489e-03 7.81698804e-03 5.26978374e-02
      -9.09512397e-03 -4.79200436e-03 1.25972135e-03 9.53359343e-03
      3.71112041e-02 4.54053804e-02 -1.02748059e-01 9.20611322e-02
      -1.80532690e-02 7.92663265e-03 6.92285150e-02 -3.20472345e-02
      -1.08935661e-03 7.82060530e-03 5.26691712e-02 -9.09976102e-03
      -4.78347903e-03 1.24678132e-03 9.53702256e-03 3.70932780e-02
      4.55189347e-02 -1.02709346e-01 9.20317620e-02 -1.80655327e-02
      8.05578660e-03 6.93418235e-02 -3.20450105e-02 -1.12209050e-03
      7.85407703e-03 5.27348816e-02 -9.10344347e-03 -4.76973923e-03
      1.24358037e-03 9.56337899e-03 3.71467471e-02 4.59463336e-02
      -1.02553263e-01 9.23905894e-02 -1.80792566e-02 8.22989829e-03
      6.97072297e-02 -3.20276357e-02 -1.13539794e-03 7.93033745e-03
      5.29865287e-02 -9.10937507e-03 -4.75540850e-03 1.24960986e-03
      9.61940922e-03 3.73309962e-02 4.59487215e-02 -1.02400735e-01
      9.26221609e-02 -1.81284398e-02 8.38089548e-03 6.99994192e-02
      -3.19984853e-02 -1.15366897e-03 7.99221545e-03 5.31963259e-02
      -9.12143756e-03 -4.74029873e-03 1.25262816e-03 9.66627523e-03
      3.74898650e-02 4.56336066e-02 -1.02220431e-01 9.28156525e-02
      -1.82064250e-02 8.53206217e-03 7.02798590e-02 -3.19551229e-02
      -1.17048412e-03 8.05634167e-03 5.34108691e-02 -9.13871266e-03
      -4.72240662e-03 1.25659758e-03 9.71625093e-03 3.76580879e-02
      4.53228876e-02 -1.02212064e-01 9.27679092e-02 -1.82854775e-02
      8.59710015e-03 7.03586414e-02 -3.19501869e-02 -1.21473800e-03
      8.05649254e-03 5.34596145e-02 -9.15556028e-03 -4.71946783e-03
      1.24159479e-03 9.71995015e-03 3.76985855e-02 4.49177884e-02
      -1.02183372e-01 9.26736742e-02 -1.83577836e-02 8.67235474e-03
      7.04051927e-02 -3.19387391e-02 -1.25075423e-03 8.06323532e-03
      5.34901395e-02 -9.17087123e-03 -4.71243821e-03 1.23152381e-03
      9.72959027e-03 3.77293117e-02 4.34464961e-02 -1.02023020e-01
      9.24291834e-02 -1.85196251e-02 8.75755958e-03 7.03786910e-02
      -3.18813175e-02 -1.28476229e-03 8.08505807e-03 5.34994565e-02
      -9.20575298e-03 -4.70224349e-03 1.22267962e-03 9.74885654e-03
      3.77530381e-02 4.16137166e-02 -1.01892039e-01 9.20381323e-02
      -1.86977684e-02 8.81512929e-03 7.02347085e-02 -3.18196639e-02
      -1.31593365e-03 8.09203181e-03 5.34260869e-02 -9.24219005e-03
      -4.69155004e-03 1.21379865e-03 9.75704752e-03 3.77158187e-02
      3.89828458e-02 -1.01788916e-01 9.13857743e-02 -1.89286396e-02
      8.83448403e-03 6.98954761e-02 -3.17435451e-02 -1.34674588e-03
      8.07612855e-03 5.32167666e-02 -9.28708725e-03 -4.67944145e-03
      1.20324106e-03 9.74762067e-03 3.75771783e-02 3.71497981e-02
      -1.01658940e-01 9.10844728e-02 -1.91259384e-02 8.86738673e-03
      6.97696060e-02 -3.16818319e-02 -1.37824786e-03 8.07691552e-03
      5.31449690e-02 -9.32528917e-03 -4.67428379e-03 1.19194074e-03
      9.74952988e-03 3.75285670e-02 3.59633081e-02 -1.01524927e-01
      9.10002589e-02 -1.92687307e-02 8.91154911e-03 6.97816759e-02
      -3.16321477e-02 -1.39956723e-03 8.09434615e-03 5.31680323e-02
      -9.35226120e-03 -4.66987491e-03 1.18617038e-03 9.76350531e-03
      3.75494659e-02 3.38644311e-02 -1.01405501e-01 9.07206833e-02
      -1.94855444e-02 8.95247329e-03 6.96746781e-02 -3.15673798e-02
      -1.42933615e-03 8.09546374e-03 5.31277284e-02 -9.39396303e-03
      -4.66310978e-03 1.17470510e-03 9.76666994e-03 3.75301614e-02
      3.16748880e-02 -1.01294905e-01 9.04442370e-02 -1.97100975e-02
      8.99099372e-03 6.95635155e-02 -3.15034427e-02 -1.45431072e-03
      8.09925422e-03 5.30942641e-02 -9.43589211e-03 -4.65580076e-03
      1.16460014e-03 9.77411959e-03 3.75184752e-02 3.00669242e-02
      -1.01251677e-01 9.02251676e-02 -1.98812876e-02 8.99248943e-03
      6.94785938e-02 -3.14653963e-02 -1.47917494e-03 8.09312053e-03
      5.30672371e-02 -9.46722552e-03 -4.65594651e-03 1.15304126e-03
      9.77334008e-03 3.75095345e-02 2.81313397e-02 -1.01193465e-01
      9.00570676e-02 -2.01016087e-02 8.99349805e-03 6.94132298e-02
      -3.14198658e-02 -1.50839845e-03 8.08731001e-03 5.30599058e-02
      -9.50729009e-03 -4.65870090e-03 1.13700971e-03 9.77197196e-03
      3.75112481e-02 2.58289222e-02 -1.01121955e-01 8.99396539e-02
      -2.03698855e-02 9.00247879e-03 6.93802312e-02 -3.13653089e-02
      -1.53566815e-03 8.08991864e-03 5.30881025e-02 -9.55495611e-03
      -4.66073444e-03 1.12059037e-03 9.77797993e-03 3.75394337e-02
      2.33862661e-02 -1.01054899e-01 8.97080004e-02 -2.06170864e-02
      8.99966713e-03 6.92726225e-02 -3.13041359e-02 -1.55860838e-03
      8.08887929e-03 5.30655235e-02 -9.59642511e-03 -4.66072606e-03
      1.10851694e-03 9.78013873e-03 3.75327580e-02 2.08779518e-02
      -1.01006016e-01 8.94358754e-02 -2.08594948e-02 8.98870640e-03
      6.91273734e-02 -3.12446374e-02 -1.57606951e-03 8.08634888e-03
      5.30228615e-02 -9.63568036e-03 -4.65909299e-03 1.09835307e-03
      9.78195108e-03 3.75138894e-02 1.83356069e-02 -1.01029150e-01
      8.91797245e-02 -2.11289339e-02 8.95686448e-03 6.89972267e-02
      -3.12029701e-02 -1.60132360e-03 8.07275902e-03 5.29876836e-02
      -9.68066324e-03 -4.66258451e-03 1.08212221e-03 9.77718178e-03
      3.74989361e-02 1.59035493e-02 -1.01013541e-01 8.89750272e-02
      -2.13715453e-02 8.93805921e-03 6.88844323e-02 -3.11530773e-02
      -1.61440938e-03 8.07306822e-03 5.29663004e-02 -9.71900020e-03
      -4.66269162e-03 1.07310875e-03 9.78050660e-03 3.74918692e-02
      1.34019721e-02 -1.01007864e-01 8.87609273e-02 -2.16190461e-02
      8.89165979e-03 6.87528104e-02 -3.11028101e-02 -1.62562367e-03
      8.06754082e-03 5.29357530e-02 -9.75657348e-03 -4.66513401e-03
      1.06289913e-03 9.77688842e-03 3.74779068e-02 1.05774784e-02
      -1.01098344e-01 8.84703398e-02 -2.19194051e-02 8.80585704e-03
      6.85518458e-02 -3.10680214e-02 -1.65338581e-03 8.03512521e-03
      5.28575815e-02 -9.80208721e-03 -4.67454828e-03 1.04101270e-03
      9.75667313e-03 3.74240652e-02 7.91773759e-03 -1.01228192e-01
      8.81737545e-02 -2.22091470e-02 8.71290918e-03 6.83221444e-02
      -3.10447421e-02 -1.68484275e-03 7.99103826e-03 5.27507775e-02
      -9.84522887e-03 -4.68537910e-03 1.01570913e-03 9.72911716e-03
      3.73430513e-02 4.89492575e-03 -1.01310655e-01 8.80384296e-02
      -2.25339308e-02 8.65278207e-03 6.82528317e-02 -3.10025141e-02
      -1.70493964e-03 7.98555277e-03 5.27791269e-02 -9.89198126e-03
      -4.69141779e-03 1.00096164e-03 9.72784776e-03 3.73711847e-02
      1.87211926e-03 -1.01431824e-01 8.79195854e-02 -2.28639524e-02
      8.59348662e-03 6.82010353e-02 -3.09688896e-02 -1.72558601e-03
      7.98223913e-03 5.28302602e-02 -9.93822981e-03 -4.69740201e-03
      9.86485975e-04 9.73169785e-03 3.74212079e-02 -4.33167035e-04
      -1.01579770e-01 8.78047720e-02 -2.31349152e-02 8.51998664e-03
      6.81603923e-02 -3.09580341e-02 -1.75411347e-03 7.96440523e-03
      5.28765619e-02 -9.97672603e-03 -4.70836647e-03 9.67035594e-04
      9.72631387e-03 3.74712460e-02 -2.85763294e-03 -1.01771340e-01
      8.75650421e-02 -2.34150589e-02 8.40991363e-03 6.80295676e-02
      -3.09536327e-02 -1.79296383e-03 7.92689342e-03 5.28579354e-02
      -1.00152567e-02 -4.72419988e-03 9.41464677e-04 9.70702525e-03
      3.74736637e-02 -5.44801913e-03 -1.02032386e-01 8.72204602e-02
      -2.37156991e-02 8.26570299e-03 6.77900985e-02 -3.09607703e-02
      -1.84634177e-03 7.85841327e-03 5.27536012e-02 -1.00562945e-02
      -4.74622007e-03 9.04774817e-04 9.66413785e-03 3.74055617e-02
      -7.96587858e-03 -1.02325343e-01 8.68092552e-02 -2.40326915e-02
      8.06986634e-03 6.75208420e-02 -3.09800245e-02 -1.91244145e-03
      7.76968198e-03 5.26226051e-02 -1.01009700e-02 -4.77534020e-03
      8.59401829e-04 9.60543565e-03 3.73179466e-02 -1.04704434e-02
      -1.02606744e-01 8.63743499e-02 -2.43343506e-02 7.88326282e-03
      6.72323853e-02 -3.09955105e-02 -1.96589669e-03 7.69006275e-03
      5.24814986e-02 -1.01424409e-02 -4.79832944e-03 8.21739668e-04
      9.55419056e-03 3.72234359e-02 -1.29280565e-02 -1.02880895e-01
      8.60621706e-02 -2.46079993e-02 7.74675654e-03 6.70547113e-02
      -3.10046114e-02 -1.99941080e-03 7.64941005e-03 5.24362102e-02
      -1.01780212e-02 -4.81307087e-03 8.00702197e-04 9.53477621e-03
      3.72086987e-02 -1.50592923e-02 -1.03105187e-01 8.59303400e-02
      -2.48442851e-02 7.67801143e-03 6.70662448e-02 -3.10096778e-02
      -2.00833590e-03 7.67201977e-03 5.25521860e-02 -1.02078561e-02
      -4.81789606e-03 8.02642142e-04 9.57059953e-03 3.73280197e-02
      -1.73889175e-02 -1.03468671e-01 8.57420862e-02 -2.51671188e-02
      7.52141187e-03 6.70259446e-02 -3.10485959e-02 -2.06246995e-03
      7.63708772e-03 5.26298992e-02 -1.02534564e-02 -4.84347669e-03
      7.73958280e-04 9.56601836e-03 3.74166705e-02 -1.93940476e-02
      -1.03802301e-01 8.55155587e-02 -2.54504234e-02 7.36204395e-03
      6.69545010e-02 -3.10883857e-02 -2.11873138e-03 7.59554189e-03
      5.26722334e-02 -1.02929994e-02 -4.87013487e-03 7.43451761e-04
      9.55493934e-03 3.74787934e-02 -2.07753405e-02 -1.04132205e-01
      8.52511674e-02 -2.56911349e-02 7.17021851e-03 6.68113828e-02
      -3.11417039e-02 -2.19950452e-03 7.50683667e-03 5.26262783e-02
      -1.03278877e-02 -4.90692258e-03 6.92485890e-04 9.50393267e-03
      3.74634676e-02 -2.32526306e-02 -1.04694135e-01 8.46460536e-02
      -2.60622371e-02 6.82789227e-03 6.64547682e-02 -3.12132612e-02
      -2.32154387e-03 7.33765494e-03 5.24532609e-02 -1.03778113e-02
      -4.95864591e-03 6.14366494e-04 9.39788483e-03 3.73659544e-02
      -2.62359288e-02 -1.05362281e-01 8.37964043e-02 -2.64825318e-02
      6.41014008e-03 6.59323856e-02 -3.12911235e-02 -2.46188557e-03
      7.12170359e-03 5.21642417e-02 -1.04314396e-02 -5.01428731e-03
      5.23670868e-04 9.25789867e-03 3.71873863e-02 -2.80836578e-02
      -1.05830178e-01 8.31844211e-02 -2.67540198e-02 6.11492479e-03
      6.55438080e-02 -3.13505046e-02 -2.56048283e-03 6.96066488e-03
      5.19405715e-02 -1.04671083e-02 -5.05187083e-03 4.59141331e-04
      9.15268064e-03 3.70446295e-02 -3.01554073e-02 -1.06313094e-01
      8.25105458e-02 -2.70361658e-02 5.81614953e-03 6.51237965e-02
      -3.14052515e-02 -2.65267072e-03 6.80456171e-03 5.17021865e-02
      -1.05019836e-02 -5.08564292e-03 3.99612327e-04 9.05288197e-03
      3.68958823e-02 -3.23654413e-02 -1.06777996e-01 8.18362609e-02
      -2.73252483e-02 5.51833212e-03 6.47190064e-02 -3.14544849e-02
      -2.74014054e-03 6.66391151e-03 5.14733344e-02 -1.05372425e-02
      -5.11960220e-03 3.46005836e-04 8.96268059e-03 3.67536657e-02
      -3.41698788e-02 -1.07221663e-01 8.11498985e-02 -2.75742151e-02
      5.20519493e-03 6.42958656e-02 -3.15024033e-02 -2.83145253e-03
      6.50688354e-03 5.12213185e-02 -1.05660744e-02 -5.15364762e-03
      2.89165939e-04 8.86060391e-03 3.65927368e-02 -3.61067802e-02
      -1.07750036e-01 8.02683681e-02 -2.78345514e-02 4.82544908e-03
      6.37267306e-02 -3.15543637e-02 -2.93947826e-03 6.30073110e-03
      5.08652627e-02 -1.05930427e-02 -5.19006280e-03 2.20641567e-04
      8.72593839e-03 3.63584459e-02 -3.65974680e-02 -1.07999131e-01
      7.98164606e-02 -2.79409904e-02 4.56085103e-03 6.34568185e-02
      -3.15842666e-02 -3.01334285e-03 6.16434682e-03 5.06962165e-02
      -1.06041599e-02 -5.21914149e-03 1.73049091e-04 8.63312371e-03
      3.62550952e-02 -3.69317420e-02 -1.08162001e-01 7.94641003e-02
      -2.80110575e-02 4.35769558e-03 6.32621124e-02 -3.16024870e-02
      -3.06256069e-03 6.06908370e-03 5.05872965e-02 -1.06110265e-02
      -5.23879472e-03 1.41420736e-04 8.57027154e-03 3.61993760e-02
      -3.88629548e-02 -1.08626500e-01 7.85930306e-02 -2.82363277e-02
      4.02700063e-03 6.27099499e-02 -3.16446088e-02 -3.14100273e-03
      5.89684304e-03 5.02549447e-02 -1.06363995e-02 -5.26413880e-03
      9.24343331e-05 8.46097525e-03 3.59882936e-02 -4.01462652e-02
      -1.08955055e-01 7.78424665e-02 -2.83690505e-02 3.75163532e-03
      6.22407310e-02 -3.16694975e-02 -3.19737615e-03 5.75620076e-03
      4.99689989e-02 -1.06495256e-02 -5.28205000e-03 5.69575350e-05
      8.37144908e-03 3.58112976e-02 -4.04687524e-02 -1.09104201e-01
      7.72874281e-02 -2.83785611e-02 3.54012847e-03 6.18935190e-02
      -3.16743478e-02 -3.23176989e-03 5.64773334e-03 4.97445986e-02
      -1.06468182e-02 -5.29430714e-03 3.34927390e-05 8.29842314e-03
      3.56736667e-02 -4.19572629e-02 -1.09459102e-01 7.63484612e-02
      -2.85056587e-02 3.22361244e-03 6.13271408e-02 -3.16984542e-02
      -3.29394522e-03 5.49067045e-03 4.94014323e-02 -1.06593445e-02
      -5.31589705e-03 -3.83922088e-06 8.19929317e-03 3.54648679e-02
      -4.39406410e-02 -1.09847941e-01 7.52304420e-02 -2.86591928e-02
      2.89890869e-03 6.06592372e-02 -3.17232609e-02 -3.35263554e-03
      5.33490209e-03 4.90075387e-02 -1.06754014e-02 -5.33521362e-03
      -3.73531584e-05 8.10529292e-03 3.52299772e-02 -4.26080264e-02
      -1.09618470e-01 7.53066987e-02 -2.84965895e-02 2.86174798e-03
      6.07075468e-02 -3.16947699e-02 -3.33613949e-03 5.32910833e-03
      4.90296669e-02 -1.06534455e-02 -5.33549907e-03 -3.08044182e-05
      8.09577387e-03 3.52521800e-02 -4.16548215e-02 -1.09439291e-01
      7.53145143e-02 -2.83730067e-02 2.82109599e-03 6.07057251e-02
      -3.16712037e-02 -3.32014519e-03 5.32212388e-03 4.90282960e-02
      -1.06362049e-02 -5.33456821e-03 -2.42294664e-05 8.08836892e-03
      3.52603830e-02 -4.16872017e-02 -1.09444015e-01 7.51038939e-02
      -2.83733830e-02 2.71855691e-03 6.05520308e-02 -3.16713341e-02
      -3.33163375e-03 5.27779292e-03 4.89371084e-02 -1.06363343e-02
      -5.34263579e-03 -3.33621065e-05 8.05858150e-03 3.52035724e-02
      -4.10164446e-02 -1.09352730e-01 7.49812871e-02 -2.83000618e-02
      2.63143284e-03 6.04386181e-02 -3.16658989e-02 -3.33507732e-03
      5.23464661e-03 4.88484986e-02 -1.06285168e-02 -5.34984330e-03
      -4.12887748e-05 8.02437589e-03 3.51428203e-02 -3.98303345e-02
      -1.09180555e-01 7.49358982e-02 -2.81672254e-02 2.56640557e-03
      6.03626594e-02 -3.16539779e-02 -3.32715362e-03 5.19950874e-03
      4.87699881e-02 -1.06136445e-02 -5.35417488e-03 -4.50417429e-05
      7.99259543e-03 3.50864977e-02 -3.93401347e-02 -1.09154426e-01
      7.47073516e-02 -2.81063616e-02 2.45127687e-03 6.01864010e-02
      -3.16573270e-02 -3.33648617e-03 5.13841165e-03 4.86434810e-02
      -1.06081534e-02 -5.36494702e-03 -5.73856123e-05 7.94827752e-03
      3.50049548e-02 -3.91324610e-02 -1.09154008e-01 7.43876323e-02
      -2.80586481e-02 2.33796542e-03 5.99585846e-02 -3.16597484e-02
      -3.34215956e-03 5.07997582e-03 4.84936126e-02 -1.06032947e-02
      -5.37250843e-03 -6.64982508e-05 7.90902041e-03 3.49139124e-02
      -3.84704433e-02 -1.09022915e-01 7.40827098e-02 -2.79110465e-02
      2.26894650e-03 5.97097911e-02 -3.16390134e-02 -3.32395360e-03
      5.04054315e-03 4.83076833e-02 -1.05829947e-02 -5.37236687e-03
      -6.22721636e-05 7.87655823e-03 3.47885378e-02 -3.68738547e-02
      -1.08775459e-01 7.41289407e-02 -2.77019031e-02 2.24719686e-03
      5.96621856e-02 -3.16164903e-02 -3.29269446e-03 5.02742361e-03
      4.82442193e-02 -1.05566010e-02 -5.37151005e-03 -5.28111559e-05
      7.85975810e-03 3.47405076e-02 -3.44473496e-02 -1.08456828e-01
      7.44148567e-02 -2.74358336e-02 2.24556611e-03 5.97332008e-02
      -3.15992869e-02 -3.25530116e-03 5.01906080e-03 4.82442640e-02
      -1.05256960e-02 -5.37345745e-03 -4.39701253e-05 7.84316752e-03
      3.47281434e-02 -3.28412727e-02 -1.08259484e-01 7.46686384e-02
      -2.72703320e-02 2.25188374e-03 5.98292239e-02 -3.15908678e-02
      -3.22832586e-03 5.01954881e-03 4.82793413e-02 -1.05071887e-02
      -5.37335081e-03 -3.61772909e-05 7.83654582e-03 3.47448289e-02
      -3.13355103e-02 -1.08058266e-01 7.49880522e-02 -2.71119513e-02
      2.29026913e-03 5.99808879e-02 -3.15781571e-02 -3.19195283e-03
      5.04250778e-03 4.83589135e-02 -1.04880938e-02 -5.36732003e-03
      -2.04440876e-05 7.84705114e-03 3.47951353e-02 -2.84215715e-02
      -1.07689090e-01 7.56976977e-02 -2.68285964e-02 2.36184103e-03
      6.03165142e-02 -3.15567851e-02 -3.13524669e-03 5.07843262e-03
      4.85283881e-02 -1.04524419e-02 -5.36271371e-03 1.18175376e-06
      7.85909686e-03 3.48892622e-02 -2.58107483e-02 -1.07370414e-01
      7.62983039e-02 -2.65644304e-02 2.42377096e-03 6.05888516e-02
      -3.15409042e-02 -3.07942531e-03 5.11009200e-03 4.86669838e-02
      -1.04191415e-02 -5.35769481e-03 2.29076250e-05 7.87104294e-03
      3.49683799e-02 -2.42156442e-02 -1.07227251e-01 7.65786245e-02
      -2.64122989e-02 2.42116558e-03 6.06862903e-02 -3.15458924e-02
      -3.05951596e-03 5.10052405e-03 4.86958288e-02 -1.04023982e-02
      -5.36286738e-03 2.52292994e-05 7.85543676e-03 3.49751860e-02
      -2.25675683e-02 -1.07090279e-01 7.66880810e-02 -2.62125228e-02
      2.40974734e-03 6.06310926e-02 -3.15477997e-02 -3.02687008e-03
      5.08025009e-03 4.86060232e-02 -1.03775505e-02 -5.36429929e-03
      3.38048412e-05 7.83267338e-03 3.48944440e-02 -2.03482732e-02
      -1.06886908e-01 7.70121738e-02 -2.59512328e-02 2.44999351e-03
      6.06926046e-02 -3.15457918e-02 -2.97338213e-03 5.09043923e-03
      4.85933535e-02 -1.03435013e-02 -5.36049437e-03 5.44916693e-05
      7.83211458e-03 3.48650366e-02 -1.79340728e-02 -1.06667563e-01
      7.74742812e-02 -2.56861877e-02 2.51060096e-03 6.08373471e-02
      -3.15471590e-02 -2.91832769e-03 5.10950014e-03 4.86333780e-02
      -1.03096291e-02 -5.35684545e-03 7.52696069e-05 7.83483870e-03
      3.48654985e-02 -1.53017575e-02 -1.06409632e-01 7.80843124e-02
      -2.54075266e-02 2.60858214e-03 6.10738471e-02 -3.15472223e-02
      -2.85071507e-03 5.15312050e-03 4.87356819e-02 -1.02736214e-02
      -5.34883281e-03 1.03698883e-04 7.85514992e-03 3.49071883e-02
      -1.26733296e-02 -1.06218748e-01 7.87317082e-02 -2.51591466e-02
      2.68199039e-03 6.13481812e-02 -3.15654166e-02 -2.79963831e-03
      5.18419268e-03 4.88593057e-02 -1.02438973e-02 -5.35060279e-03
      1.22204961e-04 7.86752719e-03 3.49644609e-02 -9.87761561e-03
      -1.06064364e-01 7.93341845e-02 -2.48807017e-02 2.74204207e-03
      6.15684427e-02 -3.15890461e-02 -2.74711754e-03 5.20367455e-03
      4.89376634e-02 -1.02071799e-02 -5.35236532e-03 1.41351105e-04
      7.87192583e-03 3.49864438e-02 -7.02304859e-03 -1.05892330e-01
      8.00154135e-02 -2.45989542e-02 2.83960835e-03 6.18479513e-02
      -3.16102915e-02 -2.68875412e-03 5.24416985e-03 4.90490049e-02
      -1.01691680e-02 -5.34917368e-03 1.65740945e-04 7.88945332e-03
      3.50257270e-02 -4.57956502e-03 -1.05771802e-01 8.05270001e-02
      -2.43405458e-02 2.91459425e-03 6.20297529e-02 -3.16315927e-02
      -2.63380748e-03 5.27135748e-03 4.91049364e-02 -1.01331752e-02
      -5.34540555e-03 1.88625752e-04 7.90076237e-03 3.50317843e-02
      -2.29775347e-03 -1.05689518e-01 8.09250623e-02 -2.40826216e-02
      2.97152321e-03 6.21344335e-02 -3.16549540e-02 -2.57946202e-03
      5.28624002e-03 4.91177551e-02 -1.00952610e-02 -5.34137990e-03
      2.10667858e-04 7.90698268e-03 3.50110829e-02 9.44573083e-04
      -1.05570674e-01 8.16502273e-02 -2.37428509e-02 3.06940847e-03
      6.24103136e-02 -3.16922218e-02 -2.50749569e-03 5.32720936e-03
      4.92255837e-02 -1.00459317e-02 -5.33846393e-03 2.42633294e-04
      7.92675652e-03 3.50449346e-02 4.16954979e-03 -1.05488583e-01
      8.23593438e-02 -2.34075766e-02 3.17016291e-03 6.26925081e-02
      -3.17384899e-02 -2.43982463e-03 5.37248561e-03 4.93364371e-02
      -9.99637786e-03 -5.33627858e-03 2.74322461e-04 7.94976205e-03
      3.50847170e-02 6.55279728e-03 -1.05473764e-01 8.28111470e-02
      -2.31638383e-02 3.22288903e-03 6.28423765e-02 -3.17843109e-02
      -2.39926181e-03 5.38863707e-03 4.93663140e-02 -9.95958783e-03
      -5.34001319e-03 2.90710450e-04 7.95449410e-03 3.50738615e-02
      8.91372468e-03 -1.05476424e-01 8.32800567e-02 -2.29128581e-02
      3.27943079e-03 6.30186573e-02 -3.18294354e-02 -2.35323305e-03
      5.40944654e-03 4.94250581e-02 -9.91955306e-03 -5.34092495e-03
      3.10974661e-04 7.96457939e-03 3.50891240e-02 1.11052794e-02
      -1.05537325e-01 8.36820230e-02 -2.26655528e-02 3.30737117e-03
      6.31925687e-02 -3.18778269e-02 -2.31265114e-03 5.41891856e-03
      4.94989567e-02 -9.87787452e-03 -5.34330169e-03 3.29765346e-04
      7.96834100e-03 3.51279639e-02 1.32397972e-02 -1.05639324e-01
      8.40293691e-02 -2.24256478e-02 3.34101915e-03 6.33270517e-02
      -3.19338404e-02 -2.27872981e-03 5.42469742e-03 4.95391302e-02
      -9.83691309e-03 -5.34502836e-03 3.45327077e-04 7.96996895e-03
      3.51370983e-02 1.49861369e-02 -1.05753183e-01 8.42220783e-02
      -2.22209785e-02 3.37585434e-03 6.33545592e-02 -3.19855995e-02
      -2.24989071e-03 5.42546157e-03 4.95039411e-02 -9.80168208e-03
      -5.34342648e-03 3.58313730e-04 7.96891190e-03 3.50906402e-02
      1.70133784e-02 -1.05860896e-01 8.45446959e-02 -2.19999831e-02
      3.42228799e-03 6.34849519e-02 -3.20430622e-02 -2.22264021e-03
      5.43345511e-03 4.95417416e-02 -9.76322964e-03 -5.34398528e-03
      3.70681897e-04 7.97189772e-03 3.50969657e-02 1.87471509e-02
      -1.06071815e-01 8.46050829e-02 -2.17607636e-02 3.43474047e-03
      6.34610578e-02 -3.21093537e-02 -2.19598948e-03 5.41815348e-03
      4.94892076e-02 -9.71840881e-03 -5.34244440e-03 3.83155362e-04
      7.96253514e-03 3.50531973e-02 2.04867870e-02 -1.06253408e-01
      8.47434551e-02 -2.15414092e-02 3.44854780e-03 6.34920374e-02
      -3.21733840e-02 -2.17577559e-03 5.40749403e-03 4.94715832e-02
      -9.67676938e-03 -5.34472009e-03 3.93090653e-04 7.95467664e-03
      3.50329950e-02 2.18320992e-02 -1.06389366e-01 8.48311782e-02
      -2.13768594e-02 3.46494373e-03 6.34921640e-02 -3.22235264e-02
      -2.16375012e-03 5.39730536e-03 4.94286716e-02 -9.64534748e-03
      -5.34586469e-03 3.98660195e-04 7.94496015e-03 3.49887758e-02
      2.27852520e-02 -1.06576443e-01 8.46780017e-02 -2.12299116e-02
      3.46027617e-03 6.33434504e-02 -3.22768167e-02 -2.16256245e-03
      5.36550861e-03 4.92771715e-02 -9.61638056e-03 -5.34670707e-03
      3.97885975e-04 7.91807938e-03 3.48663032e-02 2.41806246e-02
      -1.06821008e-01 8.45304579e-02 -2.10178755e-02 3.47277103e-03
      6.31925315e-02 -3.23483460e-02 -2.15933472e-03 5.33717452e-03
      4.91159111e-02 -9.57368314e-03 -5.34716249e-03 4.01325669e-04
      7.89551903e-03 3.47335860e-02 2.50728875e-02 -1.07125819e-01
      8.40976387e-02 -2.08156221e-02 3.45329312e-03 6.28743619e-02
      -3.24154831e-02 -2.15972634e-03 5.28538553e-03 4.88581695e-02
      -9.52976570e-03 -5.34403510e-03 4.03738202e-04 7.85963796e-03
      3.45450491e-02 2.56097969e-02 -1.07293256e-01 8.39336142e-02
      -2.07283795e-02 3.44819785e-03 6.27852902e-02 -3.24566551e-02
      -2.16919766e-03 5.25725866e-03 4.87812161e-02 -9.51220002e-03
      -5.34333615e-03 4.00055054e-04 7.83909578e-03 3.44939865e-02
      2.65458133e-02 -1.07438229e-01 8.39191079e-02 -2.06087418e-02
      3.48312804e-03 6.27937913e-02 -3.25008295e-02 -2.17120955e-03
      5.25233848e-03 4.87676933e-02 -9.48803872e-03 -5.33894962e-03
      4.02433536e-04 7.83646479e-03 3.44862863e-02 2.88997218e-02
      -1.07613370e-01 8.44363272e-02 -2.03864947e-02 3.58683174e-03
      6.31641820e-02 -3.25790644e-02 -2.16538995e-03 5.28796157e-03
      4.89923693e-02 -9.44123883e-03 -5.33625064e-03 4.12044727e-04
      7.86471367e-03 3.46429572e-02 3.01923435e-02 -1.07782789e-01
      8.45304430e-02 -2.02390533e-02 3.65771679e-03 6.32699728e-02
      -3.26370746e-02 -2.17319303e-03 5.29851951e-03 4.90459241e-02
      -9.40957200e-03 -5.33157773e-03 4.14642651e-04 7.87511747e-03
      3.46830823e-02 3.05929184e-02 -1.07937872e-01 8.42707679e-02
      -2.01523099e-02 3.70429549e-03 6.31463081e-02 -3.26746926e-02
      -2.18872610e-03 5.28880768e-03 4.89506610e-02 -9.39046592e-03
      -5.32354414e-03 4.12908179e-04 7.87123851e-03 3.46211903e-02
      3.04765087e-02 -1.07966803e-01 8.41049924e-02 -2.01405268e-02
      3.78417573e-03 6.31623417e-02 -3.26770991e-02 -2.21112976e-03
      5.30841388e-03 4.89865243e-02 -9.38807987e-03 -5.31236734e-03
      4.10949811e-04 7.88809359e-03 3.46697718e-02 3.05503216e-02
      -1.07967667e-01 8.40276852e-02 -2.01119296e-02 3.88792646e-03
      6.32423609e-02 -3.26776728e-02 -2.22508307e-03 5.34484349e-03
      4.90669981e-02 -9.38231777e-03 -5.29764500e-03 4.14844399e-04
      7.91820232e-03 3.47518884e-02 3.16339619e-02 -1.08062841e-01
      8.41475949e-02 -2.00273283e-02 3.96853918e-03 6.33714572e-02
      -3.27204987e-02 -2.24720105e-03 5.35746245e-03 4.91144098e-02
      -9.36481357e-03 -5.29323937e-03 4.11099376e-04 7.92740565e-03
      3.47746462e-02 3.21580023e-02 -1.08118668e-01 8.41016620e-02
      -1.99783258e-02 4.05593310e-03 6.33970723e-02 -3.27438302e-02
      -2.26656278e-03 5.37213543e-03 4.90997657e-02 -9.35515482e-03
      -5.28318062e-03 4.09664761e-04 7.93866348e-03 3.47556323e-02
      3.19894031e-02 -1.08133927e-01 8.38598013e-02 -1.99786369e-02
      4.14314540e-03 6.32993728e-02 -3.27447504e-02 -2.28584744e-03
      5.38419746e-03 4.90104407e-02 -9.35662165e-03 -5.26849646e-03
      4.08677501e-04 7.94812106e-03 3.46851759e-02 3.19927782e-02
      -1.08146176e-01 8.37551877e-02 -1.99842174e-02 4.23023151e-03
      6.33288845e-02 -3.27484123e-02 -2.31024856e-03 5.39971469e-03
      4.90300842e-02 -9.35933087e-03 -5.25639579e-03 4.05302213e-04
      7.96244666e-03 3.47058438e-02</data></learnt_thetas>
  <n_labels type_id="opencv-matrix">
    <rows>2</rows>
    <cols>1</cols>
    <dt>i</dt>
    <data>
      0 1</data></n_labels>
  <o_labels type_id="opencv-matrix">
    <rows>2</rows>
    <cols>1</cols>
    <dt>i</dt>
    <data>
      0 1</data></o_labels></opencv_ml_lr>
</opencv_storage>
