<?xml version="1.0"?>
<opencv_storage>
<opencv_ml_lr>
  <format>3</format>
  <classifier>"Logisitic Regression Classifier"</classifier>
  <alpha>2.9999999999999999e-01</alpha>
  <iterations>120000</iterations>
  <norm>1</norm>
  <train_method>0</train_method>
  <learnt_thetas type_id="opencv-matrix">
    <rows>1</rows>
    <cols>599</cols>
    <dt>f</dt>
    <data>
      2.75644027e-02 8.72557983e-03 8.89111590e-03 9.06168018e-03
      9.24053974e-03 9.48624127e-03 9.78485495e-03 1.00908875e-02
      1.04273111e-02 1.08137857e-02 1.12058204e-02 1.16330292e-02
      1.20050106e-02 1.23647563e-02 1.25878779e-02 1.27840452e-02
      1.27684399e-02 1.27889970e-02 1.29074221e-02 1.31832473e-02
      1.35624101e-02 1.42290881e-02 1.47321345e-02 1.49334492e-02
      1.50828948e-02 1.53313298e-02 1.59327313e-02 1.64539646e-02
      1.69384982e-02 1.71589814e-02 1.71872731e-02 1.72455851e-02
      1.73023771e-02 1.73826553e-02 1.75168738e-02 1.75750218e-02
      1.75937582e-02 1.76383499e-02 1.73113719e-02 1.68985445e-02
      1.62238255e-02 1.56471077e-02 1.53235020e-02 1.52565949e-02
      1.53819220e-02 1.54280066e-02 1.54260509e-02 1.51096350e-02
      1.49716819e-02 1.51116420e-02 1.51766622e-02 1.52047845e-02
      1.57373361e-02 1.61004979e-02 1.60280839e-02 1.58429071e-02
      1.55877583e-02 1.55335795e-02 1.54454522e-02 1.53381852e-02
      1.51375020e-02 1.48855587e-02 1.44475698e-02 1.40295653e-02
      1.40348710e-02 1.39612369e-02 1.37955416e-02 1.38456607e-02
      1.38436174e-02 1.38767753e-02 1.39782177e-02 1.40270917e-02
      1.43214595e-02 1.45702120e-02 1.47775123e-02 1.48025909e-02
      1.47255687e-02 1.46556310e-02 1.45968338e-02 1.45688718e-02
      1.44465389e-02 1.42085841e-02 1.37854246e-02 1.34370755e-02
      1.31108379e-02 1.29022365e-02 1.25966016e-02 1.23541523e-02
      1.26137454e-02 1.30958175e-02 1.34592494e-02 1.39296092e-02
      1.45218167e-02 1.49657549e-02 1.52859902e-02 1.55228954e-02
      1.57311670e-02 1.59102064e-02 1.59868635e-02 1.59535334e-02
      1.55334249e-02 1.49429319e-02 1.45663051e-02 1.42517705e-02
      1.40753202e-02 1.39017804e-02 1.37449419e-02 1.36280060e-02
      1.35325966e-02 1.34199811e-02 1.32244937e-02 1.29797738e-02
      1.26978364e-02 1.23872217e-02 1.18685951e-02 1.12799359e-02
      1.05947666e-02 1.00084571e-02 9.46555566e-03 8.85482505e-03
      8.26261751e-03 7.72565464e-03 7.12662237e-03 6.55787764e-03
      5.98326419e-03 5.41042490e-03 5.03728166e-03 4.81638825e-03
      4.70510824e-03 4.56967158e-03 4.35113488e-03 4.16634139e-03
      4.04505292e-03 4.11483366e-03 4.21103463e-03 4.26450418e-03
      4.34356509e-03 4.43971530e-03 4.50944435e-03 4.55439137e-03
      4.60655568e-03 4.66244761e-03 4.69674915e-03 4.75978758e-03
      4.83988971e-03 4.89188125e-03 4.92608594e-03 4.88759251e-03
      4.86331386e-03 4.86079184e-03 4.84791677e-03 1.15934238e-02
      1.13173407e-02 1.32311406e-02 1.36658279e-02 1.51122091e-02
      1.81690641e-02 1.89787522e-02 2.30419561e-02 2.21230201e-02
      2.20088325e-02 1.98986772e-02 2.00910158e-02 2.53739525e-02
      2.51437351e-02 2.58328188e-02 2.74448469e-02 2.68686861e-02
      3.40753496e-02 3.82321663e-02 3.19007598e-02 3.02928481e-02
      3.22744660e-02 3.19439098e-02 3.60437296e-02 3.54368202e-02
      3.37670445e-02 3.54158245e-02 3.20706964e-02 3.31828743e-02
      3.61901075e-02 3.40292864e-02 2.94371564e-02 2.97768377e-02
      2.74278503e-02 3.19118872e-02 3.69322710e-02 4.28464375e-02
      4.34422828e-02 4.02800851e-02 3.92918028e-02 2.89740488e-02
      2.44252868e-02 2.39258222e-02 2.53481586e-02 2.67459303e-02
      3.93280536e-02 3.96883711e-02 3.60724442e-02 3.54832783e-02
      3.61568667e-02 2.70634163e-02 2.44135801e-02 2.46112850e-02
      2.61822063e-02 2.98636798e-02 3.46969664e-02 3.60208154e-02
      3.55437919e-02 3.17151956e-02 2.62071006e-02 2.48341784e-02
      2.57430077e-02 2.99156904e-02 2.71589514e-02 3.06999795e-02
      3.00934371e-02 2.96782758e-02 3.12251523e-02 3.09222583e-02
      3.18478011e-02 2.70534251e-02 2.36170925e-02 2.65999623e-02
      2.43583247e-02 1.60480551e-02 1.94974951e-02 2.70208027e-02
      2.95809358e-02 3.30630392e-02 3.52299735e-02 3.40550430e-02
      2.72141062e-02 2.37948596e-02 1.69164427e-02 1.90127622e-02
      2.32500341e-02 3.32901478e-02 3.61628011e-02 3.43632177e-02
      3.44565846e-02 2.74906866e-02 2.15489939e-02 1.94474887e-02
      2.14972086e-02 2.35471688e-02 2.54212320e-02 2.70709246e-02
      2.95064207e-02 2.33945493e-02 2.38794759e-02 2.76821312e-02
      2.36589983e-02 2.12495513e-02 2.55948566e-02 2.65559219e-02
      2.32458264e-02 2.29093824e-02 2.20935550e-02 2.57123560e-02
      2.71115992e-02 3.13088000e-02 3.03478371e-02 2.37071794e-02
      2.60911919e-02 2.61385515e-02 1.86721683e-02 1.50600374e-02
      2.06596889e-02 2.03457922e-02 1.94085259e-02 2.14002281e-02
      1.86494235e-02 1.83143262e-02 1.63165759e-02 1.55831780e-02
      1.30799506e-02 1.26700671e-02 1.01735378e-02 9.91861150e-03
      9.59260296e-03 7.30086351e-03 4.60090302e-03 4.28404612e-03
      3.78654595e-03 4.41171415e-03 4.80498467e-03 2.11386802e-03
      2.30925716e-03 2.39670882e-03 2.39455421e-03 3.25362920e-03
      2.19509262e-03 3.11618717e-03 2.19829683e-03 2.71497783e-03
      3.19679920e-03 1.80784555e-03 3.03174299e-03 1.82078709e-03
      4.07830637e-04 -2.32966326e-04 -9.29168076e-04 -1.76436023e-03
      -2.65247771e-03 -3.58930952e-03 -4.36841464e-03 -5.16417203e-03
      -6.29090657e-03 -7.39624444e-03 -8.44260398e-03 -9.55526065e-03
      -1.07392222e-02 -1.20843798e-02 -1.35064013e-02 -1.48345036e-02
      -1.61914770e-02 -1.75853427e-02 -1.91884059e-02 -2.08942667e-02
      -2.25496739e-02 -2.40552537e-02 -2.53468063e-02 -2.66180206e-02
      -2.80864127e-02 -2.96005737e-02 -3.10649108e-02 -3.24570388e-02
      -3.35895680e-02 -3.45152877e-02 -3.54447849e-02 -3.63305286e-02
      -3.70804220e-02 -3.78575288e-02 -3.87045145e-02 -3.95722389e-02
      -4.03806865e-02 -4.09717560e-02 -4.15176749e-02 -4.17875201e-02
      -4.20583561e-02 -4.22513001e-02 -4.25050296e-02 -4.28831726e-02
      -4.30937298e-02 -4.32741642e-02 -4.36002165e-02 -4.37855981e-02
      -4.37677614e-02 -4.40412350e-02 -4.44201231e-02 -4.45340574e-02
      -4.46145162e-02 -4.45883013e-02 -4.44919057e-02 -4.43417355e-02
      -4.44431156e-02 -4.45552357e-02 -4.46952544e-02 -4.47961278e-02
      -4.47745845e-02 -4.45738435e-02 -4.42976952e-02 -4.41038236e-02
      -4.39943038e-02 -4.40430753e-02 -4.41171564e-02 -4.42005582e-02
      -4.41165231e-02 -4.39724103e-02 -4.37841564e-02 -4.36835177e-02
      -4.36217114e-02 -4.37981114e-02 -4.40275073e-02 -4.40834276e-02
      -4.43281941e-02 -4.43686955e-02 -4.43306454e-02 -4.41278368e-02
      -4.39369529e-02 -4.38281111e-02 -4.38175201e-02 -4.38444130e-02
      -4.37436886e-02 -4.34783138e-02 -4.32300419e-02 -4.29139361e-02
      -4.26259413e-02 -4.28273454e-02 -4.30036783e-02 -4.31022868e-02
      -4.30121943e-02 -4.27739508e-02 -4.27432321e-02 -4.27810848e-02
      -4.26914617e-02 -4.26018797e-02 -4.24822383e-02 -4.22015563e-02
      -4.18527797e-02 -4.15221974e-02 -4.11358550e-02 -4.05720733e-02
      -3.99786755e-02 -3.94110419e-02 -3.88089493e-02 -3.81751135e-02
      -3.73795405e-02 -3.64277773e-02 -3.52795161e-02 -3.40084583e-02
      -3.26748453e-02 -3.10993604e-02 -2.94669531e-02 -2.78053712e-02
      -2.60987952e-02 -2.43780240e-02 -2.26542987e-02 -2.09633894e-02
      -1.92580242e-02 -1.76522527e-02 -1.60294417e-02 -1.43410787e-02
      -1.26020685e-02 -1.07514439e-02 -8.84696376e-03 -6.79492205e-03
      -4.87151137e-03 -3.20295827e-03 -1.61971035e-03 -4.66123602e-05
      1.23958942e-03 2.39219517e-03 3.40299169e-03 4.36569750e-03
      5.29932044e-03 5.94199589e-03 6.42572204e-03 6.81005418e-03
      7.19474023e-03 7.48434383e-03 7.84800015e-03 8.24459828e-03
      8.45159031e-03 8.61629844e-03 8.63085035e-03 8.67747981e-03
      8.77209567e-03 8.87779705e-03 1.60070807e-02 1.76400337e-02
      2.03089900e-02 2.42197812e-02 2.49801818e-02 2.06899177e-02
      2.08590571e-02 2.99057625e-02 3.04357745e-02 2.88393926e-02
      2.97714099e-02 3.05877421e-02 3.52983736e-02 3.73200625e-02
      3.37874591e-02 4.09096032e-02 4.15336490e-02 4.54370119e-02
      4.84585948e-02 4.62683141e-02 4.14956510e-02 3.63068804e-02
      3.52258869e-02 4.13734727e-02 4.17599790e-02 4.02398109e-02
      4.43488322e-02 3.66926119e-02 3.07392888e-02 2.92014405e-02
      2.51430795e-02 2.31285468e-02 2.99224500e-02 3.05625089e-02
      3.28562818e-02 3.12271509e-02 2.33549569e-02 2.08641589e-02
      1.51968440e-02 1.55002102e-02 1.43385651e-02 1.15948878e-02
      1.19322455e-02 1.57322455e-02 1.51311848e-02 1.53077701e-02
      1.46485595e-02 1.20750125e-02 1.64796188e-02 1.82897523e-02
      1.41935898e-02 1.34301269e-02 1.36137409e-02 1.08876331e-02
      1.09836645e-02 9.43754241e-03 1.06644426e-02 1.56882107e-02
      1.45260459e-02 1.28124794e-02 1.03225596e-02 1.12668630e-02
      9.28112958e-03 9.28125624e-03 9.61992610e-03 1.21709378e-02
      1.11719230e-02 1.30487550e-02 1.40787829e-02 1.65694989e-02
      1.25390571e-02 9.34716128e-03 8.14250205e-03 8.71916860e-03
      6.79916423e-03 1.05946157e-02 1.38920220e-02 1.15867564e-02
      1.03218649e-02 9.11036972e-03 9.69107263e-03 8.11643805e-03
      7.40545942e-03 1.06824497e-02 1.02168433e-02 1.28293894e-02
      1.59425791e-02 1.52303232e-02 1.65656768e-02 1.46021955e-02
      9.87961050e-03 1.02542602e-02 1.25332903e-02 1.18089234e-02
      1.30483191e-02 1.16467206e-02 1.32334568e-02 1.87843647e-02
      1.26602603e-02 1.31900646e-02 1.81202367e-02 1.76181886e-02
      1.93599109e-02 2.06414443e-02 2.06836276e-02 2.06951685e-02
      2.12176740e-02 2.54405327e-02 3.09403297e-02 3.40489447e-02
      3.69708687e-02 3.77126448e-02 4.63505425e-02 4.72202152e-02
      5.36820553e-02 5.04806116e-02 4.40068990e-02 4.48952764e-02
      4.32540737e-02 4.13222238e-02 4.00193408e-02 4.04568017e-02
      4.36418019e-02 4.42941599e-02 4.56868038e-02 4.73384596e-02
      5.11003956e-02 5.06521910e-02 4.20537442e-02 4.12979349e-02
      3.79074477e-02 3.12862098e-02 2.93591674e-02 2.51904652e-02
      2.49939226e-02 2.28531063e-02 1.56244449e-02 1.16437394e-02
      8.77908897e-03 8.63010436e-03 6.65865093e-03 8.88544321e-03
      1.02821840e-02 5.44151664e-03 4.93441289e-03 3.86505155e-03
      2.64365436e-03 4.26731864e-03 3.31179774e-03</data></learnt_thetas>
  <n_labels type_id="opencv-matrix">
    <rows>2</rows>
    <cols>1</cols>
    <dt>i</dt>
    <data>
      0 1</data></n_labels>
  <o_labels type_id="opencv-matrix">
    <rows>2</rows>
    <cols>1</cols>
    <dt>i</dt>
    <data>
      0 1</data></o_labels></opencv_ml_lr>
</opencv_storage>
