<?xml version="1.0"?>
<opencv_storage>
<opencv_ml_lr>
  <format>3</format>
  <classifier>"Logisitic Regression Classifier"</classifier>
  <alpha>3000.</alpha>
  <iterations>100</iterations>
  <norm>1</norm>
  <train_method>0</train_method>
  <learnt_thetas type_id="opencv-matrix">
    <rows>1</rows>
    <cols>2550</cols>
    <dt>f</dt>
    <data>
      -4.29916024e-01 1.28398119e-02 6.86149625e-03 1.76432356e-02
      -4.44102567e-03 -4.95248381e-03 -7.16068409e-03 -8.94288905e-03
      -7.57925585e-03 -1.86502710e-02 -1.56572536e-02 -1.54934488e-02
      -9.51725524e-03 -8.15470144e-03 -8.55458900e-04 2.57107541e-02
      2.75404882e-02 3.33733670e-02 4.56644334e-02 5.12771271e-02
      2.56658625e-02 2.19911151e-02 2.95759831e-02 2.07743831e-02
      2.88708117e-02 2.08715647e-02 1.87714100e-02 2.76573617e-02
      2.02293005e-02 2.89628170e-02 2.94636432e-02 3.67815457e-02
      4.00937609e-02 3.89408208e-02 3.17765474e-02 3.27569470e-02
      3.40466499e-02 2.38126405e-02 2.65322700e-02 2.31235586e-02
      1.41091263e-02 -1.56761671e-03 -1.22991437e-02 -2.21417844e-03
      5.56287263e-03 1.07943583e-02 5.07937372e-02 5.31964600e-02
      6.64232746e-02 6.81362376e-02 7.53304958e-02 5.54850660e-02
      3.90446447e-02 3.37677114e-02 1.61172710e-02 2.18699910e-02
      1.86855420e-02 1.92681011e-02 1.46737872e-02 5.87556104e-04
      -4.88355383e-03 -1.27850715e-02 1.20148674e-04 7.93696661e-03
      2.57950951e-03 3.29261012e-02 2.93953773e-02 3.40513326e-02
      3.11578829e-02 3.26191075e-02 2.27635354e-02 5.89034380e-03
      4.35937848e-03 3.14810034e-03 2.91870045e-03 -1.72045790e-02
      -7.37813022e-03 1.16634145e-02 1.32081900e-02 3.27328891e-02
      3.25237736e-02 3.33374143e-02 2.79197358e-02 1.94556061e-02
      1.57788419e-03 -3.99912149e-03 1.51469028e-02 1.02381818e-02
      1.24277389e-02 1.66208073e-02 1.04889227e-02 -1.04389759e-03
      -1.31916823e-02 -3.84244276e-03 9.66896582e-03 1.73004121e-02
      3.01176794e-02 3.84262688e-02 5.24417423e-02 3.64356376e-02
      4.49677855e-02 4.00046967e-02 2.45824438e-02 2.41754446e-02
      1.21875796e-02 1.17862485e-02 -2.34772963e-03 -1.96638703e-03
      -4.00184328e-03 -1.12631693e-02 -7.31766829e-03 1.35546410e-02
      1.92965064e-02 1.16310024e-03 6.50962535e-03 2.78453603e-02
      2.09299917e-03 1.80912949e-03 1.09266229e-02 9.53766610e-03
      -4.03521163e-03 -5.59300091e-03 -4.54813801e-03 -1.08588831e-02
      -1.04074581e-02 -1.61048193e-02 -2.37130765e-02 -1.81338526e-02
      -2.08486281e-02 -1.46208815e-02 -2.15476956e-02 -2.50677411e-02
      -2.33593248e-02 -3.20887603e-02 -2.90919188e-02 -3.25654671e-02
      -3.25387865e-02 -5.90538755e-02 -5.59564121e-02 -4.66021597e-02
      -5.23923934e-02 -4.91053052e-02 -5.26792929e-02 -3.54835168e-02
      -2.93605551e-02 -2.47350410e-02 -1.77426729e-02 -2.09124293e-02
      3.32637021e-04 -2.54791952e-03 -2.90464051e-02 -3.07104364e-02
      -1.79147795e-02 -9.53399576e-03 4.78276704e-03 5.50256623e-03
      1.19387088e-02 5.45009710e-02 4.50880975e-02 4.37536649e-02
      4.70619760e-02 5.23960479e-02 4.42978106e-02 4.01409194e-02
      3.23130637e-02 3.38485576e-02 3.61133292e-02 3.93101238e-02
      4.82145958e-02 5.01038618e-02 3.98041084e-02 3.85033451e-02
      3.98539416e-02 6.08367845e-02 6.43911436e-02 6.00417033e-02
      6.44495115e-02 3.81315462e-02 2.23187711e-02 1.20278401e-02
      4.69414890e-03 -7.80648785e-03 5.09977667e-03 9.83182248e-03
      1.73711535e-02 2.83637792e-02 1.22272819e-02 1.88582595e-02
      1.75765045e-02 1.14465617e-02 1.26555823e-02 1.03497237e-03
      5.77580323e-03 -9.21578705e-03 -1.52596328e-02 -2.34882776e-02
      -3.65809053e-02 -4.02199849e-02 -4.23883796e-02 -3.44485492e-02
      -4.80858646e-02 -5.01274839e-02 -3.15655507e-02 -3.68381552e-02
      -2.27573793e-02 -1.26885083e-02 -7.84229394e-03 2.15422362e-02
      1.08664120e-02 1.20867211e-02 -3.13015026e-03 2.78495275e-03
      -1.34887462e-02 -2.24889498e-02 -2.24050675e-02 -2.65737269e-02
      -2.84359045e-02 -2.56135836e-02 -1.99229643e-02 -7.73623399e-03
      -1.56172141e-02 -1.55284982e-02 -1.44205745e-02 -8.23785737e-03
      -8.81772861e-03 -4.38567437e-03 -2.38332525e-03 -1.68191846e-02
      -2.18693819e-02 -3.10095269e-02 -2.80439164e-02 -3.56124490e-02
      -3.28659751e-02 -2.24605910e-02 -2.23653484e-02 -3.63157567e-04
      3.61110270e-03 6.76428946e-03 2.05424409e-02 1.20818559e-02
      -4.01149644e-03 -9.37221199e-03 1.87206338e-03 -2.13393830e-02
      -2.33570840e-02 -3.67025845e-02 -4.34953570e-02 -2.67297160e-02
      -5.37952818e-02 -4.96549718e-02 -1.87900253e-02 -2.45011859e-02
      -1.34903099e-02 -5.94269391e-03 9.76209342e-03 1.28304595e-02
      1.80370267e-02 4.88996431e-02 4.77532670e-02 5.72038628e-02
      5.96598201e-02 6.43943325e-02 6.75595850e-02 6.45826533e-02
      7.77539238e-02 6.02025911e-02 4.45008427e-02 4.29503806e-02
      4.60911170e-02 5.26261069e-02 4.69068438e-02 5.33120260e-02
      5.90064265e-02 6.46162555e-02 6.82074279e-02 6.91635236e-02
      7.25057796e-02 6.12572171e-02 4.18830663e-02 3.49091813e-02
      3.66896279e-02 1.60780475e-02 1.17929494e-02 1.04509294e-02
      1.28794527e-02 1.71055980e-02 1.77385833e-03 1.78336364e-03
      1.29032857e-03 -8.30269791e-03 -1.50253801e-02 -1.67749077e-02
      -8.53982940e-03 -3.68327461e-02 -4.08791527e-02 -4.85520214e-02
      -6.33733943e-02 -5.62586859e-02 -6.50196448e-02 -4.29905653e-01
      -1.05858296e-02 -4.70011830e-02 3.02274451e-02 -1.15067530e-02
      2.49574729e-03 1.49900969e-02 -1.55523280e-02 7.69933802e-04
      3.11371841e-04 1.12876110e-02 -5.27371326e-03 -1.47909939e-03
      -8.05777163e-05 1.59831718e-03 7.40318233e-03 -9.32337064e-03
      -4.67068404e-02 2.98793390e-02 -1.12867290e-02 2.29154644e-03
      1.47308372e-02 -1.55051220e-02 7.53997534e-04 2.08376514e-04
      1.10954968e-02 -5.23522915e-03 -1.50067196e-03 -9.71260524e-05
      1.53082609e-03 7.26935174e-03 -8.02881923e-03 -4.63849828e-02
      2.95488723e-02 -1.10458359e-02 2.10632780e-03 1.44665455e-02
      -1.54485591e-02 7.53463362e-04 1.13557064e-04 1.08897630e-02
      -5.19184396e-03 -1.51558255e-03 -1.04995168e-04 1.46610732e-03
      7.11691333e-03 -6.65952824e-03 -4.60357033e-02 2.92419326e-02
      -1.07955597e-02 1.94990647e-03 1.41628981e-02 -1.53953331e-02
      7.72714440e-04 2.46372692e-05 1.06209479e-02 -5.15187345e-03
      -1.52364490e-03 -1.02298713e-04 1.39420247e-03 6.89890329e-03
      -4.60240897e-03 -4.55654599e-02 2.89943367e-02 -1.04401056e-02
      1.79349887e-03 1.38246315e-02 -1.53374402e-02 8.00091715e-04
      -9.25374770e-05 1.03063351e-02 -5.10246679e-03 -1.53373193e-03
      -1.05160892e-04 1.29633455e-03 6.64502196e-03 -2.05919868e-03
      -4.50122543e-02 2.87913140e-02 -1.00006796e-02 1.63452583e-03
      1.34694343e-02 -1.52714718e-02 8.36111314e-04 -2.29198908e-04
      9.97344125e-03 -5.04076900e-03 -1.54418428e-03 -1.10804205e-04
      1.18334172e-03 6.38121925e-03 6.80943136e-04 -4.44905572e-02
      2.88776513e-02 -9.53242742e-03 1.58627587e-03 1.32949036e-02
      -1.52129661e-02 9.23133746e-04 -2.97395512e-04 9.76158679e-03
      -4.96943295e-03 -1.53704814e-03 -8.59566426e-05 1.11445400e-03
      6.20476156e-03 3.60134337e-03 -4.39243503e-02 2.90310048e-02
      -8.98768473e-03 1.56400714e-03 1.31520974e-02 -1.51262311e-02
      1.03295641e-03 -3.57497396e-04 9.57529433e-03 -4.87107970e-03
      -1.52014697e-03 -5.38687818e-05 1.05211243e-03 6.05024165e-03
      6.99411659e-03 -4.32944298e-02 2.91109923e-02 -8.32137372e-03
      1.52594072e-03 1.28689511e-02 -1.50105637e-02 1.14405563e-03
      -4.66123602e-04 9.26094037e-03 -4.73588984e-03 -1.50046602e-03
      -3.69355294e-05 9.48531437e-04 5.79821086e-03 1.04532661e-02
      -4.27065901e-02 2.92554628e-02 -7.62368785e-03 1.50792918e-03
      1.26261562e-02 -1.48894927e-02 1.27105031e-03 -5.60645305e-04
      8.97391979e-03 -4.58151055e-03 -1.47526572e-03 -1.11819027e-05
      8.56326777e-04 5.56378718e-03 1.40358433e-02 -4.21601646e-02
      2.95431763e-02 -6.91578537e-03 1.54328987e-03 1.24530792e-02
      -1.47849061e-02 1.42206729e-03 -6.25533517e-04 8.71616323e-03
      -4.42327047e-03 -1.44431449e-03 2.90836415e-05 7.78614020e-04
      5.33952145e-03 1.71606503e-02 -4.17535752e-02 2.96763461e-02
      -6.31234702e-03 1.57564855e-03 1.21828662e-02 -1.47196697e-02
      1.54597231e-03 -7.06461549e-04 8.40289984e-03 -4.28865664e-03
      -1.41391880e-03 5.37760534e-05 6.91481284e-04 5.08075114e-03
      2.01934129e-02 -4.13962007e-02 2.97132991e-02 -5.71247796e-03
      1.59653253e-03 1.18776094e-02 -1.46614071e-02 1.66263513e-03
      -7.95206695e-04 8.08179099e-03 -4.14967444e-03 -1.38147548e-03
      7.37074879e-05 6.03483699e-04 4.82406514e-03 2.33408157e-02
      -4.11327258e-02 2.95282174e-02 -5.00023970e-03 1.50752871e-03
      1.14472779e-02 -1.45458691e-02 1.74500118e-03 -9.55397787e-04
      7.67864939e-03 -3.93495150e-03 -1.35555968e-03 6.48541463e-05
      4.72999498e-04 4.51666908e-03 2.60268450e-02 -4.09067571e-02
      2.92237308e-02 -4.34488477e-03 1.42349117e-03 1.09461024e-02
      -1.44228153e-02 1.80728477e-03 -1.11627579e-03 7.23112794e-03
      -3.72425676e-03 -1.33000419e-03 4.92531144e-05 3.44115426e-04
      4.18017711e-03 2.74524968e-02 -4.11520116e-02 2.88024582e-02
      -4.18646820e-03 1.33701984e-03 1.04314927e-02 -1.45435743e-02
      1.79509935e-03 -1.24737259e-03 6.78063137e-03 -3.71074863e-03
      -1.34011894e-03 2.70148867e-05 2.36753491e-04 3.84300947e-03
      2.89148521e-02 -4.11969684e-02 2.83415876e-02 -3.93784652e-03
      1.28075166e-03 9.88977216e-03 -1.45764705e-02 1.78243290e-03
      -1.37652806e-03 6.32038619e-03 -3.65803041e-03 -1.33788830e-03
      6.28150474e-08 1.32201763e-04 3.50882066e-03 3.06073297e-02
      -4.09652777e-02 2.78206598e-02 -3.55969439e-03 1.23820768e-03
      9.34281759e-03 -1.45171015e-02 1.77033537e-03 -1.50276511e-03
      5.87603962e-03 -3.56229232e-03 -1.32743572e-03 -2.89342770e-05
      3.52901407e-05 3.19561991e-03 3.21724899e-02 -4.06869687e-02
      2.72407997e-02 -3.29162111e-03 1.21753663e-03 8.70105904e-03
      -1.45090064e-02 1.75559183e-03 -1.63606787e-03 5.34679322e-03
      -3.52862640e-03 -1.31717336e-03 -5.97350299e-05 -7.71622872e-05
      2.81889318e-03 3.36607732e-02 -4.02540192e-02 2.66432185e-02
      -2.96790246e-03 1.22397661e-03 8.03354103e-03 -1.44310510e-02
      1.76151772e-03 -1.76898320e-03 4.80942475e-03 -3.46590416e-03
      -1.29013613e-03 -8.78615101e-05 -1.91784653e-04 2.44581001e-03
      3.51407155e-02 -3.95077616e-02 2.61629652e-02 -2.62213591e-03
      1.29566353e-03 7.39906123e-03 -1.42847616e-02 1.78987870e-03
      -1.88561238e-03 4.30586236e-03 -3.40055325e-03 -1.25241606e-03
      -1.15143564e-04 -3.01016873e-04 2.10602279e-03 3.59199829e-02
      -3.89217623e-02 2.56317053e-02 -2.40120105e-03 1.35213137e-03
      6.81173569e-03 -1.41409980e-02 1.80156110e-03 -1.98607892e-03
      3.86061869e-03 -3.34431883e-03 -1.21373066e-03 -1.42817662e-04
      -3.93558410e-04 1.81167061e-03 3.57549898e-02 -3.86959426e-02
      2.49797180e-02 -2.41420837e-03 1.32163754e-03 6.25339244e-03
      -1.40659437e-02 1.75680954e-03 -2.09352653e-03 3.47708818e-03
      -3.33153992e-03 -1.19862251e-03 -1.84610617e-04 -4.75269771e-04
      1.57049298e-03 3.53622884e-02 -3.85144800e-02 2.42287256e-02
      -2.45567434e-03 1.21000165e-03 5.64474100e-03 -1.40084503e-02
      1.68273353e-03 -2.23955559e-03 3.08838720e-03 -3.33663146e-03
      -1.20492873e-03 -2.44266907e-04 -5.73477475e-04 1.33871252e-03
      3.51651050e-02 -3.81105095e-02 2.34239027e-02 -2.35610013e-03
      1.09365978e-03 4.96813003e-03 -1.38666900e-02 1.62563974e-03
      -2.40399782e-03 2.66484334e-03 -3.29494500e-03 -1.20098609e-03
      -3.06607137e-04 -6.83257764e-04 1.09090621e-03 3.55430581e-02
      -3.72675955e-02 2.27709543e-02 -2.06432957e-03 1.05878536e-03
      4.34800191e-03 -1.36349620e-02 1.60711084e-03 -2.54282355e-03
      2.27988069e-03 -3.22158448e-03 -1.18274323e-03 -3.60258884e-04
      -7.79846217e-04 8.68055911e-04 3.56764384e-02 -3.64625268e-02
      2.19768938e-02 -1.75743888e-03 9.34158568e-04 3.72355524e-03
      -1.33738173e-02 1.55550870e-03 -2.70520430e-03 1.92887150e-03
      -3.12548946e-03 -1.17822329e-03 -4.26578103e-04 -8.76025646e-04
      6.78996672e-04 3.56025584e-02 -3.57620604e-02 2.11548302e-02
      -1.52597215e-03 7.65127072e-04 3.12398421e-03 -1.31484130e-02
      1.48483668e-03 -2.86701298e-03 1.60014897e-03 -3.05183069e-03
      -1.18583953e-03 -4.94318374e-04 -9.67126514e-04 5.02836599e-04
      3.50834355e-02 -3.55783999e-02 2.03889515e-02 -1.59918086e-03
      5.35290223e-04 2.64453562e-03 -1.31242378e-02 1.36625522e-03
      -3.00978310e-03 1.35208201e-03 -3.08279833e-03 -1.22769736e-03
      -5.60517656e-04 -1.03676901e-03 3.73591494e-04 3.41136083e-02
      -3.58751640e-02 1.96939912e-02 -2.01534946e-03 2.76496139e-04
      2.25211657e-03 -1.33232037e-02 1.21126371e-03 -3.13175772e-03
      1.15909881e-03 -3.24566965e-03 -1.30024599e-03 -6.22941472e-04
      -1.09015056e-03 2.77854269e-04 3.30354646e-02 -3.61015014e-02
      1.90313682e-02 -2.41638883e-03 5.56841296e-05 1.88648480e-03
      -1.34873968e-02 1.07709726e-03 -3.22699081e-03 9.76914656e-04
      -3.39863054e-03 -1.36097439e-03 -6.73488481e-04 -1.13082747e-03
      1.83387150e-04 3.21082845e-02 -3.63702923e-02 1.84810311e-02
      -2.84018577e-03 -1.25639315e-04 1.59289141e-03 -1.36791961e-02
      9.59085417e-04 -3.28967907e-03 8.21252645e-04 -3.56163969e-03
      -1.41905935e-03 -7.08978274e-04 -1.15657167e-03 9.62591221e-05
      3.18751670e-02 -3.62981185e-02 1.80980917e-02 -2.95996689e-03
      -2.21165799e-04 1.30179804e-03 -1.37160951e-02 9.10181436e-04
      -3.35381040e-03 6.22134248e-04 -3.61945736e-03 -1.44164474e-03
      -7.33389403e-04 -1.20145467e-03 -3.04946170e-05 3.17937396e-02
      -3.60695645e-02 1.77287199e-02 -2.96288799e-03 -3.02410655e-04
      9.93700465e-04 -1.36768287e-02 8.84568435e-04 -3.42276064e-03
      4.09890694e-04 -3.62913636e-03 -1.45156705e-03 -7.54748413e-04
      -1.25277694e-03 -1.63072589e-04 3.15046050e-02 -3.61056887e-02
      1.73249729e-02 -3.17198038e-03 -4.49768908e-04 6.56275544e-04
      -1.37686925e-02 8.18260247e-04 -3.50862485e-03 1.84243094e-04
      -3.71621363e-03 -1.49225560e-03 -7.84043805e-04 -1.31010218e-03
      -3.04001675e-04 3.12382076e-02 -3.61202657e-02 1.68678463e-02
      -3.32835387e-03 -6.22088963e-04 2.99414591e-04 -1.38284871e-02
      7.52592809e-04 -3.60872550e-03 -3.10255200e-05 -3.78035125e-03
      -1.53001468e-03 -8.16068554e-04 -1.36998948e-03 -4.29397594e-04
      3.12985741e-02 -3.60547155e-02 1.65278856e-02 -3.38336942e-03
      -7.62499985e-04 8.81597225e-06 -1.38523495e-02 7.14078546e-04
      -3.69374594e-03 -2.02924057e-04 -3.81484558e-03 -1.55724899e-03
      -8.38600914e-04 -1.42107403e-03 -5.27932425e-04 3.10059935e-02
      -3.63974907e-02 1.62168890e-02 -3.55551019e-03 -9.52656032e-04
      -2.26105447e-04 -1.39505258e-02 6.66929758e-04 -3.78523185e-03
      -3.30821000e-04 -3.86176025e-03 -1.58982910e-03 -8.60986707e-04
      -1.46978977e-03 -5.97121834e-04 3.06408182e-02 -3.68131436e-02
      1.58536769e-02 -3.69477109e-03 -1.18202867e-03 -4.47753235e-04
      -1.40303802e-02 6.13569398e-04 -3.88709363e-03 -4.35114518e-04
      -3.88129731e-03 -1.62339548e-03 -8.86058551e-04 -1.51790411e-03
      -6.48455636e-04 2.98774261e-02 -3.75123136e-02 1.55668110e-02
      -3.92954703e-03 -1.41001947e-03 -5.98493090e-04 -1.41680883e-02
      5.57421532e-04 -3.97616252e-03 -5.00559981e-04 -3.91795021e-03
      -1.66087237e-03 -9.07828158e-04 -1.55734795e-03 -6.79084274e-04
      2.94320565e-02 -3.81123871e-02 1.53714661e-02 -4.04513301e-03
      -1.60140311e-03 -7.07258412e-04 -1.42670870e-02 5.27377590e-04
      -4.05258359e-03 -5.43300237e-04 -3.91675765e-03 -1.68888771e-03
      -9.21902712e-04 -1.59050536e-03 -6.97236159e-04 2.97920592e-02
      -3.84855755e-02 1.54197160e-02 -3.97876091e-03 -1.71087310e-03
      -7.15199392e-04 -1.43052330e-02 5.34255640e-04 -4.09820629e-03
      -5.44702110e-04 -3.85930249e-03 -1.70389714e-03 -9.23340733e-04
      -1.61060586e-03 -6.97096344e-04 3.06375381e-02 -3.87101658e-02
      1.55213652e-02 -3.85917025e-03 -1.78310846e-03 -7.10144755e-04
      -1.43498341e-02 5.52474812e-04 -4.13603708e-03 -5.40346140e-04
      -3.80516541e-03 -1.71551353e-03 -9.21894331e-04 -1.62713171e-03
      -6.92869711e-04 3.17551382e-02 -3.88879552e-02 1.56036010e-02
      -3.78023786e-03 -1.83939142e-03 -7.19570438e-04 -1.44636603e-02
      5.66355651e-04 -4.16971324e-03 -5.42363094e-04 -3.80371255e-03
      -1.73279678e-03 -9.20060615e-04 -1.64111995e-03 -6.90358516e-04
      3.24728601e-02 -3.90713438e-02 1.55827636e-02 -3.70783894e-03
      -1.90093881e-03 -7.54080946e-04 -1.45403668e-02 5.59678534e-04
      -4.20195330e-03 -5.59591805e-04 -3.78693501e-03 -1.74666138e-03
      -9.26932262e-04 -1.65370782e-03 -6.95262104e-04 3.30173597e-02
      -3.92840356e-02 1.54949855e-02 -3.60675366e-03 -1.96948904e-03
      -7.92486826e-04 -1.45866023e-02 5.50436787e-04 -4.23174631e-03
      -5.76464692e-04 -3.74290324e-03 -1.75472011e-03 -9.33599425e-04
      -1.66320871e-03 -7.00251490e-04 3.28311138e-02 -3.99041027e-02
      1.51142348e-02 -3.74134118e-03 -2.12901668e-03 -9.09075723e-04
      -1.47257987e-02 4.84227232e-04 -4.27576248e-03 -6.20018400e-04
      -3.74616077e-03 -1.77650538e-03 -9.50496062e-04 -1.67228444e-03
      -7.15901202e-04 3.29584740e-02 -4.02350836e-02 1.48566579e-02
      -3.74568393e-03 -2.18683714e-03 -9.69954417e-04 -1.47961481e-02
      4.51426167e-04 -4.28585103e-03 -6.47801440e-04 -3.72668798e-03
      -1.77752180e-03 -9.56619042e-04 -1.66915124e-03 -7.27763982e-04
      3.35577577e-02 -4.01679613e-02 1.47830741e-02 -3.61560145e-03
      -2.12040241e-03 -9.66677559e-04 -1.47983609e-02 4.50022490e-04
      -4.25969251e-03 -6.61274884e-04 -3.69862677e-03 -1.76096952e-03
      -9.54339979e-04 -1.65451341e-03 -7.37164111e-04 3.37488912e-02
      -4.01918031e-02 1.44629776e-02 -3.63147748e-03 -2.10481626e-03
      -1.06647285e-03 -1.48556381e-02 4.09869477e-04 -4.25462518e-03
      -7.14991649e-04 -3.72735457e-03 -1.75704050e-03 -9.63228405e-04
      -1.64699031e-03 -7.60810042e-04 3.37613672e-02 -4.01987657e-02
      1.40455859e-02 -3.65892774e-03 -2.10016919e-03 -1.19630375e-03
      -1.49047263e-02 3.62216000e-04 -4.25567618e-03 -7.77705631e-04
      -3.76180676e-03 -1.75321742e-03 -9.74026101e-04 -1.64094975e-03
      -7.86698132e-04 3.46841663e-02 -3.94640900e-02 1.39732817e-02
      -3.38697736e-03 -1.90059457e-03 -1.22322224e-03 -1.47605799e-02
      3.89120250e-04 -4.20242827e-03 -8.18926434e-04 -3.73093691e-03
      -1.70854491e-03 -9.65212181e-04 -1.62182900e-03 -8.08228797e-04
      3.52263525e-02 -3.88427265e-02 1.38333207e-02 -3.16225435e-03
      -1.75644446e-03 -1.25924044e-03 -1.46081652e-02 3.97945696e-04
      -4.16580914e-03 -8.54873855e-04 -3.69577715e-03 -1.67189038e-03
      -9.62079095e-04 -1.60693808e-03 -8.25864438e-04 3.47796679e-02
      -3.86508889e-02 1.35692321e-02 -3.19561688e-03 -1.73293159e-03
      -1.32417795e-03 -1.45315742e-02 3.54819174e-04 -4.16139746e-03
      -8.88729410e-04 -3.70641635e-03 -1.66217471e-03 -9.74751078e-04
      -1.60151673e-03 -8.40184221e-04 3.39838639e-02 -3.86850424e-02
      1.33991931e-02 -3.39247729e-03 -1.72768498e-03 -1.36086857e-03
      -1.45307360e-02 2.99768610e-04 -4.15660394e-03 -9.05354624e-04
      -3.76086566e-03 -1.66844530e-03 -9.88056068e-04 -1.59531215e-03
      -8.47288931e-04 3.29807848e-02 -3.88465859e-02 1.33047029e-02
      -3.67357838e-03 -1.73204008e-03 -1.37138856e-03 -1.45739866e-02
      2.42763606e-04 -4.14966419e-03 -9.06780188e-04 -3.83986998e-03
      -1.68415171e-03 -9.99635784e-04 -1.58812827e-03 -8.48282594e-04
      3.20418663e-02 -3.87804098e-02 1.31143220e-02 -3.86095885e-03
      -1.76364498e-03 -1.46538066e-03 -1.45489471e-02 1.93146043e-04
      -4.16686991e-03 -9.36792349e-04 -3.89193255e-03 -1.69766822e-03
      -1.01847365e-03 -1.59287930e-03 -8.58956249e-04 3.09964865e-02
      -3.86930890e-02 1.29212942e-02 -3.97706451e-03 -1.79552834e-03
      -1.56627188e-03 -1.44828372e-02 1.60531199e-04 -4.18782327e-03
      -9.64835170e-04 -3.91277717e-03 -1.70312077e-03 -1.03439856e-03
      -1.59901241e-03 -8.68189090e-04 2.97130961e-02 -3.84984352e-02
      1.27485096e-02 -4.01760126e-03 -1.81315327e-03 -1.68678712e-03
      -1.43516408e-02 1.57559436e-04 -4.20881994e-03 -9.96919349e-04
      -3.90692381e-03 -1.69532851e-03 -1.04637421e-03 -1.60832668e-03
      -8.78129213e-04 2.84322761e-02 -3.84914204e-02 1.25656510e-02
      -4.10895795e-03 -1.87663839e-03 -1.78684713e-03 -1.42678702e-02
      1.39240205e-04 -4.23566531e-03 -1.01833267e-03 -3.90437571e-03
      -1.69815985e-03 -1.05934893e-03 -1.61846366e-03 -8.83075933e-04
      2.71861516e-02 -3.86594571e-02 1.24435415e-02 -4.25836677e-03
      -1.96354860e-03 -1.83446589e-03 -1.42277814e-02 1.11386580e-04
      -4.25823592e-03 -1.01668644e-03 -3.90581437e-03 -1.70932920e-03
      -1.07027858e-03 -1.62555336e-03 -8.78542196e-04 2.56712046e-02
      -3.93227115e-02 1.23768188e-02 -4.67249425e-03 -2.09250278e-03
      -1.83493306e-03 -1.43761067e-02 5.90559430e-05 -4.27984027e-03
      -9.97171504e-04 -3.99250537e-03 -1.74240931e-03 -1.08101557e-03
      -1.63177378e-03 -8.67432507e-04 2.43725404e-02 -3.99681628e-02
      1.23639163e-02 -5.00486605e-03 -2.20060442e-03 -1.80764659e-03
      -1.44993104e-02 2.75564125e-05 -4.29539056e-03 -9.70112276e-04
      -4.04643500e-03 -1.76511973e-03 -1.08595169e-03 -1.63679884e-03
      -8.53572332e-04 2.41250936e-02 -4.00467254e-02 1.25872828e-02
      -5.01156226e-03 -2.16421718e-03 -1.73755339e-03 -1.44714462e-02
      7.76265297e-05 -4.28032968e-03 -9.43406194e-04 -4.01418097e-03
      -1.74850051e-03 -1.07177778e-03 -1.63723715e-03 -8.43311369e-04
      2.38066316e-02 -4.03541289e-02 1.26962466e-02 -5.16137527e-03
      -2.19509844e-03 -1.69340509e-03 -1.45638129e-02 8.96823694e-05
      -4.28153388e-03 -9.25175846e-04 -4.04916843e-03 -1.75638532e-03
      -1.06483884e-03 -1.64156163e-03 -8.36013234e-04 2.36624964e-02
      -4.07993942e-02 1.26500623e-02 -5.34653571e-03 -2.30559078e-03
      -1.69945555e-03 -1.47206243e-02 6.90516899e-05 -4.30920115e-03
      -9.27906309e-04 -4.10940126e-03 -1.78291369e-03 -1.06711907e-03
      -1.65479176e-03 -8.35693965e-04 2.40635797e-02 -4.09798920e-02
      1.26907052e-02 -5.43537363e-03 -2.35363818e-03 -1.68129196e-03
      -1.48522621e-02 6.48990535e-05 -4.31902148e-03 -9.25071246e-04
      -4.16675257e-03 -1.80348009e-03 -1.06437178e-03 -1.66149740e-03
      -8.35177838e-04 2.45613158e-02 -4.11740728e-02 1.27148908e-02
      -5.50772715e-03 -2.41405657e-03 -1.65537116e-03 -1.49812819e-02
      5.74290352e-05 -4.32970328e-03 -9.16117977e-04 -4.21454757e-03
      -1.82496547e-03 -1.06121623e-03 -1.66671409e-03 -8.32875143e-04
      2.53001228e-02 -4.12911028e-02 1.29003050e-02 -5.51644806e-03
      -2.40690284e-03 -1.57672830e-03 -1.50804371e-02 7.34483328e-05
      -4.31937957e-03 -8.94086435e-04 -4.24134964e-03 -1.83295854e-03
      -1.05002453e-03 -1.66479452e-03 -8.27785465e-04 2.61405054e-02
      -4.12498973e-02 1.31498212e-02 -5.42599848e-03 -2.34677945e-03
      -1.47644710e-03 -1.51128005e-02 1.12832626e-04 -4.29377379e-03
      -8.67081340e-04 -4.23531700e-03 -1.82527234e-03 -1.03286398e-03
      -1.65814336e-03 -8.22171976e-04 2.73470059e-02 -4.12455648e-02
      1.33991968e-02 -5.31591335e-03 -2.32810574e-03 -1.35895447e-03
      -1.51642216e-02 1.34132060e-04 -4.28144168e-03 -8.27452750e-04
      -4.22743335e-03 -1.82955887e-03 -1.02042384e-03 -1.65384868e-03
      -8.09058605e-04 2.91138124e-02 -4.08714749e-02 1.37140453e-02
      -4.99852607e-03 -2.25050654e-03 -1.24311412e-03 -1.51164057e-02
      1.85453260e-04 -4.26363247e-03 -7.88489881e-04 -4.17008298e-03
      -1.81834202e-03 -1.00435852e-03 -1.64855982e-03 -7.95350526e-04
      3.07012741e-02 -4.04648818e-02 1.39718400e-02 -4.67759278e-03
      -2.17118324e-03 -1.14892551e-03 -1.50436237e-02 2.32167877e-04
      -4.24630754e-03 -7.54178094e-04 -4.10836516e-03 -1.80457847e-03
      -9.90935136e-04 -1.64206687e-03 -7.82468414e-04 3.22861150e-02
      -4.00775783e-02 1.41162630e-02 -4.34478140e-03 -2.11707968e-03
      -1.09936984e-03 -1.49731003e-02 2.69556913e-04 -4.24114894e-03
      -7.32363085e-04 -4.04271390e-03 -1.79407501e-03 -9.81111429e-04
      -1.63804623e-03 -7.71746098e-04 3.35587598e-02 -3.98420095e-02
      1.42044891e-02 -4.03384352e-03 -2.08202982e-03 -1.06487551e-03
      -1.49024967e-02 3.03223642e-04 -4.24153218e-03 -7.14051537e-04
      -3.96297546e-03 -1.78274803e-03 -9.72056936e-04 -1.63496099e-03
      -7.60969764e-04 3.44302393e-02 -3.98464873e-02 1.43514387e-02
      -3.88844870e-03 -2.03785021e-03 -1.00258226e-03 -1.49082821e-02
      3.15751182e-04 -4.23322013e-03 -6.87597494e-04 -3.92673071e-03
      -1.78093894e-03 -9.66601423e-04 -1.62721123e-03 -7.46822858e-04
      3.51521485e-02 -3.99001390e-02 1.42958816e-02 -3.76367662e-03
      -2.05112551e-03 -1.01901859e-03 -1.49224084e-02 3.00327811e-04
      -4.25061397e-03 -6.88285567e-04 -3.89229786e-03 -1.78708602e-03
      -9.72879352e-04 -1.62700715e-03 -7.41638010e-04 3.56518514e-02
      -3.99981253e-02 1.42598590e-02 -3.70299700e-03 -2.05794768e-03
      -1.02476345e-03 -1.49532249e-02 2.73273472e-04 -4.26384248e-03
      -6.84764644e-04 -3.87537875e-03 -1.79588294e-03 -9.83077101e-04
      -1.62394578e-03 -7.35933078e-04 3.59894894e-02 -3.99953425e-02
      1.42456070e-02 -3.57954251e-03 -2.02096719e-03 -1.01854629e-03
      -1.49206491e-02 2.64959759e-04 -4.26089391e-03 -6.78156735e-04
      -3.82705475e-03 -1.78936264e-03 -9.88306012e-04 -1.61508832e-03
      -7.30673084e-04 3.59025933e-02 -4.00134288e-02 1.42582310e-02
      -3.44622531e-03 -1.92794332e-03 -9.93789057e-04 -1.48328198e-02
      2.72188598e-04 -4.23543621e-03 -6.69733854e-04 -3.74657102e-03
      -1.76356710e-03 -9.88011714e-04 -1.59775349e-03 -7.27089762e-04
      3.50855067e-02 -4.02116291e-02 1.42008150e-02 -3.47930589e-03
      -1.83635880e-03 -9.96817835e-04 -1.47763370e-02 2.68971839e-04
      -4.20323899e-03 -6.75541698e-04 -3.69768986e-03 -1.73649029e-03
      -9.88556887e-04 -1.57886068e-03 -7.30343454e-04 3.34973447e-02
      -4.07448746e-02 1.39427995e-02 -3.77243827e-03 -1.82990450e-03
      -1.04758365e-03 -1.48345632e-02 2.12559913e-04 -4.18589870e-03
      -6.91490073e-04 -3.72627680e-03 -1.73429097e-03 -1.00052601e-03
      -1.56188535e-03 -7.36697053e-04 3.15520205e-02 -4.12317999e-02
      1.35744913e-02 -4.20481106e-03 -1.82572415e-03 -1.16083364e-03
      -1.49320588e-02 1.23261445e-04 -4.17503901e-03 -7.33904541e-04
      -3.81969986e-03 -1.74169173e-03 -1.02454354e-03 -1.54680049e-03
      -7.53576634e-04 2.95019783e-02 -4.17244956e-02 1.32063692e-02
      -4.71761078e-03 -1.82907761e-03 -1.27672858e-03 -1.50860883e-02
      2.14954453e-05 -4.16541798e-03 -7.77396606e-04 -3.97076597e-03
      -1.76114857e-03 -1.05032348e-03 -1.53260783e-03 -7.71181425e-04
      2.72476263e-02 -4.19990197e-02 1.29526779e-02 -5.19841397e-03
      -1.76034181e-03 -1.36312051e-03 -1.51657891e-02 -4.71528983e-05
      -4.13026614e-03 -8.12206359e-04 -4.10796516e-03 -1.76063925e-03
      -1.06634677e-03 -1.51237007e-03 -7.87428813e-04 2.45504770e-02
      -4.24457155e-02 1.27282180e-02 -5.80200460e-03 -1.72145048e-03
      -1.42319314e-03 -1.52745070e-02 -1.30367189e-04 -4.09657741e-03
      -8.32522288e-04 -4.26204875e-03 -1.76905154e-03 -1.08473096e-03
      -1.49234850e-03 -7.97563873e-04 2.19635628e-02 -4.29111905e-02
      1.25360927e-02 -6.41672546e-03 -1.69493118e-03 -1.46496377e-03
      -1.53947743e-02 -2.09564445e-04 -4.06361185e-03 -8.43611488e-04
      -4.41743806e-03 -1.78134884e-03 -1.10109698e-03 -1.47314928e-03
      -8.04096519e-04 1.97271314e-02 -4.27537896e-02 1.24838380e-02
      -6.82520587e-03 -1.59218046e-03 -1.48325239e-03 -1.53524447e-02
      -2.40955109e-04 -4.01072577e-03 -8.40537250e-04 -4.52446146e-03
      -1.77137495e-03 -1.11012498e-03 -1.45064876e-03 -8.06168828e-04
      1.76884010e-02 -4.22981903e-02 1.24451369e-02 -7.07476307e-03
      -1.47637865e-03 -1.50575035e-03 -1.52183445e-02 -2.45036324e-04
      -3.95733956e-03 -8.34112347e-04 -4.58690152e-03 -1.74990995e-03
      -1.11515273e-03 -1.42992509e-03 -8.06803699e-04 1.59169454e-02
      -4.18680236e-02 1.22362431e-02 -7.26070395e-03 -1.43527449e-03
      -1.65568979e-03 -1.50916753e-02 -2.57804815e-04 -3.94987362e-03
      -8.81848333e-04 -4.63288696e-03 -1.73782837e-03 -1.12976320e-03
      -1.42901693e-03 -8.27787502e-04 1.43169602e-02 -4.12278920e-02
      1.20744333e-02 -7.29198754e-03 -1.36605930e-03 -1.79164740e-03
      -1.48839345e-02 -2.38672830e-04 -3.93525930e-03 -9.20887920e-04
      -4.63114586e-03 -1.71169941e-03 -1.13742601e-03 -1.42703217e-03
      -8.44962255e-04 1.28989378e-02 -4.04831655e-02 1.20154163e-02
      -7.24612409e-03 -1.27578003e-03 -1.88873464e-03 -1.46386232e-02
      -1.86442063e-04 -3.90737690e-03 -9.46731947e-04 -4.60079126e-03
      -1.67596585e-03 -1.13523274e-03 -1.42495846e-03 -8.57164559e-04
      1.12675522e-02 -3.99637334e-02 1.19463941e-02 -7.26068811e-03
      -1.22075423e-03 -1.97241944e-03 -1.44303087e-02 -1.44478705e-04
      -3.88794974e-03 -9.65302170e-04 -4.57207067e-03 -1.64457457e-03
      -1.13499246e-03 -1.42513879e-03 -8.66271264e-04 9.41000320e-03
      -3.96800376e-02 1.18535999e-02 -7.34686200e-03 -1.20512454e-03
      -2.04966404e-03 -1.42660681e-02 -1.16872274e-04 -3.87912826e-03
      -9.78701049e-04 -4.54937760e-03 -1.61989185e-03 -1.13819283e-03
      -1.42811623e-03 -8.72828474e-04 7.96769746e-03 -3.94916050e-02
      1.16544757e-02 -7.43732089e-03 -1.28469139e-03 -2.17790669e-03
      -1.41579835e-02 -1.18514385e-04 -3.90530727e-03 -1.01939810e-03
      -4.53977799e-03 -1.61694991e-03 -1.15138351e-03 -1.44710625e-03
      -8.88694543e-04 6.67888159e-03 -3.92860174e-02 1.13894567e-02
      -7.47234654e-03 -1.38767064e-03 -2.32331268e-03 -1.40374815e-02
      -1.21653487e-04 -3.94247379e-03 -1.06714212e-03 -4.51520085e-03
      -1.61323207e-03 -1.16599421e-03 -1.47003494e-03 -9.06272675e-04
      5.41897956e-03 -3.91785353e-02 1.10994754e-02 -7.54695013e-03
      -1.52860058e-03 -2.46721623e-03 -1.39646502e-02 -1.39592594e-04
      -3.99176544e-03 -1.11830677e-03 -4.51310072e-03 -1.62053306e-03
      -1.18497573e-03 -1.49878219e-03 -9.25661414e-04 4.44693584e-03
      -3.91020924e-02 1.08253462e-02 -7.56566878e-03 -1.67275465e-03
      -2.59147328e-03 -1.38908541e-02 -1.51165848e-04 -4.04160284e-03
      -1.16478850e-03 -4.49685380e-03 -1.62612088e-03 -1.19987200e-03
      -1.52783631e-03 -9.42451356e-04 4.03456669e-03 -3.89928333e-02
      1.06716705e-02 -7.46454857e-03 -1.78423466e-03 -2.65420834e-03
      -1.37920259e-02 -1.35720242e-04 -4.07863269e-03 -1.19140360e-03
      -4.44607437e-03 -1.62208977e-03 -1.20322302e-03 -1.55293685e-03
      -9.50591289e-04 2.68181390e-03 -3.96262184e-02 1.03842914e-02
      -7.80360121e-03 -2.03927560e-03 -2.72973371e-03 -1.39341764e-02
      -2.03482588e-04 -4.14439524e-03 -1.21603766e-03 -4.51897178e-03
      -1.66531780e-03 -1.22239580e-03 -1.58490671e-03 -9.56865493e-04
      9.07002133e-04 -4.05652784e-02 1.00285783e-02 -8.31369217e-03
      -2.35310453e-03 -2.81298975e-03 -1.41697787e-02 -3.02667991e-04
      -4.22355300e-03 -1.24026719e-03 -4.64018574e-03 -1.72570313e-03
      -1.24717481e-03 -1.62032619e-03 -9.62593826e-04 1.31142978e-03
      -4.09604721e-02 1.01483213e-02 -8.39671586e-03 -2.50400114e-03
      -2.70933053e-03 -1.42886275e-02 -3.16075515e-04 -4.25270712e-03
      -1.19641388e-03 -4.67522768e-03 -1.75647205e-03 -1.24270469e-03
      -1.63680303e-03 -9.39254824e-04 1.85191445e-03 -4.12973501e-02
      1.03294114e-02 -8.43502861e-03 -2.63523846e-03 -2.56918697e-03
      -1.43863140e-02 -3.15104728e-04 -4.27348120e-03 -1.13137765e-03
      -4.69515240e-03 -1.78094581e-03 -1.23273302e-03 -1.64883793e-03
      -9.05603403e-04 2.66431528e-03 -4.16459739e-02 1.07040340e-02
      -8.51349439e-03 -2.71856785e-03 -2.34455126e-03 -1.45272603e-02
      -3.02059547e-04 -4.27231239e-03 -1.02761260e-03 -4.73451195e-03
      -1.80707010e-03 -1.21470063e-03 -1.65141770e-03 -8.54323560e-04
      3.89300776e-03 -4.20378409e-02 1.12804091e-02 -8.59002117e-03
      -2.74246745e-03 -2.02422636e-03 -1.47162918e-02 -2.66030082e-04
      -4.24215710e-03 -8.81279644e-04 -4.79048537e-03 -1.83141627e-03
      -1.18311530e-03 -1.64018758e-03 -7.82904448e-04 5.46571845e-03
      -4.24132235e-02 1.19631290e-02 -8.61059781e-03 -2.73915823e-03
      -1.64239726e-03 -1.49082961e-02 -2.13139356e-04 -4.19643847e-03
      -7.01003999e-04 -4.83612157e-03 -1.85357872e-03 -1.14262919e-03
      -1.61927182e-03 -6.92843169e-04 7.23274518e-03 -4.28330414e-02
      1.27593549e-02 -8.61352775e-03 -2.71619391e-03 -1.24560890e-03
      -1.51129942e-02 -1.52775378e-04 -4.15199576e-03 -5.36814798e-04
      -4.87386761e-03 -1.87710056e-03 -1.10077090e-03 -1.60418171e-03
      -6.23205677e-04 9.01202764e-03 -4.32454906e-02 1.35658346e-02
      -8.56541842e-03 -2.69711367e-03 -8.39584274e-04 -1.52939586e-02
      -9.12495525e-05 -4.11104038e-03 -3.65740387e-04 -4.88769030e-03
      -1.89992914e-03 -1.06029643e-03 -1.58896449e-03 -5.51625271e-04
      1.08987903e-02 -4.36962284e-02 1.44960564e-02 -8.47971532e-03
      -2.63107149e-03 -3.72646027e-04 -1.54744200e-02 -2.52684440e-05
      -4.05038893e-03 -1.62310316e-04 -4.88594780e-03 -1.92082906e-03
      -1.01792580e-03 -1.56069291e-03 -4.60547162e-04 1.28657045e-02
      -4.42118756e-02 1.55217983e-02 -8.37343466e-03 -2.54700100e-03
      1.47084909e-04 -1.56668276e-02 5.04006093e-05 -3.98172298e-03
      6.92577232e-05 -4.87478077e-03 -1.94028567e-03 -9.72052861e-04
      -1.52675912e-03 -3.55515338e-04 1.49026914e-02 -4.48013917e-02
      1.66855864e-02 -8.25887173e-03 -2.43030279e-03 7.42785691e-04
      -1.58767495e-02 1.38138857e-04 -3.89720104e-03 3.40966712e-04
      -4.85754432e-03 -1.95752457e-03 -9.20692983e-04 -1.48315832e-03
      -2.29971978e-04 1.63608771e-02 -4.53351699e-02 1.77473016e-02
      -8.16845149e-03 -2.26896186e-03 1.34472793e-03 -1.60443634e-02
      2.16379864e-04 -3.78563278e-03 6.27779809e-04 -4.83779516e-03
      -1.96172809e-03 -8.71539582e-04 -1.42268697e-03 -9.34587879e-05
      1.76944174e-02 -4.58187759e-02 1.87358353e-02 -8.02987069e-03
      -2.10429495e-03 1.94725336e-03 -1.61767080e-02 2.91311881e-04
      -3.67048825e-03 9.28882160e-04 -4.79872804e-03 -1.95981469e-03
      -8.24245333e-04 -1.35626178e-03 5.55532788e-05 1.89659242e-02
      -4.65077609e-02 1.97314434e-02 -7.94741698e-03 -1.97409559e-03
      2.60575092e-03 -1.63525045e-02 3.39298451e-04 -3.55872372e-03
      1.26628578e-03 -4.76533687e-03 -1.96869927e-03 -7.83381285e-04
      -1.28667743e-03 2.24342628e-04 1.97970122e-02 -4.72751558e-02
      2.06195526e-02 -7.90186971e-03 -1.86575495e-03 3.26529867e-03
      -1.65165681e-02 3.72477458e-04 -3.44742252e-03 1.62412855e-03
      -4.72750561e-03 -1.97542133e-03 -7.46597943e-04 -1.21188781e-03
      4.11458226e-04 1.97194312e-02 -4.80955094e-02 2.13400833e-02
      -7.97050633e-03 -1.74560153e-03 3.88139440e-03 -1.66550167e-02
      3.81113146e-04 -3.32677620e-03 1.97568745e-03 -4.70524840e-03
      -1.97499804e-03 -7.17966119e-04 -1.12908531e-03 6.02744578e-04
      1.94011778e-02 -4.89100367e-02 2.20018141e-02 -8.13685078e-03
      -1.63751876e-03 4.49797930e-03 -1.68123860e-02 3.65360349e-04
      -3.20302928e-03 2.34713149e-03 -4.71647317e-03 -1.98333617e-03
      -6.94914663e-04 -1.03986368e-03 8.13125982e-04 1.90124642e-02
      -4.97177131e-02 2.26010047e-02 -8.35692696e-03 -1.54300930e-03
      5.10070333e-03 -1.69845466e-02 3.27387912e-04 -3.08330054e-03
      2.72731925e-03 -4.74789273e-03 -1.99868507e-03 -6.78584736e-04
      -9.47454362e-04 1.03817519e-03 1.81525517e-02 -5.05162291e-02
      2.30787117e-02 -8.62943847e-03 -1.46792526e-03 5.65934414e-03
      -1.71302073e-02 2.73786660e-04 -2.96823983e-03 3.09813372e-03
      -4.78527369e-03 -2.01259553e-03 -6.67975750e-04 -8.54421698e-04
      1.26473536e-03 1.72400977e-02 -5.12575358e-02 2.35362407e-02
      -8.89338274e-03 -1.39872765e-03 6.21234812e-03 -1.72630791e-02
      2.21488881e-04 -2.85631814e-03 3.47977434e-03 -4.82211076e-03
      -2.02628830e-03 -6.57975615e-04 -7.59991177e-04 1.50396803e-03
      1.60034597e-02 -5.18984310e-02 2.40948144e-02 -9.21920966e-03
      -1.27904501e-03 6.78308168e-03 -1.73767339e-02 1.84804710e-04
      -2.72423914e-03 3.85568035e-03 -4.87878453e-03 -2.03454192e-03
      -6.42791681e-04 -6.62392762e-04 1.73241156e-03 1.44075910e-02
      -5.25925346e-02 2.45110691e-02 -9.60013457e-03 -1.19936955e-03
      7.26289256e-03 -1.74979456e-02 1.33023714e-04 -2.61373282e-03
      4.17541666e-03 -4.94785281e-03 -2.04751897e-03 -6.35199831e-04
      -5.80005290e-04 1.92472409e-03 1.26018627e-02 -5.31952940e-02
      2.49473713e-02 -1.00009637e-02 -1.08518370e-03 7.76360137e-03
      -1.75986681e-02 8.58602652e-05 -2.48359633e-03 4.51988121e-03
      -5.02495328e-03 -2.05562171e-03 -6.25135028e-04 -4.84424527e-04
      2.13481789e-03 1.06109818e-02 -5.38245477e-02 2.53518336e-02
      -1.04198419e-02 -1.00843259e-03 8.27044714e-03 -1.76980980e-02
      3.36282901e-05 -2.36388575e-03 4.88918601e-03 -5.10227680e-03
      -2.06816243e-03 -6.18470774e-04 -3.90658271e-04 2.36518611e-03
      8.57135933e-03 -5.44609539e-02 2.57168505e-02 -1.08130015e-02
      -9.58923134e-04 8.77696555e-03 -1.77892894e-02 -1.68071274e-05
      -2.25415733e-03 5.27426554e-03 -5.16904239e-03 -2.08104285e-03
      -6.12793781e-04 -3.00113461e-04 2.61089182e-03 6.86521782e-03
      -5.48657812e-02 2.62751244e-02 -1.11181801e-02 -8.28169752e-04
      9.38205142e-03 -1.78384539e-02 -3.34131473e-05 -2.10506446e-03
      5.70837129e-03 -5.22084767e-03 -2.08228035e-03 -5.93265169e-04
      -1.92713764e-04 2.88207829e-03 5.34790894e-03 -5.51168546e-02
      2.69589573e-02 -1.13762841e-02 -6.41188642e-04 1.00701973e-02
      -1.78610198e-02 -2.66762927e-05 -1.92341313e-03 6.19907305e-03
      -5.26653510e-03 -2.07505701e-03 -5.62460977e-04 -6.64953768e-05
      3.19036283e-03 3.97680979e-03 -5.52741960e-02 2.77539417e-02
      -1.16076488e-02 -4.24091268e-04 1.08552678e-02 -1.78713854e-02
      -4.38239749e-06 -1.71398884e-03 6.76057395e-03 -5.31034824e-03
      -2.06469186e-03 -5.22372138e-04 7.83090290e-05 3.54806567e-03
      2.79717706e-03 -5.54361418e-02 2.84765549e-02 -1.17953885e-02
      -2.36228952e-04 1.16064632e-02 -1.78808831e-02 1.84565451e-05
      -1.51979260e-03 7.30646821e-03 -5.34290075e-03 -2.05485756e-03
      -4.82768461e-04 2.16234053e-04 3.90076195e-03 1.52557832e-03
      -5.56825735e-02 2.90024523e-02 -1.19919479e-02 -1.26464845e-04
      1.22401016e-02 -1.78990923e-02 2.50006324e-05 -1.36694778e-03
      7.78820738e-03 -5.37281623e-03 -2.05127010e-03 -4.52742534e-04
      3.32389318e-04 4.22035530e-03 2.22815259e-04 -5.58556058e-02
      2.94988733e-02 -1.21814869e-02 -1.44601090e-05 1.28557263e-02
      -1.78990588e-02 3.71462411e-05 -1.21207093e-03 8.26724432e-03
      -5.40409144e-03 -2.04467843e-03 -4.20962228e-04 4.50710038e-04
      4.54473868e-03 -9.34551586e-04 -5.59403151e-02 3.00170556e-02
      -1.23360502e-02 1.13472212e-04 1.34888655e-02 -1.78828146e-02
      5.94903686e-05 -1.04882964e-03 8.76903906e-03 -5.43124974e-03
      -2.03431677e-03 -3.84844694e-04 5.75552054e-04 4.89224121e-03
      -1.18959218e-03 -5.58468774e-02 3.06000579e-02 -1.23705929e-02
      2.61273526e-04 1.40585843e-02 -1.78578906e-02 9.91479246e-05
      -9.03134409e-04 9.18798055e-03 -5.44211175e-03 -2.02276162e-03
      -3.48469679e-04 6.78787357e-04 5.16986614e-03 -1.25994335e-03
      -5.57463504e-02 3.11799310e-02 -1.23766186e-02 3.98860051e-04
      1.46025009e-02 -1.78360976e-02 1.44175894e-04 -7.67412246e-04
      9.58945602e-03 -5.44738956e-03 -2.01212056e-03 -3.11781914e-04
      7.76044559e-04 5.43615548e-03 -1.36124948e-03 -5.56565449e-02
      3.17010283e-02 -1.23845348e-02 5.05357224e-04 1.51036484e-02
      -1.78136341e-02 1.85619559e-04 -6.46812492e-04 9.96932015e-03
      -5.45189762e-03 -2.00498337e-03 -2.77661718e-04 8.64705595e-04
      5.69368480e-03 -1.31347170e-03 -5.55312969e-02 3.22714299e-02
      -1.23667028e-02 6.33207615e-04 1.56338383e-02 -1.77883077e-02
      2.38856155e-04 -5.13190927e-04 1.03759579e-02 -5.45278797e-03
      -1.99460122e-03 -2.37048764e-04 9.63930623e-04 5.97378565e-03
      -1.04999787e-03 -5.54166734e-02 3.28790247e-02 -1.23122698e-02
      7.62378506e-04 1.61837768e-02 -1.77689940e-02 2.99054838e-04
      -3.76180484e-04 1.08002266e-02 -5.44507429e-03 -1.98455877e-03
      -1.92921216e-04 1.06703665e-03 6.27000863e-03 -4.59236384e-04
      -5.53452373e-02 3.34066413e-02 -1.22179631e-02 8.45533970e-04
      1.66115034e-02 -1.77666433e-02 3.54317948e-04 -2.81638524e-04
      1.11264205e-02 -5.42901549e-03 -1.98085350e-03 -1.57386967e-04
      1.14018505e-03 6.49825251e-03 1.90622057e-04 -5.53436801e-02
      3.38512808e-02 -1.21144438e-02 8.93310760e-04 1.69586539e-02
      -1.77806746e-02 4.04300459e-04 -2.15611071e-04 1.13952924e-02
      -5.40884119e-03 -1.98080670e-03 -1.27244799e-04 1.19538885e-03
      6.69055758e-03 8.32406688e-04 -5.53282872e-02 3.42735276e-02
      -1.20143546e-02 9.56096221e-04 1.72743313e-02 -1.77938398e-02
      4.52652806e-04 -1.47884377e-04 1.16335023e-02 -5.38918842e-03
      -1.97904208e-03 -9.78016615e-05 1.24911708e-03 6.85828039e-03
      1.54840597e-03 -5.53516783e-02 3.47009934e-02 -1.19061470e-02
      1.01659691e-03 1.75899677e-02 -1.78198814e-02 5.00381109e-04
      -8.21346694e-05 1.18712950e-02 -5.36582479e-03 -1.97864347e-03
      -6.90593588e-05 1.30231597e-03 7.02627702e-03 2.34942231e-03
      -5.54632731e-02 3.50562707e-02 -1.17976218e-02 1.04180630e-03
      1.78360287e-02 -1.78699587e-02 5.33812912e-04 -4.35100628e-05
      1.20456954e-02 -5.33793913e-03 -1.98482559e-03 -5.06663746e-05
      1.33473030e-03 7.14551983e-03 3.29743465e-03 -5.55602983e-02
      3.54602821e-02 -1.16625261e-02 1.09505234e-03 1.81342214e-02
      -1.79207921e-02 5.74350357e-04 1.36241033e-05 1.22571355e-02
      -5.30538708e-03 -1.98699278e-03 -2.58924338e-05 1.38059107e-03
      7.29149627e-03 4.33192682e-03 -5.56467623e-02 3.58743109e-02
      -1.15095656e-02 1.16719783e-03 1.84586793e-02 -1.79709494e-02
      6.17431768e-04 8.25028983e-05 1.24904625e-02 -5.26968017e-03
      -1.98579417e-03 2.58848331e-06 1.43575028e-03 7.45604932e-03
      4.95573319e-03 -5.57351485e-02 3.60973254e-02 -1.14136217e-02
      1.23164884e-03 1.86540540e-02 -1.80116165e-02 6.39232458e-04
      1.36157687e-04 1.26316454e-02 -5.24506951e-03 -1.98225235e-03
      1.96123256e-05 1.47743826e-03 7.55707826e-03 5.44086751e-03
      -5.58478422e-02 3.62395570e-02 -1.13335624e-02 1.28783693e-03
      1.88050196e-02 -1.80553775e-02 6.53985015e-04 1.82229080e-04
      1.27454493e-02 -5.22230100e-03 -1.97802181e-03 3.36143821e-05
      1.51513831e-03 7.64240138e-03 5.65734506e-03 -5.60555011e-02
      3.61438841e-02 -1.13054020e-02 1.27493741e-03 1.87834240e-02
      -1.81141514e-02 6.34620723e-04 1.76681875e-04 1.27311908e-02
      -5.20615513e-03 -1.98196247e-03 2.76530754e-05 1.51715265e-03
      7.63906818e-03 5.89613058e-03 -5.62321395e-02 3.60374637e-02
      -1.12722339e-02 1.28465833e-03 1.87714100e-02 -1.81668922e-02
      6.14363817e-04 1.79719864e-04 1.27248820e-02 -5.19112311e-03
      -1.98096456e-03 2.26027187e-05 1.52506935e-03 7.64222723e-03
      6.17155898e-03 -5.63592725e-02 3.59349437e-02 -1.12344213e-02
      1.32425444e-03 1.87802278e-02 -1.82096474e-02 5.93086996e-04
      1.94389751e-04 1.27335805e-02 -5.17842826e-03 -1.97422388e-03
      1.85455538e-05 1.54045247e-03 7.65601359e-03 6.21699961e-03
      -5.64616881e-02 3.57755534e-02 -1.12317735e-02 1.36345241e-03
      1.87749323e-02 -1.82393175e-02 5.60897228e-04 2.07618868e-04
      1.27390213e-02 -5.17378189e-03 -1.96632650e-03 1.10678739e-05
      1.55550404e-03 7.67163606e-03</data></learnt_thetas>
  <n_labels type_id="opencv-matrix">
    <rows>2</rows>
    <cols>1</cols>
    <dt>i</dt>
    <data>
      0 1</data></n_labels>
  <o_labels type_id="opencv-matrix">
    <rows>2</rows>
    <cols>1</cols>
    <dt>i</dt>
    <data>
      0 1</data></o_labels></opencv_ml_lr>
</opencv_storage>
