<?xml version="1.0"?>
<opencv_storage>
<opencv_ml_lr>
  <format>3</format>
  <classifier>"Logisitic Regression Classifier"</classifier>
  <alpha>2.9999999999999999e-02</alpha>
  <iterations>120000</iterations>
  <norm>1</norm>
  <train_method>0</train_method>
  <learnt_thetas type_id="opencv-matrix">
    <rows>1</rows>
    <cols>599</cols>
    <dt>f</dt>
    <data>
      -2.20530829e-03 -6.04976900e-04 -5.85257832e-04 -5.63187234e-04
      -5.35690808e-04 -5.01421222e-04 -4.61970980e-04 -4.21175995e-04
      -3.75788892e-04 -3.24819091e-04 -2.71643425e-04 -2.11520281e-04
      -1.57406554e-04 -1.04341409e-04 -6.35867837e-05 -2.56465428e-05
      -1.79782037e-05 -4.60137198e-06 2.29417419e-05 6.94851260e-05
      1.28499509e-04 2.18077228e-04 2.86547409e-04 3.17677797e-04
      3.37381323e-04 3.68280715e-04 4.43758152e-04 5.09945443e-04
      5.68126037e-04 5.93617209e-04 5.92281867e-04 5.91653457e-04
      5.86315989e-04 5.91656019e-04 6.05797046e-04 6.08715636e-04
      6.10606046e-04 6.21841522e-04 5.85940375e-04 5.39723085e-04
      4.61129501e-04 3.92699207e-04 3.57420271e-04 3.49801296e-04
      3.60604958e-04 3.66541411e-04 3.66285909e-04 3.20754392e-04
      2.99847132e-04 3.17202735e-04 3.23542830e-04 3.23971210e-04
      3.87654261e-04 4.31370107e-04 4.23644524e-04 4.01943864e-04
      3.71125207e-04 3.67954577e-04 3.62360384e-04 3.58033110e-04
      3.41992098e-04 3.17450962e-04 2.58465705e-04 2.00366223e-04
      2.00005365e-04 1.83093231e-04 1.52473905e-04 1.49233063e-04
      1.41268625e-04 1.39591401e-04 1.47184852e-04 1.51036525e-04
      1.88753140e-04 2.22495190e-04 2.55455205e-04 2.70983437e-04
      2.68929201e-04 2.67413590e-04 2.65870447e-04 2.69039359e-04
      2.62566580e-04 2.38638793e-04 1.83376280e-04 1.34282294e-04
      8.37418411e-05 4.90474995e-05 5.14506667e-07 -4.37430317e-05
      -2.08350666e-05 3.19828141e-05 8.22213624e-05 1.46986233e-04
      2.22649483e-04 2.82040215e-04 3.27897695e-04 3.64878506e-04
      3.99623910e-04 4.34113463e-04 4.56783077e-04 4.68125363e-04
      4.20193450e-04 3.45828477e-04 3.00997810e-04 2.61900685e-04
      2.34715917e-04 2.04635420e-04 1.75214300e-04 1.50290260e-04
      1.28438245e-04 1.05849707e-04 7.18962037e-05 3.05706162e-05
      -1.16365227e-05 -5.56509949e-05 -1.23450634e-04 -2.00932773e-04
      -2.90763215e-04 -3.68568173e-04 -4.44078003e-04 -5.26698539e-04
      -6.06695074e-04 -6.82208571e-04 -7.63664430e-04 -8.38614593e-04
      -9.14279663e-04 -9.90410335e-04 -1.04045111e-03 -1.07072154e-03
      -1.08874508e-03 -1.10814266e-03 -1.13581750e-03 -1.15784700e-03
      -1.17187598e-03 -1.16463436e-03 -1.15325034e-03 -1.14571792e-03
      -1.13496894e-03 -1.12216221e-03 -1.11284712e-03 -1.10555603e-03
      -1.09764573e-03 -1.08981552e-03 -1.08674145e-03 -1.07908994e-03
      -1.06877764e-03 -1.06213521e-03 -1.05805683e-03 -1.06351508e-03
      -1.06704771e-03 -1.06742908e-03 -1.06944691e-03 8.50445998e-04
      1.03615376e-03 1.17522967e-03 1.48450874e-03 1.37119647e-03
      1.89498928e-03 1.97673729e-03 2.44302372e-03 2.58798036e-03
      2.35956884e-03 2.37613334e-03 2.22748355e-03 2.90309754e-03
      2.96639372e-03 2.83139362e-03 3.30179837e-03 2.99143698e-03
      4.07252694e-03 4.48268512e-03 3.86002893e-03 3.82989226e-03
      3.82572087e-03 4.10388457e-03 4.35017562e-03 4.16495185e-03
      3.83769511e-03 3.92333372e-03 3.77509533e-03 3.80322523e-03
      4.42385348e-03 4.04063193e-03 3.61915445e-03 3.72662116e-03
      3.17013264e-03 3.95129574e-03 4.25991975e-03 5.06102573e-03
      4.94180014e-03 4.41020913e-03 4.59419098e-03 3.43990745e-03
      3.10040871e-03 2.71866960e-03 2.77788821e-03 2.95149535e-03
      4.32135537e-03 4.55046678e-03 3.90294846e-03 4.01639892e-03
      3.96670122e-03 3.07880947e-03 2.91701942e-03 2.72815581e-03
      3.05954251e-03 3.23021505e-03 3.77167482e-03 3.95275233e-03
      4.13283333e-03 3.93942278e-03 3.01484438e-03 2.96740467e-03
      2.88065709e-03 3.35037918e-03 2.90245702e-03 3.16912495e-03
      3.50649934e-03 3.32498155e-03 3.79904034e-03 3.61143867e-03
      3.52376630e-03 2.97206454e-03 2.29481841e-03 2.90526543e-03
      2.43860343e-03 1.65752554e-03 2.14798562e-03 3.00438446e-03
      3.54702724e-03 3.82299442e-03 4.20860527e-03 3.85108916e-03
      2.86147255e-03 2.66349548e-03 1.76528655e-03 2.40523065e-03
      2.77888239e-03 4.03503468e-03 4.21461975e-03 3.72217875e-03
      3.91833764e-03 2.82537774e-03 2.43579829e-03 1.99105311e-03
      2.37304624e-03 2.68373382e-03 2.81317928e-03 3.13960621e-03
      3.13112140e-03 2.44228821e-03 2.44074711e-03 3.11928219e-03
      2.72750668e-03 2.28519086e-03 3.11207771e-03 2.99823540e-03
      2.72280723e-03 2.64801038e-03 2.45306781e-03 3.10770958e-03
      3.01408046e-03 3.74123617e-03 3.38887353e-03 2.62779533e-03
      3.06386058e-03 2.89795850e-03 2.15172325e-03 1.46769662e-03
      2.26842402e-03 2.08009826e-03 1.99249946e-03 2.44146260e-03
      1.90127618e-03 2.08191690e-03 1.59824546e-03 1.55519601e-03
      1.22321257e-03 1.06390577e-03 1.01022259e-03 7.08452193e-04
      8.65293492e-04 3.85270279e-04 5.80556443e-05 1.55051021e-04
      -3.79242265e-05 2.90390512e-04 7.45854850e-05 -1.48205931e-04
      -2.41935137e-04 -2.36790613e-04 -1.89181337e-05 -1.15311690e-04
      -3.45257686e-05 -1.46646140e-04 -1.93022730e-04 -7.18762167e-05
      -1.21942576e-04 -4.73562613e-05 -1.38663381e-04 -1.09589571e-04
      -4.71462205e-04 -5.53348975e-04 -6.43762643e-04 -7.55574903e-04
      -8.72623990e-04 -9.94762173e-04 -1.09990570e-03 -1.20810873e-03
      -1.35751022e-03 -1.50568027e-03 -1.64701336e-03 -1.80039613e-03
      -1.96433510e-03 -2.14512320e-03 -2.33693188e-03 -2.51495535e-03
      -2.69976840e-03 -2.89380061e-03 -3.11278389e-03 -3.34476330e-03
      -3.56809050e-03 -3.77041637e-03 -3.94818839e-03 -4.12040111e-03
      -4.31392668e-03 -4.51306580e-03 -4.70866635e-03 -4.89157671e-03
      -5.04251430e-03 -5.16713550e-03 -5.28694922e-03 -5.40063391e-03
      -5.48791606e-03 -5.57280565e-03 -5.66679798e-03 -5.76564437e-03
      -5.85701270e-03 -5.92507841e-03 -5.99483075e-03 -6.02688454e-03
      -6.05663145e-03 -6.07309910e-03 -6.10207440e-03 -6.14998117e-03
      -6.17769454e-03 -6.20072242e-03 -6.24139560e-03 -6.26464607e-03
      -6.26149261e-03 -6.29428960e-03 -6.34007808e-03 -6.35030912e-03
      -6.35887077e-03 -6.35902118e-03 -6.34733122e-03 -6.32737251e-03
      -6.34180009e-03 -6.35744026e-03 -6.37657568e-03 -6.39278814e-03
      -6.39587967e-03 -6.37363316e-03 -6.34145923e-03 -6.31347438e-03
      -6.29694853e-03 -6.30318932e-03 -6.31173654e-03 -6.32108003e-03
      -6.30271854e-03 -6.27377629e-03 -6.24719821e-03 -6.23460626e-03
      -6.22687722e-03 -6.24790415e-03 -6.27260841e-03 -6.27694884e-03
      -6.31385483e-03 -6.32628798e-03 -6.32611290e-03 -6.29885076e-03
      -6.27172692e-03 -6.25804299e-03 -6.25772309e-03 -6.26116805e-03
      -6.24204939e-03 -6.20329380e-03 -6.16754219e-03 -6.12420216e-03
      -6.08545402e-03 -6.10534847e-03 -6.12397911e-03 -6.13706838e-03
      -6.13000710e-03 -6.10643998e-03 -6.10973919e-03 -6.12292206e-03
      -6.11898024e-03 -6.11185329e-03 -6.09686086e-03 -6.06318796e-03
      -6.02141675e-03 -5.98257594e-03 -5.93687687e-03 -5.87008707e-03
      -5.79422433e-03 -5.71943354e-03 -5.63522847e-03 -5.54603292e-03
      -5.43595245e-03 -5.30547835e-03 -5.14725083e-03 -4.97440388e-03
      -4.79444535e-03 -4.58360044e-03 -4.36304230e-03 -4.13234811e-03
      -3.90243297e-03 -3.67488572e-03 -3.45098926e-03 -3.22965463e-03
      -3.00177233e-03 -2.79158424e-03 -2.57369573e-03 -2.34932289e-03
      -2.12036911e-03 -1.87844003e-03 -1.63081882e-03 -1.36700133e-03
      -1.12096663e-03 -9.09318391e-04 -7.06915918e-04 -5.04110300e-04
      -3.41171166e-04 -1.95063156e-04 -6.82659302e-05 5.39455141e-05
      1.74042973e-04 2.55332270e-04 3.14841775e-04 3.63637344e-04
      4.12521505e-04 4.47195460e-04 4.88868798e-04 5.33692481e-04
      5.58364147e-04 5.78380248e-04 5.80491440e-04 5.87299583e-04
      6.00968837e-04 6.14839955e-04 1.48563425e-03 1.90664572e-03
      2.11686362e-03 2.90080276e-03 2.74379249e-03 2.39090063e-03
      2.38549011e-03 3.40848370e-03 3.74103803e-03 3.28084314e-03
      3.75110470e-03 3.69833689e-03 4.22973419e-03 4.62678308e-03
      4.00105072e-03 5.27048344e-03 5.18825557e-03 5.78070339e-03
      6.03745319e-03 5.71256690e-03 5.24129765e-03 4.44151787e-03
      4.50249063e-03 4.98524634e-03 5.05690277e-03 4.95716184e-03
      5.37658948e-03 4.57961624e-03 3.49396747e-03 3.42458882e-03
      2.69717048e-03 2.31187139e-03 3.41486768e-03 3.21467035e-03
      3.78279388e-03 3.39740608e-03 2.45141704e-03 2.13986542e-03
      1.36791216e-03 1.56114518e-03 1.16334984e-03 1.13406673e-03
      1.06025138e-03 1.61606050e-03 1.54216972e-03 1.46177947e-03
      1.63494563e-03 1.00020436e-03 1.70923991e-03 1.80073222e-03
      1.49590732e-03 1.55874598e-03 1.26654143e-03 1.18470495e-03
      9.57419805e-04 8.63068155e-04 9.82473721e-04 1.58386957e-03
      1.67782686e-03 1.22228893e-03 1.02258101e-03 8.72565201e-04
      7.36816088e-04 8.38176173e-04 7.39861454e-04 1.34966010e-03
      9.53281764e-04 1.39519258e-03 1.43050030e-03 1.67479378e-03
      1.26110110e-03 6.81007572e-04 7.81460840e-04 5.46066149e-04
      4.65629157e-04 1.09901978e-03 1.31672155e-03 1.22644776e-03
      8.35997518e-04 8.79337313e-04 6.74514275e-04 5.64195390e-04
      6.21352985e-04 8.60929140e-04 1.14552747e-03 1.28503644e-03
      1.82604359e-03 1.60578557e-03 1.52233662e-03 1.47537841e-03
      7.36859511e-04 9.59865807e-04 9.78198485e-04 1.09884026e-03
      1.32986717e-03 9.88900429e-04 1.39068987e-03 1.76685862e-03
      1.17898930e-03 1.11032708e-03 1.79775606e-03 1.91043504e-03
      1.90079294e-03 2.38919305e-03 2.24380684e-03 2.46852683e-03
      2.51798797e-03 2.97258282e-03 3.89453210e-03 4.08554869e-03
      4.69313283e-03 4.58364282e-03 5.73643297e-03 6.01923279e-03
      6.59071049e-03 6.36521215e-03 5.29088685e-03 5.45715541e-03
      5.16550615e-03 5.03429864e-03 4.90449881e-03 4.84559825e-03
      5.45232929e-03 5.26315579e-03 5.48559334e-03 5.67697268e-03
      6.03306666e-03 6.17476366e-03 4.81263455e-03 4.95774066e-03
      4.35905764e-03 3.45526682e-03 3.35855829e-03 2.67340243e-03
      2.92529701e-03 2.40813894e-03 1.58678414e-03 9.70223278e-04
      6.10272284e-04 8.03507166e-04 3.04291723e-04 7.39533338e-04
      6.63926476e-04 2.02243114e-04 2.02074822e-04 -4.02418773e-05
      5.72030185e-05 2.93436733e-05 8.78467763e-05</data></learnt_thetas>
  <n_labels type_id="opencv-matrix">
    <rows>2</rows>
    <cols>1</cols>
    <dt>i</dt>
    <data>
      0 1</data></n_labels>
  <o_labels type_id="opencv-matrix">
    <rows>2</rows>
    <cols>1</cols>
    <dt>i</dt>
    <data>
      0 1</data></o_labels></opencv_ml_lr>
</opencv_storage>
