<?xml version="1.0"?>
<opencv_storage>
<opencv_ml_lr>
  <format>3</format>
  <classifier>"Logisitic Regression Classifier"</classifier>
  <alpha>10000.</alpha>
  <iterations>50000</iterations>
  <norm>1</norm>
  <train_method>0</train_method>
  <learnt_thetas type_id="opencv-matrix">
    <rows>1</rows>
    <cols>599</cols>
    <dt>f</dt>
    <data>
      -4.59938860e+00 -2.54139566e+00 -2.26713943e+00 5.32828271e-01
      5.63588515e-02 1.53675079e-01 7.82195255e-02 3.06153238e-01
      1.30079508e-01 -5.49270734e-02 2.23575503e-01 -2.57743038e-02
      3.52496326e-01 -5.06499177e-03 -5.04973754e-02 3.21945101e-01
      -5.25993168e-01 6.82426840e-02 -4.35330451e-01 6.05268553e-02
      -2.47198254e-01 -3.13425183e-01 6.74088776e-01 -1.96192674e-02
      3.22125077e-01 -3.01749647e-01 -3.35170180e-01 3.86498809e-01
      -7.36849725e-01 -4.46983486e-01 -6.68953955e-01 -5.06709814e-02
      -1.17275178e-01 -4.82377201e-01 1.32191107e-01 -9.27725017e-01
      -2.78400451e-01 -5.37210703e-01 -2.29989380e-01 2.64213294e-01
      -5.52686691e-01 -3.76879364e-01 -3.95530581e-01 -1.67482540e-01
      -1.32080033e-01 -3.84300083e-01 -3.54974978e-02 -6.82960927e-01
      4.14985567e-01 -6.35576129e-01 -6.63337559e-02 5.54781184e-02
      -3.93217087e-01 -1.05948634e-01 -6.53007686e-01 -1.44542962e-01
      -9.47878733e-02 1.23562440e-01 -3.49265039e-01 -8.84920120e-01
      -4.10863042e-01 -7.59599686e-01 -2.07264572e-01 -5.86375892e-01
      -1.32585406e+00 -7.92540014e-01 -2.09329796e+00 -5.97830951e-01
      -1.25806534e+00 -7.02018201e-01 -6.09402716e-01 -1.28557408e+00
      -7.20286012e-01 -1.45735359e+00 -5.04281342e-01 -8.72172654e-01
      -8.73130083e-01 -4.53446060e-01 -1.62232244e+00 -7.49638975e-01
      -1.24993050e+00 -7.46036172e-01 -5.46523750e-01 -1.07381809e+00
      -6.58697605e-01 -1.81352222e+00 -8.12473536e-01 -1.37081945e+00
      -7.15024292e-01 -8.25294971e-01 -1.73105741e+00 -5.08514285e-01
      -1.85772669e+00 -9.62458253e-01 -7.45741308e-01 -9.04600024e-01
      -9.33646142e-01 -1.76609230e+00 -7.83859491e-01 -1.04381907e+00
      -4.00420070e-01 -1.84346557e-01 -1.14189577e+00 -5.61282814e-01
      -1.31292176e+00 -4.75401282e-01 -1.12226439e+00 -8.51687670e-01
      -1.09741330e+00 -2.22316003e+00 -9.05579686e-01 -1.80503452e+00
      -8.09130669e-01 -3.01266074e-01 -9.36221302e-01 -1.04181361e+00
      -2.31403399e+00 -7.56221056e-01 -1.37479818e+00 -7.93484271e-01
      -9.92991328e-01 -2.09987712e+00 -1.61698842e+00 -2.83982229e+00
      -1.19341207e+00 -1.37133873e+00 -1.30480111e+00 -1.49207520e+00
      -2.53389072e+00 -9.80143368e-01 -1.70669675e+00 -9.81930017e-01
      -9.59966421e-01 -1.25524831e+00 -3.38043392e-01 -1.44391143e+00
      -4.12750334e-01 -4.19104844e-01 -1.95869327e-01 -6.62725687e-01
      -8.98472905e-01 -5.93294263e-01 -7.68155217e-01 -6.90866709e-02
      -2.79306442e-01 -4.41613138e-01 -1.47326775e-02 -3.22537988e-01
      -2.26755381e-01 -1.74625352e-01 -5.29027462e+00 -4.10398912e+00
      4.12775904e-01 4.44013625e-01 4.32574034e-01 1.50431365e-01
      4.04018998e-01 9.94473934e-01 8.04264545e-01 6.21737421e-01
      5.27235866e-01 1.00493181e+00 8.29157233e-01 9.12369967e-01
      4.70906168e-01 6.52641416e-01 8.37401688e-01 1.01886737e+00
      1.12247515e+00 7.52935290e-01 8.50267708e-01 8.20051253e-01
      5.81424117e-01 9.68775451e-01 1.22081709e+00 1.03931797e+00
      9.74367738e-01 8.92855883e-01 9.11972225e-01 7.00904667e-01
      5.29573858e-01 4.95297939e-01 3.34172606e-01 6.63024843e-01
      6.02781236e-01 5.65138400e-01 8.12411606e-01 6.75110400e-01
      1.18333924e+00 1.29262066e+00 1.15607047e+00 1.22030604e+00
      6.94754541e-01 1.07819557e+00 7.86820650e-01 8.31548214e-01
      1.00011408e+00 1.00053191e+00 1.06460261e+00 7.75635362e-01
      6.77863061e-01 1.07148457e+00 1.33500648e+00 1.50225079e+00
      8.36257875e-01 9.02765274e-01 1.06271994e+00 8.90083790e-01
      1.07555985e+00 9.77361560e-01 1.12765205e+00 1.16569960e+00
      1.15733719e+00 2.03052235e+00 1.53123248e+00 1.97247779e+00
      1.69811130e+00 1.52510476e+00 1.00970280e+00 7.87557840e-01
      1.11391425e+00 1.09265077e+00 1.22206295e+00 1.41046083e+00
      9.28261936e-01 1.22717464e+00 1.89163971e+00 2.10860252e+00
      1.88985145e+00 2.03409576e+00 1.17325234e+00 1.27923155e+00
      1.58992231e+00 1.68674219e+00 2.32679844e+00 1.34708083e+00
      1.97892356e+00 1.40771604e+00 1.60894048e+00 2.17684126e+00
      1.60362744e+00 2.38371444e+00 1.17864597e+00 1.37267458e+00
      1.41501677e+00 1.08090091e+00 2.72460651e+00 1.47916257e+00
      2.18643713e+00 7.58342147e-01 1.55940378e+00 2.84197044e+00
      1.88068700e+00 2.63957000e+00 1.26669979e+00 1.14382768e+00
      1.37528718e+00 1.02937710e+00 2.32319260e+00 1.33662438e+00
      1.94874716e+00 1.36170745e+00 1.29529464e+00 2.05644250e+00
      2.02804518e+00 3.03450608e+00 1.90401745e+00 1.42335677e+00
      1.15113199e+00 1.54798186e+00 1.99497378e+00 1.54285336e+00
      2.30694270e+00 1.41576457e+00 1.85606217e+00 1.80937099e+00
      1.94623697e+00 2.73560596e+00 1.52280617e+00 1.75046194e+00
      8.56985271e-01 1.33875906e+00 1.39461160e+00 1.13997686e+00
      2.12893271e+00 1.08191240e+00 1.95109308e+00 1.40234780e+00
      7.96837091e-01 9.69925582e-01 9.21543837e-01 1.54403758e+00
      8.70654583e-01 1.84414387e+00 1.69657409e+00 1.19546604e+00
      1.54776871e+00 2.36098111e-01 1.57655799e+00 -2.20221370e-01
      -1.89844638e-01 -2.39331692e-01 -2.95029491e-01 -3.43897045e-01
      -3.86344045e-01 -3.72028142e-01 -3.61140192e-01 -4.02778655e-01
      -4.42079574e-01 -4.60361540e-01 -4.51784700e-01 -4.63643610e-01
      -4.67374891e-01 -4.73933905e-01 -5.01194537e-01 -5.31248868e-01
      -5.84188402e-01 -5.81915855e-01 -5.82632303e-01 -5.84241271e-01
      -5.89489639e-01 -5.98381758e-01 -5.82392335e-01 -5.79289615e-01
      -5.63205481e-01 -5.57692170e-01 -5.38404644e-01 -4.96647567e-01
      -4.40884739e-01 -3.97267908e-01 -3.51657242e-01 -3.20006192e-01
      -3.30187052e-01 -3.31753582e-01 -3.76431137e-01 -4.39966530e-01
      -4.53701496e-01 -4.78121787e-01 -5.11571348e-01 -5.47926307e-01
      -5.92405200e-01 -6.02081597e-01 -5.89125216e-01 -6.08379841e-01
      -6.27461076e-01 -6.32873118e-01 -6.21802747e-01 -5.83429754e-01
      -6.00372732e-01 -6.22090936e-01 -5.88415444e-01 -5.86713731e-01
      -6.51673853e-01 -6.84955478e-01 -6.85071647e-01 -6.93160594e-01
      -6.67143226e-01 -6.69449091e-01 -6.33320272e-01 -5.85503936e-01
      -5.77775359e-01 -5.63195884e-01 -5.62237084e-01 -5.45553446e-01
      -5.73977351e-01 -6.03380144e-01 -6.34051025e-01 -6.80485547e-01
      -6.82870388e-01 -7.29354382e-01 -7.48250723e-01 -7.85852551e-01
      -8.10950339e-01 -8.06508899e-01 -8.55003059e-01 -8.55206728e-01
      -8.73195946e-01 -8.61849189e-01 -8.72212827e-01 -8.65509689e-01
      -8.14164460e-01 -8.24522376e-01 -8.12714219e-01 -8.30443680e-01
      -8.02953243e-01 -7.38583624e-01 -7.22865701e-01 -6.58960223e-01
      -6.58621609e-01 -6.62412524e-01 -6.66099131e-01 -6.83607519e-01
      -6.90665245e-01 -7.33512044e-01 -7.09352553e-01 -7.23941743e-01
      -7.38255084e-01 -7.70298243e-01 -8.00988913e-01 -7.66951621e-01
      -8.29273164e-01 -8.06152761e-01 -8.02522957e-01 -7.99820304e-01
      -7.64390945e-01 -7.76307702e-01 -7.36081600e-01 -8.10236335e-01
      -8.41282189e-01 -8.79780650e-01 -9.23819363e-01 -8.93976450e-01
      -9.79617834e-01 -9.89383817e-01 -1.02283728e+00 -1.02659690e+00
      -9.97878313e-01 -1.04619718e+00 -1.02684987e+00 -1.04338503e+00
      -9.83898163e-01 -9.22777832e-01 -8.84136260e-01 -8.56530607e-01
      -8.70757282e-01 -7.85305262e-01 -7.34124541e-01 -7.15609312e-01
      -7.27010906e-01 -7.08641112e-01 -6.64760709e-01 -7.06662118e-01
      -6.95936501e-01 -6.87748253e-01 -6.72627449e-01 -6.58534586e-01
      -6.64536715e-01 -5.71724713e-01 -5.43746054e-01 -4.81241912e-01
      -4.13985759e-01 -3.95844221e-01 -3.87852907e-01 -4.19491857e-01
      -4.10823077e-01 -4.02815521e-01 -3.94595087e-01 -4.08400387e-01
      -4.07377720e-01 -6.63475171e-02 -2.06238896e-01 -5.03209472e-01
      -5.46297073e-01 -5.66565394e-01 -5.81881881e-01 -5.72238445e-01
      -5.84660232e-01 -6.42222106e-01 -6.62502110e-01 -6.50155842e-01
      -6.25689983e-01 -6.18930995e-01 -5.97031772e-01 -5.86844265e-01
      -5.99101841e-01 -6.30589724e-01 -6.47549689e-01 -5.72769344e-01
      -4.99175161e-01 -5.21180153e-01 -5.28806627e-01 -4.94778574e-01
      -4.83987629e-01 -4.85502124e-01 -4.78690267e-01 -5.13417244e-01
      -5.57569981e-01 -5.73542535e-01 -5.67010045e-01 -5.60316563e-01
      -5.38896918e-01 -5.10863423e-01 -4.95071113e-01 -4.57158506e-01
      -4.42741603e-01 -4.42025483e-01 -4.32397217e-01 -4.32304531e-01
      -4.24025267e-01 -4.12897944e-01 -3.54275078e-01 -2.81823784e-01
      -2.21083730e-01 -1.53434902e-01 -1.24651343e-01 -1.13074809e-01
      -1.04063898e-01 -7.31026158e-02 -5.47093898e-02 -8.86986628e-02
      -6.83831722e-02 -7.23373070e-02 -8.75956118e-02 -7.42284432e-02
      -7.49123842e-02 -5.15667982e-02 -5.73882684e-02 -7.15980828e-02
      -1.00122422e-01 -1.38104826e-01 -1.44952506e-01 -1.49836630e-01
      -1.51928201e-01 -1.25750110e-01 -4.27443236e-02 2.16269270e-02
      8.85028765e-02 1.92264199e-01 2.74663866e-01 3.78112465e-01
      4.44541067e-01 4.55335319e-01 4.32726562e-01 3.93528938e-01
      3.79904330e-01 3.58268261e-01 3.62237811e-01 3.57976437e-01
      2.75953352e-01 2.31518671e-01 2.32400656e-01 1.77534521e-01
      1.31640151e-01 1.29281387e-01 1.10882133e-01 1.05050430e-01
      1.20546378e-01 1.40364528e-01 2.29368538e-01 2.85919100e-01
      3.51797074e-01 3.90168220e-01 3.88783604e-01 3.66657495e-01
      2.74411023e-01 2.33873248e-01 1.83633253e-01 1.75809890e-01
      1.25003785e-01 1.93358827e-02 -3.82153690e-02 -6.33945391e-02
      6.80780225e-03 3.65124643e-02 3.74377072e-02 4.59100343e-02
      2.82640420e-02 3.96823250e-02 5.81341386e-02 1.08767293e-01
      1.16387799e-01 5.69563285e-02 6.21390939e-02 8.67377222e-02
      1.30394936e-01 1.67571902e-01 1.79068759e-01 2.10093543e-01
      1.84676558e-01 1.88251823e-01 1.32093221e-01 3.94976251e-02
      -9.93184280e-03 -1.31216682e-02 1.23217991e-02 1.56693608e-02
      2.18462595e-03 -1.05425278e-02 -1.21195521e-02 1.53762465e-02
      2.95692850e-02 5.37503138e-02 2.67097279e-02 -6.14677481e-02
      -1.52689070e-01 -1.89321965e-01 -1.93127409e-01 -1.61396563e-01
      -1.46838605e-01 -1.40966564e-01 -9.94039997e-02 -9.41112489e-02
      -1.23648278e-01 -1.33937880e-01 -1.39210701e-01 -1.42979726e-01
      -1.40028968e-01 -1.64933830e-01 -1.25554100e-01</data></learnt_thetas>
  <n_labels type_id="opencv-matrix">
    <rows>2</rows>
    <cols>1</cols>
    <dt>i</dt>
    <data>
      0 1</data></n_labels>
  <o_labels type_id="opencv-matrix">
    <rows>2</rows>
    <cols>1</cols>
    <dt>i</dt>
    <data>
      0 1</data></o_labels></opencv_ml_lr>
</opencv_storage>
