<?xml version="1.0"?>
<opencv_storage>
<opencv_ml_lr>
  <format>3</format>
  <classifier>"Logisitic Regression Classifier"</classifier>
  <alpha>10000.</alpha>
  <iterations>500</iterations>
  <norm>1</norm>
  <train_method>0</train_method>
  <learnt_thetas type_id="opencv-matrix">
    <rows>1</rows>
    <cols>599</cols>
    <dt>f</dt>
    <data>
      -2.21741581e+00 -8.23510289e-01 -5.80755770e-01 5.38179316e-02
      4.62598763e-02 5.23223989e-02 4.52162474e-02 5.98289967e-02
      7.15994462e-02 4.92584072e-02 6.24665804e-02 1.60059649e-02
      6.11361191e-02 6.00023605e-02 7.83362240e-02 8.84985998e-02
      8.66026878e-02 1.18266359e-01 1.06557183e-01 1.19770028e-01
      1.05552040e-01 8.18502381e-02 8.97490010e-02 6.71439394e-02
      8.85084197e-02 9.51348767e-02 9.87035409e-02 6.52330220e-02
      7.45499805e-02 1.22275993e-01 9.50961411e-02 1.04892462e-01
      1.38877943e-01 1.16597675e-01 1.08727239e-01 8.82539451e-02
      1.01428002e-01 9.81243923e-02 1.08133473e-01 1.01911820e-01
      7.67715573e-02 8.96367803e-02 1.12909444e-01 1.20566785e-01
      1.19618714e-01 1.14124604e-01 1.19471163e-01 1.50166675e-01
      1.17364496e-01 1.67061344e-01 1.44044504e-01 1.40248224e-01
      1.58518717e-01 1.25517100e-01 1.59597576e-01 1.53804854e-01
      1.40637174e-01 1.60331115e-01 1.35596827e-01 1.78339407e-01
      1.75761491e-01 1.78703532e-01 2.10404441e-01 2.50148833e-01
      3.05844158e-01 2.76353061e-01 3.40543330e-01 3.15237552e-01
      3.14757764e-01 3.12549651e-01 2.73998886e-01 3.35399628e-01
      3.38957012e-01 3.92212659e-01 3.67173046e-01 4.04393792e-01
      3.58645171e-01 4.00087237e-01 3.95948589e-01 3.29898387e-01
      3.50459218e-01 3.74075592e-01 3.66023451e-01 3.43216777e-01
      3.68168533e-01 4.46929574e-01 4.19989765e-01 4.71017569e-01
      3.90400052e-01 3.94586593e-01 3.91590267e-01 3.20859373e-01
      4.50259805e-01 3.86990279e-01 3.80562127e-01 3.63660604e-01
      3.98803234e-01 4.83911783e-01 3.35737944e-01 4.00214881e-01
      3.09289932e-01 2.99884379e-01 3.83730680e-01 2.78055698e-01
      3.87812704e-01 2.56121069e-01 2.92307258e-01 3.22574496e-01
      3.61785799e-01 4.57478583e-01 3.08259964e-01 3.81401688e-01
      3.36695880e-01 2.64808863e-01 2.98382938e-01 2.92173922e-01
      3.74091923e-01 2.76482016e-01 2.68206388e-01 2.79682875e-01
      2.87274450e-01 3.44271451e-01 3.08699608e-01 3.59813750e-01
      3.13676804e-01 2.10018545e-01 2.16175303e-01 2.88910866e-01
      3.28674793e-01 2.21214876e-01 2.43480995e-01 1.95289195e-01
      2.11848721e-01 2.02853367e-01 1.59251273e-01 2.02315137e-01
      1.41480461e-01 1.36892810e-01 1.02337457e-01 1.20562218e-01
      1.08296879e-01 7.88053498e-02 1.31427661e-01 6.98811263e-02
      9.83789414e-02 7.28447512e-02 3.20197456e-02 7.40569532e-02
      5.63456081e-02 4.82086763e-02 -7.52429187e-01 -5.55720866e-01
      4.42634858e-02 2.61668805e-02 3.23391743e-02 3.55857871e-02
      4.45157215e-02 2.67689135e-02 1.00014750e-02 3.49537656e-02
      -1.15436586e-02 1.09913312e-02 3.69841382e-02 2.76116692e-02
      5.00758924e-02 2.80326209e-03 3.23706754e-02 -2.83483707e-04
      2.43315529e-02 2.30359361e-02 -2.28281296e-03 3.34740169e-02
      -2.13270616e-02 8.12962838e-03 -1.03453081e-02 -3.96050885e-03
      1.44437253e-02 -2.24413779e-02 1.82676464e-02 -9.13532078e-03
      1.32718422e-02 2.30798777e-02 -3.73671995e-03 1.01582231e-02
      -3.15567441e-02 9.19757411e-03 -1.08614089e-02 -1.23009773e-03
      -1.80816613e-02 -4.73864675e-02 -2.20504380e-03 -3.58352549e-02
      4.39950544e-03 -2.98483614e-02 -3.87969501e-02 -2.10648514e-02
      -5.47945723e-02 -2.16267481e-02 -3.85778882e-02 -2.11124960e-03
      4.01636958e-03 -3.39700729e-02 -2.39139069e-02 -7.33617395e-02
      -3.56316939e-02 -3.01421564e-02 -1.19957933e-02 -2.29394231e-02
      -6.36973083e-02 -5.73962554e-02 -8.49688426e-02 -3.51704359e-02
      -6.36540204e-02 -9.42876637e-02 -6.45239502e-02 -1.13185607e-01
      -5.42667694e-02 -8.16714689e-02 -4.59798388e-02 -6.93151653e-02
      -1.12306826e-01 -6.40295222e-02 -1.32178739e-01 -8.02028403e-02
      -9.80952680e-02 -1.07828714e-01 -8.11308473e-02 -1.20669901e-01
      -8.98597017e-02 -1.19602241e-01 -6.12764359e-02 -4.91634421e-02
      -7.41686225e-02 -6.72723949e-02 -1.31960422e-01 -7.57227167e-02
      -1.16595641e-01 -1.07722968e-01 -7.18807355e-02 -1.20233573e-01
      -6.73821867e-02 -1.09485738e-01 -4.09776121e-02 -6.14603050e-02
      -6.63047805e-02 -5.34402318e-02 -1.16264224e-01 -9.70599726e-02
      -1.02502637e-01 -6.57353923e-02 -9.71474499e-02 -1.29623830e-01
      -8.58914629e-02 -1.29741028e-01 -8.38637501e-02 -8.72823298e-02
      -7.73216560e-02 -7.07012415e-02 -9.84178483e-02 -5.74025139e-02
      -1.02150276e-01 -4.37445417e-02 -6.85541928e-02 -8.29077512e-02
      -9.04973149e-02 -1.37064934e-01 -7.75833800e-02 -1.00987025e-01
      -6.78193122e-02 -6.43417686e-02 -1.01633810e-01 -9.02598947e-02
      -1.17814511e-01 -3.95120494e-02 -1.03139788e-01 -8.73601362e-02
      -3.08590941e-02 -9.17788893e-02 -4.83903363e-02 -6.56484738e-02
      -2.64382437e-02 -4.90010381e-02 -6.92189410e-02 -5.32865152e-02
      -1.00252979e-01 -5.93085997e-02 -6.15441985e-02 -5.11104837e-02
      -2.72042658e-02 -6.57268018e-02 -3.40645239e-02 -5.33615276e-02
      -2.44368315e-02 -4.67388034e-02 -5.00940867e-02 -4.05400135e-02
      -5.53999059e-02 8.29278398e-03 -2.28064358e-02 -4.98204157e-02
      -3.15887593e-02 -5.08403592e-02 -5.01611009e-02 -4.84293103e-02
      -4.61602733e-02 -4.55884859e-02 -4.46672700e-02 -4.51384000e-02
      -4.39563356e-02 -4.17666025e-02 -4.18993756e-02 -4.18263525e-02
      -4.25647758e-02 -4.23744805e-02 -4.43315841e-02 -4.45443764e-02
      -4.25880812e-02 -4.33020703e-02 -4.06732969e-02 -3.89978513e-02
      -3.66025083e-02 -3.44277844e-02 -3.45118046e-02 -3.34716700e-02
      -3.19147967e-02 -2.93344278e-02 -3.00760791e-02 -3.07186022e-02
      -3.17013636e-02 -3.37590873e-02 -3.43569070e-02 -3.62213962e-02
      -3.52682285e-02 -3.35406289e-02 -3.10514234e-02 -2.83494331e-02
      -2.91367192e-02 -2.83207875e-02 -2.70049702e-02 -2.40079872e-02
      -2.04990674e-02 -1.84212066e-02 -1.72547717e-02 -1.58598386e-02
      -1.29345777e-02 -1.01241274e-02 -8.22600815e-03 -6.99632009e-03
      -3.79715860e-03 -1.19127415e-03 2.89283087e-03 8.97238962e-03
      1.59241017e-02 2.30614785e-02 3.03459018e-02 3.52840424e-02
      3.71530391e-02 3.71325053e-02 4.00651582e-02 4.22515608e-02
      4.37547453e-02 4.33155186e-02 4.41383868e-02 4.65713479e-02
      5.30107506e-02 5.97988404e-02 6.50195554e-02 6.63886070e-02
      6.44317120e-02 6.59797266e-02 6.59899488e-02 6.17275313e-02
      5.98396435e-02 6.22690022e-02 6.74262270e-02 7.19164088e-02
      7.47398436e-02 7.84431100e-02 8.09135512e-02 7.95510113e-02
      7.74778947e-02 7.39067793e-02 7.11052343e-02 6.95674866e-02
      6.45726845e-02 5.97686730e-02 6.23694956e-02 6.42271563e-02
      6.28870055e-02 6.22307695e-02 6.07716665e-02 5.92009164e-02
      5.86631335e-02 5.58528714e-02 5.14970459e-02 5.15093915e-02
      5.25095463e-02 5.36249094e-02 5.78239709e-02 5.79768494e-02
      5.95216043e-02 5.71559183e-02 5.63664585e-02 5.49585335e-02
      5.04633673e-02 5.09779938e-02 4.66284268e-02 4.30271365e-02
      3.99832502e-02 4.11997996e-02 4.37099896e-02 4.41904217e-02
      4.92445603e-02 5.11181019e-02 4.96848486e-02 4.94010411e-02
      4.82913852e-02 4.80400920e-02 4.51498181e-02 4.26142961e-02
      4.01703715e-02 3.80314514e-02 3.55114453e-02 3.26560251e-02
      3.13588642e-02 2.75103468e-02 2.27170773e-02 1.89411677e-02
      1.55979507e-02 1.20486561e-02 1.05107147e-02 1.01793585e-02
      8.48871376e-03 6.03907183e-03 1.75656762e-03 6.24193402e-04
      -1.83718256e-03 -7.32108252e-03 -9.90657508e-03 -1.53570483e-02
      -2.14603189e-02 -2.64989529e-02 -2.99490709e-02 -3.02222241e-02
      -3.23396400e-02 -3.18586789e-02 -3.41803692e-02 -3.68889160e-02
      -3.86799350e-02 -3.92796583e-02 -3.60911265e-02 -5.70352599e-02
      -5.90194575e-02 -5.96135892e-02 -5.74358031e-02 -6.13713972e-02
      -6.03119843e-02 -6.05807193e-02 -5.99297062e-02 -6.06846511e-02
      -6.25569746e-02 -6.09049574e-02 -6.32556900e-02 -6.15899861e-02
      -6.15315102e-02 -6.13633990e-02 -6.00402914e-02 -6.25703186e-02
      -6.21995479e-02 -6.35948479e-02 -6.30272999e-02 -6.26238510e-02
      -6.11698441e-02 -5.82152754e-02 -6.13612831e-02 -6.05730563e-02
      -6.09105378e-02 -6.02788292e-02 -6.05972558e-02 -6.18641190e-02
      -6.05541505e-02 -6.30026460e-02 -6.06797673e-02 -6.13343790e-02
      -6.03507236e-02 -5.91095015e-02 -6.05683923e-02 -5.84890023e-02
      -5.91916963e-02 -5.67046106e-02 -5.71068078e-02 -5.91786802e-02
      -5.88417239e-02 -6.24220222e-02 -6.07319325e-02 -6.30492344e-02
      -6.17698282e-02 -6.02399781e-02 -6.21415749e-02 -5.99588156e-02
      -6.40487447e-02 -6.24999441e-02 -6.24868087e-02 -6.21010773e-02
      -5.86105734e-02 -6.02868311e-02 -5.74186444e-02 -5.80594353e-02
      -5.65185547e-02 -5.41832522e-02 -5.47453202e-02 -5.29282726e-02
      -5.42529784e-02 -5.30676804e-02 -5.47215156e-02 -5.61836474e-02
      -5.64998202e-02 -5.95103577e-02 -5.94686866e-02 -6.15173988e-02
      -6.10593483e-02 -6.04042187e-02 -6.04065098e-02 -5.99003024e-02
      -6.00143969e-02 -5.76745234e-02 -5.97237423e-02 -5.92108071e-02
      -5.83555214e-02 -5.88511638e-02 -5.60588725e-02 -5.69899753e-02
      -5.49755879e-02 -5.45278378e-02 -5.38339950e-02 -5.44463061e-02
      -5.68932369e-02 -5.74001409e-02 -6.20073602e-02 -6.26830384e-02
      -6.49769306e-02 -6.72023743e-02 -6.64910153e-02 -6.85391277e-02
      -6.51146695e-02 -6.56831115e-02 -6.31769001e-02 -6.13279603e-02
      -6.09236583e-02 -5.75118810e-02 -5.97689003e-02 -5.95221668e-02
      -6.11829050e-02 -6.33527860e-02 -6.42340556e-02 -6.63037822e-02
      -6.41491711e-02 -6.58366904e-02 -6.60241693e-02 -6.56659380e-02
      -6.63088784e-02 -6.27866760e-02 -6.40139654e-02 -6.37638494e-02
      -6.55955225e-02 -6.50529414e-02 -6.20038286e-02 -6.30439669e-02
      -6.19954392e-02 -6.18622750e-02 -5.95129617e-02 -5.73006980e-02
      -5.82122095e-02 -5.90240099e-02 -6.08484522e-02 -6.09763265e-02
      -6.22064136e-02 -6.09260947e-02 -6.00807294e-02 -6.14304841e-02
      -6.10387772e-02 -6.16634078e-02 -5.92735633e-02 -5.94110340e-02
      -5.85147701e-02 -5.72802760e-02 -5.74550033e-02 -5.60759194e-02
      -5.83364032e-02 -5.80905862e-02 -5.90135492e-02 -5.82212247e-02
      -5.55253774e-02 -5.47570549e-02 -5.37259020e-02 -5.44582903e-02
      -5.53827174e-02 -5.48341200e-02 -5.46836965e-02</data></learnt_thetas>
  <n_labels type_id="opencv-matrix">
    <rows>2</rows>
    <cols>1</cols>
    <dt>i</dt>
    <data>
      0 1</data></n_labels>
  <o_labels type_id="opencv-matrix">
    <rows>2</rows>
    <cols>1</cols>
    <dt>i</dt>
    <data>
      0 1</data></o_labels></opencv_ml_lr>
</opencv_storage>
