<?xml version="1.0"?>
<opencv_storage>
<opencv_ml_lr>
  <format>3</format>
  <classifier>"Logisitic Regression Classifier"</classifier>
  <alpha>2.9999999999999999e-01</alpha>
  <iterations>150</iterations>
  <norm>1</norm>
  <train_method>0</train_method>
  <learnt_thetas type_id="opencv-matrix">
    <rows>1</rows>
    <cols>599</cols>
    <dt>f</dt>
    <data>
      -9.96220551e-05 -3.36879057e-05 -3.35067962e-05 -3.33040407e-05
      -3.30509611e-05 -3.27392409e-05 -3.23832683e-05 -3.20121690e-05
      -3.16000114e-05 -3.11484619e-05 -3.06675320e-05 -3.01081636e-05
      -2.96129074e-05 -2.91325105e-05 -2.87524945e-05 -2.83981080e-05
      -2.83246391e-05 -2.81994544e-05 -2.79450069e-05 -2.75153434e-05
      -2.69732154e-05 -2.61507503e-05 -2.55223313e-05 -2.52353238e-05
      -2.50557750e-05 -2.47792505e-05 -2.40966583e-05 -2.34972649e-05
      -2.29746620e-05 -2.27468845e-05 -2.27662895e-05 -2.27757191e-05
      -2.28299177e-05 -2.27825494e-05 -2.26541397e-05 -2.26319280e-05
      -2.26154280e-05 -2.25091135e-05 -2.28266326e-05 -2.32367765e-05
      -2.39431483e-05 -2.45584324e-05 -2.48724300e-05 -2.49414807e-05
      -2.48499673e-05 -2.47950920e-05 -2.47952939e-05 -2.52075224e-05
      -2.53974595e-05 -2.52414466e-05 -2.51893907e-05 -2.51928141e-05
      -2.46205473e-05 -2.42285951e-05 -2.43004633e-05 -2.44972471e-05
      -2.47763128e-05 -2.48035303e-05 -2.48511769e-05 -2.48843389e-05
      -2.50224166e-05 -2.52390964e-05 -2.57723896e-05 -2.62980921e-05
      -2.62974063e-05 -2.64519804e-05 -2.67359210e-05 -2.67768683e-05
      -2.68622898e-05 -2.68776712e-05 -2.68062522e-05 -2.67754967e-05
      -2.64369683e-05 -2.61320238e-05 -2.58284272e-05 -2.56763669e-05
      -2.56898329e-05 -2.56989078e-05 -2.57076281e-05 -2.56720195e-05
      -2.57197062e-05 -2.59079516e-05 -2.63772235e-05 -2.68180356e-05
      -2.72800517e-05 -2.76068695e-05 -2.80533150e-05 -2.84572034e-05
      -2.82472902e-05 -2.77642521e-05 -2.73069963e-05 -2.67163960e-05
      -2.60302422e-05 -2.54870411e-05 -2.50599169e-05 -2.47057815e-05
      -2.43737213e-05 -2.40472673e-05 -2.38264747e-05 -2.37059721e-05
      -2.41226644e-05 -2.47791086e-05 -2.51763176e-05 -2.55249597e-05
      -2.57732481e-05 -2.60519846e-05 -2.63276615e-05 -2.65581220e-05
      -2.67576961e-05 -2.69539723e-05 -2.72619000e-05 -2.76439132e-05
      -2.80334370e-05 -2.84393500e-05 -2.90568787e-05 -2.97609877e-05
      -3.05762296e-05 -3.12745178e-05 -3.19531900e-05 -3.27006237e-05
      -3.34270044e-05 -3.41178966e-05 -3.48586836e-05 -3.55362063e-05
      -3.62177852e-05 -3.69020381e-05 -3.73519251e-05 -3.76212411e-05
      -3.77887663e-05 -3.79658741e-05 -3.82095859e-05 -3.84052619e-05
      -3.85309249e-05 -3.84645464e-05 -3.83559964e-05 -3.82824073e-05
      -3.81826649e-05 -3.80633210e-05 -3.79760495e-05 -3.79066769e-05
      -3.78279656e-05 -3.77544820e-05 -3.77279102e-05 -3.76562421e-05
      -3.75573945e-05 -3.74951560e-05 -3.74553565e-05 -3.75064228e-05
      -3.75407035e-05 -3.75490345e-05 -3.75687814e-05 2.78785194e-07
      4.53103485e-06 3.25143856e-06 9.57060092e-06 5.00399074e-06
      1.12515718e-05 1.14694021e-05 1.46852253e-05 1.92321950e-05
      1.38902751e-05 1.70568201e-05 1.29593354e-05 1.95266712e-05
      2.14422980e-05 1.81535270e-05 2.59371063e-05 1.97305180e-05
      3.15330108e-05 3.34653232e-05 2.76884093e-05 3.00446754e-05
      2.73317492e-05 3.30481780e-05 3.20989384e-05 3.15024845e-05
      2.84644957e-05 2.79731430e-05 2.99321964e-05 2.70169949e-05
      3.52896568e-05 2.91594060e-05 2.59530443e-05 2.85986825e-05
      2.16274730e-05 3.18577040e-05 3.10231408e-05 4.03236263e-05
      3.76800890e-05 3.23384156e-05 3.69535082e-05 2.37728127e-05
      2.40117643e-05 1.73462959e-05 1.87119531e-05 2.07298363e-05
      3.12996926e-05 3.69592271e-05 2.77971139e-05 3.12059201e-05
      2.81917946e-05 2.03931031e-05 2.15608852e-05 1.72323307e-05
      2.37049462e-05 2.18270507e-05 2.80175045e-05 2.92222430e-05
      2.99091516e-05 3.15208090e-05 1.99305014e-05 2.24293253e-05
      1.89115945e-05 2.34861054e-05 2.07072244e-05 2.09397731e-05
      2.77237850e-05 2.26388620e-05 2.92218811e-05 2.57113679e-05
      2.44018302e-05 2.20383026e-05 1.32542646e-05 2.18881851e-05
      1.45844569e-05 8.83074154e-06 1.32924488e-05 1.99275637e-05
      2.78775897e-05 2.71912977e-05 3.31912488e-05 2.72593406e-05
      1.86284396e-05 1.87626483e-05 8.70248550e-06 1.79431790e-05
      1.78608298e-05 3.10427349e-05 3.11900367e-05 2.62195281e-05
      3.06587826e-05 1.78062237e-05 1.76001231e-05 1.02603390e-05
      1.49880134e-05 1.83895900e-05 1.78159207e-05 2.41506659e-05
      2.04808930e-05 1.67293329e-05 1.41096643e-05 2.07185985e-05
      1.97446134e-05 1.32758323e-05 2.42957976e-05 1.98531379e-05
      1.88979539e-05 1.76702160e-05 1.47244946e-05 2.38985740e-05
      1.98752077e-05 2.92206514e-05 2.31517406e-05 1.68006482e-05
      2.21545051e-05 1.88778431e-05 1.54847203e-05 5.91596427e-06
      1.52521588e-05 1.17937752e-05 1.05824975e-05 1.73633925e-05
      9.99287477e-06 1.47363280e-05 7.30844840e-06 7.95327014e-06
      4.95060158e-06 2.29015950e-06 5.01799741e-06 -8.72453768e-07
      3.08500853e-06 -3.85611202e-06 -6.55044096e-06 -3.91746062e-06
      -7.66021094e-06 -1.37534130e-06 -6.75057800e-06 -6.82617247e-06
      -9.16208592e-06 -9.46326600e-06 -4.71738622e-06 -8.31916986e-06
      -4.56225825e-06 -8.83608391e-06 -8.15812018e-06 -6.53485313e-06
      -8.58015665e-06 -4.35548600e-06 -8.63484911e-06 -5.76619914e-06
      -1.71028114e-06 -2.45379124e-06 -3.27575913e-06 -4.29481679e-06
      -5.35391155e-06 -6.45330056e-06 -7.40539190e-06 -8.38669803e-06
      -9.74839350e-06 -1.10974870e-05 -1.23811633e-05 -1.37714424e-05
      -1.52564553e-05 -1.68943025e-05 -1.86344205e-05 -2.02484480e-05
      -2.19272188e-05 -2.36946198e-05 -2.56771182e-05 -2.77729723e-05
      -2.97959305e-05 -3.16279074e-05 -3.32418749e-05 -3.48033900e-05
      -3.65518172e-05 -3.83461047e-05 -4.01171783e-05 -4.17768060e-05
      -4.31448498e-05 -4.42721030e-05 -4.53531466e-05 -4.63752949e-05
      -4.71547173e-05 -4.79119262e-05 -4.87508078e-05 -4.96300090e-05
      -5.04435520e-05 -5.10529608e-05 -5.16815417e-05 -5.19731475e-05
      -5.22402952e-05 -5.23825984e-05 -5.26382901e-05 -5.30699472e-05
      -5.33235507e-05 -5.35360596e-05 -5.39081739e-05 -5.41156769e-05
      -5.40799629e-05 -5.43725291e-05 -5.47792188e-05 -5.48773860e-05
      -5.49587967e-05 -5.49636861e-05 -5.48617281e-05 -5.46800911e-05
      -5.48120115e-05 -5.49490760e-05 -5.51175763e-05 -5.52648380e-05
      -5.52965030e-05 -5.51003759e-05 -5.48184180e-05 -5.45323164e-05
      -5.43593014e-05 -5.44189243e-05 -5.44927934e-05 -5.45689290e-05
      -5.43813221e-05 -5.40875481e-05 -5.38503627e-05 -5.37353080e-05
      -5.36646512e-05 -5.38411477e-05 -5.40323490e-05 -5.40703404e-05
      -5.44118557e-05 -5.45271178e-05 -5.45176263e-05 -5.42476373e-05
      -5.39851826e-05 -5.38605964e-05 -5.38600689e-05 -5.38908644e-05
      -5.36991756e-05 -5.33396742e-05 -5.30137659e-05 -5.26223776e-05
      -5.22671799e-05 -5.24154093e-05 -5.25639953e-05 -5.26849144e-05
      -5.26208751e-05 -5.24035131e-05 -5.24379357e-05 -5.25583819e-05
      -5.24975403e-05 -5.24211500e-05 -5.22879964e-05 -5.19884488e-05
      -5.16120745e-05 -5.12663864e-05 -5.08522935e-05 -5.02271323e-05
      -4.95330460e-05 -4.88584265e-05 -4.80903764e-05 -4.72758438e-05
      -4.62784374e-05 -4.50927910e-05 -4.36573246e-05 -4.20909964e-05
      -4.04579914e-05 -3.85478525e-05 -3.65447158e-05 -3.44500841e-05
      -3.23638160e-05 -3.03014604e-05 -2.82589335e-05 -2.62332487e-05
      -2.41685721e-05 -2.22655799e-05 -2.02797019e-05 -1.82294170e-05
      -1.61331700e-05 -1.39232152e-05 -1.16656411e-05 -9.27596102e-06
      -7.05263892e-06 -5.14760177e-06 -3.32617151e-06 -1.49882703e-06
      -2.29311627e-08 1.29873990e-06 2.43668728e-06 3.53466680e-06
      4.61501077e-06 5.34684750e-06 5.87934528e-06 6.31508601e-06
      6.75302226e-06 7.06021137e-06 7.42754264e-06 7.82184725e-06
      8.04255615e-06 8.22124275e-06 8.23609753e-06 8.29902820e-06
      8.43061480e-06 8.55792405e-06 5.92920424e-06 1.23632126e-05
      1.17176478e-05 2.23773641e-05 1.74544912e-05 1.58228868e-05
      1.52674165e-05 2.34089584e-05 2.97352817e-05 2.22864383e-05
      2.95165610e-05 2.62531394e-05 3.14170793e-05 3.64425650e-05
      2.89447125e-05 4.38872266e-05 3.98248449e-05 4.72284664e-05
      4.77877256e-05 4.43120953e-05 4.27380728e-05 3.29568829e-05
      3.66911809e-05 3.78874938e-05 3.95895768e-05 3.87987457e-05
      4.14654787e-05 3.73660296e-05 2.42905553e-05 2.61919631e-05
      1.69330851e-05 1.38416126e-05 2.56035437e-05 2.16874942e-05
      3.01256860e-05 2.32004149e-05 1.66272566e-05 1.24743847e-05
      5.01785507e-06 9.54538518e-06 2.97978204e-06 6.07056199e-06
      2.16760031e-06 8.26645737e-06 8.06948628e-06 5.85304633e-06
      1.09711918e-05 1.56571548e-06 1.05812223e-05 8.89141575e-06
      6.29088527e-06 9.42266706e-06 4.12536065e-06 6.91857622e-06
      1.42311706e-06 2.04361163e-06 2.63094580e-06 7.09590677e-06
      1.11347872e-05 3.82665758e-06 4.79961227e-06 5.81406198e-07
      -2.39795639e-07 2.07314883e-06 -7.30859767e-07 8.31067518e-06
      1.38869802e-06 7.37190703e-06 5.95389974e-06 7.84075019e-06
      6.65388825e-06 -1.11423401e-06 2.91668698e-06 -2.46303603e-06
      -1.85368378e-06 3.97622216e-06 4.76399464e-06 6.96369580e-06
      2.68252194e-07 3.24764369e-06 -1.35210689e-06 -1.80483414e-06
      3.73928827e-07 2.27899051e-07 6.45995397e-06 4.42193414e-06
      1.12986772e-05 7.91896036e-06 6.30799150e-06 8.66813934e-06
      -5.82023802e-07 4.46246167e-06 1.41087560e-06 3.66254972e-06
      6.23050300e-06 1.42309079e-06 8.54828886e-06 8.53952497e-06
      5.78902518e-06 2.69422480e-06 8.88155773e-06 1.24527560e-05
      9.50810681e-06 1.76437152e-05 1.29450218e-05 1.67148792e-05
      1.66779919e-05 1.96482670e-05 3.12052289e-05 2.96885682e-05
      3.80957317e-05 3.41273662e-05 4.52396598e-05 4.92169529e-05
      5.21875663e-05 5.36602529e-05 4.06459330e-05 4.40550248e-05
      3.96636024e-05 3.82336002e-05 3.96843097e-05 3.65974665e-05
      4.51688757e-05 4.02770311e-05 4.32785855e-05 4.49812542e-05
      4.71372150e-05 5.15098036e-05 3.61927960e-05 4.00252648e-05
      3.19953870e-05 2.40916306e-05 2.50420144e-05 1.67256803e-05
      2.24646701e-05 1.42980070e-05 8.88366321e-06 1.91079607e-06
      -1.87960006e-06 2.75865659e-06 -4.73614409e-06 2.39948236e-06
      -1.46043863e-06 -4.65833455e-06 -4.07219295e-06 -7.77256628e-06
      -3.41159125e-06 -7.12410110e-06 -3.95367897e-06</data></learnt_thetas>
  <n_labels type_id="opencv-matrix">
    <rows>2</rows>
    <cols>1</cols>
    <dt>i</dt>
    <data>
      0 1</data></n_labels>
  <o_labels type_id="opencv-matrix">
    <rows>2</rows>
    <cols>1</cols>
    <dt>i</dt>
    <data>
      0 1</data></o_labels></opencv_ml_lr>
</opencv_storage>
