<?xml version="1.0"?>
<opencv_storage>
<opencv_ml_lr>
  <format>3</format>
  <classifier>"Logisitic Regression Classifier"</classifier>
  <alpha>1.0000000000000000e-03</alpha>
  <iterations>100</iterations>
  <norm>1</norm>
  <train_method>0</train_method>
  <learnt_thetas type_id="opencv-matrix">
    <rows>1</rows>
    <cols>599</cols>
    <dt>f</dt>
    <data>
      4.45789846e-12 1.68850232e-08 1.76733259e-08 1.85659399e-08
      1.97027248e-08 2.10831992e-08 2.26507701e-08 2.42707596e-08
      2.60663686e-08 2.80963235e-08 3.02051042e-08 3.25659606e-08
      3.46869520e-08 3.67734856e-08 3.83879843e-08 3.98955926e-08
      4.02285565e-08 4.07685512e-08 4.18484625e-08 4.36571064e-08
      4.59450753e-08 4.94076922e-08 5.20697085e-08 5.33183240e-08
      5.40475469e-08 5.51840778e-08 5.80592001e-08 6.05827211e-08
      6.27676044e-08 6.37149640e-08 6.36132143e-08 6.35115072e-08
      6.32113881e-08 6.33236823e-08 6.38082085e-08 6.39393321e-08
      6.40282778e-08 6.44487343e-08 6.31406678e-08 6.14889544e-08
      5.85049662e-08 5.58931532e-08 5.46018093e-08 5.43460494e-08
      5.47488774e-08 5.50453407e-08 5.50984360e-08 5.33052642e-08
      5.24695594e-08 5.31248858e-08 5.33224878e-08 5.32738369e-08
      5.56838309e-08 5.73377967e-08 5.70470604e-08 5.62181341e-08
      5.50310304e-08 5.48860157e-08 5.46656835e-08 5.45340129e-08
      5.39830616e-08 5.31482485e-08 5.09132718e-08 4.86724687e-08
      4.86630753e-08 4.79705662e-08 4.67350709e-08 4.65619330e-08
      4.62464307e-08 4.61099461e-08 4.63080809e-08 4.64165986e-08
      4.78656688e-08 4.91690741e-08 5.04692004e-08 5.11399847e-08
      5.11048270e-08 5.10864560e-08 5.10417451e-08 5.12152525e-08
      5.10490281e-08 5.01935418e-08 4.80986095e-08 4.62005403e-08
      4.41775221e-08 4.28048317e-08 4.08759426e-08 3.90589037e-08
      3.98874604e-08 4.19075690e-08 4.39130510e-08 4.64605989e-08
      4.93898149e-08 5.17180965e-08 5.35628679e-08 5.50614914e-08
      5.64700109e-08 5.79190171e-08 5.89043552e-08 5.94513168e-08
      5.77068171e-08 5.49338246e-08 5.32321565e-08 5.17314476e-08
      5.06423952e-08 4.94322663e-08 4.82504632e-08 4.72043808e-08
      4.62761669e-08 4.53525359e-08 4.39710135e-08 4.23048796e-08
      4.06029947e-08 3.88590564e-08 3.61867230e-08 3.31228911e-08
      2.96073353e-08 2.66055409e-08 2.36503546e-08 2.04465049e-08
      1.73465029e-08 1.44143062e-08 1.12800063e-08 8.39406322e-09
      5.47716050e-09 2.53338928e-09 5.66864056e-10 -6.15229478e-10
      -1.34200040e-09 -2.10088436e-09 -3.10343085e-09 -3.90970456e-09
      -4.44346648e-09 -4.14629353e-09 -3.69183684e-09 -3.41655615e-09
      -2.99072855e-09 -2.46014742e-09 -2.05160866e-09 -1.71721126e-09
      -1.39068124e-09 -1.09553633e-09 -9.84353266e-10 -6.80690115e-10
      -2.67191741e-10 -2.20878333e-11 1.27554786e-10 -7.90674262e-11
      -2.07077577e-10 -2.24772881e-10 -2.89713142e-10 2.30254908e-08
      2.60981050e-08 3.32739738e-08 4.03757561e-08 4.58193234e-08
      4.71452211e-08 5.23647685e-08 5.94138108e-08 6.15912512e-08
      6.88473136e-08 6.17213161e-08 6.07243820e-08 4.70397339e-08
      4.42100010e-08 1.02806244e-08 1.63872507e-08 3.24726948e-08
      5.44630936e-08 6.88501061e-08 1.03158548e-07 7.96667692e-08
      3.84358891e-08 2.28888641e-08 3.51319542e-08 8.57667857e-08
      7.49548548e-08 6.46650733e-08 2.78400840e-08 -3.20845084e-09
      -3.51903084e-09 -9.61230562e-09 2.55660493e-09 1.37680072e-08
      3.32944361e-09 2.01071293e-09 1.19060379e-08 -3.81072454e-08
      -4.78456457e-08 -8.65909371e-08 -7.58529808e-08 -3.70499116e-08
      -6.99964842e-09 1.21365158e-08 8.92465035e-09 1.80385185e-09
      -5.27094883e-08 -2.45365861e-08 1.95161256e-08 5.63827873e-09
      -1.80481541e-09 6.99270757e-08 4.79385349e-08 -8.58535198e-09
      -2.44458569e-08 -3.49596263e-08 -3.33437167e-09 -5.53190871e-09
      -2.98610336e-09 -1.54996691e-08 -2.39087683e-08 -6.57067076e-08
      -6.57731078e-08 -8.56300142e-10 -2.14617746e-08 -3.76065756e-08
      -5.62023539e-09 -9.76779813e-09 -4.61461980e-09 5.36282529e-09
      2.90114999e-09 4.32250573e-08 3.90944450e-08 3.91866983e-08
      2.04405453e-08 -2.79246126e-10 3.02766173e-10 -4.54626586e-10
      5.88640292e-09 -4.59690730e-09 -2.49009826e-08 -6.19162535e-08
      -5.63441702e-08 -6.02409571e-08 -4.11602166e-08 -5.71795766e-08
      -5.32019584e-08 2.38395597e-08 5.90329812e-08 5.93169140e-08
      7.53917107e-08 8.64848886e-08 6.89744937e-08 5.47846213e-08
      4.45466952e-08 4.18333386e-08 4.29194174e-08 2.96451486e-08
      1.72760632e-08 -5.04828748e-08 -8.09625789e-08 -5.04844095e-08
      -4.44711148e-08 -3.21619744e-08 -3.60791219e-08 -3.54605802e-08
      -3.09194483e-08 -2.72219385e-08 -2.65298254e-08 -4.02178877e-08
      -4.86756271e-08 -4.98379045e-08 -5.11460279e-08 -7.82480640e-08
      -8.98517314e-08 -1.03077674e-07 -8.78969644e-08 -8.67474910e-08
      -9.43634433e-08 -9.13026597e-08 -8.64118590e-08 -9.25743606e-08
      -8.53440056e-08 -8.61866951e-08 -8.69318058e-08 -5.85745816e-08
      -3.52524445e-08 -2.19500738e-08 -2.26853061e-08 -2.96720373e-08
      -2.39403111e-08 -1.58354307e-08 8.36110559e-09 1.31210047e-08
      7.95829536e-09 1.23407720e-08 1.53584203e-08 1.18009078e-08
      9.61423385e-09 9.51989598e-09 8.67665406e-09 3.34456707e-09
      8.92088003e-09 1.20948878e-08 7.14274417e-09 4.34003899e-09
      -6.10978290e-09 -3.81239529e-09 -5.78002590e-10 -1.91786342e-09
      -9.03359876e-08 -9.35545472e-08 -9.71099823e-08 -1.01516200e-07
      -1.06122876e-07 -1.10926401e-07 -1.15129367e-07 -1.19452054e-07
      -1.25344414e-07 -1.31223686e-07 -1.36874220e-07 -1.42997351e-07
      -1.49529214e-07 -1.56630762e-07 -1.64190411e-07 -1.71224173e-07
      -1.78459231e-07 -1.86024479e-07 -1.94542594e-07 -2.03581436e-07
      -2.12259962e-07 -2.20074000e-07 -2.26947236e-07 -2.33617541e-07
      -2.41087378e-07 -2.48755015e-07 -2.56283329e-07 -2.63302411e-07
      -2.69136166e-07 -2.73935711e-07 -2.78528177e-07 -2.82880080e-07
      -2.86168842e-07 -2.89325982e-07 -2.92807016e-07 -2.96492175e-07
      -2.99953768e-07 -3.02537643e-07 -3.05231055e-07 -3.06421640e-07
      -3.07501068e-07 -3.08083827e-07 -3.09195769e-07 -3.11093856e-07
      -3.12153617e-07 -3.13017665e-07 -3.14510828e-07 -3.15382863e-07
      -3.15324172e-07 -3.16591667e-07 -3.18313596e-07 -3.18649143e-07
      -3.18938930e-07 -3.18965107e-07 -3.18518659e-07 -3.17723732e-07
      -3.18295491e-07 -3.18887828e-07 -3.19610194e-07 -3.20271937e-07
      -3.20471401e-07 -3.19615594e-07 -3.18371292e-07 -3.17327761e-07
      -3.16736219e-07 -3.16971636e-07 -3.17327022e-07 -3.17688944e-07
      -3.16966691e-07 -3.15829794e-07 -3.14823069e-07 -3.14370368e-07
      -3.14074896e-07 -3.14905577e-07 -3.15880584e-07 -3.16016497e-07
      -3.17464725e-07 -3.17985183e-07 -3.18044385e-07 -3.17080463e-07
      -3.16019680e-07 -3.15502405e-07 -3.15509453e-07 -3.15673219e-07
      -3.14958697e-07 -3.13455530e-07 -3.12026827e-07 -3.10341875e-07
      -3.08834814e-07 -3.09650716e-07 -3.10396558e-07 -3.10918722e-07
      -3.10662813e-07 -3.09761930e-07 -3.09920097e-07 -3.10492482e-07
      -3.10451725e-07 -3.10230803e-07 -3.09631133e-07 -3.08325866e-07
      -3.06691618e-07 -3.05152980e-07 -3.03392483e-07 -3.00914508e-07
      -2.97990255e-07 -2.95028826e-07 -2.91688337e-07 -2.88166490e-07
      -2.83869355e-07 -2.78728777e-07 -2.72491917e-07 -2.65686054e-07
      -2.58605553e-07 -2.50376274e-07 -2.41715071e-07 -2.32598566e-07
      -2.23584394e-07 -2.14715854e-07 -2.06030890e-07 -1.97449609e-07
      -1.88571946e-07 -1.80419164e-07 -1.71944563e-07 -1.63306922e-07
      -1.54548019e-07 -1.45257943e-07 -1.35742283e-07 -1.25581550e-07
      -1.16133471e-07 -1.07981933e-07 -1.00159269e-07 -9.23377996e-08
      -8.61173177e-08 -8.05220353e-08 -7.56431717e-08 -7.09192278e-08
      -6.62816291e-08 -6.31481853e-08 -6.08744699e-08 -5.90126064e-08
      -5.71389300e-08 -5.58490889e-08 -5.42840297e-08 -5.25732986e-08
      -5.16251468e-08 -5.08690050e-08 -5.07789188e-08 -5.05160394e-08
      -5.00011410e-08 -4.94678467e-08 -9.36994482e-08 -1.03522005e-07
      -1.28302062e-07 -1.34006712e-07 -1.39660827e-07 -1.22302907e-07
      -1.25872916e-07 -1.71591807e-07 -1.71391434e-07 -1.64851400e-07
      -1.78660642e-07 -1.90729111e-07 -2.07676990e-07 -2.21635247e-07
      -2.06722049e-07 -2.12737504e-07 -2.22624479e-07 -2.50869817e-07
      -2.66406772e-07 -2.56175696e-07 -2.30572667e-07 -2.03090011e-07
      -1.96805686e-07 -2.20651557e-07 -2.26718157e-07 -2.22565760e-07
      -2.07330757e-07 -1.72011028e-07 -1.41331697e-07 -1.34992391e-07
      -1.27707310e-07 -9.67730642e-08 -9.27350641e-08 -1.02088421e-07
      -1.07982558e-07 -1.01058980e-07 -7.58501599e-08 -7.94886788e-08
      -3.54358107e-08 -3.19770876e-08 -1.68317662e-08 -3.25110996e-08
      -5.59744677e-08 -3.14573256e-08 -2.56755861e-08 -4.46361810e-08
      -2.64079816e-08 1.00701003e-09 -3.70180580e-08 -4.99823081e-08
      -8.97288288e-09 -7.87481458e-09 -6.94463154e-10 1.31355238e-08
      2.32954953e-08 -1.73300929e-08 -1.78371060e-08 -2.14288960e-08
      -1.99766639e-08 -6.74257761e-09 2.46512002e-08 3.61479664e-08
      3.08248929e-08 1.74994739e-08 -6.58973676e-09 -1.00839896e-08
      -1.01746416e-08 2.14933280e-08 3.36574644e-08 2.99580307e-08
      1.33010678e-08 8.52119797e-09 -2.45825582e-08 -2.84350143e-08
      -3.93163635e-09 -4.35282956e-08 -1.63570544e-08 -2.48207388e-09
      2.82842070e-08 3.16344817e-08 1.55266822e-08 1.98252650e-10
      -4.56096938e-09 2.15028830e-08 4.46771438e-08 4.19856647e-08
      4.93585546e-08 4.40962893e-08 -2.36017570e-08 -2.17400977e-08
      -1.54647033e-08 7.21854132e-09 2.61651323e-08 -5.24378008e-09
      -1.76153225e-08 8.96867025e-10 6.31814778e-09 1.77155464e-08
      3.86852790e-08 4.84734564e-08 4.55440130e-08 5.17735756e-08
      7.21461149e-08 8.61248779e-08 8.77299371e-08 9.85009123e-08
      1.03708487e-07 1.26098726e-07 1.50808319e-07 1.82730247e-07
      1.99696188e-07 2.07886643e-07 2.41646973e-07 2.54474827e-07
      2.67829137e-07 2.64857306e-07 2.60593964e-07 2.55192930e-07
      2.52102041e-07 2.60658055e-07 2.38816085e-07 2.48257862e-07
      2.53210516e-07 2.56889621e-07 2.72374706e-07 2.78953308e-07
      2.97580982e-07 2.76756055e-07 2.38641803e-07 2.28848052e-07
      2.28844513e-07 1.82203024e-07 1.63646902e-07 1.42625666e-07
      1.38010122e-07 1.35450136e-07 9.15894347e-08 6.61782096e-08
      5.44992105e-08 5.49743149e-08 3.76880998e-08 4.56537208e-08
      4.98451946e-08 2.77264292e-08 2.21562431e-08 2.66616040e-09
      7.72835218e-09 1.51392658e-08 1.57024598e-08</data></learnt_thetas>
  <n_labels type_id="opencv-matrix">
    <rows>2</rows>
    <cols>1</cols>
    <dt>i</dt>
    <data>
      0 1</data></n_labels>
  <o_labels type_id="opencv-matrix">
    <rows>2</rows>
    <cols>1</cols>
    <dt>i</dt>
    <data>
      0 1</data></o_labels></opencv_ml_lr>
</opencv_storage>
