<?xml version="1.0"?>
<opencv_storage>
<opencv_ml_lr>
  <format>3</format>
  <classifier>"Logisitic Regression Classifier"</classifier>
  <alpha>3000.</alpha>
  <iterations>50</iterations>
  <norm>1</norm>
  <train_method>0</train_method>
  <learnt_thetas type_id="opencv-matrix">
    <rows>1</rows>
    <cols>2550</cols>
    <dt>f</dt>
    <data>
      -2.76053607e-01 2.21905094e-02 1.94944814e-02 2.44428962e-02
      2.27266960e-02 2.85746213e-02 3.17879505e-02 3.31685208e-02
      4.06327285e-02 3.74468043e-02 3.98776866e-02 3.26644443e-02
      3.45717371e-02 4.20101285e-02 4.02274653e-02 4.25446108e-02
      4.20312546e-02 4.43811230e-02 5.28795421e-02 5.95308430e-02
      5.10238819e-02 4.72764410e-02 5.01889214e-02 4.68682311e-02
      5.33943959e-02 5.18878475e-02 4.95881215e-02 5.24916500e-02
      4.58914079e-02 5.01493216e-02 5.33304736e-02 5.30836694e-02
      4.68720086e-02 4.61558290e-02 4.30308729e-02 4.56024222e-02
      5.37106991e-02 5.99393807e-02 6.22856393e-02 5.64694516e-02
      5.39417528e-02 4.42732386e-02 3.69081348e-02 3.91538329e-02
      3.89797948e-02 4.02611420e-02 5.61491139e-02 5.40349483e-02
      5.29782586e-02 4.78703901e-02 5.11961207e-02 4.21260260e-02
      3.64807062e-02 3.96600440e-02 3.86999696e-02 4.68519777e-02
      5.08295372e-02 5.25547601e-02 5.26726544e-02 4.48423028e-02
      4.15634736e-02 3.66660878e-02 3.99147570e-02 4.47309092e-02
      3.96906510e-02 4.54783812e-02 4.30688225e-02 4.55035381e-02
      4.67960350e-02 4.71489020e-02 4.78626378e-02 3.89457531e-02
      3.57428677e-02 3.74070033e-02 3.72406729e-02 2.66396198e-02
      3.11516784e-02 4.19289619e-02 4.30398919e-02 4.95989993e-02
      5.10608703e-02 5.13457581e-02 4.05253619e-02 3.55787389e-02
      2.92624310e-02 2.90627424e-02 3.83726135e-02 4.94964831e-02
      5.47296666e-02 5.25287129e-02 5.09156324e-02 4.45974767e-02
      3.56321074e-02 3.67866457e-02 3.68877463e-02 3.79927047e-02
      4.31554429e-02 4.11922261e-02 4.55739498e-02 3.90496701e-02
      4.27501313e-02 4.43486571e-02 3.68188694e-02 3.58230695e-02
      3.81691456e-02 4.24907170e-02 3.78341265e-02 3.86404060e-02
      3.97122987e-02 4.01308946e-02 4.39314172e-02 4.71059829e-02
      4.78238203e-02 4.05425914e-02 4.19554971e-02 4.25048694e-02
      3.08625698e-02 2.79997606e-02 3.30875404e-02 3.36037837e-02
      3.26804109e-02 3.27347666e-02 3.04331500e-02 2.76665706e-02
      2.78959237e-02 2.59783957e-02 2.29285508e-02 2.27194764e-02
      1.73345134e-02 1.93102136e-02 1.69216283e-02 1.64194889e-02
      1.26024885e-02 1.14831934e-02 1.15584023e-02 1.02901645e-02
      1.35958204e-02 8.76825396e-03 1.12433415e-02 1.04455343e-02
      7.84273632e-03 1.14492755e-02 6.93629635e-03 1.12704309e-02
      9.10546351e-03 9.46053863e-03 1.09896464e-02 4.92160954e-03
      1.10439975e-02 5.89796109e-03 3.08732241e-02 3.11494935e-02
      3.70337442e-02 3.91572267e-02 4.28670757e-02 3.54488567e-02
      3.56833339e-02 4.75784689e-02 4.49129678e-02 4.45027761e-02
      4.34026793e-02 4.68690731e-02 5.20287417e-02 5.23597561e-02
      4.96071763e-02 5.67256622e-02 6.06245436e-02 6.31369874e-02
      6.76576272e-02 6.49349019e-02 5.73908947e-02 5.34221232e-02
      4.95587401e-02 5.94277158e-02 5.84035739e-02 5.65999523e-02
      6.26285002e-02 5.09095006e-02 4.51845825e-02 4.14239056e-02
      3.85353155e-02 3.39036100e-02 4.10458893e-02 4.20783497e-02
      4.35000136e-02 4.52626161e-02 3.30258571e-02 3.17304693e-02
      2.47200932e-02 2.27336213e-02 2.36827526e-02 1.81563888e-02
      2.22731959e-02 2.54499335e-02 2.45512668e-02 2.64077820e-02
      2.25955304e-02 2.25836281e-02 2.55267154e-02 3.03070545e-02
      2.52124052e-02 2.20024809e-02 2.44967882e-02 1.78444795e-02
      2.17069928e-02 1.81771684e-02 1.99000686e-02 2.80545335e-02
      2.29750387e-02 2.36891787e-02 1.72225609e-02 2.04199981e-02
      1.79805830e-02 1.65736228e-02 1.91553868e-02 1.96613763e-02
      2.09846087e-02 2.15513911e-02 2.40315944e-02 2.81288326e-02
      2.05006823e-02 1.81216896e-02 1.46169560e-02 1.70139391e-02
      1.47844134e-02 1.96953379e-02 2.44700033e-02 1.90967452e-02
      1.99209396e-02 1.65374652e-02 1.89644992e-02 1.63722057e-02
      1.58740859e-02 2.12899335e-02 1.81896575e-02 2.37880535e-02
      2.50300448e-02 2.60729492e-02 2.74456181e-02 2.30831262e-02
      1.99129730e-02 1.70938093e-02 2.33664010e-02 2.16305424e-02
      2.28764676e-02 2.33593360e-02 2.19326951e-02 3.11744940e-02
      2.21462380e-02 2.54401602e-02 3.29089984e-02 2.97879111e-02
      3.34365256e-02 3.29138227e-02 3.65804955e-02 3.53135467e-02
      3.63651142e-02 4.48171496e-02 5.10408878e-02 6.01041317e-02
      6.18308410e-02 6.38657510e-02 7.50808269e-02 7.52068534e-02
      8.41238126e-02 7.44902939e-02 6.47366196e-02 6.39048219e-02
      6.38192892e-02 6.40500486e-02 6.00826927e-02 6.19792417e-02
      6.40757531e-02 6.68401048e-02 6.74402267e-02 6.95576370e-02
      7.46226534e-02 7.14173764e-02 6.23045526e-02 6.00173250e-02
      5.79000562e-02 4.67279479e-02 4.27490585e-02 3.90561000e-02
      3.67344990e-02 3.69793996e-02 2.53639556e-02 2.23454200e-02
      1.86150447e-02 1.57145411e-02 1.56012261e-02 1.50715895e-02
      1.95564851e-02 1.32230455e-02 1.23980269e-02 1.18388990e-02
      6.15705363e-03 1.27785290e-02 8.13676417e-03 -2.76046485e-01
      2.04197131e-03 -4.51877713e-02 2.44147144e-02 -5.98326419e-03
      1.37400767e-03 9.99452733e-03 -1.60329286e-02 1.31516147e-03
      -1.04352878e-03 7.43231270e-03 -2.46365881e-03 -1.36284635e-03
      7.61702249e-05 6.33438118e-04 4.65753907e-03 2.26532482e-03
      -4.50507812e-02 2.41746064e-02 -5.91513934e-03 1.30512740e-03
      9.82012320e-03 -1.59997530e-02 1.29185722e-03 -1.09201414e-03
      7.31849950e-03 -2.44702958e-03 -1.37151976e-03 6.02397595e-05
      6.04672707e-04 4.58010705e-03 2.49581947e-03 -4.49008942e-02
      2.39310265e-02 -5.83764305e-03 1.24516652e-03 9.64041706e-03
      -1.59616601e-02 1.27567188e-03 -1.13512122e-03 7.19599705e-03
      -2.42830068e-03 -1.37626391e-03 4.86862082e-05 5.78036881e-04
      4.49176738e-03 2.74074287e-03 -4.47488204e-02 2.36812085e-02
      -5.76467486e-03 1.19624962e-03 9.43312049e-03 -1.59292817e-02
      1.26652734e-03 -1.17551384e-03 7.03436974e-03 -2.41415272e-03
      -1.37811434e-03 4.16195326e-05 5.46930882e-04 4.36436199e-03
      3.09158000e-03 -4.45356816e-02 2.33898163e-02 -5.66910580e-03
      1.13456219e-03 9.17092897e-03 -1.58923436e-02 1.25306949e-03
      -1.23732316e-03 6.82894886e-03 -2.40149396e-03 -1.38199946e-03
      2.70893688e-05 4.97539528e-04 4.20715520e-03 3.52312298e-03
      -4.42691632e-02 2.30647400e-02 -5.54847531e-03 1.06453174e-03
      8.87201075e-03 -1.58458259e-02 1.23829464e-03 -1.31316681e-03
      6.59974292e-03 -2.38598720e-03 -1.38577633e-03 7.92173341e-06
      4.37589129e-04 4.03747754e-03 3.93333379e-03 -4.40108478e-02
      2.28733346e-02 -5.42857358e-03 1.05613703e-03 8.66829418e-03
      -1.57971345e-02 1.25013536e-03 -1.34704926e-03 6.43656962e-03
      -2.36784806e-03 -1.37833180e-03 6.29077977e-06 4.03853774e-04
      3.91800934e-03 4.38044872e-03 -4.37046885e-02 2.26914007e-02
      -5.27016306e-03 1.06182683e-03 8.47123470e-03 -1.57234445e-02
      1.27326394e-03 -1.37603353e-03 6.28236402e-03 -2.33535538e-03
      -1.36357057e-03 7.88657235e-06 3.73719638e-04 3.80850025e-03
      4.87817219e-03 -4.33428772e-02 2.23985929e-02 -5.06855920e-03
      1.03826274e-03 8.15664791e-03 -1.56218596e-02 1.29185361e-03
      -1.44316966e-03 6.03297586e-03 -2.28680996e-03 -1.34717778e-03
      -2.55626946e-06 3.12290329e-04 3.63029167e-03 5.34311635e-03
      -4.29857671e-02 2.21358985e-02 -4.85678622e-03 1.03072438e-03
      7.86383916e-03 -1.55078145e-02 1.31953973e-03 -1.49945950e-03
      5.80017269e-03 -2.22835923e-03 -1.32566667e-03 -7.82176176e-06
      2.58920249e-04 3.46326339e-03 5.79902343e-03 -4.26383205e-02
      2.19532400e-02 -4.65061981e-03 1.05864811e-03 7.61017390e-03
      -1.53957019e-02 1.36107276e-03 -1.53591298e-03 5.58371842e-03
      -2.16980046e-03 -1.29924761e-03 -4.44288889e-06 2.14781103e-04
      3.30149918e-03 6.15299260e-03 -4.23824713e-02 2.17280909e-02
      -4.50525898e-03 1.06528890e-03 7.31896143e-03 -1.53195448e-02
      1.39314297e-03 -1.58845028e-03 5.34398016e-03 -2.13122671e-03
      -1.27683033e-03 -7.11477787e-06 1.60929732e-04 3.12352017e-03
      6.46264991e-03 -4.21543792e-02 2.14645695e-02 -4.37532365e-03
      1.06084137e-03 7.01425085e-03 -1.52518954e-02 1.42296776e-03
      -1.64633419e-03 5.10342931e-03 -2.09734007e-03 -1.25422690e-03
      -1.15555122e-05 1.05870960e-04 2.94799963e-03 6.61220727e-03
      -4.19517905e-02 2.10375432e-02 -4.20516310e-03 9.82017023e-04
      6.61890768e-03 -1.51341110e-02 1.42801192e-03 -1.74942205e-03
      4.80616605e-03 -2.02366174e-03 -1.23609102e-03 -3.51331400e-05
      2.25880631e-05 2.73820246e-03 6.72070775e-03 -4.17662300e-02
      2.06055790e-02 -4.03896440e-03 9.02364380e-04 6.20870711e-03
      -1.50156487e-02 1.43156573e-03 -1.85307709e-03 4.49691201e-03
      -1.94800284e-03 -1.21940358e-03 -5.87364048e-05 -5.97659018e-05
      2.51838821e-03 6.52784947e-03 -4.18803841e-02 2.02106275e-02
      -4.10316419e-03 8.08892364e-04 5.83264418e-03 -1.50555847e-02
      1.40824076e-03 -1.94277556e-03 4.20502154e-03 -1.97440363e-03
      -1.22730026e-03 -7.95479937e-05 -1.31418317e-04 2.30669929e-03
      6.46211766e-03 -4.18922789e-02 1.98245831e-02 -4.09852993e-03
      7.21291290e-04 5.45202941e-03 -1.50520355e-02 1.38977054e-03
      -2.03375868e-03 3.91166331e-03 -1.97411771e-03 -1.23082788e-03
      -1.01047946e-04 -2.03607080e-04 2.09812052e-03 6.62206253e-03
      -4.17466983e-02 1.94306821e-02 -4.00460605e-03 6.38361904e-04
      5.07807592e-03 -1.49992043e-02 1.37592398e-03 -2.12262198e-03
      3.63239413e-03 -1.94623088e-03 -1.23071123e-03 -1.22361133e-04
      -2.71429133e-04 1.90379575e-03 6.94475975e-03 -4.15648706e-02
      1.90470945e-02 -3.93062318e-03 5.75242855e-04 4.65832185e-03
      -1.49762891e-02 1.37011427e-03 -2.21569627e-03 3.30386893e-03
      -1.94298441e-03 -1.22922135e-03 -1.42302146e-04 -3.49213748e-04
      1.66980014e-03 7.38262385e-03 -4.12916355e-02 1.86716262e-02
      -3.79490084e-03 5.32374834e-04 4.22939984e-03 -1.49139883e-02
      1.38053088e-03 -2.30755843e-03 2.97142030e-03 -1.91531447e-03
      -1.21682894e-03 -1.59566087e-04 -4.27973835e-04 1.43781130e-03
      8.16735160e-03 -4.08557132e-02 1.84045080e-02 -3.60172265e-03
      5.38005901e-04 3.83908744e-03 -1.48317516e-02 1.40849501e-03
      -2.38723774e-03 2.66262703e-03 -1.87885074e-03 -1.19826966e-03
      -1.73647466e-04 -5.02525829e-04 1.22741377e-03 8.74962844e-03
      -4.05368246e-02 1.81292426e-02 -3.45348171e-03 5.26448071e-04
      3.48905846e-03 -1.47603657e-02 1.42909540e-03 -2.46133469e-03
      2.39354395e-03 -1.84113334e-03 -1.18111621e-03 -1.86883655e-04
      -5.68759977e-04 1.04714662e-03 8.95848405e-03 -4.04552296e-02
      1.78037658e-02 -3.42003279e-03 4.58787195e-04 3.17236851e-03
      -1.47381509e-02 1.41800276e-03 -2.54063308e-03 2.16882094e-03
      -1.82294298e-03 -1.17917650e-03 -2.06877128e-04 -6.28222711e-04
      9.02961823e-04 9.14630014e-03 -4.03622910e-02 1.74110308e-02
      -3.37665621e-03 3.55158525e-04 2.82675005e-03 -1.47145446e-02
      1.38951326e-03 -2.64018029e-03 1.93965284e-03 -1.80879608e-03
      -1.18663255e-03 -2.37244618e-04 -6.95831899e-04 7.64309254e-04
      9.54264682e-03 -4.01068702e-02 1.69757791e-02 -3.23296967e-03
      2.55036721e-04 2.43509654e-03 -1.46351643e-02 1.37105910e-03
      -2.75056344e-03 1.68406253e-03 -1.76535256e-03 -1.18653895e-03
      -2.69286189e-04 -7.70493469e-04 6.12916250e-04 1.03646396e-02
      -3.95966545e-02 1.66303627e-02 -2.97314441e-03 2.05132572e-04
      2.08027614e-03 -1.45097123e-02 1.37406425e-03 -2.84505705e-03
      1.45126414e-03 -1.70584302e-03 -1.17861875e-03 -2.95733364e-04
      -8.36720981e-04 4.76302201e-04 1.10935718e-02 -3.91035974e-02
      1.62124075e-02 -2.69926852e-03 1.11043068e-04 1.73153204e-03
      -1.43667180e-02 1.35815528e-03 -2.94961897e-03 1.24230073e-03
      -1.63321383e-03 -1.17769337e-03 -3.28948256e-04 -9.00614308e-04
      3.61985672e-04 1.17852483e-02 -3.86466049e-02 1.58004984e-02
      -2.44967663e-03 7.28255145e-06 1.40604319e-03 -1.42384451e-02
      1.33403798e-03 -3.04967351e-03 1.05085527e-03 -1.56923698e-03
      -1.18160562e-03 -3.62205930e-04 -9.58954450e-04 2.57642969e-04
      1.20862247e-02 -3.85132544e-02 1.54167553e-02 -2.40700296e-03
      -1.32040645e-04 1.14987849e-03 -1.42311733e-02 1.27679959e-03
      -3.13734240e-03 9.10290109e-04 -1.57338206e-03 -1.20682502e-03
      -3.96296644e-04 -1.00284733e-03 1.82783275e-04 1.20466826e-02
      -3.86971943e-02 1.50782438e-02 -2.58888002e-03 -2.87696021e-04
      9.46099288e-04 -1.43649653e-02 1.19427568e-03 -3.21193738e-03
      8.05128366e-04 -1.66065036e-03 -1.25174457e-03 -4.29132313e-04
      -1.03567145e-03 1.28753047e-04 1.20375408e-02 -3.88432592e-02
      1.47722987e-02 -2.74267513e-03 -4.18572134e-04 7.65279983e-04
      -1.44805182e-02 1.12498202e-03 -3.27038812e-03 7.09761167e-04
      -1.73652708e-03 -1.28992379e-03 -4.54247434e-04 -1.06042251e-03
      7.73733700e-05 1.20326746e-02 -3.90088595e-02 1.45268859e-02
      -2.91479519e-03 -5.23484021e-04 6.24595908e-04 -1.46066025e-02
      1.06373685e-03 -3.30837280e-03 6.30164111e-04 -1.81699242e-03
      -1.32607319e-03 -4.71210224e-04 -1.07575220e-03 3.09825773e-05
      1.21886963e-02 -3.89735661e-02 1.43580996e-02 -2.93168426e-03
      -5.71448938e-04 4.73832450e-04 -1.46317277e-02 1.04064774e-03
      -3.34562897e-03 5.23333205e-04 -1.83681760e-03 -1.33962021e-03
      -4.83777898e-04 -1.10072782e-03 -3.88134613e-05 1.24219116e-02
      -3.88512760e-02 1.41842198e-02 -2.88269180e-03 -6.09352079e-04
      3.11728654e-04 -1.46131404e-02 1.02804182e-03 -3.38451564e-03
      4.08923777e-04 -1.82929973e-03 -1.34573015e-03 -4.95397137e-04
      -1.12811639e-03 -1.11422341e-04 1.25159146e-02 -3.88886370e-02
      1.39793009e-02 -2.95405788e-03 -6.81278296e-04 1.32001151e-04
      -1.46705890e-02 9.88437678e-04 -3.43163381e-03 2.86034658e-04
      -1.86547672e-03 -1.36949401e-03 -5.12369501e-04 -1.15772011e-03
      -1.88582053e-04 1.25341779e-02 -3.89427692e-02 1.37214381e-02
      -3.01702460e-03 -7.72596686e-04 -6.52387971e-05 -1.47163589e-02
      9.45199339e-04 -3.48799350e-03 1.66889862e-04 -1.89300301e-03
      -1.39241666e-03 -5.32166683e-04 -1.18880370e-03 -2.57338135e-04
      1.25354780e-02 -3.89867499e-02 1.34816281e-02 -3.06240912e-03
      -8.53415520e-04 -2.40137771e-04 -1.47481086e-02 9.09755181e-04
      -3.53749120e-03 6.56644916e-05 -1.91179779e-03 -1.41022936e-03
      -5.48791781e-04 -1.21533265e-03 -3.13388067e-04 1.21044256e-02
      -3.92681248e-02 1.32097313e-02 -3.20757949e-03 -9.63805127e-04
      -4.01688128e-04 -1.48176318e-02 8.64315894e-04 -3.59087298e-03
      -1.99924252e-05 -1.94406288e-03 -1.42939226e-03 -5.67194307e-04
      -1.24135672e-03 -3.56953533e-04 1.15716793e-02 -3.95695604e-02
      1.28946025e-02 -3.33825522e-03 -1.09281950e-03 -5.60577959e-04
      -1.48677491e-02 8.15274019e-04 -3.64793441e-03 -9.54459101e-05
      -1.96128478e-03 -1.44717528e-03 -5.87301969e-04 -1.26658462e-03
      -3.92363727e-04 1.07235182e-02 -4.00403440e-02 1.26015050e-02
      -3.54997255e-03 -1.22542714e-03 -6.88195112e-04 -1.49571607e-02
      7.62157200e-04 -3.69877322e-03 -1.53638874e-04 -1.99792045e-03
      -1.46770745e-03 -6.06283429e-04 -1.28783204e-03 -4.18667914e-04
      9.98331606e-03 -4.04107049e-02 1.23408195e-02 -3.69791058e-03
      -1.33313541e-03 -8.02183116e-04 -1.50102600e-02 7.23116565e-04
      -3.74188880e-03 -2.03392789e-04 -2.01486214e-03 -1.48078846e-03
      -6.21627027e-04 -1.30554137e-03 -4.40211617e-04 9.56422370e-03
      -4.06067744e-02 1.21956589e-02 -3.75474035e-03 -1.39405287e-03
      -8.72658973e-04 -1.50126368e-02 7.02900928e-04 -3.76864569e-03
      -2.34976702e-04 -2.00261362e-03 -1.48542202e-03 -6.31020055e-04
      -1.31684274e-03 -4.53892164e-04 9.43443924e-03 -4.06811982e-02
      1.21067353e-02 -3.77977989e-03 -1.42369454e-03 -9.30831127e-04
      -1.50132263e-02 6.94660877e-04 -3.78813711e-03 -2.61264766e-04
      -1.99492672e-03 -1.48626929e-03 -6.37434016e-04 -1.32569333e-03
      -4.64737939e-04 9.52435192e-03 -4.06848788e-02 1.20405080e-02
      -3.81208630e-03 -1.43532641e-03 -9.87752574e-04 -1.50424642e-02
      6.91383146e-04 -3.80283897e-03 -2.86915660e-04 -2.01453594e-03
      -1.48810039e-03 -6.41562045e-04 -1.33282226e-03 -4.74882516e-04
      9.57502052e-03 -4.06880081e-02 1.19627444e-02 -3.82763566e-03
      -1.46308658e-03 -1.03685469e-03 -1.50560727e-02 6.81487436e-04
      -3.82073806e-03 -3.10386153e-04 -2.02399190e-03 -1.49163022e-03
      -6.47758134e-04 -1.34159753e-03 -4.83594136e-04 9.57711600e-03
      -4.06885408e-02 1.18743526e-02 -3.82008497e-03 -1.49387307e-03
      -1.07759284e-03 -1.50474245e-02 6.73942792e-04 -3.83621873e-03
      -3.27128480e-04 -2.01792270e-03 -1.49179995e-03 -6.52615621e-04
      -1.34817767e-03 -4.89238941e-04 9.25140921e-03 -4.09151725e-02
      1.16772903e-02 -3.92627530e-03 -1.57971971e-03 -1.14441384e-03
      -1.50892958e-02 6.42761122e-04 -3.86119774e-03 -3.47522146e-04
      -2.03295425e-03 -1.50113867e-03 -6.60479651e-04 -1.35525456e-03
      -4.95848362e-04 9.12307017e-03 -4.09971066e-02 1.15798432e-02
      -3.95760266e-03 -1.61449227e-03 -1.16977713e-03 -1.50977680e-02
      6.35071192e-04 -3.86829372e-03 -3.52912641e-04 -2.03428185e-03
      -1.50035077e-03 -6.61018479e-04 -1.35620404e-03 -4.97459550e-04
      9.31006763e-03 -4.08880822e-02 1.16201667e-02 -3.90828541e-03
      -1.58859207e-03 -1.14694890e-03 -1.50788929e-02 6.50168571e-04
      -3.85701004e-03 -3.43696214e-04 -2.02867319e-03 -1.49226084e-03
      -6.55295211e-04 -1.35185488e-03 -4.94644511e-04 9.40973219e-03
      -4.08531241e-02 1.15474928e-02 -3.91755113e-03 -1.60174200e-03
      -1.17286749e-03 -1.51006896e-02 6.46681350e-04 -3.86002194e-03
      -3.52094765e-04 -2.04817532e-03 -1.49477634e-03 -6.54884032e-04
      -1.35236979e-03 -4.97607281e-04 9.46531072e-03 -4.08161432e-02
      1.14286849e-02 -3.92215140e-03 -1.62496406e-03 -1.21345441e-03
      -1.51211051e-02 6.40687998e-04 -3.86645691e-03 -3.63730942e-04
      -2.06773309e-03 -1.49835960e-03 -6.55434793e-04 -1.35352614e-03
      -5.01316099e-04 1.01809995e-02 -4.03745919e-02 1.15257502e-02
      -3.71586788e-03 -1.54578383e-03 -1.18922337e-03 -1.50364526e-02
      6.81409030e-04 -3.84448515e-03 -3.61403450e-04 -2.03628791e-03
      -1.48059661e-03 -6.43619918e-04 -1.34887162e-03 -5.01584844e-04
      1.06912507e-02 -4.00327854e-02 1.15704304e-02 -3.54063511e-03
      -1.49883190e-03 -1.17405166e-03 -1.49564166e-02 7.08539097e-04
      -3.83106805e-03 -3.58522404e-04 -2.00237334e-03 -1.46750477e-03
      -6.36187033e-04 -1.34564214e-03 -5.01170114e-04 1.06724743e-02
      -4.00257222e-02 1.15212239e-02 -3.52619844e-03 -1.52450171e-03
      -1.17839861e-03 -1.49451233e-02 6.97971729e-04 -3.83696984e-03
      -3.58329271e-04 -1.99581799e-03 -1.47159165e-03 -6.39449689e-04
      -1.34703727e-03 -5.00862137e-04 1.04935272e-02 -4.01553288e-02
      1.15017677e-02 -3.59558361e-03 -1.55625446e-03 -1.17147411e-03
      -1.49779720e-02 6.76087977e-04 -3.84148653e-03 -3.52944742e-04
      -2.01039296e-03 -1.48396613e-03 -6.44049200e-04 -1.34702947e-03
      -4.98585403e-04 1.02218240e-02 -4.03487869e-02 1.15010859e-02
      -3.70232901e-03 -1.58845983e-03 -1.15520053e-03 -1.50310351e-02
      6.49753609e-04 -3.84348212e-03 -3.43420688e-04 -2.03514891e-03
      -1.50016462e-03 -6.48532819e-04 -1.34557323e-03 -4.94895270e-04
      1.01397261e-02 -4.04108204e-02 1.14340428e-02 -3.73783801e-03
      -1.62794895e-03 -1.18574966e-03 -1.50480056e-02 6.26404886e-04
      -3.85886873e-03 -3.53867246e-04 -2.04197224e-03 -1.51301245e-03
      -6.56913267e-04 -1.35038688e-03 -4.98239126e-04 9.99243464e-03
      -4.04507592e-02 1.13490112e-02 -3.73639097e-03 -1.66402396e-03
      -1.22475787e-03 -1.50381904e-02 6.10853080e-04 -3.87529796e-03
      -3.66153312e-04 -2.03332817e-03 -1.51984766e-03 -6.64264138e-04
      -1.35533721e-03 -5.02203242e-04 9.78949759e-03 -4.04596031e-02
      1.12764956e-02 -3.69804422e-03 -1.68090803e-03 -1.26997731e-03
      -1.50062200e-02 6.09763199e-04 -3.88959399e-03 -3.82609665e-04
      -2.01424304e-03 -1.51845487e-03 -6.68612018e-04 -1.36082224e-03
      -5.07476623e-04 9.49467812e-03 -4.05480862e-02 1.11756139e-02
      -3.70170106e-03 -1.72273431e-03 -1.31068064e-03 -1.49915898e-02
      5.95545047e-04 -3.90635943e-03 -3.95593233e-04 -2.00097519e-03
      -1.52269832e-03 -6.74962299e-04 -1.36623869e-03 -5.11095801e-04
      9.14181676e-03 -4.07110713e-02 1.10922446e-02 -3.74612305e-03
      -1.77562609e-03 -1.32705818e-03 -1.49926497e-02 5.72232588e-04
      -3.91930854e-03 -3.97361437e-04 -1.99185475e-03 -1.53131853e-03
      -6.81325037e-04 -1.36908540e-03 -5.10332233e-04 8.53506755e-03
      -4.11200821e-02 1.10269468e-02 -3.95632256e-03 -1.84298831e-03
      -1.32724247e-03 -1.50912758e-02 5.33813727e-04 -3.93029721e-03
      -3.92145128e-04 -2.03646836e-03 -1.55029795e-03 -6.88454777e-04
      -1.37065270e-03 -5.07563353e-04 7.94887543e-03 -4.14970852e-02
      1.09878853e-02 -4.13825456e-03 -1.89239928e-03 -1.31509209e-03
      -1.51702790e-02 5.07372082e-04 -3.93568678e-03 -3.82687256e-04
      -2.06905254e-03 -1.56194624e-03 -6.92447880e-04 -1.37069228e-03
      -5.03263145e-04 7.92871229e-03 -4.15218584e-02 1.11017395e-02
      -4.14215727e-03 -1.84503349e-03 -1.27927575e-03 -1.51622063e-02
      5.30292164e-04 -3.92016303e-03 -3.72606621e-04 -2.05828971e-03
      -1.54951401e-03 -6.85127277e-04 -1.36663986e-03 -5.00853348e-04
      7.80578842e-03 -4.16466184e-02 1.11607490e-02 -4.22463985e-03
      -1.82709552e-03 -1.25768443e-03 -1.52091030e-02 5.35385858e-04
      -3.91134573e-03 -3.65350279e-04 -2.08324846e-03 -1.54826103e-03
      -6.81521313e-04 -1.36374403e-03 -4.99170332e-04 7.56557845e-03
      -4.18440104e-02 1.11232242e-02 -4.35078889e-03 -1.85040256e-03
      -1.26963633e-03 -1.52829075e-02 5.21705311e-04 -3.91649920e-03
      -3.69872927e-04 -2.12485716e-03 -1.55614503e-03 -6.83979888e-04
      -1.36543775e-03 -5.00471389e-04 7.61525333e-03 -4.18919139e-02
      1.11407442e-02 -4.42329561e-03 -1.84313313e-03 -1.26600894e-03
      -1.53417625e-02 5.18601271e-04 -3.91275622e-03 -3.68361303e-04
      -2.16384418e-03 -1.56150747e-03 -6.83221442e-04 -1.36398093e-03
      -5.00163820e-04 7.62063498e-03 -4.19630185e-02 1.11373719e-02
      -4.50400962e-03 -1.84681476e-03 -1.26214849e-03 -1.54013960e-02
      5.11030841e-04 -3.91035248e-03 -3.63422034e-04 -2.20082374e-03
      -1.56824535e-03 -6.83391991e-04 -1.36160129e-03 -4.98583890e-04
      7.66262366e-03 -4.20075618e-02 1.12155322e-02 -4.56205942e-03
      -1.82213087e-03 -1.23329787e-03 -1.54444668e-02 5.16369299e-04
      -3.89861874e-03 -3.53707932e-04 -2.22718506e-03 -1.56833767e-03
      -6.79375953e-04 -1.35728403e-03 -4.96011344e-04 7.78547814e-03
      -4.19640169e-02 1.13305803e-02 -4.55657812e-03 -1.77321327e-03
      -1.19087740e-03 -1.54494662e-02 5.36607462e-04 -3.87964770e-03
      -3.41019477e-04 -2.23285449e-03 -1.56010059e-03 -6.71363377e-04
      -1.35137513e-03 -4.92774299e-04 7.83872418e-03 -4.19804230e-02
      1.13800205e-02 -4.58335504e-03 -1.76532846e-03 -1.16368046e-03
      -1.54691273e-02 5.36534470e-04 -3.87340900e-03 -3.31984978e-04
      -2.24463572e-03 -1.56112318e-03 -6.69908826e-04 -1.34921505e-03
      -4.89774742e-04 8.21196847e-03 -4.17709835e-02 1.14558190e-02
      -4.48763883e-03 -1.72877731e-03 -1.14379928e-03 -1.54276686e-02
      5.53172606e-04 -3.86582501e-03 -3.26145120e-04 -2.22690194e-03
      -1.55363022e-03 -6.66768989e-04 -1.34751922e-03 -4.88221558e-04
      8.56691319e-03 -4.15431783e-02 1.15027176e-02 -4.37125657e-03
      -1.69914903e-03 -1.13465858e-03 -1.53722102e-02 5.68853400e-04
      -3.86150903e-03 -3.22645414e-04 -2.20105122e-03 -1.54593086e-03
      -6.64600171e-04 -1.34648941e-03 -4.87454614e-04 8.85643065e-03
      -4.13392745e-02 1.14661111e-02 -4.26310627e-03 -1.69440662e-03
      -1.15944201e-03 -1.53196696e-02 5.76344493e-04 -3.86673515e-03
      -3.30860057e-04 -2.17606733e-03 -1.54132175e-03 -6.65483240e-04
      -1.34861073e-03 -4.90430859e-04 8.92722700e-03 -4.12242524e-02
      1.13824932e-02 -4.17588092e-03 -1.70731754e-03 -1.19903067e-03
      -1.52653540e-02 5.79378509e-04 -3.87640181e-03 -3.43770284e-04
      -2.14481191e-03 -1.53674081e-03 -6.67485874e-04 -1.35206466e-03
      -4.94794862e-04 8.88175331e-03 -4.12316322e-02 1.13533773e-02
      -4.16846573e-03 -1.72021682e-03 -1.21394673e-03 -1.52558172e-02
      5.74411300e-04 -3.88209661e-03 -3.50730377e-04 -2.13725818e-03
      -1.53823942e-03 -6.69814646e-04 -1.35473802e-03 -4.96849301e-04
      8.81858170e-03 -4.12503779e-02 1.12373941e-02 -4.16604010e-03
      -1.76499225e-03 -1.26470020e-03 -1.52487308e-02 5.57854481e-04
      -3.90168489e-03 -3.68605106e-04 -2.13121157e-03 -1.54404482e-03
      -6.77436183e-04 -1.36185938e-03 -5.02329785e-04 8.74617510e-03
      -4.13034596e-02 1.11625418e-02 -4.19146055e-03 -1.80803239e-03
      -1.29834434e-03 -1.52594596e-02 5.37890999e-04 -3.92052252e-03
      -3.78443714e-04 -2.13571894e-03 -1.55257958e-03 -6.86036481e-04
      -1.36792916e-03 -5.04956755e-04 8.71116016e-03 -4.12963778e-02
      1.11231375e-02 -4.16671438e-03 -1.82963675e-03 -1.31287670e-03
      -1.52372140e-02 5.30942867e-04 -3.93058546e-03 -3.80642770e-04
      -2.12093652e-03 -1.55371299e-03 -6.90360030e-04 -1.37087330e-03
      -5.05039352e-04 8.55154172e-03 -4.13163826e-02 1.11273322e-02
      -4.12508007e-03 -1.83279824e-03 -1.30330655e-03 -1.51905362e-02
      5.35591214e-04 -3.93058639e-03 -3.74233816e-04 -2.08653370e-03
      -1.54720340e-03 -6.89821725e-04 -1.37046922e-03 -5.02361974e-04
      8.22445657e-03 -4.14508246e-02 1.11340964e-02 -4.14415682e-03
      -1.83472433e-03 -1.28901412e-03 -1.51721286e-02 5.40176756e-04
      -3.92623898e-03 -3.68783163e-04 -2.06369488e-03 -1.54087762e-03
      -6.87044172e-04 -1.36898819e-03 -5.00228140e-04 7.66339200e-03
      -4.17626351e-02 1.10724075e-02 -4.27412288e-03 -1.87468634e-03
      -1.28464587e-03 -1.52179850e-02 5.23165741e-04 -3.92804621e-03
      -3.62762046e-04 -2.07641535e-03 -1.54681131e-03 -6.88208907e-04
      -1.36761146e-03 -4.97413042e-04 7.15188403e-03 -4.20926586e-02
      1.10125439e-02 -4.44825971e-03 -1.92044384e-03 -1.29371334e-03
      -1.53032364e-02 4.96819324e-04 -3.93564533e-03 -3.62791441e-04
      -2.11637630e-03 -1.56053668e-03 -6.92927511e-04 -1.36854162e-03
      -4.96864028e-04 6.69910107e-03 -4.24062870e-02 1.09630730e-02
      -4.63803392e-03 -1.96434394e-03 -1.30109244e-03 -1.54139325e-02
      4.66820522e-04 -3.94216925e-03 -3.62894323e-04 -2.17996375e-03
      -1.57936069e-03 -6.97778654e-04 -1.36908900e-03 -4.96907101e-04
      6.43983157e-03 -4.25932147e-02 1.10037103e-02 -4.75747045e-03
      -1.96443847e-03 -1.27799157e-03 -1.54873114e-02 4.58730559e-04
      -3.93372355e-03 -3.54600663e-04 -2.22384534e-03 -1.58713281e-03
      -6.95208437e-04 -1.36562320e-03 -4.94771812e-04 6.03802223e-03
      -4.28953879e-02 1.10620977e-02 -4.93674353e-03 -1.97654474e-03
      -1.23541127e-03 -1.55853853e-02 4.40663163e-04 -3.92414350e-03
      -3.38103680e-04 -2.27568811e-03 -1.59988529e-03 -6.94081187e-04
      -1.36089872e-03 -4.89303784e-04 5.67570189e-03 -4.32043485e-02
      1.11245774e-02 -5.12889773e-03 -1.98513852e-03 -1.18784560e-03
      -1.56912971e-02 4.23182617e-04 -3.91264353e-03 -3.19916813e-04
      -2.33070482e-03 -1.61284534e-03 -6.92840025e-04 -1.35521451e-03
      -4.83302079e-04 5.91873657e-03 -4.31572720e-02 1.12951482e-02
      -5.14515815e-03 -1.93313137e-03 -1.10705674e-03 -1.57140046e-02
      4.35843249e-04 -3.88622982e-03 -2.89266871e-04 -2.34664977e-03
      -1.61125744e-03 -6.84791827e-04 -1.34484959e-03 -4.73073189e-04
      6.42356230e-03 -4.29110713e-02 1.14795994e-02 -5.04949503e-03
      -1.85802754e-03 -1.02210033e-03 -1.56798661e-02 4.64405864e-04
      -3.85526824e-03 -2.55843304e-04 -2.33495818e-03 -1.60058495e-03
      -6.73645467e-04 -1.33300875e-03 -4.61794465e-04 6.81476388e-03
      -4.27045114e-02 1.15249185e-02 -4.96707950e-03 -1.82448968e-03
      -1.02842785e-03 -1.56504810e-02 4.79125243e-04 -3.85078997e-03
      -2.60543107e-04 -2.32496369e-03 -1.59503205e-03 -6.71165355e-04
      -1.33200688e-03 -4.64958546e-04 7.36161880e-03 -4.23422493e-02
      1.15912966e-02 -4.78272093e-03 -1.76553044e-03 -1.02428824e-03
      -1.55640161e-02 5.11211692e-04 -3.83947254e-03 -2.59930093e-04
      -2.28537200e-03 -1.57957047e-03 -6.64582651e-04 -1.32866646e-03
      -4.65588295e-04 8.09023157e-03 -4.18632738e-02 1.17181493e-02
      -4.53173695e-03 -1.67209678e-03 -9.89456894e-04 -1.54397376e-02
      5.60375222e-04 -3.81444208e-03 -2.49696226e-04 -2.22445675e-03
      -1.55575341e-03 -6.51849841e-04 -1.32154126e-03 -4.61815274e-04
      8.58942978e-03 -4.15173098e-02 1.18371099e-02 -4.33556782e-03
      -1.59683975e-03 -9.49079171e-04 -1.53344804e-02 6.01450622e-04
      -3.79316485e-03 -2.34184248e-04 -2.16918206e-03 -1.53436814e-03
      -6.41170947e-04 -1.31473644e-03 -4.55962057e-04 8.85852985e-03
      -4.13094498e-02 1.19441301e-02 -4.20050137e-03 -1.54201046e-03
      -9.06743924e-04 -1.52529702e-02 6.32079376e-04 -3.77688790e-03
      -2.13957144e-04 -2.12238659e-03 -1.51713367e-03 -6.33450050e-04
      -1.30847201e-03 -4.48094681e-04 9.09115095e-03 -4.11494002e-02
      1.19758509e-02 -4.10309900e-03 -1.52688636e-03 -9.02622007e-04
      -1.51955709e-02 6.41261751e-04 -3.77682270e-03 -2.10738493e-04
      -2.08941544e-03 -1.51110825e-03 -6.33223448e-04 -1.30872545e-03
      -4.45661804e-04 9.31018312e-03 -4.09743898e-02 1.19750742e-02
      -3.98971466e-03 -1.52014778e-03 -9.09016991e-04 -1.51286097e-02
      6.49898662e-04 -3.78079154e-03 -2.09417485e-04 -2.05202494e-03
      -1.50406430e-03 -6.34234399e-04 -1.30990776e-03 -4.43289406e-04
      9.43936035e-03 -4.08700332e-02 1.19829206e-02 -3.92754236e-03
      -1.52119191e-03 -9.09162511e-04 -1.50967846e-02 6.50394941e-04
      -3.78666166e-03 -2.03835720e-04 -2.03740667e-03 -1.50290562e-03
      -6.37810619e-04 -1.31102407e-03 -4.39051219e-04 9.44753736e-03
      -4.08074297e-02 1.19736223e-02 -3.87405069e-03 -1.52719812e-03
      -9.11017123e-04 -1.50650563e-02 6.50575152e-04 -3.79282911e-03
      -1.98089532e-04 -2.02161004e-03 -1.50122773e-03 -6.41060178e-04
      -1.31208566e-03 -4.33907524e-04 9.32698045e-03 -4.07778807e-02
      1.19736912e-02 -3.81876179e-03 -1.52511091e-03 -9.03031323e-04
      -1.50240855e-02 6.56643126e-04 -3.79394740e-03 -1.88772581e-04
      -1.99723453e-03 -1.49581872e-03 -6.41571998e-04 -1.31168915e-03
      -4.26467392e-04 8.66637845e-03 -4.11665477e-02 1.19132875e-02
      -4.01304523e-03 -1.59499992e-03 -8.97524704e-04 -1.51184099e-02
      6.16326579e-04 -3.80771677e-03 -1.74084940e-04 -2.04301346e-03
      -1.51628372e-03 -6.50955073e-04 -1.31279218e-03 -4.15671268e-04
      7.76548311e-03 -4.17206660e-02 1.18213054e-02 -4.29980550e-03
      -1.69332500e-03 -8.93408316e-04 -1.52617740e-02 5.59754961e-04
      -3.82638350e-03 -1.56119786e-04 -2.11451156e-03 -1.54531118e-03
      -6.63349347e-04 -1.31418242e-03 -4.02794074e-04 7.18989456e-03
      -4.20790762e-02 1.18390489e-02 -4.48062550e-03 -1.73410890e-03
      -8.49138363e-04 -1.53502850e-02 5.31089900e-04 -3.82686453e-03
      -1.26532919e-04 -2.15854659e-03 -1.56092376e-03 -6.67795364e-04
      -1.31031754e-03 -3.84228886e-04 6.68548234e-03 -4.23923507e-02
      1.18823340e-02 -4.63531213e-03 -1.76103634e-03 -7.86962919e-04
      -1.54239843e-02 5.10594342e-04 -3.82069801e-03 -8.64136018e-05
      -2.19429354e-03 -1.57182815e-03 -6.69233967e-04 -1.30323763e-03
      -3.60441394e-04 6.32311497e-03 -4.26978655e-02 1.20338676e-02
      -4.81789233e-03 -1.75425259e-03 -6.78208540e-04 -1.55213717e-02
      4.97399888e-04 -3.79854348e-03 -2.59153476e-05 -2.24372675e-03
      -1.58245477e-03 -6.65720727e-04 -1.28983974e-03 -3.27519228e-04
      5.95393497e-03 -4.30297442e-02 1.22289835e-02 -5.02903201e-03
      -1.72767695e-03 -5.43185743e-04 -1.56399962e-02 4.90110076e-04
      -3.76438466e-03 4.68554899e-05 -2.30650627e-03 -1.59224344e-03
      -6.57699653e-04 -1.27085333e-03 -2.88227893e-04 5.59748197e-03
      -4.33450788e-02 1.24293631e-02 -5.22985496e-03 -1.69323909e-03
      -3.94103146e-04 -1.57531369e-02 4.86959209e-04 -3.72333219e-03
      1.30229513e-04 -2.36650393e-03 -1.60019565e-03 -6.46983332e-04
      -1.24724803e-03 -2.41963295e-04 5.22913923e-03 -4.36721370e-02
      1.26556298e-02 -5.43470448e-03 -1.65378710e-03 -2.58901302e-04
      -1.58650614e-02 4.84226737e-04 -3.68645298e-03 1.89331899e-04
      -2.42359261e-03 -1.60827651e-03 -6.37564517e-04 -1.23039482e-03
      -2.16145490e-04 4.86594159e-03 -4.39653620e-02 1.28795048e-02
      -5.60722128e-03 -1.61579589e-03 -1.24226222e-04 -1.59546491e-02
      4.82823059e-04 -3.65166459e-03 2.48234166e-04 -2.46730051e-03
      -1.61438750e-03 -6.29185524e-04 -1.21421006e-03 -1.91921587e-04
      4.49757092e-03 -4.42365296e-02 1.31799337e-02 -5.75788459e-03
      -1.55511673e-03 4.23004385e-05 -1.60292536e-02 4.88630554e-04
      -3.60814948e-03 3.21505620e-04 -2.50200229e-03 -1.61799905e-03
      -6.18517108e-04 -1.19436486e-03 -1.58388488e-04 4.07751463e-03
      -4.45243344e-02 1.35378903e-02 -5.91075746e-03 -1.47807423e-03
      2.38058303e-04 -1.61025766e-02 5.00229711e-04 -3.55782383e-03
      4.11641493e-04 -2.53519905e-03 -1.61923305e-03 -6.06146525e-04
      -1.17029867e-03 -1.16801879e-04 3.59730190e-03 -4.48448509e-02
      1.39896451e-02 -6.07769983e-03 -1.37461780e-03 4.81117488e-04
      -1.61812194e-02 5.19830442e-04 -3.49529926e-03 5.27552969e-04
      -2.57014646e-03 -1.61778426e-03 -5.90588548e-04 -1.13936397e-03
      -6.25032844e-05 3.10983323e-03 -4.51349467e-02 1.44481901e-02
      -6.21714303e-03 -1.26814260e-03 7.61589850e-04 -1.62434466e-02
      5.43576665e-04 -3.42292315e-03 6.67003158e-04 -2.59684818e-03
      -1.61314744e-03 -5.71539276e-04 -1.10255019e-03 4.99028101e-06
      2.62393337e-03 -4.53818068e-02 1.48788020e-02 -6.31833728e-03
      -1.17110054e-03 1.05257740e-03 -1.62822474e-02 5.67217416e-04
      -3.35049909e-03 8.21171328e-04 -2.61128554e-03 -1.60674436e-03
      -5.52422309e-04 -1.06336677e-03 8.28164266e-05 1.93242216e-03
      -4.57604080e-02 1.52905686e-02 -6.47909241e-03 -1.11276715e-03
      1.37048971e-03 -1.63441245e-02 5.69452008e-04 -3.28458217e-03
      9.97604686e-04 -2.63379491e-03 -1.60980376e-03 -5.39083907e-04
      -1.02435937e-03 1.73149165e-04 1.13025552e-03 -4.61737402e-02
      1.56738926e-02 -6.63983542e-03 -1.06962165e-03 1.70392089e-03
      -1.63988229e-02 5.68623305e-04 -3.21919261e-03 1.19396101e-03
      -2.65043695e-03 -1.61197025e-03 -5.26436081e-04 -9.82476980e-04
      2.78101332e-04 1.93485554e-04 -4.66370322e-02 1.60506275e-02
      -6.81064278e-03 -1.03151530e-03 2.04861630e-03 -1.64521374e-02
      5.66933129e-04 -3.15226009e-03 1.40216690e-03 -2.66398001e-03
      -1.61365326e-03 -5.13380219e-04 -9.38586134e-04 3.92149930e-04
      -7.02275080e-04 -4.71196845e-02 1.64024234e-02 -7.01029645e-03
      -1.01038977e-03 2.39493721e-03 -1.65263526e-02 5.53597929e-04
      -3.08847195e-03 1.62266975e-03 -2.68977485e-03 -1.62235764e-03
      -5.03022282e-04 -8.92884622e-04 5.17891021e-04 -1.54409907e-03
      -4.76082526e-02 1.67149138e-02 -7.22738216e-03 -1.00973609e-03
      2.72542099e-03 -1.66144911e-02 5.29068289e-04 -3.03253904e-03
      1.84433453e-03 -2.72443704e-03 -1.63698848e-03 -4.96599998e-04
      -8.48251337e-04 6.50082016e-04 -2.46728747e-03 -4.81300168e-02
      1.69901662e-02 -7.44999852e-03 -1.02753285e-03 3.04869073e-03
      -1.67003311e-02 4.98403213e-04 -2.98052724e-03 2.07009003e-03
      -2.75618793e-03 -1.65312702e-03 -4.91463928e-04 -8.03258445e-04
      7.88240402e-04 -3.34264152e-03 -4.86205965e-02 1.72579307e-02
      -7.65871815e-03 -1.04515289e-03 3.36952438e-03 -1.67811289e-02
      4.68865357e-04 -2.92976899e-03 2.30201986e-03 -2.78640701e-03
      -1.66861247e-03 -4.86752397e-04 -7.56768452e-04 9.33197385e-04
      -4.07008454e-03 -4.90524471e-02 1.76349375e-02 -7.85416085e-03
      -1.01563078e-03 3.72462184e-03 -1.68614164e-02 4.54965921e-04
      -2.86165182e-03 2.53284979e-03 -2.81797466e-03 -1.67964632e-03
      -4.75674053e-04 -7.06502702e-04 1.07054703e-03 -4.87126084e-03
      -4.95147072e-02 1.79485157e-02 -8.06336012e-03 -1.00660324e-03
      4.04407084e-03 -1.69491470e-02 4.34107642e-04 -2.80285557e-03
      2.73931073e-03 -2.85376329e-03 -1.69344607e-03 -4.66972037e-04
      -6.63200975e-04 1.19193771e-03 -5.56979887e-03 -4.99260202e-02
      1.83088500e-02 -8.25482607e-03 -9.75744100e-04 4.39119525e-03
      -1.70321204e-02 4.20772878e-04 -2.73271394e-03 2.96585774e-03
      -2.88885552e-03 -1.70499319e-03 -4.54817346e-04 -6.11981261e-04
      1.32568402e-03 -6.30522659e-03 -5.03480323e-02 1.86534896e-02
      -8.44710972e-03 -9.55200812e-04 4.74762125e-03 -1.71139315e-02
      4.03872429e-04 -2.66559841e-03 3.21081188e-03 -2.92290631e-03
      -1.71749864e-03 -4.44515579e-04 -5.58876491e-04 1.47376629e-03
      -7.05926353e-03 -5.07535152e-02 1.89735927e-02 -8.62203632e-03
      -9.41285747e-04 5.10747824e-03 -1.71851497e-02 3.87461332e-04
      -2.60051130e-03 3.46869347e-03 -2.95156986e-03 -1.72859454e-03
      -4.34610120e-04 -5.04939468e-04 1.63360569e-03 -7.52390455e-03
      -5.10020033e-02 1.94204915e-02 -8.72941315e-03 -8.71228578e-04
      5.53555880e-03 -1.72285158e-02 3.92095360e-04 -2.50840466e-03
      3.75854643e-03 -2.96850805e-03 -1.73215079e-03 -4.15283750e-04
      -4.39462980e-04 1.81066664e-03 -7.80405896e-03 -5.11548407e-02
      1.99547876e-02 -8.79736245e-03 -7.61384668e-04 6.02117926e-03
      -1.72568727e-02 4.12142253e-04 -2.39419006e-03 4.08654055e-03
      -2.97997822e-03 -1.73000433e-03 -3.88210290e-04 -3.60951817e-04
      2.01240880e-03 -7.95469061e-03 -5.12448847e-02 2.05744281e-02
      -8.84213205e-03 -6.18717168e-04 6.57608919e-03 -1.72774736e-02
      4.43060737e-04 -2.25789449e-03 4.46336716e-03 -2.98899226e-03
      -1.72451069e-03 -3.54514457e-04 -2.67617928e-04 2.24754191e-03
      -8.12201761e-03 -5.13296127e-02 2.11384818e-02 -8.87804665e-03
      -4.89091850e-04 7.10404944e-03 -1.72920525e-02 4.72470711e-04
      -2.12872936e-03 4.83047590e-03 -2.99475784e-03 -1.71840726e-03
      -3.22167674e-04 -1.76990754e-04 2.48008873e-03 -8.40628427e-03
      -5.14614843e-02 2.15779524e-02 -8.92704353e-03 -3.99807876e-04
      7.55621493e-03 -1.73092000e-02 4.90494189e-04 -2.02304870e-03
      5.15791262e-03 -3.00065218e-03 -1.71509210e-03 -2.96525192e-04
      -9.83752034e-05 2.69243564e-03 -8.64044670e-03 -5.15608154e-02
      2.20112242e-02 -8.96119047e-03 -3.03948211e-04 8.00448935e-03
      -1.73205771e-02 5.13164036e-04 -1.91464799e-03 5.48735633e-03
      -3.00456164e-03 -1.70947297e-03 -2.68981647e-04 -1.71711436e-05
      2.91031366e-03 -8.79815500e-03 -5.16150035e-02 2.24534981e-02
      -8.97556636e-03 -1.97495974e-04 8.46380275e-03 -1.73242502e-02
      5.41456102e-04 -1.80029345e-03 5.83137851e-03 -3.00565013e-03
      -1.70147512e-03 -2.38588691e-04 6.87352440e-05 3.14340158e-03
      -8.72290507e-03 -5.15783988e-02 2.28842776e-02 -8.96263868e-03
      -8.11779100e-05 8.85032397e-03 -1.73201989e-02 5.73578698e-04
      -1.70074403e-03 6.10914081e-03 -3.00443824e-03 -1.69245154e-03
      -2.12247847e-04 1.39388139e-04 3.32456292e-03 -8.63697380e-03
      -5.15357591e-02 2.32812725e-02 -8.94698780e-03 2.91883462e-05
      9.20754299e-03 -1.73151903e-02 6.05263980e-04 -1.60765543e-03
      6.36905059e-03 -3.00302985e-03 -1.68305030e-03 -1.87288068e-04
      2.06148994e-04 3.49517330e-03 -8.56946595e-03 -5.14994003e-02
      2.36308444e-02 -8.93191900e-03 1.24898594e-04 9.53993760e-03
      -1.73093714e-02 6.32253941e-04 -1.52105500e-03 6.61591766e-03
      -3.00077163e-03 -1.67524698e-03 -1.64004523e-04 2.69227981e-04
      3.66186420e-03 -8.46676622e-03 -5.14446460e-02 2.39931736e-02
      -8.90995003e-03 2.31740487e-04 9.88531113e-03 -1.73015483e-02
      6.64455816e-04 -1.42655475e-03 6.87726960e-03 -2.99821282e-03
      -1.66532607e-03 -1.37463241e-04 3.38840764e-04 3.84199060e-03
      -8.37417040e-03 -5.13869300e-02 2.43438464e-02 -8.88369046e-03
      3.36804194e-04 1.02295224e-02 -1.72907934e-02 6.96830743e-04
      -1.33108685e-03 7.14294519e-03 -2.99393572e-03 -1.65520725e-03
      -1.09989625e-04 4.10043867e-04 4.02924931e-03 -8.32888950e-03
      -5.13551943e-02 2.45751701e-02 -8.86896718e-03 4.03870421e-04
      1.04648275e-02 -1.72848571e-02 7.16932351e-04 -1.26749161e-03
      7.33034872e-03 -2.99165561e-03 -1.64908310e-03 -9.20837556e-05
      4.59107512e-04 4.16504359e-03 -8.34136363e-03 -5.13460524e-02
      2.47301776e-02 -8.86208937e-03 4.48284147e-04 1.06393239e-02
      -1.72819085e-02 7.31008127e-04 -1.22148567e-03 7.47734495e-03
      -2.99072312e-03 -1.64442696e-03 -7.89475889e-05 4.96796623e-04
      4.27615317e-03 -8.29359610e-03 -5.13136834e-02 2.48815473e-02
      -8.84729717e-03 4.95716347e-04 1.07967928e-02 -1.72760114e-02
      7.46137113e-04 -1.17654202e-03 7.60614127e-03 -2.98847607e-03
      -1.63967838e-03 -6.55545373e-05 5.31985250e-04 4.37195925e-03
      -8.23625363e-03 -5.12799993e-02 2.50325799e-02 -8.83297995e-03
      5.42818801e-04 1.09511074e-02 -1.72706526e-02 7.61060917e-04
      -1.13292306e-03 7.73389358e-03 -2.98661878e-03 -1.63496798e-03
      -5.27311495e-05 5.66616014e-04 4.46745381e-03 -8.21381155e-03
      -5.12741469e-02 2.51388792e-02 -8.83202348e-03 5.69623138e-04
      1.10614756e-02 -1.72702931e-02 7.67484657e-04 -1.10629061e-03
      7.82347657e-03 -2.98618316e-03 -1.63354015e-03 -4.63820252e-05
      5.87987364e-04 4.53423755e-03 -8.15405510e-03 -5.12449145e-02
      2.52818801e-02 -8.82051419e-03 6.12118922e-04 1.12028504e-02
      -1.72659177e-02 7.80269154e-04 -1.06797472e-03 7.93640781e-03
      -2.98446370e-03 -1.62963220e-03 -3.56598466e-05 6.17361744e-04
      4.61716158e-03 -8.07083957e-03 -5.11997119e-02 2.54440997e-02
      -8.80138110e-03 6.64094579e-04 1.13621065e-02 -1.72585715e-02
      7.97321205e-04 -1.02221081e-03 8.06470867e-03 -2.98183481e-03
      -1.62392901e-03 -2.19135691e-05 6.52229355e-04 4.71189292e-03
      -8.01162329e-03 -5.11651188e-02 2.55570672e-02 -8.78673512e-03
      7.03146798e-04 1.14692319e-02 -1.72531754e-02 8.10656522e-04
      -9.89328022e-04 8.14983156e-03 -2.98006437e-03 -1.61937473e-03
      -1.15908761e-05 6.76691299e-04 4.77420632e-03 -7.97264278e-03
      -5.11386320e-02 2.56478619e-02 -8.77551176e-03 7.37188617e-04
      1.15584144e-02 -1.72496196e-02 8.23220937e-04 -9.60612902e-04
      8.22354201e-03 -2.97942967e-03 -1.61475851e-03 -2.18658897e-06
      6.98878313e-04 4.82927496e-03 -8.02376028e-03 -5.11682555e-02
      2.56272797e-02 -8.78961012e-03 7.26060010e-04 1.15534198e-02
      -1.72561035e-02 8.18410655e-04 -9.64477425e-04 8.22476577e-03
      -2.98245950e-03 -1.61667075e-03 -4.17146111e-06 6.98355143e-04
      4.83264821e-03 -8.06561299e-03 -5.11919335e-02 2.56266519e-02
      -8.80175643e-03 7.23470410e-04 1.15619292e-02 -1.72626060e-02
      8.17467459e-04 -9.64058738e-04 8.23708437e-03 -2.98612379e-03
      -1.61679438e-03 -4.59875855e-06 7.01042823e-04 4.84296074e-03
      -8.09140597e-03 -5.12083285e-02 2.56550871e-02 -8.81198607e-03
      7.31037988e-04 1.15903979e-02 -1.72692388e-02 8.20469228e-04
      -9.58349206e-04 8.26468039e-03 -2.99046095e-03 -1.61523093e-03
      -3.43616307e-06 7.07483327e-04 4.86265682e-03 -8.11385270e-03
      -5.12252823e-02 2.56808233e-02 -8.82210303e-03 7.34343659e-04
      1.16229728e-02 -1.72752980e-02 8.20980058e-04 -9.52939503e-04
      8.29603150e-03 -2.99422676e-03 -1.61488564e-03 -2.74708282e-06
      7.13900721e-04 4.88583650e-03</data></learnt_thetas>
  <n_labels type_id="opencv-matrix">
    <rows>2</rows>
    <cols>1</cols>
    <dt>i</dt>
    <data>
      0 1</data></n_labels>
  <o_labels type_id="opencv-matrix">
    <rows>2</rows>
    <cols>1</cols>
    <dt>i</dt>
    <data>
      0 1</data></o_labels></opencv_ml_lr>
</opencv_storage>
