<?xml version="1.0"?>
<opencv_storage>
<opencv_ml_lr>
  <format>3</format>
  <classifier>"Logisitic Regression Classifier"</classifier>
  <alpha>10000.</alpha>
  <iterations>100</iterations>
  <norm>1</norm>
  <train_method>0</train_method>
  <learnt_thetas type_id="opencv-matrix">
    <rows>1</rows>
    <cols>2550</cols>
    <dt>f</dt>
    <data>
      -1.06343341e+00 1.33189753e-01 1.31063953e-01 1.40745193e-01
      8.77903774e-02 7.29812384e-02 8.47866833e-02 7.24933445e-02
      2.75888182e-02 9.26804822e-03 2.43501607e-02 6.32356629e-02
      8.47061574e-02 3.21378820e-02 3.09806839e-02 4.29835916e-02
      -3.69945890e-03 -1.54073369e-02 -4.77892440e-03 1.94567647e-02
      2.67565530e-02 3.04369964e-02 6.51333705e-02 3.78544107e-02
      1.56984106e-02 -2.27321275e-02 -2.92319315e-03 9.92564578e-03
      -1.54733984e-03 2.16085017e-02 2.60161217e-02 3.17228325e-02
      2.00835392e-02 3.51187289e-02 7.69254044e-02 7.42705539e-02
      6.08245730e-02 4.31496873e-02 5.67619875e-02 5.33665121e-02
      3.32264267e-02 3.19493786e-02 5.36079668e-02 8.86571780e-02
      8.03739205e-02 7.12887347e-02 6.81051761e-02 8.13731924e-02
      1.24087624e-01 1.07131511e-01 1.16845079e-01 1.21373385e-01
      1.05409063e-01 8.91646221e-02 8.34273696e-02 9.86704901e-02
      9.83509570e-02 1.00311033e-01 9.17619392e-02 9.27080140e-02
      1.04614884e-01 7.52450451e-02 7.65132755e-02 4.30180021e-02
      3.54588553e-02 7.45288134e-02 5.19128256e-02 5.49015887e-02
      2.24681273e-02 1.53508447e-02 3.70582044e-02 2.57583931e-02
      3.31300795e-02 2.73795761e-02 3.82716432e-02 1.81902219e-02
      4.86312481e-03 1.65888444e-02 2.25160178e-02 4.08905111e-02
      3.30970436e-02 4.95841727e-02 5.11585698e-02 5.94039373e-02
      4.40635197e-02 5.62597699e-02 1.13044061e-01 5.97687848e-02
      5.64889386e-02 7.38094524e-02 6.74022958e-02 7.91003704e-02
      5.18369041e-02 7.94934854e-02 1.03270620e-01 1.22810505e-01
      7.67545253e-02 8.65407065e-02 1.17247194e-01 7.86542296e-02
      7.98604339e-02 8.06220844e-02 6.69567287e-02 9.97436792e-02
      1.00791328e-01 1.14935800e-01 9.05574635e-02 9.38271731e-02
      7.57715851e-02 4.56344821e-02 3.10159270e-02 5.09908646e-02
      6.74902350e-02 3.50091085e-02 2.64325626e-02 4.05695587e-02
      3.32453251e-02 2.61599440e-02 3.05611249e-02 4.78136130e-02
      3.19613889e-02 7.05240108e-03 3.38097997e-02 2.69181598e-02
      2.20186356e-02 -5.93392702e-04 1.19559877e-02 3.30332890e-02
      7.27615273e-03 4.31424845e-03 -5.26643358e-03 2.51174811e-03
      -2.36642707e-04 -1.47945341e-02 -7.93866906e-03 9.41358134e-03
      2.97525171e-02 -1.46184340e-02 -8.80629476e-03 1.23546897e-02
      -3.61091050e-04 -1.23306504e-02 -3.71824461e-03 2.97776181e-02
      4.58215661e-02 4.37814444e-02 2.45983619e-02 2.23485976e-02
      5.81683405e-02 4.32432108e-02 1.31738782e-01 1.12261847e-01
      9.52182338e-02 6.73245639e-02 6.59880638e-02 4.03728150e-02
      3.26577015e-02 5.04158586e-02 3.46543342e-02 3.82163376e-02
      4.67372201e-02 6.89945891e-02 3.75550687e-02 3.55700403e-02
      4.65606637e-02 3.79738808e-02 5.53887635e-02 4.90684547e-02
      5.10922223e-02 5.06456569e-02 8.45620781e-02 1.05341792e-01
      9.92595479e-02 9.31046084e-02 7.45797455e-02 6.96062222e-02
      6.15328327e-02 6.78273812e-02 8.60784426e-02 7.94162229e-02
      7.63089955e-02 7.12525696e-02 7.17382282e-02 7.48354122e-02
      5.50512336e-02 5.65297827e-02 2.59130634e-02 3.85823138e-02
      7.13364109e-02 5.54960258e-02 6.88782632e-02 7.39664212e-02
      9.24390405e-02 7.29717314e-02 6.90647960e-02 8.55180174e-02
      8.96612406e-02 1.21129543e-01 7.51917437e-02 7.71365687e-02
      1.34962881e-02 2.60094963e-02 1.02983192e-01 7.89702907e-02
      8.09376612e-02 7.34157413e-02 7.90906250e-02 5.00822291e-02
      6.59468696e-02 9.20511484e-02 7.60607049e-02 9.00108442e-02
      5.08193299e-02 4.46207076e-02 8.90780166e-02 6.88248202e-02
      7.13510439e-02 7.97512010e-02 8.27126279e-02 5.85730262e-02
      5.37906177e-02 7.47219846e-02 5.83164468e-02 6.94078058e-02
      6.96919933e-02 8.50997120e-02 9.94367376e-02 7.37332925e-02
      8.39078054e-02 6.98322728e-02 1.11477688e-01 7.11747035e-02
      5.79871647e-02 5.27042784e-02 3.72467265e-02 6.12262972e-02
      2.62521189e-02 2.27747969e-02 4.12222892e-02 2.82132886e-02
      5.77567704e-02 3.30532938e-02 3.12173329e-02 -9.24543198e-03
      -1.48775857e-02 5.17741684e-03 6.71208696e-03 2.91145965e-02
      -6.06798276e-04 -3.26215639e-03 2.34155152e-02 1.95175726e-02
      6.01750724e-02 7.43375123e-02 9.29410011e-02 3.55434418e-02
      3.25374044e-02 4.53914180e-02 5.26422895e-02 9.27463993e-02
      1.24141768e-01 1.40716970e-01 1.29081115e-01 1.32827520e-01
      1.61283001e-01 1.56625167e-01 1.60554498e-01 1.81357101e-01
      1.89304739e-01 1.68112218e-01 1.89558551e-01 2.27692500e-01
      2.34988615e-01 2.27032453e-01 2.13622123e-01 2.02523604e-01
      1.97003826e-01 1.89113289e-01 1.75033316e-01 1.72970086e-01
      1.68282196e-01 1.36768445e-01 1.30051136e-01 1.19702607e-01
      1.29893601e-01 1.36983633e-01 7.78922662e-02 7.42689222e-02
      7.76481181e-02 5.97432368e-02 3.68277840e-02 2.78711654e-02
      3.10644619e-02 7.41471164e-03 7.00055342e-03 1.36021050e-02
      -2.39798496e-03 5.35750855e-03 -1.90182403e-02 -1.06327462e+00
      -4.74070348e-02 -5.22254035e-02 -6.01085350e-02 -5.67566603e-03
      1.38460156e-02 -2.21639536e-02 -1.38736414e-02 -8.13754648e-03
      2.01776647e-03 -1.79886464e-02 1.98303349e-03 1.26821978e-03
      -2.00899248e-03 4.15004464e-03 -1.16691347e-02 -4.84901220e-02
      -5.06129786e-02 -5.92456833e-02 -6.44545257e-03 1.39522702e-02
      -2.10078098e-02 -1.34432558e-02 -8.39525834e-03 1.75476877e-03
      -1.71665791e-02 1.80964172e-03 1.46456866e-03 -1.98524236e-03
      3.89327924e-03 -1.11688543e-02 -4.98859659e-02 -4.87772748e-02
      -5.81161231e-02 -7.54460506e-03 1.38713904e-02 -1.98486988e-02
      -1.27513641e-02 -8.57119076e-03 1.43602095e-03 -1.64138600e-02
      1.43328845e-03 1.63006608e-03 -1.92537170e-03 3.63792432e-03
      -1.07361488e-02 -5.20578772e-02 -4.68018018e-02 -5.68593852e-02
      -8.91918130e-03 1.36185260e-02 -1.87290031e-02 -1.18826143e-02
      -8.66235979e-03 1.07468036e-03 -1.57145541e-02 9.08732763e-04
      1.74819003e-03 -1.83665310e-03 3.38308164e-03 -1.03379926e-02
      -5.29786125e-02 -4.54344340e-02 -5.58022968e-02 -9.79578681e-03
      1.33563532e-02 -1.77434590e-02 -1.12856356e-02 -8.67550168e-03
      7.39274139e-04 -1.50756091e-02 5.53706486e-04 1.80436869e-03
      -1.73295708e-03 3.14187724e-03 -9.96601954e-03 -5.30161709e-02
      -4.45070975e-02 -5.48588149e-02 -1.03019839e-02 1.30827567e-02
      -1.68409068e-02 -1.09051121e-02 -8.63462873e-03 4.13801085e-04
      -1.44898025e-02 3.43950931e-04 1.81921339e-03 -1.61516119e-03
      2.90990830e-03 -9.63214040e-03 -5.33044785e-02 -4.43706252e-02
      -5.40096909e-02 -1.02931028e-02 1.26912594e-02 -1.62031073e-02
      -1.09497150e-02 -8.50600097e-03 1.47874904e-04 -1.41141294e-02
      4.01341007e-04 1.75975868e-03 -1.51813822e-03 2.74888705e-03
      -9.42976680e-03 -5.35390116e-02 -4.41923738e-02 -5.29073514e-02
      -1.03432043e-02 1.21731451e-02 -1.55334501e-02 -1.09337494e-02
      -8.31648801e-03 -1.45596568e-04 -1.37748597e-02 4.11101239e-04
      1.67523022e-03 -1.40256493e-03 2.59830151e-03 -9.26485192e-03
      -5.21894917e-02 -4.46260571e-02 -5.08468710e-02 -9.87962633e-03
      1.11801084e-02 -1.45359635e-02 -1.11636249e-02 -7.84035679e-03
      -5.97833539e-04 -1.33462073e-02 5.59589709e-04 1.44376245e-03
      -1.18744234e-03 2.40482274e-03 -9.08147637e-03 -5.02106659e-02
      -4.51513752e-02 -4.88971546e-02 -9.32927802e-03 1.02725644e-02
      -1.36394473e-02 -1.14006624e-02 -7.39054009e-03 -9.88316140e-04
      -1.29725132e-02 7.05431332e-04 1.22865592e-03 -9.94175556e-04
      2.24451860e-03 -8.92356597e-03 -4.75348048e-02 -4.57351990e-02
      -4.71555851e-02 -8.71170126e-03 9.49765928e-03 -1.28615499e-02
      -1.16272187e-02 -6.98286761e-03 -1.30796060e-03 -1.26455519e-02
      8.37111031e-04 1.03605422e-03 -8.23770475e-04 2.11493624e-03
      -8.78118444e-03 -4.58456762e-02 -4.60777916e-02 -4.59035560e-02
      -8.37681908e-03 9.00771283e-03 -1.22164181e-02 -1.17058707e-02
      -6.74331188e-03 -1.53931137e-03 -1.23410467e-02 8.56037601e-04
      9.31898830e-04 -7.10638997e-04 2.01280159e-03 -8.63377750e-03
      -4.44109291e-02 -4.62490432e-02 -4.46538590e-02 -8.22516438e-03
      8.55590124e-03 -1.15582710e-02 -1.16591128e-02 -6.53916271e-03
      -1.75920234e-03 -1.20238708e-02 7.83887343e-04 8.50684417e-04
      -6.10520074e-04 1.91508152e-03 -8.47621262e-03 -4.28885967e-02
      -4.61210385e-02 -4.36052792e-02 -8.06065276e-03 8.12003296e-03
      -1.10185798e-02 -1.16531439e-02 -6.29646191e-03 -1.99477584e-03
      -1.18129523e-02 7.95981614e-04 7.30025989e-04 -4.79674549e-04
      1.80953089e-03 -8.41469504e-03 -4.20243405e-02 -4.55945320e-02
      -4.26865183e-02 -8.22066236e-03 7.76594691e-03 -1.05508612e-02
      -1.14613902e-02 -6.10902486e-03 -2.19601300e-03 -1.16421292e-02
      6.94984454e-04 6.41905761e-04 -3.69098008e-04 1.72303151e-03
      -8.37379601e-03 -4.18069474e-02 -4.49330769e-02 -4.18595895e-02
      -8.57996661e-03 7.44513376e-03 -1.01451334e-02 -1.11758243e-02
      -5.94914239e-03 -2.36775447e-03 -1.14937136e-02 5.28878998e-04
      5.66579809e-04 -2.78729422e-04 1.65481435e-03 -8.33348278e-03
      -4.03964184e-02 -4.47326340e-02 -4.05503102e-02 -8.57215840e-03
      6.97869575e-03 -9.54503939e-03 -1.10931983e-02 -5.71620045e-03
      -2.58480944e-03 -1.12424893e-02 4.93220694e-04 4.62750148e-04
      -1.68972882e-04 1.56578200e-03 -8.22556019e-03 -3.80579978e-02
      -4.49984781e-02 -3.90289612e-02 -8.21764115e-03 6.44529378e-03
      -8.81957356e-03 -1.12126609e-02 -5.44392923e-03 -2.83364137e-03
      -1.09084658e-02 5.82556473e-04 3.42268468e-04 -4.55543923e-05
      1.45631237e-03 -8.05401895e-03 -3.53105627e-02 -4.58943248e-02
      -3.75970975e-02 -7.30961142e-03 5.87616395e-03 -8.18930194e-03
      -1.17549766e-02 -5.11738099e-03 -3.06839240e-03 -1.06445570e-02
      9.64036037e-04 1.75691501e-04 8.13490333e-05 1.36222667e-03
      -7.93702714e-03 -3.25441249e-02 -4.69456799e-02 -3.62035073e-02
      -6.23044791e-03 5.29310480e-03 -7.60530354e-03 -1.24516571e-02
      -4.76714363e-03 -3.29171610e-03 -1.04118222e-02 1.46188308e-03
      -1.21808753e-05 2.06860364e-04 1.27839739e-03 -7.84062967e-03
      -3.01983580e-02 -4.76496741e-02 -3.52235883e-02 -5.47955278e-03
      4.88739740e-03 -7.21425703e-03 -1.28833782e-02 -4.51148907e-03
      -3.44220013e-03 -1.02656167e-02 1.76204625e-03 -1.41192431e-04
      3.01409571e-04 1.22547871e-03 -7.78457569e-03 -2.71180999e-02
      -4.90045883e-02 -3.47363241e-02 -4.31962078e-03 4.70658764e-03
      -7.01184478e-03 -1.35503197e-02 -4.35027992e-03 -3.49725434e-03
      -1.01774102e-02 2.18657940e-03 -2.26697128e-04 3.52869276e-04
      1.20433455e-03 -7.74656469e-03 -2.36229524e-02 -5.06617650e-02
      -3.43004018e-02 -3.03410925e-03 4.51692753e-03 -6.87262183e-03
      -1.42462458e-02 -4.16007871e-03 -3.52412299e-03 -1.01228608e-02
      2.59540253e-03 -3.32189928e-04 3.99466953e-04 1.20415154e-03
      -7.72229536e-03 -2.08262242e-02 -5.16069196e-02 -3.40186022e-02
      -2.28333077e-03 4.44145128e-03 -6.76703500e-03 -1.45933069e-02
      -4.04005637e-03 -3.51804495e-03 -1.00558763e-02 2.78584403e-03
      -3.97795491e-04 4.27472056e-04 1.21254742e-03 -7.67430756e-03
      -1.86087415e-02 -5.18154614e-02 -3.37770954e-02 -2.06639431e-03
      4.45844373e-03 -6.61445782e-03 -1.45939225e-02 -3.99015518e-03
      -3.51271755e-03 -9.94240772e-03 2.76555959e-03 -4.17482748e-04
      4.50248859e-04 1.20942562e-03 -7.59211089e-03 -1.52561907e-02
      -5.25123179e-02 -3.31522487e-02 -1.42369128e-03 4.32227785e-03
      -6.29654108e-03 -1.48819992e-02 -3.83700128e-03 -3.56847653e-03
      -9.75857675e-03 2.94690486e-03 -5.00548165e-04 5.08792058e-04
      1.17889408e-03 -7.48061016e-03 -1.14275524e-02 -5.37900291e-02
      -3.24389488e-02 -4.48379957e-04 4.11868747e-03 -5.96593134e-03
      -1.53716793e-02 -3.66018107e-03 -3.63686681e-03 -9.57797281e-03
      3.23482626e-03 -5.96715312e-04 5.66401344e-04 1.14439498e-03
      -7.37568131e-03 -8.82737525e-03 -5.45368157e-02 -3.18661518e-02
      1.14576324e-04 3.99134448e-03 -5.71344420e-03 -1.56243946e-02
      -3.56249488e-03 -3.68104037e-03 -9.45288129e-03 3.37454211e-03
      -6.43091975e-04 5.99597464e-04 1.12077850e-03 -7.31039094e-03
      -6.69408822e-03 -5.48561253e-02 -3.13283838e-02 3.58119083e-04
      3.91108543e-03 -5.45579800e-03 -1.56715885e-02 -3.50863021e-03
      -3.72519018e-03 -9.32434201e-03 3.38671869e-03 -6.59000594e-04
      6.27507514e-04 1.09334290e-03 -7.24374969e-03 -5.20013599e-03
      -5.46515845e-02 -3.04543488e-02 2.19304973e-04 3.69483326e-03
      -5.08306688e-03 -1.54711502e-02 -3.41354427e-03 -3.83231300e-03
      -9.17803496e-03 3.24297231e-03 -6.81803271e-04 6.80972124e-04
      1.04809424e-03 -7.18600582e-03 -2.84621981e-03 -5.50948158e-02
      -2.95888446e-02 4.58098075e-04 3.44895804e-03 -4.65521822e-03
      -1.54814022e-02 -3.29000829e-03 -3.95438634e-03 -8.94911774e-03
      3.21181677e-03 -7.22745841e-04 7.39132927e-04 9.86830099e-04
      -7.03546824e-03 -9.67922970e-04 -5.51684946e-02 -2.90516242e-02
      4.35147871e-04 3.33071430e-03 -4.34914650e-03 -1.53287500e-02
      -3.22594005e-03 -4.03794227e-03 -8.75710137e-03 3.08286655e-03
      -7.32949877e-04 7.82348972e-04 9.34609328e-04 -6.88441982e-03
      5.96347265e-04 -5.54512553e-02 -2.88793985e-02 7.55621353e-04
      3.37589346e-03 -4.13697353e-03 -1.54904164e-02 -3.21625290e-03
      -4.06926917e-03 -8.59274622e-03 3.18984664e-03 -7.33332592e-04
      8.04301701e-04 9.01099585e-04 -6.73457282e-03 2.03641225e-03
      -5.56346886e-02 -2.86277328e-02 1.00316817e-03 3.37888650e-03
      -3.85552808e-03 -1.56060634e-02 -3.18191480e-03 -4.13505826e-03
      -8.35933816e-03 3.26736155e-03 -7.47011625e-04 8.47199000e-04
      8.37039435e-04 -6.52588764e-03 3.21047939e-03 -5.57547770e-02
      -2.80491356e-02 1.25621748e-03 3.18094762e-03 -3.28647438e-03
      -1.57623291e-02 -3.02935229e-03 -4.34890669e-03 -7.90003035e-03
      3.38242925e-03 -8.31031532e-04 9.67413478e-04 6.64725027e-04
      -6.15394954e-03 3.22639965e-03 -5.51664010e-02 -2.75882222e-02
      1.01222587e-03 3.08271614e-03 -2.84873601e-03 -1.56234223e-02
      -2.95449840e-03 -4.48551029e-03 -7.57331681e-03 3.31970584e-03
      -8.69155629e-04 1.04193168e-03 5.60784014e-04 -5.90496371e-03
      3.44471703e-03 -5.49022742e-02 -2.70759910e-02 1.04360573e-03
      2.96615087e-03 -2.47770222e-03 -1.56970900e-02 -2.86170491e-03
      -4.57574707e-03 -7.33366841e-03 3.40404874e-03 -9.26545530e-04
      1.09266234e-03 5.06256591e-04 -5.73382480e-03 3.90616967e-03
      -5.43869771e-02 -2.67150234e-02 8.67224648e-04 3.01884045e-03
      -2.05949531e-03 -1.56200193e-02 -2.87833787e-03 -4.65058535e-03
      -7.00261118e-03 3.39881983e-03 -9.15601850e-04 1.12425757e-03
      4.25552542e-04 -5.47075085e-03 4.32211673e-03 -5.36906533e-02
      -2.63016429e-02 4.73192398e-04 3.08065163e-03 -1.53509795e-03
      -1.53729273e-02 -2.93361559e-03 -4.77170106e-03 -6.58328226e-03
      3.27633927e-03 -8.70058662e-04 1.16646395e-03 2.99461186e-04
      -5.14603872e-03 4.84535890e-03 -5.34929372e-02 -2.58001462e-02
      4.38603485e-04 3.07455845e-03 -7.49153143e-04 -1.53768305e-02
      -2.96876743e-03 -5.00347279e-03 -5.88956568e-03 3.30768176e-03
      -8.35373125e-04 1.24388561e-03 6.31822113e-05 -4.59475489e-03
      5.92535175e-03 -5.34534678e-02 -2.52695046e-02 4.51494590e-04
      3.05700186e-03 4.98963345e-07 -1.53732449e-02 -2.99753668e-03
      -5.22283046e-03 -5.29129943e-03 3.32075823e-03 -8.00354464e-04
      1.31837477e-03 -1.35428767e-04 -4.14978946e-03 7.92564917e-03
      -5.40417694e-02 -2.50310116e-02 8.79344239e-04 3.09947459e-03
      7.08494859e-04 -1.56208780e-02 -3.02345469e-03 -5.45752887e-03
      -4.70787426e-03 3.48439766e-03 -7.76034722e-04 1.41178770e-03
      -3.49453330e-04 -3.72645119e-03 9.60595999e-03 -5.47442958e-02
      -2.47300193e-02 1.37119438e-03 3.07917176e-03 1.37954275e-03
      -1.59053840e-02 -3.02003976e-03 -5.67503553e-03 -4.17328812e-03
      3.65606905e-03 -7.67594087e-04 1.49272487e-03 -5.36581269e-04
      -3.35051515e-03 1.11414278e-02 -5.55935949e-02 -2.43260041e-02
      1.92825811e-03 2.97620706e-03 2.04709009e-03 -1.62147321e-02
      -2.97508668e-03 -5.89172682e-03 -3.66313965e-03 3.82521190e-03
      -7.80964328e-04 1.57080102e-03 -7.07203930e-04 -2.99997162e-03
      1.19447978e-02 -5.61439767e-02 -2.35354062e-02 2.29804846e-03
      2.68119923e-03 3.02441209e-03 -1.64353605e-02 -2.84952903e-03
      -6.25902461e-03 -2.90217972e-03 3.95523943e-03 -8.30574078e-04
      1.71394506e-03 -9.92307789e-04 -2.42848927e-03 1.29935537e-02
      -5.67551441e-02 -2.25627497e-02 2.66284705e-03 2.29021814e-03
      4.09352500e-03 -1.66234337e-02 -2.67677614e-03 -6.67667156e-03
      -2.09306763e-03 4.05169511e-03 -9.00828396e-04 1.88360433e-03
      -1.30272063e-03 -1.82313612e-03 1.40167121e-02 -5.72702736e-02
      -2.18000039e-02 3.05786449e-03 1.99962221e-03 5.19856624e-03
      -1.68732423e-02 -2.52448535e-03 -7.08370749e-03 -1.15894084e-03
      4.20964183e-03 -9.79497447e-04 2.04802421e-03 -1.64342462e-03
      -1.07940729e-03 1.48003753e-02 -5.77104874e-02 -2.13020481e-02
      3.34137981e-03 1.82776060e-03 6.06138259e-03 -1.70237850e-02
      -2.44386611e-03 -7.38544110e-03 -4.25366656e-04 4.28734999e-03
      -1.01411366e-03 2.15988210e-03 -1.90056581e-03 -5.06884826e-04
      1.52266892e-02 -5.79639375e-02 -2.10506152e-02 3.40623176e-03
      1.76090829e-03 6.66045351e-03 -1.69945769e-02 -2.43163225e-03
      -7.58090755e-03 1.09787252e-04 4.23046481e-03 -1.00311555e-03
      2.22126511e-03 -2.07914156e-03 -8.55737308e-05 1.45188272e-02
      -5.72091602e-02 -2.06209067e-02 2.85583409e-03 1.73601077e-03
      7.30524026e-03 -1.66456159e-02 -2.48418469e-03 -7.76470592e-03
      6.01720589e-04 4.02365392e-03 -9.47012682e-04 2.26401049e-03
      -2.23079743e-03 2.72705394e-04 1.33176651e-02 -5.59567213e-02
      -2.00580396e-02 1.96305499e-03 1.69258995e-03 7.96199962e-03
      -1.60935465e-02 -2.55086180e-03 -7.95645360e-03 1.03781186e-03
      3.70555185e-03 -8.73325916e-04 2.30852724e-03 -2.36685225e-03
      5.64549002e-04 1.27994874e-02 -5.53759709e-02 -1.93808638e-02
      1.65110279e-03 1.54188240e-03 8.62137321e-03 -1.59859471e-02
      -2.51040165e-03 -8.15912616e-03 1.42254669e-03 3.70019837e-03
      -8.87207279e-04 2.37200106e-03 -2.48133764e-03 8.01209360e-04
      1.21468138e-02 -5.47427982e-02 -1.87558252e-02 1.26056094e-03
      1.39975734e-03 9.22972988e-03 -1.57925338e-02 -2.47784308e-03
      -8.35310854e-03 1.75342872e-03 3.61781381e-03 -8.90092226e-04
      2.43658060e-03 -2.58064503e-03 9.91538400e-04 1.11911297e-02
      -5.41653410e-02 -1.83532387e-02 8.96172947e-04 1.30142667e-03
      9.71646979e-03 -1.55837750e-02 -2.46045203e-03 -8.52071401e-03
      2.02332274e-03 3.50002316e-03 -8.81248445e-04 2.49670469e-03
      -2.66598375e-03 1.14658463e-03 1.03518572e-02 -5.38810305e-02
      -1.77733172e-02 6.87379157e-04 1.04986678e-03 1.02303084e-02
      -1.54377166e-02 -2.35692947e-03 -8.73140711e-03 2.30068620e-03
      3.39492178e-03 -9.13546770e-04 2.58443784e-03 -2.76804203e-03
      1.32068933e-03 9.51179024e-03 -5.37304319e-02 -1.70462150e-02
      5.16184315e-04 6.93904527e-04 1.07620675e-02 -1.52836340e-02
      -2.20097508e-03 -8.96549597e-03 2.58104131e-03 3.26410378e-03
      -9.67659464e-04 2.68686214e-03 -2.87603284e-03 1.50952942e-03
      8.22215527e-03 -5.32988459e-02 -1.69836674e-02 3.11464217e-04
      6.98020565e-04 1.10975821e-02 -1.51753929e-02 -2.20381934e-03
      -9.07300040e-03 2.82518822e-03 3.19719664e-03 -9.56508622e-04
      2.72845128e-03 -2.94528995e-03 1.70836621e-03 7.06842542e-03
      -5.30360304e-02 -1.69636160e-02 2.45067407e-04 7.15657836e-04
      1.13913650e-02 -1.51626552e-02 -2.19948567e-03 -9.15448740e-03
      3.04402364e-03 3.18964431e-03 -9.56363161e-04 2.76079145e-03
      -2.99613737e-03 1.89321477e-03 5.68748917e-03 -5.32679260e-02
      -1.77302230e-02 5.78519073e-04 9.99101554e-04 1.13383662e-02
      -1.54364677e-02 -2.27157865e-03 -9.08638630e-03 3.14448564e-03
      3.35498271e-03 -9.45026521e-04 2.73013720e-03 -2.98521086e-03
      2.03804136e-03 4.47857287e-03 -5.36087155e-02 -1.84629112e-02
      9.57907643e-04 1.29251101e-03 1.13115776e-02 -1.57362334e-02
      -2.35710619e-03 -9.01649054e-03 3.26648960e-03 3.53445020e-03
      -9.26725799e-04 2.69222516e-03 -2.98110535e-03 2.18269159e-03
      2.76627997e-03 -5.36607318e-02 -1.90648902e-02 1.12351216e-03
      1.57573249e-03 1.13180336e-02 -1.59199256e-02 -2.46418640e-03
      -8.95023905e-03 3.39793158e-03 3.65182734e-03 -8.90665920e-04
      2.64563481e-03 -2.98180175e-03 2.31701974e-03 3.62602179e-04
      -5.30075990e-02 -1.94041058e-02 8.82955792e-04 1.86430162e-03
      1.14600463e-02 -1.59009602e-02 -2.62091798e-03 -8.91626161e-03
      3.58219352e-03 3.67728155e-03 -8.16317333e-04 2.59866030e-03
      -3.00487503e-03 2.46153912e-03 -1.77917886e-03 -5.22570312e-02
      -1.95704196e-02 5.32075181e-04 2.08662124e-03 1.16651393e-02
      -1.57876983e-02 -2.75992299e-03 -8.91907327e-03 3.77821480e-03
      3.63865215e-03 -7.43292796e-04 2.56802724e-03 -3.04367952e-03
      2.59572035e-03 -4.89518233e-03 -5.10956459e-02 -2.00825855e-02
      -4.28362218e-05 2.42853141e-03 1.17128054e-02 -1.55910393e-02
      -2.94062728e-03 -8.88312515e-03 3.88215506e-03 3.57578788e-03
      -6.58852980e-04 2.52490933e-03 -3.05919070e-03 2.67497008e-03
      -8.00128467e-03 -4.99199778e-02 -2.03855205e-02 -6.73203322e-04
      2.66795279e-03 1.17909256e-02 -1.53474910e-02 -3.07912845e-03
      -8.87610670e-03 3.96843115e-03 3.47938738e-03 -5.90371259e-04
      2.49730330e-03 -3.07610724e-03 2.73039564e-03 -9.59096942e-03
      -4.95709367e-02 -2.04305742e-02 -8.39593646e-04 2.69892858e-03
      1.18969539e-02 -1.53234527e-02 -3.09328758e-03 -8.91429093e-03
      4.04608762e-03 3.48414318e-03 -5.87658258e-04 2.50406889e-03
      -3.10182339e-03 2.76986277e-03 -1.14580914e-02 -4.92341295e-02
      -2.06189044e-02 -1.01340900e-03 2.73314631e-03 1.18930675e-02
      -1.53023573e-02 -3.09323170e-03 -8.93155113e-03 4.05623484e-03
      3.48931667e-03 -5.96767233e-04 2.50809966e-03 -3.10889073e-03
      2.77710240e-03 -1.32989557e-02 -4.91897687e-02 -2.10031252e-02
      -1.02582504e-03 2.77889241e-03 1.17229875e-02 -1.53750516e-02
      -3.07533680e-03 -8.90218653e-03 3.99631308e-03 3.53846443e-03
      -6.22582855e-04 2.49776035e-03 -3.09286313e-03 2.75531434e-03
      -1.58301536e-02 -4.83960994e-02 -2.11223289e-02 -1.64958870e-03
      2.81620002e-03 1.16847605e-02 -1.50201386e-02 -3.11179087e-03
      -8.90174787e-03 3.97890201e-03 3.30767781e-03 -5.92798344e-04
      2.48548156e-03 -3.08762025e-03 2.74687493e-03 -1.89087242e-02
      -4.70161550e-02 -2.10089404e-02 -2.74685165e-03 2.82162218e-03
      1.17248278e-02 -1.43411560e-02 -3.17618926e-03 -8.92209262e-03
      3.97377554e-03 2.86973594e-03 -5.28231030e-04 2.47432827e-03
      -3.08565656e-03 2.74015963e-03 -2.18186285e-02 -4.58631255e-02
      -2.08628364e-02 -3.66143859e-03 2.77991476e-03 1.17398305e-02
      -1.37972692e-02 -3.20131285e-03 -8.94505531e-03 3.96301271e-03
      2.52264971e-03 -4.92194085e-04 2.47008447e-03 -3.08434572e-03
      2.72834278e-03 -2.43273340e-02 -4.50947061e-02 -2.07523592e-02
      -4.30679554e-03 2.71964865e-03 1.17261168e-02 -1.34342508e-02
      -3.20196711e-03 -8.96098185e-03 3.94746335e-03 2.29011104e-03
      -4.77989233e-04 2.46525602e-03 -3.08186072e-03 2.71623139e-03
      -2.58973874e-02 -4.53250855e-02 -2.05879938e-02 -4.23262874e-03
      2.56141508e-03 1.17048109e-02 -1.35511197e-02 -3.12315649e-03
      -8.97954963e-03 3.93954990e-03 2.35701888e-03 -5.23572089e-04
      2.46513495e-03 -3.08235968e-03 2.70853424e-03 -2.81011909e-02
      -4.50750925e-02 -2.06830893e-02 -4.56232904e-03 2.54936656e-03
      1.16218813e-02 -1.33869341e-02 -3.13631864e-03 -8.96699633e-03
      3.91070126e-03 2.23135692e-03 -5.11601684e-04 2.44574365e-03
      -3.07454588e-03 2.69813440e-03 -3.05296369e-02 -4.44706827e-02
      -2.09238175e-02 -5.16438205e-03 2.63042632e-03 1.14958417e-02
      -1.30303130e-02 -3.20662232e-03 -8.93276557e-03 3.87407583e-03
      1.97881251e-03 -4.64135926e-04 2.41559953e-03 -3.06324894e-03
      2.68615619e-03 -3.30803394e-02 -4.43205647e-02 -2.08915360e-02
      -5.41785313e-03 2.50897184e-03 1.14381257e-02 -1.29640643e-02
      -3.14802001e-03 -8.95393081e-03 3.85578489e-03 1.92709838e-03
      -5.00716094e-04 2.41684914e-03 -3.06553300e-03 2.67746020e-03
      -3.56380343e-02 -4.41904031e-02 -2.09648479e-02 -5.66723570e-03
      2.42538122e-03 1.13471579e-02 -1.29129561e-02 -3.10396613e-03
      -8.96640867e-03 3.82374763e-03 1.88944209e-03 -5.32798585e-04
      2.41568941e-03 -3.06374091e-03 2.66633346e-03 -3.76941971e-02
      -4.41625230e-02 -2.14467589e-02 -5.73821692e-03 2.60965084e-03
      1.11430129e-02 -1.29872411e-02 -3.20229353e-03 -8.90214462e-03
      3.79256904e-03 1.94114679e-03 -4.90897626e-04 2.37540132e-03
      -3.05401115e-03 2.65362905e-03 -3.96867506e-02 -4.42558825e-02
      -2.17005257e-02 -5.70352189e-03 2.66214064e-03 1.09998807e-02
      -1.31492158e-02 -3.22995544e-03 -8.86902958e-03 3.77141824e-03
      2.05481960e-03 -4.89635044e-04 2.35051452e-03 -3.04992008e-03
      2.64395168e-03 -4.16045077e-02 -4.44093309e-02 -2.19462980e-02
      -5.64622879e-03 2.67798197e-03 1.08419899e-02 -1.33246975e-02
      -3.23091447e-03 -8.83867685e-03 3.73159931e-03 2.17378978e-03
      -5.05048491e-04 2.32950808e-03 -3.04086762e-03 2.62982934e-03
      -4.35528383e-02 -4.45302054e-02 -2.17319317e-02 -5.62217226e-03
      2.49314471e-03 1.08453240e-02 -1.34863239e-02 -3.15411924e-03
      -8.87619797e-03 3.74851050e-03 2.28677690e-03 -5.55746548e-04
      2.33556307e-03 -3.05679976e-03 2.63133924e-03 -4.48905230e-02
      -4.51734886e-02 -2.17344910e-02 -5.25230821e-03 2.39808136e-03
      1.07189408e-02 -1.38745019e-02 -3.12734884e-03 -8.85634031e-03
      3.71899316e-03 2.54158583e-03 -5.82009961e-04 2.31141760e-03
      -3.05429241e-03 2.61862297e-03 -4.56329770e-02 -4.61187325e-02
      -2.22900808e-02 -4.77489689e-03 2.46168626e-03 1.03561543e-02
      -1.42750060e-02 -3.14809056e-03 -8.76058359e-03 3.60889453e-03
      2.77469191e-03 -5.93186822e-04 2.26219930e-03 -3.02518997e-03
      2.58148415e-03 -4.62455228e-02 -4.69743051e-02 -2.27129180e-02
      -4.37361049e-03 2.44579697e-03 1.00337407e-02 -1.46152787e-02
      -3.12356791e-03 -8.69298913e-03 3.50155798e-03 2.97002448e-03
      -6.29902701e-04 2.23123678e-03 -3.00151343e-03 2.54273089e-03
      -4.76039052e-02 -4.71446402e-02 -2.30426677e-02 -4.54403786e-03
      2.42630718e-03 9.77008604e-03 -1.45813152e-02 -3.13717918e-03
      -8.65440629e-03 3.41536989e-03 2.92801764e-03 -6.31747418e-04
      2.20676069e-03 -2.99125467e-03 2.50874995e-03 -4.82842997e-02
      -4.74745333e-02 -2.32476033e-02 -4.66523878e-03 2.37996830e-03
      9.57829598e-03 -1.45279132e-02 -3.15646571e-03 -8.63694213e-03
      3.35296849e-03 2.85737193e-03 -6.21928193e-04 2.18794867e-03
      -2.99050217e-03 2.48269388e-03 -4.75675352e-02 -4.83024977e-02
      -2.33926140e-02 -4.47279355e-03 2.32440792e-03 9.41454992e-03
      -1.45935891e-02 -3.16285226e-03 -8.61621369e-03 3.29416245e-03
      2.83978926e-03 -6.15094148e-04 2.17000465e-03 -2.98717129e-03
      2.45823222e-03 -4.74753007e-02 -4.92563099e-02 -2.34837178e-02
      -4.19821357e-03 2.19937251e-03 9.29438043e-03 -1.47894025e-02
      -3.14035523e-03 -8.62543099e-03 3.26123275e-03 2.91234325e-03
      -6.36741344e-04 2.15927185e-03 -2.99815834e-03 2.44400161e-03
      -4.74892706e-02 -5.03642783e-02 -2.35365406e-02 -3.84810288e-03
      2.02588481e-03 9.17805731e-03 -1.50522878e-02 -3.09587666e-03
      -8.64320062e-03 3.23201250e-03 3.01858666e-03 -6.75539020e-04
      2.15071300e-03 -3.01233842e-03 2.43209931e-03 -4.83411215e-02
      -5.00082336e-02 -2.31310260e-02 -4.31577675e-03 1.84505351e-03
      9.27609392e-03 -1.48100918e-02 -3.08034429e-03 -8.70077033e-03
      3.26977298e-03 2.85891257e-03 -6.77857781e-04 2.15669884e-03
      -3.03978426e-03 2.43914290e-03 -4.91370633e-02 -4.97163460e-02
      -2.27341689e-02 -4.80455440e-03 1.68066658e-03 9.37877223e-03
      -1.45419203e-02 -3.08436295e-03 -8.75012018e-03 3.31625296e-03
      2.66906922e-03 -6.69168367e-04 2.15502991e-03 -3.06618051e-03
      2.45426618e-03 -4.97104563e-02 -4.98756692e-02 -2.23957580e-02
      -5.08303475e-03 1.44874025e-03 9.47369821e-03 -1.43760163e-02
      -3.05359438e-03 -8.82123131e-03 3.36517207e-03 2.51641870e-03
      -6.80004538e-04 2.16480903e-03 -3.10229720e-03 2.47293385e-03
      -5.14222868e-02 -4.89067473e-02 -2.20708679e-02 -5.94941573e-03
      1.34488475e-03 9.58597008e-03 -1.38897551e-02 -3.10855312e-03
      -8.86453036e-03 3.41674918e-03 2.20629037e-03 -6.39583101e-04
      2.15749303e-03 -3.12870042e-03 2.49291793e-03 -5.42833544e-02
      -4.69981134e-02 -2.18973421e-02 -7.33315758e-03 1.40704564e-03
      9.66488477e-03 -1.31263984e-02 -3.26604256e-03 -8.86398368e-03
      3.46048106e-03 1.75393000e-03 -5.41304180e-04 2.12458870e-03
      -3.14143719e-03 2.51348084e-03 -5.51922582e-02 -4.68142368e-02
      -2.16892287e-02 -7.39952410e-03 1.13571680e-03 9.70760826e-03
      -1.31254708e-02 -3.16757080e-03 -8.95461906e-03 3.46039701e-03
      1.76399143e-03 -5.96334692e-04 2.16230587e-03 -3.18173948e-03
      2.50254618e-03 -5.64343929e-02 -4.66218628e-02 -2.18491405e-02
      -7.45882560e-03 9.52224131e-04 9.58221592e-03 -1.31176440e-02
      -3.10240011e-03 -9.01274942e-03 3.38064879e-03 1.76607142e-03
      -6.33238931e-04 2.19039852e-03 -3.20906774e-03 2.45360122e-03
      -5.92044517e-02 -4.58392799e-02 -2.24770866e-02 -7.88241625e-03
      1.04573241e-03 9.37136542e-03 -1.30350702e-02 -3.19161103e-03
      -9.00402572e-03 3.30426614e-03 1.76011503e-03 -6.08780305e-04
      2.17364333e-03 -3.22383037e-03 2.41746590e-03 -6.02682754e-02
      -4.58414517e-02 -2.31040996e-02 -7.80402031e-03 1.12737739e-03
      9.12012439e-03 -1.31827351e-02 -3.25093674e-03 -8.96900892e-03
      3.21459072e-03 1.87433546e-03 -6.00181636e-04 2.15207506e-03
      -3.22771072e-03 2.37825839e-03 -5.91480844e-02 -4.66981828e-02
      -2.36646701e-02 -7.18662702e-03 1.19068695e-03 8.84618144e-03
      -1.35457227e-02 -3.27156833e-03 -8.90395697e-03 3.12356674e-03
      2.09317752e-03 -6.08862494e-04 2.12597381e-03 -3.22002126e-03
      2.34296243e-03 -5.95081374e-02 -4.70318720e-02 -2.42349245e-02
      -6.96954876e-03 1.25088170e-03 8.59719049e-03 -1.37295192e-02
      -3.33092478e-03 -8.85813776e-03 3.03904503e-03 2.20348616e-03
      -5.98821847e-04 2.09449395e-03 -3.22095328e-03 2.30918126e-03
      -6.04107529e-02 -4.71648052e-02 -2.47816574e-02 -6.93899719e-03
      1.28039520e-03 8.34295899e-03 -1.38081331e-02 -3.39132012e-03
      -8.82172957e-03 2.94159749e-03 2.24017259e-03 -5.87389630e-04
      2.06331513e-03 -3.22164595e-03 2.26894300e-03 -5.69187552e-02
      -4.91072237e-02 -2.52155550e-02 -5.66001749e-03 1.27132784e-03
      8.02484341e-03 -1.44248651e-02 -3.34186386e-03 -8.72568227e-03
      2.81924545e-03 2.56181834e-03 -6.29533955e-04 2.03368510e-03
      -3.19493841e-03 2.21851422e-03 -5.39665557e-02 -5.09008281e-02
      -2.58242153e-02 -4.48858971e-03 1.31348392e-03 7.62517005e-03
      -1.50135616e-02 -3.31429858e-03 -8.60872958e-03 2.65919045e-03
      2.87158159e-03 -6.65726897e-04 1.99612300e-03 -3.15619051e-03
      2.15424970e-03 -5.25206476e-02 -5.23622222e-02 -2.69472562e-02
      -3.46086593e-03 1.51555415e-03 7.04482757e-03 -1.56457070e-02
      -3.34965670e-03 -8.44224263e-03 2.43240874e-03 3.23648378e-03
      -6.91008929e-04 1.93731952e-03 -3.09724803e-03 2.06799712e-03
      -4.88166399e-02 -5.51119111e-02 -2.78668962e-02 -1.56869215e-03
      1.54882227e-03 6.42417697e-03 -1.67272519e-02 -3.24885175e-03
      -8.27236474e-03 2.16120202e-03 3.85087659e-03 -7.94634630e-04
      1.89379614e-03 -3.02312849e-03 1.95768918e-03 -4.35859859e-02
      -5.85879497e-02 -2.85763536e-02 7.43786688e-04 1.43626460e-03
      5.76685648e-03 -1.79770812e-02 -3.04902089e-03 -8.10387917e-03
      1.84005266e-03 4.53849696e-03 -9.46525659e-04 1.86427892e-03
      -2.93382374e-03 1.81892631e-03 -4.01169844e-02 -6.08388558e-02
      -2.89965682e-02 2.19689333e-03 1.33185950e-03 5.35310572e-03
      -1.87484417e-02 -2.92447698e-03 -8.00458156e-03 1.64611952e-03
      4.95708408e-03 -1.04065298e-03 1.84374687e-03 -2.88593909e-03
      1.73828390e-03 -3.70440558e-02 -6.28308058e-02 -2.93633584e-02
      3.44496989e-03 1.22040114e-03 4.95338859e-03 -1.94034912e-02
      -2.81038741e-03 -7.91389123e-03 1.44896272e-03 5.30813308e-03
      -1.12508656e-03 1.82489306e-03 -2.83866399e-03 1.65308779e-03
      -3.50777544e-02 -6.36644885e-02 -2.96343770e-02 4.13423497e-03
      1.18438411e-03 4.63167764e-03 -1.97600871e-02 -2.73619685e-03
      -7.83354975e-03 1.27187814e-03 5.52539807e-03 -1.18187105e-03
      1.81390636e-03 -2.79614097e-03 1.56702450e-03 -3.28075588e-02
      -6.43018186e-02 -3.00290696e-02 4.72063478e-03 1.23628660e-03
      4.16675303e-03 -2.00209692e-02 -2.69686244e-03 -7.68966833e-03
      9.98853706e-04 5.68964332e-03 -1.21773628e-03 1.78173406e-03
      -2.71549658e-03 1.42962357e-03 -2.99402047e-02 -6.49088472e-02
      -3.06304228e-02 5.31301647e-03 1.40379404e-03 3.45638534e-03
      -2.02412661e-02 -2.69241352e-03 -7.44099915e-03 5.63898997e-04
      5.82934730e-03 -1.23545912e-03 1.71532633e-03 -2.56966823e-03
      1.20467052e-03 -2.84108669e-02 -6.51056468e-02 -3.16084810e-02
      5.58625069e-03 1.71660713e-03 2.55293027e-03 -2.03347486e-02
      -2.75825337e-03 -7.12583540e-03 1.95000321e-05 5.89605048e-03
      -1.22492993e-03 1.61888730e-03 -2.38185655e-03 9.14873206e-04
      -2.73337290e-02 -6.50958419e-02 -3.27631719e-02 5.71264140e-03
      2.10137595e-03 1.48995605e-03 -2.03603059e-02 -2.85580452e-03
      -6.75554061e-03 -6.42020372e-04 5.92585420e-03 -1.20048074e-03
      1.50223623e-03 -2.15178751e-03 5.50482946e-04 -2.50518639e-02
      -6.51753321e-02 -3.39771062e-02 5.89657156e-03 2.59894878e-03
      4.37665876e-04 -2.03389563e-02 -3.02379951e-03 -6.34860108e-03
      -1.27789890e-03 5.92224346e-03 -1.12570648e-03 1.36046566e-03
      -1.91812369e-03 2.03463918e-04 -2.27388870e-02 -6.52834252e-02
      -3.52041423e-02 6.03804644e-03 3.10518523e-03 -7.02664023e-04
      -2.02857796e-02 -3.20544746e-03 -5.91057586e-03 -2.00287439e-03
      5.89283230e-03 -1.04012340e-03 1.20347831e-03 -1.65210827e-03
      -2.09888982e-04 -2.05799229e-02 -6.57874867e-02 -3.67705040e-02
      6.37948792e-03 3.68617731e-03 -2.13503861e-03 -2.03873403e-02
      -3.39964638e-03 -5.37518645e-03 -2.93049612e-03 5.94499148e-03
      -9.64214792e-04 1.01062446e-03 -1.31088821e-03 -7.55311514e-04
      -1.68121476e-02 -6.71332777e-02 -3.79823744e-02 7.23663950e-03
      4.11631446e-03 -3.41813872e-03 -2.07560025e-02 -3.50982114e-03
      -4.88498341e-03 -3.78666702e-03 6.14114152e-03 -9.30288224e-04
      8.38192762e-04 -9.84416693e-04 -1.26878661e-03 -1.21313129e-02
      -6.89264759e-02 -3.90556157e-02 8.39579385e-03 4.49095061e-03
      -4.62603383e-03 -2.12762505e-02 -3.57717066e-03 -4.41591488e-03
      -4.61380137e-03 6.41989708e-03 -9.17100231e-04 6.80345460e-04
      -6.61264698e-04 -1.77500444e-03 -7.05295894e-03 -7.12433457e-02
      -4.05149646e-02 9.90771409e-03 4.93065780e-03 -5.96460793e-03
      -2.20015105e-02 -3.62662948e-03 -3.92923597e-03 -5.49732661e-03
      6.80516660e-03 -9.29546950e-04 5.32913895e-04 -3.32900207e-04
      -2.32363981e-03 -1.24519493e-03 -7.40661621e-02 -4.18161899e-02
      1.16728898e-02 5.22601977e-03 -7.30656786e-03 -2.28461269e-02
      -3.59093677e-03 -3.47313681e-03 -6.42335555e-03 7.24103348e-03
      -9.86673054e-04 4.09044063e-04 -2.11877705e-06 -2.91738845e-03
      4.30635409e-03 -7.65888095e-02 -4.24806662e-02 1.32022575e-02
      5.20159863e-03 -8.33419338e-03 -2.35476494e-02 -3.41745000e-03
      -3.20394081e-03 -7.22622359e-03 7.59607553e-03 -1.09846075e-03
      3.76318552e-04 2.41407353e-04 -3.46684339e-03 1.01713715e-02
      -7.91141167e-02 -4.32962999e-02 1.47218741e-02 5.28648123e-03
      -9.50724259e-03 -2.42355838e-02 -3.29269143e-03 -2.85534281e-03
      -8.12625326e-03 7.94391986e-03 -1.18755270e-03 3.09153867e-04
      5.33264189e-04 -4.07900428e-03 1.61122493e-02 -8.17485973e-02
      -4.44676057e-02 1.62833370e-02 5.55466209e-03 -1.08955009e-02
      -2.49476917e-02 -3.24371085e-03 -2.37941067e-03 -9.12640151e-03
      8.29969067e-03 -1.24880858e-03 1.82157673e-04 8.94691737e-04
      -4.73997463e-03 2.12003402e-02 -8.38458836e-02 -4.58873808e-02
      1.75239481e-02 5.95271029e-03 -1.25312703e-02 -2.55075768e-02
      -3.26880463e-03 -1.81055733e-03 -1.03631411e-02 8.58364068e-03
      -1.27341389e-03 1.54263744e-05 1.33999612e-03 -5.58301667e-03
      2.57710367e-02 -8.55508000e-02 -4.72236425e-02 1.85425710e-02
      6.35898625e-03 -1.41761163e-02 -2.59645469e-02 -3.31577682e-03
      -1.23230694e-03 -1.16800396e-02 8.82207975e-03 -1.28293328e-03
      -1.58842944e-04 1.81539066e-03 -6.51775533e-03 3.12403701e-02
      -8.75357762e-02 -4.80061918e-02 1.97677016e-02 6.50537899e-03
      -1.54825849e-02 -2.65227817e-02 -3.22249252e-03 -8.20288493e-04
      -1.28023373e-02 9.11976025e-03 -1.35766470e-03 -2.45913805e-04
      2.19217781e-03 -7.34955212e-03 3.70306559e-02 -8.97094533e-02
      -4.85715605e-02 2.10558288e-02 6.50328025e-03 -1.67082697e-02
      -2.71038916e-02 -3.05748219e-03 -4.82116535e-04 -1.39050903e-02
      9.42174345e-03 -1.46383105e-03 -2.93838733e-04 2.53653596e-03
      -8.18738807e-03 4.17083129e-02 -9.14463773e-02 -4.92173284e-02
      2.20378153e-02 6.55772490e-03 -1.77695584e-02 -2.75410451e-02
      -2.95042759e-03 -2.01409770e-04 -1.47772329e-02 9.64453071e-03
      -1.54072407e-03 -3.34906275e-04 2.79334653e-03 -8.80296994e-03
      4.57385369e-02 -9.27625075e-02 -4.99717332e-02 2.27857437e-02
      6.72648801e-03 -1.88522786e-02 -2.78656650e-02 -2.91871885e-03
      1.16179763e-04 -1.56247756e-02 9.81487334e-03 -1.57751015e-03
      -4.04714694e-04 3.05348961e-03 -9.37336963e-03 4.91827205e-02
      -9.37403068e-02 -5.07591255e-02 2.33638138e-02 6.99310424e-03
      -1.98508669e-02 -2.81187836e-02 -2.95790797e-03 4.42366116e-04
      -1.63399242e-02 9.95649584e-03 -1.57595507e-03 -4.95081651e-04
      3.28477542e-03 -9.81478021e-03 5.28286994e-02 -9.48933288e-02
      -5.18522188e-02 2.40569897e-02 7.34061515e-03 -2.12751981e-02
      -2.84404606e-02 -2.99879466e-03 9.03330045e-04 -1.74811631e-02
      1.01328874e-02 -1.58677925e-03 -6.19667175e-04 3.65802762e-03
      -1.06260749e-02 5.60238510e-02 -9.60957184e-02 -5.33110127e-02
      2.47937888e-02 7.75334472e-03 -2.29826793e-02 -2.87905522e-02
      -3.04759992e-03 1.43304328e-03 -1.88760869e-02 1.03189331e-02
      -1.60027598e-03 -7.60643976e-04 4.10376769e-03 -1.16481232e-02
      5.88287935e-02 -9.68604758e-02 -5.46611436e-02 2.52820309e-02
      8.26993026e-03 -2.43602060e-02 -2.90242527e-02 -3.18134669e-03
      1.92083488e-03 -1.99114624e-02 1.04549741e-02 -1.56809890e-03
      -9.13503638e-04 4.46091965e-03 -1.23491809e-02 6.19356856e-02
      -9.77747068e-02 -5.59666008e-02 2.58607790e-02 8.77457764e-03
      -2.57096142e-02 -2.93061491e-02 -3.30702472e-03 2.40314659e-03
      -2.09384076e-02 1.06167486e-02 -1.54042407e-03 -1.06354454e-03
      4.81814845e-03 -1.30564347e-02 6.52170926e-02 -9.89911705e-02
      -5.70733324e-02 2.66125742e-02 9.15783737e-03 -2.68859770e-02
      -2.96820924e-02 -3.37691326e-03 2.80691963e-03 -2.18477659e-02
      1.08239315e-02 -1.53774291e-03 -1.17929233e-03 5.12708724e-03
      -1.36886854e-02 6.77057356e-02 -9.98784751e-02 -5.84160499e-02
      2.71572042e-02 9.65839066e-03 -2.81936768e-02 -2.99589355e-02
      -3.51543748e-03 3.27214831e-03 -2.28270274e-02 1.09793125e-02
      -1.50194066e-03 -1.32828811e-03 5.46622137e-03 -1.43575249e-02
      6.99925274e-02 -1.00688122e-01 -5.99817671e-02 2.76504941e-02
      1.02593591e-02 -2.96860114e-02 -3.02130133e-02 -3.70239769e-03
      3.81417084e-03 -2.39426345e-02 1.11236116e-02 -1.44406862e-03
      -1.51131023e-03 5.85997850e-03 -1.51189426e-02 7.27798343e-02
      -1.01693526e-01 -6.12144396e-02 2.82795355e-02 1.06977606e-02
      -3.09941955e-02 -3.05317678e-02 -3.80415283e-03 4.27119341e-03
      -2.49656551e-02 1.13027794e-02 -1.42367871e-03 -1.65411772e-03
      6.21439330e-03 -1.58276223e-02 7.52705187e-02 -1.02589436e-01
      -6.25299290e-02 2.88498141e-02 1.11584784e-02 -3.23988721e-02
      -3.08216736e-02 -3.91720608e-03 4.75663505e-03 -2.60877423e-02
      1.14668785e-02 -1.39665022e-03 -1.80788187e-03 6.60050754e-03
      -1.66190285e-02 7.66087994e-02 -1.03097111e-01 -6.38266876e-02
      2.91616544e-02 1.16051491e-02 -3.36920880e-02 -3.09770294e-02
      -4.04340820e-03 5.20862127e-03 -2.71032434e-02 1.15511930e-02
      -1.36119931e-03 -1.95620023e-03 6.95787929e-03 -1.73241012e-02
      7.82285780e-02 -1.03733897e-01 -6.50935248e-02 2.95493100e-02
      1.20348362e-02 -3.49563733e-02 -3.11695319e-02 -4.15888103e-03
      5.64679597e-03 -2.81138793e-02 1.16556007e-02 -1.32970209e-03
      -2.09709629e-03 7.31206732e-03 -1.80381313e-02 8.09371918e-02
      -1.04764402e-01 -6.60672560e-02 3.01784575e-02 1.23704178e-02
      -3.59050296e-02 -3.14898603e-02 -4.22662869e-03 5.97928884e-03
      -2.88614240e-02 1.18354950e-02 -1.32146175e-03 -2.19582487e-03
      7.57612893e-03 -1.85574647e-02 8.26518387e-02 -1.05344579e-01
      -6.73281774e-02 3.05349901e-02 1.28631676e-02 -3.70680988e-02
      -3.16746421e-02 -4.38653165e-03 6.41580066e-03 -2.97953654e-02
      1.19439680e-02 -1.26701442e-03 -2.34895898e-03 7.92256556e-03
      -1.92271098e-02 8.34588781e-02 -1.05501771e-01 -6.88393191e-02
      3.06436121e-02 1.35079902e-02 -3.83910164e-02 -3.17354500e-02
      -4.63563856e-03 6.94388291e-03 -3.08586136e-02 1.19874217e-02
      -1.16674218e-03 -2.55229953e-03 8.33628234e-03 -2.00027730e-02
      8.38453174e-02 -1.05645858e-01 -7.00519979e-02 3.06982603e-02
      1.39820464e-02 -3.93960923e-02 -3.17545980e-02 -4.81784437e-03
      7.32416520e-03 -3.16346101e-02 1.19953714e-02 -1.09013927e-03
      -2.69653345e-03 8.62839352e-03 -2.05482747e-02 8.43477175e-02
      -1.05842166e-01 -7.12104514e-02 3.07790898e-02 1.44325467e-02
      -4.03765552e-02 -3.17848884e-02 -4.99116164e-03 7.69323856e-03
      -3.24109867e-02 1.20087443e-02 -1.01588957e-03 -2.83622206e-03
      8.92038178e-03 -2.11017989e-02 8.57878327e-02 -1.06406838e-01
      -7.21760318e-02 3.10841147e-02 1.47907222e-02 -4.12776023e-02
      -3.19322012e-02 -5.11033367e-03 8.02219193e-03 -3.31696793e-02
      1.20886741e-02 -9.71041562e-04 -2.95222434e-03 9.20010544e-03
      -2.16584373e-02 8.69893804e-02 -1.06937267e-01 -7.30590597e-02
      3.13409492e-02 1.50874704e-02 -4.20985967e-02 -3.20469067e-02
      -5.21019986e-03 8.29960499e-03 -3.38681489e-02 1.21454829e-02
      -9.29950096e-04 -3.04816128e-03 9.44421720e-03 -2.21742857e-02
      8.78887773e-02 -1.07420571e-01 -7.38095343e-02 3.15377489e-02
      1.52935181e-02 -4.27817181e-02 -3.21213566e-02 -5.27802622e-03
      8.49524047e-03 -3.44492383e-02 1.21737225e-02 -8.97854450e-04
      -3.11096944e-03 9.62528773e-03 -2.25999132e-02 8.86199325e-02
      -1.07758112e-01 -7.44430348e-02 3.16558406e-02 1.54942377e-02
      -4.32639383e-02 -3.21605951e-02 -5.35611622e-03 8.63724202e-03
      -3.48353647e-02 1.21874185e-02 -8.59185413e-04 -3.16168019e-03
      9.74645186e-03 -2.28589363e-02</data></learnt_thetas>
  <n_labels type_id="opencv-matrix">
    <rows>2</rows>
    <cols>1</cols>
    <dt>i</dt>
    <data>
      0 1</data></n_labels>
  <o_labels type_id="opencv-matrix">
    <rows>2</rows>
    <cols>1</cols>
    <dt>i</dt>
    <data>
      0 1</data></o_labels></opencv_ml_lr>
</opencv_storage>
