<?xml version="1.0"?>
<opencv_storage>
<opencv_ml_lr>
  <format>3</format>
  <classifier>"Logisitic Regression Classifier"</classifier>
  <alpha>3000.</alpha>
  <iterations>15000</iterations>
  <norm>1</norm>
  <train_method>0</train_method>
  <learnt_thetas type_id="opencv-matrix">
    <rows>1</rows>
    <cols>2550</cols>
    <dt>f</dt>
    <data>
      -2.88706350e+00 1.49275720e-01 6.18864037e-02 1.53168023e-01
      -1.48839792e-02 7.12678358e-02 4.10703383e-02 3.06027755e-02
      6.95288256e-02 -2.42798571e-02 -4.38372865e-02 -1.80702865e-01
      -1.23512000e-01 -8.92685726e-02 -6.81498786e-03 3.12459111e-01
      3.70283306e-01 4.08146590e-01 4.49430346e-01 4.86233979e-01
      1.30316943e-01 1.24418139e-01 1.90826759e-01 5.15206642e-02
      1.73109382e-01 2.15766668e-01 2.23286718e-01 3.52943063e-01
      2.11971700e-01 1.81152642e-01 1.83236852e-01 2.47535497e-01
      2.42062688e-01 2.89175957e-01 2.48106897e-01 2.56263584e-01
      2.67378509e-01 1.68656200e-01 1.96680218e-01 1.37949273e-01
      1.77881718e-02 -1.92052931e-01 -2.44358376e-01 -8.36439580e-02
      9.39685404e-02 1.64984971e-01 5.35782278e-01 5.81064999e-01
      6.92084312e-01 6.12989902e-01 6.79272294e-01 4.81010199e-01
      3.44675720e-01 3.05005610e-01 1.89147770e-01 2.73079455e-01
      2.33392581e-01 2.25896731e-01 3.17237265e-02 -1.21744581e-01
      -1.22434095e-01 -2.02429920e-01 -5.48859686e-02 8.73630121e-02
      1.08608320e-01 4.11514968e-01 3.18522185e-01 3.02407265e-01
      2.30656356e-01 2.51943946e-01 2.39112973e-01 8.73318538e-02
      1.19475789e-01 9.03309584e-02 9.58572254e-02 -1.66612446e-01
      -6.83355853e-02 9.52622816e-02 9.09389928e-02 2.38113239e-01
      2.78409660e-01 2.75667340e-01 3.02213371e-01 2.25054845e-01
      1.53335733e-02 -1.52931958e-01 -1.89587921e-02 -1.20978346e-02
      2.16613561e-02 1.50160223e-01 1.14486128e-01 6.04120791e-02
      -7.64851049e-02 4.73075323e-02 1.44650951e-01 1.87597722e-01
      2.83418000e-01 3.77175838e-01 5.08100152e-01 3.99788201e-01
      4.35486495e-01 3.17487895e-01 2.08238930e-01 2.17650563e-01
      4.33348231e-02 2.52930708e-02 -1.20850287e-01 -1.04758963e-01
      -7.03057572e-02 -1.24991544e-01 -1.01612382e-01 6.19901791e-02
      1.28805563e-01 -1.92176215e-02 1.30446749e-02 2.27804542e-01
      -4.00236100e-02 -3.92671637e-02 1.06304877e-01 8.85942653e-02
      -8.03022087e-02 -8.50126743e-02 -6.21635653e-02 -1.33860812e-01
      -9.37277302e-02 -1.19413733e-01 -1.93808019e-01 -1.42213702e-01
      -1.77622885e-01 -8.57378095e-02 -1.65745884e-01 -2.08628938e-01
      -2.11607143e-01 -3.16417247e-01 -2.85236567e-01 -3.33245039e-01
      -3.19060475e-01 -5.69546282e-01 -5.30392230e-01 -4.45813179e-01
      -5.11996686e-01 -4.52202708e-01 -4.94733602e-01 -3.13513130e-01
      -2.58849412e-01 -2.15827227e-01 -1.44184530e-01 -1.86940819e-01
      2.94727832e-02 -1.27936145e-02 -1.44912049e-01 -1.66362301e-01
      -8.25819820e-02 -2.51302626e-02 9.44368020e-02 7.03386888e-02
      1.32619992e-01 4.89865363e-01 3.52446318e-01 3.28380942e-01
      2.65692919e-01 3.25588733e-01 2.60452211e-01 1.74273372e-01
      1.69918016e-01 1.75537005e-01 1.66035697e-01 1.30486101e-01
      2.02319190e-01 2.18749776e-01 1.74927771e-01 2.08601177e-01
      2.47289196e-01 4.44128722e-01 4.51002955e-01 3.68300617e-01
      4.30588484e-01 1.82341680e-01 7.85475373e-02 -5.60914120e-03
      -6.07932173e-02 -1.17492728e-01 -3.19596231e-02 3.63944061e-02
      1.27550006e-01 2.53791720e-01 1.35342047e-01 1.94162950e-01
      1.85563177e-01 1.26842186e-01 1.68314010e-01 4.34220806e-02
      5.68712242e-02 -1.23687245e-01 -1.65982932e-01 -2.26277351e-01
      -3.58024418e-01 -3.80417109e-01 -4.25425678e-01 -3.58853519e-01
      -5.13485551e-01 -5.18947184e-01 -2.62691259e-01 -3.59772146e-01
      -1.97410867e-01 -1.07200220e-01 -6.28184006e-02 2.06817597e-01
      7.90116340e-02 1.17520861e-01 -4.50116768e-02 4.52127568e-02
      -1.33975983e-01 -2.34593019e-01 -2.26814717e-01 -2.71679342e-01
      -2.70252973e-01 -2.74702907e-01 -2.42540374e-01 -9.81031209e-02
      -1.56692103e-01 -1.74112871e-01 -1.70613080e-01 -1.01555265e-01
      -1.17411159e-01 -1.26531601e-01 -4.68339361e-02 -2.00657174e-01
      -2.36999661e-01 -3.28548700e-01 -2.79315591e-01 -3.74352545e-01
      -3.19217712e-01 -1.81219921e-01 -2.22746477e-01 -3.59072834e-02
      -1.02442233e-02 6.44782260e-02 2.32089028e-01 1.52546093e-01
      -8.77796952e-03 -5.51693738e-02 7.74201229e-02 -1.53820381e-01
      -1.96004033e-01 -3.03266346e-01 -3.47681969e-01 -1.30133376e-01
      -3.24434191e-01 -2.67981470e-01 4.01298925e-02 -3.01241279e-02
      6.23423122e-02 1.29741028e-01 2.53332525e-01 1.59439906e-01
      2.06932515e-01 6.18568897e-01 5.99843860e-01 6.99031889e-01
      6.89735293e-01 7.04985499e-01 6.91847265e-01 6.14017844e-01
      7.50427008e-01 5.17234981e-01 2.68229336e-01 2.57616460e-01
      3.55575144e-01 4.52779353e-01 4.07691866e-01 4.32844430e-01
      4.75226879e-01 5.41772008e-01 5.62703371e-01 5.76574862e-01
      6.39746249e-01 5.28721511e-01 3.80047411e-01 3.20332199e-01
      3.58277798e-01 1.83716759e-01 1.29797012e-01 1.10123709e-01
      1.24638036e-01 2.00394437e-01 7.07654878e-02 8.16526785e-02
      4.33611423e-02 -6.70967028e-02 -1.20390601e-01 -1.21880852e-01
      -3.29166092e-02 -3.40382010e-01 -3.88536930e-01 -4.55730468e-01
      -6.02480292e-01 -5.17284095e-01 -6.05595529e-01 -2.87239552e+00
      -1.84971705e-01 -1.23685107e-01 1.39423907e-01 -3.40919532e-02
      2.54001822e-02 6.30260631e-02 -3.20300721e-02 4.06777672e-03
      4.97716293e-03 5.68070300e-02 -1.44996028e-02 -3.02200927e-03
      -1.67790905e-03 9.35191382e-03 4.04735394e-02 -1.69754222e-01
      -1.17011517e-01 1.32117540e-01 -3.09212357e-02 2.35088579e-02
      5.85134253e-02 -3.08011286e-02 3.69994808e-03 3.74565832e-03
      5.39655946e-02 -1.39562832e-02 -3.14122974e-03 -2.01150635e-03
      8.58666003e-03 3.87892202e-02 -1.55387253e-01 -1.10864714e-01
      1.24556623e-01 -2.79601552e-02 2.14943904e-02 5.39276525e-02
      -2.96580382e-02 3.29829101e-03 2.51992512e-03 5.10772020e-02
      -1.34450197e-02 -3.27341654e-03 -2.32305215e-03 7.84114748e-03
      3.70185524e-02 -1.43406689e-01 -1.06568024e-01 1.16299964e-01
      -2.59868093e-02 1.90275572e-02 4.89588678e-02 -2.90183630e-02
      2.67663947e-03 1.16737187e-03 4.78160121e-02 -1.31753609e-02
      -3.51700303e-03 -2.66970810e-03 7.00764172e-03 3.48730981e-02
      -1.22510426e-01 -9.87723544e-02 1.09960131e-01 -2.25108657e-02
      1.73119996e-02 4.43385541e-02 -2.79569123e-02 2.34448351e-03
      -7.60418698e-05 4.44978736e-02 -1.27847679e-02 -3.68165551e-03
      -2.96348589e-03 6.12711022e-03 3.25913429e-02 -9.51725617e-02
      -8.83094817e-02 1.05060078e-01 -1.77336335e-02 1.61983371e-02
      4.00697179e-02 -2.64299177e-02 2.29108939e-03 -1.19406928e-03
      4.12726812e-02 -1.21986931e-02 -3.74209089e-03 -3.18896887e-03
      5.25920372e-03 3.03439815e-02 -6.73080683e-02 -7.88773075e-02
      1.03700072e-01 -1.34100327e-02 1.63048469e-02 3.78797129e-02
      -2.51673292e-02 2.71221390e-03 -1.56915723e-03 3.93202305e-02
      -1.16894608e-02 -3.62222060e-03 -3.12718446e-03 4.82717669e-03
      2.89325304e-02 -3.80960926e-02 -6.88486546e-02 1.03333451e-01
      -8.37892201e-03 1.67711042e-02 3.62319164e-02 -2.34620348e-02
      3.36088869e-03 -1.79127883e-03 3.77438031e-02 -1.08847627e-02
      -3.37444292e-03 -2.99254619e-03 4.49670013e-03 2.77913697e-02
      -3.62644112e-03 -5.65302372e-02 1.04167014e-01 -1.66863797e-03
      1.77956466e-02 3.45101394e-02 -2.08807383e-02 4.33735177e-03
      -2.03061174e-03 3.57937403e-02 -9.55611095e-03 -2.94072041e-03
      -2.83224881e-03 4.04433114e-03 2.62667201e-02 2.89714094e-02
      -4.58083563e-02 1.05737008e-01 4.66857059e-03 1.88971311e-02
      3.33608203e-02 -1.83205586e-02 5.37433662e-03 -2.15485622e-03
      3.42218317e-02 -8.09718017e-03 -2.45768880e-03 -2.62765004e-03
      3.68408370e-03 2.49761306e-02 5.93910739e-02 -3.73419300e-02
      1.08679883e-01 1.00392923e-02 2.02632174e-02 3.29616852e-02
      -1.61928069e-02 6.47834642e-03 -2.07756762e-03 3.29627693e-02
      -6.75424002e-03 -1.96071086e-03 -2.35263817e-03 3.41280969e-03
      2.37810686e-02 8.23443085e-02 -3.39239240e-02 1.11219808e-01
      1.23234456e-02 2.09911354e-02 3.25609893e-02 -1.57466214e-02
      7.03089358e-03 -2.16198200e-03 3.18286158e-02 -6.29973039e-03
      -1.76023785e-03 -2.22671707e-03 3.13217076e-03 2.26626359e-02
      1.02048300e-01 -3.31919417e-02 1.12856306e-01 1.30881863e-02
      2.11757682e-02 3.20076197e-02 -1.61809176e-02 7.25987973e-03
      -2.36934517e-03 3.07117216e-02 -6.29791850e-03 -1.72806252e-03
      -2.17574695e-03 2.83960532e-03 2.15731431e-02 1.20070852e-01
      -3.42516527e-02 1.12073541e-01 1.38876364e-02 2.01136582e-02
      3.02046072e-02 -1.63107440e-02 7.03428173e-03 -3.26498505e-03
      2.87982691e-02 -5.89290773e-03 -1.81741442e-03 -2.40781228e-03
      2.14200327e-03 1.99890658e-02 1.33513436e-01 -3.63725834e-02
      1.10813126e-01 1.42165851e-02 1.90555919e-02 2.79441886e-02
      -1.65444389e-02 6.74036564e-03 -4.16973699e-03 2.65769698e-02
      -5.54505689e-03 -1.93117850e-03 -2.64578802e-03 1.46262429e-03
      1.81954429e-02 1.36415660e-01 -4.32495736e-02 1.08509459e-01
      1.09245311e-02 1.76213030e-02 2.54478212e-02 -1.88840423e-02
      5.93681866e-03 -4.95891040e-03 2.42802780e-02 -6.58347178e-03
      -2.38665729e-03 -2.89004319e-03 9.15519777e-04 1.63590051e-02
      1.38439596e-01 -4.91700061e-02 1.07093416e-01 8.21611658e-03
      1.66078359e-02 2.32353676e-02 -2.07403097e-02 5.25715481e-03
      -5.64073958e-03 2.21454445e-02 -7.36754853e-03 -2.74651614e-03
      -3.11934040e-03 4.20939759e-04 1.46644991e-02 1.43472210e-01
      -5.24632111e-02 1.05800398e-01 6.76672440e-03 1.58165004e-02
      2.13456880e-02 -2.19293889e-02 4.67673969e-03 -6.22570654e-03
      2.03286149e-02 -7.82947149e-03 -3.03179631e-03 -3.32984421e-03
      1.26995774e-05 1.32302269e-02 1.50464013e-01 -5.39618582e-02
      1.03848107e-01 5.55819785e-03 1.52084399e-02 1.85096227e-02
      -2.31193714e-02 4.20332188e-03 -6.92920201e-03 1.76976584e-02
      -8.44382495e-03 -3.26006790e-03 -3.54186445e-03 -5.69240074e-04
      1.11895977e-02 1.56912610e-01 -5.41328862e-02 1.01878524e-01
      5.18135959e-03 1.49356294e-02 1.54399872e-02 -2.36753915e-02
      3.98641359e-03 -7.59265106e-03 1.49229132e-02 -8.71494785e-03
      -3.32210097e-03 -3.70199909e-03 -1.16809888e-03 9.09307599e-03
      1.69078529e-01 -4.86941338e-02 1.02093324e-01 7.02233426e-03
      1.61795001e-02 1.27459243e-02 -2.31786445e-02 4.48798016e-03
      -7.91384373e-03 1.23267090e-02 -8.63264129e-03 -3.07732518e-03
      -3.70824034e-03 -1.68509420e-03 7.16814259e-03 1.75011322e-01
      -4.49312069e-02 1.01021536e-01 8.14843643e-03 1.69319306e-02
      9.97911394e-03 -2.27298886e-02 4.78104549e-03 -8.31403770e-03
      9.97969043e-03 -8.52155965e-03 -2.88634375e-03 -3.77274049e-03
      -2.17275624e-03 5.49125625e-03 1.72724783e-01 -4.44908850e-02
      9.83591229e-02 7.66042946e-03 1.67605970e-02 7.23763974e-03
      -2.28185039e-02 4.61408682e-03 -8.84701684e-03 8.05669744e-03
      -8.62179417e-03 -2.88693770e-03 -3.94215574e-03 -2.59577436e-03
      4.20326553e-03 1.72587767e-01 -4.16688994e-02 9.50358286e-02
      8.60482175e-03 1.65047385e-02 3.85779259e-03 -2.21860595e-02
      4.53855796e-03 -9.61377192e-03 5.86824166e-03 -8.39749537e-03
      -2.83836154e-03 -4.18146746e-03 -3.16013978e-03 2.84423493e-03
      1.77285001e-01 -3.52181718e-02 9.13226977e-02 1.15148015e-02
      1.65281836e-02 -2.18072528e-04 -2.05930825e-02 4.74666664e-03
      -1.04900738e-02 3.26475198e-03 -7.72550842e-03 -2.63213296e-03
      -4.40673670e-03 -3.82576394e-03 1.27431599e-03 1.86639026e-01
      -2.53551807e-02 8.88634846e-02 1.59524176e-02 1.73530318e-02
      -3.84839438e-03 -1.83617715e-02 5.32645779e-03 -1.11098140e-02
      9.08324961e-04 -6.84052659e-03 -2.27653375e-03 -4.52749059e-03
      -4.37291479e-03 -1.52977431e-04 1.93818837e-01 -1.59421060e-02
      8.54081288e-02 2.05480251e-02 1.77142899e-02 -7.45971408e-03
      -1.58875640e-02 5.78656700e-03 -1.18265199e-02 -1.23129424e-03
      -5.78170782e-03 -1.93657912e-03 -4.69286786e-03 -4.89906128e-03
      -1.36520294e-03 1.99639112e-01 -6.70047011e-03 8.07774886e-02
      2.52954308e-02 1.76290795e-02 -1.14655187e-02 -1.32037159e-02
      6.14063954e-03 -1.26914587e-02 -3.56077240e-03 -4.58370568e-03
      -1.60839770e-03 -4.90618404e-03 -5.48059121e-03 -2.67501129e-03
      1.98823109e-01 -3.13879573e-03 7.57412091e-02 2.69450173e-02
      1.65449400e-02 -1.47017119e-02 -1.21540809e-02 5.84955374e-03
      -1.35555649e-02 -5.29495208e-03 -4.17074235e-03 -1.63065561e-03
      -5.20243449e-03 -5.93972998e-03 -3.60065605e-03 1.89952150e-01
      -6.02499349e-03 7.06482679e-02 2.46697739e-02 1.47585757e-02
      -1.73239429e-02 -1.32800983e-02 4.99324454e-03 -1.43564772e-02
      -6.57309778e-03 -4.90650255e-03 -2.01106258e-03 -5.54331345e-03
      -6.28721528e-03 -4.21298901e-03 1.80410951e-01 -8.19969736e-03
      6.56160116e-02 2.27636863e-02 1.32627692e-02 -2.00066790e-02
      -1.41005768e-02 4.30045417e-03 -1.49948942e-02 -7.95712695e-03
      -5.49271656e-03 -2.31302087e-03 -5.80311567e-03 -6.55816309e-03
      -4.95007867e-03 1.71742633e-01 -1.05729774e-02 6.15915135e-02
      2.07028091e-02 1.21683376e-02 -2.21508592e-02 -1.50403380e-02
      3.73949879e-03 -1.53522352e-02 -9.18460917e-03 -6.12521032e-03
      -2.59184139e-03 -5.94720338e-03 -6.70600776e-03 -5.67875942e-03
      1.67283118e-01 -1.06227817e-02 5.63211627e-02 2.03839913e-02
      1.07520949e-02 -2.55923569e-02 -1.50099462e-02 3.24114691e-03
      -1.62009057e-02 -1.14722122e-02 -6.18086569e-03 -2.77717621e-03
      -6.21395931e-03 -7.25514768e-03 -7.14221597e-03 1.65252775e-01
      -8.90721660e-03 5.01218438e-02 2.10650172e-02 9.09066200e-03
      -2.95173097e-02 -1.44468043e-02 2.72186915e-03 -1.71906557e-02
      -1.40103865e-02 -5.94980828e-03 -2.95389211e-03 -6.51607849e-03
      -7.88303558e-03 -8.72567389e-03 1.59384698e-01 -1.05366586e-02
      4.43418212e-02 1.95943080e-02 7.17718899e-03 -3.35946307e-02
      -1.50964512e-02 1.90819765e-03 -1.82182565e-02 -1.67233236e-02
      -6.36223843e-03 -3.35911475e-03 -6.85899425e-03 -8.52366816e-03
      -1.04663223e-02 1.50622696e-01 -1.41790798e-02 3.84132974e-02
      1.72816217e-02 5.01665380e-03 -3.77411209e-02 -1.60908718e-02
      9.98366391e-04 -1.93442870e-02 -1.92930177e-02 -6.88980473e-03
      -3.79881193e-03 -7.23502506e-03 -9.17062908e-03 -1.20243402e-02
      1.41184852e-01 -1.93572212e-02 3.32186706e-02 1.43093504e-02
      2.90280860e-03 -4.12852690e-02 -1.74258966e-02 1.06314750e-04
      -2.03382988e-02 -2.14114469e-02 -7.53789162e-03 -4.23764950e-03
      -7.56233558e-03 -9.71414056e-03 -1.32779442e-02 1.30548134e-01
      -2.60467678e-02 2.90772840e-02 1.09257447e-02 9.40310245e-04
      -4.39936854e-02 -1.89605672e-02 -6.48367452e-04 -2.11977847e-02
      -2.29541808e-02 -8.22776463e-03 -4.58759768e-03 -7.83681124e-03
      -1.01557309e-02 -1.41605120e-02 1.20214969e-01 -3.26983109e-02
      2.51850802e-02 7.92189129e-03 -9.75575997e-04 -4.62490432e-02
      -2.02448480e-02 -1.31902902e-03 -2.19862536e-02 -2.41538379e-02
      -8.72502942e-03 -4.87451814e-03 -8.08325317e-03 -1.05330199e-02
      -1.48224253e-02 1.11177534e-01 -3.88319120e-02 2.25343965e-02
      5.30578149e-03 -2.33498681e-03 -4.77887280e-02 -2.14689951e-02
      -1.73256593e-03 -2.25504935e-02 -2.49561798e-02 -9.22529399e-03
      -5.06373355e-03 -8.23975727e-03 -1.08083282e-02 -1.52486758e-02
      1.04868449e-01 -4.40773629e-02 2.04792134e-02 3.33982660e-03
      -3.50554939e-03 -4.89838496e-02 -2.24194638e-02 -2.05036579e-03
      -2.30399501e-02 -2.55242251e-02 -9.54066217e-03 -5.21576172e-03
      -8.37137830e-03 -1.10305827e-02 -1.55204665e-02 1.07092395e-01
      -4.68544997e-02 2.04361603e-02 2.36807903e-03 -4.17393260e-03
      -4.93227690e-02 -2.31006481e-02 -2.25122320e-03 -2.33331397e-02
      -2.56758947e-02 -9.70064104e-03 -5.35306009e-03 -8.45797453e-03
      -1.11518661e-02 -1.55694913e-02 1.15701556e-01 -4.71287034e-02
      2.21541580e-02 2.31006718e-03 -4.04638797e-03 -4.90679853e-02
      -2.35825386e-02 -2.14812253e-03 -2.34136283e-02 -2.55812779e-02
      -9.82818007e-03 -5.38208382e-03 -8.46595690e-03 -1.11990310e-02
      -1.54961292e-02 1.28861442e-01 -4.52995859e-02 2.47617662e-02
      3.08470032e-03 -3.36046377e-03 -4.85375971e-02 -2.38474496e-02
      -1.80670654e-03 -2.33448949e-02 -2.53797546e-02 -9.92171001e-03
      -5.31496620e-03 -8.40562955e-03 -1.11978883e-02 -1.53657906e-02
      1.39649943e-01 -4.33776528e-02 2.57972348e-02 4.15102812e-03
      -3.17718019e-03 -4.84380238e-02 -2.38080453e-02 -1.66650664e-03
      -2.34566964e-02 -2.53340863e-02 -9.85756796e-03 -5.28083555e-03
      -8.43000505e-03 -1.12643577e-02 -1.52773457e-02 1.49253085e-01
      -4.14418317e-02 2.60060020e-02 5.66885807e-03 -3.14230798e-03
      -4.85185832e-02 -2.33858358e-02 -1.50148442e-03 -2.36050282e-02
      -2.53505819e-02 -9.53440741e-03 -5.18016471e-03 -8.44733231e-03
      -1.13386661e-02 -1.52179208e-02 1.57114640e-01 -3.97056229e-02
      2.39854716e-02 7.26029929e-03 -3.66319669e-03 -4.92495447e-02
      -2.27455441e-02 -1.50099688e-03 -2.38881391e-02 -2.56022438e-02
      -9.06194746e-03 -5.06745139e-03 -8.49485490e-03 -1.14447046e-02
      -1.52577246e-02 1.66158184e-01 -3.64655480e-02 2.29291525e-02
      9.68864467e-03 -3.55654047e-03 -4.94757220e-02 -2.16457937e-02
      -1.23734446e-03 -2.39222366e-02 -2.56967749e-02 -8.37873388e-03
      -4.81631421e-03 -8.44457746e-03 -1.14641795e-02 -1.52625991e-02
      1.77070081e-01 -3.12877707e-02 2.32179984e-02 1.28125167e-02
      -2.72061466e-03 -4.91335839e-02 -2.02576201e-02 -7.51100539e-04
      -2.36920081e-02 -2.56380178e-02 -7.63896760e-03 -4.47760941e-03
      -8.31160601e-03 -1.13992216e-02 -1.52407754e-02 1.79421410e-01
      -3.01535986e-02 2.03268472e-02 1.34603372e-02 -3.15656862e-03
      -5.00070155e-02 -2.01038755e-02 -9.43696476e-04 -2.38650572e-02
      -2.60320753e-02 -7.60273170e-03 -4.47400985e-03 -8.36603343e-03
      -1.14605110e-02 -1.53911998e-02 1.78383023e-01 -2.99544688e-02
      1.63499061e-02 1.35861896e-02 -3.89705226e-03 -5.12409694e-02
      -2.02015750e-02 -1.29258784e-03 -2.41317898e-02 -2.65474170e-02
      -7.73461862e-03 -4.55130497e-03 -8.46071169e-03 -1.15469061e-02
      -1.55924754e-02 1.87928230e-01 -2.28080563e-02 1.50803775e-02
      1.66433528e-02 -3.33981472e-03 -5.17794415e-02 -1.88349895e-02
      -1.14527869e-03 -2.40762122e-02 -2.69446094e-02 -7.26610376e-03
      -4.40409128e-03 -8.44308175e-03 -1.15685500e-02 -1.57923046e-02
      1.92428648e-01 -1.79353636e-02 1.33660920e-02 1.87241957e-02
      -3.20848939e-03 -5.23284115e-02 -1.77838411e-02 -1.18589716e-03
      -2.41010673e-02 -2.73016915e-02 -6.91265753e-03 -4.34141513e-03
      -8.46667308e-03 -1.16017219e-02 -1.59816816e-02 1.84314221e-01
      -1.96772739e-02 1.06695015e-02 1.74761955e-02 -4.14262479e-03
      -5.29096462e-02 -1.81007404e-02 -1.77847187e-03 -2.43204534e-02
      -2.75818184e-02 -7.16603920e-03 -4.55123000e-03 -8.61522648e-03
      -1.16698826e-02 -1.61374882e-02 1.70801342e-01 -2.45586373e-02
      8.83482583e-03 1.45864626e-02 -5.07664355e-03 -5.33704013e-02
      -1.91316996e-02 -2.44648336e-03 -2.45148186e-02 -2.77577601e-02
      -7.73299905e-03 -4.84525273e-03 -8.76638200e-03 -1.17069352e-02
      -1.62498336e-02 1.54389590e-01 -3.09334286e-02 7.61042489e-03
      1.10727483e-02 -5.97253721e-03 -5.36820777e-02 -2.03940365e-02
      -3.11204419e-03 -2.46665310e-02 -2.78335083e-02 -8.37786961e-03
      -5.16719325e-03 -8.90190434e-03 -1.17143625e-02 -1.63228009e-02
      1.37883410e-01 -3.65112461e-02 4.80812555e-03 7.92383775e-03
      -7.29096774e-03 -5.48823848e-02 -2.14008875e-02 -3.83726088e-03
      -2.50749998e-02 -2.82195657e-02 -8.89280718e-03 -5.49610611e-03
      -9.11715999e-03 -1.18300058e-02 -1.64895542e-02 1.19117431e-01
      -4.27495502e-02 1.97103852e-03 4.98559978e-03 -8.59975629e-03
      -5.61767332e-02 -2.21680962e-02 -4.45804326e-03 -2.55182199e-02
      -2.86106244e-02 -9.21894331e-03 -5.75247640e-03 -9.32046678e-03
      -1.19546335e-02 -1.66508425e-02 9.71748531e-02 -4.90178205e-02
      2.62154615e-04 2.46684207e-03 -9.21955146e-03 -5.73174544e-02
      -2.26340685e-02 -4.64215642e-03 -2.57968996e-02 -2.89664958e-02
      -9.42761172e-03 -5.80413500e-03 -9.41769313e-03 -1.20464135e-02
      -1.67928748e-02 7.96069652e-02 -5.44586554e-02 -1.27656094e-03
      2.19117632e-04 -1.00295823e-02 -5.81134781e-02 -2.31327508e-02
      -4.95621189e-03 -2.60484852e-02 -2.91634295e-02 -9.63286124e-03
      -5.93710085e-03 -9.52271558e-03 -1.21123102e-02 -1.68595575e-02
      6.61044121e-02 -5.92381470e-02 -1.96469459e-03 -1.80684484e-03
      -1.08329244e-02 -5.83158210e-02 -2.36137733e-02 -5.34230936e-03
      -2.61974484e-02 -2.91201863e-02 -9.78943706e-03 -6.12994935e-03
      -9.61241219e-03 -1.21278800e-02 -1.68287754e-02 5.50113171e-02
      -6.47740811e-02 -2.78404495e-03 -4.59575700e-03 -1.17291221e-02
      -5.84225394e-02 -2.47828010e-02 -5.75568760e-03 -2.63416879e-02
      -2.90312413e-02 -1.03341416e-02 -6.35775318e-03 -9.69005097e-03
      -1.21458936e-02 -1.67613868e-02 4.72455174e-02 -6.93384409e-02
      -3.42058693e-03 -6.81206305e-03 -1.24316458e-02 -5.83946668e-02
      -2.57772654e-02 -6.01490354e-03 -2.64431946e-02 -2.89112311e-02
      -1.07790045e-02 -6.49987906e-03 -9.73103847e-03 -1.21618984e-02
      -1.66750588e-02 5.00689447e-02 -6.86018839e-02 -1.69286469e-03
      -6.58050133e-03 -1.17349615e-02 -5.78670390e-02 -2.58062854e-02
      -5.58495894e-03 -2.62149163e-02 -2.87540853e-02 -1.08193783e-02
      -6.33535534e-03 -9.60050616e-03 -1.21141924e-02 -1.66103989e-02
      5.52370138e-02 -6.70191869e-02 -4.61853720e-04 -5.84743358e-03
      -1.11028869e-02 -5.75084835e-02 -2.56723166e-02 -5.12469001e-03
      -2.60305703e-02 -2.86781806e-02 -1.07874712e-02 -6.14618603e-03
      -9.46734753e-03 -1.20896921e-02 -1.65839139e-02 6.27917126e-02
      -6.45388216e-02 -2.30887192e-04 -4.34008613e-03 -1.06705008e-02
      -5.75605668e-02 -2.51746755e-02 -4.65110829e-03 -2.59615462e-02
      -2.88102645e-02 -1.05352802e-02 -5.91861038e-03 -9.35087260e-03
      -1.21239936e-02 -1.66378096e-02 7.31120929e-02 -6.11494705e-02
      -5.52179481e-05 -2.73242663e-03 -1.02207670e-02 -5.75334914e-02
      -2.47759447e-02 -4.24927473e-03 -2.58563273e-02 -2.89020520e-02
      -1.03743300e-02 -5.74758742e-03 -9.24163777e-03 -1.21367136e-02
      -1.66880451e-02 8.27946439e-02 -5.92644997e-02 -2.46239390e-04
      -2.12184782e-03 -1.02528054e-02 -5.74860722e-02 -2.49896646e-02
      -4.16794233e-03 -2.58371141e-02 -2.89568882e-02 -1.05194747e-02
      -5.75661147e-03 -9.19996109e-03 -1.21558309e-02 -1.67357288e-02
      9.46091786e-02 -5.67236580e-02 1.70415349e-03 -1.11545227e-03
      -9.60586779e-03 -5.68272099e-02 -2.49791089e-02 -3.85457487e-03
      -2.56125238e-02 -2.88294870e-02 -1.05252517e-02 -5.65934088e-03
      -9.08267964e-03 -1.21062789e-02 -1.67332906e-02 1.07267767e-01
      -5.30500524e-02 4.02809260e-03 5.88234514e-04 -8.63517728e-03
      -5.60593605e-02 -2.45545730e-02 -3.37800966e-03 -2.52989531e-02
      -2.86711846e-02 -1.03277201e-02 -5.46866190e-03 -8.92236829e-03
      -1.20277423e-02 -1.67295467e-02 1.21263154e-01 -5.09254597e-02
      6.08120067e-03 1.14060333e-03 -8.43615737e-03 -5.52232340e-02
      -2.48964317e-02 -3.41475243e-03 -2.52040513e-02 -2.84197349e-02
      -1.05172265e-02 -5.56489406e-03 -8.90902989e-03 -1.19911032e-02
      -1.66624393e-02 1.39275610e-01 -4.64126319e-02 9.00459848e-03
      2.86898366e-03 -7.72755267e-03 -5.40975407e-02 -2.47101132e-02
      -3.23607493e-03 -2.49682982e-02 -2.80126911e-02 -1.04631204e-02
      -5.56976954e-03 -8.83861352e-03 -1.18961437e-02 -1.65174175e-02
      1.54190958e-01 -4.24921848e-02 1.14143305e-02 4.44366923e-03
      -7.13027734e-03 -5.29952757e-02 -2.44456250e-02 -3.11421277e-03
      -2.47148369e-02 -2.75460128e-02 -1.03580672e-02 -5.58124064e-03
      -8.76974966e-03 -1.17709395e-02 -1.63300503e-02 1.67421833e-01
      -3.95657234e-02 1.30121429e-02 5.73019125e-03 -6.85747759e-03
      -5.22055291e-02 -2.42704488e-02 -3.11602908e-03 -2.45889444e-02
      -2.71219015e-02 -1.02510424e-02 -5.63452067e-03 -8.74753669e-03
      -1.16700651e-02 -1.61186364e-02 1.76506817e-01 -3.88128385e-02
      1.39660202e-02 6.29258202e-03 -6.93969103e-03 -5.16288429e-02
      -2.42928490e-02 -3.25278076e-03 -2.45736130e-02 -2.67296005e-02
      -1.01454668e-02 -5.72712347e-03 -8.76629725e-03 -1.15952007e-02
      -1.58937499e-02 1.83947340e-01 -3.85954902e-02 1.66630875e-02
      6.56899903e-03 -6.41421834e-03 -5.04116900e-02 -2.44225897e-02
      -3.21148639e-03 -2.43557002e-02 -2.60918662e-02 -1.01118302e-02
      -5.75332949e-03 -8.72409437e-03 -1.14506409e-02 -1.55558726e-02
      1.89307228e-01 -3.93066369e-02 1.84432548e-02 6.51239650e-03
      -6.16233423e-03 -4.94184718e-02 -2.46668793e-02 -3.26812896e-03
      -2.42322385e-02 -2.55010203e-02 -1.01143057e-02 -5.80270914e-03
      -8.71809386e-03 -1.13340504e-02 -1.52255110e-02 1.93110019e-01
      -4.03560288e-02 2.03367695e-02 6.09699544e-03 -5.95359970e-03
      -4.84956875e-02 -2.50800811e-02 -3.39384936e-03 -2.41737477e-02
      -2.49426644e-02 -1.02475882e-02 -5.88332023e-03 -8.75357073e-03
      -1.12459352e-02 -1.49082066e-02 1.94276646e-01 -4.15511467e-02
      2.18299124e-02 5.87344868e-03 -5.78271179e-03 -4.76686433e-02
      -2.52405312e-02 -3.49597773e-03 -2.41203960e-02 -2.44087949e-02
      -1.02353105e-02 -5.92192728e-03 -8.78557935e-03 -1.11579625e-02
      -1.46067701e-02 1.90546200e-01 -4.39877249e-02 2.24408265e-02
      5.31143881e-03 -5.83751826e-03 -4.70264070e-02 -2.53424868e-02
      -3.68992775e-03 -2.40952130e-02 -2.39254385e-02 -1.01458738e-02
      -5.95640205e-03 -8.83049611e-03 -1.10691106e-02 -1.43331289e-02
      1.81862727e-01 -4.71891090e-02 2.25441996e-02 4.23275214e-03
      -5.80111425e-03 -4.67202552e-02 -2.55664978e-02 -3.83601966e-03
      -2.40475517e-02 -2.36366522e-02 -1.01722125e-02 -5.96091524e-03
      -8.85718316e-03 -1.09923668e-02 -1.41534572e-02 1.68684617e-01
      -5.15190028e-02 2.13556290e-02 2.48422590e-03 -6.11623516e-03
      -4.67564687e-02 -2.60350518e-02 -4.12152242e-03 -2.40589585e-02
      -2.34531201e-02 -1.03573455e-02 -6.01895293e-03 -8.90802220e-03
      -1.09271957e-02 -1.40219117e-02 1.52221292e-01 -5.57139181e-02
      1.99637357e-02 3.58531659e-04 -6.14632294e-03 -4.71420512e-02
      -2.66228132e-02 -4.33401857e-03 -2.40546763e-02 -2.34591924e-02
      -1.07114594e-02 -6.03295630e-03 -8.95913970e-03 -1.08738570e-02
      -1.39854960e-02 1.35249898e-01 -5.91035187e-02 1.89347044e-02
      -1.36991893e-03 -5.95776970e-03 -4.74335849e-02 -2.69705784e-02
      -4.43285285e-03 -2.39800625e-02 -2.34586950e-02 -1.09929470e-02
      -5.99636044e-03 -8.97587370e-03 -1.08052660e-02 -1.39650358e-02
      1.17109932e-01 -6.08113594e-02 1.84513703e-02 -2.32173572e-03
      -5.38041675e-03 -4.76588570e-02 -2.67270021e-02 -4.31111315e-03
      -2.37813685e-02 -2.34421715e-02 -1.10253571e-02 -5.83697017e-03
      -8.93039256e-03 -1.07038887e-02 -1.39580127e-02 9.42724496e-02
      -6.51849583e-02 1.77542884e-02 -4.84757312e-03 -5.29624335e-03
      -4.78634126e-02 -2.71791499e-02 -4.48284578e-03 -2.36814227e-02
      -2.33984888e-02 -1.13845058e-02 -5.83456364e-03 -8.95688962e-03
      -1.06263813e-02 -1.39447441e-02 7.38812014e-02 -6.94468543e-02
      1.67581905e-02 -7.72947120e-03 -5.46329888e-03 -4.81677987e-02
      -2.79710013e-02 -4.78845462e-03 -2.36533061e-02 -2.33862605e-02
      -1.19412215e-02 -5.93119254e-03 -9.02321190e-03 -1.05730416e-02
      -1.39455535e-02 5.55125028e-02 -7.06225410e-02 1.61247402e-02
      -9.34914965e-03 -5.27263386e-03 -4.84693311e-02 -2.79924925e-02
      -4.83587803e-03 -2.35351566e-02 -2.33592018e-02 -1.21897170e-02
      -5.89341670e-03 -9.04039666e-03 -1.05034513e-02 -1.39533915e-02
      3.79603766e-02 -7.04101399e-02 1.51739772e-02 -1.01293456e-02
      -5.06813638e-03 -4.88590039e-02 -2.75676996e-02 -4.77151200e-03
      -2.34154928e-02 -2.33563799e-02 -1.22180497e-02 -5.79526601e-03
      -9.03783459e-03 -1.04420474e-02 -1.39768543e-02 1.81482285e-02
      -7.29324669e-02 1.32197170e-02 -1.22261159e-02 -5.49814897e-03
      -5.00372499e-02 -2.79548392e-02 -5.01792692e-03 -2.35858653e-02
      -2.37087328e-02 -1.26119982e-02 -5.88826835e-03 -9.14533529e-03
      -1.04941279e-02 -1.41442763e-02 1.53066896e-04 -7.37937614e-02
      1.12625314e-02 -1.31628877e-02 -5.78205613e-03 -5.12293205e-02
      -2.77212840e-02 -5.10428287e-03 -2.37379894e-02 -2.40540728e-02
      -1.26656918e-02 -5.89354942e-03 -9.22634359e-03 -1.05449129e-02
      -1.43034086e-02 -1.54616144e-02 -7.35473856e-02 9.03187692e-03
      -1.33914519e-02 -6.00609416e-03 -5.25005609e-02 -2.71025281e-02
      -5.04806498e-03 -2.38728952e-02 -2.44998839e-02 -1.24736093e-02
      -5.82737895e-03 -9.27761942e-03 -1.06211165e-02 -1.45003032e-02
      -3.52767371e-02 -7.61995018e-02 6.13243738e-03 -1.46191521e-02
      -6.79705478e-03 -5.38274944e-02 -2.68365759e-02 -5.21165645e-03
      -2.41606738e-02 -2.49449387e-02 -1.23476703e-02 -5.83152659e-03
      -9.39198304e-03 -1.07424026e-02 -1.46923568e-02 -5.85633852e-02
      -8.15293565e-02 2.67100101e-03 -1.68461893e-02 -8.06056987e-03
      -5.52581027e-02 -2.69626696e-02 -5.57066314e-03 -2.45946851e-02
      -2.54164636e-02 -1.23203592e-02 -5.90449153e-03 -9.56773851e-03
      -1.09108817e-02 -1.48904603e-02 -7.58609623e-02 -8.52980241e-02
      -1.20001240e-03 -1.83913242e-02 -9.52869747e-03 -5.68372943e-02
      -2.69873478e-02 -6.00219145e-03 -2.51057725e-02 -2.60524917e-02
      -1.22598168e-02 -6.03267970e-03 -9.76994727e-03 -1.11356294e-02
      -1.51497433e-02 -9.17865410e-02 -8.86886418e-02 -5.60102519e-03
      -1.95685569e-02 -1.11569017e-02 -5.85314743e-02 -2.68586054e-02
      -6.45382237e-03 -2.56833825e-02 -2.67522056e-02 -1.21072475e-02
      -6.15132786e-03 -9.98743158e-03 -1.13907466e-02 -1.54315503e-02
      -1.08679406e-01 -9.37919095e-02 -1.10326577e-02 -2.18324848e-02
      -1.33521976e-02 -6.03877269e-02 -2.74600238e-02 -7.18320068e-03
      -2.63909083e-02 -2.75430623e-02 -1.23660779e-02 -6.42050197e-03
      -1.02687487e-02 -1.16977990e-02 -1.57541279e-02 -1.23156637e-01
      -9.83505845e-02 -1.68516580e-02 -2.36338526e-02 -1.56014925e-02
      -6.23470023e-02 -2.79195216e-02 -7.87940901e-03 -2.71246172e-02
      -2.83866245e-02 -1.25488136e-02 -6.66580070e-03 -1.05368681e-02
      -1.20184291e-02 -1.60847045e-02 -1.33432671e-01 -1.01794697e-01
      -2.21354663e-02 -2.46837083e-02 -1.75338909e-02 -6.39904588e-02
      -2.81471908e-02 -8.39373656e-03 -2.77172644e-02 -2.90983040e-02
      -1.26067465e-02 -6.83622062e-03 -1.07251899e-02 -1.22830430e-02
      -1.63372140e-02 -1.47481740e-01 -1.08343638e-01 -2.70103291e-02
      -2.75437646e-02 -1.98835172e-02 -6.54509217e-02 -2.93423608e-02
      -9.23352595e-03 -2.84138005e-02 -2.97497585e-02 -1.31508689e-02
      -7.19796307e-03 -1.09918313e-02 -1.25834197e-02 -1.65720098e-02
      -1.63193345e-01 -1.15982637e-01 -3.18635702e-02 -3.09313480e-02
      -2.24086605e-02 -6.68888837e-02 -3.07907648e-02 -1.01738088e-02
      -2.91715618e-02 -3.03992424e-02 -1.38116758e-02 -7.61018042e-03
      -1.12870326e-02 -1.29117155e-02 -1.68113615e-02 -1.63489044e-01
      -1.19887069e-01 -3.08682118e-02 -3.27868573e-02 -2.29935721e-02
      -6.57466725e-02 -3.18992361e-02 -1.04482267e-02 -2.90636029e-02
      -2.99789105e-02 -1.43148303e-02 -7.81235332e-03 -1.12672783e-02
      -1.28721213e-02 -1.65725872e-02 -1.61694825e-01 -1.22912370e-01
      -2.93062795e-02 -3.42085958e-02 -2.33739130e-02 -6.41737133e-02
      -3.28224003e-02 -1.06101660e-02 -2.88397260e-02 -2.92735677e-02
      -1.47246113e-02 -7.96084013e-03 -1.12005370e-02 -1.27617810e-02
      -1.61786266e-02 -1.55336499e-01 -1.24989457e-01 -2.56405547e-02
      -3.56347784e-02 -2.30976343e-02 -6.16713464e-02 -3.39535289e-02
      -1.05777876e-02 -2.83459332e-02 -2.80666873e-02 -1.52747305e-02
      -8.06915853e-03 -1.10478578e-02 -1.25213340e-02 -1.55189242e-02
      -1.42939836e-01 -1.25286177e-01 -1.98355298e-02 -3.63677926e-02
      -2.20332257e-02 -5.80081120e-02 -3.49666141e-02 -1.02747967e-02
      -2.74435673e-02 -2.62137745e-02 -1.57872401e-02 -8.10537767e-03
      -1.07506001e-02 -1.20600546e-02 -1.44937681e-02 -1.26262382e-01
      -1.24315016e-01 -1.26683200e-02 -3.64726037e-02 -2.04593074e-02
      -5.34516796e-02 -3.57981622e-02 -9.77555290e-03 -2.62285359e-02
      -2.37943511e-02 -1.61990970e-02 -8.08436330e-03 -1.03398478e-02
      -1.14040542e-02 -1.31184235e-02 -1.08559266e-01 -1.23793297e-01
      -5.22072800e-03 -3.67433429e-02 -1.89123917e-02 -4.97238450e-02
      -3.67686190e-02 -9.29083768e-03 -2.52942927e-02 -2.22374722e-02
      -1.66385006e-02 -8.07747245e-03 -1.00074727e-02 -1.10047311e-02
      -1.24189137e-02 -9.11677182e-02 -1.23530179e-01 2.53079808e-03
      -3.69004309e-02 -1.73788052e-02 -4.59790118e-02 -3.76476347e-02
      -8.80745426e-03 -2.44186502e-02 -2.07065772e-02 -1.69841461e-02
      -8.06728844e-03 -9.69935860e-03 -1.06394151e-02 -1.17735872e-02
      -7.39239529e-02 -1.23680361e-01 1.33822914e-02 -3.69624086e-02
      -1.49252787e-02 -4.09509279e-02 -3.84729691e-02 -8.05316772e-03
      -2.31979750e-02 -1.84808318e-02 -1.72517821e-02 -7.96339102e-03
      -9.29753110e-03 -1.00902971e-02 -1.07059665e-02 -5.49220592e-02
      -1.23515174e-01 2.54203156e-02 -3.66894640e-02 -1.21333813e-02
      -3.52439731e-02 -3.92054170e-02 -7.16100866e-03 -2.18153149e-02
      -1.58932284e-02 -1.74453501e-02 -7.80889345e-03 -8.84110574e-03
      -9.45242029e-03 -9.44666751e-03 -3.34591232e-02 -1.22764871e-01
      3.95588689e-02 -3.60447206e-02 -8.66131857e-03 -2.84618791e-02
      -3.98548022e-02 -6.02527894e-03 -2.01256182e-02 -1.27545213e-02
      -1.75775085e-02 -7.57252704e-03 -8.28247424e-03 -8.65979213e-03
      -7.89486431e-03 -1.90000813e-02 -1.23311557e-01 5.24577349e-02
      -3.58461551e-02 -5.54239471e-03 -2.15052776e-02 -4.04624343e-02
      -5.08212531e-03 -1.84121616e-02 -9.32579301e-03 -1.76910721e-02
      -7.36220740e-03 -7.75390165e-03 -7.79897207e-03 -6.13924256e-03
      -5.84647246e-03 -1.23782106e-01 6.45601824e-02 -3.53541747e-02
      -2.68228003e-03 -1.44704301e-02 -4.08499911e-02 -4.22557769e-03
      -1.67335384e-02 -5.68732154e-03 -1.76791716e-02 -7.15521863e-03
      -7.24817812e-03 -6.90752640e-03 -4.22090758e-03 8.19692854e-03
      -1.24726877e-01 7.64329582e-02 -3.50128561e-02 -2.83370173e-04
      -7.21900864e-03 -4.13384736e-02 -3.63257201e-03 -1.52258314e-02
      -1.91000127e-03 -1.76768359e-02 -7.05219572e-03 -6.84885401e-03
      -6.08927105e-03 -2.26451480e-03 1.80223510e-02 -1.26787513e-01
      8.70628878e-02 -3.49404253e-02 1.73089851e-03 -2.51637655e-04
      -4.17818017e-02 -3.15624243e-03 -1.38332974e-02 1.84819743e-03
      -1.76190771e-02 -6.95375307e-03 -6.49114838e-03 -5.29633602e-03
      -2.77001527e-04 1.92734711e-02 -1.30451575e-01 9.56982002e-02
      -3.55485827e-02 3.43857217e-03 5.86182112e-03 -4.22320366e-02
      -2.80354195e-03 -1.25672407e-02 5.22244489e-03 -1.75864138e-02
      -6.84761954e-03 -6.18027477e-03 -4.55828104e-03 1.50894036e-03
      1.78190432e-02 -1.34708881e-01 1.03314094e-01 -3.68925259e-02
      4.73349821e-03 1.17150387e-02 -4.29861620e-02 -2.70601641e-03
      -1.14171598e-02 8.66058189e-03 -1.77658685e-02 -6.86074235e-03
      -5.94672468e-03 -3.82653740e-03 3.40794446e-03 1.65058412e-02
      -1.38829097e-01 1.10167570e-01 -3.84491533e-02 5.78616560e-03
      1.71057638e-02 -4.38398644e-02 -2.75685685e-03 -1.04014426e-02
      1.19484058e-02 -1.80306379e-02 -6.93384698e-03 -5.77296969e-03
      -3.13323317e-03 5.29012736e-03 7.78934127e-03 -1.45308152e-01
      1.15356259e-01 -4.10759486e-02 6.16084225e-03 2.19264645e-02
      -4.49324287e-02 -3.09140678e-03 -9.57349595e-03 1.51036512e-02
      -1.83981340e-02 -7.08934991e-03 -5.68140717e-03 -2.47672782e-03
      7.17276987e-03 -1.27212645e-03 -1.51512459e-01 1.20717220e-01
      -4.36197594e-02 6.54238043e-03 2.69338954e-02 -4.59765643e-02
      -3.42139951e-03 -8.73453729e-03 1.84690114e-02 -1.87601522e-02
      -7.24727055e-03 -5.59481652e-03 -1.79034367e-03 9.22077242e-03
      -8.27542413e-03 -1.55007228e-01 1.28426284e-01 -4.53975499e-02
      8.08525737e-03 3.25100720e-02 -4.66702171e-02 -3.32902069e-03
      -7.51459692e-03 2.17365697e-02 -1.90720242e-02 -7.27173174e-03
      -5.37083857e-03 -1.03868265e-03 1.10147959e-02 -2.04245448e-02
      -1.60086319e-01 1.34449363e-01 -4.78544310e-02 9.09575447e-03
      3.74714397e-02 -4.75785956e-02 -3.41231446e-03 -6.44629030e-03
      2.48004664e-02 -1.94897968e-02 -7.35636568e-03 -5.19159855e-03
      -3.35397170e-04 1.27172638e-02 -3.58594768e-02 -1.65492684e-01
      1.39594346e-01 -5.05310930e-02 9.98643786e-03 4.20754552e-02
      -4.84725758e-02 -3.53196287e-03 -5.40608307e-03 2.77509019e-02
      -1.99286826e-02 -7.44089903e-03 -5.02335140e-03 3.76585376e-04
      1.43562639e-02 -5.27756996e-02 -1.71339005e-01 1.44429684e-01
      -5.33434935e-02 1.06734820e-02 4.68842052e-02 -4.93793227e-02
      -3.69030726e-03 -4.37777070e-03 3.10348049e-02 -2.03615054e-02
      -7.53905158e-03 -4.86521702e-03 1.13397290e-03 1.62701514e-02
      -7.04130009e-02 -1.77398235e-01 1.48798928e-01 -5.60272150e-02
      1.11990962e-02 5.17883077e-02 -5.02033569e-02 -3.83694866e-03
      -3.36252921e-03 3.45579423e-02 -2.07290873e-02 -7.61905219e-03
      -4.69777407e-03 1.92463817e-03 1.84076205e-02 -8.67387205e-02
      -1.82233334e-01 1.54000670e-01 -5.81817105e-02 1.21397357e-02
      5.71310669e-02 -5.07798791e-02 -3.80737474e-03 -2.17249198e-03
      3.82839479e-02 -2.10004263e-02 -7.62937032e-03 -4.46793111e-03
      2.77643162e-03 2.06488781e-02 -1.01263531e-01 -1.85863018e-01
      1.60235852e-01 -5.99101000e-02 1.35594495e-02 6.31812736e-02
      -5.11646010e-02 -3.58758029e-03 -7.11101631e-04 4.24869768e-02
      -2.12097038e-02 -7.56921107e-03 -4.14524414e-03 3.78681207e-03
      2.32028347e-02 -1.13676250e-01 -1.88408688e-01 1.67620540e-01
      -6.12763986e-02 1.54464561e-02 7.02669993e-02 -5.14232926e-02
      -3.19274934e-03 1.10583671e-03 4.73835245e-02 -2.13833302e-02
      -7.45788496e-03 -3.70878214e-03 5.02338447e-03 2.62238365e-02
      -1.24288656e-01 -1.90679118e-01 1.74304396e-01 -6.23774566e-02
      1.71255860e-02 7.70857707e-02 -5.16100340e-02 -2.81813089e-03
      2.82887160e-03 5.21728583e-02 -2.15023980e-02 -7.34354649e-03
      -3.28314002e-03 6.22075191e-03 2.92229764e-02 -1.36701018e-01
      -1.93950713e-01 1.78616285e-01 -6.37449548e-02 1.79760214e-02
      8.26039463e-02 -5.18832579e-02 -2.67002871e-03 4.12153639e-03
      5.62745109e-02 -2.16320921e-02 -7.29371980e-03 -2.97723012e-03
      7.19551882e-03 3.18723470e-02 -1.50219634e-01 -1.96969792e-01
      1.82298705e-01 -6.50452152e-02 1.87410265e-02 8.78053233e-02
      -5.20701930e-02 -2.50513270e-03 5.38296625e-03 6.02698401e-02
      -2.17480026e-02 -7.22826552e-03 -2.66529969e-03 8.16674065e-03
      3.45106907e-02 -1.61902413e-01 -1.98945791e-01 1.86346352e-01
      -6.59198388e-02 1.97636709e-02 9.31961089e-02 -5.20900078e-02
      -2.20770156e-03 6.76384615e-03 6.44563138e-02 -2.18079872e-02
      -7.11082574e-03 -2.29464541e-03 9.21325665e-03 3.73202898e-02
      -1.64488167e-01 -1.98174953e-01 1.91211224e-01 -6.57886863e-02
      2.11636089e-02 9.81191322e-02 -5.18893674e-02 -1.78505585e-03
      8.05832446e-03 6.80259913e-02 -2.17832439e-02 -6.97514229e-03
      -1.94649491e-03 1.01054013e-02 3.96464951e-02 -1.65158272e-01
      -1.96955889e-01 1.96114093e-01 -6.54143617e-02 2.26206165e-02
      1.02810763e-01 -5.16359471e-02 -1.30165950e-03 9.33450274e-03
      7.14277253e-02 -2.17266325e-02 -6.82109920e-03 -1.58284919e-03
      1.09804235e-02 4.18614037e-02 -1.66156545e-01 -1.95888177e-01
      2.00425968e-01 -6.50787726e-02 2.38810480e-02 1.07104056e-01
      -5.13901375e-02 -8.56485509e-04 1.05143450e-02 7.46493563e-02
      -2.16685217e-02 -6.68313587e-03 -1.23940280e-03 1.18119838e-02
      4.40219194e-02 -1.65608197e-01 -1.94390252e-01 2.05281332e-01
      -6.45418018e-02 2.53878105e-02 1.11648254e-01 -5.10962643e-02
      -3.06454953e-04 1.18270274e-02 7.80620277e-02 -2.15869267e-02
      -6.51029218e-03 -8.39189976e-04 1.27348835e-02 4.63241749e-02
      -1.62986308e-01 -1.92605570e-01 2.10807130e-01 -6.37714714e-02
      2.70719063e-02 1.16632804e-01 -5.07717542e-02 3.27336078e-04
      1.32613117e-02 8.17999467e-02 -2.14705020e-02 -6.31326577e-03
      -3.88452259e-04 1.37438262e-02 4.88680266e-02 -1.57836229e-01
      -1.90693974e-01 2.15636104e-01 -6.28595576e-02 2.84419991e-02
      1.20523773e-01 -5.04895933e-02 8.72148143e-04 1.43460799e-02
      8.46669823e-02 -2.13472769e-02 -6.16064062e-03 -3.72383147e-05
      1.44940652e-02 5.08105308e-02 -1.52454481e-01 -1.89295605e-01
      2.19674975e-01 -6.20266609e-02 2.95025203e-02 1.23684414e-01
      -5.02951518e-02 1.33980915e-03 1.51854437e-02 8.70336220e-02
      -2.12331787e-02 -6.03518728e-03 2.53492151e-04 1.50899878e-02
      5.24452291e-02 -1.47246689e-01 -1.88304156e-01 2.23353490e-01
      -6.14135750e-02 3.04181539e-02 1.26433477e-01 -5.02032675e-02
      1.71100406e-03 1.59032885e-02 8.90479013e-02 -2.11564563e-02
      -5.94733097e-03 4.92624997e-04 1.56011432e-02 5.38221076e-02
      -1.41256660e-01 -1.87569678e-01 2.27315530e-01 -6.08663037e-02
      3.13395374e-02 1.29372373e-01 -5.01890928e-02 2.06609303e-03
      1.66345518e-02 9.11937803e-02 -2.10901964e-02 -5.87115809e-03
      7.27093662e-04 1.61317140e-02 5.52964248e-02 -1.34415552e-01
      -1.87297031e-01 2.31014892e-01 -6.04852885e-02 3.20571512e-02
      1.32038191e-01 -5.03097661e-02 2.31052120e-03 1.72285177e-02
      9.30444598e-02 -2.10499242e-02 -5.84320864e-03 8.96413228e-04
      1.65602658e-02 5.65435924e-02 -1.25756755e-01 -1.86534151e-01
      2.35652402e-01 -5.98331019e-02 3.31266858e-02 1.35517657e-01
      -5.03604524e-02 2.67387857e-03 1.80673245e-02 9.54710245e-02
      -2.09713187e-02 -5.76771190e-03 1.14918628e-03 1.71548706e-02
      5.81860356e-02 -1.16014987e-01 -1.85425252e-01 2.40758598e-01
      -5.89751825e-02 3.44172195e-02 1.39493421e-01 -5.03466241e-02
      3.11301649e-03 1.90637503e-02 9.82945338e-02 -2.08597612e-02
      -5.65514248e-03 1.45891088e-03 1.78663228e-02 6.01351857e-02
      -1.10420674e-01 -1.85146078e-01 2.43756086e-01 -5.85358329e-02
      3.52422260e-02 1.41983718e-01 -5.03976941e-02 3.36795696e-03
      1.97263081e-02 1.00057490e-01 -2.07952410e-02 -5.58053749e-03
      1.66220299e-03 1.83448773e-02 6.13610484e-02 -1.06540307e-01
      -1.85438946e-01 2.45688528e-01 -5.83126955e-02 3.57790887e-02
      1.43818915e-01 -5.05173989e-02 3.52232181e-03 2.02119835e-02
      1.01404712e-01 -2.07552668e-02 -5.53047052e-03 1.81322719e-03
      1.87224392e-02 6.23356998e-02 -1.05617374e-01 -1.87227875e-01
      2.45007142e-01 -5.87895736e-02 3.52944806e-02 1.43746808e-01
      -5.09061925e-02 3.25077493e-03 2.00126804e-02 1.01365641e-01
      -2.08213124e-02 -5.63126383e-03 1.70885876e-03 1.86489653e-02
      6.23605326e-02 -1.04106061e-01 -1.88565224e-01 2.44516253e-01
      -5.90750016e-02 3.50144282e-02 1.43895805e-01 -5.12094125e-02
      3.04437801e-03 1.99152846e-02 1.01492457e-01 -2.08610408e-02
      -5.69143705e-03 1.64303067e-03 1.86396837e-02 6.25027269e-02
      -1.01818584e-01 -1.89242020e-01 2.44426236e-01 -5.91070652e-02
      3.50283794e-02 1.44422457e-01 -5.13918549e-02 2.92697060e-03
      1.99664906e-02 1.01891078e-01 -2.08675470e-02 -5.70098823e-03
      1.62798364e-03 1.87210981e-02 6.28286377e-02 -1.01403400e-01
      -1.90034837e-01 2.43861601e-01 -5.93032725e-02 3.49620171e-02
      1.44789651e-01 -5.15631884e-02 2.75121513e-03 1.99794639e-02
      1.02241524e-01 -2.08959766e-02 -5.72058558e-03 1.59026310e-03
      1.87885351e-02 6.31524548e-02</data></learnt_thetas>
  <n_labels type_id="opencv-matrix">
    <rows>2</rows>
    <cols>1</cols>
    <dt>i</dt>
    <data>
      0 1</data></n_labels>
  <o_labels type_id="opencv-matrix">
    <rows>2</rows>
    <cols>1</cols>
    <dt>i</dt>
    <data>
      0 1</data></o_labels></opencv_ml_lr>
</opencv_storage>
