<?xml version="1.0"?>
<opencv_storage>
<opencv_ml_lr>
  <format>3</format>
  <classifier>"Logisitic Regression Classifier"</classifier>
  <alpha>3000.</alpha>
  <iterations>15000</iterations>
  <norm>1</norm>
  <train_method>0</train_method>
  <learnt_thetas type_id="opencv-matrix">
    <rows>1</rows>
    <cols>2998</cols>
    <dt>f</dt>
    <data>
      -2.09061098e+00 8.47635195e-02 2.52386518e-02 8.81812423e-02
      -2.40881592e-02 3.16036865e-02 1.07721668e-02 4.98586707e-03
      3.55014652e-02 -1.38014220e-02 -1.23477895e-02 -1.05074607e-01
      -6.71280697e-02 -6.03439733e-02 -3.22276889e-03 2.12236568e-01
      2.42841989e-01 2.63508886e-01 2.97801226e-01 3.27122182e-01
      1.23417318e-01 1.22448556e-01 1.52070105e-01 5.28623350e-02
      1.15248248e-01 1.29863352e-01 1.34484649e-01 2.15501010e-01
      1.26671076e-01 1.35976195e-01 1.41695395e-01 1.85707495e-01
      1.94884643e-01 2.18846545e-01 1.42187610e-01 1.24638274e-01
      1.11368880e-01 5.78869097e-02 9.08443630e-02 8.32388699e-02
      -4.15446889e-03 -1.58006102e-01 -1.79290339e-01 -6.76031485e-02
      1.63107682e-02 5.72657660e-02 2.99906015e-01 3.52031350e-01
      4.53197658e-01 3.85136306e-01 4.23775554e-01 3.33802521e-01
      2.21930116e-01 1.77349880e-01 1.18556842e-01 1.89439461e-01
      1.34975567e-01 1.29134506e-01 1.41253415e-02 -9.40247402e-02
      -9.00263041e-02 -1.70061439e-01 -7.43323788e-02 1.90694034e-02
      3.69329862e-02 2.32429653e-01 2.13640004e-01 2.44357660e-01
      1.93947017e-01 2.01613873e-01 1.54333264e-01 2.05375589e-02
      2.50973962e-02 -9.95495077e-03 1.18288184e-02 -1.14720516e-01
      -3.54375206e-02 9.06633660e-02 8.18554610e-02 1.66642874e-01
      1.85405806e-01 1.62383199e-01 1.58995077e-01 1.05862685e-01
      -3.08777988e-02 -1.36495128e-01 -2.71111615e-02 -3.53566520e-02
      -1.58857089e-02 5.72024100e-02 3.50371264e-02 1.43895391e-02
      -7.48777092e-02 1.08954571e-02 9.01712179e-02 1.14114188e-01
      1.77094474e-01 2.30103895e-01 3.05906117e-01 2.53725350e-01
      2.85136610e-01 2.17311263e-01 1.34872854e-01 1.36813700e-01
      2.07861234e-02 5.35601564e-03 -9.23637301e-02 -7.70045593e-02
      -2.01879796e-02 -5.97863272e-02 -6.85340092e-02 4.50512990e-02
      8.67738649e-02 -9.92437545e-03 6.78361719e-03 1.34621352e-01
      -4.07482088e-02 -3.04761082e-02 8.94432440e-02 7.54631013e-02
      -4.96364273e-02 -5.38522229e-02 -4.34561968e-02 -9.53574479e-02
      -6.47246689e-02 -8.38346034e-02 -1.38230175e-01 -1.05916038e-01
      -1.19336471e-01 -5.99067211e-02 -1.27041578e-01 -1.60830185e-01
      -1.57707736e-01 -2.38217250e-01 -2.12126642e-01 -2.43898019e-01
      -2.34916717e-01 -4.19108540e-01 -3.90902251e-01 -3.28117460e-01
      -3.78339469e-01 -3.32350254e-01 -3.61307502e-01 -2.24001929e-01
      -1.85958937e-01 -1.56079680e-01 -1.03186272e-01 -1.36874974e-01
      2.30296087e-02 -1.08320918e-02 -7.52767771e-02 -8.31905976e-02
      -2.77202297e-02 2.44752783e-02 1.04195729e-01 7.24044666e-02
      1.16910070e-01 3.87772918e-01 2.89750725e-01 2.57732868e-01
      2.18731940e-01 2.72780627e-01 1.99761972e-01 1.36223286e-01
      1.40193284e-01 1.33923084e-01 1.09957166e-01 1.05386794e-01
      1.65030688e-01 1.80504069e-01 1.42964989e-01 1.61889791e-01
      2.05570370e-01 3.44993621e-01 3.26016486e-01 2.59175509e-01
      2.85603672e-01 1.09969363e-01 4.11631241e-02 -2.34468393e-02
      -6.21966161e-02 -1.27790019e-01 -8.51333737e-02 -5.38162068e-02
      1.39674265e-02 1.23900540e-01 4.38099056e-02 8.92152265e-02
      9.47472379e-02 4.96449172e-02 8.62695351e-02 3.81230912e-03
      2.06610486e-02 -1.15466364e-01 -1.47579417e-01 -1.94920242e-01
      -2.80799657e-01 -2.86646426e-01 -3.34516019e-01 -2.93004423e-01
      -3.86106551e-01 -3.84717673e-01 -2.04675078e-01 -2.78477013e-01
      -1.60365343e-01 -7.84785226e-02 -4.40501720e-02 1.58371359e-01
      7.09846765e-02 9.56885591e-02 -4.32572290e-02 2.72292104e-02
      -1.17749915e-01 -1.90226287e-01 -1.81300566e-01 -2.18834132e-01
      -2.11104184e-01 -2.15133429e-01 -1.89300627e-01 -9.82154086e-02
      -1.34890497e-01 -1.37088180e-01 -1.31884441e-01 -7.63273016e-02
      -8.76211971e-02 -9.69338194e-02 -2.88378727e-02 -1.54170156e-01
      -1.83888450e-01 -2.55055010e-01 -2.17796072e-01 -2.84505457e-01
      -2.41836518e-01 -1.49832249e-01 -1.73945829e-01 -3.26080956e-02
      -2.20218841e-02 3.45018730e-02 1.62123963e-01 9.89036262e-02
      -2.47842073e-02 -6.07289672e-02 3.75988930e-02 -1.53590277e-01
      -1.93934366e-01 -2.81791240e-01 -3.21030110e-01 -1.70988321e-01
      -2.91505605e-01 -2.46311083e-01 -1.97348520e-02 -7.62416199e-02
      -2.23361067e-02 3.81797329e-02 1.47157446e-01 1.15806542e-01
      1.70281827e-01 5.44885457e-01 5.42328060e-01 6.23956084e-01
      6.00846589e-01 6.00213945e-01 5.85809827e-01 5.35749197e-01
      6.21943772e-01 4.28355187e-01 2.04617798e-01 1.91415295e-01
      2.70072192e-01 4.03266132e-01 3.75966907e-01 3.84076804e-01
      4.17721421e-01 4.60225374e-01 4.78998572e-01 4.85925317e-01
      5.24636388e-01 4.46720421e-01 3.34538817e-01 2.93548375e-01
      3.16650391e-01 1.41093314e-01 9.73319113e-02 7.84223899e-02
      9.43269059e-02 1.50942400e-01 3.81866619e-02 4.89993133e-02
      3.24601717e-02 -5.30494973e-02 -9.70567092e-02 -1.16134860e-01
      -6.26948774e-02 -2.58007616e-01 -2.90805727e-01 -3.43037456e-01
      -4.47581232e-01 -3.81326288e-01 -4.45951521e-01 -2.07979918e+00
      -1.12874478e-01 -9.16959792e-02 1.16695203e-01 -2.44576614e-02
      2.34996192e-02 4.53624874e-02 -2.66474150e-02 5.22628753e-03
      3.07237543e-03 4.11153212e-02 -1.21444799e-02 -1.79095147e-03
      -1.30154332e-03 6.74168533e-03 2.88765933e-02 -1.01917014e-01
      -8.69044960e-02 1.10426918e-01 -2.20967848e-02 2.16887482e-02
      4.17555757e-02 -2.57183686e-02 4.81645903e-03 2.00226717e-03
      3.89535204e-02 -1.17171183e-02 -1.93127780e-03 -1.60805427e-03
      6.11305609e-03 2.76334751e-02 -9.13555622e-02 -8.23872983e-02
      1.03990600e-01 -1.98501851e-02 1.97898392e-02 3.81233133e-02
      -2.48424318e-02 4.37839609e-03 9.39292542e-04 3.67871262e-02
      -1.13116493e-02 -2.08517560e-03 -1.90059224e-03 5.50465845e-03
      2.63507888e-02 -8.19483176e-02 -7.88785517e-02 9.71008837e-02
      -1.81755442e-02 1.75968390e-02 3.42609659e-02 -2.42788736e-02
      3.79379606e-03 -2.02737006e-04 3.44027169e-02 -1.10633001e-02
      -2.31757783e-03 -2.21637147e-03 4.84579848e-03 2.48409603e-02
      -6.67671412e-02 -7.33366087e-02 9.14097652e-02 -1.56296138e-02
      1.58018563e-02 3.05581167e-02 -2.35130005e-02 3.34799942e-03
      -1.31588161e-03 3.19026113e-02 -1.07654622e-02 -2.52652774e-03
      -2.51510669e-03 4.12744191e-03 2.31699999e-02 -4.75118123e-02
      -6.62778988e-02 8.66009220e-02 -1.23195210e-02 1.43218571e-02
      2.70406418e-02 -2.24907156e-02 3.04631679e-03 -2.37654452e-03
      2.94228718e-02 -1.03534414e-02 -2.68744468e-03 -2.78029731e-03
      3.40204523e-03 2.14888956e-02 -2.87162010e-02 -6.07131980e-02
      8.47298130e-02 -9.77069326e-03 1.38373682e-02 2.52523310e-02
      -2.18936373e-02 3.11059854e-03 -2.78979284e-03 2.79683657e-02
      -1.01049598e-02 -2.72164471e-03 -2.79297470e-03 3.05535784e-03
      2.04652678e-02 -9.17290244e-03 -5.49609177e-02 8.36393461e-02
      -6.85958145e-03 1.36195701e-02 2.39125229e-02 -2.10644025e-02
      3.33147286e-03 -3.06834304e-03 2.68228147e-02 -9.68340039e-03
      -2.67388020e-03 -2.74436455e-03 2.80045369e-03 1.96622107e-02
      1.36535941e-02 -4.80301641e-02 8.30818489e-02 -3.00188316e-03
      1.36167519e-02 2.24264283e-02 -1.97581556e-02 3.68630840e-03
      -3.40594375e-03 2.53928620e-02 -8.95380974e-03 -2.54607550e-03
      -2.70308531e-03 2.45321542e-03 1.85825657e-02 3.49107943e-02
      -4.24291492e-02 8.30903277e-02 4.94923210e-04 1.36831654e-02
      2.13375390e-02 -1.85243003e-02 4.08893358e-03 -3.66269425e-03
      2.42072064e-02 -8.15711077e-03 -2.38558580e-03 -2.62818881e-03
      2.16443161e-03 1.76400132e-02 5.43140247e-02 -3.85856926e-02
      8.40924308e-02 3.28038493e-03 1.39544103e-02 2.06904877e-02
      -1.75965969e-02 4.55624890e-03 -3.80859058e-03 2.31467690e-02
      -7.43026892e-03 -2.20578583e-03 -2.51162541e-03 1.90263474e-03
      1.66812222e-02 6.88897595e-02 -3.79045680e-02 8.52202028e-02
      4.10563406e-03 1.40477587e-02 2.00973470e-02 -1.77421905e-02
      4.76714829e-03 -4.00136644e-03 2.21411809e-02 -7.28189712e-03
      -2.16485234e-03 -2.46514054e-03 1.64338620e-03 1.57298334e-02
      8.13972354e-02 -3.89265008e-02 8.58677477e-02 3.98343522e-03
      1.38865067e-02 1.94252580e-02 -1.84495486e-02 4.82394872e-03
      -4.24379855e-03 2.11328920e-02 -7.42355129e-03 -2.20173388e-03
      -2.44830502e-03 1.38157210e-03 1.47775430e-02 9.25914124e-02
      -4.12719361e-02 8.47635195e-02 3.93732311e-03 1.27572268e-02
      1.79190263e-02 -1.89108551e-02 4.50974610e-03 -5.00576664e-03
      1.96065828e-02 -7.24981027e-03 -2.34991801e-03 -2.65677576e-03
      8.16693180e-04 1.35142328e-02 1.00808576e-01 -4.40147892e-02
      8.34896490e-02 3.75239830e-03 1.17725916e-02 1.61288958e-02
      -1.93321891e-02 4.21521114e-03 -5.72804874e-03 1.78698655e-02
      -7.06674717e-03 -2.47709244e-03 -2.84744031e-03 2.83251138e-04
      1.21039320e-02 1.03209563e-01 -4.86947000e-02 8.19671676e-02
      1.82041398e-03 1.09595088e-02 1.42669706e-02 -2.07661763e-02
      3.80066503e-03 -6.23264955e-03 1.60787422e-02 -7.62298610e-03
      -2.70985346e-03 -2.96690525e-03 -1.08800479e-04 1.06447544e-02
      1.05419338e-01 -5.24720922e-02 8.11280012e-02 3.24950321e-04
      1.04669435e-02 1.26239853e-02 -2.18857732e-02 3.46312090e-03
      -6.66267145e-03 1.44381523e-02 -8.04247148e-03 -2.88368552e-03
      -3.08467308e-03 -4.58677881e-04 9.32994857e-03 1.10334627e-01
      -5.41381165e-02 8.03851336e-02 -2.53468461e-04 1.01385154e-02
      1.12343840e-02 -2.25614905e-02 3.18583497e-03 -7.02848239e-03
      1.30732004e-02 -8.27837177e-03 -3.01343715e-03 -3.19736102e-03
      -7.41797383e-04 8.25265888e-03 1.17637970e-01 -5.38985804e-02
      7.92190582e-02 -3.87586450e-04 1.00476881e-02 9.00276471e-03
      -2.31051538e-02 3.04364040e-03 -7.50329252e-03 1.09587386e-02
      -8.56699795e-03 -3.07141431e-03 -3.31136049e-03 -1.19307789e-03
      6.61323499e-03 1.24609746e-01 -5.26518449e-02 7.80234784e-02
      5.15334614e-05 1.01784710e-02 6.57484215e-03 -2.32080482e-02
      3.06757935e-03 -7.97235686e-03 8.73186532e-03 -8.62710178e-03
      -3.02126002e-03 -3.40105616e-03 -1.67031132e-03 4.94140200e-03
      1.34406358e-01 -4.83927540e-02 7.82238990e-02 1.42724067e-03
      1.11668622e-02 4.41762991e-03 -2.28896774e-02 3.45926126e-03
      -8.25241115e-03 6.68147346e-03 -8.61291494e-03 -2.82748346e-03
      -3.41998087e-03 -2.09552608e-03 3.44582507e-03 1.39815345e-01
      -4.51370217e-02 7.74961337e-02 2.38547986e-03 1.18171517e-02
      2.30164663e-03 -2.25374922e-02 3.70090082e-03 -8.56073853e-03
      4.91228467e-03 -8.55062064e-03 -2.67196214e-03 -3.47703160e-03
      -2.46914476e-03 2.20652460e-03 1.39690399e-01 -4.39411104e-02
      7.56634325e-02 2.34388513e-03 1.18422285e-02 3.52760107e-04
      -2.24812236e-02 3.62650608e-03 -8.91022570e-03 3.57532431e-03
      -8.60249344e-03 -2.64765229e-03 -3.59319150e-03 -2.75225495e-03
      1.32646039e-03 1.40676677e-01 -4.12532017e-02 7.30932131e-02
      3.25099402e-03 1.16681037e-02 -2.19834433e-03 -2.19202917e-02
      3.56352422e-03 -9.48836934e-03 1.95855740e-03 -8.41378421e-03
      -2.60844734e-03 -3.78177338e-03 -3.16987094e-03 3.40102706e-04
      1.44594952e-01 -3.62789594e-02 6.99811578e-02 5.40915923e-03
      1.15339523e-02 -5.33996476e-03 -2.07396559e-02 3.62808490e-03
      -1.02010714e-02 1.22274541e-05 -7.93337543e-03 -2.49066646e-03
      -3.98672977e-03 -3.68046667e-03 -8.08594516e-04 1.50295168e-01
      -2.98890322e-02 6.74478933e-02 8.10780656e-03 1.17299166e-02
      -8.20694491e-03 -1.93673167e-02 3.82803287e-03 -1.07802339e-02
      -1.74675405e-03 -7.42596481e-03 -2.32903031e-03 -4.14500292e-03
      -4.11242014e-03 -1.84315583e-03 1.54001012e-01 -2.41042748e-02
      6.41936436e-02 1.07522914e-02 1.15633467e-02 -1.10269962e-02
      -1.79113988e-02 3.92253650e-03 -1.14202863e-02 -3.33906990e-03
      -6.84179505e-03 -2.19146092e-03 -4.33246698e-03 -4.52491036e-03
      -2.72257719e-03 1.56143934e-01 -1.88357867e-02 6.02687448e-02
      1.32820290e-02 1.10726301e-02 -1.39606791e-02 -1.64204221e-02
      3.91905522e-03 -1.21275811e-02 -4.97260690e-03 -6.21880544e-03
      -2.08083820e-03 -4.54590376e-03 -4.95218718e-03 -3.62008857e-03
      1.53578445e-01 -1.75531227e-02 5.59945740e-02 1.36793768e-02
      9.89236683e-03 -1.64110754e-02 -1.60533004e-02 3.48893739e-03
      -1.28402291e-02 -6.23431336e-03 -6.12881780e-03 -2.19956576e-03
      -4.81117237e-03 -5.30313794e-03 -4.28215135e-03 1.45340443e-01
      -2.06526984e-02 5.16094118e-02 1.14813335e-02 8.26401077e-03
      -1.85268205e-02 -1.70942787e-02 2.71665608e-03 -1.35181742e-02
      -7.24696973e-03 -6.77119102e-03 -2.53269146e-03 -5.09983255e-03
      -5.59026888e-03 -4.77527129e-03 1.35975346e-01 -2.34553032e-02
      4.71717380e-02 9.50385910e-03 6.76650135e-03 -2.06964966e-02
      -1.79015901e-02 2.03558546e-03 -1.41198803e-02 -8.30111373e-03
      -7.29424087e-03 -2.81525031e-03 -5.34734363e-03 -5.83959697e-03
      -5.30948257e-03 1.27318054e-01 -2.62480006e-02 4.34008427e-02
      7.58236647e-03 5.53053431e-03 -2.25064885e-02 -1.86839160e-02
      1.45442970e-03 -1.45490998e-02 -9.23966989e-03 -7.78082106e-03
      -3.07099870e-03 -5.52176405e-03 -6.01640949e-03 -5.81784220e-03
      1.22509390e-01 -2.68818904e-02 3.94562893e-02 7.19367107e-03
      4.38653445e-03 -2.47641336e-02 -1.86314043e-02 1.05249044e-03
      -1.51361153e-02 -1.06256474e-02 -7.77963875e-03 -3.20748473e-03
      -5.71287097e-03 -6.36187335e-03 -6.65054796e-03 1.19914614e-01
      -2.58877706e-02 3.49484123e-02 7.72417430e-03 3.11592594e-03
      -2.72768456e-02 -1.80981979e-02 6.61894388e-04 -1.57961193e-02
      -1.21372417e-02 -7.52910366e-03 -3.32702417e-03 -5.91871561e-03
      -6.74969750e-03 -7.54301716e-03 1.15867682e-01 -2.62336060e-02
      3.10724787e-02 7.37434812e-03 1.83991366e-03 -2.97510233e-02
      -1.80617981e-02 1.65640929e-04 -1.64463297e-02 -1.36802504e-02
      -7.54206395e-03 -3.55203589e-03 -6.13719691e-03 -7.13348715e-03
      -8.48767348e-03 1.09761484e-01 -2.80923881e-02 2.72440407e-02
      6.35772478e-03 4.45984275e-04 -3.22711878e-02 -1.83203854e-02
      -3.82739265e-04 -1.71537884e-02 -1.51537359e-02 -7.66440993e-03
      -3.80041380e-03 -6.37433212e-03 -7.52128428e-03 -9.34360269e-03
      1.03367731e-01 -3.11004110e-02 2.40141470e-02 4.79446305e-03
      -8.87456117e-04 -3.43926586e-02 -1.88982952e-02 -9.14377160e-04
      -1.77661534e-02 -1.63500253e-02 -7.91826285e-03 -4.05533332e-03
      -6.57529291e-03 -7.83977564e-03 -1.00244209e-02 9.58541334e-02
      -3.55717242e-02 2.15598568e-02 2.64740223e-03 -2.08715536e-03
      -3.59845385e-02 -1.98271852e-02 -1.33671623e-03 -1.82856433e-02
      -1.72092207e-02 -8.32264405e-03 -4.24905214e-03 -6.73391903e-03
      -8.09728075e-03 -1.04990192e-02 8.86403099e-02 -4.00761403e-02
      1.93534382e-02 7.00774253e-04 -3.21470038e-03 -3.72483730e-02
      -2.06367932e-02 -1.68590900e-03 -1.87401418e-02 -1.78473368e-02
      -8.62200465e-03 -4.39692801e-03 -6.86498405e-03 -8.30866862e-03
      -1.08421594e-02 8.08047801e-02 -4.54601310e-02 1.77092161e-02
      -1.66762457e-03 -4.17183992e-03 -3.80688868e-02 -2.17652116e-02
      -1.97962322e-03 -1.90715399e-02 -1.82342753e-02 -9.09250323e-03
      -4.54140455e-03 -6.95246458e-03 -8.45511630e-03 -1.10404016e-02
      7.57057741e-02 -4.97961566e-02 1.66563299e-02 -3.37838545e-03
      -4.90577146e-03 -3.86188477e-02 -2.26298869e-02 -2.16640439e-03
      -1.93304010e-02 -1.84664149e-02 -9.39939916e-03 -4.64694761e-03
      -7.01259775e-03 -8.56287591e-03 -1.11450963e-02 7.81089291e-02
      -5.16200326e-02 1.72285549e-02 -4.03367216e-03 -5.16649429e-03
      -3.85514237e-02 -2.31771991e-02 -2.21796567e-03 -1.94327887e-02
      -1.84234399e-02 -9.54185799e-03 -4.72403131e-03 -7.03080790e-03
      -8.60050693e-03 -1.11096315e-02 8.47369060e-02 -5.19085228e-02
      1.90496240e-02 -4.17425390e-03 -4.86729061e-03 -3.80985439e-02
      -2.36606840e-02 -2.05589877e-03 -1.93969756e-02 -1.82334557e-02
      -9.69871320e-03 -4.72472794e-03 -6.99694688e-03 -8.59408360e-03
      -1.10036563e-02 9.42998230e-02 -5.08537889e-02 2.14556940e-02
      -3.77445505e-03 -4.19834722e-03 -3.74805965e-02 -2.40016207e-02
      -1.73751975e-03 -1.92695931e-02 -1.79886073e-02 -9.82620846e-03
      -4.65995492e-03 -6.92144549e-03 -8.56102258e-03 -1.08692665e-02
      1.02640614e-01 -4.94326130e-02 2.24206112e-02 -3.07493843e-03
      -3.98450345e-03 -3.72855812e-02 -2.41020545e-02 -1.61179609e-03
      -1.92998797e-02 -1.79020520e-02 -9.84737929e-03 -4.64021321e-03
      -6.91980449e-03 -8.58563837e-03 -1.07838623e-02 1.10217832e-01
      -4.80384976e-02 2.27303933e-02 -2.12126598e-03 -3.92637867e-03
      -3.72409932e-02 -2.39858218e-02 -1.50920369e-03 -1.93730686e-02
      -1.78712159e-02 -9.71838366e-03 -4.59719962e-03 -6.92626601e-03
      -8.62205867e-03 -1.07253557e-02 1.16696961e-01 -4.67957072e-02
      2.14715302e-02 -1.19070499e-03 -4.31292877e-03 -3.75968516e-02
      -2.37685759e-02 -1.58225407e-03 -1.95403509e-02 -1.79781225e-02
      -9.52002034e-03 -4.57882881e-03 -6.96742907e-03 -8.67596734e-03
      -1.07285734e-02 1.23841815e-01 -4.46627922e-02 2.06794813e-02
      2.01539049e-04 -4.35444526e-03 -3.77065428e-02 -2.33010389e-02
      -1.52259343e-03 -1.95741411e-02 -1.80225093e-02 -9.21582617e-03
      -4.48599691e-03 -6.95861597e-03 -8.68513994e-03 -1.07259806e-02
      1.31985456e-01 -4.13194411e-02 2.05785483e-02 2.00489978e-03
      -3.97217507e-03 -3.75305451e-02 -2.26509795e-02 -1.34359160e-03
      -1.94582343e-02 -1.80039350e-02 -8.88448209e-03 -4.34093596e-03
      -6.90521160e-03 -8.64793174e-03 -1.07203703e-02 1.35166705e-01
      -3.99662293e-02 1.86789483e-02 2.59495131e-03 -4.22728807e-03
      -3.80524658e-02 -2.25386713e-02 -1.50392612e-03 -1.95503514e-02
      -1.82494093e-02 -8.87047313e-03 -4.35101986e-03 -6.94681937e-03
      -8.67681112e-03 -1.08173024e-02 1.36366457e-01 -3.90413888e-02
      1.61380060e-02 2.96512968e-03 -4.64234874e-03 -3.87940109e-02
      -2.24965122e-02 -1.74114632e-03 -1.96967293e-02 -1.85713582e-02
      -8.91306531e-03 -4.39384533e-03 -7.00903451e-03 -8.72076489e-03
      -1.09481877e-02 1.43624112e-01 -3.33542451e-02 1.50734065e-02
      5.50271431e-03 -4.23845090e-03 -3.91510613e-02 -2.13112887e-02
      -1.63924426e-03 -1.96323823e-02 -1.88384429e-02 -8.48152023e-03
      -4.27193940e-03 -6.99172867e-03 -8.72179493e-03 -1.10851610e-02
      1.47081658e-01 -2.93970779e-02 1.37218870e-02 7.29847932e-03
      -4.11618222e-03 -3.95181812e-02 -2.03587934e-02 -1.65515277e-03
      -1.96212530e-02 -1.90796107e-02 -8.13323166e-03 -4.20191092e-03
      -6.99890684e-03 -8.73097498e-03 -1.12161404e-02 1.41070157e-01
      -3.04070730e-02 1.17085204e-02 6.61154976e-03 -4.70474875e-03
      -3.99371795e-02 -2.04012264e-02 -2.02621520e-03 -1.97428782e-02
      -1.92820206e-02 -8.22163746e-03 -4.30462277e-03 -7.08569912e-03
      -8.76678526e-03 -1.13293286e-02 1.31280124e-01 -3.34269926e-02
      1.02947364e-02 4.94976575e-03 -5.28885145e-03 -4.03241254e-02
      -2.08219755e-02 -2.43098009e-03 -1.98693499e-02 -1.94315910e-02
      -8.46336782e-03 -4.45411773e-03 -7.17919879e-03 -8.79164971e-03
      -1.14185484e-02 1.19461209e-01 -3.73413824e-02 9.30017512e-03
      3.00352508e-03 -5.84704615e-03 -4.06383500e-02 -2.13002544e-02
      -2.82021961e-03 -1.99803542e-02 -1.95236113e-02 -8.69902596e-03
      -4.61466564e-03 -7.26413261e-03 -8.80314782e-03 -1.14845252e-02
      1.07310563e-01 -4.08763625e-02 7.44911330e-03 1.16415601e-03
      -6.60037342e-03 -4.14646119e-02 -2.16843076e-02 -3.21449549e-03
      -2.02225596e-02 -1.97909158e-02 -8.89460649e-03 -4.77238512e-03
      -7.38640083e-03 -8.87273345e-03 -1.16018746e-02 9.32026953e-02
      -4.52035367e-02 5.66113321e-03 -7.21807766e-04 -7.35825673e-03
      -4.23201881e-02 -2.20097154e-02 -3.55569669e-03 -2.04866845e-02
      -2.00480241e-02 -9.01095197e-03 -4.89625009e-03 -7.50319008e-03
      -8.94662086e-03 -1.17111523e-02 7.57201388e-02 -5.06710224e-02
      4.90532769e-03 -3.04973242e-03 -7.69408746e-03 -4.29955274e-02
      -2.25271787e-02 -3.66959162e-03 -2.06419788e-02 -2.02618893e-02
      -9.25127696e-03 -4.92985966e-03 -7.56101916e-03 -8.99965595e-03
      -1.18014365e-02 6.22381940e-02 -5.49635924e-02 4.16813837e-03
      -4.84741991e-03 -8.16564448e-03 -4.34714071e-02 -2.29128525e-02
      -3.85899795e-03 -2.07866337e-02 -2.03807484e-02 -9.41155106e-03
      -5.01226354e-03 -7.62347877e-03 -9.03871562e-03 -1.18439635e-02
      5.25230318e-02 -5.81366085e-02 3.89102381e-03 -6.09457167e-03
      -8.63959640e-03 -4.35929745e-02 -2.30912808e-02 -4.08331724e-03
      -2.08705757e-02 -2.03564111e-02 -9.43808071e-03 -5.12780854e-03
      -7.67436530e-03 -9.04825423e-03 -1.18269306e-02 4.43433262e-02
      -6.21671453e-02 3.25507787e-03 -8.10545776e-03 -9.30030737e-03
      -4.36730497e-02 -2.39027962e-02 -4.37692599e-03 -2.09714808e-02
      -2.02928819e-02 -9.81233548e-03 -5.29167429e-03 -7.72618968e-03
      -9.06153116e-03 -1.17781516e-02 3.82483676e-02 -6.58873692e-02
      2.60542100e-03 -9.96658672e-03 -9.90912039e-03 -4.36617099e-02
      -2.47571431e-02 -4.60727327e-03 -2.10534669e-02 -2.02008430e-02
      -1.02028269e-02 -5.42032206e-03 -7.75951752e-03 -9.07392800e-03
      -1.17123164e-02 4.05707397e-02 -6.57643378e-02 3.73373250e-03
      -1.02553880e-02 -9.54166614e-03 -4.33115400e-02 -2.51056366e-02
      -4.38841200e-03 -2.09225733e-02 -2.00913213e-02 -1.04237879e-02
      -5.36471047e-03 -7.68634956e-03 -9.04874690e-03 -1.16635906e-02
      4.48444448e-02 -6.49388582e-02 4.62050084e-03 -1.01387678e-02
      -9.18561220e-03 -4.30457070e-02 -2.53189299e-02 -4.13738471e-03
      -2.08135098e-02 -2.00287346e-02 -1.05765974e-02 -5.28848032e-03
      -7.60906283e-03 -9.03706998e-03 -1.16390055e-02 5.11552617e-02
      -6.34307340e-02 5.10452315e-03 -9.46862157e-03 -8.89232662e-03
      -4.29580212e-02 -2.52928641e-02 -3.85913602e-03 -2.07574107e-02
      -2.00775471e-02 -1.05794016e-02 -5.18394029e-03 -7.53633492e-03
      -9.05770529e-03 -1.16597731e-02 6.01357892e-02 -6.07013106e-02
      5.51120518e-03 -8.38369690e-03 -8.51987395e-03 -4.28190604e-02
      -2.51556728e-02 -3.57341371e-03 -2.06590313e-02 -2.00959593e-02
      -1.05580734e-02 -5.08230412e-03 -7.45431101e-03 -9.05801170e-03
      -1.16775492e-02 6.98761195e-02 -5.81050627e-02 5.76911820e-03
      -7.44088925e-03 -8.33818968e-03 -4.26465496e-02 -2.51615644e-02
      -3.40694259e-03 -2.05906015e-02 -2.00835261e-02 -1.06091201e-02
      -5.04677044e-03 -7.39570148e-03 -9.05564427e-03 -1.16929198e-02
      7.97205642e-02 -5.57368509e-02 7.45479017e-03 -6.48669386e-03
      -7.75092049e-03 -4.20810133e-02 -2.51156390e-02 -3.11470334e-03
      -2.04009861e-02 -1.99573580e-02 -1.06019024e-02 -4.95285261e-03
      -7.29502924e-03 -9.01200995e-03 -1.16771050e-02 8.94272253e-02
      -5.28875738e-02 9.24224406e-03 -5.16209146e-03 -7.00794673e-03
      -4.14859243e-02 -2.48164181e-02 -2.73972331e-03 -2.01681275e-02
      -1.98234525e-02 -1.04651060e-02 -4.80463123e-03 -7.17284298e-03
      -8.95305164e-03 -1.16642611e-02 9.93098915e-02 -5.13093360e-02
      1.04944007e-02 -4.58817463e-03 -6.87259156e-03 -4.09487672e-02
      -2.49842126e-02 -2.71740067e-03 -2.01047901e-02 -1.96554381e-02
      -1.05432449e-02 -4.84221755e-03 -7.14975502e-03 -8.92758928e-03
      -1.16160475e-02 1.12472147e-01 -4.77934480e-02 1.23869563e-02
      -3.04539595e-03 -6.35727774e-03 -4.01981287e-02 -2.47096587e-02
      -2.53267121e-03 -1.99366417e-02 -1.93748549e-02 -1.04141021e-02
      -4.80985921e-03 -7.08376989e-03 -8.85927677e-03 -1.15123959e-02
      1.23874426e-01 -4.42822501e-02 1.39952572e-02 -1.35490973e-03
      -5.84990485e-03 -3.94429192e-02 -2.42303163e-02 -2.34666234e-03
      -1.97402015e-02 -1.90462042e-02 -1.01763764e-02 -4.75740898e-03
      -7.01043382e-03 -8.76551587e-03 -1.13780862e-02 1.33870572e-01
      -4.17231247e-02 1.51001066e-02 -3.24467474e-05 -5.58840996e-03
      -3.88734676e-02 -2.39096973e-02 -2.27470580e-03 -1.96328219e-02
      -1.87352281e-02 -9.98459943e-03 -4.75253677e-03 -6.97474694e-03
      -8.68736766e-03 -1.12231551e-02 1.40943781e-01 -4.07783650e-02
      1.57611463e-02 7.04233884e-04 -5.59627591e-03 -3.84521484e-02
      -2.37817541e-02 -2.31875712e-03 -1.96090154e-02 -1.84472669e-02
      -9.82277095e-03 -4.78959689e-03 -6.97327871e-03 -8.62930622e-03
      -1.10593848e-02 1.45801440e-01 -4.10886854e-02 1.77380443e-02
      7.31307373e-04 -5.26237022e-03 -3.75706777e-02 -2.39684619e-02
      -2.32107658e-03 -1.94666535e-02 -1.79922357e-02 -9.81807988e-03
      -4.82480507e-03 -6.95118075e-03 -8.53030570e-03 -1.08196493e-02
      1.48863569e-01 -4.22290191e-02 1.90811157e-02 4.44893667e-04
      -5.11734141e-03 -3.68389115e-02 -2.42644772e-02 -2.39621033e-03
      -1.93867385e-02 -1.75692737e-02 -9.84811410e-03 -4.87664435e-03
      -6.95449859e-03 -8.44898447e-03 -1.05863838e-02 1.50364488e-01
      -4.37491983e-02 2.04587672e-02 -1.50228210e-04 -5.01281209e-03
      -3.62194255e-02 -2.46945806e-02 -2.52463855e-03 -1.93682369e-02
      -1.71971396e-02 -9.98299941e-03 -4.95043350e-03 -6.99241739e-03
      -8.39379989e-03 -1.03737433e-02 1.50160983e-01 -4.52754647e-02
      2.14342289e-02 -6.05870504e-04 -4.96402523e-03 -3.56791317e-02
      -2.49514058e-02 -2.65385211e-03 -1.93507839e-02 -1.68406758e-02
      -1.00265713e-02 -5.00263367e-03 -7.02888332e-03 -8.33527651e-03
      -1.01718223e-02 1.46842599e-01 -4.75119315e-02 2.15494465e-02
      -1.28516078e-03 -5.13211731e-03 -3.53099145e-02 -2.51734424e-02
      -2.87960167e-03 -1.93564557e-02 -1.65256858e-02 -1.00326911e-02
      -5.06497081e-03 -7.07841991e-03 -8.27339105e-03 -9.99093708e-03
      1.40100166e-01 -5.02406135e-02 2.15355568e-02 -2.35296693e-03
      -5.17221540e-03 -3.51222195e-02 -2.54795533e-02 -3.06417979e-03
      -1.93314608e-02 -1.63328294e-02 -1.01285372e-02 -5.10535249e-03
      -7.11509865e-03 -8.21620505e-03 -9.87151265e-03 1.30354330e-01
      -5.35903312e-02 2.07819957e-02 -3.80520872e-03 -5.39103104e-03
      -3.51323299e-02 -2.58880798e-02 -3.32095730e-03 -1.93320103e-02
      -1.62029285e-02 -1.03013515e-02 -5.16912946e-03 -7.16439448e-03
      -8.16313457e-03 -9.78333782e-03 1.17419727e-01 -5.74352220e-02
      1.98971126e-02 -5.88231767e-03 -5.42222802e-03 -3.53975594e-02
      -2.65352149e-02 -3.54459579e-03 -1.93237644e-02 -1.62118133e-02
      -1.06726326e-02 -5.20618772e-03 -7.21708871e-03 -8.11900012e-03
      -9.76407621e-03 1.04140118e-01 -6.06315248e-02 1.92307141e-02
      -7.62906950e-03 -5.32118417e-03 -3.56195457e-02 -2.69715581e-02
      -3.69552639e-03 -1.92776248e-02 -1.62249412e-02 -1.09702498e-02
      -5.20917075e-03 -7.25013483e-03 -8.06870032e-03 -9.75952018e-03
      9.00272429e-02 -6.23559430e-02 1.86044723e-02 -8.69790744e-03
      -5.07081812e-03 -3.59515175e-02 -2.69148890e-02 -3.74009111e-03
      -1.92043763e-02 -1.62793752e-02 -1.10723283e-02 -5.14546642e-03
      -7.26442551e-03 -8.01689830e-03 -9.78031754e-03 7.30277225e-02
      -6.55062646e-02 1.79698747e-02 -1.06299529e-02 -5.02104778e-03
      -3.62353697e-02 -2.72196047e-02 -3.90306232e-03 -1.91625133e-02
      -1.63061973e-02 -1.13501046e-02 -5.14933839e-03 -7.30658276e-03
      -7.97259435e-03 -9.79447179e-03 5.84029071e-02 -6.80832490e-02
      1.72534958e-02 -1.25296358e-02 -5.01035433e-03 -3.65478173e-02
      -2.76284833e-02 -4.06984147e-03 -1.91340819e-02 -1.63397994e-02
      -1.17030088e-02 -5.17834909e-03 -7.35293468e-03 -7.93502573e-03
      -9.81252734e-03 4.45316844e-02 -6.86264560e-02 1.63566358e-02
      -1.36454850e-02 -4.88185510e-03 -3.69915254e-02 -2.75447071e-02
      -4.10109898e-03 -1.90816596e-02 -1.63990334e-02 -1.18819196e-02
      -5.13393339e-03 -7.37867132e-03 -7.89779052e-03 -9.84588359e-03
      3.11905481e-02 -6.81702197e-02 1.51296584e-02 -1.41628152e-02
      -4.78032464e-03 -3.75333764e-02 -2.71427408e-02 -4.05930076e-03
      -1.90398730e-02 -1.64887235e-02 -1.19064441e-02 -5.05015720e-03
      -7.39292940e-03 -7.87135772e-03 -9.89557058e-03 1.70179345e-02
      -6.91650584e-02 1.37066189e-02 -1.52763920e-02 -4.89052106e-03
      -3.85004990e-02 -2.71375272e-02 -4.10822220e-03 -1.91473961e-02
      -1.67952236e-02 -1.20891808e-02 -5.03876433e-03 -7.45358458e-03
      -7.91282672e-03 -1.00364089e-02 4.30367840e-03 -6.89538717e-02
      1.21366633e-02 -1.55657325e-02 -4.98362537e-03 -3.95179614e-02
      -2.66975295e-02 -4.08160454e-03 -1.92668159e-02 -1.71092991e-02
      -1.20316520e-02 -4.98333294e-03 -7.50624621e-03 -7.96093792e-03
      -1.01758288e-02 -6.14232803e-03 -6.76952377e-02 1.01097850e-02
      -1.52356280e-02 -5.16522815e-03 -4.06666361e-02 -2.59370841e-02
      -4.00348334e-03 -1.94143131e-02 -1.75210331e-02 -1.17748892e-02
      -4.90015838e-03 -7.55445752e-03 -8.04152153e-03 -1.03497626e-02
      -1.92055255e-02 -6.84545711e-02 7.86980893e-03 -1.56344511e-02
      -5.66607434e-03 -4.17484678e-02 -2.54577808e-02 -4.06207470e-03
      -1.96325891e-02 -1.78982485e-02 -1.15797054e-02 -4.86641470e-03
      -7.63589749e-03 -8.14114790e-03 -1.05103496e-02 -3.45040374e-02
      -7.11129457e-02 5.40309399e-03 -1.67716965e-02 -6.44602440e-03
      -4.28357497e-02 -2.52915230e-02 -4.24698833e-03 -1.99290309e-02
      -1.82739813e-02 -1.14711365e-02 -4.88288235e-03 -7.75284274e-03
      -8.26564338e-03 -1.06698573e-02 -4.48674373e-02 -7.22660050e-02
      2.67604436e-03 -1.71926431e-02 -7.34054158e-03 -4.40755039e-02
      -2.49602646e-02 -4.45736665e-03 -2.02870779e-02 -1.88052822e-02
      -1.12932445e-02 -4.92905360e-03 -7.88528565e-03 -8.43991432e-03
      -1.08906534e-02 -5.43681383e-02 -7.32995495e-02 -4.16047231e-04
      -1.74350347e-02 -8.35446268e-03 -4.53939550e-02 -2.45724972e-02
      -4.69000125e-03 -2.06892472e-02 -1.93894021e-02 -1.10738873e-02
      -4.97555220e-03 -8.02750606e-03 -8.63577425e-03 -1.11341132e-02
      -6.54123053e-02 -7.62375444e-02 -4.33960464e-03 -1.88185461e-02
      -9.81745124e-03 -4.68635857e-02 -2.48895325e-02 -5.13855694e-03
      -2.11893413e-02 -2.00649370e-02 -1.12318033e-02 -5.13849407e-03
      -8.21429957e-03 -8.87321774e-03 -1.14219962e-02 -7.44035095e-02
      -7.88014829e-02 -8.40238668e-03 -1.99007057e-02 -1.13223661e-02
      -4.83417325e-02 -2.51392964e-02 -5.57970721e-03 -2.17021368e-02
      -2.07617152e-02 -1.13488762e-02 -5.29608643e-03 -8.39320011e-03
      -9.11879726e-03 -1.17156934e-02 -8.00665170e-02 -8.07287246e-02
      -1.19531965e-02 -2.05553602e-02 -1.26490602e-02 -4.95351963e-02
      -2.53036823e-02 -5.93068404e-03 -2.21224204e-02 -2.13531777e-02
      -1.14113986e-02 -5.42362453e-03 -8.52287095e-03 -9.32814740e-03
      -1.19572347e-02 -8.86890069e-02 -8.48985463e-02 -1.52690671e-02
      -2.24450231e-02 -1.42623559e-02 -5.06892987e-02 -2.61063352e-02
      -6.49212627e-03 -2.26301569e-02 -2.19527967e-02 -1.17869722e-02
      -5.67345181e-03 -8.70650820e-03 -9.57166310e-03 -1.22121973e-02
      -9.85483751e-02 -8.98154452e-02 -1.85413435e-02 -2.46559419e-02
      -1.59771927e-02 -5.18385619e-02 -2.70474106e-02 -7.10939057e-03
      -2.31769402e-02 -2.25667581e-02 -1.22187231e-02 -5.95051516e-03
      -8.90644081e-03 -9.83483531e-03 -1.24846874e-02 -9.88755822e-02
      -9.28278416e-02 -1.80704799e-02 -2.60330513e-02 -1.65125094e-02
      -5.12864962e-02 -2.78879702e-02 -7.32230907e-03 -2.31753346e-02
      -2.24813633e-02 -1.25932340e-02 -6.10777084e-03 -8.90310854e-03
      -9.86394472e-03 -1.24508049e-02 -9.79059264e-02 -9.53212529e-02
      -1.72113106e-02 -2.71609612e-02 -1.68905035e-02 -5.04474603e-02
      -2.86349989e-02 -7.44803622e-03 -2.30889022e-02 -2.22172011e-02
      -1.29215661e-02 -6.22604461e-03 -8.86328425e-03 -9.84556880e-03
      -1.23293726e-02 -9.42251086e-02 -9.74257290e-02 -1.49174929e-02
      -2.84354556e-02 -1.67702418e-02 -4.90184948e-02 -2.96118129e-02
      -7.41174072e-03 -2.28086766e-02 -2.16501206e-02 -1.33900624e-02
      -6.30731555e-03 -8.75432696e-03 -9.74130165e-03 -1.20574506e-02
      -8.65027457e-02 -9.84917358e-02 -1.14005078e-02 -2.92887446e-02
      -1.62436739e-02 -4.68764007e-02 -3.05354372e-02 -7.23997643e-03
      -2.22985502e-02 -2.06825268e-02 -1.38336020e-02 -6.35832129e-03
      -8.56434274e-03 -9.50782932e-03 -1.15664843e-02 -7.60049745e-02
      -9.88747105e-02 -7.16409925e-03 -2.97651831e-02 -1.54881123e-02
      -4.41997163e-02 -3.13597880e-02 -6.97722984e-03 -2.16226988e-02
      -1.93733275e-02 -1.42083457e-02 -6.38649892e-03 -8.31400696e-03
      -9.16587282e-03 -1.08732115e-02 -6.47627339e-02 -9.96402130e-02
      -1.99023867e-03 -3.03820502e-02 -1.45393210e-02 -4.16527167e-02
      -3.23004164e-02 -6.66043721e-03 -2.10187715e-02 -1.83649287e-02
      -1.46055399e-02 -6.40589884e-03 -8.08276236e-03 -8.92057363e-03
      -1.04515525e-02 -5.37036248e-02 -1.00593232e-01 3.68127599e-03
      -3.09107974e-02 -1.35148838e-02 -3.89735252e-02 -3.31735685e-02
      -6.31747767e-03 -2.04222556e-02 -1.73057020e-02 -1.49306580e-02
      -6.41401438e-03 -7.85872154e-03 -8.68017040e-03 -1.00242635e-02
      -4.26271148e-02 -1.01862162e-01 1.25748236e-02 -3.13794985e-02
      -1.15053346e-02 -3.52192447e-02 -3.40140164e-02 -5.67941181e-03
      -1.95222460e-02 -1.57693829e-02 -1.51952729e-02 -6.32086489e-03
      -7.54946005e-03 -8.31063464e-03 -9.32927057e-03 -3.00464313e-02
      -1.02746934e-01 2.23701522e-02 -3.15060318e-02 -9.23764613e-03
      -3.09474692e-02 -3.47495042e-02 -4.93267970e-03 -1.85009316e-02
      -1.39819961e-02 -1.53863514e-02 -6.18747342e-03 -7.19881710e-03
      -7.88124185e-03 -8.51470605e-03 -1.52801052e-02 -1.02990650e-01
      3.38873006e-02 -3.12594362e-02 -6.39240490e-03 -2.58571580e-02
      -3.53944823e-02 -3.97440651e-03 -1.72427725e-02 -1.18168453e-02
      -1.55195501e-02 -5.98255033e-03 -6.76746713e-03 -7.34647457e-03
      -7.51981512e-03 -5.26776211e-03 -1.03986867e-01 4.42818142e-02
      -3.13160978e-02 -3.86776985e-03 -2.06610058e-02 -3.59960273e-02
      -3.20167560e-03 -1.59655195e-02 -9.45076253e-03 -1.56441461e-02
      -5.81292203e-03 -6.36507384e-03 -6.75869454e-03 -6.38863584e-03
      4.23369231e-03 -1.04722045e-01 5.39942198e-02 -3.10914479e-02
      -1.56274997e-03 -1.53941168e-02 -3.64142619e-02 -2.51332833e-03
      -1.47074712e-02 -6.92262175e-03 -1.56702287e-02 -5.65509545e-03
      -5.98098338e-03 -6.14343956e-03 -5.14187524e-03 1.56024555e-02
      -1.05202556e-01 6.38099089e-02 -3.07448935e-02 5.44535753e-04
      -9.75144561e-03 -3.68321575e-02 -1.97290885e-03 -1.34837506e-02
      -4.14858060e-03 -1.56767014e-02 -5.56122139e-03 -5.64530585e-03
      -5.52464649e-03 -3.78011726e-03 2.39413641e-02 -1.06473356e-01
      7.28830621e-02 -3.06021068e-02 2.41163070e-03 -4.18331102e-03
      -3.72171514e-02 -1.51421165e-03 -1.23118227e-02 -1.31151150e-03
      -1.56463217e-02 -5.47019765e-03 -5.33496309e-03 -4.90510184e-03
      -2.35494669e-03 2.60733925e-02 -1.09007403e-01 8.09706748e-02
      -3.10616512e-02 4.13264381e-03 1.05576485e-03 -3.76400203e-02
      -1.15252158e-03 -1.11797852e-02 1.41353870e-03 -1.56566966e-02
      -5.37733966e-03 -5.05627692e-03 -4.29434376e-03 -9.76767740e-04
      2.55232211e-02 -1.12064749e-01 8.75159502e-02 -3.20193656e-02
      5.35259256e-03 5.73662436e-03 -3.82188521e-02 -1.01543253e-03
      -1.02282222e-02 4.04931372e-03 -1.57891326e-02 -5.36994729e-03
      -4.85681882e-03 -3.72415362e-03 4.36674105e-04 2.40990948e-02
      -1.15325391e-01 9.26177502e-02 -3.32028568e-02 6.15100283e-03
      9.65165719e-03 -3.88712063e-02 -1.05099869e-03 -9.48935561e-03
      6.39795884e-03 -1.59793310e-02 -5.41928224e-03 -4.73157642e-03
      -3.22846766e-03 1.76683220e-03 1.56959593e-02 -1.21034600e-01
      9.59680453e-02 -3.54697183e-02 6.24239026e-03 1.29711553e-02
      -3.97948585e-02 -1.37540360e-03 -8.94714426e-03 8.58252961e-03
      -1.62840597e-02 -5.55552915e-03 -4.68793279e-03 -2.77851219e-03
      3.06656351e-03 6.83539594e-03 -1.26600131e-01 9.94008705e-02
      -3.76854055e-02 6.32692967e-03 1.64147280e-02 -4.06765155e-02
      -1.69490941e-03 -8.39995034e-03 1.09140873e-02 -1.65811572e-02
      -5.69095183e-03 -4.64744354e-03 -2.30827346e-03 4.47852258e-03
      1.80774543e-03 -1.29019678e-01 1.05953276e-01 -3.89225632e-02
      7.78210396e-03 2.08649859e-02 -4.11497205e-02 -1.53219351e-03
      -7.37333531e-03 1.33834956e-02 -1.67993829e-02 -5.67369536e-03
      -4.44286410e-03 -1.72044768e-03 5.76741295e-03 -6.93589356e-03
      -1.32493004e-01 1.11313164e-01 -4.05937694e-02 8.87958799e-03
      2.49643326e-02 -4.17368487e-02 -1.47963897e-03 -6.42406847e-03
      1.57880895e-02 -1.70764793e-02 -5.68976253e-03 -4.25957516e-03
      -1.14372803e-03 7.04933191e-03 -1.80500764e-02 -1.36195317e-01
      1.16131194e-01 -4.24414203e-02 9.91694443e-03 2.89119892e-02
      -4.23114970e-02 -1.44969928e-03 -5.46677504e-03 1.81984622e-02
      -1.73725151e-02 -5.70332725e-03 -4.07871185e-03 -5.37313696e-04
      8.34599603e-03 -3.02713346e-02 -1.40201271e-01 1.20693050e-01
      -4.43760045e-02 1.08121270e-02 3.30021530e-02 -4.28862125e-02
      -1.43728964e-03 -4.51004878e-03 2.08490677e-02 -1.76604874e-02
      -5.72228804e-03 -3.89896915e-03 1.07676009e-04 9.83238965e-03
      -4.31317501e-02 -1.44415498e-01 1.24828778e-01 -4.62324247e-02
      1.15654329e-02 3.71448696e-02 -4.34093289e-02 -1.41947332e-03
      -3.56207299e-03 2.36721467e-02 -1.79030988e-02 -5.72940893e-03
      -3.70945758e-03 7.81427836e-04 1.14760119e-02 -5.47603108e-02
      -1.47558242e-01 1.29681155e-01 -4.76296321e-02 1.26803629e-02
      4.16945368e-02 -4.37238105e-02 -1.24750263e-03 -2.45180633e-03
      2.66991612e-02 -1.80675332e-02 -5.67654613e-03 -3.46069783e-03
      1.51909515e-03 1.32350698e-02 -6.52075410e-02 -1.49858430e-01
      1.35215864e-01 -4.87367548e-02 1.41210938e-02 4.67579439e-02
      -4.39024642e-02 -9.42441577e-04 -1.14497554e-03 3.00877355e-02
      -1.81900486e-02 -5.57318190e-03 -3.14393570e-03 2.37539597e-03
      1.52334590e-02 -7.45977387e-02 -1.51584804e-01 1.41361177e-01
      -4.96542677e-02 1.58071052e-02 5.24966381e-02 -4.40109372e-02
      -5.37950487e-04 3.86469008e-04 3.39569971e-02 -1.82934050e-02
      -5.44094015e-03 -2.75415368e-03 3.38336453e-03 1.75611153e-02
      -8.22843462e-02 -1.52975559e-01 1.47085890e-01 -5.03275543e-02
      1.73766501e-02 5.81086576e-02 -4.40589376e-02 -1.34104019e-04
      1.87314709e-03 3.78037505e-02 -1.83521584e-02 -5.30305598e-03
      -2.36289063e-03 4.38056234e-03 1.99136212e-02 -9.07318145e-02
      -1.54853523e-01 1.51271746e-01 -5.11116944e-02 1.84256304e-02
      6.28839880e-02 -4.41480204e-02 1.36664967e-04 3.08889942e-03
      4.12300713e-02 -1.84119958e-02 -5.20262169e-03 -2.04291916e-03
      5.24220522e-03 2.20704544e-02 -9.95694473e-02 -1.56358421e-01
      1.55180037e-01 -5.17939404e-02 1.94949433e-02 6.75481185e-02
      -4.41557169e-02 4.48816310e-04 4.32930375e-03 4.46714200e-02
      -1.84596665e-02 -5.08148363e-03 -1.70227839e-03 6.13190932e-03
      2.42867544e-02 -1.06912635e-01 -1.57060027e-01 1.59451589e-01
      -5.21554872e-02 2.07878910e-02 7.24400282e-02 -4.40380163e-02
      8.70081654e-04 5.69021702e-03 4.83295768e-02 -1.84654240e-02
      -4.91834246e-03 -1.30690471e-03 7.10307341e-03 2.66872235e-02
      -1.08261026e-01 -1.56115055e-01 1.63452953e-01 -5.19086570e-02
      2.20310334e-02 7.63184726e-02 -4.38162982e-02 1.27120933e-03
      6.75793039e-03 5.11041097e-02 -1.84259564e-02 -4.78232466e-03
      -1.00411242e-03 7.81881995e-03 2.84741540e-02 -1.08116984e-01
      -1.54825762e-01 1.67503133e-01 -5.14698215e-02 2.33258624e-02
      8.00351277e-02 -4.35555018e-02 1.72395736e-03 7.81911239e-03
      5.37648983e-02 -1.83606688e-02 -4.63119475e-03 -6.85891835e-04
      8.52823257e-03 3.01891938e-02 -1.08076528e-01 -1.53602943e-01
      1.71214685e-01 -5.10476939e-02 2.45112088e-02 8.35207403e-02
      -4.32970896e-02 2.16059457e-03 8.83575156e-03 5.63297383e-02
      -1.82931311e-02 -4.48938832e-03 -3.72997281e-04 9.22206510e-03
      3.18889879e-02 -1.06912896e-01 -1.52072981e-01 1.75417408e-01
      -5.04760072e-02 2.59120241e-02 8.72838125e-02 -4.30048779e-02
      2.68822489e-03 9.98387486e-03 5.91076650e-02 -1.82076916e-02
      -4.31732321e-03 -6.13753627e-06 1.00092487e-02 3.37449685e-02
      -1.04202494e-01 -1.50328591e-01 1.80219546e-01 -4.97112833e-02
      2.74826474e-02 9.14894193e-02 -4.26870324e-02 3.29567003e-03
      1.12639768e-02 6.22180849e-02 -1.80911534e-02 -4.12185444e-03
      4.14201291e-04 1.08920457e-02 3.58469337e-02 -1.00122340e-01
      -1.48745537e-01 1.84025243e-01 -4.89264354e-02 2.86315586e-02
      9.45140719e-02 -4.24392298e-02 3.77409323e-03 1.21545587e-02
      6.44243211e-02 -1.79797001e-02 -3.98224778e-03 7.18650233e-04
      1.14989178e-02 3.73314768e-02 -9.59941968e-02 -1.47605971e-01
      1.87172636e-01 -4.82138917e-02 2.95169298e-02 9.69549939e-02
      -4.22662012e-02 4.18528682e-03 1.28428489e-02 6.62319884e-02
      -1.78752467e-02 -3.86666344e-03 9.71846108e-04 1.19794887e-02
      3.85677889e-02 -9.20462012e-02 -1.46842197e-01 1.90082401e-01
      -4.77162302e-02 3.02620418e-02 9.91348922e-02 -4.21948656e-02
      4.49603610e-03 1.34268114e-02 6.78173974e-02 -1.78094134e-02
      -3.79288662e-03 1.17222848e-03 1.23920115e-02 3.96415293e-02
      -8.75952914e-02 -1.46304563e-01 1.93144351e-01 -4.72763926e-02
      3.09932176e-02 1.01420298e-01 -4.21874076e-02 4.78934310e-03
      1.40112694e-02 6.94815144e-02 -1.77511182e-02 -3.72954435e-03
      1.36630179e-03 1.28146904e-02 4.07781824e-02 -8.26894194e-02
      -1.46187946e-01 1.95903108e-01 -4.69843931e-02 3.15372758e-02
      1.03453800e-01 -4.22925502e-02 4.98782564e-03 1.44801354e-02
      7.09039569e-02 -1.77135188e-02 -3.70654184e-03 1.50726957e-03
      1.31570809e-02 4.17418070e-02 -7.62008652e-02 -1.45559594e-01
      1.99371517e-01 -4.64163050e-02 3.24028395e-02 1.06039658e-01
      -4.23172973e-02 5.30760270e-03 1.51519282e-02 7.26924241e-02
      -1.76347494e-02 -3.63307889e-03 1.72584062e-03 1.36280488e-02
      4.29468565e-02 -6.87400252e-02 -1.44561246e-01 2.03202993e-01
      -4.56405021e-02 3.34784351e-02 1.08956486e-01 -4.22719344e-02
      5.70727466e-03 1.59568284e-02 7.47254118e-02 -1.75218713e-02
      -3.52040771e-03 1.99817726e-03 1.41891455e-02 4.43318039e-02
      -6.45171255e-02 -1.44232064e-01 2.05577463e-01 -4.52108234e-02
      3.42139304e-02 1.10945880e-01 -4.22799923e-02 5.95923001e-03
      1.65377837e-02 7.61341229e-02 -1.74501985e-02 -3.43850232e-03
      2.19011051e-03 1.46023817e-02 4.53096367e-02 -6.16893321e-02
      -1.44391894e-01 2.07114160e-01 -4.49780524e-02 3.47028449e-02
      1.12434864e-01 -4.23531048e-02 6.11838885e-03 1.69704538e-02
      7.72355720e-02 -1.74030364e-02 -3.38140293e-03 2.33364222e-03
      1.49330916e-02 4.61068936e-02 -6.13369271e-02 -1.45908713e-01
      2.06567764e-01 -4.54082079e-02 3.42993252e-02 1.12448327e-01
      -4.26919609e-02 5.88329230e-03 1.68226734e-02 7.72897899e-02
      -1.74639802e-02 -3.47171724e-03 2.24544154e-03 1.48915993e-02
      4.62003388e-02 -6.04169369e-02 -1.47010118e-01 2.06211179e-01
      -4.56567816e-02 3.40909399e-02 1.12639211e-01 -4.29495163e-02
      5.71724819e-03 1.67701226e-02 7.74648115e-02 -1.74986105e-02
      -3.52084218e-03 2.19632103e-03 1.49066010e-02 4.63716127e-02
      -5.87730780e-02 -1.47529647e-01 2.06205159e-01 -4.56723161e-02
      3.41493934e-02 1.13123067e-01 -4.30959128e-02 5.64071070e-03
      1.68499630e-02 7.78378472e-02 -1.75010953e-02 -3.51983728e-03
      2.19687866e-03 1.49986381e-02 4.66683730e-02 -5.84944636e-02
      -1.48128554e-01 2.05793425e-01 -4.58171926e-02 3.41322608e-02
      1.13431185e-01 -4.32317741e-02 5.51184453e-03 1.68855079e-02
      7.81277046e-02 -1.75224263e-02 -3.52859823e-03 2.17499887e-03
      1.50674125e-02 4.69284318e-02 -2.07979918e+00 8.47635195e-02
      5.88175505e-02 2.34712455e-02 2.52386518e-02 3.44085246e-02
      7.76474411e-03 8.81812423e-02 5.30624054e-02 4.10487913e-02
      -2.40881592e-02 2.29980908e-02 3.07074059e-02 3.16036865e-02
      7.43189678e-02 5.76353595e-02 1.07721668e-02 5.18237464e-02
      3.00326683e-02 4.98586707e-03 5.85144833e-02 5.06080426e-02
      3.55014652e-02 9.07805711e-02 1.29959077e-01 -1.38014220e-02
      5.41165173e-02 7.29460269e-02 -1.23477895e-02 6.94372207e-02
      7.11782575e-02 -1.05074607e-01 -2.77325255e-03 4.29794230e-02
      -6.71280697e-02 2.44738273e-02 7.85217956e-02 -6.03439733e-02
      7.79616237e-02 1.04176901e-01 -3.22276889e-03 8.59794021e-02
      5.89185171e-02 2.12236568e-01 1.82311311e-01 8.77369940e-02
      2.42841989e-01 1.94409192e-01 1.39844909e-01 2.63508886e-01
      1.84189618e-01 1.33121401e-01 2.97801226e-01 2.10567206e-01
      1.30935401e-01 3.27122182e-01 2.49304339e-01 1.68253526e-01
      1.23417318e-01 1.36067301e-01 1.23677358e-01 1.22448556e-01
      1.18986353e-01 1.07426748e-01 1.52070105e-01 1.26861081e-01
      1.25853091e-01 5.28623350e-02 7.97696710e-02 1.22990340e-01
      1.15248248e-01 1.18263327e-01 1.86621234e-01 1.29863352e-01
      1.05286837e-01 2.35579863e-01 1.34484649e-01 9.85892117e-02
      1.68065101e-01 2.15501010e-01 1.53909102e-01 1.52393833e-01
      1.26671076e-01 9.77575630e-02 8.06036890e-02 1.35976195e-01
      1.19594201e-01 5.89148924e-02 1.41695395e-01 1.33702070e-01
      4.16806042e-02 1.85707495e-01 1.73364952e-01 5.71656227e-02
      1.94884643e-01 1.65210947e-01 4.25082855e-02 2.18846545e-01
      1.39721125e-01 6.71211630e-02 1.42187610e-01 1.12539649e-01
      7.90956095e-02 1.24638274e-01 1.12760045e-01 7.33047128e-02
      1.11368880e-01 1.32100359e-01 8.70361477e-02 5.78869097e-02
      1.03421018e-01 5.86990863e-02 9.08443630e-02 1.53352335e-01
      6.90086037e-02 8.32388699e-02 1.88059390e-01 4.18148041e-02
      -4.15446889e-03 9.57669169e-02 3.10358852e-02 -1.58006102e-01
      -2.04953663e-02 2.80163307e-02 -1.79290339e-01 -5.02936952e-02
      1.06112268e-04 -6.76031485e-02 1.12473657e-02 2.19888650e-02
      1.63107682e-02 4.50675599e-02 -5.01398928e-04 5.72657660e-02
      7.83537701e-02 -3.04892287e-03 2.99906015e-01 2.46182457e-01
      4.65450957e-02 3.52031350e-01 1.99370816e-01 2.42156927e-02
      4.53197658e-01 2.23797634e-01 4.03421521e-02 3.85136306e-01
      1.97708905e-01 6.10115901e-02 4.23775554e-01 2.43200004e-01
      8.90895575e-02 3.33802521e-01 1.67577818e-01 3.58316079e-02
      2.21930116e-01 1.10797711e-01 1.09722530e-02 1.77349880e-01
      1.29399687e-01 1.42111145e-02 1.18556842e-01 7.38120452e-02
      -2.40732506e-02 1.89439461e-01 1.38461247e-01 6.75646868e-03
      1.34975567e-01 9.91775244e-02 1.27372555e-02 1.29134506e-01
      1.07880384e-01 2.33886894e-02 1.41253415e-02 1.12972394e-01
      9.81300473e-02 -9.40247402e-02 -3.96760320e-03 3.62434126e-02
      -9.00263041e-02 1.46359140e-02 3.16635966e-02 -1.70061439e-01
      -1.29677635e-02 -1.12185199e-02 -7.43323788e-02 2.19055545e-02
      7.76855648e-03 1.90694034e-02 8.17665085e-02 -2.70510791e-03
      3.69329862e-02 7.59247616e-02 -6.07337756e-03 2.32429653e-01
      1.77679151e-01 3.21058296e-02 2.13640004e-01 1.16107032e-01
      1.71973556e-02 2.44357660e-01 1.43865362e-01 3.53847444e-02
      1.93947017e-01 1.31705135e-01 1.10412100e-02 2.01613873e-01
      1.40251666e-01 1.40016293e-02 1.54333264e-01 1.34189278e-01
      2.01507788e-02 2.05375589e-02 4.55407351e-02 -8.33197217e-03
      2.50973962e-02 4.59281020e-02 -4.70070634e-04 -9.95495077e-03
      4.25984673e-02 1.43731209e-02 1.18288184e-02 5.88365793e-02
      2.79755313e-02 -1.14720516e-01 -5.07115275e-02 1.68342758e-02
      -3.54375206e-02 -3.50439409e-03 2.48165075e-02 9.06633660e-02
      8.98236856e-02 3.58938836e-02 8.18554610e-02 6.84818327e-02
      -7.17420410e-03 1.66642874e-01 1.18446223e-01 4.15094476e-03
      1.85405806e-01 1.33560464e-01 -9.89208464e-03 1.62383199e-01
      1.39058366e-01 6.79349620e-03 1.58995077e-01 1.29273281e-01
      6.85602101e-03 1.05862685e-01 9.49624330e-02 4.65107709e-03
      -3.08777988e-02 1.25094820e-02 1.37101319e-02 -1.36495128e-01
      -1.57768205e-02 -1.12120816e-02 -2.71111615e-02 4.48570400e-02
      1.85687821e-02 -3.53566520e-02 4.49695736e-02 1.78846586e-02
      -1.58857089e-02 7.37697184e-02 3.72824296e-02 5.72024100e-02
      9.63386819e-02 7.73266405e-02 3.50371264e-02 5.31116538e-02
      5.06995358e-02 1.43895391e-02 6.03581332e-02 1.44935800e-02
      -7.48777092e-02 -1.01547362e-02 -8.97383143e-04 1.08954571e-02
      4.32419777e-02 4.37463485e-02 9.01712179e-02 6.06991388e-02
      6.28590072e-03 1.14114188e-01 7.08809197e-02 6.33530319e-03
      1.77094474e-01 1.27669692e-01 1.03857853e-02 2.30103895e-01
      1.13039598e-01 2.08476391e-02 3.05906117e-01 1.80541858e-01
      6.78856298e-02 2.53725350e-01 1.31640047e-01 8.78146384e-03
      2.85136610e-01 1.59250751e-01 2.66859662e-02 2.17311263e-01
      1.49045691e-01 1.06984533e-01 1.34872854e-01 8.78639221e-02
      6.91568628e-02 1.36813700e-01 8.34291205e-02 6.41855747e-02
      2.07861234e-02 3.46973538e-02 3.90724503e-02 5.35601564e-03
      5.04636802e-02 5.83668537e-02 -9.23637301e-02 -1.03067290e-02
      3.86437550e-02 -7.70045593e-02 -1.68139040e-02 5.00653163e-02
      -2.01879796e-02 2.25538630e-02 1.88815758e-01 -5.97863272e-02
      -8.63994844e-03 1.59271419e-01 -6.85340092e-02 1.71562973e-02
      1.61562681e-01 4.50512990e-02 6.33785278e-02 1.63146168e-01
      8.67738649e-02 8.96413550e-02 1.76605821e-01 -9.92437545e-03
      4.24454883e-02 1.90041780e-01 6.78361719e-03 5.27468883e-02
      1.77889615e-01 1.34621352e-01 1.21190138e-01 2.21247509e-01
      -4.07482088e-02 2.52967980e-02 1.03239939e-01 -3.04761082e-02
      2.30645705e-02 6.80723861e-02 8.94432440e-02 8.12172890e-02
      9.40981209e-02 7.54631013e-02 6.70949072e-02 1.05954304e-01
      -4.96364273e-02 1.57372970e-02 9.28927287e-02 -5.38522229e-02
      -5.85162314e-03 1.01259373e-01 -4.34561968e-02 -4.64950781e-03
      1.00831829e-01 -9.53574479e-02 -2.00986378e-02 7.69169927e-02
      -6.47246689e-02 -1.13980118e-02 9.10920948e-02 -8.38346034e-02
      -3.35181169e-02 1.18287228e-01 -1.38230175e-01 -5.14117889e-02
      9.80095491e-02 -1.05916038e-01 -2.15502325e-02 8.79290253e-02
      -1.19336471e-01 -2.83865500e-02 6.38501123e-02 -5.99067211e-02
      -9.22219828e-03 7.17906207e-02 -1.27041578e-01 -2.45756637e-02
      4.45879623e-02 -1.60830185e-01 -2.73056254e-02 2.61321031e-02
      -1.57707736e-01 -3.17450985e-02 2.89939647e-03 -2.38217250e-01
      -6.93786889e-02 -1.25267319e-02 -2.12126642e-01 -6.65935799e-02
      5.98641159e-03 -2.43898019e-01 -6.96062148e-02 -9.82998172e-04
      -2.34916717e-01 -7.14354366e-02 1.04853185e-02 -4.19108540e-01
      -1.38315618e-01 -3.60988788e-02 -3.90902251e-01 -1.43565983e-01
      -2.38699093e-02 -3.28117460e-01 -1.14651732e-01 -2.88696103e-02
      -3.78339469e-01 -1.27026752e-01 -4.63798679e-02 -3.32350254e-01
      -1.04057662e-01 -4.51595709e-02 -3.61307502e-01 -1.15141854e-01
      -4.25680205e-02 -2.24001929e-01 -8.70282352e-02 -1.41799031e-02
      -1.85958937e-01 -6.82822913e-02 -4.74240556e-02 -1.56079680e-01
      -5.60434721e-02 -4.71252538e-02 -1.03186272e-01 -2.26041898e-02
      -4.88838740e-02 -1.36874974e-01 -2.71358564e-02 -5.57699166e-02
      2.30296087e-02 7.46690016e-03 -3.04678287e-02 -1.08320918e-02
      1.05679224e-04 -2.83445623e-02</data></learnt_thetas>
  <n_labels type_id="opencv-matrix">
    <rows>2</rows>
    <cols>1</cols>
    <dt>i</dt>
    <data>
      0 1</data></n_labels>
  <o_labels type_id="opencv-matrix">
    <rows>2</rows>
    <cols>1</cols>
    <dt>i</dt>
    <data>
      0 1</data></o_labels></opencv_ml_lr>
</opencv_storage>
