<?xml version="1.0"?>
<opencv_storage>
<opencv_ml_lr>
  <format>3</format>
  <classifier>"Logisitic Regression Classifier"</classifier>
  <alpha>10000.</alpha>
  <iterations>36000</iterations>
  <norm>1</norm>
  <train_method>0</train_method>
  <learnt_thetas type_id="opencv-matrix">
    <rows>1</rows>
    <cols>599</cols>
    <dt>f</dt>
    <data>
      -5.66929531e+00 -3.42445374e+00 -2.58845544e+00 2.67484695e-01
      6.01225257e-01 5.62012136e-01 3.52995306e-01 5.94424486e-01
      5.98236322e-01 7.92239189e-01 6.31967962e-01 -2.75678307e-01
      5.01262188e-01 4.41905141e-01 1.32443535e+00 1.34374011e+00
      1.47604239e+00 1.65048456e+00 1.53090465e+00 1.19304681e+00
      9.89883184e-01 1.32196546e+00 9.76288021e-01 1.30050099e+00
      1.46320271e+00 1.93506479e+00 1.68179941e+00 4.31308806e-01
      7.64769197e-01 1.09646523e+00 8.05744052e-01 8.02427411e-01
      9.19559300e-01 6.40111268e-01 6.36583090e-01 5.50563574e-01
      5.64415097e-01 5.44110000e-01 9.31870520e-01 1.36087465e+00
      5.94653904e-01 3.32794338e-01 1.53189504e+00 1.37548387e+00
      1.01274860e+00 5.70794702e-01 9.20353711e-01 1.60507858e+00
      5.50616682e-01 9.98010755e-01 4.60636854e-01 5.95703781e-01
      1.24245286e+00 8.88686478e-01 1.44933021e+00 9.81312096e-01
      5.62972248e-01 9.20574963e-01 1.10541262e-01 1.13711083e+00
      1.90142870e-01 4.54247117e-01 8.42633963e-01 4.03895557e-01
      1.71108699e+00 1.12393260e+00 1.38795578e+00 1.33603168e+00
      1.41109228e+00 1.34071052e+00 7.44578719e-01 1.14136124e+00
      1.21923316e+00 1.24710870e+00 7.25379825e-01 9.69240487e-01
      8.62147987e-01 1.49633396e+00 1.58695269e+00 1.15395331e+00
      1.04810727e+00 1.93045485e+00 1.53218770e+00 9.21260715e-01
      7.80790031e-01 1.40477252e+00 1.70338428e+00 2.05439734e+00
      1.36832213e+00 1.55348599e+00 1.32063377e+00 5.99677265e-01
      1.99281263e+00 1.49755847e+00 1.15952313e+00 6.91650391e-01
      8.05664539e-01 1.57534301e+00 3.94254178e-01 1.41985321e+00
      2.30246391e-02 3.40360731e-01 1.47301459e+00 4.87589389e-01
      1.67851245e+00 1.12707242e-01 8.05726290e-01 1.13639140e+00
      1.14673281e+00 2.45916986e+00 1.22527158e+00 1.85262156e+00
      1.53127348e+00 4.39983368e-01 7.21213579e-01 1.16700423e+00
      3.24196601e+00 1.75977981e+00 1.50361776e+00 1.21892166e+00
      1.66811454e+00 2.07895756e+00 1.53397012e+00 2.59059119e+00
      1.95305884e+00 5.95512152e-01 1.04835021e+00 2.16563654e+00
      2.69264746e+00 1.27646565e+00 2.41106868e+00 1.43362916e+00
      1.64824712e+00 1.26271987e+00 5.19124866e-01 1.19875336e+00
      6.01382852e-01 1.09732592e+00 3.98133248e-01 6.79060400e-01
      6.39135003e-01 3.09124261e-01 1.49099112e+00 1.14438727e-01
      1.07252204e+00 4.44018275e-01 -2.63208002e-01 5.02443552e-01
      -7.15299666e-01 -8.20171684e-02 -2.66449809e+00 -2.48403716e+00
      5.65950572e-01 5.36712348e-01 3.22183073e-01 3.40059817e-01
      4.50151384e-01 2.97746420e-01 9.15283933e-02 2.19307289e-01
      -1.42405838e-01 1.31065875e-01 3.62178445e-01 4.45330769e-01
      2.30879501e-01 -2.77253687e-01 2.37135634e-01 -2.37214863e-01
      2.38890648e-01 1.45222574e-01 -2.74508655e-01 9.04812589e-02
      -3.34735096e-01 1.21275038e-01 -3.42429318e-02 -8.00346136e-02
      4.07293923e-02 -4.99322891e-01 5.11250347e-02 -2.70766824e-01
      3.04734800e-02 9.65563133e-02 -2.37845853e-01 4.69233021e-02
      -5.14933288e-01 -3.48356813e-02 -1.69520617e-01 -1.18805572e-01
      -2.70208180e-01 -7.96222746e-01 -2.93520004e-01 -4.12932813e-01
      1.97212219e-01 -3.07664663e-01 -4.25795674e-01 -1.66360885e-01
      -5.38438916e-01 -2.16765240e-01 -4.87827092e-01 -2.08587974e-01
      3.53236124e-02 -4.46919978e-01 -9.39201415e-02 -6.82364643e-01
      -3.85315180e-01 -4.65113938e-01 -1.94272995e-01 -4.00953382e-01
      -6.60297215e-01 -8.74168098e-01 -1.01473308e+00 -5.48703790e-01
      -8.20603073e-01 -1.15260863e+00 -8.00756514e-01 -1.23908424e+00
      -2.88851172e-01 -7.99941063e-01 -2.37269104e-01 -3.26419801e-01
      -1.04295027e+00 -6.66516185e-01 -1.49930632e+00 -9.19811308e-01
      -7.82840073e-01 -9.27442849e-01 -7.50075579e-01 -1.43299937e+00
      -1.00523102e+00 -1.37962580e+00 -5.13549924e-01 -4.64930683e-01
      -1.00599658e+00 -7.11232007e-01 -1.56128764e+00 -7.61513472e-01
      -1.16520262e+00 -1.10433710e+00 -5.78670800e-01 -1.40886736e+00
      -7.02212334e-01 -9.98309553e-01 -1.40432596e-01 -2.96887636e-01
      -1.26607195e-01 -8.19624186e-01 -1.45329392e+00 -9.41513419e-01
      -8.85565162e-01 -1.87607214e-01 -6.34005606e-01 -1.28545356e+00
      -6.43060565e-01 -1.36332273e+00 -9.50196147e-01 -9.39034283e-01
      -7.47180700e-01 -6.64532125e-01 -1.28841257e+00 -7.83821166e-01
      -1.13551819e+00 -2.13401616e-01 -5.95036745e-01 -7.39982367e-01
      -8.37130308e-01 -1.53567612e+00 -7.43021369e-01 -1.22573578e+00
      -7.46896982e-01 -7.69957483e-01 -1.25825226e+00 -8.54310513e-01
      -1.59766674e+00 -5.49348235e-01 -1.16350091e+00 -9.59656715e-01
      -4.57030982e-01 -1.49031866e+00 -3.07127029e-01 -9.67125833e-01
      -3.43005210e-02 -5.67359269e-01 -8.43119502e-01 -7.36859977e-01
      -1.20540857e+00 -7.11428046e-01 -6.10573292e-01 -3.69297683e-01
      -3.05698842e-01 -7.99042583e-01 -6.91214263e-01 -7.70943642e-01
      -2.18794450e-01 -8.79121363e-01 -8.71540129e-01 -6.30631804e-01
      -8.23527515e-01 -1.48380399e-01 -4.46806639e-01 -4.25873816e-01
      4.34503183e-02 -2.25529745e-02 -4.14867066e-02 -3.40609029e-02
      -1.90752260e-02 -4.72599594e-03 -5.90821030e-03 -2.47895694e-03
      5.15740924e-03 1.36027392e-02 1.40844192e-02 -1.76370908e-02
      -8.54918957e-02 -1.49356350e-01 -2.56279022e-01 -3.18893164e-01
      -3.28877002e-01 -3.38448197e-01 -3.40928435e-01 -3.96438211e-01
      -3.87218058e-01 -3.59587669e-01 -3.67229551e-01 -3.24503511e-01
      -2.43937880e-01 -1.25486150e-01 -9.03279483e-02 -3.74363065e-02
      2.07130313e-02 3.85533758e-02 5.39460704e-02 3.94939482e-02
      4.91228737e-02 8.04900974e-02 1.38856530e-01 2.23101974e-01
      1.67554498e-01 7.18557909e-02 3.01616639e-02 2.14913469e-02
      1.01505116e-01 1.14681512e-01 9.24548358e-02 1.21518835e-01
      1.32074580e-01 1.21342987e-01 9.19983983e-02 7.29488060e-02
      6.89164475e-02 2.45389491e-02 9.38959941e-02 1.61089465e-01
      2.61588186e-01 3.51145715e-01 4.25380260e-01 5.02711892e-01
      5.16958654e-01 4.99639958e-01 4.83584732e-01 4.20229226e-01
      3.67730260e-01 3.34033608e-01 3.36886406e-01 3.52966338e-01
      4.40013558e-01 5.11163950e-01 5.49733937e-01 5.36540329e-01
      4.67978567e-01 4.52877492e-01 4.39595342e-01 3.65396798e-01
      3.42729330e-01 3.66595954e-01 4.22340870e-01 4.63907391e-01
      5.03446341e-01 5.43426156e-01 5.64599812e-01 5.50963521e-01
      5.21399796e-01 4.36995625e-01 3.88243794e-01 4.30792898e-01
      4.19095546e-01 3.80368084e-01 4.22067583e-01 4.81258869e-01
      4.70891058e-01 4.67716932e-01 5.14862955e-01 5.47699571e-01
      5.85016906e-01 5.45558035e-01 4.59554672e-01 4.91027862e-01
      5.38070321e-01 5.98838210e-01 6.49834216e-01 5.87125719e-01
      5.75766146e-01 5.08459151e-01 4.88209635e-01 4.71196979e-01
      4.23501223e-01 4.63080794e-01 4.33137119e-01 4.18839693e-01
      4.08391029e-01 4.39853996e-01 4.62536752e-01 4.57801849e-01
      5.56391895e-01 5.73912561e-01 5.19148529e-01 5.80292046e-01
      6.33276284e-01 6.94537282e-01 7.24540293e-01 7.23833799e-01
      6.85734630e-01 6.42702162e-01 5.64319372e-01 4.81298596e-01
      4.53151077e-01 4.17637736e-01 3.41950476e-01 2.58302182e-01
      1.70377076e-01 1.12015262e-01 1.30412504e-01 1.82558984e-01
      1.86956540e-01 1.43764198e-01 7.62853995e-02 5.16931191e-02
      4.91459630e-02 -7.61745404e-03 -5.89277260e-02 -1.63230971e-01
      -2.33402938e-01 -3.04928929e-01 -3.53740752e-01 -3.16240400e-01
      -2.83886075e-01 -2.32903421e-01 -2.54357606e-01 -3.33731651e-01
      -3.35400075e-01 -1.36876777e-01 -1.53752491e-01 -2.51575410e-01
      -3.16837788e-01 -3.50815475e-01 -3.55253190e-01 -3.88748556e-01
      -3.98317188e-01 -3.92297894e-01 -3.78005624e-01 -3.99286687e-01
      -4.14774239e-01 -4.03226733e-01 -4.29341376e-01 -4.08214867e-01
      -4.00575995e-01 -3.85959804e-01 -3.59216988e-01 -3.93992931e-01
      -3.97273421e-01 -3.90344024e-01 -3.65236133e-01 -3.50386977e-01
      -3.34372759e-01 -3.10125560e-01 -3.66902351e-01 -3.70744139e-01
      -3.75100076e-01 -3.58246773e-01 -3.56375307e-01 -3.79424185e-01
      -3.62275720e-01 -3.88341755e-01 -3.65252733e-01 -3.81976724e-01
      -3.81770849e-01 -3.68874341e-01 -3.74636203e-01 -3.38901609e-01
      -3.56812924e-01 -3.49871486e-01 -3.65299165e-01 -4.10248756e-01
      -4.21105921e-01 -4.71830755e-01 -4.58175868e-01 -4.78065103e-01
      -4.60353285e-01 -4.52986658e-01 -4.78956848e-01 -4.43098247e-01
      -4.87928450e-01 -4.65504766e-01 -4.80053902e-01 -4.85033125e-01
      -4.53124404e-01 -4.69322354e-01 -4.28220868e-01 -4.43744719e-01
      -4.17188853e-01 -3.82428050e-01 -3.98797989e-01 -3.92229617e-01
      -3.99858266e-01 -3.71427447e-01 -3.92816395e-01 -4.26823765e-01
      -4.40512538e-01 -4.84033495e-01 -4.76427019e-01 -5.22207320e-01
      -5.23094594e-01 -5.22327065e-01 -5.15367270e-01 -5.08526444e-01
      -4.93563235e-01 -4.55507129e-01 -5.00423551e-01 -5.03832221e-01
      -4.85398889e-01 -4.89009202e-01 -4.72227275e-01 -4.91223007e-01
      -4.63435322e-01 -4.53584522e-01 -4.41372693e-01 -4.38612342e-01
      -4.57700372e-01 -4.60518330e-01 -5.25878727e-01 -5.33780336e-01
      -5.39962828e-01 -5.48939943e-01 -5.02831459e-01 -5.40462077e-01
      -5.02581060e-01 -4.98245865e-01 -4.83053178e-01 -4.80399936e-01
      -4.75207388e-01 -4.05308872e-01 -4.57806319e-01 -4.63927031e-01
      -4.82128620e-01 -4.89015281e-01 -4.86956954e-01 -4.96673018e-01
      -4.59355205e-01 -4.80512738e-01 -4.84797299e-01 -4.91761267e-01
      -5.10419965e-01 -4.54638958e-01 -4.86076981e-01 -4.96541947e-01
      -5.36960602e-01 -5.39430022e-01 -4.80159163e-01 -4.93990749e-01
      -4.83336926e-01 -4.85777944e-01 -4.53479618e-01 -4.05324966e-01
      -4.05516565e-01 -4.16315466e-01 -4.41757560e-01 -4.43073720e-01
      -4.61203575e-01 -4.46237594e-01 -4.16001946e-01 -4.27902102e-01
      -4.18653250e-01 -4.24014717e-01 -3.92782122e-01 -3.95413995e-01
      -3.86982799e-01 -3.66845638e-01 -3.58675480e-01 -3.36268455e-01
      -3.50993514e-01 -3.54227036e-01 -3.81221205e-01 -3.64980042e-01
      -3.02928388e-01 -2.97017425e-01 -3.13708425e-01 -3.33987832e-01
      -3.52183610e-01 -3.43775392e-01 -3.35991472e-01</data></learnt_thetas>
  <n_labels type_id="opencv-matrix">
    <rows>2</rows>
    <cols>1</cols>
    <dt>i</dt>
    <data>
      0 1</data></n_labels>
  <o_labels type_id="opencv-matrix">
    <rows>2</rows>
    <cols>1</cols>
    <dt>i</dt>
    <data>
      0 1</data></o_labels></opencv_ml_lr>
</opencv_storage>
